<?xml version="1.0"?>
<MethodSetup Method="MLP::Pion_Upstream_TMVA">
  <GeneralInfo>
    <Info name="TMVA Release" value="4.2.0 [262656]"/>
    <Info name="ROOT Release" value="6.02/01 [393729]"/>
    <Info name="Creator" value="jonesc"/>
    <Info name="Date" value="Sun Feb 14 17:25:50 2016"/>
    <Info name="Host" value="Linux lcgapp-slc6-physical1.cern.ch 2.6.32-431.29.2.el6.x86_64 #1 SMP Wed Sep 10 11:13:12 CEST 2014 x86_64 x86_64 x86_64 GNU/Linux"/>
    <Info name="Dir" value="/var/pcfst/r03/lhcb/jonesc/ANNPID/results/MC12/TrainMixture/TrainPhysTks-EvalPhysTks-ReweightRICH2/GhostAccFrac1.0/ProtonAccFrac1.0/KaonAccFrac1.0/TMVA-Run2-NoTkLikCDVelodEdx/MLP/Norm/ScaleF1.2/BP/NCycles750/CE/tanh/CVTest15/CVImp1e-16/NotUseRegulator/Pion/Upstream"/>
    <Info name="Training events" value="2700000"/>
    <Info name="TrainingTime" value="2.37387045e+04"/>
    <Info name="AnalysisType" value="Classification"/>
  </GeneralInfo>
  <Options>
    <Option name="NCycles" modified="Yes">750</Option>
    <Option name="HiddenLayers" modified="Yes">20</Option>
    <Option name="NeuronType" modified="Yes">tanh</Option>
    <Option name="RandomSeed" modified="No">1</Option>
    <Option name="EstimatorType" modified="Yes">CE</Option>
    <Option name="NeuronInputType" modified="No">sum</Option>
    <Option name="V" modified="Yes">True</Option>
    <Option name="VerbosityLevel" modified="No">Verbose</Option>
    <Option name="VarTransform" modified="Yes">Norm</Option>
    <Option name="H" modified="Yes">True</Option>
    <Option name="CreateMVAPdfs" modified="No">False</Option>
    <Option name="IgnoreNegWeightsInTraining" modified="No">False</Option>
    <Option name="TrainingMethod" modified="Yes">BP</Option>
    <Option name="LearningRate" modified="No">2.000000e-02</Option>
    <Option name="DecayRate" modified="No">1.000000e-02</Option>
    <Option name="TestRate" modified="No">10</Option>
    <Option name="EpochMonitoring" modified="Yes">True</Option>
    <Option name="Sampling" modified="No">1.000000e+00</Option>
    <Option name="SamplingEpoch" modified="No">1.000000e+00</Option>
    <Option name="SamplingImportance" modified="No">1.000000e+00</Option>
    <Option name="SamplingTraining" modified="No">True</Option>
    <Option name="SamplingTesting" modified="No">False</Option>
    <Option name="ResetStep" modified="No">50</Option>
    <Option name="Tau" modified="No">3.000000e+00</Option>
    <Option name="BPMode" modified="No">sequential</Option>
    <Option name="BatchSize" modified="No">-1</Option>
    <Option name="ConvergenceImprove" modified="Yes">1.000000e-16</Option>
    <Option name="ConvergenceTests" modified="Yes">15</Option>
    <Option name="UseRegulator" modified="Yes">False</Option>
    <Option name="UpdateLimit" modified="No">10000</Option>
    <Option name="CalculateErrors" modified="No">False</Option>
    <Option name="WeightRange" modified="No">1.000000e+00</Option>
  </Options>
  <Variables NVar="17">
    <Variable VarIndex="0" Expression="TrackP" Label="TrackP" Title="TrackP" Unit="" Internal="TrackP" Type="F" Min="1.47869995e+02" Max="4.76026750e+06"/>
    <Variable VarIndex="1" Expression="TrackPt" Label="TrackPt" Title="TrackPt" Unit="" Internal="TrackPt" Type="F" Min="3.60198408e-01" Max="9.78077500e+05"/>
    <Variable VarIndex="2" Expression="TrackChi2PerDof" Label="TrackChi2PerDof" Title="TrackChi2PerDof" Unit="" Internal="TrackChi2PerDof" Type="F" Min="2.97480519e-03" Max="2.99983907e+00"/>
    <Variable VarIndex="3" Expression="TrackNumDof" Label="TrackNumDof" Title="TrackNumDof" Unit="" Internal="TrackNumDof" Type="I" Min="4.00000000e+00" Max="2.80000000e+01"/>
    <Variable VarIndex="4" Expression="TrackGhostProbability" Label="TrackGhostProbability" Title="TrackGhostProbability" Unit="" Internal="TrackGhostProbability" Type="F" Min="3.91823016e-02" Max="1.00000000e+00"/>
    <Variable VarIndex="5" Expression="TrackFitVeloChi2" Label="TrackFitVeloChi2" Title="TrackFitVeloChi2" Unit="" Internal="TrackFitVeloChi2" Type="F" Min="8.64220681e-07" Max="5.39077644e+01"/>
    <Variable VarIndex="6" Expression="TrackFitVeloNDoF" Label="TrackFitVeloNDoF" Title="TrackFitVeloNDoF" Unit="" Internal="TrackFitVeloNDoF" Type="I" Min="1.00000000e+00" Max="2.40000000e+01"/>
    <Variable VarIndex="7" Expression="RichUsedR1Gas" Label="RichUsedR1Gas" Title="RichUsedR1Gas" Unit="" Internal="RichUsedR1Gas" Type="I" Min="0.00000000e+00" Max="1.00000000e+00"/>
    <Variable VarIndex="8" Expression="RichAbovePiThres" Label="RichAbovePiThres" Title="RichAbovePiThres" Unit="" Internal="RichAbovePiThres" Type="I" Min="0.00000000e+00" Max="1.00000000e+00"/>
    <Variable VarIndex="9" Expression="RichAboveKaThres" Label="RichAboveKaThres" Title="RichAboveKaThres" Unit="" Internal="RichAboveKaThres" Type="I" Min="0.00000000e+00" Max="1.00000000e+00"/>
    <Variable VarIndex="10" Expression="RichDLLe" Label="RichDLLe" Title="RichDLLe" Unit="" Internal="RichDLLe" Type="F" Min="-9.99000000e+02" Max="1.18707100e+02"/>
    <Variable VarIndex="11" Expression="RichDLLmu" Label="RichDLLmu" Title="RichDLLmu" Unit="" Internal="RichDLLmu" Type="F" Min="-9.99000000e+02" Max="8.10063019e+01"/>
    <Variable VarIndex="12" Expression="RichDLLk" Label="RichDLLk" Title="RichDLLk" Unit="" Internal="RichDLLk" Type="F" Min="-9.99000000e+02" Max="8.21451035e+01"/>
    <Variable VarIndex="13" Expression="RichDLLp" Label="RichDLLp" Title="RichDLLp" Unit="" Internal="RichDLLp" Type="F" Min="-9.99000000e+02" Max="9.22692032e+01"/>
    <Variable VarIndex="14" Expression="RichDLLbt" Label="RichDLLbt" Title="RichDLLbt" Unit="" Internal="RichDLLbt" Type="F" Min="-9.99000000e+02" Max="5.05774994e+01"/>
    <Variable VarIndex="15" Expression="InAccBrem" Label="InAccBrem" Title="InAccBrem" Unit="" Internal="InAccBrem" Type="I" Min="0.00000000e+00" Max="1.00000000e+00"/>
    <Variable VarIndex="16" Expression="BremPIDe" Label="BremPIDe" Title="BremPIDe" Unit="" Internal="BremPIDe" Type="F" Min="-9.99000000e+02" Max="4.79148388e+00"/>
  </Variables>
  <Spectators NSpec="0"/>
  <Classes NClass="2">
    <Class Name="Background" Index="0"/>
    <Class Name="Signal" Index="1"/>
  </Classes>
  <Transformations NTransformations="1">
    <Transform Name="Normalize">
      <Selection>
        <Input NInputs="17">
          <Input Type="Variable" Label="TrackP" Expression="TrackP"/>
          <Input Type="Variable" Label="TrackPt" Expression="TrackPt"/>
          <Input Type="Variable" Label="TrackChi2PerDof" Expression="TrackChi2PerDof"/>
          <Input Type="Variable" Label="TrackNumDof" Expression="TrackNumDof"/>
          <Input Type="Variable" Label="TrackGhostProbability" Expression="TrackGhostProbability"/>
          <Input Type="Variable" Label="TrackFitVeloChi2" Expression="TrackFitVeloChi2"/>
          <Input Type="Variable" Label="TrackFitVeloNDoF" Expression="TrackFitVeloNDoF"/>
          <Input Type="Variable" Label="RichUsedR1Gas" Expression="RichUsedR1Gas"/>
          <Input Type="Variable" Label="RichAbovePiThres" Expression="RichAbovePiThres"/>
          <Input Type="Variable" Label="RichAboveKaThres" Expression="RichAboveKaThres"/>
          <Input Type="Variable" Label="RichDLLe" Expression="RichDLLe"/>
          <Input Type="Variable" Label="RichDLLmu" Expression="RichDLLmu"/>
          <Input Type="Variable" Label="RichDLLk" Expression="RichDLLk"/>
          <Input Type="Variable" Label="RichDLLp" Expression="RichDLLp"/>
          <Input Type="Variable" Label="RichDLLbt" Expression="RichDLLbt"/>
          <Input Type="Variable" Label="InAccBrem" Expression="InAccBrem"/>
          <Input Type="Variable" Label="BremPIDe" Expression="BremPIDe"/>
        </Input>
        <Output NOutputs="17">
          <Output Type="Variable" Label="TrackP" Expression="TrackP"/>
          <Output Type="Variable" Label="TrackPt" Expression="TrackPt"/>
          <Output Type="Variable" Label="TrackChi2PerDof" Expression="TrackChi2PerDof"/>
          <Output Type="Variable" Label="TrackNumDof" Expression="TrackNumDof"/>
          <Output Type="Variable" Label="TrackGhostProbability" Expression="TrackGhostProbability"/>
          <Output Type="Variable" Label="TrackFitVeloChi2" Expression="TrackFitVeloChi2"/>
          <Output Type="Variable" Label="TrackFitVeloNDoF" Expression="TrackFitVeloNDoF"/>
          <Output Type="Variable" Label="RichUsedR1Gas" Expression="RichUsedR1Gas"/>
          <Output Type="Variable" Label="RichAbovePiThres" Expression="RichAbovePiThres"/>
          <Output Type="Variable" Label="RichAboveKaThres" Expression="RichAboveKaThres"/>
          <Output Type="Variable" Label="RichDLLe" Expression="RichDLLe"/>
          <Output Type="Variable" Label="RichDLLmu" Expression="RichDLLmu"/>
          <Output Type="Variable" Label="RichDLLk" Expression="RichDLLk"/>
          <Output Type="Variable" Label="RichDLLp" Expression="RichDLLp"/>
          <Output Type="Variable" Label="RichDLLbt" Expression="RichDLLbt"/>
          <Output Type="Variable" Label="InAccBrem" Expression="InAccBrem"/>
          <Output Type="Variable" Label="BremPIDe" Expression="BremPIDe"/>
        </Output>
      </Selection>
      <Class ClassIndex="0">
        <Ranges>
          <Range Index="0" Min="1.4786999511718750e+02" Max="4.7602675000000000e+06"/>
          <Range Index="1" Min="3.6019840836524963e-01" Max="9.7807750000000000e+05"/>
          <Range Index="2" Min="2.9748051892966032e-03" Max="2.9998314380645752e+00"/>
          <Range Index="3" Min="4.0000000000000000e+00" Max="2.8000000000000000e+01"/>
          <Range Index="4" Min="3.9182301610708237e-02" Max="1.0000000000000000e+00"/>
          <Range Index="5" Min="6.2919489209889434e-06" Max="5.1134319305419922e+01"/>
          <Range Index="6" Min="1.0000000000000000e+00" Max="2.4000000000000000e+01"/>
          <Range Index="7" Min="0.0000000000000000e+00" Max="1.0000000000000000e+00"/>
          <Range Index="8" Min="0.0000000000000000e+00" Max="1.0000000000000000e+00"/>
          <Range Index="9" Min="0.0000000000000000e+00" Max="1.0000000000000000e+00"/>
          <Range Index="10" Min="-9.9900000000000000e+02" Max="1.1870709991455078e+02"/>
          <Range Index="11" Min="-9.9900000000000000e+02" Max="7.6227798461914062e+01"/>
          <Range Index="12" Min="-9.9900000000000000e+02" Max="8.2145103454589844e+01"/>
          <Range Index="13" Min="-9.9900000000000000e+02" Max="7.2659202575683594e+01"/>
          <Range Index="14" Min="-9.9900000000000000e+02" Max="4.8406700134277344e+01"/>
          <Range Index="15" Min="0.0000000000000000e+00" Max="1.0000000000000000e+00"/>
          <Range Index="16" Min="-9.9900000000000000e+02" Max="4.7914838790893555e+00"/>
        </Ranges>
      </Class>
      <Class ClassIndex="1">
        <Ranges>
          <Range Index="0" Min="2.3138999938964844e+02" Max="4.7475060000000000e+06"/>
          <Range Index="1" Min="4.7893376350402832e+00" Max="9.5269250000000000e+05"/>
          <Range Index="2" Min="4.3863588944077492e-03" Max="2.9998390674591064e+00"/>
          <Range Index="3" Min="4.0000000000000000e+00" Max="2.7000000000000000e+01"/>
          <Range Index="4" Min="4.0240019559860229e-02" Max="1.0000000000000000e+00"/>
          <Range Index="5" Min="8.6422068079627934e-07" Max="5.3907764434814453e+01"/>
          <Range Index="6" Min="1.0000000000000000e+00" Max="2.3000000000000000e+01"/>
          <Range Index="7" Min="0.0000000000000000e+00" Max="1.0000000000000000e+00"/>
          <Range Index="8" Min="0.0000000000000000e+00" Max="1.0000000000000000e+00"/>
          <Range Index="9" Min="0.0000000000000000e+00" Max="1.0000000000000000e+00"/>
          <Range Index="10" Min="-9.9900000000000000e+02" Max="8.8657699584960938e+01"/>
          <Range Index="11" Min="-9.9900000000000000e+02" Max="8.1006301879882812e+01"/>
          <Range Index="12" Min="-9.9900000000000000e+02" Max="7.9246398925781250e+01"/>
          <Range Index="13" Min="-9.9900000000000000e+02" Max="9.2269203186035156e+01"/>
          <Range Index="14" Min="-9.9900000000000000e+02" Max="5.0577499389648438e+01"/>
          <Range Index="15" Min="0.0000000000000000e+00" Max="1.0000000000000000e+00"/>
          <Range Index="16" Min="-9.9900000000000000e+02" Max="4.7914838790893555e+00"/>
        </Ranges>
      </Class>
      <Class ClassIndex="2">
        <Ranges>
          <Range Index="0" Min="1.4786999511718750e+02" Max="4.7602675000000000e+06"/>
          <Range Index="1" Min="3.6019840836524963e-01" Max="9.7807750000000000e+05"/>
          <Range Index="2" Min="2.9748051892966032e-03" Max="2.9998390674591064e+00"/>
          <Range Index="3" Min="4.0000000000000000e+00" Max="2.8000000000000000e+01"/>
          <Range Index="4" Min="3.9182301610708237e-02" Max="1.0000000000000000e+00"/>
          <Range Index="5" Min="8.6422068079627934e-07" Max="5.3907764434814453e+01"/>
          <Range Index="6" Min="1.0000000000000000e+00" Max="2.4000000000000000e+01"/>
          <Range Index="7" Min="0.0000000000000000e+00" Max="1.0000000000000000e+00"/>
          <Range Index="8" Min="0.0000000000000000e+00" Max="1.0000000000000000e+00"/>
          <Range Index="9" Min="0.0000000000000000e+00" Max="1.0000000000000000e+00"/>
          <Range Index="10" Min="-9.9900000000000000e+02" Max="1.1870709991455078e+02"/>
          <Range Index="11" Min="-9.9900000000000000e+02" Max="8.1006301879882812e+01"/>
          <Range Index="12" Min="-9.9900000000000000e+02" Max="8.2145103454589844e+01"/>
          <Range Index="13" Min="-9.9900000000000000e+02" Max="9.2269203186035156e+01"/>
          <Range Index="14" Min="-9.9900000000000000e+02" Max="5.0577499389648438e+01"/>
          <Range Index="15" Min="0.0000000000000000e+00" Max="1.0000000000000000e+00"/>
          <Range Index="16" Min="-9.9900000000000000e+02" Max="4.7914838790893555e+00"/>
        </Ranges>
      </Class>
    </Transform>
  </Transformations>
  <MVAPdfs/>
  <Weights>
    <Layout NLayers="3">
      <Layer Index="0" NNeurons="18">
        <Neuron NSynapses="20">
          1.1952232148109456e+00 3.3129123132998643e+01 1.1914287884430706e+01 -1.8786969968209139e+01 -1.4069238179485145e+01 -1.5435977197643417e+01 2.1853325555327370e+00 -3.0289232636657839e+01 -5.3780024854729724e+00 1.8601537360862689e+01 -2.7285851843571622e+00 -1.4413821341346225e+00 -8.3013233335616265e-01 4.8566637528207562e-01 -1.0897331675104367e+00 2.2417460542987765e+01 2.1392593772672623e+01 -8.7341115952614174e+00 2.4216187936064837e+00 6.3184290247948138e-01 
        </Neuron>
        <Neuron NSynapses="20">
          -7.4536166069824328e-01 3.1545718667296114e+00 -6.8295839755336452e-01 5.4213194047768436e+00 1.9184308001302782e+01 -5.8038800081537740e+00 2.1460223528538219e-01 -5.5967726878230517e-01 -4.1337245260615774e+00 -4.0685019659627386e+00 4.3067556486725216e-02 -1.0522447967381338e-01 2.8720043976581917e+00 4.5003994301343289e+00 -2.5017769126898015e-01 2.5579347244746620e+00 6.0198871872732767e+00 5.1428773015941944e+00 -1.4600000054077960e+00 7.4225059681400685e-01 
        </Neuron>
        <Neuron NSynapses="20">
          1.2029226626841638e+00 7.5646721371213843e-01 3.8622256395318588e-01 5.7660505830827657e-01 -8.1533949187146426e-01 -2.6555799876817937e-01 -3.7447646146803670e-01 1.8028339027464213e-01 -2.7098444943179021e+00 3.8784413461342364e-02 -4.6197054002005906e+00 2.1636456242837268e+00 -3.0100073558762510e+00 1.7539822088863016e-01 8.2656657073608819e-01 -1.9198954405749336e-01 -2.4201090944840455e+00 -1.1135471444666856e+00 -1.2406861232827837e+00 6.5897013297949969e-01 
        </Neuron>
        <Neuron NSynapses="20">
          -1.3813186692080661e+00 -2.1992984456951206e+00 -2.1691935828585422e+00 -1.0748549084724715e+01 7.3467879811046757e+00 2.1419829433165656e+01 -1.3366404036098741e+01 -6.3282728654775235e+00 1.7978551117295734e+01 -1.4877914897606288e+01 3.7450952701241602e-01 -8.3316155343208962e+00 -2.5041284094104395e+01 5.5816613125379263e+01 4.2813103397474865e+00 -3.3539952833802005e+00 6.3152942565227965e+00 -1.4847187576704915e+01 5.3879869342277709e-01 1.5345422499845602e+00 
        </Neuron>
        <Neuron NSynapses="20">
          7.7859075246119749e-02 5.5597458737237226e-01 -5.6108237078648826e-01 -5.4956329871494114e-01 6.4176843529838656e-01 2.0333161428415175e-01 -4.6107466817493664e-01 -6.3746963045233318e-01 2.8210644598148096e+00 -5.8532900791209252e-01 4.8301982058994497e+00 -2.4995287058924703e-01 6.0483033296597917e+00 -1.2631416895991276e+00 -7.6123003991308102e-01 3.9920289422220190e-01 -1.2450300002759900e+00 1.2789785695286768e-01 4.0181136972087955e-01 -3.8671238830612309e-01 
        </Neuron>
        <Neuron NSynapses="20">
          -1.5951973594380007e+00 -1.4083353799542131e+00 -6.6959694640222889e-01 -1.4767781891692122e+00 -1.0622974495500892e+00 1.1885277016226359e+00 -1.5293665951064352e+00 -9.2285304720413723e+00 1.7338483077121494e+00 4.7915290652431286e-01 4.7070604410608379e+00 -6.3610028250238573e+00 -1.8848444121629544e+00 3.2889752781009024e-01 -2.3175723604612108e+00 2.5028269421654862e+01 3.1349992201384165e+00 2.0209115585816804e+00 3.0244251394897050e+00 -3.8855810687757719e-01 
        </Neuron>
        <Neuron NSynapses="20">
          1.2065302278821184e+00 2.5890583942572536e+00 1.9130209568187710e+00 1.2004286379064078e+01 -6.6974444020625301e-01 -2.1728787821470007e+01 1.7696937386388175e+01 7.9717830116316293e+00 -1.0176601396969662e+01 1.4173248574106166e+01 -2.1331973069723198e-01 9.6902076296255242e+00 2.8024457646420004e+01 -5.3943681291613984e+01 -2.5576221120713729e+00 1.2432811725740156e+00 -7.5005279307639698e+00 1.2850703180993740e+01 -1.2817696314317701e+00 2.9966398008892114e+00 
        </Neuron>
        <Neuron NSynapses="20">
          -7.1607918329121112e-02 -6.5219058651978221e+00 2.2706274907932880e+01 1.1909446528226635e+00 -6.9805962819382528e-01 7.4954529237734864e+00 1.5206038181598667e+00 5.9303556318809738e+00 -1.1151785322583802e+01 -2.0279055345980705e+01 -1.0010361261501739e+00 -5.4266239898984703e-01 5.3392745427457982e+00 4.7353547746399105e+00 5.2213393815638476e-01 -4.8961330796885578e+00 -5.2826998912793979e+00 8.6439590033349027e+00 5.9985169065563211e+00 -1.1910811802174546e+00 
        </Neuron>
        <Neuron NSynapses="20">
          1.0920702875097454e-01 -7.7196038664868794e-01 2.4641093938520690e+01 -1.8689112281187820e-02 -5.5527725227444380e+00 5.9109070775640316e-01 -7.3662275036468063e+00 -1.7529705294177678e-02 -1.1535622680062417e+01 -2.4071524715902267e+01 2.9948823071530777e+00 -6.9719712358370212e-02 -1.3342477463759597e-03 4.7486307532126482e-01 5.7193887819391920e+00 -6.6471376760106855e+00 -5.8629439077948557e+00 -1.4189860294687295e-01 5.5282614960717416e+00 -1.9269566868879819e+00 
        </Neuron>
        <Neuron NSynapses="20">
          -9.1884173961537308e-02 -7.4289659920649384e-02 2.5190134470566001e+01 -3.3032439566965492e-02 2.5777663132114087e-01 -3.9363161537054403e-01 -1.5532015317035464e+00 2.5776353039809166e+01 2.8798558454226730e-01 5.6044153890507278e-02 1.4874231423687828e-01 -2.0836210361326982e-01 -7.4018978737347155e-02 -1.7397167511724948e-01 5.3672305690899091e-01 -5.2481544155998714e+00 -8.5157214513832606e+00 2.6654549121968624e-01 2.4177158659535539e-01 -1.6016157835807567e+00 
        </Neuron>
        <Neuron NSynapses="20">
          -3.0063278540234921e+00 6.0146214114862516e+01 -4.5802117609052377e+00 -9.3298264736268006e+00 -3.9120202777105646e+01 1.4537379722305843e+01 -1.0471725954981126e+00 4.2914933574760683e+00 1.1536477141016032e+01 1.6803957449768834e+01 -1.4345207666426282e-01 2.7179518874913158e+00 -1.2807105991259498e+01 -2.0765736833543034e+01 -3.9485243347533925e+00 -3.7731331799555128e+00 -5.4607938724046790e+00 -3.3060631932442263e+01 -5.0217361428262803e+00 -1.4675931199064605e+00 
        </Neuron>
        <Neuron NSynapses="20">
          -2.0333775275928443e+00 -4.0468092135834670e+00 -2.4113590109822738e+01 -9.5604670204445061e-02 -9.3515093442262498e-01 1.4732914451565762e+01 1.1266665031138972e+00 -3.8287662978186549e-01 -6.8936103305077108e+00 -1.9967978446004611e+01 -1.8111789817531609e-01 3.3195393911033659e+00 2.2630261814780730e+00 -3.2672522647376034e+00 2.8723465460705344e+00 -6.9267300785060053e+00 -6.4172873697883688e+00 3.1720868703724263e+00 -1.2996079170125610e-02 -1.0424761767513078e+00 
        </Neuron>
        <Neuron NSynapses="20">
          3.4198213090913815e-01 1.2014611699689500e+01 -1.9949653512159045e+01 2.4928595541773197e+00 1.0856552556346539e+01 -9.5022091530731814e+00 -7.2696664859137605e-01 -5.3196990948067917e+00 1.6055424105361684e+01 1.4566314613464542e+01 -2.0719297194751424e-01 -2.1383976965045250e+00 1.8181796479885295e-01 3.7846973816711693e+00 2.4800797070088780e+00 -6.0134752938608971e+00 2.1990278052481930e+01 -3.0222412718619664e+00 -3.6580791068301584e+00 -1.3686770058401170e+00 
        </Neuron>
        <Neuron NSynapses="20">
          -1.3072862546052713e-01 -2.6142211427228855e+01 -1.4076529656763885e+01 4.8935587481114204e+00 1.5610094548510693e+01 -7.1914828979402179e+00 -1.6414226649452226e+00 -2.4153732029637740e+00 1.6165941756098989e+00 6.3607848154616748e+00 -1.0205951014363712e+00 -2.1010940098209145e+00 4.4158264872386805e+00 4.2786643864017879e+00 6.5226795647030988e-01 -5.4128560497548674e+00 -5.0684993121879991e+00 1.5077150762222271e+01 6.2706464637585624e-01 -2.8091425848015959e-02 
        </Neuron>
        <Neuron NSynapses="20">
          4.5791026825035726e+00 2.0140775515066689e+01 -1.6387028719461501e+01 9.0783040807263043e-02 1.8041190436917450e+01 -1.9484636017118298e+01 -1.3018145331096338e+00 -2.5338333859010493e+00 1.7063780721123972e+01 2.9737217521600847e+01 -7.3133905371526553e-01 -1.3736167272246340e+00 -5.5192883822479444e-01 1.0367361208982590e+01 2.0390961189067442e+00 -7.0030626739033339e+00 4.5862154884606788e+01 7.3083266198001278e+00 -4.0808647640018547e+00 -1.2014364544182876e+00 
        </Neuron>
        <Neuron NSynapses="20">
          -5.0113037320941771e+00 -1.1710421022312648e+01 1.2208282304514505e+01 -9.3981563614935926e+00 2.0741426354769239e+01 -6.9469553674965834e+00 -1.1510995402251059e+01 -2.3933268044998549e+01 -1.0731417136416173e+01 -8.8680800496293450e+00 -7.1228577758166323e-01 -1.8407828512694834e+01 7.4289485512628044e+00 1.5040523539591197e+01 3.0359004811419736e+00 1.1715707716739081e+01 -3.2664747691494217e-01 1.2333498367273105e+01 9.2106373160681820e-01 1.4920537928556377e+00 
        </Neuron>
        <Neuron NSynapses="20">
          4.9241944499402956e+00 1.1526380076393425e+01 -1.2176274294393270e+01 9.1184106485105758e+00 -2.0987800543520319e+01 7.4936637447491350e+00 8.4652930999138807e+00 2.3962859016288427e+01 -4.6395436062624347e+00 3.1063010065012733e+01 -6.2497469589408805e-01 1.8086331479821144e+01 -7.3409826721363922e+00 -1.5277324565409714e+01 -3.2725746769478632e+00 -1.1863747988041192e+01 6.3451739426102785e-02 -1.2559390757662726e+01 -3.8616113546943032e-01 3.5595675873283178e-01 
        </Neuron>
        <Neuron NSynapses="20">
          -7.0510651015328524e-02 -6.8238082971488465e+00 3.9544534302286971e+00 -1.5041942293849678e+01 8.4631720642358328e+00 -1.9835567669813802e+01 -2.0153094889750340e+00 -1.3262365529658142e+01 -1.9268985379623973e+00 -4.0290345939517183e+00 1.0097980493058119e+00 -4.4722009909992950e+00 1.6980287072127505e+00 3.4304654904295537e+00 -1.6994503960792079e-02 2.9809387520231563e+00 -1.6727034889448087e+00 -3.6685790409893611e+00 1.3080284098229040e+00 -9.3575503840876051e-01 
        </Neuron>
      </Layer>
      <Layer Index="1" NNeurons="21">
        <Neuron NSynapses="1">
          -1.7464531345761165e+00 
        </Neuron>
        <Neuron NSynapses="1">
          -3.6827875861472581e-01 
        </Neuron>
        <Neuron NSynapses="1">
          1.5426673118150884e+00 
        </Neuron>
        <Neuron NSynapses="1">
          -2.8359224270993790e+00 
        </Neuron>
        <Neuron NSynapses="1">
          9.4501777605217097e-01 
        </Neuron>
        <Neuron NSynapses="1">
          -9.2585078287563638e-01 
        </Neuron>
        <Neuron NSynapses="1">
          -4.4215587584338867e-01 
        </Neuron>
        <Neuron NSynapses="1">
          -1.3384837617118428e+00 
        </Neuron>
        <Neuron NSynapses="1">
          -1.4239297923422090e-01 
        </Neuron>
        <Neuron NSynapses="1">
          -7.6642323882604013e-01 
        </Neuron>
        <Neuron NSynapses="1">
          -3.3375210670738759e-01 
        </Neuron>
        <Neuron NSynapses="1">
          -8.3118195984821441e-01 
        </Neuron>
        <Neuron NSynapses="1">
          5.3940838149145343e-01 
        </Neuron>
        <Neuron NSynapses="1">
          7.3105263398101694e-01 
        </Neuron>
        <Neuron NSynapses="1">
          2.2430604984848124e+00 
        </Neuron>
        <Neuron NSynapses="1">
          1.9944366941084561e+00 
        </Neuron>
        <Neuron NSynapses="1">
          -1.1122184884533199e+00 
        </Neuron>
        <Neuron NSynapses="1">
          1.1981944245178644e+00 
        </Neuron>
        <Neuron NSynapses="1">
          -1.1370816030598707e+00 
        </Neuron>
        <Neuron NSynapses="1">
          -1.6398356654114441e+00 
        </Neuron>
        <Neuron NSynapses="1">
          -3.6255321849876752e+00 
        </Neuron>
      </Layer>
      <Layer Index="2" NNeurons="1">
        <Neuron NSynapses="0"/>
      </Layer>
    </Layout>
  </Weights>
</MethodSetup>
