<?xml version="1.0"?>
<MethodSetup Method="MLP::Electron_Upstream_TMVA">
  <GeneralInfo>
    <Info name="TMVA Release" value="4.2.0 [262656]"/>
    <Info name="ROOT Release" value="6.02/01 [393729]"/>
    <Info name="Creator" value="jonesc"/>
    <Info name="Date" value="Sun Feb 14 00:26:52 2016"/>
    <Info name="Host" value="Linux lcgapp-slc6-physical1.cern.ch 2.6.32-431.29.2.el6.x86_64 #1 SMP Wed Sep 10 11:13:12 CEST 2014 x86_64 x86_64 x86_64 GNU/Linux"/>
    <Info name="Dir" value="/var/pcfst/r03/lhcb/jonesc/ANNPID/results/MC12/TrainMixture/TrainPhysTks-EvalPhysTks-ReweightRICH2/GhostAccFrac0.01/ProtonAccFrac1.0/KaonAccFrac1.0/TMVA-Run2-NoTkLikCDVelodEdx/MLP/Norm/ScaleF1.2/BP/NCycles750/CE/tanh/CVTest15/CVImp1e-16/NotUseRegulator/Electron/Upstream"/>
    <Info name="Training events" value="1811352"/>
    <Info name="TrainingTime" value="2.09158076e+04"/>
    <Info name="AnalysisType" value="Classification"/>
  </GeneralInfo>
  <Options>
    <Option name="NCycles" modified="Yes">750</Option>
    <Option name="HiddenLayers" modified="Yes">20</Option>
    <Option name="NeuronType" modified="Yes">tanh</Option>
    <Option name="RandomSeed" modified="No">1</Option>
    <Option name="EstimatorType" modified="Yes">CE</Option>
    <Option name="NeuronInputType" modified="No">sum</Option>
    <Option name="V" modified="Yes">True</Option>
    <Option name="VerbosityLevel" modified="No">Verbose</Option>
    <Option name="VarTransform" modified="Yes">Norm</Option>
    <Option name="H" modified="Yes">True</Option>
    <Option name="CreateMVAPdfs" modified="No">False</Option>
    <Option name="IgnoreNegWeightsInTraining" modified="No">False</Option>
    <Option name="TrainingMethod" modified="Yes">BP</Option>
    <Option name="LearningRate" modified="No">2.000000e-02</Option>
    <Option name="DecayRate" modified="No">1.000000e-02</Option>
    <Option name="TestRate" modified="No">10</Option>
    <Option name="EpochMonitoring" modified="Yes">True</Option>
    <Option name="Sampling" modified="No">1.000000e+00</Option>
    <Option name="SamplingEpoch" modified="No">1.000000e+00</Option>
    <Option name="SamplingImportance" modified="No">1.000000e+00</Option>
    <Option name="SamplingTraining" modified="No">True</Option>
    <Option name="SamplingTesting" modified="No">False</Option>
    <Option name="ResetStep" modified="No">50</Option>
    <Option name="Tau" modified="No">3.000000e+00</Option>
    <Option name="BPMode" modified="No">sequential</Option>
    <Option name="BatchSize" modified="No">-1</Option>
    <Option name="ConvergenceImprove" modified="Yes">1.000000e-16</Option>
    <Option name="ConvergenceTests" modified="Yes">15</Option>
    <Option name="UseRegulator" modified="Yes">False</Option>
    <Option name="UpdateLimit" modified="No">10000</Option>
    <Option name="CalculateErrors" modified="No">False</Option>
    <Option name="WeightRange" modified="No">1.000000e+00</Option>
  </Options>
  <Variables NVar="17">
    <Variable VarIndex="0" Expression="TrackP" Label="TrackP" Title="TrackP" Unit="" Internal="TrackP" Type="F" Min="2.31839996e+02" Max="4.74514100e+06"/>
    <Variable VarIndex="1" Expression="TrackPt" Label="TrackPt" Title="TrackPt" Unit="" Internal="TrackPt" Type="F" Min="2.86109734e+00" Max="9.52692500e+05"/>
    <Variable VarIndex="2" Expression="TrackChi2PerDof" Label="TrackChi2PerDof" Title="TrackChi2PerDof" Unit="" Internal="TrackChi2PerDof" Type="F" Min="4.38635889e-03" Max="2.99983907e+00"/>
    <Variable VarIndex="3" Expression="TrackNumDof" Label="TrackNumDof" Title="TrackNumDof" Unit="" Internal="TrackNumDof" Type="I" Min="4.00000000e+00" Max="2.70000000e+01"/>
    <Variable VarIndex="4" Expression="TrackGhostProbability" Label="TrackGhostProbability" Title="TrackGhostProbability" Unit="" Internal="TrackGhostProbability" Type="F" Min="2.99832448e-02" Max="1.00000000e+00"/>
    <Variable VarIndex="5" Expression="TrackFitVeloChi2" Label="TrackFitVeloChi2" Title="TrackFitVeloChi2" Unit="" Internal="TrackFitVeloChi2" Type="F" Min="8.64220681e-07" Max="5.39077644e+01"/>
    <Variable VarIndex="6" Expression="TrackFitVeloNDoF" Label="TrackFitVeloNDoF" Title="TrackFitVeloNDoF" Unit="" Internal="TrackFitVeloNDoF" Type="I" Min="1.00000000e+00" Max="2.30000000e+01"/>
    <Variable VarIndex="7" Expression="RichUsedR1Gas" Label="RichUsedR1Gas" Title="RichUsedR1Gas" Unit="" Internal="RichUsedR1Gas" Type="I" Min="0.00000000e+00" Max="1.00000000e+00"/>
    <Variable VarIndex="8" Expression="RichAboveMuThres" Label="RichAboveMuThres" Title="RichAboveMuThres" Unit="" Internal="RichAboveMuThres" Type="I" Min="0.00000000e+00" Max="1.00000000e+00"/>
    <Variable VarIndex="9" Expression="RichAboveKaThres" Label="RichAboveKaThres" Title="RichAboveKaThres" Unit="" Internal="RichAboveKaThres" Type="I" Min="0.00000000e+00" Max="1.00000000e+00"/>
    <Variable VarIndex="10" Expression="RichDLLe" Label="RichDLLe" Title="RichDLLe" Unit="" Internal="RichDLLe" Type="F" Min="-9.99000000e+02" Max="1.18707100e+02"/>
    <Variable VarIndex="11" Expression="RichDLLmu" Label="RichDLLmu" Title="RichDLLmu" Unit="" Internal="RichDLLmu" Type="F" Min="-9.99000000e+02" Max="7.97293015e+01"/>
    <Variable VarIndex="12" Expression="RichDLLk" Label="RichDLLk" Title="RichDLLk" Unit="" Internal="RichDLLk" Type="F" Min="-9.99000000e+02" Max="9.40835037e+01"/>
    <Variable VarIndex="13" Expression="RichDLLp" Label="RichDLLp" Title="RichDLLp" Unit="" Internal="RichDLLp" Type="F" Min="-9.99000000e+02" Max="9.22692032e+01"/>
    <Variable VarIndex="14" Expression="RichDLLbt" Label="RichDLLbt" Title="RichDLLbt" Unit="" Internal="RichDLLbt" Type="F" Min="-9.99000000e+02" Max="5.05774994e+01"/>
    <Variable VarIndex="15" Expression="InAccBrem" Label="InAccBrem" Title="InAccBrem" Unit="" Internal="InAccBrem" Type="I" Min="0.00000000e+00" Max="1.00000000e+00"/>
    <Variable VarIndex="16" Expression="BremPIDe" Label="BremPIDe" Title="BremPIDe" Unit="" Internal="BremPIDe" Type="F" Min="-9.99000000e+02" Max="4.79148388e+00"/>
  </Variables>
  <Spectators NSpec="0"/>
  <Classes NClass="2">
    <Class Name="Background" Index="0"/>
    <Class Name="Signal" Index="1"/>
  </Classes>
  <Transformations NTransformations="1">
    <Transform Name="Normalize">
      <Selection>
        <Input NInputs="17">
          <Input Type="Variable" Label="TrackP" Expression="TrackP"/>
          <Input Type="Variable" Label="TrackPt" Expression="TrackPt"/>
          <Input Type="Variable" Label="TrackChi2PerDof" Expression="TrackChi2PerDof"/>
          <Input Type="Variable" Label="TrackNumDof" Expression="TrackNumDof"/>
          <Input Type="Variable" Label="TrackGhostProbability" Expression="TrackGhostProbability"/>
          <Input Type="Variable" Label="TrackFitVeloChi2" Expression="TrackFitVeloChi2"/>
          <Input Type="Variable" Label="TrackFitVeloNDoF" Expression="TrackFitVeloNDoF"/>
          <Input Type="Variable" Label="RichUsedR1Gas" Expression="RichUsedR1Gas"/>
          <Input Type="Variable" Label="RichAboveMuThres" Expression="RichAboveMuThres"/>
          <Input Type="Variable" Label="RichAboveKaThres" Expression="RichAboveKaThres"/>
          <Input Type="Variable" Label="RichDLLe" Expression="RichDLLe"/>
          <Input Type="Variable" Label="RichDLLmu" Expression="RichDLLmu"/>
          <Input Type="Variable" Label="RichDLLk" Expression="RichDLLk"/>
          <Input Type="Variable" Label="RichDLLp" Expression="RichDLLp"/>
          <Input Type="Variable" Label="RichDLLbt" Expression="RichDLLbt"/>
          <Input Type="Variable" Label="InAccBrem" Expression="InAccBrem"/>
          <Input Type="Variable" Label="BremPIDe" Expression="BremPIDe"/>
        </Input>
        <Output NOutputs="17">
          <Output Type="Variable" Label="TrackP" Expression="TrackP"/>
          <Output Type="Variable" Label="TrackPt" Expression="TrackPt"/>
          <Output Type="Variable" Label="TrackChi2PerDof" Expression="TrackChi2PerDof"/>
          <Output Type="Variable" Label="TrackNumDof" Expression="TrackNumDof"/>
          <Output Type="Variable" Label="TrackGhostProbability" Expression="TrackGhostProbability"/>
          <Output Type="Variable" Label="TrackFitVeloChi2" Expression="TrackFitVeloChi2"/>
          <Output Type="Variable" Label="TrackFitVeloNDoF" Expression="TrackFitVeloNDoF"/>
          <Output Type="Variable" Label="RichUsedR1Gas" Expression="RichUsedR1Gas"/>
          <Output Type="Variable" Label="RichAboveMuThres" Expression="RichAboveMuThres"/>
          <Output Type="Variable" Label="RichAboveKaThres" Expression="RichAboveKaThres"/>
          <Output Type="Variable" Label="RichDLLe" Expression="RichDLLe"/>
          <Output Type="Variable" Label="RichDLLmu" Expression="RichDLLmu"/>
          <Output Type="Variable" Label="RichDLLk" Expression="RichDLLk"/>
          <Output Type="Variable" Label="RichDLLp" Expression="RichDLLp"/>
          <Output Type="Variable" Label="RichDLLbt" Expression="RichDLLbt"/>
          <Output Type="Variable" Label="InAccBrem" Expression="InAccBrem"/>
          <Output Type="Variable" Label="BremPIDe" Expression="BremPIDe"/>
        </Output>
      </Selection>
      <Class ClassIndex="0">
        <Ranges>
          <Range Index="0" Min="2.3183999633789062e+02" Max="4.7451410000000000e+06"/>
          <Range Index="1" Min="2.8610973358154297e+00" Max="9.5269250000000000e+05"/>
          <Range Index="2" Min="4.3863588944077492e-03" Max="2.9998390674591064e+00"/>
          <Range Index="3" Min="4.0000000000000000e+00" Max="2.7000000000000000e+01"/>
          <Range Index="4" Min="2.9983244836330414e-02" Max="1.0000000000000000e+00"/>
          <Range Index="5" Min="8.6422068079627934e-07" Max="5.3907764434814453e+01"/>
          <Range Index="6" Min="1.0000000000000000e+00" Max="2.3000000000000000e+01"/>
          <Range Index="7" Min="0.0000000000000000e+00" Max="1.0000000000000000e+00"/>
          <Range Index="8" Min="0.0000000000000000e+00" Max="1.0000000000000000e+00"/>
          <Range Index="9" Min="0.0000000000000000e+00" Max="1.0000000000000000e+00"/>
          <Range Index="10" Min="-9.9900000000000000e+02" Max="8.8657699584960938e+01"/>
          <Range Index="11" Min="-9.9900000000000000e+02" Max="7.9729301452636719e+01"/>
          <Range Index="12" Min="-9.9900000000000000e+02" Max="9.4083503723144531e+01"/>
          <Range Index="13" Min="-9.9900000000000000e+02" Max="9.2269203186035156e+01"/>
          <Range Index="14" Min="-9.9900000000000000e+02" Max="5.0577499389648438e+01"/>
          <Range Index="15" Min="0.0000000000000000e+00" Max="1.0000000000000000e+00"/>
          <Range Index="16" Min="-9.9900000000000000e+02" Max="4.7914838790893555e+00"/>
        </Ranges>
      </Class>
      <Class ClassIndex="1">
        <Ranges>
          <Range Index="0" Min="3.4195999145507812e+02" Max="2.4259057500000000e+06"/>
          <Range Index="1" Min="1.0165340423583984e+01" Max="6.8541975000000000e+05"/>
          <Range Index="2" Min="1.6449213027954102e-02" Max="2.9924457073211670e+00"/>
          <Range Index="3" Min="4.0000000000000000e+00" Max="2.5000000000000000e+01"/>
          <Range Index="4" Min="5.6897401809692383e-02" Max="1.0000000000000000e+00"/>
          <Range Index="5" Min="6.4970424864441156e-04" Max="3.7234199523925781e+01"/>
          <Range Index="6" Min="1.0000000000000000e+00" Max="2.0000000000000000e+01"/>
          <Range Index="7" Min="0.0000000000000000e+00" Max="1.0000000000000000e+00"/>
          <Range Index="8" Min="0.0000000000000000e+00" Max="1.0000000000000000e+00"/>
          <Range Index="9" Min="0.0000000000000000e+00" Max="1.0000000000000000e+00"/>
          <Range Index="10" Min="-9.9900000000000000e+02" Max="1.1870709991455078e+02"/>
          <Range Index="11" Min="-9.9900000000000000e+02" Max="6.0441799163818359e+01"/>
          <Range Index="12" Min="-9.9900000000000000e+02" Max="4.0009300231933594e+01"/>
          <Range Index="13" Min="-9.9900000000000000e+02" Max="2.9820600509643555e+01"/>
          <Range Index="14" Min="-9.9900000000000000e+02" Max="3.4427398681640625e+01"/>
          <Range Index="15" Min="0.0000000000000000e+00" Max="1.0000000000000000e+00"/>
          <Range Index="16" Min="-9.9900000000000000e+02" Max="4.7914838790893555e+00"/>
        </Ranges>
      </Class>
      <Class ClassIndex="2">
        <Ranges>
          <Range Index="0" Min="2.3183999633789062e+02" Max="4.7451410000000000e+06"/>
          <Range Index="1" Min="2.8610973358154297e+00" Max="9.5269250000000000e+05"/>
          <Range Index="2" Min="4.3863588944077492e-03" Max="2.9998390674591064e+00"/>
          <Range Index="3" Min="4.0000000000000000e+00" Max="2.7000000000000000e+01"/>
          <Range Index="4" Min="2.9983244836330414e-02" Max="1.0000000000000000e+00"/>
          <Range Index="5" Min="8.6422068079627934e-07" Max="5.3907764434814453e+01"/>
          <Range Index="6" Min="1.0000000000000000e+00" Max="2.3000000000000000e+01"/>
          <Range Index="7" Min="0.0000000000000000e+00" Max="1.0000000000000000e+00"/>
          <Range Index="8" Min="0.0000000000000000e+00" Max="1.0000000000000000e+00"/>
          <Range Index="9" Min="0.0000000000000000e+00" Max="1.0000000000000000e+00"/>
          <Range Index="10" Min="-9.9900000000000000e+02" Max="1.1870709991455078e+02"/>
          <Range Index="11" Min="-9.9900000000000000e+02" Max="7.9729301452636719e+01"/>
          <Range Index="12" Min="-9.9900000000000000e+02" Max="9.4083503723144531e+01"/>
          <Range Index="13" Min="-9.9900000000000000e+02" Max="9.2269203186035156e+01"/>
          <Range Index="14" Min="-9.9900000000000000e+02" Max="5.0577499389648438e+01"/>
          <Range Index="15" Min="0.0000000000000000e+00" Max="1.0000000000000000e+00"/>
          <Range Index="16" Min="-9.9900000000000000e+02" Max="4.7914838790893555e+00"/>
        </Ranges>
      </Class>
    </Transform>
  </Transformations>
  <MVAPdfs/>
  <Weights>
    <Layout NLayers="3">
      <Layer Index="0" NNeurons="18">
        <Neuron NSynapses="20">
          2.8856480075808844e-01 3.3933563941040226e+00 8.8442947790106241e-01 3.1721955118061662e+00 -6.3489828393330008e+00 -1.6403311692624458e+00 2.3514524732742884e-01 2.5218262685130890e+00 -1.6230126015978328e+00 -1.6871693639152692e+00 -4.1282012276418811e+00 -3.3860993195671357e-01 6.9677243942428548e+00 -1.4537358908968245e+00 -9.7611862761354495e-01 1.4917199038054938e+00 -3.6148609706499613e-01 6.0386246679421718e-01 4.4632886057146592e+00 1.3857086684456363e+00 
        </Neuron>
        <Neuron NSynapses="20">
          -1.9932436021484218e-01 -1.1015942457734955e-01 2.5678248339596688e-01 1.8877863722641916e-01 8.7917202937554295e-01 -6.1135067104685503e-01 1.7470943360071380e+00 -2.9606375218991285e+00 -2.9076269791671021e+00 -1.0894421167370862e+00 2.5966323714202018e+00 1.4111612867604955e+00 -2.2770608223462121e+00 -3.9175931867385455e-01 -1.1783544265351857e-01 -5.5299004265065221e-01 -1.3913515365441971e+00 1.9852849280806033e+00 1.0910232164974605e+01 1.1140239188153014e+00 
        </Neuron>
        <Neuron NSynapses="20">
          4.3526006363635228e-01 1.9230250318596960e+00 -3.7412600402946583e-01 -9.8630101219008459e-01 1.4714532135155664e-01 1.8656934262663216e-01 2.6574650330003085e+00 -8.1107717657608058e-01 2.4147094181323436e+00 1.4957942962975193e+00 -2.4659450742903807e-01 -4.9214784676210538e-01 1.3342122633174193e-02 -9.6456941655968936e-03 -1.6498500057858914e+00 -1.7185287109294403e+00 -1.9836082617637392e+00 -3.1497877295633714e+00 2.9257786677927855e-01 6.8223529607432598e-01 
        </Neuron>
        <Neuron NSynapses="20">
          9.5528843390870544e-01 2.6865800142539169e+00 2.8530205919602253e-01 9.3111659421995796e-01 -3.3046666075242568e+00 -1.7807806753780702e+00 -3.3098124842628884e+00 -6.8753929649584022e-01 9.1440428921785666e-01 -3.2300119432134182e+00 6.7981352134651984e-01 -1.1628017778557975e+00 -5.0799370727822202e-01 7.4682401186429193e-01 1.5193313734761413e+00 -9.7837870054366571e-01 -2.4294868800238119e+00 7.6789500872748762e-01 -3.3229348998489550e+00 4.9645340984977687e-01 
        </Neuron>
        <Neuron NSynapses="20">
          -4.5089339354965285e-01 -1.2780857174371136e+00 1.0702022061127694e+00 7.4682063026179979e-01 1.5617177257492121e-01 -1.3799802722979976e-01 1.7851394270444210e+00 2.5987018801244437e+00 5.7901236645236520e-01 3.7873378441890648e-01 3.6457696919598015e-01 4.3532534967137493e-01 1.9284096867924993e-02 -1.4306240352673391e-01 -4.8440962946353766e-01 2.9731499688901479e+00 7.4864904633005019e-02 -7.1893079105518856e-02 1.6465031652651246e-01 9.9178572644816790e-02 
        </Neuron>
        <Neuron NSynapses="20">
          -4.6190266013726627e-01 -9.5177929650359583e-01 1.8840465836004978e+00 -9.2958347922696305e-01 -3.5295833437521140e-01 2.6700643550851701e+00 5.6400378535597113e+00 -1.3917683152846080e-01 -2.9649461554553541e-01 -2.2090950244742826e+00 1.2739028325226749e+00 -9.9372602461297943e-01 -1.6639478329545940e-01 -3.8636329157359312e-01 -2.1857451253115769e+00 6.5372653041998747e+00 1.9698899976005346e+00 1.2604034867634087e-01 1.0769539500256810e-01 -1.0755860213613555e+00 
        </Neuron>
        <Neuron NSynapses="20">
          -3.7669334560230556e+00 2.9946092152642358e+00 1.7782018964007233e+00 3.6300588475408961e+00 3.9022748085785062e+00 -7.7472551951286173e-01 -4.5248644006136823e-01 2.0748534584046348e+00 -1.1539590209855068e+00 -7.5598776649049138e-01 -1.9871347636210355e+00 -2.1082490975218957e+00 1.0724047295100512e+00 -9.4460808721226808e-01 -2.6243485390367627e-01 1.3963501283395061e+00 1.1995171680222845e+00 1.3088154983207105e+00 2.3124235118401688e+00 1.5328359657200998e+00 
        </Neuron>
        <Neuron NSynapses="20">
          4.5226252761104000e+00 8.4354976982933016e-01 -7.5168832081006642e-01 -3.2787508752800582e-01 -1.1638949335414894e+01 2.5603845178804732e+00 4.3303398813928495e-01 1.9371556621770039e+00 -3.0018073166877873e-01 -2.6106199592911532e-02 -1.1280154250790584e+01 5.0233643908332481e-01 1.9482727568338071e+01 -1.2280133885523821e+00 -8.2237489849468015e-01 -2.3247977467784456e-01 9.5549292328311008e-01 -8.4878984619221554e-01 -8.9165620750751593e+00 -1.4942208857513459e+00 
        </Neuron>
        <Neuron NSynapses="20">
          3.4471121103598695e-01 1.1000979565428495e+00 1.1949976459129854e+00 4.3219221016252524e-01 -3.5353979725833240e-01 6.6702007135024799e-01 -1.1445353421507116e+00 3.7396621569877624e+00 -7.9767266658269487e-01 -6.1799241198428845e-01 6.2084189506996534e-01 2.6902738678428184e+00 1.1508386626657548e-01 6.1183494673964789e-01 1.5146923904979219e+00 -2.4690569489227459e+00 1.5076439951393612e+00 4.2731428144368228e-01 8.7056764130573505e-01 -1.7043646288324936e+00 
        </Neuron>
        <Neuron NSynapses="20">
          -2.6874384870520576e+00 2.8518628465410365e+00 3.3149583540422491e+00 -1.8234857446753721e+00 -7.0292904888978247e-01 -5.8113821805193262e-02 -3.0134424594831433e-01 2.0449898589254906e-01 -5.7469807607874757e-01 -2.9980596324254170e+00 1.1242572410514959e-01 1.0729484867912729e+00 4.7165205591592901e-01 2.2842830451516551e+00 -3.8973521417423940e-02 -1.3098919983599409e+00 -1.2863033682701019e+00 -4.8463628210889259e-01 8.5258271979239897e-01 -1.3878134669777138e+00 
        </Neuron>
        <Neuron NSynapses="20">
          -2.5846835239580268e+00 -5.3454890438009288e+00 -4.2698893074534476e+00 -2.0803080443696236e+00 4.7691117058490484e+01 -1.0464713494374267e+00 -1.4024425172515167e+00 -8.0526952967145675e+00 1.4953340780695448e+00 -3.5621888596753970e-01 2.8508785189129696e+01 -1.1813054757129311e+00 -5.2962753061904301e+01 -2.2457457773563422e-01 1.5242933383349548e+00 8.1044948154316820e-01 3.8392477503795952e-01 2.5521202684343645e+00 3.7915285174928108e+01 -1.7191541906261891e+00 
        </Neuron>
        <Neuron NSynapses="20">
          2.9949207607350852e+00 -5.5168603030817621e-03 -1.9917578123075366e+00 8.5418784028183858e-01 -6.1580901964689163e+00 -4.9422632660772370e-01 2.9263343027989476e-02 2.9100262043515399e+00 -1.6757019943632050e+00 -1.7311723118995395e+00 -8.0913670838446734e+00 -9.9393291126117125e-02 1.8372128087108031e+01 -2.2565447291848928e+00 1.4701577547991562e+00 -2.3192109572015465e+00 8.0554206031384179e-01 -2.0680496893040647e+00 -1.6319529813615922e+01 -1.3103708547084663e+00 
        </Neuron>
        <Neuron NSynapses="20">
          -3.2206772932658709e+00 1.0105580339322713e+00 -2.7492707254287874e-01 -1.6874388585634517e+00 -1.0936463991520691e+01 9.3789601733375405e-01 -1.7408979098180684e+00 -2.7530250090965529e+00 1.3937995049084608e+00 -8.1911361747275047e-01 -3.6032423553251518e+00 -1.2483428997608614e+00 5.9929254251758506e+00 2.2970450819205754e+00 1.1417321475037412e+00 -1.4031386289104801e+00 -1.3710486859446169e+00 9.8275307981092366e-02 3.7332274711119848e+00 -1.6332591454467322e+00 
        </Neuron>
        <Neuron NSynapses="20">
          -9.4166571276370203e-01 1.4029828755175462e+00 3.6236523851252267e+00 -4.4525703646199044e-01 -6.3217172003719879e+00 3.0399919009013127e-01 -2.6513402872774217e+00 2.8877036901742936e-01 1.2434195501498977e+00 -5.7462878534893469e-01 -5.8670305856181546e+00 6.9247966219427992e-01 8.0763353536546028e+00 8.7208565684521555e-01 -6.7481052121132945e-01 -8.0877642900428282e-01 1.5338858019476123e+00 2.0429572473622257e+00 7.7726784174302903e+00 -2.8823428639051768e-01 
        </Neuron>
        <Neuron NSynapses="20">
          -1.1389260267556995e+00 7.3165314957319205e-01 -8.0133962808116788e-01 -6.7081660850094693e-01 -9.1380090410203163e+00 -4.8028591045596092e-01 -2.2636760442443422e+00 -1.7430630456816365e-01 -1.7961416809566009e+00 1.5039474928510888e+00 -6.0815695135146286e-01 9.5689003679193418e-01 2.1044699553348437e-01 9.0015354528531177e-01 6.3046843196787139e-01 -2.3724606393835450e+00 3.2207951570741328e-01 2.0386320123791166e+00 9.0905758857759675e+00 -1.4804044728847778e+00 
        </Neuron>
        <Neuron NSynapses="20">
          -2.2562438596825558e+00 -1.6589998567036035e+00 3.1196567074014001e+00 -7.9571707626062560e-01 -3.8082437408247105e+00 1.9824652107075583e-01 -9.3245945347382253e-01 -1.0574572078969360e-01 -3.0283106187139869e-01 -6.4169114660504267e-01 -1.2558058591000678e+00 9.3764430530136292e-02 3.7820019220679990e+00 1.3355935256602556e+00 3.1816780651744631e-01 -7.3771090873519818e-01 2.2249688903222524e+00 -3.9343322688343147e+00 -2.7897850831923297e+00 9.6413549849276203e-01 
        </Neuron>
        <Neuron NSynapses="20">
          -2.5475675759262333e+00 -1.8808801409372047e+00 -1.0816365297976920e-01 -1.4405603974804404e+00 4.2182579562546874e+00 2.6487677239289433e+00 1.2011615770143547e+00 1.3968150083574309e+00 -9.0133056042021975e-01 1.1233842534147702e+00 5.5570680928138716e-01 1.7358295511422670e+00 -6.5197703441344474e+00 -1.9328339441529796e+00 -9.3144153765617726e-04 5.1611533610066174e-01 4.7568700090535659e-01 -2.2694193772948915e-01 3.3736254969035362e+00 -1.7855615980441633e-01 
        </Neuron>
        <Neuron NSynapses="20">
          -6.8658590260454211e-01 -7.5261529811690361e-02 2.0898903545725473e+00 -1.4827293228712712e+00 -1.6517653830526151e+00 -5.7054674649253012e-01 -3.2205623859021448e-01 1.5305669437059264e+00 9.0130575588817952e-01 -3.2967268400319200e-01 8.7147811242772166e-01 1.9976153336526634e+00 2.1224234670818243e+00 -1.2881359022822397e-01 -5.9939799092324164e-01 -9.5558923315528299e-01 -1.6175730993288882e+00 1.1435940933632558e+00 -1.0975278784768978e+01 -1.1495324837532510e+00 
        </Neuron>
      </Layer>
      <Layer Index="1" NNeurons="21">
        <Neuron NSynapses="1">
          -1.0020417333370901e+00 
        </Neuron>
        <Neuron NSynapses="1">
          -1.0492918617881326e+00 
        </Neuron>
        <Neuron NSynapses="1">
          -1.0042579379638312e+00 
        </Neuron>
        <Neuron NSynapses="1">
          -6.2198953576857907e-01 
        </Neuron>
        <Neuron NSynapses="1">
          2.0527393183290985e+00 
        </Neuron>
        <Neuron NSynapses="1">
          -8.0904932012492570e-01 
        </Neuron>
        <Neuron NSynapses="1">
          -5.9273833443383406e-01 
        </Neuron>
        <Neuron NSynapses="1">
          -8.1795835929237348e-01 
        </Neuron>
        <Neuron NSynapses="1">
          -2.1889392125274316e+00 
        </Neuron>
        <Neuron NSynapses="1">
          -5.2828089565626879e-01 
        </Neuron>
        <Neuron NSynapses="1">
          2.0814552156313897e+00 
        </Neuron>
        <Neuron NSynapses="1">
          -4.6472058846494563e-01 
        </Neuron>
        <Neuron NSynapses="1">
          -2.2219049284447872e+00 
        </Neuron>
        <Neuron NSynapses="1">
          1.0822767484937383e+00 
        </Neuron>
        <Neuron NSynapses="1">
          7.2642930262781036e-01 
        </Neuron>
        <Neuron NSynapses="1">
          -3.9112299516121390e-01 
        </Neuron>
        <Neuron NSynapses="1">
          -4.0087308844910297e-01 
        </Neuron>
        <Neuron NSynapses="1">
          6.3688736366612242e-01 
        </Neuron>
        <Neuron NSynapses="1">
          1.3092262440868323e+00 
        </Neuron>
        <Neuron NSynapses="1">
          1.5926916762105256e-01 
        </Neuron>
        <Neuron NSynapses="1">
          -2.3700767030825953e+00 
        </Neuron>
      </Layer>
      <Layer Index="2" NNeurons="1">
        <Neuron NSynapses="0"/>
      </Layer>
    </Layout>
  </Weights>
</MethodSetup>
