<?xml version="1.0"?>
<MethodSetup Method="MLP::Ghost_Long_TMVA">
  <GeneralInfo>
    <Info name="TMVA Release" value="4.2.0 [262656]"/>
    <Info name="ROOT Release" value="6.02/01 [393729]"/>
    <Info name="Creator" value="jonesc"/>
    <Info name="Date" value="Mon Feb 15 18:16:23 2016"/>
    <Info name="Host" value="Linux lcgapp-slc6-physical1.cern.ch 2.6.32-431.29.2.el6.x86_64 #1 SMP Wed Sep 10 11:13:12 CEST 2014 x86_64 x86_64 x86_64 GNU/Linux"/>
    <Info name="Dir" value="/var/pcfst/r03/lhcb/jonesc/ANNPID/results/MC12/TrainMixture/TrainPhysTks-EvalPhysTks-ReweightRICH2/GhostAccFrac1.0/ProtonAccFrac1.0/KaonAccFrac1.0/TMVA-Run2-NoTkLikCDVelodEdx/MLP/Norm/ScaleF1.4/BP/NCycles750/CE/tanh/CVTest15/CVImp1e-16/NotUseRegulator/Ghost/Long"/>
    <Info name="Training events" value="2700000"/>
    <Info name="TrainingTime" value="1.02148603e+05"/>
    <Info name="AnalysisType" value="Classification"/>
  </GeneralInfo>
  <Options>
    <Option name="NCycles" modified="Yes">750</Option>
    <Option name="HiddenLayers" modified="Yes">44</Option>
    <Option name="NeuronType" modified="Yes">tanh</Option>
    <Option name="RandomSeed" modified="No">1</Option>
    <Option name="EstimatorType" modified="Yes">CE</Option>
    <Option name="NeuronInputType" modified="No">sum</Option>
    <Option name="V" modified="Yes">True</Option>
    <Option name="VerbosityLevel" modified="No">Verbose</Option>
    <Option name="VarTransform" modified="Yes">Norm</Option>
    <Option name="H" modified="Yes">True</Option>
    <Option name="CreateMVAPdfs" modified="No">False</Option>
    <Option name="IgnoreNegWeightsInTraining" modified="No">False</Option>
    <Option name="TrainingMethod" modified="Yes">BP</Option>
    <Option name="LearningRate" modified="No">2.000000e-02</Option>
    <Option name="DecayRate" modified="No">1.000000e-02</Option>
    <Option name="TestRate" modified="No">10</Option>
    <Option name="EpochMonitoring" modified="Yes">True</Option>
    <Option name="Sampling" modified="No">1.000000e+00</Option>
    <Option name="SamplingEpoch" modified="No">1.000000e+00</Option>
    <Option name="SamplingImportance" modified="No">1.000000e+00</Option>
    <Option name="SamplingTraining" modified="No">True</Option>
    <Option name="SamplingTesting" modified="No">False</Option>
    <Option name="ResetStep" modified="No">50</Option>
    <Option name="Tau" modified="No">3.000000e+00</Option>
    <Option name="BPMode" modified="No">sequential</Option>
    <Option name="BatchSize" modified="No">-1</Option>
    <Option name="ConvergenceImprove" modified="Yes">1.000000e-16</Option>
    <Option name="ConvergenceTests" modified="Yes">15</Option>
    <Option name="UseRegulator" modified="Yes">False</Option>
    <Option name="UpdateLimit" modified="No">10000</Option>
    <Option name="CalculateErrors" modified="No">False</Option>
    <Option name="WeightRange" modified="No">1.000000e+00</Option>
  </Options>
  <Variables NVar="32">
    <Variable VarIndex="0" Expression="TrackP" Label="TrackP" Title="TrackP" Unit="" Internal="TrackP" Type="F" Min="1.13909998e+03" Max="4.90768300e+06"/>
    <Variable VarIndex="1" Expression="TrackPt" Label="TrackPt" Title="TrackPt" Unit="" Internal="TrackPt" Type="F" Min="4.93229866e-01" Max="7.11159875e+05"/>
    <Variable VarIndex="2" Expression="TrackChi2PerDof" Label="TrackChi2PerDof" Title="TrackChi2PerDof" Unit="" Internal="TrackChi2PerDof" Type="F" Min="1.24317907e-01" Max="2.99999571e+00"/>
    <Variable VarIndex="3" Expression="TrackNumDof" Label="TrackNumDof" Title="TrackNumDof" Unit="" Internal="TrackNumDof" Type="I" Min="7.00000000e+00" Max="5.40000000e+01"/>
    <Variable VarIndex="4" Expression="TrackGhostProbability" Label="TrackGhostProbability" Title="TrackGhostProbability" Unit="" Internal="TrackGhostProbability" Type="F" Min="-9.99000000e+02" Max="1.00000000e+00"/>
    <Variable VarIndex="5" Expression="TrackFitMatchChi2" Label="TrackFitMatchChi2" Title="TrackFitMatchChi2" Unit="" Internal="TrackFitMatchChi2" Type="F" Min="7.98587501e-03" Max="1.04777473e+02"/>
    <Variable VarIndex="6" Expression="TrackFitVeloChi2" Label="TrackFitVeloChi2" Title="TrackFitVeloChi2" Unit="" Internal="TrackFitVeloChi2" Type="F" Min="1.11803693e-05" Max="8.41884460e+01"/>
    <Variable VarIndex="7" Expression="TrackFitVeloNDoF" Label="TrackFitVeloNDoF" Title="TrackFitVeloNDoF" Unit="" Internal="TrackFitVeloNDoF" Type="I" Min="1.00000000e+00" Max="2.80000000e+01"/>
    <Variable VarIndex="8" Expression="TrackFitTChi2" Label="TrackFitTChi2" Title="TrackFitTChi2" Unit="" Internal="TrackFitTChi2" Type="F" Min="9.45179781e-05" Max="1.00095139e+02"/>
    <Variable VarIndex="9" Expression="TrackFitTNDoF" Label="TrackFitTNDoF" Title="TrackFitTNDoF" Unit="" Internal="TrackFitTNDoF" Type="I" Min="1.00000000e+00" Max="3.10000000e+01"/>
    <Variable VarIndex="10" Expression="RichUsedR1Gas" Label="RichUsedR1Gas" Title="RichUsedR1Gas" Unit="" Internal="RichUsedR1Gas" Type="I" Min="0.00000000e+00" Max="1.00000000e+00"/>
    <Variable VarIndex="11" Expression="RichUsedR2Gas" Label="RichUsedR2Gas" Title="RichUsedR2Gas" Unit="" Internal="RichUsedR2Gas" Type="I" Min="0.00000000e+00" Max="1.00000000e+00"/>
    <Variable VarIndex="12" Expression="RichAboveMuThres" Label="RichAboveMuThres" Title="RichAboveMuThres" Unit="" Internal="RichAboveMuThres" Type="I" Min="0.00000000e+00" Max="1.00000000e+00"/>
    <Variable VarIndex="13" Expression="RichAboveKaThres" Label="RichAboveKaThres" Title="RichAboveKaThres" Unit="" Internal="RichAboveKaThres" Type="I" Min="0.00000000e+00" Max="1.00000000e+00"/>
    <Variable VarIndex="14" Expression="RichDLLe" Label="RichDLLe" Title="RichDLLe" Unit="" Internal="RichDLLe" Type="F" Min="-9.99000000e+02" Max="1.42488998e+02"/>
    <Variable VarIndex="15" Expression="RichDLLmu" Label="RichDLLmu" Title="RichDLLmu" Unit="" Internal="RichDLLmu" Type="F" Min="-9.99000000e+02" Max="8.88694000e+01"/>
    <Variable VarIndex="16" Expression="RichDLLk" Label="RichDLLk" Title="RichDLLk" Unit="" Internal="RichDLLk" Type="F" Min="-9.99000000e+02" Max="1.34669998e+02"/>
    <Variable VarIndex="17" Expression="RichDLLp" Label="RichDLLp" Title="RichDLLp" Unit="" Internal="RichDLLp" Type="F" Min="-9.99000000e+02" Max="1.08032501e+02"/>
    <Variable VarIndex="18" Expression="RichDLLbt" Label="RichDLLbt" Title="RichDLLbt" Unit="" Internal="RichDLLbt" Type="F" Min="-9.99000000e+02" Max="6.76083984e+01"/>
    <Variable VarIndex="19" Expression="MuonBkgLL" Label="MuonBkgLL" Title="MuonBkgLL" Unit="" Internal="MuonBkgLL" Type="F" Min="-9.99000000e+02" Max="2.63999999e-02"/>
    <Variable VarIndex="20" Expression="MuonMuLL" Label="MuonMuLL" Title="MuonMuLL" Unit="" Internal="MuonMuLL" Type="F" Min="-9.99000000e+02" Max="0.00000000e+00"/>
    <Variable VarIndex="21" Expression="MuonIsMuon" Label="MuonIsMuon" Title="MuonIsMuon" Unit="" Internal="MuonIsMuon" Type="I" Min="0.00000000e+00" Max="1.00000000e+00"/>
    <Variable VarIndex="22" Expression="MuonNShared" Label="MuonNShared" Title="MuonNShared" Unit="" Internal="MuonNShared" Type="I" Min="0.00000000e+00" Max="1.19000000e+02"/>
    <Variable VarIndex="23" Expression="InAccMuon" Label="InAccMuon" Title="InAccMuon" Unit="" Internal="InAccMuon" Type="I" Min="0.00000000e+00" Max="1.00000000e+00"/>
    <Variable VarIndex="24" Expression="MuonIsLooseMuon" Label="MuonIsLooseMuon" Title="MuonIsLooseMuon" Unit="" Internal="MuonIsLooseMuon" Type="I" Min="0.00000000e+00" Max="1.00000000e+00"/>
    <Variable VarIndex="25" Expression="EcalPIDe" Label="EcalPIDe" Title="EcalPIDe" Unit="" Internal="EcalPIDe" Type="F" Min="-9.99000000e+02" Max="4.34127378e+00"/>
    <Variable VarIndex="26" Expression="EcalPIDmu" Label="EcalPIDmu" Title="EcalPIDmu" Unit="" Internal="EcalPIDmu" Type="F" Min="-9.99000000e+02" Max="2.15297604e+00"/>
    <Variable VarIndex="27" Expression="HcalPIDe" Label="HcalPIDe" Title="HcalPIDe" Unit="" Internal="HcalPIDe" Type="F" Min="-9.99000000e+02" Max="3.63561058e+00"/>
    <Variable VarIndex="28" Expression="HcalPIDmu" Label="HcalPIDmu" Title="HcalPIDmu" Unit="" Internal="HcalPIDmu" Type="F" Min="-9.99000000e+02" Max="2.87338901e+00"/>
    <Variable VarIndex="29" Expression="PrsPIDe" Label="PrsPIDe" Title="PrsPIDe" Unit="" Internal="PrsPIDe" Type="F" Min="-9.99000000e+02" Max="3.46313500e+00"/>
    <Variable VarIndex="30" Expression="InAccBrem" Label="InAccBrem" Title="InAccBrem" Unit="" Internal="InAccBrem" Type="I" Min="0.00000000e+00" Max="1.00000000e+00"/>
    <Variable VarIndex="31" Expression="BremPIDe" Label="BremPIDe" Title="BremPIDe" Unit="" Internal="BremPIDe" Type="F" Min="-9.99000000e+02" Max="4.79148388e+00"/>
  </Variables>
  <Spectators NSpec="0"/>
  <Classes NClass="2">
    <Class Name="Background" Index="0"/>
    <Class Name="Signal" Index="1"/>
  </Classes>
  <Transformations NTransformations="1">
    <Transform Name="Normalize">
      <Selection>
        <Input NInputs="32">
          <Input Type="Variable" Label="TrackP" Expression="TrackP"/>
          <Input Type="Variable" Label="TrackPt" Expression="TrackPt"/>
          <Input Type="Variable" Label="TrackChi2PerDof" Expression="TrackChi2PerDof"/>
          <Input Type="Variable" Label="TrackNumDof" Expression="TrackNumDof"/>
          <Input Type="Variable" Label="TrackGhostProbability" Expression="TrackGhostProbability"/>
          <Input Type="Variable" Label="TrackFitMatchChi2" Expression="TrackFitMatchChi2"/>
          <Input Type="Variable" Label="TrackFitVeloChi2" Expression="TrackFitVeloChi2"/>
          <Input Type="Variable" Label="TrackFitVeloNDoF" Expression="TrackFitVeloNDoF"/>
          <Input Type="Variable" Label="TrackFitTChi2" Expression="TrackFitTChi2"/>
          <Input Type="Variable" Label="TrackFitTNDoF" Expression="TrackFitTNDoF"/>
          <Input Type="Variable" Label="RichUsedR1Gas" Expression="RichUsedR1Gas"/>
          <Input Type="Variable" Label="RichUsedR2Gas" Expression="RichUsedR2Gas"/>
          <Input Type="Variable" Label="RichAboveMuThres" Expression="RichAboveMuThres"/>
          <Input Type="Variable" Label="RichAboveKaThres" Expression="RichAboveKaThres"/>
          <Input Type="Variable" Label="RichDLLe" Expression="RichDLLe"/>
          <Input Type="Variable" Label="RichDLLmu" Expression="RichDLLmu"/>
          <Input Type="Variable" Label="RichDLLk" Expression="RichDLLk"/>
          <Input Type="Variable" Label="RichDLLp" Expression="RichDLLp"/>
          <Input Type="Variable" Label="RichDLLbt" Expression="RichDLLbt"/>
          <Input Type="Variable" Label="MuonBkgLL" Expression="MuonBkgLL"/>
          <Input Type="Variable" Label="MuonMuLL" Expression="MuonMuLL"/>
          <Input Type="Variable" Label="MuonIsMuon" Expression="MuonIsMuon"/>
          <Input Type="Variable" Label="MuonNShared" Expression="MuonNShared"/>
          <Input Type="Variable" Label="InAccMuon" Expression="InAccMuon"/>
          <Input Type="Variable" Label="MuonIsLooseMuon" Expression="MuonIsLooseMuon"/>
          <Input Type="Variable" Label="EcalPIDe" Expression="EcalPIDe"/>
          <Input Type="Variable" Label="EcalPIDmu" Expression="EcalPIDmu"/>
          <Input Type="Variable" Label="HcalPIDe" Expression="HcalPIDe"/>
          <Input Type="Variable" Label="HcalPIDmu" Expression="HcalPIDmu"/>
          <Input Type="Variable" Label="PrsPIDe" Expression="PrsPIDe"/>
          <Input Type="Variable" Label="InAccBrem" Expression="InAccBrem"/>
          <Input Type="Variable" Label="BremPIDe" Expression="BremPIDe"/>
        </Input>
        <Output NOutputs="32">
          <Output Type="Variable" Label="TrackP" Expression="TrackP"/>
          <Output Type="Variable" Label="TrackPt" Expression="TrackPt"/>
          <Output Type="Variable" Label="TrackChi2PerDof" Expression="TrackChi2PerDof"/>
          <Output Type="Variable" Label="TrackNumDof" Expression="TrackNumDof"/>
          <Output Type="Variable" Label="TrackGhostProbability" Expression="TrackGhostProbability"/>
          <Output Type="Variable" Label="TrackFitMatchChi2" Expression="TrackFitMatchChi2"/>
          <Output Type="Variable" Label="TrackFitVeloChi2" Expression="TrackFitVeloChi2"/>
          <Output Type="Variable" Label="TrackFitVeloNDoF" Expression="TrackFitVeloNDoF"/>
          <Output Type="Variable" Label="TrackFitTChi2" Expression="TrackFitTChi2"/>
          <Output Type="Variable" Label="TrackFitTNDoF" Expression="TrackFitTNDoF"/>
          <Output Type="Variable" Label="RichUsedR1Gas" Expression="RichUsedR1Gas"/>
          <Output Type="Variable" Label="RichUsedR2Gas" Expression="RichUsedR2Gas"/>
          <Output Type="Variable" Label="RichAboveMuThres" Expression="RichAboveMuThres"/>
          <Output Type="Variable" Label="RichAboveKaThres" Expression="RichAboveKaThres"/>
          <Output Type="Variable" Label="RichDLLe" Expression="RichDLLe"/>
          <Output Type="Variable" Label="RichDLLmu" Expression="RichDLLmu"/>
          <Output Type="Variable" Label="RichDLLk" Expression="RichDLLk"/>
          <Output Type="Variable" Label="RichDLLp" Expression="RichDLLp"/>
          <Output Type="Variable" Label="RichDLLbt" Expression="RichDLLbt"/>
          <Output Type="Variable" Label="MuonBkgLL" Expression="MuonBkgLL"/>
          <Output Type="Variable" Label="MuonMuLL" Expression="MuonMuLL"/>
          <Output Type="Variable" Label="MuonIsMuon" Expression="MuonIsMuon"/>
          <Output Type="Variable" Label="MuonNShared" Expression="MuonNShared"/>
          <Output Type="Variable" Label="InAccMuon" Expression="InAccMuon"/>
          <Output Type="Variable" Label="MuonIsLooseMuon" Expression="MuonIsLooseMuon"/>
          <Output Type="Variable" Label="EcalPIDe" Expression="EcalPIDe"/>
          <Output Type="Variable" Label="EcalPIDmu" Expression="EcalPIDmu"/>
          <Output Type="Variable" Label="HcalPIDe" Expression="HcalPIDe"/>
          <Output Type="Variable" Label="HcalPIDmu" Expression="HcalPIDmu"/>
          <Output Type="Variable" Label="PrsPIDe" Expression="PrsPIDe"/>
          <Output Type="Variable" Label="InAccBrem" Expression="InAccBrem"/>
          <Output Type="Variable" Label="BremPIDe" Expression="BremPIDe"/>
        </Output>
      </Selection>
      <Class ClassIndex="0">
        <Ranges>
          <Range Index="0" Min="1.1390999755859375e+03" Max="1.6360880000000000e+06"/>
          <Range Index="1" Min="4.3312940597534180e+00" Max="8.0906382812500000e+04"/>
          <Range Index="2" Min="1.2431790679693222e-01" Max="2.9999823570251465e+00"/>
          <Range Index="3" Min="7.0000000000000000e+00" Max="5.4000000000000000e+01"/>
          <Range Index="4" Min="-9.9900000000000000e+02" Max="1.0000000000000000e+00"/>
          <Range Index="5" Min="7.9858750104904175e-03" Max="1.0342210388183594e+02"/>
          <Range Index="6" Min="6.1010727222310379e-05" Max="7.9983940124511719e+01"/>
          <Range Index="7" Min="1.0000000000000000e+00" Max="2.8000000000000000e+01"/>
          <Range Index="8" Min="1.3691445346921682e-03" Max="1.0009513854980469e+02"/>
          <Range Index="9" Min="1.0000000000000000e+00" Max="3.1000000000000000e+01"/>
          <Range Index="10" Min="0.0000000000000000e+00" Max="1.0000000000000000e+00"/>
          <Range Index="11" Min="0.0000000000000000e+00" Max="1.0000000000000000e+00"/>
          <Range Index="12" Min="0.0000000000000000e+00" Max="1.0000000000000000e+00"/>
          <Range Index="13" Min="0.0000000000000000e+00" Max="1.0000000000000000e+00"/>
          <Range Index="14" Min="-9.9900000000000000e+02" Max="1.0926319885253906e+02"/>
          <Range Index="15" Min="-9.9900000000000000e+02" Max="8.8869400024414062e+01"/>
          <Range Index="16" Min="-9.9900000000000000e+02" Max="1.3466999816894531e+02"/>
          <Range Index="17" Min="-9.9900000000000000e+02" Max="1.0803250122070312e+02"/>
          <Range Index="18" Min="-9.9900000000000000e+02" Max="6.7549797058105469e+01"/>
          <Range Index="19" Min="-9.9900000000000000e+02" Max="2.4399999529123306e-02"/>
          <Range Index="20" Min="-9.9900000000000000e+02" Max="0.0000000000000000e+00"/>
          <Range Index="21" Min="0.0000000000000000e+00" Max="1.0000000000000000e+00"/>
          <Range Index="22" Min="0.0000000000000000e+00" Max="1.1900000000000000e+02"/>
          <Range Index="23" Min="0.0000000000000000e+00" Max="1.0000000000000000e+00"/>
          <Range Index="24" Min="0.0000000000000000e+00" Max="1.0000000000000000e+00"/>
          <Range Index="25" Min="-9.9900000000000000e+02" Max="4.3412737846374512e+00"/>
          <Range Index="26" Min="-9.9900000000000000e+02" Max="2.1529760360717773e+00"/>
          <Range Index="27" Min="-9.9900000000000000e+02" Max="3.1279697418212891e+00"/>
          <Range Index="28" Min="-9.9900000000000000e+02" Max="2.8733890056610107e+00"/>
          <Range Index="29" Min="-9.9900000000000000e+02" Max="3.4631350040435791e+00"/>
          <Range Index="30" Min="0.0000000000000000e+00" Max="1.0000000000000000e+00"/>
          <Range Index="31" Min="-9.9900000000000000e+02" Max="4.7914838790893555e+00"/>
        </Ranges>
      </Class>
      <Class ClassIndex="1">
        <Ranges>
          <Range Index="0" Min="1.1598299560546875e+03" Max="4.9076830000000000e+06"/>
          <Range Index="1" Min="4.9322986602783203e-01" Max="7.1115987500000000e+05"/>
          <Range Index="2" Min="1.7495904862880707e-01" Max="2.9999957084655762e+00"/>
          <Range Index="3" Min="7.0000000000000000e+00" Max="5.3000000000000000e+01"/>
          <Range Index="4" Min="-9.9900000000000000e+02" Max="1.0000000000000000e+00"/>
          <Range Index="5" Min="3.9068493992090225e-02" Max="1.0477747344970703e+02"/>
          <Range Index="6" Min="1.1180369256180711e-05" Max="8.4188446044921875e+01"/>
          <Range Index="7" Min="1.0000000000000000e+00" Max="2.6000000000000000e+01"/>
          <Range Index="8" Min="9.4517978141084313e-05" Max="9.5148269653320312e+01"/>
          <Range Index="9" Min="1.0000000000000000e+00" Max="2.9000000000000000e+01"/>
          <Range Index="10" Min="0.0000000000000000e+00" Max="1.0000000000000000e+00"/>
          <Range Index="11" Min="0.0000000000000000e+00" Max="1.0000000000000000e+00"/>
          <Range Index="12" Min="0.0000000000000000e+00" Max="1.0000000000000000e+00"/>
          <Range Index="13" Min="0.0000000000000000e+00" Max="1.0000000000000000e+00"/>
          <Range Index="14" Min="-9.9900000000000000e+02" Max="1.4248899841308594e+02"/>
          <Range Index="15" Min="-9.9900000000000000e+02" Max="5.7926101684570312e+01"/>
          <Range Index="16" Min="-9.9900000000000000e+02" Max="7.6665199279785156e+01"/>
          <Range Index="17" Min="-9.9900000000000000e+02" Max="7.3567596435546875e+01"/>
          <Range Index="18" Min="-9.9900000000000000e+02" Max="6.7608398437500000e+01"/>
          <Range Index="19" Min="-9.9900000000000000e+02" Max="2.6399999856948853e-02"/>
          <Range Index="20" Min="-9.9900000000000000e+02" Max="0.0000000000000000e+00"/>
          <Range Index="21" Min="0.0000000000000000e+00" Max="1.0000000000000000e+00"/>
          <Range Index="22" Min="0.0000000000000000e+00" Max="9.2000000000000000e+01"/>
          <Range Index="23" Min="0.0000000000000000e+00" Max="1.0000000000000000e+00"/>
          <Range Index="24" Min="0.0000000000000000e+00" Max="1.0000000000000000e+00"/>
          <Range Index="25" Min="-9.9900000000000000e+02" Max="4.3412737846374512e+00"/>
          <Range Index="26" Min="-9.9900000000000000e+02" Max="2.1529760360717773e+00"/>
          <Range Index="27" Min="-9.9900000000000000e+02" Max="3.6356105804443359e+00"/>
          <Range Index="28" Min="-9.9900000000000000e+02" Max="2.8733890056610107e+00"/>
          <Range Index="29" Min="-9.9900000000000000e+02" Max="3.4631350040435791e+00"/>
          <Range Index="30" Min="0.0000000000000000e+00" Max="1.0000000000000000e+00"/>
          <Range Index="31" Min="-9.9900000000000000e+02" Max="4.7914838790893555e+00"/>
        </Ranges>
      </Class>
      <Class ClassIndex="2">
        <Ranges>
          <Range Index="0" Min="1.1390999755859375e+03" Max="4.9076830000000000e+06"/>
          <Range Index="1" Min="4.9322986602783203e-01" Max="7.1115987500000000e+05"/>
          <Range Index="2" Min="1.2431790679693222e-01" Max="2.9999957084655762e+00"/>
          <Range Index="3" Min="7.0000000000000000e+00" Max="5.4000000000000000e+01"/>
          <Range Index="4" Min="-9.9900000000000000e+02" Max="1.0000000000000000e+00"/>
          <Range Index="5" Min="7.9858750104904175e-03" Max="1.0477747344970703e+02"/>
          <Range Index="6" Min="1.1180369256180711e-05" Max="8.4188446044921875e+01"/>
          <Range Index="7" Min="1.0000000000000000e+00" Max="2.8000000000000000e+01"/>
          <Range Index="8" Min="9.4517978141084313e-05" Max="1.0009513854980469e+02"/>
          <Range Index="9" Min="1.0000000000000000e+00" Max="3.1000000000000000e+01"/>
          <Range Index="10" Min="0.0000000000000000e+00" Max="1.0000000000000000e+00"/>
          <Range Index="11" Min="0.0000000000000000e+00" Max="1.0000000000000000e+00"/>
          <Range Index="12" Min="0.0000000000000000e+00" Max="1.0000000000000000e+00"/>
          <Range Index="13" Min="0.0000000000000000e+00" Max="1.0000000000000000e+00"/>
          <Range Index="14" Min="-9.9900000000000000e+02" Max="1.4248899841308594e+02"/>
          <Range Index="15" Min="-9.9900000000000000e+02" Max="8.8869400024414062e+01"/>
          <Range Index="16" Min="-9.9900000000000000e+02" Max="1.3466999816894531e+02"/>
          <Range Index="17" Min="-9.9900000000000000e+02" Max="1.0803250122070312e+02"/>
          <Range Index="18" Min="-9.9900000000000000e+02" Max="6.7608398437500000e+01"/>
          <Range Index="19" Min="-9.9900000000000000e+02" Max="2.6399999856948853e-02"/>
          <Range Index="20" Min="-9.9900000000000000e+02" Max="0.0000000000000000e+00"/>
          <Range Index="21" Min="0.0000000000000000e+00" Max="1.0000000000000000e+00"/>
          <Range Index="22" Min="0.0000000000000000e+00" Max="1.1900000000000000e+02"/>
          <Range Index="23" Min="0.0000000000000000e+00" Max="1.0000000000000000e+00"/>
          <Range Index="24" Min="0.0000000000000000e+00" Max="1.0000000000000000e+00"/>
          <Range Index="25" Min="-9.9900000000000000e+02" Max="4.3412737846374512e+00"/>
          <Range Index="26" Min="-9.9900000000000000e+02" Max="2.1529760360717773e+00"/>
          <Range Index="27" Min="-9.9900000000000000e+02" Max="3.6356105804443359e+00"/>
          <Range Index="28" Min="-9.9900000000000000e+02" Max="2.8733890056610107e+00"/>
          <Range Index="29" Min="-9.9900000000000000e+02" Max="3.4631350040435791e+00"/>
          <Range Index="30" Min="0.0000000000000000e+00" Max="1.0000000000000000e+00"/>
          <Range Index="31" Min="-9.9900000000000000e+02" Max="4.7914838790893555e+00"/>
        </Ranges>
      </Class>
    </Transform>
  </Transformations>
  <MVAPdfs/>
  <Weights>
    <Layout NLayers="3">
      <Layer Index="0" NNeurons="33">
        <Neuron NSynapses="44">
          8.1127877203506298e+00 -4.3021224183198492e-01 -1.5640543308598405e+00 2.9725796407884388e+00 -9.9073779189535305e+00 -1.1361642474259370e-01 -2.9696203129287834e+01 1.0241415516199879e+01 -9.2624818519127974e-02 -1.1305116723709274e+00 -1.2156014127911513e+01 -2.9447374115526710e+00 -2.2121891597293799e+00 -2.1178685231418807e+01 -1.2852809508710186e+00 -9.3872543641231898e-01 7.5778024522408427e-01 9.1625751652725795e-01 -2.9754256722886199e+00 1.6214275126389659e+00 -8.7445781546380168e+00 -1.5178663132658244e+01 6.8636021053849285e+00 2.1984149235479675e+00 -1.9041582086666391e+00 1.3798895801124580e+00 2.5471743582224691e+00 -1.1911339985334685e-01 -1.4504028323402078e+01 2.4490115938402783e+00 2.2685504945137831e+00 4.2259867933237927e-01 -2.9468931079016220e-01 -9.3058898776075494e-01 -3.6215227757014605e+00 3.0042866188993558e+00 -7.7617566350384970e-01 -6.6446048405620950e-01 -1.4214690777942174e+00 -2.2155132226810919e+00 6.8210201040182783e-01 -5.5789032247260195e+00 9.3069324303664311e-02 3.8527352629935736e+00 
        </Neuron>
        <Neuron NSynapses="44">
          -1.8126416894354531e+00 -2.6411071628171259e+00 -1.6917209956371909e-01 -1.8627685846131248e-01 2.4572573402194053e+00 5.7182227427755283e-01 -1.0135596808330565e+00 1.9688629670003905e+01 -4.2842458882085355e+00 -5.4565219256950494e-02 -6.0698209993023582e+00 -4.7655847895318093e+00 -2.4837022738290329e+00 -2.4575172093598896e+00 6.1345406494309318e-01 1.3547231434734792e+00 -2.2025167977836177e-01 1.4687178121482491e+00 -1.4067224965578666e+00 -2.4902546666632897e+00 2.8580433213795797e+00 -1.0620719135896117e+00 1.2579480356253050e+00 1.4113286615694509e+00 4.8572611788209907e-01 -4.7382777651729241e-01 -2.2149675523618138e+00 -4.5888158857107992e+00 3.0874285060256743e+00 3.1887468519178701e+00 3.1822841978255010e+00 -1.7440487201233861e+00 -3.4475294332027921e+00 3.3229049209478849e+00 -2.9453144716253923e+00 -1.7850535037111019e+00 1.1914116980686711e+00 2.4458551755264644e+00 1.0339355614067969e+00 2.5172869174695420e+00 -1.7222867757915020e-01 6.4689238784768011e-01 2.8691748892407190e+00 3.5221210628050476e-01 
        </Neuron>
        <Neuron NSynapses="44">
          -1.8011774441698281e+00 -7.6804704718179717e-01 7.8896984649461643e-01 -3.5963127459726385e-01 4.1638798855168782e+00 -1.3699191515945786e-01 5.4857942789968195e-01 -5.9450866298966432e-01 -4.4528511182593036e+00 -2.6030944833020073e+00 -2.1992157976337010e+00 -1.0762196975982434e+00 -4.2096759762348995e-01 -1.8252817399163883e+00 -1.8407162135689878e-01 6.6859673757191707e-01 8.6865228962443281e-02 7.2859916949407220e+00 -2.1646301643297963e+00 3.5511376565421127e-01 2.1518098939272114e+00 -1.2185331961212225e+00 1.4802569992244135e+00 -2.4844348935180678e+00 2.4974561051049810e-01 2.4848715745471011e+00 -7.7179138564848833e+00 -6.7962768054537645e-02 -9.1622469262222273e-01 -3.8594539687504148e-01 1.0618344154952716e-01 -6.0221952288451499e+00 -7.8011521449941403e+00 -2.6608512941918172e-01 -5.8144336698781329e-01 3.5065080302179306e+00 -4.7362042161465920e+00 2.7494793703029115e+00 -3.7753497099208339e-01 2.2047991717383133e+00 8.0827813222396063e+00 1.6139544879365617e+00 -2.2966364431812800e+00 -1.5933231306048661e+00 
        </Neuron>
        <Neuron NSynapses="44">
          2.4978816053227717e+01 -7.3677361155723045e+00 6.1067017689374783e+00 2.4377681375771023e+00 -4.3782824282523407e+00 -2.1723032976983248e+01 3.1062289005496648e+00 5.1565323829742993e-01 1.6526460356451693e+00 4.8302885764460148e+00 -9.8574809814541264e-01 1.1865930860823177e+00 -5.1224927563996614e+00 4.2902053955698625e+00 2.3964459329899674e+00 -8.3623475599267323e+00 -1.7902079175826731e+00 3.3555248712636851e+00 5.1365303735298218e-01 -2.6634263499301430e-01 -2.8053698748866611e+00 -1.6433458338828468e+00 1.0658045818952907e+01 9.1579121127777741e-01 -1.1979213471516288e+00 8.8101310120759155e+00 1.4156457278802916e+00 -7.0100286321890675e+00 -3.3424023775630440e-01 3.8316039683546972e+00 6.8573043048543409e+00 1.9161958614075971e+01 4.9860928894973418e+00 4.3525462502693590e-01 -2.1992120756734334e+01 6.6298204414777535e+00 -2.6044885940650064e+00 4.2015419309843391e+00 1.4097389470234505e+00 6.5567866850891319e+00 -1.7414746016365662e+01 2.7845914478595500e+01 1.6546734094431170e+00 4.5356492034164617e+00 
        </Neuron>
        <Neuron NSynapses="44">
          4.3569399904628447e+00 -8.4613521126846569e-01 4.0577087446098498e-01 -1.3741319493782158e+00 -3.6392478803823445e+00 7.0907293932452164e+00 -2.8367156247137609e-01 -6.8160702384340492e+00 -1.5335350085719479e+00 1.6484328880741630e-01 6.7798502840255204e-01 7.8390023857292963e+00 8.8613974852577426e-01 -3.7163035147791762e-01 -1.9104629240277624e+00 -9.4604800565320413e-01 1.9095448824987211e+00 -1.3558194159408779e-01 5.4446709960930910e+00 3.8931176838626691e-01 -2.9255026806160278e+00 1.2801783297812750e+00 -4.9657779494773996e-01 2.6825434689632999e-01 7.9591439746737713e-02 -2.1659362871668906e+00 -8.8391628266293842e-01 3.8866389695909720e-01 4.2196168339022622e+00 -6.2248518972803313e-01 -6.8247324068982511e+00 -7.6895111797624549e-01 -4.3762494752201198e-01 -1.4734649756204634e+00 1.7967294574759647e+00 2.7478263752778305e+00 -4.4263889799654593e-01 -5.4667867990415209e-01 1.7387460950651508e+00 -3.3352764694103293e-01 1.3786813323803286e+00 -2.0526008928204723e-01 2.2871244705466385e+00 6.2225394645044707e-01 
        </Neuron>
        <Neuron NSynapses="44">
          4.7761002115848283e-01 1.1665186278612718e+00 1.3865690139272855e+00 6.4186783625425370e-01 -3.1733855952925469e+00 -2.5444577808932385e+00 -1.3735331538841637e+00 6.2989390190793648e-01 -1.4508292968481313e+00 -3.7652860950280442e+00 4.3446608172272496e+00 5.3787713566567541e-01 2.4964977805987769e+00 2.9774876210713153e+00 -2.0882752384441057e+00 -7.5769417363606062e-01 7.8729424046267343e-02 5.5799878244959789e-01 3.5905911274288447e+00 -2.7139642579710221e-01 1.7631749689457314e+00 3.2012985885865017e+00 -2.8956823777451812e+00 5.2431092083446380e+00 -3.1263223523988737e-01 -3.1023991930007364e+00 -2.9218107222834862e+00 -6.9217349039858567e-01 3.4769695314784301e+00 3.0572891019301779e-01 -1.7602192742495839e+00 -8.7670139783974554e-01 1.1710683137048360e+01 4.2213521041313995e-01 1.1274247466967606e+00 -6.9285520716146340e+00 5.7671359184405064e+00 -8.2397565742364289e+00 1.7246056586404174e-01 -1.6539723449548758e+00 -1.0471439572723646e+01 -1.5564953445387846e+00 3.4620941727736225e+00 -2.4375711757784249e-01 
        </Neuron>
        <Neuron NSynapses="44">
          1.9980793458410935e+00 -1.7219090819516761e-01 -2.7072066753383878e-01 6.6199751606877055e-01 -2.1568077597114383e+00 8.0815761648159723e-01 -1.8004841785585410e+00 -9.5507127713527526e-02 2.6444603694128230e+00 3.6429712171326085e+00 2.7915076064383180e+00 5.9778630755667828e-01 -1.9958888988076848e+00 -1.0112356355967553e+00 -2.0379054968319188e-01 -1.6506361368996525e+00 6.2162833350990709e-02 -3.9280665784688833e+00 1.4981252881943166e+00 -2.2451506316033240e-01 -3.5155005390080629e+00 1.8334927879631344e+00 1.5135486033741323e+00 3.8201751405264370e+00 -2.6454727435355263e-02 9.9797058500604017e+00 5.8336415600112268e+00 -6.7091787373703715e-01 2.3876701023395941e+00 2.0688520396023913e+00 1.2842898976548953e-01 8.3244688623329104e+00 5.7526775652189608e+00 1.3864070521867533e-01 -3.3299437265393204e+00 -1.0229445684771541e+00 9.1464409054411200e-01 -2.6369178183530056e-01 1.8873547757445317e+00 -8.9228242812478187e-01 -5.8194697335040537e+00 -2.1234857247425007e+00 -5.8385898059682662e+00 9.0371051962474058e-01 
        </Neuron>
        <Neuron NSynapses="44">
          -1.5017979211176868e+01 -4.5776537086062037e+00 -2.6969417743410675e+00 -6.8596848404641375e-01 4.4844022472032661e+00 1.2235970417037450e+01 -1.6655026954811867e+00 -4.5867120073587964e-01 -1.0115663982010108e+00 -5.0413800902760215e+00 -3.4094324200979824e+00 -1.0502036839695599e+00 3.6488328913672290e+00 -3.4988545177425374e+00 -1.4556892032887940e+00 5.8208498798870556e+00 7.0426246494405020e-01 -5.5256500752833038e-01 -8.7249280593242673e-01 7.5597423755983717e-01 1.2873813046576554e+00 -5.2573013101466937e-01 -8.9211209535432676e+00 -1.7351367189993754e+00 1.0687006181906550e-01 -8.3740654298829060e+00 -1.8026136175373020e+00 4.9188822524033373e+00 -5.9098089385146813e-01 -3.6817294642139333e+00 -3.0842530378545208e+00 -1.3437189766369283e+01 -8.0777260821866204e+00 -5.5509494698162032e-01 1.4195921957953722e+01 -4.7563645901849609e+00 1.6906017914125502e+00 -2.6771868019601510e+00 -2.9227385909462207e+00 -2.8316953455730709e+00 8.8642405815334104e+00 -1.4552153093890810e+01 7.1341658325951949e+00 -2.7998999877793112e+00 
        </Neuron>
        <Neuron NSynapses="44">
          2.8939052565174657e+00 -5.3255463368215850e-01 -9.4694852243107186e-01 -7.9715491950774486e-02 -3.7283867608958876e+00 1.5443064040975647e+00 -1.8677619408435260e+00 -3.0162709948316552e-01 1.5287203246571466e+00 -1.4014597108835516e+00 -7.0852535183796004e+00 -4.3944138257656867e-01 3.1291529405044294e+00 7.7907614501331157e-01 -4.3116874573968840e+00 -5.0227194930056873e-01 4.6539189995700175e-01 -7.9333516440174732e+00 7.4551222942529067e+00 -5.9850918769911643e-01 -3.5148323218770452e+00 6.1713954141931815e+00 -2.4796430984092801e+00 8.0469754179837079e+00 5.7767209097531047e-01 -6.2155230051155752e-02 5.2778123731774027e+00 3.2545912228339633e+00 -2.1888062133054831e+00 -2.9930133703760903e-01 -4.7157544184218700e+00 9.6331153887665746e+00 7.5529887411672938e+00 -5.7364585449373240e-01 1.8693242851867606e+00 -2.0074188078189796e+00 6.5686877864110143e+00 -1.4600844180811324e+01 6.7480990599197233e-01 -3.0514414490716799e+00 -9.7675242587931237e+00 -2.2375270241175289e+00 4.9117708990237370e+00 1.1160698639974476e-01 
        </Neuron>
        <Neuron NSynapses="44">
          -1.6555071914189803e+01 5.4195738288291881e+00 7.6492286596075028e+00 -1.6370110218688307e+00 7.2793400090377380e+00 8.1270826784463939e+00 6.5928474659032410e-01 3.8989282193048408e-01 -8.1347930235576316e-01 -2.7598471944457850e+00 2.1627883901793468e-01 -1.3158666378618173e+00 -3.2076966896322654e+00 -2.7180794586528720e+00 -3.3806474106475379e+00 4.4953036904994352e+00 -4.2584098981176283e-01 4.1821147215153731e-01 -5.1024894258049960e+00 3.0397736469809716e-01 3.3996077042759474e+00 2.1811798036989853e+01 -2.2925596434726909e+00 -4.6392915604569582e+00 -1.5126289639323727e+00 -3.3551076510693996e+00 -1.7803193588983941e+00 -3.1176633808069996e+00 -4.5702060943891434e+00 1.0673866851480314e+00 -1.3772774199387813e+01 -1.4354525641369317e+01 -6.9637898014940980e+00 -4.2364461434641543e-01 1.3572113075144804e+01 -4.2007424047166522e+00 -2.0909089930330378e+00 3.7195658492956198e+00 1.0290279282296533e+01 9.2433720770262067e+00 1.6433665444756564e+01 -1.5737336988503392e+01 -3.6322817699159597e+00 -9.9997568141279791e-01 
        </Neuron>
        <Neuron NSynapses="44">
          -7.0940334162062491e-01 -2.8090003497633007e+00 -3.4589860748431844e-01 4.5708865953168587e+00 -8.5033460183034304e+00 1.4552270798667761e+00 3.3589622877475929e+00 -1.8311457841583844e-02 2.6713272498415905e-02 -1.6260780960378637e-01 8.0659050192777215e+00 -7.5513207331165921e-01 2.0354750526282311e-02 3.1414244239999003e+00 3.1019523440635375e+00 -9.4821757412160679e-01 -2.1622490257880114e-01 -7.2636046224926112e+00 1.1656863441750698e-01 1.2535400962030025e+01 -5.3013209094726355e-01 2.6793582343033978e-01 1.7985843572266340e+00 -1.6712480245702273e+00 9.6534638096144809e-01 1.0114403530118545e+00 7.3727901481141611e-02 -2.1077436288904222e-01 5.3020418520259991e+00 3.2837485764074863e+00 2.5430468531951855e+00 7.8971031668687200e-02 -3.9457549147341702e+00 2.9429854014771267e-01 -2.0676641011936447e-01 2.3680017855555806e+00 2.3730867878653483e-02 3.5145494677867045e-01 -3.7777139799812370e-01 5.5047589586882895e+00 -1.8106312633809193e-01 1.1576661829715762e+00 -6.7173495632272040e-02 4.2213578360340795e+00 
        </Neuron>
        <Neuron NSynapses="44">
          1.6508041566448450e-01 2.3355091923183541e-01 -2.2166840516069569e-01 -4.0969916659764714e+00 -2.1328243572353198e-01 1.0508131421671907e-01 3.4329644775049175e+00 -1.9703279222669634e-01 1.3309172720376836e-01 -8.3791748099388774e-02 -4.9628562623445829e+00 -2.7086991148082928e+00 -3.9447185036887089e-01 5.9506453654787865e+00 8.4508745277749107e+00 -4.1107584691439397e-01 1.8725461063973606e-02 -3.9853100420643259e-02 5.6408538145863045e-02 2.4495032529527183e-01 -1.0196403689473887e-01 -3.4657990719050641e-01 2.1321697545838094e+00 -1.5099825773227191e+00 -1.4333751648514464e-01 -7.3042722209370909e+00 1.7590906956998051e-01 2.3949839335959899e-01 3.0150739410668406e+00 3.6072264816505195e-01 6.4651656112862943e-02 8.6969915803912515e-02 1.2441262191630446e-01 -2.3000129031733385e-01 1.4229246448804750e-01 6.7019860583149748e-01 2.4740681394080821e-01 9.6336473683201473e-03 -6.7904546109191499e-01 -4.4326852425445745e-01 8.8107080357568063e-02 6.0852435069847044e-01 -4.5243744035195932e-01 2.9179073958405191e+00 
        </Neuron>
        <Neuron NSynapses="44">
          1.5107715753268296e+01 -7.4653236310362985e+00 3.0810036441105593e-01 -5.0671395749563020e-01 -3.8696205199711858e-01 -8.5302316020125311e+00 3.3161787851067555e+00 -1.1003662232506166e+01 -3.8651952705403936e+00 2.3424667758988957e-01 -5.2800266601103631e+00 -4.5240683725732582e+00 -6.3209369890519562e-01 -1.6577602485615626e+00 3.2864950448883015e+00 -2.4366007898105955e+00 2.2691986583884178e+00 -3.1932617496160082e-01 -3.2826715909238169e-01 1.1172393128494193e+01 8.3433487288701169e+00 -5.3320471989320115e+00 3.8604877539939236e-01 9.4807670617742423e-01 4.9909189872841880e-01 -3.4463939327912634e-02 -3.8922931665328640e-02 -1.5595796521727181e+01 -3.5019948141905761e+00 -2.9006240343598400e+00 6.8862603911913789e-01 4.5801404420815074e-02 -3.7543328997749159e-01 5.0640197386594688e-01 -3.7331380051801183e-01 5.2364078606029887e+00 8.1962726742178749e-01 -2.7655778366541500e-01 -2.1266422642508895e+00 9.5142542358061660e-02 -6.4437876890844370e+00 1.0745918221300952e+00 8.7572100803657171e-01 -5.5141162519952835e-01 
        </Neuron>
        <Neuron NSynapses="44">
          1.2573650017805299e-01 -3.8779026794792676e-01 1.0287124367786035e+01 -5.6539639628337461e+00 -2.2840301658634030e-01 -7.7778310570542928e+00 3.8773663132648188e+00 -6.9641419421713753e+00 -5.4415307083331192e-02 2.2341596870255633e-02 5.9638613422838711e+00 2.0933607359989256e-01 3.8465521034897643e-01 -5.0261576809746416e+00 9.2708044013609259e-01 -1.1382736618004770e+00 3.9342387178623612e+00 -4.8120275743626803e-02 -5.5315507127295542e-02 1.1215356701974304e-01 -1.1891971401682686e+00 -4.3953738138532955e-02 -1.5462426452403527e-01 -7.4902403628300829e-01 3.1585014973781500e+00 -5.6058724111115437e+00 1.7403130806759919e-02 4.0085417896210873e-01 1.1319819402071886e+01 5.4102481793440638e-01 -2.3702981555081978e-01 7.8897550733469005e-02 4.8957583618750322e-01 -3.9272112388402808e-01 1.8798135058296894e-01 -1.8435818524445653e-02 1.0564032269721434e-01 -1.7058579498947049e-01 2.3112102786008717e+00 -7.3708005925854436e-01 1.2619482550184249e-01 9.1857141076858839e-01 -1.5738402792279887e-01 3.5585031195037926e+00 
        </Neuron>
        <Neuron NSynapses="44">
          -5.3417561934246677e+01 1.0252215214015246e+01 -2.4435152869163832e+00 1.4708123799936176e+01 1.6255565107542512e+01 2.2424933304254910e+00 4.9506804162664277e+00 3.3125498279069783e+00 -9.6127986532911063e+00 -6.1211988816010203e+00 3.1140768876824363e+00 -8.1536678825896942e+00 -2.0952268471919364e+00 -4.1038374252177734e-01 -5.5703611700927951e+00 2.3759066711968306e+00 -3.5245728668814587e+00 9.5848519557946432e-01 6.0657472886219099e-01 3.2153226977811755e+00 -4.3357416103976365e-01 -1.3028723944767069e+00 3.3568318052449757e+00 3.0042578866639889e+00 -1.8723522131219572e+00 -1.2592270640974942e+01 -1.5808863362556339e+01 6.5874522768122521e+00 -4.2715254388576582e+00 -5.6057746912931501e+00 -7.9829485490747887e+00 -1.3738065990909803e+01 -7.0855860584132664e+00 3.6643418999738493e+01 6.5916947287064005e+00 1.0664450095684666e+00 8.9556143794455123e-01 -8.3430254596502955e+00 -1.0582525817225410e+00 -3.4562950980772587e+00 3.1621373251206066e+01 -4.4482047233348299e+00 -1.6267489472927178e+01 -1.6221499077577699e+00 
        </Neuron>
        <Neuron NSynapses="44">
          -9.9933017100272785e+00 2.4882624095930659e+00 7.4350184011274245e-01 -1.7466865159289943e-01 -5.6125759019290218e+00 -1.4439499979156978e+00 3.4384293362084613e+00 3.5654793759848999e+00 2.0896832736834456e+00 1.1408855861927576e+00 -5.4753331698880219e+00 4.0129331274859705e+00 -1.7160629101720184e+00 -3.4866953599357138e+00 2.6151915373569037e+00 -3.7784552193412173e+00 3.9099098477321226e-01 -1.4593454475489633e+00 -2.5110263097344765e-02 7.6414587261323215e+00 -7.2070645413688417e-01 -2.2991711250086075e-02 7.9703049852762220e-01 -8.9262350613404564e+00 6.2030337845268924e-01 1.2359024363726248e+00 3.6107824428154096e+00 -2.9958745581086972e+00 -7.3778056459196648e+00 -2.8607685636591502e+00 -3.5073582009122006e+00 4.1740135464432271e+00 2.7234253639292758e+00 1.4885949362344688e+01 6.8192886473385697e+00 2.4714325882809414e+00 2.6812056887710316e+00 -3.9853862930014254e+00 -3.6117625515154446e+00 -9.7697614560763002e-01 8.9155146725493797e+00 -1.2762594243040826e+00 1.1430212365904730e+01 -2.1054465495397032e+00 
        </Neuron>
        <Neuron NSynapses="44">
          8.8246927494032720e-02 2.1175539086865762e+00 -5.7427414579164859e-01 -1.2558496401190688e+01 3.7053629038495148e+00 3.0117985348273169e+00 2.7040523823624918e+00 2.0648548841890624e+00 7.0258203549234199e+00 2.1455558900494980e+00 -2.9909846280642984e+00 -8.1548678539736734e+00 1.3600788980328860e+00 4.4171259274699559e-02 -3.4614283906542829e+00 1.0389907901084637e-01 -7.0792037967720178e-01 9.3337231509125063e-01 5.4365329628505113e-02 -1.8707313093251759e+01 1.0336558823513824e+00 2.1507602897943823e+00 -1.0058342011013088e-01 1.7443933493235497e+00 1.0878541685379748e+00 7.1486549832021256e+00 7.6599040425527916e+00 4.8325077326904825e-01 1.4230518446969675e+00 1.2758892798139845e+01 4.9227829165704806e-01 4.1898672612144621e+00 7.8286846655369868e-01 3.3535218380208335e+01 1.6866910015336865e+00 -4.1238444728153549e+00 -1.0785159846008125e+00 1.9609172177671237e+00 -2.6256170692709078e+00 2.5235211163110214e+00 -3.5016372517079808e+00 -5.4247003253761825e+00 1.9408914135084374e+00 1.8455312893058133e+00 
        </Neuron>
        <Neuron NSynapses="44">
          -6.9208171508725291e+00 1.0979931033328896e+00 -3.1750915466792149e+00 -1.0874759969903474e+01 2.0616508473695552e+00 4.0719059051094630e+00 4.1506090254991079e+00 2.6548328167080686e+00 4.9220411033130562e-01 -1.2005209728835171e+00 1.0809100232714992e-01 -6.6620648624451313e+00 3.9922316435277827e-02 1.4788686102087791e+00 -4.2015506337111352e+00 -8.9219563127794610e-01 1.9162715199215121e+00 2.0068670585672863e+00 2.0119139623126003e-01 -8.1226631987738429e+00 -1.9406727560989845e+00 9.8024095543431433e-01 -2.3577472205255732e+00 2.3875778854764378e+00 4.8501431329177003e-01 5.4844054289965172e+00 2.1546585337274374e-01 2.4048341991610225e+00 2.3889280135759469e-01 9.7950247224032125e+00 2.3184119164655508e+00 1.5327275886101599e+00 -1.1361896689546203e+00 2.7327799342204074e+01 -2.1896752820856746e-01 -2.2457685404936405e+00 -4.8865603650400544e+00 -1.1344126998587558e+00 -3.8640503930345478e+00 -9.7023263829838158e-01 1.9051825570268635e+00 -8.5558594859368160e+00 -2.6305734844684512e+00 -1.8466446129356289e+00 
        </Neuron>
        <Neuron NSynapses="44">
          9.8380553702948603e+00 -2.6119540736679250e+00 -4.5245424506016239e+00 -1.1152196100751219e+01 -6.1792708740176767e+00 8.3524077986266647e+00 3.6165564668051617e+00 6.3323372643203180e-01 2.5632614211936926e+00 2.9446530819138901e+00 2.0849073246283640e+00 -6.4321572901367610e+00 -2.6352329108214643e+00 5.8257768302800295e-01 -6.2761428783326227e+00 -1.6574454169149369e+00 -3.2635476374820033e-01 -2.5429553703127805e+00 4.7513843070076280e+00 -9.9603256112983640e+00 -2.3091659351332381e+00 3.8062355620660284e+00 6.1232504961432044e-01 3.2524255417580692e+00 -1.7587618898608315e+00 6.0433068854457570e+00 4.8320212111587173e+00 5.6148640922307624e+00 -1.2861179369725040e+00 1.0921485757342790e+01 1.7136323283664456e+00 3.7295288264191817e+00 8.6892552846492634e+00 1.3514513737376722e+01 -4.7652496969652001e+00 -7.1812715942408323e+00 1.2871078034783134e+00 1.2444609503658977e+00 -2.8640108830240369e+00 2.9892849429945376e+00 -3.5679007662312379e+00 -9.2172384816395034e+00 3.1075962397602073e+00 -2.6626772349593386e-01 
        </Neuron>
        <Neuron NSynapses="44">
          -6.7891913303898666e-01 1.5339145151648609e-01 6.5339870875985240e-01 -9.4009643504055340e-01 1.9577030843808561e+00 1.5640642712143455e+00 -3.1346747673718891e+00 1.2399095761268362e+00 -2.8736534456025113e+00 1.5110113064959207e-01 -1.7415781160347255e+00 -9.0227478733934052e-01 1.1405762252438616e+00 4.5906146017348676e-01 4.4650434046398690e-01 1.4625162653370960e-01 -3.1944846752211604e+00 2.8671987950500735e+00 2.1584915277791050e+00 8.4898716821216453e+00 -9.0786102976765160e-01 -1.0352571153580812e+00 1.3125969969731224e-01 8.1064799530042597e-01 1.3156391132666463e+00 4.2703557752231127e+00 -1.6166765537995929e+00 2.6056971716966426e-01 -1.5404462856655582e-01 4.1644343723778610e+00 -7.7940841674775185e-01 -1.5649399988542889e+00 2.8391736513017973e-01 1.7337053782476008e+01 -1.1375465374387868e+00 1.8712089733861457e+00 6.9966275327424865e-01 9.2017897613644350e-01 -2.7977577931788065e+00 2.0749001590665577e+00 6.3963968494222581e+00 -2.3122616825148028e+00 -1.8610669382644707e+00 -1.0893299887525700e+00 
        </Neuron>
        <Neuron NSynapses="44">
          1.9645099937576649e-01 -2.4864627568846012e-01 -1.3855258005399707e+00 1.4299014347045356e+00 2.4013543341852754e+00 -1.5559662832356249e+00 -3.4500718247264888e+00 -1.4067878807952536e+00 1.2224681494889784e+00 5.2795105148092814e-01 1.4144792607471774e+00 2.9171805493333669e+00 1.9642616272209652e+00 1.4572669257340159e-01 4.0547194593374281e+00 1.0560574711624930e+00 -2.7779281658595072e+00 -1.1786375428058382e+00 -1.3775966763927034e+00 6.9617290355707340e+00 -1.7756466130029176e+00 2.7479410149000577e-01 3.3271525893088844e-01 -3.6843124721779252e-01 2.9374653759328151e+00 2.5704982071187432e+00 1.0564070925320495e+00 7.6227209679617935e-01 5.1381546835966807e-01 4.3300939013883921e+00 6.8381880623881253e-01 -1.3352151326650200e-01 1.4373862715099508e+00 1.7370314525460390e+01 -1.2659759431682382e+00 4.2563899163350344e-01 -1.4934066655801552e+00 8.3240516055761854e-02 -2.2306420267885723e+00 1.4293683199832889e+00 3.7600391002539042e+00 2.2832742880501820e+00 1.7072187909929630e+00 -4.7542554471896581e-01 
        </Neuron>
        <Neuron NSynapses="44">
          2.3939455228558931e-01 -4.4352446280679955e-02 6.6923982401888668e-02 -2.9184762390342672e-01 -1.0108665300704960e-01 -1.1233606480390557e-02 1.2784975621137924e+00 9.2814612650248367e-03 3.0252316895960546e-01 6.6095714286999065e+00 1.0163947093756542e-02 1.1763166156889159e-01 3.9094621280831565e-01 4.9305781162363355e-01 8.1256311636890710e-01 3.6573347655058241e+00 6.4069344616176682e-01 -4.6808367839664189e-02 1.2170314563963419e-02 1.1175369930091293e+01 -3.4006160947809199e+00 1.1969683618533451e-01 -1.1453590093360820e-01 -6.2279286569982044e-02 3.8815116868949062e-02 6.2702847952875251e-01 2.3704651601158985e-01 -6.2300762602295556e-02 8.2313874293964107e-01 -4.0827875690191995e-01 2.2813870425591734e-01 -6.5758006858205861e-02 -2.8363066061551656e+00 1.3936486517437421e+01 2.1519644929622356e-01 -1.4959079725698435e-01 -7.7509497602644320e-02 -3.8140667537792644e-01 1.2775180090586167e+00 4.7773049152210989e+00 4.7173347650448560e+00 6.3208536556230932e-02 2.1250069168302005e-01 6.6268126835730923e-01 
        </Neuron>
        <Neuron NSynapses="44">
          -1.4492082687571806e+01 3.4630239557344705e-01 -1.6577132997027519e+00 1.6310425956513477e+00 1.2432214317241486e+00 -7.8556276570773287e-01 5.3276344904705697e-01 -4.7843185073819664e-03 7.8212947032454169e-02 9.8049523025127039e-01 -8.1533983125668086e-01 -1.6127217961884031e+00 2.5340254673707014e+00 4.3465858615066066e+00 4.0944250807052001e+00 3.1584517471992363e-01 1.3342407288969200e+00 -8.4938008736733084e-01 1.8896761256287160e+00 3.7513108470281713e+00 1.6520603460556111e+00 7.5390349123980138e-01 -1.3364744216545352e+00 9.8542357633403554e+00 -3.7637614537806668e-01 -5.2215831442532279e-01 3.7407050133210964e+00 6.9447232281225027e-02 5.2729976221569199e+00 5.2232655823415604e+00 7.4909802326984065e-01 2.4067983869753595e+00 -3.2685262276247871e+00 1.4997139216787998e+01 2.1263596870978893e-01 -6.1284861154515924e-01 -6.0409867140027418e-01 2.3139732869863132e+00 -7.1071364579436369e-01 2.2817829810709291e+00 6.3300729844624799e+00 -1.3872532981005234e+00 6.9328419834179800e-01 4.6073494667566779e+00 
        </Neuron>
        <Neuron NSynapses="44">
          5.8503465194677973e-01 -9.4210193226000989e+00 -2.8176491801771086e+00 8.9966639144826843e-01 3.4401381645933173e+00 -6.7419272961233301e-01 5.4503637899647331e-03 -1.1050549902565879e-01 -5.7175333494602834e+00 2.0482262494779736e-02 4.2109321066732486e-01 2.8623122625089814e-01 -4.6409968650681606e+00 -7.8590328935911036e-01 -2.4359093712264377e+00 -1.1290484349302048e+00 -8.9941593513350804e-01 -1.1329850175517993e+00 1.1696697524689150e+00 8.6866177038110656e-02 2.9190947645629257e+00 -1.4385917065136650e-01 -7.7283686003998167e-02 2.4153655815266237e+00 -5.2020242716354774e+00 7.7341562995653108e+00 -7.2311755616668949e-01 2.4373007135811298e-01 2.3076255395881500e+00 -3.2066322496546000e+00 -6.2019060112519382e+00 -1.9487087497300457e-01 3.4026372976709984e-01 -1.7569168025360066e-01 -2.4985129465546839e-02 2.4381350987050096e-01 -6.0964171093545394e-01 3.5189139404890284e+00 -3.2694064022857700e-01 -6.8112447937124887e-01 -4.0955848504839970e-01 1.0305741083506015e-01 3.1083190622733048e-01 -4.0685119569928405e+00 
        </Neuron>
        <Neuron NSynapses="44">
          6.3656763564711527e-01 1.6685228817295922e-01 3.0983745887396663e-01 2.6163825473559327e-01 3.4585518032275648e+00 1.9363088144761112e-01 -2.7985550538652317e+00 2.2205727041899442e-01 1.4896261810531191e+00 -8.8964358476644145e-01 7.7040014640132515e-01 1.6137220802874244e+00 1.8966535254579291e+00 -1.2453993779839081e+00 3.1636363925025055e+00 3.1708855715491874e-01 -7.0511455883211482e-01 -1.5064771566526423e+00 -7.8381311504084039e-01 5.8030209357081004e+00 -2.5125576385362147e+00 6.5858582967314028e-01 -3.8543844591196247e-01 -4.0911090524849358e-01 1.0725760619608047e+00 1.1887120603687829e+00 2.6571858364422801e-01 -7.9079524116971511e-01 -5.6477973481360300e-01 3.0593633714319344e+00 -2.2077854739790523e-01 1.6694317225484805e+00 -1.2043785445297512e+00 1.4651128533704972e+01 -2.8837619847906089e+00 -1.7622477842697515e+00 8.3403326905975939e-01 -8.6938890602852525e-01 -1.6337353924123690e+00 3.4508972744312638e+00 7.2121790192522868e+00 -2.4857187114661436e-02 -1.9501605612795164e-01 -2.1205926533069670e+00 
        </Neuron>
        <Neuron NSynapses="44">
          -1.3502309432898793e+01 1.5554169239728671e+01 5.6777177356417523e+00 -4.6877733012605223e+00 5.6134300685147407e+00 -7.1966116346302016e+00 4.7074247273344733e-01 3.3058587835774624e+01 -6.9254424864935844e+00 -8.5861440757614349e-01 3.8150951905548549e+00 -3.3765194575478272e+00 -1.3350735721687573e-01 3.5795995709871273e+00 3.2098200793832414e+00 4.6773723262725646e+00 3.6088139766542998e-01 3.7278300998937901e+00 -1.2936668763161544e+01 6.6206328602328126e+00 -3.9564672357802761e+00 -3.5682833999859893e+00 2.6756098083559667e+00 5.6615446406971852e+00 7.1575635142554761e-01 -4.4551249042523802e+00 -8.8958856274931133e+00 -6.0108777847687556e+00 6.1163779976223953e+00 -1.6489392449954998e+00 4.8050364361986642e+00 -5.3608762100822336e+00 -8.1318559066775009e+00 1.5219910758865078e+00 3.1039359944309601e+00 -2.5206995123779063e+00 -7.0208112850168805e+00 7.6150760883235309e+00 -3.0456816368981170e+00 3.4753967970797319e+00 7.0171448249506341e+00 -5.2943450810154085e+00 -5.1524367052113540e+00 4.2778250331426637e-01 
        </Neuron>
        <Neuron NSynapses="44">
          1.3241363619567718e+01 2.7319373129137032e+00 -2.1915458180179805e+00 -6.1053934857118506e+00 -5.2409554436678381e+00 6.7798612823763227e+00 7.5641134278769240e-01 -3.9367887908541093e+01 6.7568872829321354e+00 8.5221306110454687e-01 8.4458701479887499e-01 2.8275527680238124e+00 8.3023777422845599e-02 2.2954512531639168e+00 -6.4309929231409158e-01 -2.0223826315173352e+00 1.4415114486045217e+00 -3.5654100043330552e+00 9.2126296959489906e+00 2.6477445404459483e+00 -2.3555421390574365e+00 3.8801301753653203e+00 -2.6774187416159592e+00 6.9549925582423704e+00 1.2101639061558300e+00 4.1048290976425932e+00 8.9078146475475712e+00 5.8229260367529188e+00 2.7578456231715665e+00 1.2787815554933772e+00 -5.6543968782540643e+00 5.2472034956802123e+00 8.4642638505639276e+00 -1.5976875474469499e+00 1.6077658549713207e+00 -2.2603629709958275e+00 7.3237696657406621e+00 1.8165898438413826e+00 8.1280401343508435e-01 -3.0090934892957795e+00 -7.3787334957013462e+00 -1.5600627779340872e+00 5.3468409361972071e+00 1.0202845452211833e-01 
        </Neuron>
        <Neuron NSynapses="44">
          -3.2743715901683603e+00 -2.0246292486156925e+00 -7.0598679914592193e+00 -7.8218183020001231e-01 -6.2499927825622699e+00 2.2163930775969511e+00 4.1421505125448066e-02 7.4329265797160931e+00 -2.3323645921149510e+00 -1.4509645700803055e+00 -1.3184182330114416e+00 -3.8706302034857337e-01 7.1215357849758898e-01 -7.6244180231776970e-01 1.8891555169733236e+00 1.6297759640167633e+00 -7.7619124397598827e-01 3.7837510936969665e-01 1.4367656053386832e+00 6.2141213118044085e+00 -1.6392538287108349e+00 5.5655798387749233e-01 -1.8204548897304036e+00 3.0737345748909610e+00 -3.3283314929238245e-01 -7.5450448777296819e-01 -2.2668231953808391e+00 -1.4433260327921021e-01 -7.7372040802945081e+00 2.7180429617625754e+00 1.6032259573885397e+00 -2.6023229288042380e+00 -3.6704875407714512e+00 3.5244434582662437e-01 6.5107248624008180e+00 7.6872494796746604e-01 6.8754085123298641e+00 -7.3412488759655901e+00 -3.9543982654478127e-01 -2.3771130724525400e+00 2.5873600732759250e-01 -5.2566969178140148e+00 1.0373334427709564e+00 -8.0140848378055318e-01 
        </Neuron>
        <Neuron NSynapses="44">
          3.2493375435428931e+00 -6.4004818114701321e+00 -4.5515499441515743e+00 1.1492319597615688e+00 -4.9103417974788659e+00 -2.1028944093217836e+00 1.1751126186857716e-01 -7.4619860119515389e+00 1.1671119180387375e+00 1.3121152133879423e+00 2.5158485781493987e+00 2.3239142280637595e-01 -1.6612623301818059e+00 -1.9213245071234153e+00 2.1486429931243998e+00 -2.0529968386112302e-01 1.8016391580809286e+00 7.1401660971419534e-01 -1.7055032866807460e+00 -2.9830065651382576e+00 1.7247355018584843e-03 -6.1013440790505991e-01 1.4732583768431358e+00 5.1957911660089682e+00 -8.0491755270534060e-01 7.9200615845591305e-01 2.9955522363613953e+00 9.4350943719462302e-02 -7.3374810354129014e+00 -3.2146718934337786e+00 5.0369563154523149e+00 2.7645536865877740e+00 4.0528094868793572e+00 -4.3601008746082737e-01 4.4507285670592118e+00 -8.1097461988235053e-01 1.0750444779280803e+01 -2.3366725066729894e+00 -1.5411284318325804e+00 1.9627897166662405e+00 -1.2405438702878879e-01 5.4018331470210095e+00 -1.1414160428164521e+00 -2.4764849520408028e+00 
        </Neuron>
        <Neuron NSynapses="44">
          -6.3935984756679456e-02 -3.9366485997753980e-01 -3.0520971342820602e-01 -4.8180546843374037e+00 -2.5988313568426696e-01 -7.4327380460248316e+00 2.6731080355113059e+00 5.9788212732453360e+01 -1.7553564944935643e-01 -7.4648252281417846e-02 -4.6135098594316848e-01 -3.1488187940013262e-02 3.1421851627035056e-02 4.3702200462552708e-02 1.0088453947397242e+00 -1.5023136690822816e+00 -1.0599491331293680e+00 -7.4703165384848794e-02 -4.9515670485143737e+00 2.0073185479058548e+01 6.1892148640058702e+00 -3.1045976604769352e-02 -9.4090329850166063e-02 5.0950990588057330e+00 -2.3648144050106485e+00 6.7867816323349561e-01 9.0584976489927513e-02 9.6630573263367520e-02 3.2995115603482033e+00 -1.5081301629331125e+00 -1.1829478742547143e-01 4.9916940503720103e-01 -3.4867047788514716e-01 1.0371309758947907e-01 -1.0976613739901218e+00 4.7308582804531563e+00 -1.3531617821623900e+01 -2.5738435184786451e-01 -1.0512903855699017e+01 6.4267174332003760e+00 -7.2759816753842035e-02 -1.3399057313641242e+01 -1.7766985168419061e-01 4.3680865816967446e-01 
        </Neuron>
        <Neuron NSynapses="44">
          1.7078011529279455e+00 -5.2476399675940297e-02 3.9495583858021228e+00 -1.4212189825510169e+00 -1.6118341695815248e+00 -5.9619179976402836e-01 8.1085715644461720e-01 -1.8829297142215966e+00 -7.6902207134384171e-01 5.9014151567540218e-01 3.6880984329720765e+00 7.2524806000835806e-01 4.3445557099611520e-01 7.7451671067012313e+00 -1.2549438094113712e+00 -2.8384733192521666e-01 1.4337028840707042e+00 3.3991536801984621e+00 -2.1210191011402841e+00 3.0685837973407759e-01 3.7097757437675241e+00 -9.3865987514980909e-01 1.0474452649512016e+00 1.2426720698427152e+00 4.3878273011341767e-01 1.5959163204327618e+00 2.1203416815930383e+00 -6.2389059667452218e-01 2.6450065583903610e+00 2.8207858486718695e+00 5.4364371536112275e+00 2.9211070821728260e+00 1.0872202814867196e+00 -1.2460396662744049e+00 -3.2822654466172816e+00 -5.2767304845339806e+00 2.2851424557760196e+00 -2.7874765072545538e+00 1.6665846382911380e+00 -5.3737297361636516e-01 -1.5204840662975796e+00 1.3263772712166425e+01 1.5259795821582323e+00 -1.7242136773733456e+00 
        </Neuron>
        <Neuron NSynapses="44">
          -2.7651548755383697e+00 -4.0183222029020904e-01 3.7354736591825666e+00 1.7434371899517025e+00 1.2523565184582834e+00 9.0949878014871877e-01 1.7009278093187885e+00 1.7701297915638508e+00 5.0328764143992044e-01 -8.6274205779487134e-01 3.0820486838617822e+00 -5.8749892104706525e-01 -7.6384478295692138e-01 5.5655303871841495e+00 4.1418163224519439e-01 -7.3793471758561979e-01 -1.4805210856780848e+00 3.9160073039859249e+00 2.0445901209200561e+00 -9.3629104326955107e-02 3.8599350240044275e+00 1.1873356153547601e+00 -1.4610948600637925e+00 1.1077062963704905e+00 -4.9236103368966877e-01 -1.8013426307060445e+00 -2.5754693517255225e+00 9.0952434647319302e-01 1.0846024291374914e+00 4.6841587919910221e+00 4.0823959971877262e+00 -2.9992501429242027e+00 -3.5694093042679326e-01 1.1050251084217810e+00 -2.6053445337068959e-01 -2.7323750748966913e+00 -2.3599219024121689e+00 -4.6497260317398563e+00 -6.8966615869716208e-01 5.0250825143344191e-01 1.2252775861646128e+00 1.1499803132312412e+01 -1.7359671547320998e+00 -3.7471166520585695e+00 
        </Neuron>
        <Neuron NSynapses="44">
          1.4074419359790214e+01 -5.5670071217015860e+00 -2.4405143387431349e-01 -2.9209965564407625e+00 -4.5890839303214213e+00 4.6587952137693573e+00 -1.7906646656379854e+00 -2.2721655640484656e+01 3.9342543856208190e+00 2.7551925000100086e+00 3.9061861936375393e+00 5.9452199987667482e+00 -3.1253444820474785e-01 -2.7414315369829203e+00 -5.5091423551058982e-01 9.3904828449019092e-03 -2.5148028267492899e+00 -4.8336685328030651e+00 1.5108290312880253e+00 3.2138976570782207e-01 -1.1255105219562038e+00 3.5656027510441852e+00 -4.3262444450989014e-02 -4.6749661550831139e+00 2.1949525653376054e+00 6.2550276151686546e-01 5.6424208034294727e+00 2.2842413979794016e+00 -2.3048566900390322e+00 -3.7416332211140813e-01 -5.2513513326731731e+00 4.3311378899982413e+00 5.5439587787581130e+00 -1.6843707015642433e+01 4.8127964071191602e+00 -2.2624390269652586e+00 7.1494021966919608e+00 4.2746152436988255e-01 -5.0165136017128908e-01 -1.0319378078319716e-01 -5.5794436229611248e+00 5.1178770234984394e-01 7.9869927287375058e+00 -3.2655967304705431e+00 
        </Neuron>
      </Layer>
      <Layer Index="1" NNeurons="45">
        <Neuron NSynapses="1">
          -3.8206826020754869e-01 
        </Neuron>
        <Neuron NSynapses="1">
          5.8353226355664134e-01 
        </Neuron>
        <Neuron NSynapses="1">
          -5.8551081513298175e-01 
        </Neuron>
        <Neuron NSynapses="1">
          2.7439118966600340e+00 
        </Neuron>
        <Neuron NSynapses="1">
          5.3803202837968367e-01 
        </Neuron>
        <Neuron NSynapses="1">
          8.3558546666271460e-01 
        </Neuron>
        <Neuron NSynapses="1">
          3.1949298556060843e+00 
        </Neuron>
        <Neuron NSynapses="1">
          3.2245228565298087e+00 
        </Neuron>
        <Neuron NSynapses="1">
          -1.0820161236161545e+00 
        </Neuron>
        <Neuron NSynapses="1">
          -4.8778447461894653e-01 
        </Neuron>
        <Neuron NSynapses="1">
          8.3264645716270524e-01 
        </Neuron>
        <Neuron NSynapses="1">
          -1.1247534035762587e+00 
        </Neuron>
        <Neuron NSynapses="1">
          2.2171258446126547e+00 
        </Neuron>
        <Neuron NSynapses="1">
          8.4791486912328673e-01 
        </Neuron>
        <Neuron NSynapses="1">
          -6.3517511158759765e-01 
        </Neuron>
        <Neuron NSynapses="1">
          1.4803748949634226e+00 
        </Neuron>
        <Neuron NSynapses="1">
          1.4607969083222343e+00 
        </Neuron>
        <Neuron NSynapses="1">
          3.6661725436394377e-01 
        </Neuron>
        <Neuron NSynapses="1">
          8.8208958359488865e-01 
        </Neuron>
        <Neuron NSynapses="1">
          1.2328581616927541e+00 
        </Neuron>
        <Neuron NSynapses="1">
          6.0010153611288908e-01 
        </Neuron>
        <Neuron NSynapses="1">
          8.4114478842619589e-01 
        </Neuron>
        <Neuron NSynapses="1">
          -4.9725682695810686e-01 
        </Neuron>
        <Neuron NSynapses="1">
          4.7610728927922219e-01 
        </Neuron>
        <Neuron NSynapses="1">
          1.3565865003744653e+00 
        </Neuron>
        <Neuron NSynapses="1">
          -2.4898676470598463e-01 
        </Neuron>
        <Neuron NSynapses="1">
          -6.1377857937868197e-01 
        </Neuron>
        <Neuron NSynapses="1">
          4.5175831275833778e-01 
        </Neuron>
        <Neuron NSynapses="1">
          5.3841401434007108e-01 
        </Neuron>
        <Neuron NSynapses="1">
          5.0723100887048611e-01 
        </Neuron>
        <Neuron NSynapses="1">
          -6.0194388954442446e-01 
        </Neuron>
        <Neuron NSynapses="1">
          -3.5342471944303472e-01 
        </Neuron>
        <Neuron NSynapses="1">
          -3.3399144025317651e-01 
        </Neuron>
        <Neuron NSynapses="1">
          5.9237059668512881e-01 
        </Neuron>
        <Neuron NSynapses="1">
          8.1373338988827626e-01 
        </Neuron>
        <Neuron NSynapses="1">
          3.7580386719173509e-01 
        </Neuron>
        <Neuron NSynapses="1">
          -6.0919494856063472e-01 
        </Neuron>
        <Neuron NSynapses="1">
          -2.4406777337663169e-01 
        </Neuron>
        <Neuron NSynapses="1">
          -9.6825365810006425e-01 
        </Neuron>
        <Neuron NSynapses="1">
          -3.6973115480350416e-01 
        </Neuron>
        <Neuron NSynapses="1">
          2.4864413523914783e-01 
        </Neuron>
        <Neuron NSynapses="1">
          -8.1083440976059451e-01 
        </Neuron>
        <Neuron NSynapses="1">
          -6.2971635413602356e-01 
        </Neuron>
        <Neuron NSynapses="1">
          -9.7531704925146623e-01 
        </Neuron>
        <Neuron NSynapses="1">
          -7.2917066239301831e-01 
        </Neuron>
      </Layer>
      <Layer Index="2" NNeurons="1">
        <Neuron NSynapses="0"/>
      </Layer>
    </Layout>
  </Weights>
</MethodSetup>
