<?xml version="1.0"?>
<MethodSetup Method="MLP::Electron_Downstream_TMVA">
  <GeneralInfo>
    <Info name="TMVA Release" value="4.2.0 [262656]"/>
    <Info name="ROOT Release" value="6.02/01 [393729]"/>
    <Info name="Creator" value="jonesc"/>
    <Info name="Date" value="Sun Feb 14 05:50:18 2016"/>
    <Info name="Host" value="Linux lcgapp-slc6-physical1.cern.ch 2.6.32-431.29.2.el6.x86_64 #1 SMP Wed Sep 10 11:13:12 CEST 2014 x86_64 x86_64 x86_64 GNU/Linux"/>
    <Info name="Dir" value="/var/pcfst/r03/lhcb/jonesc/ANNPID/results/MC12/TrainMixture/TrainPhysTks-EvalPhysTks-ReweightRICH2/GhostAccFrac0.001/ProtonAccFrac1.0/KaonAccFrac1.0/TMVA-Run2-NoTkLikCDVelodEdx/MLP/Norm/ScaleF1.2/BP/NCycles750/CE/tanh/CVTest15/CVImp1e-16/NotUseRegulator/Electron/Downstream"/>
    <Info name="Training events" value="1811212"/>
    <Info name="TrainingTime" value="3.28876531e+04"/>
    <Info name="AnalysisType" value="Classification"/>
  </GeneralInfo>
  <Options>
    <Option name="NCycles" modified="Yes">750</Option>
    <Option name="HiddenLayers" modified="Yes">34</Option>
    <Option name="NeuronType" modified="Yes">tanh</Option>
    <Option name="RandomSeed" modified="No">1</Option>
    <Option name="EstimatorType" modified="Yes">CE</Option>
    <Option name="NeuronInputType" modified="No">sum</Option>
    <Option name="V" modified="Yes">True</Option>
    <Option name="VerbosityLevel" modified="No">Verbose</Option>
    <Option name="VarTransform" modified="Yes">Norm</Option>
    <Option name="H" modified="Yes">True</Option>
    <Option name="CreateMVAPdfs" modified="No">False</Option>
    <Option name="IgnoreNegWeightsInTraining" modified="No">False</Option>
    <Option name="TrainingMethod" modified="Yes">BP</Option>
    <Option name="LearningRate" modified="No">2.000000e-02</Option>
    <Option name="DecayRate" modified="No">1.000000e-02</Option>
    <Option name="TestRate" modified="No">10</Option>
    <Option name="EpochMonitoring" modified="Yes">True</Option>
    <Option name="Sampling" modified="No">1.000000e+00</Option>
    <Option name="SamplingEpoch" modified="No">1.000000e+00</Option>
    <Option name="SamplingImportance" modified="No">1.000000e+00</Option>
    <Option name="SamplingTraining" modified="No">True</Option>
    <Option name="SamplingTesting" modified="No">False</Option>
    <Option name="ResetStep" modified="No">50</Option>
    <Option name="Tau" modified="No">3.000000e+00</Option>
    <Option name="BPMode" modified="No">sequential</Option>
    <Option name="BatchSize" modified="No">-1</Option>
    <Option name="ConvergenceImprove" modified="Yes">1.000000e-16</Option>
    <Option name="ConvergenceTests" modified="Yes">15</Option>
    <Option name="UseRegulator" modified="Yes">False</Option>
    <Option name="UpdateLimit" modified="No">10000</Option>
    <Option name="CalculateErrors" modified="No">False</Option>
    <Option name="WeightRange" modified="No">1.000000e+00</Option>
  </Options>
  <Variables NVar="29">
    <Variable VarIndex="0" Expression="TrackP" Label="TrackP" Title="TrackP" Unit="" Internal="TrackP" Type="F" Min="1.11556006e+03" Max="3.32578000e+06"/>
    <Variable VarIndex="1" Expression="TrackPt" Label="TrackPt" Title="TrackPt" Unit="" Internal="TrackPt" Type="F" Min="2.94790554e+00" Max="1.21339742e+05"/>
    <Variable VarIndex="2" Expression="TrackChi2PerDof" Label="TrackChi2PerDof" Title="TrackChi2PerDof" Unit="" Internal="TrackChi2PerDof" Type="F" Min="3.37661542e-02" Max="2.99996567e+00"/>
    <Variable VarIndex="3" Expression="TrackNumDof" Label="TrackNumDof" Title="TrackNumDof" Unit="" Internal="TrackNumDof" Type="I" Min="4.00000000e+00" Max="3.20000000e+01"/>
    <Variable VarIndex="4" Expression="TrackGhostProbability" Label="TrackGhostProbability" Title="TrackGhostProbability" Unit="" Internal="TrackGhostProbability" Type="F" Min="-9.99000000e+02" Max="1.00000000e+00"/>
    <Variable VarIndex="5" Expression="TrackFitTChi2" Label="TrackFitTChi2" Title="TrackFitTChi2" Unit="" Internal="TrackFitTChi2" Type="F" Min="7.24629685e-03" Max="6.35378456e+01"/>
    <Variable VarIndex="6" Expression="TrackFitTNDoF" Label="TrackFitTNDoF" Title="TrackFitTNDoF" Unit="" Internal="TrackFitTNDoF" Type="I" Min="1.00000000e+00" Max="2.70000000e+01"/>
    <Variable VarIndex="7" Expression="RichUsedR1Gas" Label="RichUsedR1Gas" Title="RichUsedR1Gas" Unit="" Internal="RichUsedR1Gas" Type="I" Min="0.00000000e+00" Max="1.00000000e+00"/>
    <Variable VarIndex="8" Expression="RichUsedR2Gas" Label="RichUsedR2Gas" Title="RichUsedR2Gas" Unit="" Internal="RichUsedR2Gas" Type="I" Min="0.00000000e+00" Max="1.00000000e+00"/>
    <Variable VarIndex="9" Expression="RichAboveMuThres" Label="RichAboveMuThres" Title="RichAboveMuThres" Unit="" Internal="RichAboveMuThres" Type="I" Min="0.00000000e+00" Max="1.00000000e+00"/>
    <Variable VarIndex="10" Expression="RichAboveKaThres" Label="RichAboveKaThres" Title="RichAboveKaThres" Unit="" Internal="RichAboveKaThres" Type="I" Min="0.00000000e+00" Max="1.00000000e+00"/>
    <Variable VarIndex="11" Expression="RichDLLe" Label="RichDLLe" Title="RichDLLe" Unit="" Internal="RichDLLe" Type="F" Min="-9.99000000e+02" Max="1.21053001e+02"/>
    <Variable VarIndex="12" Expression="RichDLLmu" Label="RichDLLmu" Title="RichDLLmu" Unit="" Internal="RichDLLmu" Type="F" Min="-9.99000000e+02" Max="7.83927994e+01"/>
    <Variable VarIndex="13" Expression="RichDLLk" Label="RichDLLk" Title="RichDLLk" Unit="" Internal="RichDLLk" Type="F" Min="-9.99000000e+02" Max="1.07148697e+02"/>
    <Variable VarIndex="14" Expression="RichDLLp" Label="RichDLLp" Title="RichDLLp" Unit="" Internal="RichDLLp" Type="F" Min="-9.99000000e+02" Max="1.17193001e+02"/>
    <Variable VarIndex="15" Expression="RichDLLbt" Label="RichDLLbt" Title="RichDLLbt" Unit="" Internal="RichDLLbt" Type="F" Min="-9.99000000e+02" Max="6.99894028e+01"/>
    <Variable VarIndex="16" Expression="InAccMuon" Label="InAccMuon" Title="InAccMuon" Unit="" Internal="InAccMuon" Type="I" Min="0.00000000e+00" Max="1.00000000e+00"/>
    <Variable VarIndex="17" Expression="MuonBkgLL" Label="MuonBkgLL" Title="MuonBkgLL" Unit="" Internal="MuonBkgLL" Type="F" Min="-9.99000000e+02" Max="2.89999992e-02"/>
    <Variable VarIndex="18" Expression="MuonMuLL" Label="MuonMuLL" Title="MuonMuLL" Unit="" Internal="MuonMuLL" Type="F" Min="-9.99000000e+02" Max="0.00000000e+00"/>
    <Variable VarIndex="19" Expression="MuonIsLooseMuon" Label="MuonIsLooseMuon" Title="MuonIsLooseMuon" Unit="" Internal="MuonIsLooseMuon" Type="I" Min="0.00000000e+00" Max="1.00000000e+00"/>
    <Variable VarIndex="20" Expression="MuonIsMuon" Label="MuonIsMuon" Title="MuonIsMuon" Unit="" Internal="MuonIsMuon" Type="I" Min="0.00000000e+00" Max="1.00000000e+00"/>
    <Variable VarIndex="21" Expression="MuonNShared" Label="MuonNShared" Title="MuonNShared" Unit="" Internal="MuonNShared" Type="I" Min="0.00000000e+00" Max="8.70000000e+01"/>
    <Variable VarIndex="22" Expression="InAccEcal" Label="InAccEcal" Title="InAccEcal" Unit="" Internal="InAccEcal" Type="I" Min="0.00000000e+00" Max="1.00000000e+00"/>
    <Variable VarIndex="23" Expression="EcalPIDe" Label="EcalPIDe" Title="EcalPIDe" Unit="" Internal="EcalPIDe" Type="F" Min="-9.99000000e+02" Max="4.34127378e+00"/>
    <Variable VarIndex="24" Expression="EcalPIDmu" Label="EcalPIDmu" Title="EcalPIDmu" Unit="" Internal="EcalPIDmu" Type="F" Min="-9.99000000e+02" Max="2.64517307e+00"/>
    <Variable VarIndex="25" Expression="InAccHcal" Label="InAccHcal" Title="InAccHcal" Unit="" Internal="InAccHcal" Type="I" Min="0.00000000e+00" Max="1.00000000e+00"/>
    <Variable VarIndex="26" Expression="HcalPIDe" Label="HcalPIDe" Title="HcalPIDe" Unit="" Internal="HcalPIDe" Type="F" Min="-9.99000000e+02" Max="3.25475407e+00"/>
    <Variable VarIndex="27" Expression="HcalPIDmu" Label="HcalPIDmu" Title="HcalPIDmu" Unit="" Internal="HcalPIDmu" Type="F" Min="-9.99000000e+02" Max="2.61016369e+00"/>
    <Variable VarIndex="28" Expression="PrsPIDe" Label="PrsPIDe" Title="PrsPIDe" Unit="" Internal="PrsPIDe" Type="F" Min="-9.99000000e+02" Max="3.46313500e+00"/>
  </Variables>
  <Spectators NSpec="0"/>
  <Classes NClass="2">
    <Class Name="Background" Index="0"/>
    <Class Name="Signal" Index="1"/>
  </Classes>
  <Transformations NTransformations="1">
    <Transform Name="Normalize">
      <Selection>
        <Input NInputs="29">
          <Input Type="Variable" Label="TrackP" Expression="TrackP"/>
          <Input Type="Variable" Label="TrackPt" Expression="TrackPt"/>
          <Input Type="Variable" Label="TrackChi2PerDof" Expression="TrackChi2PerDof"/>
          <Input Type="Variable" Label="TrackNumDof" Expression="TrackNumDof"/>
          <Input Type="Variable" Label="TrackGhostProbability" Expression="TrackGhostProbability"/>
          <Input Type="Variable" Label="TrackFitTChi2" Expression="TrackFitTChi2"/>
          <Input Type="Variable" Label="TrackFitTNDoF" Expression="TrackFitTNDoF"/>
          <Input Type="Variable" Label="RichUsedR1Gas" Expression="RichUsedR1Gas"/>
          <Input Type="Variable" Label="RichUsedR2Gas" Expression="RichUsedR2Gas"/>
          <Input Type="Variable" Label="RichAboveMuThres" Expression="RichAboveMuThres"/>
          <Input Type="Variable" Label="RichAboveKaThres" Expression="RichAboveKaThres"/>
          <Input Type="Variable" Label="RichDLLe" Expression="RichDLLe"/>
          <Input Type="Variable" Label="RichDLLmu" Expression="RichDLLmu"/>
          <Input Type="Variable" Label="RichDLLk" Expression="RichDLLk"/>
          <Input Type="Variable" Label="RichDLLp" Expression="RichDLLp"/>
          <Input Type="Variable" Label="RichDLLbt" Expression="RichDLLbt"/>
          <Input Type="Variable" Label="InAccMuon" Expression="InAccMuon"/>
          <Input Type="Variable" Label="MuonBkgLL" Expression="MuonBkgLL"/>
          <Input Type="Variable" Label="MuonMuLL" Expression="MuonMuLL"/>
          <Input Type="Variable" Label="MuonIsLooseMuon" Expression="MuonIsLooseMuon"/>
          <Input Type="Variable" Label="MuonIsMuon" Expression="MuonIsMuon"/>
          <Input Type="Variable" Label="MuonNShared" Expression="MuonNShared"/>
          <Input Type="Variable" Label="InAccEcal" Expression="InAccEcal"/>
          <Input Type="Variable" Label="EcalPIDe" Expression="EcalPIDe"/>
          <Input Type="Variable" Label="EcalPIDmu" Expression="EcalPIDmu"/>
          <Input Type="Variable" Label="InAccHcal" Expression="InAccHcal"/>
          <Input Type="Variable" Label="HcalPIDe" Expression="HcalPIDe"/>
          <Input Type="Variable" Label="HcalPIDmu" Expression="HcalPIDmu"/>
          <Input Type="Variable" Label="PrsPIDe" Expression="PrsPIDe"/>
        </Input>
        <Output NOutputs="29">
          <Output Type="Variable" Label="TrackP" Expression="TrackP"/>
          <Output Type="Variable" Label="TrackPt" Expression="TrackPt"/>
          <Output Type="Variable" Label="TrackChi2PerDof" Expression="TrackChi2PerDof"/>
          <Output Type="Variable" Label="TrackNumDof" Expression="TrackNumDof"/>
          <Output Type="Variable" Label="TrackGhostProbability" Expression="TrackGhostProbability"/>
          <Output Type="Variable" Label="TrackFitTChi2" Expression="TrackFitTChi2"/>
          <Output Type="Variable" Label="TrackFitTNDoF" Expression="TrackFitTNDoF"/>
          <Output Type="Variable" Label="RichUsedR1Gas" Expression="RichUsedR1Gas"/>
          <Output Type="Variable" Label="RichUsedR2Gas" Expression="RichUsedR2Gas"/>
          <Output Type="Variable" Label="RichAboveMuThres" Expression="RichAboveMuThres"/>
          <Output Type="Variable" Label="RichAboveKaThres" Expression="RichAboveKaThres"/>
          <Output Type="Variable" Label="RichDLLe" Expression="RichDLLe"/>
          <Output Type="Variable" Label="RichDLLmu" Expression="RichDLLmu"/>
          <Output Type="Variable" Label="RichDLLk" Expression="RichDLLk"/>
          <Output Type="Variable" Label="RichDLLp" Expression="RichDLLp"/>
          <Output Type="Variable" Label="RichDLLbt" Expression="RichDLLbt"/>
          <Output Type="Variable" Label="InAccMuon" Expression="InAccMuon"/>
          <Output Type="Variable" Label="MuonBkgLL" Expression="MuonBkgLL"/>
          <Output Type="Variable" Label="MuonMuLL" Expression="MuonMuLL"/>
          <Output Type="Variable" Label="MuonIsLooseMuon" Expression="MuonIsLooseMuon"/>
          <Output Type="Variable" Label="MuonIsMuon" Expression="MuonIsMuon"/>
          <Output Type="Variable" Label="MuonNShared" Expression="MuonNShared"/>
          <Output Type="Variable" Label="InAccEcal" Expression="InAccEcal"/>
          <Output Type="Variable" Label="EcalPIDe" Expression="EcalPIDe"/>
          <Output Type="Variable" Label="EcalPIDmu" Expression="EcalPIDmu"/>
          <Output Type="Variable" Label="InAccHcal" Expression="InAccHcal"/>
          <Output Type="Variable" Label="HcalPIDe" Expression="HcalPIDe"/>
          <Output Type="Variable" Label="HcalPIDmu" Expression="HcalPIDmu"/>
          <Output Type="Variable" Label="PrsPIDe" Expression="PrsPIDe"/>
        </Output>
      </Selection>
      <Class ClassIndex="0">
        <Ranges>
          <Range Index="0" Min="1.1155600585937500e+03" Max="3.3257800000000000e+06"/>
          <Range Index="1" Min="2.9479055404663086e+00" Max="1.2133974218750000e+05"/>
          <Range Index="2" Min="3.3766154199838638e-02" Max="2.9999656677246094e+00"/>
          <Range Index="3" Min="4.0000000000000000e+00" Max="3.2000000000000000e+01"/>
          <Range Index="4" Min="-9.9900000000000000e+02" Max="1.0000000000000000e+00"/>
          <Range Index="5" Min="7.2462968528270721e-03" Max="6.3537845611572266e+01"/>
          <Range Index="6" Min="1.0000000000000000e+00" Max="2.7000000000000000e+01"/>
          <Range Index="7" Min="0.0000000000000000e+00" Max="1.0000000000000000e+00"/>
          <Range Index="8" Min="0.0000000000000000e+00" Max="1.0000000000000000e+00"/>
          <Range Index="9" Min="0.0000000000000000e+00" Max="1.0000000000000000e+00"/>
          <Range Index="10" Min="0.0000000000000000e+00" Max="1.0000000000000000e+00"/>
          <Range Index="11" Min="-9.9900000000000000e+02" Max="6.8869400024414062e+01"/>
          <Range Index="12" Min="-9.9900000000000000e+02" Max="7.8392799377441406e+01"/>
          <Range Index="13" Min="-9.9900000000000000e+02" Max="1.0714869689941406e+02"/>
          <Range Index="14" Min="-9.9900000000000000e+02" Max="1.1719300079345703e+02"/>
          <Range Index="15" Min="-9.9900000000000000e+02" Max="6.9989402770996094e+01"/>
          <Range Index="16" Min="0.0000000000000000e+00" Max="1.0000000000000000e+00"/>
          <Range Index="17" Min="-9.9900000000000000e+02" Max="2.8999999165534973e-02"/>
          <Range Index="18" Min="-9.9900000000000000e+02" Max="0.0000000000000000e+00"/>
          <Range Index="19" Min="0.0000000000000000e+00" Max="1.0000000000000000e+00"/>
          <Range Index="20" Min="0.0000000000000000e+00" Max="1.0000000000000000e+00"/>
          <Range Index="21" Min="0.0000000000000000e+00" Max="8.7000000000000000e+01"/>
          <Range Index="22" Min="0.0000000000000000e+00" Max="1.0000000000000000e+00"/>
          <Range Index="23" Min="-9.9900000000000000e+02" Max="4.0547904968261719e+00"/>
          <Range Index="24" Min="-9.9900000000000000e+02" Max="2.6451730728149414e+00"/>
          <Range Index="25" Min="0.0000000000000000e+00" Max="1.0000000000000000e+00"/>
          <Range Index="26" Min="-9.9900000000000000e+02" Max="3.2547540664672852e+00"/>
          <Range Index="27" Min="-9.9900000000000000e+02" Max="2.6101636886596680e+00"/>
          <Range Index="28" Min="-9.9900000000000000e+02" Max="3.4631350040435791e+00"/>
        </Ranges>
      </Class>
      <Class ClassIndex="1">
        <Ranges>
          <Range Index="0" Min="1.1848199462890625e+03" Max="9.7700537500000000e+05"/>
          <Range Index="1" Min="2.2235475540161133e+01" Max="9.3560421875000000e+04"/>
          <Range Index="2" Min="8.7260134518146515e-02" Max="2.9984731674194336e+00"/>
          <Range Index="3" Min="6.0000000000000000e+00" Max="2.9000000000000000e+01"/>
          <Range Index="4" Min="-9.9900000000000000e+02" Max="1.0000000000000000e+00"/>
          <Range Index="5" Min="1.2723794579505920e-01" Max="5.9239536285400391e+01"/>
          <Range Index="6" Min="2.0000000000000000e+00" Max="2.5000000000000000e+01"/>
          <Range Index="7" Min="0.0000000000000000e+00" Max="1.0000000000000000e+00"/>
          <Range Index="8" Min="0.0000000000000000e+00" Max="1.0000000000000000e+00"/>
          <Range Index="9" Min="0.0000000000000000e+00" Max="1.0000000000000000e+00"/>
          <Range Index="10" Min="0.0000000000000000e+00" Max="1.0000000000000000e+00"/>
          <Range Index="11" Min="-9.9900000000000000e+02" Max="1.2105300140380859e+02"/>
          <Range Index="12" Min="-9.9900000000000000e+02" Max="5.5370201110839844e+01"/>
          <Range Index="13" Min="-9.9900000000000000e+02" Max="5.2107898712158203e+01"/>
          <Range Index="14" Min="-9.9900000000000000e+02" Max="5.2107898712158203e+01"/>
          <Range Index="15" Min="-9.9900000000000000e+02" Max="5.2107898712158203e+01"/>
          <Range Index="16" Min="0.0000000000000000e+00" Max="1.0000000000000000e+00"/>
          <Range Index="17" Min="-9.9900000000000000e+02" Max="5.4999999701976776e-03"/>
          <Range Index="18" Min="-9.9900000000000000e+02" Max="0.0000000000000000e+00"/>
          <Range Index="19" Min="0.0000000000000000e+00" Max="1.0000000000000000e+00"/>
          <Range Index="20" Min="0.0000000000000000e+00" Max="1.0000000000000000e+00"/>
          <Range Index="21" Min="0.0000000000000000e+00" Max="4.4000000000000000e+01"/>
          <Range Index="22" Min="0.0000000000000000e+00" Max="1.0000000000000000e+00"/>
          <Range Index="23" Min="-9.9900000000000000e+02" Max="4.3412737846374512e+00"/>
          <Range Index="24" Min="-9.9900000000000000e+02" Max="2.6451730728149414e+00"/>
          <Range Index="25" Min="0.0000000000000000e+00" Max="1.0000000000000000e+00"/>
          <Range Index="26" Min="-9.9900000000000000e+02" Max="3.0036654472351074e+00"/>
          <Range Index="27" Min="-9.9900000000000000e+02" Max="2.6101636886596680e+00"/>
          <Range Index="28" Min="-9.9900000000000000e+02" Max="3.4631350040435791e+00"/>
        </Ranges>
      </Class>
      <Class ClassIndex="2">
        <Ranges>
          <Range Index="0" Min="1.1155600585937500e+03" Max="3.3257800000000000e+06"/>
          <Range Index="1" Min="2.9479055404663086e+00" Max="1.2133974218750000e+05"/>
          <Range Index="2" Min="3.3766154199838638e-02" Max="2.9999656677246094e+00"/>
          <Range Index="3" Min="4.0000000000000000e+00" Max="3.2000000000000000e+01"/>
          <Range Index="4" Min="-9.9900000000000000e+02" Max="1.0000000000000000e+00"/>
          <Range Index="5" Min="7.2462968528270721e-03" Max="6.3537845611572266e+01"/>
          <Range Index="6" Min="1.0000000000000000e+00" Max="2.7000000000000000e+01"/>
          <Range Index="7" Min="0.0000000000000000e+00" Max="1.0000000000000000e+00"/>
          <Range Index="8" Min="0.0000000000000000e+00" Max="1.0000000000000000e+00"/>
          <Range Index="9" Min="0.0000000000000000e+00" Max="1.0000000000000000e+00"/>
          <Range Index="10" Min="0.0000000000000000e+00" Max="1.0000000000000000e+00"/>
          <Range Index="11" Min="-9.9900000000000000e+02" Max="1.2105300140380859e+02"/>
          <Range Index="12" Min="-9.9900000000000000e+02" Max="7.8392799377441406e+01"/>
          <Range Index="13" Min="-9.9900000000000000e+02" Max="1.0714869689941406e+02"/>
          <Range Index="14" Min="-9.9900000000000000e+02" Max="1.1719300079345703e+02"/>
          <Range Index="15" Min="-9.9900000000000000e+02" Max="6.9989402770996094e+01"/>
          <Range Index="16" Min="0.0000000000000000e+00" Max="1.0000000000000000e+00"/>
          <Range Index="17" Min="-9.9900000000000000e+02" Max="2.8999999165534973e-02"/>
          <Range Index="18" Min="-9.9900000000000000e+02" Max="0.0000000000000000e+00"/>
          <Range Index="19" Min="0.0000000000000000e+00" Max="1.0000000000000000e+00"/>
          <Range Index="20" Min="0.0000000000000000e+00" Max="1.0000000000000000e+00"/>
          <Range Index="21" Min="0.0000000000000000e+00" Max="8.7000000000000000e+01"/>
          <Range Index="22" Min="0.0000000000000000e+00" Max="1.0000000000000000e+00"/>
          <Range Index="23" Min="-9.9900000000000000e+02" Max="4.3412737846374512e+00"/>
          <Range Index="24" Min="-9.9900000000000000e+02" Max="2.6451730728149414e+00"/>
          <Range Index="25" Min="0.0000000000000000e+00" Max="1.0000000000000000e+00"/>
          <Range Index="26" Min="-9.9900000000000000e+02" Max="3.2547540664672852e+00"/>
          <Range Index="27" Min="-9.9900000000000000e+02" Max="2.6101636886596680e+00"/>
          <Range Index="28" Min="-9.9900000000000000e+02" Max="3.4631350040435791e+00"/>
        </Ranges>
      </Class>
    </Transform>
  </Transformations>
  <MVAPdfs/>
  <Weights>
    <Layout NLayers="3">
      <Layer Index="0" NNeurons="30">
        <Neuron NSynapses="34">
          -3.2391382053313587e+00 1.8415952723045943e+00 7.3669677604561390e-01 5.1215780195619400e+00 -2.0487853254920849e+00 -2.4300066223296732e-01 1.0528104075452651e+00 4.1544421338358845e-01 -3.5161059015923994e+00 -1.9295056079654773e+00 -2.1626523933838668e+00 -5.5423018388942147e-01 -8.7794998192250034e-02 -5.6662514091036265e-01 -2.4609613030678107e-01 8.5684473076828227e-01 8.9964226935702538e-02 6.4884369357722509e+00 -2.5176150901115019e-01 1.6889660527912271e+00 -3.8348456040929380e+00 -2.9513908058782745e-01 4.2649555057555579e+00 -7.4179672678110298e-01 -2.1366249960176251e+00 -8.1033974559466848e-01 3.1297492117274142e+00 -4.8779382777405028e-01 -2.9374527383514084e+00 5.2603311266058073e-01 1.3069513061955249e+00 1.7510950975332600e+00 -3.0187981939793405e+00 -4.6119312175536786e-01 
        </Neuron>
        <Neuron NSynapses="34">
          5.1727580901565984e-02 -4.3252471803380366e-01 -1.7169960727083200e+00 3.0038713664387888e+00 -1.9380896710766411e+00 1.2298360621418301e+00 -6.1043063839454370e-01 -1.0025231964625712e+00 -2.7134528214149789e+00 2.5375567660813236e-01 -1.2118299082248272e+00 -1.7880973954265584e+00 2.0997217672272361e+00 -1.5712643123837242e-01 2.6035556308610923e+00 1.5887952944265755e+00 1.8656766306738020e+00 7.9946638104327921e+00 -2.4509129310278728e+00 1.0391064978680673e+00 -4.4249380074871860e+00 -7.4608005786984244e-01 -2.1157093255380310e+00 -2.3063950479021829e+00 -1.5896697430565874e+00 5.3983091950496032e-01 1.0262979178952385e+00 8.5722761792543045e-01 -3.3834225437044427e+00 1.4435836735435809e-01 2.0444308536865905e+00 -2.4929409091985380e-01 -1.5161317113973569e+00 -1.3037474327103287e+00 
        </Neuron>
        <Neuron NSynapses="34">
          2.8318238737864443e-01 -2.6181891369985250e-01 -7.9856573335855652e-01 3.8780066056484336e-01 -5.1763677445261891e-01 7.7040879329979506e-01 7.8149254680667990e-01 8.7252386788620670e-03 6.1889562635922268e-01 1.7547384454356860e-01 1.5463309837393684e+00 9.5575426365971383e-01 2.3086172112311782e+00 1.3424253388932668e+00 -5.6193470202094098e-01 1.4686405118624677e+00 -5.7168758708984957e-01 2.7221154544873033e-01 -7.4790402555953117e-01 -1.6773710269595170e+00 -1.4530956344549282e+00 -3.7617139505446823e-01 -1.5726896349178593e-01 5.5748988557089629e-01 -7.0039803708078954e-02 -4.2806246502582229e-01 4.2739152769675126e-01 1.4239677361425807e+00 7.9070420180473744e-01 -9.0779615168463401e-01 -1.8968488471474740e-01 6.9523585354171979e-01 -1.5499905258826641e+00 9.5922769259418184e-01 
        </Neuron>
        <Neuron NSynapses="34">
          -2.3987652504779168e-02 1.6049783768793502e+00 -1.8207221548656541e-01 -2.0929709361831135e+00 -8.4307836109360945e-01 -2.2087855551499172e-01 -1.9530292602425416e+00 3.7368042197822743e-01 -1.9832676387131836e+00 -9.8835081106355460e-01 1.9642791381014235e-01 1.2693874974499850e+00 -2.3439676657499495e+00 1.0313159419614908e+00 2.3506257866618899e-01 -7.2163798889598629e-01 -2.9081667050862492e-01 -2.3500948257839060e+00 1.2714759066937037e-01 4.5232765855628859e-01 1.8260405016272065e+00 1.3589308509634410e+00 1.6791506545628327e+00 -7.5832370177623321e-01 1.5519259144193582e+00 -2.6392272905337782e-01 -2.7097525060567920e+00 2.3462876054224462e+00 -2.0897701059070957e+00 -1.9616463254399117e+00 4.7305464473147107e-01 -9.5543474563219644e-01 -1.6552063089948627e-01 8.3727385500319751e-01 
        </Neuron>
        <Neuron NSynapses="34">
          5.2641856361811945e-01 -1.8699314790313517e+00 3.8201696222404929e-01 -2.6501100094114810e-01 1.8429345122638487e+00 -1.2605500154105333e-02 -1.0608360016731413e+00 6.8205861384881779e+00 1.4695158835560071e-01 1.6302713891379486e+00 1.8902987687071673e+00 -1.2168136487162764e+00 -1.6612833608880442e+00 4.8262631657206616e-02 -1.3955013554321831e+00 4.5124063704900819e-01 5.6867654373062615e-01 -4.9973150489920455e+00 -2.3858546543752418e-01 2.1271696619059996e-01 7.4372035050888581e+00 -8.7946419483738922e-03 -6.6882518923985523e-01 -2.1108610223984976e+00 1.1992838147300735e+00 8.8497413452941975e-01 2.2430781790048377e+00 -4.3890964414959079e-02 1.1011654596087590e+00 -1.1632821996020461e-01 -1.2715123618539397e+00 9.1124442671580907e-01 -1.7273589627049475e+00 -2.1544791897187254e-01 
        </Neuron>
        <Neuron NSynapses="34">
          1.6316289461992681e-01 9.2190855955540174e-01 8.5144693439683106e-01 -2.4866826532432357e-02 1.4482188702939631e+00 -9.2609499245127846e-01 -5.9724723674580216e-01 1.1268544826806286e-01 -2.0583131098423135e-01 -2.1090021942342645e+00 -1.8293275042387789e+00 -1.5236662504065934e+00 -1.5982297986716854e+00 -1.2044180907221544e+00 -3.1564805789582134e-01 5.9830348820135666e-02 -9.5459991575542608e-02 -1.4494473956023249e-01 -1.7012924609982732e-01 7.6997978511165555e-01 1.2718976720643709e+00 8.7272574565864725e-01 2.0222219478788034e-01 1.9001905495806057e-01 3.4549018326166486e-03 -2.2644759293202649e-01 -6.1601271595047313e-01 8.3594773302157344e-01 -7.2503059566825223e-01 -9.6174675333034376e-01 -5.1488592409456568e-01 2.9536959859144696e-01 2.5409843265247889e+00 -2.3615354458698063e+00 
        </Neuron>
        <Neuron NSynapses="34">
          -2.1627020928917223e-01 8.1392709549335163e-01 2.8625078087578421e-01 2.2217561013365814e+00 1.7243990267978133e+00 5.1504147925894217e-01 1.9294721402584425e+00 -3.7488613107165542e-01 1.9185047738189556e+00 -1.4725852486394433e+00 1.3876583588859019e+00 2.3812441633811812e+00 4.2943843943590898e-01 -7.0600931275467949e-01 2.7089858995833658e+00 -1.7705135770859561e+00 -2.7750723203644450e+00 1.8703459907204705e+00 -2.6368386188338512e-02 1.7540854012373128e-01 -2.6318733598701685e+00 -1.6240602408918510e+00 -1.5724075410569083e+00 -7.1060721091490919e-01 -1.5170194378438324e+00 -1.7530297814738793e+00 2.7255284775095241e+00 1.5561689551340834e+00 1.6056468371640735e+00 -1.8669867582640891e+00 9.4665315905487979e-01 -1.1238166855675809e+00 4.5440365653695969e-01 7.1172062102108924e-01 
        </Neuron>
        <Neuron NSynapses="34">
          -4.6817925206980873e-02 -1.4649636451515797e+00 -2.5671257604020972e+00 1.4567884747831406e+00 -2.0783221078492780e+00 -1.1712092056146894e+00 4.8605870736981277e-02 7.3770211880007694e-02 5.4776067427684727e-01 -1.3454010053388030e+00 1.1406648233989023e+00 -1.6537795037792260e+00 -4.8174735169431671e-01 -1.4424261043842482e-01 2.3203075742911841e+00 2.8102063137799287e+00 2.4554643255147113e-01 4.3424362210392858e-01 -2.5429599308571738e+00 -9.3766010844628689e-01 -8.8927438466201755e-02 -2.0787247679442400e+00 9.5432419985305189e-02 -1.3737516818432896e+00 -4.1700016336209633e-01 3.6481740273236540e-01 -3.7100472006459351e-01 2.3833810191273286e-01 -7.1355791507004342e+00 9.1588965493429930e-01 -4.9390513478815329e-01 -1.7863810196731904e+00 -4.5229305133199033e-01 1.0728619636186507e+00 
        </Neuron>
        <Neuron NSynapses="34">
          -4.7391040164518533e-02 7.1674042381282485e-03 -8.5277352853510802e-01 -8.8563973508275995e-01 6.9069835130541946e-01 -3.7492009200243603e-01 -1.8947937249323553e-02 -1.8922591410211623e-03 2.5684081092845895e-02 1.1552406189889045e-02 -1.4616322726134030e+00 -1.7404317105389526e+00 -7.7083027425767636e-01 1.8107254063327802e-01 -1.4264939062358051e+00 2.3783095511354451e+00 -2.9973380143094941e+00 2.0823705061925724e+00 -1.0136661275037293e+00 9.2275606938793095e-02 -6.2909331292473128e-02 -3.2635586281136574e-02 -9.3801180622078789e-02 -1.8795086952935971e+00 -2.9196705006788404e-01 -3.5887641076172272e-01 -1.3358988284293405e+00 -2.0880776746416763e-01 1.1010044724866630e-01 -3.5517773491618249e-01 6.8327486440205742e-01 8.6750457646323764e-01 -1.2684778665727119e+00 -2.1912512739606727e+00 
        </Neuron>
        <Neuron NSynapses="34">
          -3.6366507004335347e-01 -2.1580402185415717e+00 -3.0139851810804763e-01 -7.2385150140279917e+00 1.7931829661113889e+00 -1.2698748499638750e+00 -7.0229538427273197e-01 -1.8500900527655229e-01 4.5403146060997474e-01 -2.6844300613099231e-01 1.8732539927038754e+00 -1.0862135458624045e+00 1.1337528736372657e+00 1.0018460970983338e+00 -1.7705735362394905e+00 -1.9614444041623806e+00 -4.1974974802890697e-02 -1.1730461695856718e+00 -2.1674794555411131e-01 2.2859798395837410e+00 5.3597608915421313e-01 1.3326904717371271e+00 2.4552122746278943e-01 6.2267784735406451e-01 -1.7291090835343560e+01 2.5304053972007601e-01 -2.6272826970236118e+00 -1.9897625505573704e+00 1.1464276820507693e+00 -1.1771684992472521e-01 -2.4896161006471423e-01 5.3100808189398774e-01 -8.3057925701302038e-01 1.0440716432151507e+00 
        </Neuron>
        <Neuron NSynapses="34">
          3.6702292155295538e-02 -2.9257238145850778e-01 2.4429056873930306e+00 -4.3024289483514949e-01 -4.8295288560565058e-01 4.0300871183187781e-01 1.2991407468808547e-01 1.7591446575364639e-01 -3.4551227634348075e-01 9.4764892477886414e-02 8.0351560844901859e-02 1.0739291695879447e+00 -6.2113361375178255e-01 2.6134421852091799e-01 -8.4579057867752561e-01 -2.1619844258853136e+00 -1.8724854531674031e+00 -1.2060661174509241e-02 -7.8066653723760493e-01 5.4087018285329946e-01 2.0869305435585812e-02 -7.7822308121107617e-02 4.9926710413243456e-03 -3.8861889651018733e+00 -6.5798140167348385e-01 -2.0264618968110937e+00 -3.2042870383846691e+00 1.6601741588949148e-01 3.1397905896273182e+00 -2.7251263304355104e+00 1.5374315648111270e-01 -1.4605395952428577e+00 -3.9828561294821272e+00 4.2176383799983759e+00 
        </Neuron>
        <Neuron NSynapses="34">
          -2.5970118626917311e+00 -2.3515698077450388e-02 -5.7210603928345338e-01 2.5823580412253413e+01 2.3392033863271462e+00 2.3356491222806492e+00 -7.0932623418107719e+00 -2.7673506421839416e+00 -2.0633511967112955e+01 8.5788418730960903e-01 8.8018327882756597e-01 5.3578493959900597e-01 6.2398868681045494e+00 1.1196416210341715e+00 1.6220394511254834e+00 -1.8405054308565574e+00 6.0953946562442969e+00 2.6433583765809374e+01 -5.4904623900470026e+00 -3.6193673795426118e-01 -1.5084672315743987e+01 3.2475011600062667e+00 1.0889486508307293e+00 7.9014352815616740e-01 4.3706885224367056e+01 -1.9664421386018704e+00 6.2204848266388231e+00 8.2000822301725951e-01 1.8381438315567092e+01 -2.7694347720254919e+00 1.5195394346198876e+00 -2.3383927701979665e+00 -3.9535873962278739e-01 3.5529976625689916e+00 
        </Neuron>
        <Neuron NSynapses="34">
          -2.1222281140227528e+00 -1.2233357762468882e+00 1.1061749904089736e-01 -1.1884709465351253e+00 1.5709665766701658e-02 -7.2773714820054847e-01 7.6907872526994259e-01 1.8496275665341910e+00 -1.1483897780605774e+00 1.3523796445594356e+00 1.6738302082265999e+00 -1.3072833039166472e+00 -4.1305683578478525e-01 6.4756503418437639e-01 1.3029257795414320e+00 -2.6318112169395862e+00 -2.6193123889481962e+00 7.3957568905084492e-01 -2.7472334269490797e+00 -1.5677411333149607e+00 -2.7537239636601489e+00 5.8727792793812461e-01 1.6945031274768765e+00 -7.3100857236980799e-01 -8.9154724848892979e+00 -1.6118844625840037e-01 2.3578365627501987e+00 1.1880209598922875e+00 -1.8335799135732739e-01 -1.3058347133515704e+00 -1.5099008257639974e+00 -5.9020041436745696e-01 -1.5747569990168411e+00 -1.5708951536105558e+00 
        </Neuron>
        <Neuron NSynapses="34">
          5.5981206510988946e-01 -3.8436506187424779e-01 -1.4907113864637411e+00 2.1466459715991855e+00 1.7273221500932368e+00 -1.4986172270861714e-01 1.7819823458363482e+00 9.9805042592474372e-02 2.7801442395039224e+00 -6.0841300119343267e-01 3.2882316565712982e-01 1.0218082973773994e+00 1.5145641408929273e+00 -8.8841181944203262e-01 1.8198551860505665e+00 -2.3723583105569830e+00 -5.9083566518921937e-01 1.7719827622316537e+00 -3.2152892781685810e-01 1.4995119417108449e-01 -1.5364233731823633e+00 -9.7634069180232785e-01 -3.4293056769484453e-01 1.2412300864041899e+00 -4.7300711387156884e+00 -1.3975131780603007e+00 -1.0307521037562315e+00 1.6807466535919358e+00 -6.4650975076910697e+00 2.7154107040834702e-01 -1.6316229915080389e+00 1.4289191428676691e+00 3.1571309730721714e-01 -7.3202078328287057e-01 
        </Neuron>
        <Neuron NSynapses="34">
          2.0808154358085087e+00 -1.4023785718855883e+00 1.3900134418151608e+00 2.2638585585684301e+00 -3.8522996968911993e-01 -2.4189725536314923e+00 2.3345601148837516e+00 -1.3187089902474633e-01 1.1848800023266921e+00 1.6386511786819186e-01 -1.2293312994596055e+00 -1.8110840907537555e+00 1.3089087051494814e+00 5.6381674020529493e-01 4.8177723288748431e-01 -2.2599727932524134e+00 -3.5668782380463706e+00 -3.3268799580013195e+00 6.7778614246456301e-02 -1.6979157209348330e+00 -3.5543824225346077e+00 -6.3091021335733621e-01 -1.7136356084069668e+00 1.2237984055194300e+00 -4.8259902228444203e+00 1.8027978164609142e+00 -4.1822664520701502e-01 1.1187209755129091e+00 -4.5328418947225790e+00 -4.2534670965379351e-01 2.5031634155961693e+00 -2.0487918301647809e+00 1.9879574418909107e+00 -1.6722684287002345e+00 
        </Neuron>
        <Neuron NSynapses="34">
          2.6124949701656894e+00 -1.5696220472868401e+00 4.9239771224391832e-01 6.2097786950564793e-01 7.7140532594800992e-01 -1.6425918984701529e+00 4.4547032077946197e-01 8.6862561430050267e-01 1.0905002963806321e+00 6.9145812787771410e-01 1.0844806085829763e+00 -2.2398473234113605e+00 1.8622150167774147e+00 -1.6480857206454249e+00 1.5130085465270697e+00 6.7703811040321393e-01 -1.5280944721762337e+00 3.8420471225021049e+00 9.1402971067257210e-01 -1.9062555541668784e+00 -3.7083332590119946e+00 -1.2697299696554858e+00 -1.0736367202759318e+00 8.7575607905213992e-01 -4.7574067189532521e+00 -9.7370618478130888e-02 -1.5511786838829924e+00 -1.3192628811139766e+00 -6.9174313487575274e+00 -1.4332069314700449e+00 2.3248381720636033e-01 -2.7551935044732889e-01 5.9822555704627378e-01 -1.5374527555928550e+00 
        </Neuron>
        <Neuron NSynapses="34">
          -4.3779514261828550e-02 2.3174368935198947e-01 -3.0546964674707344e-01 -7.5518103306627105e-01 8.8351964550842421e-01 6.5608172741501181e-01 -2.0035098299894349e-01 -1.9348731284504249e-03 -1.0977831646887517e+00 -5.3449873472774101e-01 2.2352033835055760e-01 -6.5843677009903945e-01 -7.1701445130653274e-01 -7.3105304418304123e-02 1.1067318225411167e+00 -2.1628120117112117e+00 2.4553978991358028e+00 -9.4984480006590022e-01 1.0680307232060813e+00 1.2923097426953887e+00 2.1838961847484595e-01 -9.4951208551856639e-02 4.8561134830809333e-01 -1.9078470258085798e+00 -1.5541514080196114e-01 -6.8326029921583287e-01 1.9335172286451835e-01 5.6156210167026244e-01 -4.9718710471738883e-02 2.9243981052151975e+00 9.5161302683998195e-02 -9.2128137457516757e-01 4.6981309147900080e-01 -2.3345717368548962e+00 
        </Neuron>
        <Neuron NSynapses="34">
          1.5623651812623642e+00 -1.6116124176685438e+00 4.3084121342449634e-02 -8.9107507404734132e-01 8.1445175040226769e-01 -1.5790536885469633e+00 4.3325679989999888e-01 -9.8389924755072276e+00 -1.1618778865226578e+00 5.8874220089548446e-01 -8.6557082161042775e-01 4.4911534663102948e-01 -1.0719839867838847e+00 1.2505697662431605e+00 -8.0728997812346637e-01 7.2282965124161036e-01 -2.4937197121609120e+00 -1.7650861660099651e-01 2.3235270343190391e+00 -2.1472104392292422e+00 -1.5814454382317802e+00 -1.1901050505299617e+00 6.4854862199384300e-01 1.8012584850591287e+00 2.3962014855516274e+00 -1.4700028035253259e+00 9.1374463298263861e-02 -2.8980661580727946e-01 -2.7075502482716357e-01 -4.3992372631900090e-01 -1.2949378516059289e+00 3.0058562075532008e-01 2.2821509827959396e-01 2.4732624340990346e+00 
        </Neuron>
        <Neuron NSynapses="34">
          -3.8860812809390127e-01 1.1072986722543410e-01 -1.1381097741998449e+00 4.1097755923138796e-01 1.0062205249972819e-01 1.8359418119151396e+00 -2.2590256658453547e-01 -9.5490775105806858e+00 9.7102327644125441e-01 -4.8745175913444239e-01 1.4023531750910174e+00 -2.6263262306858431e-01 -3.9376292008582503e-01 -9.6431777764747550e-01 -1.8770464218098173e+00 -3.5936360458767602e-01 -2.0612247361468325e+00 5.6177563870963987e-01 3.5752817329298187e-01 -9.8837380207283232e-01 1.0561954548131258e+00 -2.2953168216716660e+00 -1.1900444462076003e+00 3.9830791414379679e-01 -7.4277338852214170e-01 9.5880387452726890e-01 6.4699644707980153e-01 -2.7222390822765368e+00 -1.0738396996238151e+00 -5.4848134579402941e-01 5.3709499090892010e-01 6.3045375651454427e-01 -6.9168226521474163e-01 7.6446425738710008e-02 
        </Neuron>
        <Neuron NSynapses="34">
          -1.5913648916363645e+00 1.7714127001327964e+00 2.6687894712635597e-02 4.8074763751022737e-02 -3.6092025279511436e-01 -5.8021051447990801e-01 -6.6935001453098897e-01 -9.3051325561500260e+00 -2.8284374247425588e-02 7.7981953310559515e-02 -6.0120604760338196e-02 -1.5211241112662441e+00 1.1620765043201640e+00 2.0343243373642525e-01 -1.7438354829501879e+00 1.8136107554840644e+00 1.6149129447511512e-01 -8.7263656471611550e-01 -7.7217168837153682e-01 -2.1258552992508410e+00 4.4977156201038554e-01 1.2584072769684491e+00 1.4377046417590567e+00 1.2493311081762688e+00 -1.9483222995080212e+00 -4.8001198488312002e-01 -1.5082177723881034e+00 -1.3754024482935197e+00 6.6066408745754790e-01 -8.5003502824890853e-01 1.4546872758082903e+00 -3.8279696325963697e-01 5.3225939041060899e-01 -1.2240877601793181e+00 
        </Neuron>
        <Neuron NSynapses="34">
          1.3627285098841053e-03 4.3028790742808160e-01 1.1093175324853382e+00 1.5619991397026051e-01 1.3673568627655315e+00 2.4168246581116836e-02 1.6396531835895928e-02 -8.6810028809779407e+00 -1.6586909044412371e-01 -7.0807482234880337e-01 2.7558602071476423e-01 9.5443220541785045e-01 5.0040681620994221e-01 1.1601513197135960e+00 4.5244699244483139e-01 5.2651567852130210e-01 1.9018866565022441e+00 -7.9663858595084902e-01 -1.0352735768019981e+00 1.5269337187735557e-01 -1.4499591789398319e-01 2.2196397802460526e+00 -5.4722252636299436e-02 2.5998008671273048e-01 8.8146262829996588e-02 -1.7801376816966244e-01 -1.6354735879488969e+00 -1.2864340547803785e+00 7.1619658570247580e-01 5.7777661797940094e-01 3.4391866232898577e-01 1.4744736060942902e+00 2.2290939347438616e+00 -1.6026274930094678e-01 
        </Neuron>
        <Neuron NSynapses="34">
          -2.2292475564811818e-02 3.8722929819206825e-01 1.1784566578262423e+00 -1.7022734375056386e-01 1.9782542688577094e+00 1.2058802728631550e+00 8.9479517076985982e-01 -6.1902501740225091e+00 -1.3433548567244769e+00 -1.0658572791404288e+00 1.1970407548942603e+00 -1.5010888009385581e+00 9.3239149383390141e-01 -4.9889439267181340e-01 2.1907461838083639e+00 9.9702777863666170e-01 1.5455044968246350e+00 2.0895999185581696e-01 2.0278193849440163e+00 1.6232529007701411e+00 1.8627303397097905e-01 1.3151866064617013e+00 2.0858112324420794e-01 4.9422529595605158e-01 6.3516351055501596e-01 -2.8330343818469156e-01 -8.7154326505975288e-01 2.0859746578330594e+00 -1.2280582599827128e+00 -1.7569682407575349e-01 -1.0094263904949416e+00 2.3346795715958046e-01 1.4551953962462079e+00 1.7501418892869820e+00 
        </Neuron>
        <Neuron NSynapses="34">
          -1.1785108798254077e+01 -3.4301750254401059e-01 -1.3700233451728512e+00 -2.2005067273068484e+00 1.4932883277196982e+00 5.0608831706571822e+00 1.1754422615899770e+01 7.8998221312692003e+00 8.3037929527915839e+00 -5.0870592891839195e-01 -9.8073167449733878e-01 1.8009742793942092e+00 -8.3695465946522229e-01 1.8440654497709399e-01 -8.0670782728758675e-02 -6.0276026709955999e-01 1.6164378479887815e+00 -2.7222345263356358e+00 -1.0824321425914138e+00 -3.3270301099281407e-01 1.1420945997775695e+01 -1.5233782646964045e+00 4.3287407979580497e+00 3.9275081251772220e-01 -5.7790193702150487e+00 1.0564639074604965e+00 -1.2918781106421036e+00 -7.4963786789457643e-01 -4.2434554297831424e+00 3.1089179641535134e+00 2.6412779804610781e-01 2.7109207872351021e-02 -1.4894828094219756e+00 8.6551008809340457e-01 
        </Neuron>
        <Neuron NSynapses="34">
          1.1452713703421709e+01 -3.3293652785978983e-01 -1.8457620406538369e+00 1.7074976413194705e+01 -1.7824584256729936e+00 -5.1503334652069075e+00 -1.3902943252915694e+01 -3.4948054691359758e+01 -1.3275042055819149e+01 -2.2205585991626200e+00 -3.0728245335852494e-01 1.0518261996192642e+00 5.6498382109684355e+00 1.3396718306733078e+00 1.1435610986425608e+00 2.1461624480807586e+00 2.6040561489730183e+00 1.7365795584460034e+01 3.0790387784878486e+00 -6.9435588647398661e-01 -1.8856561286192335e+01 -3.8611052396690576e-01 -2.8094189351980354e+01 -6.0847634635945980e-01 3.7053281656165296e+01 -2.8074754589156612e+00 2.8412808578293727e+00 5.3827829172489960e-01 1.9001105250654533e+01 -4.3415543112374033e+00 -1.6182930764929766e+00 3.4828346607852989e-01 -1.6347608563490643e+00 2.3722954053484773e+00 
        </Neuron>
        <Neuron NSynapses="34">
          -2.1964114439231114e+01 1.7908864038314862e-01 -1.0257109520559209e+00 -1.4369182144638639e+01 -1.5479148452167100e+00 9.2051100726362840e+00 2.4816312493250479e+01 2.7050512348561572e+01 2.0778085325475828e+01 -6.8074095608220009e-01 1.1139742846948286e+00 -9.0285944627916448e-02 -2.3846038931811018e+00 8.0445434937707538e-01 -1.7510960029029090e+00 1.8144861993209922e+00 -4.9542655130959723e-01 -1.4903270140385901e+01 -7.3494781259603204e-01 3.0598685493949285e+00 3.0304989586156584e+01 -3.8944613560512015e-01 2.2789425716987065e+01 -1.7673733109294700e+00 -3.1263507234637022e+01 6.9181185436590542e-01 -4.9755403361521404e+00 4.8081524796882091e-01 -1.4818606780464734e+01 4.4142249899062298e+00 -1.1334309401858829e+00 3.9529033542171743e-01 -3.0004082712571734e-01 -7.3203130905583291e-01 
        </Neuron>
        <Neuron NSynapses="34">
          -1.9194896471914860e+00 -2.2760316920883844e-01 -1.0433966351420392e+00 2.2328210448454333e-01 1.5855670229469307e+00 1.9050570173997903e+00 1.3202991657468592e+00 2.2857037697989480e+00 2.2231573453966176e+00 1.4531502648770100e-01 -1.7612759592468816e-01 3.1576545427736318e+00 -3.9978779582025614e-01 1.7740919047199302e-01 -4.1817136155510187e-01 4.4440965718472841e-01 -8.8324781791850127e-01 -3.3591964373299472e+00 1.8281755326786613e+00 2.2107480462025362e+00 1.4464947575096028e+00 1.1059224447693423e+00 1.4920466842559650e+01 1.7573553110964377e+00 -3.9954348937855841e+00 6.0772923843846260e-01 1.2114303326816844e+00 -2.0270194379395710e+00 -2.5781191322897010e+00 4.3126430242942887e-01 8.7230314600291403e-01 9.5902436544802638e-01 -2.4329875535649652e+00 3.9831586712088701e-01 
        </Neuron>
        <Neuron NSynapses="34">
          5.2964733294517963e+00 -1.2374423139004265e+00 -1.1639376210676551e+00 2.6147651529837979e+00 2.3711376873970775e+00 -1.3886942479433126e+00 -3.3061302446732901e+00 -8.6215083215969202e+00 -4.0482305093013959e+00 -1.2747057258181396e+00 1.6707668801893112e+00 2.2055300153101376e+00 -1.8103081089544167e-02 -1.8546005279132360e+00 -1.1704357759788750e+00 2.5756325223595100e-01 -1.4081008575015677e+00 5.1442225042541461e+00 1.4153252248251651e+00 2.9414491905914814e-01 -4.8542023762177218e+00 4.7025567076000507e-01 5.7465020520667496e+00 1.1107541917805983e+00 9.7069157894312923e+00 7.6077138594175264e-01 2.3311115248128473e+00 -9.1521285892795856e-01 5.7692854526956037e+00 2.9940375001428043e-01 -4.7259810920011372e-02 5.1138682768807509e-01 -1.4769218859644371e+00 8.6271864489661521e-01 
        </Neuron>
        <Neuron NSynapses="34">
          -3.1365902082613766e+00 2.6671814626939988e-01 -7.0613988438181874e-01 -1.2705904419161231e+00 1.8112693752851172e+00 2.3207561124747116e+00 2.3212828821539744e+00 6.4446944119947638e+00 1.6687890253429147e+00 -5.7258463293443418e-01 1.2942046442867943e+00 1.5770998819097179e+00 -1.3336430648298441e+00 -1.1046856731486701e+00 1.7465844960377728e+00 1.6654790224182427e+00 -2.2944272113744084e+00 -1.5555452918441179e+00 4.9899756872483325e-01 4.2364997411367983e-01 3.4734848950845776e+00 8.7382626805606334e-01 1.7570073235089787e+01 -1.6609869000287945e+00 -5.6993353827581839e+00 1.7180887837797061e+00 -4.6327166923009783e-02 -2.1918406364991738e+00 -3.0730594610522752e+00 -1.2869717773285834e+00 2.2252300719751887e+00 1.5513161900466728e+00 -2.3417120890099787e+00 -9.3328220753974145e-01 
        </Neuron>
        <Neuron NSynapses="34">
          2.1206990818806791e+01 -2.2156109747013997e-03 3.3792858080899735e+00 -1.5142235389056413e-02 -1.2725771978281111e+00 -8.3164955956880373e+00 -2.1122052991198398e+01 -5.9630015918743908e+01 -1.5134357832481706e+01 4.1430388662859139e+00 2.0798267655942944e+00 -1.1131595545248179e+00 -8.4012015752677316e-01 -3.1500037129250597e-01 5.0397934415379686e-01 2.7510595535001886e-01 1.1105294907908407e-01 -4.7023466010727655e-02 2.6259859439513704e+00 -2.7453405114291236e+00 -2.2942606711433818e+01 -4.2346972388343030e-03 -3.6595310263903428e+01 3.2996287585588142e+00 9.2014249239516774e-02 -1.0274199508906317e+00 1.2372527274379597e-01 1.0753799070611925e+00 5.6355830320725603e-03 -5.4286100835543272e-01 6.2088766375134261e+00 1.8110944335854992e-01 -8.0280237890224621e-02 -2.0039910897089306e+00 
        </Neuron>
        <Neuron NSynapses="34">
          -2.2239578674735814e+00 1.9436123818841171e+00 -2.7875776153944087e-01 -7.5624841719215814e+00 1.6472301499281436e+00 1.9443117327310757e+00 3.2331417686030468e+00 8.3188551428977160e+00 5.9478807049380116e+00 6.5262654202294068e-01 2.0982483263194962e+00 -1.2410344870109720e-01 -2.3648362664464369e+00 -1.3221975850412035e+00 -2.3818483945379638e+00 -5.6112680884479360e-01 -1.9916087192564682e+00 -4.9401100997071961e+00 -5.4294080283677970e-01 -1.2030912023975207e+00 5.0922225346734074e+00 7.5253466827959214e-01 7.0206329518840949e-01 -5.2508289499162697e-01 -1.4522244399107311e+00 2.0763314069350414e+00 1.4929497985854812e+00 -1.9004241202758678e+00 -4.2627859212079988e+00 5.3036926704346421e-01 1.0037132855085487e+00 -1.4717967160865799e+00 -1.4286819797659909e+00 1.9925472765078669e+00 
        </Neuron>
      </Layer>
      <Layer Index="1" NNeurons="35">
        <Neuron NSynapses="1">
          4.1697666662296236e+00 
        </Neuron>
        <Neuron NSynapses="1">
          2.5490616605507372e+00 
        </Neuron>
        <Neuron NSynapses="1">
          -1.6628910544963542e+00 
        </Neuron>
        <Neuron NSynapses="1">
          2.2079144103774886e+00 
        </Neuron>
        <Neuron NSynapses="1">
          8.3683267646882387e-01 
        </Neuron>
        <Neuron NSynapses="1">
          -5.2777861220654965e-01 
        </Neuron>
        <Neuron NSynapses="1">
          -2.3033212579690869e+00 
        </Neuron>
        <Neuron NSynapses="1">
          -6.7000574271887325e+00 
        </Neuron>
        <Neuron NSynapses="1">
          -2.3656810730713103e+00 
        </Neuron>
        <Neuron NSynapses="1">
          -8.7308088250806755e+00 
        </Neuron>
        <Neuron NSynapses="1">
          -1.6348605300784560e+00 
        </Neuron>
        <Neuron NSynapses="1">
          2.0800909931805491e+00 
        </Neuron>
        <Neuron NSynapses="1">
          6.6392118524500809e-01 
        </Neuron>
        <Neuron NSynapses="1">
          -8.3426269319701329e-01 
        </Neuron>
        <Neuron NSynapses="1">
          7.9974696190208816e-01 
        </Neuron>
        <Neuron NSynapses="1">
          2.2481235676849458e+00 
        </Neuron>
        <Neuron NSynapses="1">
          4.2821874059943399e-01 
        </Neuron>
        <Neuron NSynapses="1">
          1.5542933526181091e+00 
        </Neuron>
        <Neuron NSynapses="1">
          9.8701343674038655e-01 
        </Neuron>
        <Neuron NSynapses="1">
          -6.7254292529227211e-01 
        </Neuron>
        <Neuron NSynapses="1">
          -1.2113841089177764e+00 
        </Neuron>
        <Neuron NSynapses="1">
          -3.9712262009680671e-02 
        </Neuron>
        <Neuron NSynapses="1">
          -5.1736489827050605e+00 
        </Neuron>
        <Neuron NSynapses="1">
          -1.0654532101535801e+00 
        </Neuron>
        <Neuron NSynapses="1">
          1.9370505067830803e+00 
        </Neuron>
        <Neuron NSynapses="1">
          -6.2073039060281121e-01 
        </Neuron>
        <Neuron NSynapses="1">
          1.3633138411191601e+00 
        </Neuron>
        <Neuron NSynapses="1">
          3.7290885751234504e-01 
        </Neuron>
        <Neuron NSynapses="1">
          1.7038851557166219e+00 
        </Neuron>
        <Neuron NSynapses="1">
          -3.2386199466695770e-01 
        </Neuron>
        <Neuron NSynapses="1">
          -4.4532452108147655e+00 
        </Neuron>
        <Neuron NSynapses="1">
          -8.5776270274414101e-01 
        </Neuron>
        <Neuron NSynapses="1">
          -1.8677460118423197e+00 
        </Neuron>
        <Neuron NSynapses="1">
          8.5500018116870569e-01 
        </Neuron>
        <Neuron NSynapses="1">
          1.5139222933646648e+00 
        </Neuron>
      </Layer>
      <Layer Index="2" NNeurons="1">
        <Neuron NSynapses="0"/>
      </Layer>
    </Layout>
  </Weights>
</MethodSetup>
