<?xml version="1.0"?>
<MethodSetup Method="MLP::Muon_Downstream_TMVA">
  <GeneralInfo>
    <Info name="TMVA Release" value="4.2.0 [262656]"/>
    <Info name="ROOT Release" value="6.02/01 [393729]"/>
    <Info name="Creator" value="jonesc"/>
    <Info name="Date" value="Mon Feb 15 17:56:56 2016"/>
    <Info name="Host" value="Linux lcgapp-slc6-physical1.cern.ch 2.6.32-431.29.2.el6.x86_64 #1 SMP Wed Sep 10 11:13:12 CEST 2014 x86_64 x86_64 x86_64 GNU/Linux"/>
    <Info name="Dir" value="/var/pcfst/r03/lhcb/jonesc/ANNPID/results/MC12/TrainMixture/TrainPhysTks-EvalPhysTks-ReweightRICH2/GhostAccFrac0.1/ProtonAccFrac1.0/KaonAccFrac1.0/TMVA-Run2-NoTkLikCDVelodEdx/MLP/Norm/ScaleF1.2/BP/NCycles750/CE/tanh/CVTest15/CVImp1e-16/NotUseRegulator/Muon/Downstream"/>
    <Info name="Training events" value="1825470"/>
    <Info name="TrainingTime" value="4.74214967e+04"/>
    <Info name="AnalysisType" value="Classification"/>
  </GeneralInfo>
  <Options>
    <Option name="NCycles" modified="Yes">750</Option>
    <Option name="HiddenLayers" modified="Yes">32</Option>
    <Option name="NeuronType" modified="Yes">tanh</Option>
    <Option name="RandomSeed" modified="No">1</Option>
    <Option name="EstimatorType" modified="Yes">CE</Option>
    <Option name="NeuronInputType" modified="No">sum</Option>
    <Option name="V" modified="Yes">True</Option>
    <Option name="VerbosityLevel" modified="No">Verbose</Option>
    <Option name="VarTransform" modified="Yes">Norm</Option>
    <Option name="H" modified="Yes">True</Option>
    <Option name="CreateMVAPdfs" modified="No">False</Option>
    <Option name="IgnoreNegWeightsInTraining" modified="No">False</Option>
    <Option name="TrainingMethod" modified="Yes">BP</Option>
    <Option name="LearningRate" modified="No">2.000000e-02</Option>
    <Option name="DecayRate" modified="No">1.000000e-02</Option>
    <Option name="TestRate" modified="No">10</Option>
    <Option name="EpochMonitoring" modified="Yes">True</Option>
    <Option name="Sampling" modified="No">1.000000e+00</Option>
    <Option name="SamplingEpoch" modified="No">1.000000e+00</Option>
    <Option name="SamplingImportance" modified="No">1.000000e+00</Option>
    <Option name="SamplingTraining" modified="No">True</Option>
    <Option name="SamplingTesting" modified="No">False</Option>
    <Option name="ResetStep" modified="No">50</Option>
    <Option name="Tau" modified="No">3.000000e+00</Option>
    <Option name="BPMode" modified="No">sequential</Option>
    <Option name="BatchSize" modified="No">-1</Option>
    <Option name="ConvergenceImprove" modified="Yes">1.000000e-16</Option>
    <Option name="ConvergenceTests" modified="Yes">15</Option>
    <Option name="UseRegulator" modified="Yes">False</Option>
    <Option name="UpdateLimit" modified="No">10000</Option>
    <Option name="CalculateErrors" modified="No">False</Option>
    <Option name="WeightRange" modified="No">1.000000e+00</Option>
  </Options>
  <Variables NVar="27">
    <Variable VarIndex="0" Expression="TrackP" Label="TrackP" Title="TrackP" Unit="" Internal="TrackP" Type="F" Min="2.70291992e+03" Max="3.84996925e+06"/>
    <Variable VarIndex="1" Expression="TrackPt" Label="TrackPt" Title="TrackPt" Unit="" Internal="TrackPt" Type="F" Min="2.80990511e-01" Max="4.34243031e+05"/>
    <Variable VarIndex="2" Expression="TrackChi2PerDof" Label="TrackChi2PerDof" Title="TrackChi2PerDof" Unit="" Internal="TrackChi2PerDof" Type="F" Min="2.38115750e-02" Max="2.99998522e+00"/>
    <Variable VarIndex="3" Expression="TrackNumDof" Label="TrackNumDof" Title="TrackNumDof" Unit="" Internal="TrackNumDof" Type="I" Min="4.00000000e+00" Max="2.70000000e+01"/>
    <Variable VarIndex="4" Expression="TrackGhostProbability" Label="TrackGhostProbability" Title="TrackGhostProbability" Unit="" Internal="TrackGhostProbability" Type="F" Min="-9.99000000e+02" Max="1.00000000e+00"/>
    <Variable VarIndex="5" Expression="TrackFitTChi2" Label="TrackFitTChi2" Title="TrackFitTChi2" Unit="" Internal="TrackFitTChi2" Type="F" Min="4.40319913e-04" Max="6.52366104e+01"/>
    <Variable VarIndex="6" Expression="TrackFitTNDoF" Label="TrackFitTNDoF" Title="TrackFitTNDoF" Unit="" Internal="TrackFitTNDoF" Type="I" Min="1.00000000e+00" Max="2.20000000e+01"/>
    <Variable VarIndex="7" Expression="RichUsedR1Gas" Label="RichUsedR1Gas" Title="RichUsedR1Gas" Unit="" Internal="RichUsedR1Gas" Type="I" Min="0.00000000e+00" Max="1.00000000e+00"/>
    <Variable VarIndex="8" Expression="RichUsedR2Gas" Label="RichUsedR2Gas" Title="RichUsedR2Gas" Unit="" Internal="RichUsedR2Gas" Type="I" Min="0.00000000e+00" Max="1.00000000e+00"/>
    <Variable VarIndex="9" Expression="RichAboveMuThres" Label="RichAboveMuThres" Title="RichAboveMuThres" Unit="" Internal="RichAboveMuThres" Type="I" Min="0.00000000e+00" Max="1.00000000e+00"/>
    <Variable VarIndex="10" Expression="RichAboveKaThres" Label="RichAboveKaThres" Title="RichAboveKaThres" Unit="" Internal="RichAboveKaThres" Type="I" Min="0.00000000e+00" Max="1.00000000e+00"/>
    <Variable VarIndex="11" Expression="RichDLLe" Label="RichDLLe" Title="RichDLLe" Unit="" Internal="RichDLLe" Type="F" Min="-9.99000000e+02" Max="1.01145401e+02"/>
    <Variable VarIndex="12" Expression="RichDLLmu" Label="RichDLLmu" Title="RichDLLmu" Unit="" Internal="RichDLLmu" Type="F" Min="-9.99000000e+02" Max="8.31712036e+01"/>
    <Variable VarIndex="13" Expression="RichDLLk" Label="RichDLLk" Title="RichDLLk" Unit="" Internal="RichDLLk" Type="F" Min="-9.99000000e+02" Max="9.86953964e+01"/>
    <Variable VarIndex="14" Expression="RichDLLp" Label="RichDLLp" Title="RichDLLp" Unit="" Internal="RichDLLp" Type="F" Min="-9.99000000e+02" Max="5.76148987e+01"/>
    <Variable VarIndex="15" Expression="RichDLLbt" Label="RichDLLbt" Title="RichDLLbt" Unit="" Internal="RichDLLbt" Type="F" Min="-9.99000000e+02" Max="6.15374985e+01"/>
    <Variable VarIndex="16" Expression="MuonBkgLL" Label="MuonBkgLL" Title="MuonBkgLL" Unit="" Internal="MuonBkgLL" Type="F" Min="-1.01862001e+01" Max="2.89999992e-02"/>
    <Variable VarIndex="17" Expression="MuonMuLL" Label="MuonMuLL" Title="MuonMuLL" Unit="" Internal="MuonMuLL" Type="F" Min="-6.90775986e+01" Max="0.00000000e+00"/>
    <Variable VarIndex="18" Expression="MuonNShared" Label="MuonNShared" Title="MuonNShared" Unit="" Internal="MuonNShared" Type="I" Min="1.00000000e+00" Max="1.24000000e+02"/>
    <Variable VarIndex="19" Expression="InAccEcal" Label="InAccEcal" Title="InAccEcal" Unit="" Internal="InAccEcal" Type="I" Min="0.00000000e+00" Max="1.00000000e+00"/>
    <Variable VarIndex="20" Expression="EcalPIDe" Label="EcalPIDe" Title="EcalPIDe" Unit="" Internal="EcalPIDe" Type="F" Min="-9.99000000e+02" Max="4.05479050e+00"/>
    <Variable VarIndex="21" Expression="EcalPIDmu" Label="EcalPIDmu" Title="EcalPIDmu" Unit="" Internal="EcalPIDmu" Type="F" Min="-9.99000000e+02" Max="2.50609303e+00"/>
    <Variable VarIndex="22" Expression="InAccHcal" Label="InAccHcal" Title="InAccHcal" Unit="" Internal="InAccHcal" Type="I" Min="0.00000000e+00" Max="1.00000000e+00"/>
    <Variable VarIndex="23" Expression="HcalPIDe" Label="HcalPIDe" Title="HcalPIDe" Unit="" Internal="HcalPIDe" Type="F" Min="-9.99000000e+02" Max="3.12796974e+00"/>
    <Variable VarIndex="24" Expression="HcalPIDmu" Label="HcalPIDmu" Title="HcalPIDmu" Unit="" Internal="HcalPIDmu" Type="F" Min="-9.99000000e+02" Max="2.61016369e+00"/>
    <Variable VarIndex="25" Expression="InAccPrs" Label="InAccPrs" Title="InAccPrs" Unit="" Internal="InAccPrs" Type="I" Min="0.00000000e+00" Max="1.00000000e+00"/>
    <Variable VarIndex="26" Expression="PrsPIDe" Label="PrsPIDe" Title="PrsPIDe" Unit="" Internal="PrsPIDe" Type="F" Min="-9.99000000e+02" Max="3.46313500e+00"/>
  </Variables>
  <Spectators NSpec="0"/>
  <Classes NClass="2">
    <Class Name="Background" Index="0"/>
    <Class Name="Signal" Index="1"/>
  </Classes>
  <Transformations NTransformations="1">
    <Transform Name="Normalize">
      <Selection>
        <Input NInputs="27">
          <Input Type="Variable" Label="TrackP" Expression="TrackP"/>
          <Input Type="Variable" Label="TrackPt" Expression="TrackPt"/>
          <Input Type="Variable" Label="TrackChi2PerDof" Expression="TrackChi2PerDof"/>
          <Input Type="Variable" Label="TrackNumDof" Expression="TrackNumDof"/>
          <Input Type="Variable" Label="TrackGhostProbability" Expression="TrackGhostProbability"/>
          <Input Type="Variable" Label="TrackFitTChi2" Expression="TrackFitTChi2"/>
          <Input Type="Variable" Label="TrackFitTNDoF" Expression="TrackFitTNDoF"/>
          <Input Type="Variable" Label="RichUsedR1Gas" Expression="RichUsedR1Gas"/>
          <Input Type="Variable" Label="RichUsedR2Gas" Expression="RichUsedR2Gas"/>
          <Input Type="Variable" Label="RichAboveMuThres" Expression="RichAboveMuThres"/>
          <Input Type="Variable" Label="RichAboveKaThres" Expression="RichAboveKaThres"/>
          <Input Type="Variable" Label="RichDLLe" Expression="RichDLLe"/>
          <Input Type="Variable" Label="RichDLLmu" Expression="RichDLLmu"/>
          <Input Type="Variable" Label="RichDLLk" Expression="RichDLLk"/>
          <Input Type="Variable" Label="RichDLLp" Expression="RichDLLp"/>
          <Input Type="Variable" Label="RichDLLbt" Expression="RichDLLbt"/>
          <Input Type="Variable" Label="MuonBkgLL" Expression="MuonBkgLL"/>
          <Input Type="Variable" Label="MuonMuLL" Expression="MuonMuLL"/>
          <Input Type="Variable" Label="MuonNShared" Expression="MuonNShared"/>
          <Input Type="Variable" Label="InAccEcal" Expression="InAccEcal"/>
          <Input Type="Variable" Label="EcalPIDe" Expression="EcalPIDe"/>
          <Input Type="Variable" Label="EcalPIDmu" Expression="EcalPIDmu"/>
          <Input Type="Variable" Label="InAccHcal" Expression="InAccHcal"/>
          <Input Type="Variable" Label="HcalPIDe" Expression="HcalPIDe"/>
          <Input Type="Variable" Label="HcalPIDmu" Expression="HcalPIDmu"/>
          <Input Type="Variable" Label="InAccPrs" Expression="InAccPrs"/>
          <Input Type="Variable" Label="PrsPIDe" Expression="PrsPIDe"/>
        </Input>
        <Output NOutputs="27">
          <Output Type="Variable" Label="TrackP" Expression="TrackP"/>
          <Output Type="Variable" Label="TrackPt" Expression="TrackPt"/>
          <Output Type="Variable" Label="TrackChi2PerDof" Expression="TrackChi2PerDof"/>
          <Output Type="Variable" Label="TrackNumDof" Expression="TrackNumDof"/>
          <Output Type="Variable" Label="TrackGhostProbability" Expression="TrackGhostProbability"/>
          <Output Type="Variable" Label="TrackFitTChi2" Expression="TrackFitTChi2"/>
          <Output Type="Variable" Label="TrackFitTNDoF" Expression="TrackFitTNDoF"/>
          <Output Type="Variable" Label="RichUsedR1Gas" Expression="RichUsedR1Gas"/>
          <Output Type="Variable" Label="RichUsedR2Gas" Expression="RichUsedR2Gas"/>
          <Output Type="Variable" Label="RichAboveMuThres" Expression="RichAboveMuThres"/>
          <Output Type="Variable" Label="RichAboveKaThres" Expression="RichAboveKaThres"/>
          <Output Type="Variable" Label="RichDLLe" Expression="RichDLLe"/>
          <Output Type="Variable" Label="RichDLLmu" Expression="RichDLLmu"/>
          <Output Type="Variable" Label="RichDLLk" Expression="RichDLLk"/>
          <Output Type="Variable" Label="RichDLLp" Expression="RichDLLp"/>
          <Output Type="Variable" Label="RichDLLbt" Expression="RichDLLbt"/>
          <Output Type="Variable" Label="MuonBkgLL" Expression="MuonBkgLL"/>
          <Output Type="Variable" Label="MuonMuLL" Expression="MuonMuLL"/>
          <Output Type="Variable" Label="MuonNShared" Expression="MuonNShared"/>
          <Output Type="Variable" Label="InAccEcal" Expression="InAccEcal"/>
          <Output Type="Variable" Label="EcalPIDe" Expression="EcalPIDe"/>
          <Output Type="Variable" Label="EcalPIDmu" Expression="EcalPIDmu"/>
          <Output Type="Variable" Label="InAccHcal" Expression="InAccHcal"/>
          <Output Type="Variable" Label="HcalPIDe" Expression="HcalPIDe"/>
          <Output Type="Variable" Label="HcalPIDmu" Expression="HcalPIDmu"/>
          <Output Type="Variable" Label="InAccPrs" Expression="InAccPrs"/>
          <Output Type="Variable" Label="PrsPIDe" Expression="PrsPIDe"/>
        </Output>
      </Selection>
      <Class ClassIndex="0">
        <Ranges>
          <Range Index="0" Min="2.7029199218750000e+03" Max="3.8499692500000000e+06"/>
          <Range Index="1" Min="2.8099051117897034e-01" Max="4.3424303125000000e+05"/>
          <Range Index="2" Min="2.3811575025320053e-02" Max="2.9999852180480957e+00"/>
          <Range Index="3" Min="4.0000000000000000e+00" Max="2.7000000000000000e+01"/>
          <Range Index="4" Min="-9.9900000000000000e+02" Max="1.0000000000000000e+00"/>
          <Range Index="5" Min="4.4031991274096072e-04" Max="6.5236610412597656e+01"/>
          <Range Index="6" Min="1.0000000000000000e+00" Max="2.2000000000000000e+01"/>
          <Range Index="7" Min="0.0000000000000000e+00" Max="1.0000000000000000e+00"/>
          <Range Index="8" Min="0.0000000000000000e+00" Max="1.0000000000000000e+00"/>
          <Range Index="9" Min="0.0000000000000000e+00" Max="1.0000000000000000e+00"/>
          <Range Index="10" Min="0.0000000000000000e+00" Max="1.0000000000000000e+00"/>
          <Range Index="11" Min="-9.9900000000000000e+02" Max="1.0114540100097656e+02"/>
          <Range Index="12" Min="-9.9900000000000000e+02" Max="5.7106399536132812e+01"/>
          <Range Index="13" Min="-9.9900000000000000e+02" Max="9.8695396423339844e+01"/>
          <Range Index="14" Min="-9.9900000000000000e+02" Max="5.7527599334716797e+01"/>
          <Range Index="15" Min="-9.9900000000000000e+02" Max="6.1537498474121094e+01"/>
          <Range Index="16" Min="-1.0186200141906738e+01" Max="2.8999999165534973e-02"/>
          <Range Index="17" Min="-6.9077598571777344e+01" Max="0.0000000000000000e+00"/>
          <Range Index="18" Min="1.0000000000000000e+00" Max="1.2400000000000000e+02"/>
          <Range Index="19" Min="0.0000000000000000e+00" Max="1.0000000000000000e+00"/>
          <Range Index="20" Min="-9.9900000000000000e+02" Max="4.0547904968261719e+00"/>
          <Range Index="21" Min="-9.9900000000000000e+02" Max="2.5060930252075195e+00"/>
          <Range Index="22" Min="0.0000000000000000e+00" Max="1.0000000000000000e+00"/>
          <Range Index="23" Min="-9.9900000000000000e+02" Max="2.7225046157836914e+00"/>
          <Range Index="24" Min="-9.9900000000000000e+02" Max="2.6101636886596680e+00"/>
          <Range Index="25" Min="0.0000000000000000e+00" Max="1.0000000000000000e+00"/>
          <Range Index="26" Min="-9.9900000000000000e+02" Max="3.4631350040435791e+00"/>
        </Ranges>
      </Class>
      <Class ClassIndex="1">
        <Ranges>
          <Range Index="0" Min="2.7529199218750000e+03" Max="8.0199493750000000e+05"/>
          <Range Index="1" Min="6.6685400009155273e+00" Max="1.0276867187500000e+05"/>
          <Range Index="2" Min="5.3198277950286865e-02" Max="2.9998934268951416e+00"/>
          <Range Index="3" Min="4.0000000000000000e+00" Max="2.7000000000000000e+01"/>
          <Range Index="4" Min="-9.9900000000000000e+02" Max="1.0000000000000000e+00"/>
          <Range Index="5" Min="1.1636088602244854e-03" Max="6.1835834503173828e+01"/>
          <Range Index="6" Min="1.0000000000000000e+00" Max="2.2000000000000000e+01"/>
          <Range Index="7" Min="0.0000000000000000e+00" Max="1.0000000000000000e+00"/>
          <Range Index="8" Min="0.0000000000000000e+00" Max="1.0000000000000000e+00"/>
          <Range Index="9" Min="0.0000000000000000e+00" Max="1.0000000000000000e+00"/>
          <Range Index="10" Min="0.0000000000000000e+00" Max="1.0000000000000000e+00"/>
          <Range Index="11" Min="-9.9900000000000000e+02" Max="5.5584999084472656e+01"/>
          <Range Index="12" Min="-9.9900000000000000e+02" Max="8.3171203613281250e+01"/>
          <Range Index="13" Min="-9.9900000000000000e+02" Max="5.7095001220703125e+01"/>
          <Range Index="14" Min="-9.9900000000000000e+02" Max="5.7614898681640625e+01"/>
          <Range Index="15" Min="-9.9900000000000000e+02" Max="5.7614898681640625e+01"/>
          <Range Index="16" Min="-9.8385000228881836e+00" Max="2.1500000730156898e-02"/>
          <Range Index="17" Min="-6.9077598571777344e+01" Max="0.0000000000000000e+00"/>
          <Range Index="18" Min="1.0000000000000000e+00" Max="8.7000000000000000e+01"/>
          <Range Index="19" Min="0.0000000000000000e+00" Max="1.0000000000000000e+00"/>
          <Range Index="20" Min="-9.9900000000000000e+02" Max="3.9375019073486328e+00"/>
          <Range Index="21" Min="-9.9900000000000000e+02" Max="2.5060930252075195e+00"/>
          <Range Index="22" Min="0.0000000000000000e+00" Max="1.0000000000000000e+00"/>
          <Range Index="23" Min="-9.9900000000000000e+02" Max="3.1279697418212891e+00"/>
          <Range Index="24" Min="-9.9900000000000000e+02" Max="2.6101636886596680e+00"/>
          <Range Index="25" Min="0.0000000000000000e+00" Max="1.0000000000000000e+00"/>
          <Range Index="26" Min="-9.9900000000000000e+02" Max="3.2910926342010498e+00"/>
        </Ranges>
      </Class>
      <Class ClassIndex="2">
        <Ranges>
          <Range Index="0" Min="2.7029199218750000e+03" Max="3.8499692500000000e+06"/>
          <Range Index="1" Min="2.8099051117897034e-01" Max="4.3424303125000000e+05"/>
          <Range Index="2" Min="2.3811575025320053e-02" Max="2.9999852180480957e+00"/>
          <Range Index="3" Min="4.0000000000000000e+00" Max="2.7000000000000000e+01"/>
          <Range Index="4" Min="-9.9900000000000000e+02" Max="1.0000000000000000e+00"/>
          <Range Index="5" Min="4.4031991274096072e-04" Max="6.5236610412597656e+01"/>
          <Range Index="6" Min="1.0000000000000000e+00" Max="2.2000000000000000e+01"/>
          <Range Index="7" Min="0.0000000000000000e+00" Max="1.0000000000000000e+00"/>
          <Range Index="8" Min="0.0000000000000000e+00" Max="1.0000000000000000e+00"/>
          <Range Index="9" Min="0.0000000000000000e+00" Max="1.0000000000000000e+00"/>
          <Range Index="10" Min="0.0000000000000000e+00" Max="1.0000000000000000e+00"/>
          <Range Index="11" Min="-9.9900000000000000e+02" Max="1.0114540100097656e+02"/>
          <Range Index="12" Min="-9.9900000000000000e+02" Max="8.3171203613281250e+01"/>
          <Range Index="13" Min="-9.9900000000000000e+02" Max="9.8695396423339844e+01"/>
          <Range Index="14" Min="-9.9900000000000000e+02" Max="5.7614898681640625e+01"/>
          <Range Index="15" Min="-9.9900000000000000e+02" Max="6.1537498474121094e+01"/>
          <Range Index="16" Min="-1.0186200141906738e+01" Max="2.8999999165534973e-02"/>
          <Range Index="17" Min="-6.9077598571777344e+01" Max="0.0000000000000000e+00"/>
          <Range Index="18" Min="1.0000000000000000e+00" Max="1.2400000000000000e+02"/>
          <Range Index="19" Min="0.0000000000000000e+00" Max="1.0000000000000000e+00"/>
          <Range Index="20" Min="-9.9900000000000000e+02" Max="4.0547904968261719e+00"/>
          <Range Index="21" Min="-9.9900000000000000e+02" Max="2.5060930252075195e+00"/>
          <Range Index="22" Min="0.0000000000000000e+00" Max="1.0000000000000000e+00"/>
          <Range Index="23" Min="-9.9900000000000000e+02" Max="3.1279697418212891e+00"/>
          <Range Index="24" Min="-9.9900000000000000e+02" Max="2.6101636886596680e+00"/>
          <Range Index="25" Min="0.0000000000000000e+00" Max="1.0000000000000000e+00"/>
          <Range Index="26" Min="-9.9900000000000000e+02" Max="3.4631350040435791e+00"/>
        </Ranges>
      </Class>
    </Transform>
  </Transformations>
  <MVAPdfs/>
  <Weights>
    <Layout NLayers="3">
      <Layer Index="0" NNeurons="28">
        <Neuron NSynapses="32">
          1.6489427471332345e+01 1.7551485725916041e+00 -1.4391121491250928e+01 4.4914582101470735e-01 -1.0860107951901663e+01 -9.9230800649574613e-01 -1.0811866109169708e+01 -1.8968584110923994e+00 -4.4673056435996275e+00 -7.3695689254790322e+00 -3.7434867570140256e+00 1.0801166487382325e+00 -6.8823167326684915e+00 -3.5568996164949831e+00 -2.9207849579871055e+00 -1.3653528369948400e+00 7.1498708979308683e+00 2.3066837742341337e+00 -2.2529138886790210e+00 8.3122717564981852e-01 4.7902205150636679e-01 1.4910901572689866e+01 -5.3060693973843005e+00 -3.7047491998989583e+00 -3.1021656159420319e+00 -1.2868479428847571e+01 -2.5173556674336499e+00 -1.2540495834319525e+01 -1.0292330755595331e+00 -2.0376163447539888e+00 4.2992072452543362e-01 7.6368249836644997e-01 
        </Neuron>
        <Neuron NSynapses="32">
          -1.6405810731283555e+01 -1.4992564773656852e+01 -2.4342035449844300e+01 1.8901702820150057e+01 6.9042001033561089e+00 1.3050345285033951e+00 1.7194555917933489e+01 4.0577582253617761e+00 6.0608218596230650e+00 2.6629774719704173e+01 2.0095843650441738e+00 1.6474290157672522e+00 1.9413069847513558e+01 3.6800420683329462e+00 3.3955050524071851e+01 -1.7342507731046680e+01 1.9366575577488983e+00 1.5895595416144317e+00 2.9124901683015598e+00 1.3289264898698796e+00 -8.2176321632638345e+00 -8.3875917108258431e+00 4.3053663861014817e+00 4.7846082221610455e+00 8.8706213989830598e-02 1.1293225744542504e+01 9.7903834123625710e+00 -1.6435019043704100e+00 -1.4603659048110635e+00 -3.1773064116204230e-01 -5.6920350587642965e-01 1.6622565665445557e+00 
        </Neuron>
        <Neuron NSynapses="32">
          -1.3636972966505279e-01 -3.8914036470562228e+00 1.7756156786320352e+00 -1.1930541042382496e+00 1.3786464711201061e+00 3.3558603035969509e-01 -2.5276546438422876e+00 -1.2664394537827988e+00 1.1228082855106875e-01 4.6501878251826417e-01 -4.7126516349979208e-01 -2.9065394048699350e-01 -2.8946005266588006e+00 -3.2323921228917842e+00 -6.3248646990147261e-01 2.9940189234873454e-01 4.0334408537476683e-02 -5.3830665868083778e-02 3.8449580940068973e-01 -7.3692576095468487e+00 -2.2954136696705575e-02 -1.3053098991578602e-01 1.2029676489150707e+00 -4.6879337100967016e+00 -5.9090703880512829e-01 -1.0822267259901270e+00 2.0309856968052746e+00 4.2946165564744682e-01 2.7953693913339510e+00 -1.8364877633792706e-01 7.9787890023795227e-01 1.4768095661934486e+00 
        </Neuron>
        <Neuron NSynapses="32">
          1.3419950402967178e+00 5.7158439307383002e+00 -2.6953604289495559e+00 2.0574669092083990e+00 -6.0835760486195873e+00 -5.4404082020264111e-01 5.4330022904793296e+00 1.3816879009748904e+00 1.8301653576914315e-01 -2.1734713755642918e+00 3.0397901083640827e-01 1.6056540129483801e+00 8.5054422409549915e+00 4.3703360287016944e+00 2.9824347140765446e+00 2.2506590693846881e+01 -1.8152570643882238e+00 4.6581434297466995e-01 -7.6062980019420223e-01 2.4005333671542872e+00 -1.5295036743696606e+01 -9.3490999972317013e-01 -2.9647216645324315e-01 -3.2882022465235354e+00 -2.0016886742316706e+00 2.9489782116336357e+01 1.2855279146897813e+00 -4.6263334637460779e-01 8.8945794126069677e-01 2.1626371856107043e+00 -3.1030542148957058e-01 -2.8130111629956476e+00 
        </Neuron>
        <Neuron NSynapses="32">
          3.7333724392249081e+00 9.9338111186099649e+00 3.3552478296432664e-01 -1.0025995154635478e+01 5.8722504081255744e+00 -1.5342465066621558e+00 -6.8438525771958840e+00 2.8024904018034253e+00 3.0632794944959771e+00 -9.4620589217997377e+00 -4.4073189460064494e-01 1.1393753034656384e+00 1.0898930213802784e+00 -1.1895381530524665e+00 -5.8771013906925402e+00 5.6290087699103726e+00 9.4812855507634319e-01 -5.2515769006488022e-01 1.2926359727608836e+00 -2.8157969004399319e-01 -3.3901029551499584e+00 -1.9895720635978595e+00 -1.3812586493839266e-01 2.0477513224521067e+00 2.1793221015436233e+00 -7.6549390610619783e-01 3.2384452308854100e-01 4.8984828556392896e+00 -4.7289150620639105e-02 1.7781850606448919e+00 1.2679736606265113e+00 -3.2792908922606050e+00 
        </Neuron>
        <Neuron NSynapses="32">
          1.3738513167872660e-01 3.6719311969361415e+00 -1.7889946671566859e+00 1.2351003096640931e+00 -9.5613163989214356e-01 -2.7247168931980942e-01 2.3273719248866276e+00 1.4187220881478151e+00 2.2912094184074194e-01 -3.5979970154690311e-01 1.0245881024499044e+00 3.5540903932855756e+00 2.4583968372852087e+00 2.8920791504583048e+00 4.9642701968040109e-01 -4.4697730924146678e-01 3.8947892557204616e-01 3.1797667102493894e+00 -2.0160584506710393e+00 5.8531065759083365e+00 3.7898871725027677e-01 1.4581688284416263e+00 -9.7219254176145831e-01 3.9116289310047905e+00 2.2439021056580182e+00 1.0385165887718497e+00 -1.4061542128361402e+00 -4.4960926428024556e-01 -1.5944126027567325e+00 5.2483746935756814e+00 -2.2343343477373208e+00 -1.6172163003987745e+00 
        </Neuron>
        <Neuron NSynapses="32">
          -8.2210455931531567e-01 -6.3449547406359521e+00 2.9777933551197999e+00 -2.5587450936785925e+00 3.5427139930825571e+00 9.3504127456581743e-01 -5.7312751252703444e+00 -1.5491840144876809e-01 5.9904431778728906e-01 2.0900591727339806e+00 -2.2484839499690312e+00 -8.4911234714652040e-01 -9.6337132001215409e+00 -4.2006190694094530e+00 -3.0041765103738527e+00 -2.0179487443713366e+01 1.0536052424685147e+00 -1.6910975818879987e+00 1.6611101437895774e+00 -4.6230976933482184e+00 1.2089208601742122e+01 7.4497499868163120e-01 4.0530374514549683e+00 7.6066299790349134e-01 9.5529700417681707e-01 -2.7864091754037496e+01 4.2498955868108244e+00 5.5459814909722294e-01 -2.0820369465489461e-01 -1.9217361729840294e+00 -1.1454438502045536e+00 2.9575547314774675e+00 
        </Neuron>
        <Neuron NSynapses="32">
          2.5618836186260835e-01 -2.6653213147107369e-01 4.0445498824281340e-01 -4.0484998747159806e-01 -4.9511913159076473e+00 -2.7481698844029273e-01 -2.6680783447989870e-01 6.6425697812246254e-01 2.8294170153565323e-01 -2.4116368916346340e-01 3.3563946419129294e+00 -1.7755528101954192e+00 -2.8293274637124739e-02 -3.7441019435474721e-01 -6.8525432431965028e+00 3.6976280032087366e-01 -1.1454214828905837e-01 -5.6341400174136677e-02 1.2184826043367210e-02 -3.7073151439170715e-01 -7.8352323596527036e+00 -1.5261183402773812e-01 3.1797474137748796e+00 1.7887504191436472e+00 1.3318101338373020e-01 2.5366561821452233e-01 -2.6627145635613707e+00 2.2993327086356796e-01 -1.1371587092396764e+00 5.0587948825320792e+00 1.1091408959951934e+00 1.0465135668841272e-01 
        </Neuron>
        <Neuron NSynapses="32">
          -4.1183889918564885e-02 4.3925203640141269e-02 -8.3826612641277137e-02 7.9889128676323015e-02 1.0632875030241185e-02 3.5721438775378872e-01 3.3969473423730562e-01 2.1015935845439000e-02 -2.2019490320475113e-01 1.1135613694112233e-01 -2.3837072514040600e+00 1.2484737807940027e+00 -2.9760263085383087e-01 -1.6740076742473375e+00 2.5377699010368793e-01 -1.6353671973000125e-01 1.1032383351461680e-01 -2.0513030254850522e+00 -8.8596959648284523e-01 -3.3944121601911670e-01 5.2942261875950185e-02 -3.6532001418984783e-01 2.7387684830883569e-01 -2.9335532032513678e-01 -3.5497748768578768e-01 -1.3838186295318516e-01 1.4645536440834081e-01 -1.2065673745838076e-01 -3.8532533419335507e-01 -6.7776537111377455e-01 -1.0804176628912188e+00 3.8379781187482274e-02 
        </Neuron>
        <Neuron NSynapses="32">
          -1.6375533750679889e+00 1.0695308796668089e+01 1.4791764386522019e+01 -9.3333703024678165e+00 8.7658825294793064e-01 -1.3646152181871507e-01 -6.8070012078569677e+00 -5.3401627517716954e-01 3.0139469115468573e+00 -3.5142018261827932e+00 -1.2538660229814584e+00 -1.5309918229488602e+00 -9.1911781986449057e+00 -1.1286894928311815e+01 -3.7226777730284923e+00 5.8151286343022175e+00 1.1735264014565383e+00 -2.0090294675969593e+00 -1.0463599092665246e+00 -1.5665634339543224e+00 5.9899130673063428e-01 -1.2941901942161763e+01 1.3385579588890018e+00 4.9505875747465944e-01 -8.4541179899866326e-01 1.3358915719686699e+01 1.7116285607688040e+00 -3.6251366393785718e+00 2.5296857128580661e+00 -2.0388072563254496e+00 1.8211700963823156e+00 -1.2158631723009572e+00 
        </Neuron>
        <Neuron NSynapses="32">
          -1.1005020528381160e-01 1.6289357799665796e-01 -3.2204413988307096e-01 7.2778570864378236e-02 -2.5462672588382812e-03 2.4774903723989777e-01 -2.2228456277324213e-01 2.0237606515191306e-01 -1.3373867875031328e-01 1.8322580083360704e-01 -4.4647520804597889e+00 5.6160685490307827e-01 -1.6081365825131100e-01 -1.7011672827175192e-01 2.2978722750486837e+00 -3.6531804294778808e-01 -8.2138880805598669e-02 -2.4587412727810456e+00 -7.5018539841369929e+00 -2.3770076692339862e-01 -1.2423166335331001e-01 -3.1450228681715187e-01 4.3890098462111515e+00 1.7669014129843660e-02 2.9307202562332807e-01 -7.5241443841747593e-02 -2.7185123026922198e-01 -3.2958991775332749e-02 2.9893569144044121e+00 1.6539476409456749e-01 7.0743253585732591e-01 -3.4971664992683221e-01 
        </Neuron>
        <Neuron NSynapses="32">
          1.9499943058129565e+00 -1.6687051801191789e+01 -1.8514676897095924e+01 -7.7411509958609068e+00 -1.1235085716988964e+01 9.0454307890743868e-01 -2.8809050366840527e+01 -3.9373421114079648e+00 2.2693919820297728e+00 -1.2900751673474419e+01 1.6235915967583747e+00 -1.5839431460059754e+00 8.0964741646324594e+00 6.2797765418766094e-01 -6.8065885998181690e+00 -1.1694493638355615e+01 1.2782829670498630e+00 -1.7472488141391063e+00 -1.5023979307130630e+00 -9.9704704228889385e-01 3.0382525434218084e+00 1.3136800627676820e+01 -5.4720346800131869e+00 -4.4196092477901985e+00 -5.0626060689710217e-01 -1.4630472742782963e+01 -2.4592424141128424e+00 -7.9662619266483521e+00 -5.4142694465961216e-01 1.3348386480089602e+00 -1.3777474019223355e+00 7.7046009266846449e-01 
        </Neuron>
        <Neuron NSynapses="32">
          -9.5160647804903176e-01 -2.9872259216302488e+01 -1.6452294280806111e+01 8.0477896550440931e+01 -6.9639543230911638e+00 -1.1105764423740050e+00 8.0382557924773423e+01 1.5326902549791257e+00 -7.6357933391750050e+00 1.8910806469511197e+01 -2.8856551734531011e+00 9.1875565300089090e-01 5.8581816594676219e+01 2.8465175587325020e+00 8.0768492958282366e+01 -3.4411220098605092e+01 -1.9884135877033440e+00 2.3068941278288264e+00 2.4284595725215810e+00 1.4905994754756777e+00 -2.3767194514204792e+00 -6.0302708135326437e+00 1.2988316380463832e+01 2.2211799790626605e+00 -1.7833994332269987e+00 2.5906608016409486e+01 4.9764972228039204e+00 8.0164374845713997e+00 1.5051703621272880e-01 2.1553304722594042e+00 5.5569358228698595e-01 3.7562051768164895e+00 
        </Neuron>
        <Neuron NSynapses="32">
          4.1902800359956123e+00 -5.2588686597933689e+00 3.6644213360438300e+00 -5.5046410578635472e+00 -6.5460876722869921e-01 -3.0785501474117438e-01 -4.5354070173294998e+00 -2.3992478646509583e+00 -1.6158917897059870e+00 -2.2693964024676898e+00 -1.6970173328420561e+00 -1.1133833673260156e+00 -7.6235999389649116e+00 1.8475656882900928e+00 -8.4975617855591654e+00 -5.6726406870354529e+00 -5.9835644690470435e-01 -3.0605911946094255e-01 3.6819037066019029e+00 1.7154792460735715e+00 -1.3215796310895411e+00 3.2106996503555552e+00 -9.3613738260719010e+00 -1.0421087037228396e+00 -4.6027675191879364e-01 -1.5796593264877632e+01 -2.8686658001383845e+00 -3.5562793811116156e+00 -1.6841911799631233e+00 -9.5575093601848637e-01 1.6185739118651854e+00 1.7015357328108387e+00 
        </Neuron>
        <Neuron NSynapses="32">
          -1.6072855621265948e+01 -1.4607375839954251e+01 1.4976939737632337e+01 1.1509124333954306e-01 3.4242403145426183e+00 7.3464799025491756e-01 8.6206802371684592e+00 -1.2060738628018612e+00 3.2596093313113679e+00 -1.2431760965279681e+00 6.6833820899303529e+00 2.0786844806185658e+00 2.8697699719427248e+00 1.1564076571256738e+01 -6.4726685951991696e+00 -1.6247039002576180e+01 2.2116247893614980e+00 -3.1446523211046712e-01 9.5934617476798689e-01 -2.1843773582622750e+00 3.8544315053885585e+00 -3.0364495741592790e+00 2.3609517502479567e+00 -1.9066181853787780e+00 -1.6613469993314542e+00 1.0365910257991922e+00 2.9589150364652932e+00 2.0075300721756726e+01 3.0745683049173030e-02 -4.0485821510732398e+00 1.6351699307037841e+00 3.6233332424444336e+00 
        </Neuron>
        <Neuron NSynapses="32">
          1.2474433760549418e+01 4.2298848595748204e+00 -2.2909761933929984e-01 1.2366614370600528e+00 2.1444909589106875e+00 -5.8399773076743622e-01 -1.4288347124015138e-01 -1.0306980305593991e+00 -1.1434697814397093e-01 1.2435885463064900e+00 -2.0148924887625017e+00 -2.0261531700228486e+00 -4.1717623392640952e+00 -4.5441136978191334e+00 4.2979065109945029e+00 -9.3716108371798912e-01 2.3640458218282641e+00 -1.7487811930072954e+00 3.5067471707886462e+00 -1.1976761701254217e+00 -4.9424653247280039e+00 7.2693525107879768e+00 -7.0706312709979748e+00 2.5966700483752905e+00 6.6799571502935140e-01 -1.1444744344012598e+01 1.2249677092223492e+00 -1.3164958529799126e+01 1.0005626848694757e+00 -4.8421026894772341e+00 1.7186229515599609e+00 4.9635727143007718e-01 
        </Neuron>
        <Neuron NSynapses="32">
          1.9301991778829801e+00 4.7104657204805533e-01 1.7963127820048408e+00 -1.0497733168391654e+00 1.8945036722514413e-01 2.0569263079329932e-02 2.8415448969213214e-01 2.9574930563243523e-01 2.7486021869486610e+00 4.1577023219042425e-01 5.6216676924191689e-01 -1.4294043772626905e+00 -4.7432150993402017e-01 1.4010505662520856e-01 -6.9688272063858270e-01 5.4969129104353553e-01 1.7172232466906903e+00 -4.8998229464620602e+00 -8.1772513766369634e+00 -2.7687952295523082e+00 -2.1180638853678599e-01 1.2312312120452020e+00 -1.1541796116555965e+00 1.0673918114529803e+00 3.7003142016177759e-01 -7.0431923228012505e-01 -1.3542477775690562e+00 -2.3856897600305757e+01 -9.7837923988817044e-01 6.4901656753920378e-01 1.5146423184533758e-01 -9.8579969118374622e-01 
        </Neuron>
        <Neuron NSynapses="32">
          2.0421929224804195e+01 9.1064080907161333e+00 -1.5852249049044760e+01 1.0582748323719431e+00 2.9146099163641219e+00 -6.9166087260161824e-01 -3.8007044392022489e+00 2.7287905264929382e+00 -3.0353634239259625e-01 -7.0033184778455748e+00 2.1364701414266301e+00 -8.8005120483634947e-01 3.1993112779472423e+00 3.5233085252765854e+00 1.7606829379207793e+00 4.6425275330477955e-01 3.9459270084073879e+00 4.2590956175359604e+00 -1.2675751078824922e+00 2.6354873633642200e+00 2.1766931826111500e+00 1.4726217144432580e-01 -1.5907633909530754e+00 -6.7375482017249322e-01 -6.7269028319555935e-01 1.6587587450399000e-01 2.0749951179175330e+00 2.0328131074841900e+00 3.8052104590913888e-01 4.8867071185872461e-02 1.1469017021446903e+00 -2.9791518294861246e+00 
        </Neuron>
        <Neuron NSynapses="32">
          -1.2026587453225193e-01 4.6413573349741605e-01 2.9080594090892369e+01 -8.4786116003535439e-01 1.3279398100264825e+00 -5.1150616528835714e-02 8.1967838578733021e-01 -1.0523223730555766e+00 -3.8839312777741622e-02 -4.2057244018848721e+01 7.4178692296739026e+00 1.3041711186425757e+00 1.8904968871599130e+00 -8.5639557506952868e-01 7.8890701150539144e-02 5.8151707860575996e-01 6.8871984939753206e-01 -2.1609660798149721e+00 -3.2212168929336831e+00 -2.4242905347961714e+00 -8.3324670671636425e-01 3.9859568289535217e+00 -2.3301689577044509e+00 1.2996534569277671e+00 1.2670463659702178e+00 9.8770858399153616e-01 -8.7341908787520817e-01 3.3907762214399495e-01 2.2211933613850185e-01 4.4901582314104113e-02 1.7668454823033992e+00 1.5260832216478210e-01 
        </Neuron>
        <Neuron NSynapses="32">
          8.0517465518582743e+00 7.8561795688305311e+00 1.7310557694988868e+00 -2.9998395061375527e-01 -7.2197485330516811e+00 -3.5017144314337868e-02 -1.6394911484076101e+01 1.2026064719369070e+00 -2.1804202297881607e+00 -5.6240710580817526e+00 -9.6897037857064994e-01 -1.3595331737607637e+00 -1.2638590877898022e+01 -3.4517071770474779e+00 -4.8089822955297956e+00 1.2693505297560911e+01 1.4959721439403115e-01 -2.2544177992855650e+00 -5.8892537062190584e+00 -4.6704665677806345e-02 -9.8317499754222260e-01 1.1596658133067383e+01 -5.7791905094079015e+00 -4.2929512764787747e-01 1.5466072038050024e-01 -1.4669330078101392e+01 -6.6623330019301736e+00 -8.4308975508692381e+00 -1.1811573960927031e+00 1.0822361792655864e+00 1.5562729988006045e+00 -2.3511298925634483e+00 
        </Neuron>
        <Neuron NSynapses="32">
          9.3621012763636440e+00 4.9374405847494378e+00 6.2525407240404594e+00 -1.0838717220448327e+01 -1.1312273976973261e+01 -3.9097892143813612e-01 -1.9018997535801223e+01 6.0605753725550116e-01 -1.3551014233931298e+00 -1.9115317580215756e+01 -3.5975959558837944e-01 -1.0602976166363853e+00 -1.8527934383970649e+01 -4.8716237379180081e+00 -1.0995821996896064e+01 1.7231854328658066e+01 8.7082816790408646e-01 -3.5545172218059520e+00 -5.3483226029092634e+00 -1.1550280259850141e+00 -1.3060028230720317e+00 2.0808676214758584e+01 -7.0703951966023704e+00 -3.3686879675807888e+00 -1.2802047433145214e+00 -2.1019070237951080e+01 -8.8795008903521655e+00 -1.0500385829241527e+01 9.7200277877485208e-01 1.1000009119370773e+00 -1.5843939261062081e+00 -1.3255849323015674e+00 
        </Neuron>
        <Neuron NSynapses="32">
          -5.1953243923335044e+01 -3.1312627090568999e+01 -8.1977102316449333e+00 2.2179899637168784e+01 1.5931213744978617e+01 -2.1067176909098015e+00 3.2170795427773079e+01 4.7892307346415786e+00 7.3269309858885938e+00 4.3460322514050105e+01 6.7013378679200146e+00 -1.0898651440029958e+00 3.1643748991710215e+01 2.3482074567975918e+01 3.2810470262674912e+01 -2.9657256353679841e+01 -1.0261791677858874e+00 -3.9591605863758600e-01 3.1057704836955216e+00 4.5673158221668748e+00 -1.8231597520000037e-01 -2.8317007705462597e+01 1.1513003767038661e+01 1.1172472363704532e+01 2.2254521802114411e+00 3.5438179423569622e+01 1.2116348529961089e+01 1.7709727244911505e+01 8.7270504985221853e-01 2.6240593895120758e+00 7.7562119388948447e-01 -1.3355563261614742e+00 
        </Neuron>
        <Neuron NSynapses="32">
          7.9017846886549457e+00 1.1232539870078591e+01 2.7931176765435728e+00 -7.0754468594469513e+00 -3.9129318449870780e+00 6.2556557632854670e-01 -1.5092277190605500e+01 -1.6690788908605778e+00 -3.1887796895418008e+00 -1.3276879323820012e+01 -2.5595993325574011e+00 -6.1249814374246914e-01 -1.0536672188486758e+01 -1.0751470877598246e+01 -1.0471843668994206e+01 1.1551787487838130e+01 -6.9239189942210677e-01 2.3699685276088261e-01 -1.9418747853495222e+00 -1.3111419193041167e+00 3.7007151794576996e+00 1.0851516324876570e+01 -5.9437920419420740e+00 -4.4644828966830010e+00 7.8648902349283489e-01 -1.1760521596841226e+01 -4.6613383977402076e+00 -9.2175756972260938e+00 2.0681387190595149e+00 2.2971418062136109e+00 4.0724598177419963e-01 1.0822919434562919e+00 
        </Neuron>
        <Neuron NSynapses="32">
          2.6504532787581887e+01 1.9668949752744957e+01 2.0668254197004483e+00 -1.0367198161556717e+01 -9.3901848971655735e+00 1.9072938476237729e+00 -2.8672506186515616e+01 -4.4483084957522578e+00 -7.1422284617936924e+00 -2.4378184087336088e+01 -2.6210590463073409e+00 5.9858892055498558e-01 -2.2987612739606629e+01 -1.5017430428091759e+01 -2.0075385738726045e+01 2.1285054760776212e+01 1.6278025723621736e+00 -1.0033214808527930e+00 -1.6329210733297390e+00 -1.5533962594239148e+00 3.7634047580999295e+00 2.2018445947423540e+01 -1.0757270955279923e+01 -5.7042405435007062e+00 -1.9274126090913524e+00 -2.5860795887381880e+01 -9.0788730809066553e+00 -1.5423044570806217e+01 2.0504695943450324e+00 1.5050884261308589e-01 -9.0564783192060316e-01 -4.7433941821767667e-01 
        </Neuron>
        <Neuron NSynapses="32">
          -6.8477770545195170e+01 -3.1036261222437840e+01 -4.8285897501367030e+00 1.7374582931072705e+01 2.0397003339141868e+01 -8.3559924596636206e-02 3.7680630481262519e+01 3.9620890242370224e+00 4.8175868331840466e+00 3.7649354684177226e+01 5.0549823583930600e+00 -1.1975880976517310e+00 3.3596063504845652e+01 2.1388868453119688e+01 3.0626339533032898e+01 -3.2796692797225091e+01 -1.1209533680705133e+00 8.7602799961192176e-02 3.4488542585376836e+00 1.5697532690399119e-01 7.2231388149297404e-01 -3.7321286832496433e+01 1.7102418260561212e+01 6.4764950118825384e+00 7.5412861604492609e-01 3.7728182493470598e+01 1.7470380437398894e+01 2.4662887732888613e+01 1.3527975529676728e-01 1.8117585837215493e+00 3.0111413382122876e-01 -5.4604459995467669e-01 
        </Neuron>
        <Neuron NSynapses="32">
          1.0934268902230849e+01 9.1122792330786151e+00 -3.3198664366888508e-02 2.7698325060933420e+00 -1.8077731479004702e+00 -3.9729405215483776e-01 7.7010015815798261e-01 -1.6476787840130174e+00 -4.1145308053400054e-01 -4.0045430392983610e+00 1.7750119810112204e+00 -8.5401425173741796e-01 -7.6701153978924239e+00 -2.5621922383844815e+00 -7.6790081485740780e+00 7.0757973653899366e+00 -2.5497465574905420e+00 9.2319986468054938e-01 2.4177532383478537e+00 -1.1717349081139471e-01 -2.5995443619328742e+00 8.7044994342202453e-01 1.3388393192657473e+00 -1.0045726824460330e+00 5.2479016011996193e-01 5.7162213027067583e+00 1.8136240587936019e+00 3.3876446486479033e+00 1.6527338751897476e+00 1.9452644632892775e+00 -6.8416013477985138e-01 2.9592444952761204e-01 
        </Neuron>
        <Neuron NSynapses="32">
          2.3703453801354723e+01 9.4462431077891260e+00 1.3399908725034138e-01 -2.8067620015545085e+00 -3.0769090501609204e+00 4.5159592251112735e-01 -8.2641525511125042e+00 -3.4572095082165797e+00 -2.9131030991405900e+00 -1.4717700590546729e+01 -2.3729983042490779e+00 1.2132541117706848e+00 -1.5864611549190807e+01 -6.4150403921995069e+00 -1.2913228605938688e+01 1.3271617178203698e+01 -8.1056502220852322e-01 -5.2716444336603559e-02 -1.5175462121791530e+00 -1.9132487328078405e+00 -3.0699940151922558e+00 1.3341202917982612e+01 -4.0853407756969673e-01 -9.2868419556276560e-02 -1.1720014933834173e+00 -5.5604679695094106e+00 -2.1103465191886350e+00 -2.4149226259171184e+00 4.0995091741491330e-01 2.6324415856306609e+00 5.3731923287484405e-03 -1.4220243766007687e+00 
        </Neuron>
        <Neuron NSynapses="32">
          8.0685002930124146e+00 9.7784707328076284e+00 4.1585545016874788e+00 -9.8375894304077498e+00 3.1786690395710258e+00 1.9460793776084337e+00 -8.0497959573469942e+00 2.4766017054029654e+00 2.4923733176847987e-01 -6.9293141771087443e+00 -1.3912428129171404e+00 3.2632505749404878e-01 -5.5830766640057892e+00 -5.5868626629061113e+00 -7.0873417828568082e+00 7.2472813550892159e+00 1.7014065810200687e+00 7.4408987063637111e-01 -2.8549021357278965e+00 -1.2579825214580945e-01 3.6943225886518477e-01 -9.9545171842770586e-01 -4.8748184431016535e+00 -9.8744059276217641e-02 2.1777553636848070e+00 2.9826241370856345e-02 1.2610144638923218e-01 2.5576416434105020e+00 1.3683472968004293e+00 1.3015311003041846e-01 1.9247274638696685e+00 -1.2555361452596996e+00 
        </Neuron>
      </Layer>
      <Layer Index="1" NNeurons="33">
        <Neuron NSynapses="1">
          -2.4075568998325352e+00 
        </Neuron>
        <Neuron NSynapses="1">
          -1.2582762195193482e+00 
        </Neuron>
        <Neuron NSynapses="1">
          -1.7495698635171328e+00 
        </Neuron>
        <Neuron NSynapses="1">
          2.3380361760903074e+00 
        </Neuron>
        <Neuron NSynapses="1">
          6.9848638889046277e-01 
        </Neuron>
        <Neuron NSynapses="1">
          6.0297284053945299e-01 
        </Neuron>
        <Neuron NSynapses="1">
          1.1812364893843950e+00 
        </Neuron>
        <Neuron NSynapses="1">
          3.2045898045744076e-01 
        </Neuron>
        <Neuron NSynapses="1">
          1.5823192514577151e+00 
        </Neuron>
        <Neuron NSynapses="1">
          4.5131301001043878e-01 
        </Neuron>
        <Neuron NSynapses="1">
          4.6148602869609290e-01 
        </Neuron>
        <Neuron NSynapses="1">
          9.8292143794071507e-01 
        </Neuron>
        <Neuron NSynapses="1">
          5.1114839322235606e-01 
        </Neuron>
        <Neuron NSynapses="1">
          7.0469708120580044e-01 
        </Neuron>
        <Neuron NSynapses="1">
          9.2171754046769538e-01 
        </Neuron>
        <Neuron NSynapses="1">
          -4.7535249971499505e-01 
        </Neuron>
        <Neuron NSynapses="1">
          -4.8225303218161191e+00 
        </Neuron>
        <Neuron NSynapses="1">
          2.6211040844048566e-01 
        </Neuron>
        <Neuron NSynapses="1">
          4.9013156311853318e-01 
        </Neuron>
        <Neuron NSynapses="1">
          3.3433963481280504e-01 
        </Neuron>
        <Neuron NSynapses="1">
          -1.0042843430593500e+00 
        </Neuron>
        <Neuron NSynapses="1">
          -7.1430403238475670e-01 
        </Neuron>
        <Neuron NSynapses="1">
          4.5293545038142874e-01 
        </Neuron>
        <Neuron NSynapses="1">
          3.0185803003170064e-01 
        </Neuron>
        <Neuron NSynapses="1">
          5.6222608456424394e-01 
        </Neuron>
        <Neuron NSynapses="1">
          5.7992202303466223e-01 
        </Neuron>
        <Neuron NSynapses="1">
          3.0661065415405164e-01 
        </Neuron>
        <Neuron NSynapses="1">
          1.7575671210501820e+00 
        </Neuron>
        <Neuron NSynapses="1">
          -3.8764371891108590e-01 
        </Neuron>
        <Neuron NSynapses="1">
          4.5871371137235906e-01 
        </Neuron>
        <Neuron NSynapses="1">
          -4.0072000647543122e+00 
        </Neuron>
        <Neuron NSynapses="1">
          4.6643531384099317e+00 
        </Neuron>
        <Neuron NSynapses="1">
          1.6549333696105473e+00 
        </Neuron>
      </Layer>
      <Layer Index="2" NNeurons="1">
        <Neuron NSynapses="0"/>
      </Layer>
    </Layout>
  </Weights>
</MethodSetup>
