<?xml version="1.0"?>
<MethodSetup Method="MLP::Pion_Long_TMVA">
  <GeneralInfo>
    <Info name="TMVA Release" value="4.2.0 [262656]"/>
    <Info name="ROOT Release" value="6.02/01 [393729]"/>
    <Info name="Creator" value="jonesc"/>
    <Info name="Date" value="Mon Feb 15 12:27:56 2016"/>
    <Info name="Host" value="Linux lcgapp-slc6-physical1.cern.ch 2.6.32-431.29.2.el6.x86_64 #1 SMP Wed Sep 10 11:13:12 CEST 2014 x86_64 x86_64 x86_64 GNU/Linux"/>
    <Info name="Dir" value="/var/pcfst/r03/lhcb/jonesc/ANNPID/results/MC12/TrainMixture/TrainPhysTks-EvalPhysTks-ReweightRICH2/GhostAccFrac1.0/ProtonAccFrac1.0/KaonAccFrac1.0/TMVA-Run2-NoTkLikCDVelodEdx/MLP/Norm/ScaleF1.4/BP/NCycles750/CE/tanh/CVTest15/CVImp1e-16/NotUseRegulator/Pion/Long"/>
    <Info name="Training events" value="2700000"/>
    <Info name="TrainingTime" value="8.28677068e+04"/>
    <Info name="AnalysisType" value="Classification"/>
  </GeneralInfo>
  <Options>
    <Option name="NCycles" modified="Yes">750</Option>
    <Option name="HiddenLayers" modified="Yes">44</Option>
    <Option name="NeuronType" modified="Yes">tanh</Option>
    <Option name="RandomSeed" modified="No">1</Option>
    <Option name="EstimatorType" modified="Yes">CE</Option>
    <Option name="NeuronInputType" modified="No">sum</Option>
    <Option name="V" modified="Yes">True</Option>
    <Option name="VerbosityLevel" modified="No">Verbose</Option>
    <Option name="VarTransform" modified="Yes">Norm</Option>
    <Option name="H" modified="Yes">True</Option>
    <Option name="CreateMVAPdfs" modified="No">False</Option>
    <Option name="IgnoreNegWeightsInTraining" modified="No">False</Option>
    <Option name="TrainingMethod" modified="Yes">BP</Option>
    <Option name="LearningRate" modified="No">2.000000e-02</Option>
    <Option name="DecayRate" modified="No">1.000000e-02</Option>
    <Option name="TestRate" modified="No">10</Option>
    <Option name="EpochMonitoring" modified="Yes">True</Option>
    <Option name="Sampling" modified="No">1.000000e+00</Option>
    <Option name="SamplingEpoch" modified="No">1.000000e+00</Option>
    <Option name="SamplingImportance" modified="No">1.000000e+00</Option>
    <Option name="SamplingTraining" modified="No">True</Option>
    <Option name="SamplingTesting" modified="No">False</Option>
    <Option name="ResetStep" modified="No">50</Option>
    <Option name="Tau" modified="No">3.000000e+00</Option>
    <Option name="BPMode" modified="No">sequential</Option>
    <Option name="BatchSize" modified="No">-1</Option>
    <Option name="ConvergenceImprove" modified="Yes">1.000000e-16</Option>
    <Option name="ConvergenceTests" modified="Yes">15</Option>
    <Option name="UseRegulator" modified="Yes">False</Option>
    <Option name="UpdateLimit" modified="No">10000</Option>
    <Option name="CalculateErrors" modified="No">False</Option>
    <Option name="WeightRange" modified="No">1.000000e+00</Option>
  </Options>
  <Variables NVar="32">
    <Variable VarIndex="0" Expression="TrackP" Label="TrackP" Title="TrackP" Unit="" Internal="TrackP" Type="F" Min="1.13909998e+03" Max="4.90768300e+06"/>
    <Variable VarIndex="1" Expression="TrackPt" Label="TrackPt" Title="TrackPt" Unit="" Internal="TrackPt" Type="F" Min="4.93229866e-01" Max="7.11159875e+05"/>
    <Variable VarIndex="2" Expression="TrackChi2PerDof" Label="TrackChi2PerDof" Title="TrackChi2PerDof" Unit="" Internal="TrackChi2PerDof" Type="F" Min="1.24317907e-01" Max="2.99999571e+00"/>
    <Variable VarIndex="3" Expression="TrackNumDof" Label="TrackNumDof" Title="TrackNumDof" Unit="" Internal="TrackNumDof" Type="I" Min="7.00000000e+00" Max="5.40000000e+01"/>
    <Variable VarIndex="4" Expression="TrackGhostProbability" Label="TrackGhostProbability" Title="TrackGhostProbability" Unit="" Internal="TrackGhostProbability" Type="F" Min="-9.99000000e+02" Max="1.00000000e+00"/>
    <Variable VarIndex="5" Expression="TrackFitMatchChi2" Label="TrackFitMatchChi2" Title="TrackFitMatchChi2" Unit="" Internal="TrackFitMatchChi2" Type="F" Min="7.98587501e-03" Max="1.04777473e+02"/>
    <Variable VarIndex="6" Expression="TrackFitVeloChi2" Label="TrackFitVeloChi2" Title="TrackFitVeloChi2" Unit="" Internal="TrackFitVeloChi2" Type="F" Min="1.11803693e-05" Max="8.41884460e+01"/>
    <Variable VarIndex="7" Expression="TrackFitVeloNDoF" Label="TrackFitVeloNDoF" Title="TrackFitVeloNDoF" Unit="" Internal="TrackFitVeloNDoF" Type="I" Min="1.00000000e+00" Max="2.80000000e+01"/>
    <Variable VarIndex="8" Expression="TrackFitTChi2" Label="TrackFitTChi2" Title="TrackFitTChi2" Unit="" Internal="TrackFitTChi2" Type="F" Min="9.45179781e-05" Max="1.00095139e+02"/>
    <Variable VarIndex="9" Expression="TrackFitTNDoF" Label="TrackFitTNDoF" Title="TrackFitTNDoF" Unit="" Internal="TrackFitTNDoF" Type="I" Min="1.00000000e+00" Max="3.10000000e+01"/>
    <Variable VarIndex="10" Expression="RichUsedR1Gas" Label="RichUsedR1Gas" Title="RichUsedR1Gas" Unit="" Internal="RichUsedR1Gas" Type="I" Min="0.00000000e+00" Max="1.00000000e+00"/>
    <Variable VarIndex="11" Expression="RichUsedR2Gas" Label="RichUsedR2Gas" Title="RichUsedR2Gas" Unit="" Internal="RichUsedR2Gas" Type="I" Min="0.00000000e+00" Max="1.00000000e+00"/>
    <Variable VarIndex="12" Expression="RichAbovePiThres" Label="RichAbovePiThres" Title="RichAbovePiThres" Unit="" Internal="RichAbovePiThres" Type="I" Min="0.00000000e+00" Max="1.00000000e+00"/>
    <Variable VarIndex="13" Expression="RichAboveKaThres" Label="RichAboveKaThres" Title="RichAboveKaThres" Unit="" Internal="RichAboveKaThres" Type="I" Min="0.00000000e+00" Max="1.00000000e+00"/>
    <Variable VarIndex="14" Expression="RichDLLe" Label="RichDLLe" Title="RichDLLe" Unit="" Internal="RichDLLe" Type="F" Min="-9.99000000e+02" Max="1.42488998e+02"/>
    <Variable VarIndex="15" Expression="RichDLLmu" Label="RichDLLmu" Title="RichDLLmu" Unit="" Internal="RichDLLmu" Type="F" Min="-9.99000000e+02" Max="8.88694000e+01"/>
    <Variable VarIndex="16" Expression="RichDLLk" Label="RichDLLk" Title="RichDLLk" Unit="" Internal="RichDLLk" Type="F" Min="-9.99000000e+02" Max="1.34669998e+02"/>
    <Variable VarIndex="17" Expression="RichDLLp" Label="RichDLLp" Title="RichDLLp" Unit="" Internal="RichDLLp" Type="F" Min="-9.99000000e+02" Max="1.08032501e+02"/>
    <Variable VarIndex="18" Expression="RichDLLbt" Label="RichDLLbt" Title="RichDLLbt" Unit="" Internal="RichDLLbt" Type="F" Min="-9.99000000e+02" Max="6.76083984e+01"/>
    <Variable VarIndex="19" Expression="MuonBkgLL" Label="MuonBkgLL" Title="MuonBkgLL" Unit="" Internal="MuonBkgLL" Type="F" Min="-9.99000000e+02" Max="2.63999999e-02"/>
    <Variable VarIndex="20" Expression="MuonMuLL" Label="MuonMuLL" Title="MuonMuLL" Unit="" Internal="MuonMuLL" Type="F" Min="-9.99000000e+02" Max="0.00000000e+00"/>
    <Variable VarIndex="21" Expression="MuonIsMuon" Label="MuonIsMuon" Title="MuonIsMuon" Unit="" Internal="MuonIsMuon" Type="I" Min="0.00000000e+00" Max="1.00000000e+00"/>
    <Variable VarIndex="22" Expression="MuonNShared" Label="MuonNShared" Title="MuonNShared" Unit="" Internal="MuonNShared" Type="I" Min="0.00000000e+00" Max="1.19000000e+02"/>
    <Variable VarIndex="23" Expression="InAccMuon" Label="InAccMuon" Title="InAccMuon" Unit="" Internal="InAccMuon" Type="I" Min="0.00000000e+00" Max="1.00000000e+00"/>
    <Variable VarIndex="24" Expression="MuonIsLooseMuon" Label="MuonIsLooseMuon" Title="MuonIsLooseMuon" Unit="" Internal="MuonIsLooseMuon" Type="I" Min="0.00000000e+00" Max="1.00000000e+00"/>
    <Variable VarIndex="25" Expression="EcalPIDe" Label="EcalPIDe" Title="EcalPIDe" Unit="" Internal="EcalPIDe" Type="F" Min="-9.99000000e+02" Max="4.34127378e+00"/>
    <Variable VarIndex="26" Expression="EcalPIDmu" Label="EcalPIDmu" Title="EcalPIDmu" Unit="" Internal="EcalPIDmu" Type="F" Min="-9.99000000e+02" Max="2.15297604e+00"/>
    <Variable VarIndex="27" Expression="HcalPIDe" Label="HcalPIDe" Title="HcalPIDe" Unit="" Internal="HcalPIDe" Type="F" Min="-9.99000000e+02" Max="3.63561058e+00"/>
    <Variable VarIndex="28" Expression="HcalPIDmu" Label="HcalPIDmu" Title="HcalPIDmu" Unit="" Internal="HcalPIDmu" Type="F" Min="-9.99000000e+02" Max="2.87338901e+00"/>
    <Variable VarIndex="29" Expression="PrsPIDe" Label="PrsPIDe" Title="PrsPIDe" Unit="" Internal="PrsPIDe" Type="F" Min="-9.99000000e+02" Max="3.46313500e+00"/>
    <Variable VarIndex="30" Expression="InAccBrem" Label="InAccBrem" Title="InAccBrem" Unit="" Internal="InAccBrem" Type="I" Min="0.00000000e+00" Max="1.00000000e+00"/>
    <Variable VarIndex="31" Expression="BremPIDe" Label="BremPIDe" Title="BremPIDe" Unit="" Internal="BremPIDe" Type="F" Min="-9.99000000e+02" Max="4.79148388e+00"/>
  </Variables>
  <Spectators NSpec="0"/>
  <Classes NClass="2">
    <Class Name="Signal" Index="0"/>
    <Class Name="Background" Index="1"/>
  </Classes>
  <Transformations NTransformations="1">
    <Transform Name="Normalize">
      <Selection>
        <Input NInputs="32">
          <Input Type="Variable" Label="TrackP" Expression="TrackP"/>
          <Input Type="Variable" Label="TrackPt" Expression="TrackPt"/>
          <Input Type="Variable" Label="TrackChi2PerDof" Expression="TrackChi2PerDof"/>
          <Input Type="Variable" Label="TrackNumDof" Expression="TrackNumDof"/>
          <Input Type="Variable" Label="TrackGhostProbability" Expression="TrackGhostProbability"/>
          <Input Type="Variable" Label="TrackFitMatchChi2" Expression="TrackFitMatchChi2"/>
          <Input Type="Variable" Label="TrackFitVeloChi2" Expression="TrackFitVeloChi2"/>
          <Input Type="Variable" Label="TrackFitVeloNDoF" Expression="TrackFitVeloNDoF"/>
          <Input Type="Variable" Label="TrackFitTChi2" Expression="TrackFitTChi2"/>
          <Input Type="Variable" Label="TrackFitTNDoF" Expression="TrackFitTNDoF"/>
          <Input Type="Variable" Label="RichUsedR1Gas" Expression="RichUsedR1Gas"/>
          <Input Type="Variable" Label="RichUsedR2Gas" Expression="RichUsedR2Gas"/>
          <Input Type="Variable" Label="RichAbovePiThres" Expression="RichAbovePiThres"/>
          <Input Type="Variable" Label="RichAboveKaThres" Expression="RichAboveKaThres"/>
          <Input Type="Variable" Label="RichDLLe" Expression="RichDLLe"/>
          <Input Type="Variable" Label="RichDLLmu" Expression="RichDLLmu"/>
          <Input Type="Variable" Label="RichDLLk" Expression="RichDLLk"/>
          <Input Type="Variable" Label="RichDLLp" Expression="RichDLLp"/>
          <Input Type="Variable" Label="RichDLLbt" Expression="RichDLLbt"/>
          <Input Type="Variable" Label="MuonBkgLL" Expression="MuonBkgLL"/>
          <Input Type="Variable" Label="MuonMuLL" Expression="MuonMuLL"/>
          <Input Type="Variable" Label="MuonIsMuon" Expression="MuonIsMuon"/>
          <Input Type="Variable" Label="MuonNShared" Expression="MuonNShared"/>
          <Input Type="Variable" Label="InAccMuon" Expression="InAccMuon"/>
          <Input Type="Variable" Label="MuonIsLooseMuon" Expression="MuonIsLooseMuon"/>
          <Input Type="Variable" Label="EcalPIDe" Expression="EcalPIDe"/>
          <Input Type="Variable" Label="EcalPIDmu" Expression="EcalPIDmu"/>
          <Input Type="Variable" Label="HcalPIDe" Expression="HcalPIDe"/>
          <Input Type="Variable" Label="HcalPIDmu" Expression="HcalPIDmu"/>
          <Input Type="Variable" Label="PrsPIDe" Expression="PrsPIDe"/>
          <Input Type="Variable" Label="InAccBrem" Expression="InAccBrem"/>
          <Input Type="Variable" Label="BremPIDe" Expression="BremPIDe"/>
        </Input>
        <Output NOutputs="32">
          <Output Type="Variable" Label="TrackP" Expression="TrackP"/>
          <Output Type="Variable" Label="TrackPt" Expression="TrackPt"/>
          <Output Type="Variable" Label="TrackChi2PerDof" Expression="TrackChi2PerDof"/>
          <Output Type="Variable" Label="TrackNumDof" Expression="TrackNumDof"/>
          <Output Type="Variable" Label="TrackGhostProbability" Expression="TrackGhostProbability"/>
          <Output Type="Variable" Label="TrackFitMatchChi2" Expression="TrackFitMatchChi2"/>
          <Output Type="Variable" Label="TrackFitVeloChi2" Expression="TrackFitVeloChi2"/>
          <Output Type="Variable" Label="TrackFitVeloNDoF" Expression="TrackFitVeloNDoF"/>
          <Output Type="Variable" Label="TrackFitTChi2" Expression="TrackFitTChi2"/>
          <Output Type="Variable" Label="TrackFitTNDoF" Expression="TrackFitTNDoF"/>
          <Output Type="Variable" Label="RichUsedR1Gas" Expression="RichUsedR1Gas"/>
          <Output Type="Variable" Label="RichUsedR2Gas" Expression="RichUsedR2Gas"/>
          <Output Type="Variable" Label="RichAbovePiThres" Expression="RichAbovePiThres"/>
          <Output Type="Variable" Label="RichAboveKaThres" Expression="RichAboveKaThres"/>
          <Output Type="Variable" Label="RichDLLe" Expression="RichDLLe"/>
          <Output Type="Variable" Label="RichDLLmu" Expression="RichDLLmu"/>
          <Output Type="Variable" Label="RichDLLk" Expression="RichDLLk"/>
          <Output Type="Variable" Label="RichDLLp" Expression="RichDLLp"/>
          <Output Type="Variable" Label="RichDLLbt" Expression="RichDLLbt"/>
          <Output Type="Variable" Label="MuonBkgLL" Expression="MuonBkgLL"/>
          <Output Type="Variable" Label="MuonMuLL" Expression="MuonMuLL"/>
          <Output Type="Variable" Label="MuonIsMuon" Expression="MuonIsMuon"/>
          <Output Type="Variable" Label="MuonNShared" Expression="MuonNShared"/>
          <Output Type="Variable" Label="InAccMuon" Expression="InAccMuon"/>
          <Output Type="Variable" Label="MuonIsLooseMuon" Expression="MuonIsLooseMuon"/>
          <Output Type="Variable" Label="EcalPIDe" Expression="EcalPIDe"/>
          <Output Type="Variable" Label="EcalPIDmu" Expression="EcalPIDmu"/>
          <Output Type="Variable" Label="HcalPIDe" Expression="HcalPIDe"/>
          <Output Type="Variable" Label="HcalPIDmu" Expression="HcalPIDmu"/>
          <Output Type="Variable" Label="PrsPIDe" Expression="PrsPIDe"/>
          <Output Type="Variable" Label="InAccBrem" Expression="InAccBrem"/>
          <Output Type="Variable" Label="BremPIDe" Expression="BremPIDe"/>
        </Output>
      </Selection>
      <Class ClassIndex="0">
        <Ranges>
          <Range Index="0" Min="1.1390999755859375e+03" Max="1.6360880000000000e+06"/>
          <Range Index="1" Min="4.3312940597534180e+00" Max="8.0906382812500000e+04"/>
          <Range Index="2" Min="1.2431790679693222e-01" Max="2.9999823570251465e+00"/>
          <Range Index="3" Min="7.0000000000000000e+00" Max="5.3000000000000000e+01"/>
          <Range Index="4" Min="-9.9900000000000000e+02" Max="1.0000000000000000e+00"/>
          <Range Index="5" Min="8.4351925179362297e-03" Max="9.5712478637695312e+01"/>
          <Range Index="6" Min="6.1010727222310379e-05" Max="7.9071380615234375e+01"/>
          <Range Index="7" Min="1.0000000000000000e+00" Max="2.5000000000000000e+01"/>
          <Range Index="8" Min="1.3691445346921682e-03" Max="1.0006428527832031e+02"/>
          <Range Index="9" Min="1.0000000000000000e+00" Max="3.1000000000000000e+01"/>
          <Range Index="10" Min="0.0000000000000000e+00" Max="1.0000000000000000e+00"/>
          <Range Index="11" Min="0.0000000000000000e+00" Max="1.0000000000000000e+00"/>
          <Range Index="12" Min="0.0000000000000000e+00" Max="1.0000000000000000e+00"/>
          <Range Index="13" Min="0.0000000000000000e+00" Max="1.0000000000000000e+00"/>
          <Range Index="14" Min="-9.9900000000000000e+02" Max="6.1782600402832031e+01"/>
          <Range Index="15" Min="-9.9900000000000000e+02" Max="6.5825302124023438e+01"/>
          <Range Index="16" Min="-9.9900000000000000e+02" Max="4.3755500793457031e+01"/>
          <Range Index="17" Min="-9.9900000000000000e+02" Max="4.7808601379394531e+01"/>
          <Range Index="18" Min="-9.9900000000000000e+02" Max="5.2066898345947266e+01"/>
          <Range Index="19" Min="-9.9900000000000000e+02" Max="2.4399999529123306e-02"/>
          <Range Index="20" Min="-9.9900000000000000e+02" Max="0.0000000000000000e+00"/>
          <Range Index="21" Min="0.0000000000000000e+00" Max="1.0000000000000000e+00"/>
          <Range Index="22" Min="0.0000000000000000e+00" Max="1.1900000000000000e+02"/>
          <Range Index="23" Min="0.0000000000000000e+00" Max="1.0000000000000000e+00"/>
          <Range Index="24" Min="0.0000000000000000e+00" Max="1.0000000000000000e+00"/>
          <Range Index="25" Min="-9.9900000000000000e+02" Max="4.0547904968261719e+00"/>
          <Range Index="26" Min="-9.9900000000000000e+02" Max="2.1529760360717773e+00"/>
          <Range Index="27" Min="-9.9900000000000000e+02" Max="3.1165552139282227e+00"/>
          <Range Index="28" Min="-9.9900000000000000e+02" Max="2.8733890056610107e+00"/>
          <Range Index="29" Min="-9.9900000000000000e+02" Max="3.4631350040435791e+00"/>
          <Range Index="30" Min="0.0000000000000000e+00" Max="1.0000000000000000e+00"/>
          <Range Index="31" Min="-9.9900000000000000e+02" Max="4.7914838790893555e+00"/>
        </Ranges>
      </Class>
      <Class ClassIndex="1">
        <Ranges>
          <Range Index="0" Min="1.1598299560546875e+03" Max="4.9076830000000000e+06"/>
          <Range Index="1" Min="4.9322986602783203e-01" Max="7.1115987500000000e+05"/>
          <Range Index="2" Min="1.6422262787818909e-01" Max="2.9999957084655762e+00"/>
          <Range Index="3" Min="7.0000000000000000e+00" Max="5.4000000000000000e+01"/>
          <Range Index="4" Min="-9.9900000000000000e+02" Max="1.0000000000000000e+00"/>
          <Range Index="5" Min="7.9858750104904175e-03" Max="1.0477747344970703e+02"/>
          <Range Index="6" Min="1.1180369256180711e-05" Max="8.4188446044921875e+01"/>
          <Range Index="7" Min="1.0000000000000000e+00" Max="2.8000000000000000e+01"/>
          <Range Index="8" Min="9.4517978141084313e-05" Max="1.0009513854980469e+02"/>
          <Range Index="9" Min="1.0000000000000000e+00" Max="3.0000000000000000e+01"/>
          <Range Index="10" Min="0.0000000000000000e+00" Max="1.0000000000000000e+00"/>
          <Range Index="11" Min="0.0000000000000000e+00" Max="1.0000000000000000e+00"/>
          <Range Index="12" Min="0.0000000000000000e+00" Max="1.0000000000000000e+00"/>
          <Range Index="13" Min="0.0000000000000000e+00" Max="1.0000000000000000e+00"/>
          <Range Index="14" Min="-9.9900000000000000e+02" Max="1.4248899841308594e+02"/>
          <Range Index="15" Min="-9.9900000000000000e+02" Max="8.8869400024414062e+01"/>
          <Range Index="16" Min="-9.9900000000000000e+02" Max="1.3466999816894531e+02"/>
          <Range Index="17" Min="-9.9900000000000000e+02" Max="1.0803250122070312e+02"/>
          <Range Index="18" Min="-9.9900000000000000e+02" Max="6.7608398437500000e+01"/>
          <Range Index="19" Min="-9.9900000000000000e+02" Max="2.6399999856948853e-02"/>
          <Range Index="20" Min="-9.9900000000000000e+02" Max="0.0000000000000000e+00"/>
          <Range Index="21" Min="0.0000000000000000e+00" Max="1.0000000000000000e+00"/>
          <Range Index="22" Min="0.0000000000000000e+00" Max="9.2000000000000000e+01"/>
          <Range Index="23" Min="0.0000000000000000e+00" Max="1.0000000000000000e+00"/>
          <Range Index="24" Min="0.0000000000000000e+00" Max="1.0000000000000000e+00"/>
          <Range Index="25" Min="-9.9900000000000000e+02" Max="4.3412737846374512e+00"/>
          <Range Index="26" Min="-9.9900000000000000e+02" Max="2.1529760360717773e+00"/>
          <Range Index="27" Min="-9.9900000000000000e+02" Max="3.6356105804443359e+00"/>
          <Range Index="28" Min="-9.9900000000000000e+02" Max="2.8733890056610107e+00"/>
          <Range Index="29" Min="-9.9900000000000000e+02" Max="3.4631350040435791e+00"/>
          <Range Index="30" Min="0.0000000000000000e+00" Max="1.0000000000000000e+00"/>
          <Range Index="31" Min="-9.9900000000000000e+02" Max="4.7914838790893555e+00"/>
        </Ranges>
      </Class>
      <Class ClassIndex="2">
        <Ranges>
          <Range Index="0" Min="1.1390999755859375e+03" Max="4.9076830000000000e+06"/>
          <Range Index="1" Min="4.9322986602783203e-01" Max="7.1115987500000000e+05"/>
          <Range Index="2" Min="1.2431790679693222e-01" Max="2.9999957084655762e+00"/>
          <Range Index="3" Min="7.0000000000000000e+00" Max="5.4000000000000000e+01"/>
          <Range Index="4" Min="-9.9900000000000000e+02" Max="1.0000000000000000e+00"/>
          <Range Index="5" Min="7.9858750104904175e-03" Max="1.0477747344970703e+02"/>
          <Range Index="6" Min="1.1180369256180711e-05" Max="8.4188446044921875e+01"/>
          <Range Index="7" Min="1.0000000000000000e+00" Max="2.8000000000000000e+01"/>
          <Range Index="8" Min="9.4517978141084313e-05" Max="1.0009513854980469e+02"/>
          <Range Index="9" Min="1.0000000000000000e+00" Max="3.1000000000000000e+01"/>
          <Range Index="10" Min="0.0000000000000000e+00" Max="1.0000000000000000e+00"/>
          <Range Index="11" Min="0.0000000000000000e+00" Max="1.0000000000000000e+00"/>
          <Range Index="12" Min="0.0000000000000000e+00" Max="1.0000000000000000e+00"/>
          <Range Index="13" Min="0.0000000000000000e+00" Max="1.0000000000000000e+00"/>
          <Range Index="14" Min="-9.9900000000000000e+02" Max="1.4248899841308594e+02"/>
          <Range Index="15" Min="-9.9900000000000000e+02" Max="8.8869400024414062e+01"/>
          <Range Index="16" Min="-9.9900000000000000e+02" Max="1.3466999816894531e+02"/>
          <Range Index="17" Min="-9.9900000000000000e+02" Max="1.0803250122070312e+02"/>
          <Range Index="18" Min="-9.9900000000000000e+02" Max="6.7608398437500000e+01"/>
          <Range Index="19" Min="-9.9900000000000000e+02" Max="2.6399999856948853e-02"/>
          <Range Index="20" Min="-9.9900000000000000e+02" Max="0.0000000000000000e+00"/>
          <Range Index="21" Min="0.0000000000000000e+00" Max="1.0000000000000000e+00"/>
          <Range Index="22" Min="0.0000000000000000e+00" Max="1.1900000000000000e+02"/>
          <Range Index="23" Min="0.0000000000000000e+00" Max="1.0000000000000000e+00"/>
          <Range Index="24" Min="0.0000000000000000e+00" Max="1.0000000000000000e+00"/>
          <Range Index="25" Min="-9.9900000000000000e+02" Max="4.3412737846374512e+00"/>
          <Range Index="26" Min="-9.9900000000000000e+02" Max="2.1529760360717773e+00"/>
          <Range Index="27" Min="-9.9900000000000000e+02" Max="3.6356105804443359e+00"/>
          <Range Index="28" Min="-9.9900000000000000e+02" Max="2.8733890056610107e+00"/>
          <Range Index="29" Min="-9.9900000000000000e+02" Max="3.4631350040435791e+00"/>
          <Range Index="30" Min="0.0000000000000000e+00" Max="1.0000000000000000e+00"/>
          <Range Index="31" Min="-9.9900000000000000e+02" Max="4.7914838790893555e+00"/>
        </Ranges>
      </Class>
    </Transform>
  </Transformations>
  <MVAPdfs/>
  <Weights>
    <Layout NLayers="3">
      <Layer Index="0" NNeurons="33">
        <Neuron NSynapses="44">
          3.5372445577688745e+00 1.6746305282300842e+01 1.6079184960678969e+00 6.1832881591105533e+00 -4.8686139902145866e+00 -9.0199110574299848e+00 -7.4135848820524575e-01 1.9026727405977546e+00 -9.1149529144473753e+00 -7.0146070347457385e+00 -1.2521367478355259e+01 -3.4420042109075855e+00 9.8061441035998840e+00 -3.3926674619620265e+01 1.3898606419135408e+01 -8.7434297091508328e-01 -1.1960886819223104e+00 -6.5235087407309456e-01 -4.2725709079470153e+00 4.5890879822199553e+00 -1.1346349046831969e+00 1.6702712401321822e+00 -7.0061192204276423e-01 -1.7402095332113102e+01 -4.8514450100923066e+00 -3.4676391130834268e+00 2.2222973145506561e+01 1.1338303265166432e+00 -2.9818592714085806e+01 3.7960269767327057e+00 4.4168429054478793e+00 2.0793422066784448e+01 7.4622846193947778e-01 -1.6554715309456910e+01 4.4985797543425127e-01 3.5899363138324158e+00 -6.5103993966691647e+00 7.6611499172231548e-02 -2.4350294442021427e+00 9.7518266247681655e+00 2.3472652423671065e+00 -7.9862251338690129e+00 1.2184199014375670e+01 5.3246589857606121e+00 
        </Neuron>
        <Neuron NSynapses="44">
          -1.0606138287429546e+01 8.7994855578249354e+00 5.0925789863265414e-01 5.2448299933737399e+00 -8.6659365533120614e-01 -7.1798073221629819e+00 1.4600648050115470e+00 -4.6613615288015858e-01 -9.3302308435010524e+00 -4.5544905767346728e+00 -4.1064555772778784e+00 5.2986534712031785e+00 -2.3881156571561002e+00 -3.9502204626131260e+01 1.8384747798213009e+01 -5.8275447374670559e+00 -2.9767292808003307e+00 -3.1398484614734627e+00 -1.7456943699929301e+01 3.3084439865983434e-01 1.3548313070200031e+00 -5.1932894448146749e+00 4.5311845181396454e-01 -1.6247245866564192e+01 -3.6664295247703955e+00 1.9641891094774484e+00 3.0339300203349691e+01 8.8897605112507314e-02 -2.3320052625665149e+01 2.6504810487001178e+00 1.9016190630083063e+01 2.1728355278308804e+01 -2.0032451583597317e+00 1.0707659110107066e+01 7.5201709130814443e-01 -1.3496994385350203e+00 1.4775008080893868e+00 -7.4894566136365737e-01 -7.2660996453692528e-01 1.0660182457238172e+01 7.8768940751831185e-01 -1.4048217237266718e+01 1.4152908139050487e+01 -2.0426514342250055e+00 
        </Neuron>
        <Neuron NSynapses="44">
          -4.2349585579896711e+00 -2.0528593787614682e+00 -8.6056323872348306e-01 1.5399077835290107e+00 -2.1947392091042087e-01 -9.6726516622924696e-01 7.0682031817700264e-01 -2.1873445252055940e-01 1.2776218916880397e+00 -3.9018308037883083e+00 -8.1082638654250461e-01 7.8031305116632153e+00 -1.6504712334659677e+00 2.4642775112393975e+00 7.7694695815211615e-02 6.5438410274876113e-01 -1.4724275780832641e+00 -9.5058281238997622e-01 7.8773333997080836e-02 7.2987845869008389e-02 1.1011054057083143e+00 -3.5593950004880379e+00 -8.0233782602968162e-01 -1.7127039364406396e+00 -6.8587441384243677e+00 3.5905534165096525e-01 -1.1785525204670697e+00 4.4197219050667860e+00 2.5727238717122534e+00 -1.1570697982073181e+00 3.4777401011558720e+00 -2.3029488997049166e+00 3.1526096777393747e-01 -3.7547877163000742e-01 -5.3323545906900316e-01 1.3982488716821382e+00 -4.8367294887455770e-01 2.7821920504749986e+00 -1.0956107200264440e+00 -9.2889101005317676e-01 -7.2429848245492079e-01 -1.1683063493027988e+00 4.8943285592730881e+00 -1.2938904739144150e+00 
        </Neuron>
        <Neuron NSynapses="44">
          2.1941408789362278e+01 4.2043966633396872e+00 -4.9425204593810118e-01 2.3409122137532716e+01 -3.6519827269975585e-01 3.0348474810200678e+00 1.9267145162121386e+00 2.5148252871690073e+00 2.7526675581217408e-01 1.0599491566922412e+01 -1.6438911412679570e+01 -5.1905403903292635e+00 -6.3016978307038549e+00 -9.0044207763373265e+00 2.0311308817024307e+00 -3.6476414409907063e+00 -2.7513494017845996e+00 -6.4731847019381359e+00 6.7988665242945234e-01 6.3743156711780244e+00 1.2152105333384007e+01 2.1159890289729124e+00 1.6877262646850262e+00 2.4788774392143495e-01 2.8771214927938660e+00 4.5327782173873521e+00 -3.3403712077812493e+00 -7.9459630161398378e+00 -5.4246170890769436e+00 1.9549138344936956e+01 9.1718776692413884e-01 4.6477784260253880e+00 7.9887928773224579e-02 -1.0681942763776689e-01 7.4649969445009337e+00 -6.7358155360627114e-01 -1.9760210880763459e+01 -1.1583973053949652e+01 3.0020261807718200e+00 9.0307840855543031e-01 7.6174138874709749e+00 4.6690931983807831e+00 3.4530148917543295e+00 2.8719174995075596e+00 
        </Neuron>
        <Neuron NSynapses="44">
          1.3713527846428453e+00 1.4169942812024092e-02 -2.8229724335598356e+00 -2.8961961595929266e+00 -9.5259520648319551e+00 3.7333246317506077e-02 3.9017729459685815e+00 -5.4645838649305247e+00 6.4846574520887179e-01 1.7126921959380932e-02 4.3938991686359969e+00 -1.2432351912745321e+00 1.1998185390849567e+00 1.3158831980173021e+01 -6.0676033620838137e+00 3.4391728391818499e+00 2.8208009366416742e+00 1.0153139834854915e+01 9.5585401882064698e+00 -7.2294835271806601e+00 -5.0539032451928483e+00 6.0227818828148996e-02 2.9348731980570468e+00 -5.7419917931363393e+00 3.3484341215225513e+00 2.4627869578521233e+00 2.0592771918526717e-01 -5.1146547498957586e+00 1.0071221578414224e+01 -3.3243074344392851e+00 -8.4789712277525844e+00 -2.1381046613894447e-01 -6.5184130619064085e-01 4.8170282523624826e-02 1.4426896974935801e+00 -6.1739896227624269e-01 3.1734521768783752e+00 1.1349258111188161e+00 1.8998235650305684e+00 -1.5678533311968776e+00 -1.3764805745014358e-01 4.1200845920579887e+00 4.0926511097878915e-01 -4.9285371400764664e+00 
        </Neuron>
        <Neuron NSynapses="44">
          3.7844952642294176e+00 -1.4985386832070604e+00 4.6196215579479616e-01 -3.7369751250301690e+00 1.4459286896422252e+00 1.4897559713492478e-01 -1.0353896756649918e+00 -2.4219884586484217e+00 1.3068676072235226e+00 2.0370115388377781e+00 3.8594352005934462e+00 -2.2319624910618403e+00 2.5956499489401277e+00 1.6873713352482558e+00 -8.3602416659920131e-01 -5.4578899024380356e-01 -7.0390471885802874e-01 1.6992186769678530e+00 -1.5556190957770594e-01 -2.9744791294634867e+00 -2.0677332625352194e+00 -1.7162899353075831e+00 1.5479332603227061e+00 -2.1611934362385159e+00 2.6875920991236892e+00 5.8135899041501390e-02 6.4140093753538030e-01 1.1012434782738312e+00 2.3344989108697400e+00 -2.1394765255259556e-02 -5.3284199886986681e+00 1.6316092660129167e+00 -9.7030711245871226e-01 1.1929741486698558e-01 -8.6882543932090994e-02 -7.9688523534250022e-01 -5.2111082073797410e-01 -2.8049934308630027e+00 -2.0541770850110623e+00 7.6156037227487194e-01 7.6388525413588060e-01 3.9761299938487062e+00 4.0627648114240396e+00 -1.4309696060759445e+00 
        </Neuron>
        <Neuron NSynapses="44">
          3.5824488341811889e+00 1.5565048341247205e+00 4.6798937630913756e-01 3.4242393326166043e-01 4.9458796943437255e-01 -1.1763878428005294e+00 -6.5022788431913758e-01 -1.0545580389788696e+00 -9.9605185669044094e-01 4.6851026183712099e+00 1.9841295669605949e+00 -6.3759979674057767e+00 5.6783550616455143e+00 -7.1927739107816868e-01 -1.1990882170654011e+00 -4.4527668916486285e-01 1.3828660741345948e+00 9.3679078160344753e-01 6.4183054909550522e-02 -2.1881450694529833e-01 -6.8440770745090629e-01 2.6596773836112417e+00 3.1739886143145457e-01 1.3275723911715493e+00 9.8301478222219547e+00 9.5223428894247086e-01 -3.3656356424726641e-01 -4.3839322235722404e+00 -6.7107088843217799e-01 7.7567010727963981e-01 1.3015756143339945e+00 8.8570997596178780e-01 -1.2277869483701189e+00 -3.8382679282304749e-01 1.2720591276381790e+00 -1.1779740796103311e+00 9.8548083273593168e-01 2.3811835105834920e+00 2.0699103486424739e-01 6.9969703287880725e-01 -1.7776904576461146e-02 1.6107045517289782e+00 -2.5396610495726959e+00 1.0534637889388208e+00 
        </Neuron>
        <Neuron NSynapses="44">
          -1.3850681142177352e+01 -3.2077775848636021e+00 2.0492365517752919e-02 -1.4749402934949069e+01 -1.0921460017425121e-01 1.0646569129009091e+00 -1.6478239703887190e-01 -1.2847308392209424e+00 1.0153319162055670e+00 -9.0342676379321940e+00 8.0164614930142140e+00 5.8404593641930234e+00 4.4343722755791823e+00 5.0892652371273917e+00 -6.4632459533959874e-01 2.0861485360946022e+00 1.3843701922341227e+00 2.8470363074029801e+00 -1.4447167590712204e-01 -3.4859962487665506e+00 -6.6842490649184221e+00 -1.4892215621388056e+00 -1.8370089063668102e+00 -2.8421213871991802e-01 -5.6659272868662924e+00 -2.8538570347178149e+00 3.0139524715031571e+00 5.4640880796777953e+00 2.8809776640907123e+00 -8.4912440584808220e+00 -3.9310850509821189e+00 -2.5367194753247055e+00 8.9046822981795049e-01 4.3311654531762833e-01 -6.4069479388867601e+00 -2.8509243624781072e-01 9.4006622093536656e+00 -2.9873323540710373e+00 -1.7884289568802354e+00 -9.9382949099311779e-01 -3.0685996104446995e+00 -4.7570294100594186e+00 -3.3511036954906230e+00 -2.2933957343795131e+00 
        </Neuron>
        <Neuron NSynapses="44">
          4.7277249304801812e+00 1.0999953619020215e+00 7.7860670325800763e-01 -3.3609255052993530e+00 -6.1524800185197959e-01 3.6519282079142340e-01 -2.1162937768353833e+00 -1.1123893922959239e+01 -1.1451045491695933e+00 3.5037343149737405e+00 -9.6578746137780072e-02 -8.4051925292890726e+00 5.5136478240073812e+00 -8.2540953859067545e-01 -8.8763644073866699e-01 1.3506408144012100e-01 2.0316305187756898e+00 4.5087611723580805e+00 3.7958448165583553e-01 -5.8428364301039375e+00 -5.8947590041692015e+00 2.3516452044869189e+00 1.9606934152873814e+00 1.3183645641401744e+00 1.0169077622910947e+01 3.0608915435617905e+00 1.7250975601048455e+00 -4.4968219001827352e+00 -6.2917341765048607e-01 -3.0094049946642915e-01 -6.2474395507480649e+00 9.1863427495200722e-01 -2.1078791348518514e-01 6.6835162459445052e-01 -2.1553709673519141e+00 3.1223582274426426e-01 4.0092302890237494e+00 -5.7310861287754884e+00 -9.2593419703625987e-02 5.1041901108786836e-01 2.7472158083281763e-02 2.3378467156006346e+00 -2.8704319823524362e+00 3.3699725885736753e-01 
        </Neuron>
        <Neuron NSynapses="44">
          -1.5941379046074816e+01 -2.9135266961849156e+00 5.3885956763403942e-01 -1.0827978926397344e+01 -2.4063448864824299e+00 -1.8626399309460326e+00 -6.6651909740274440e-01 4.8125920421911612e+00 5.0520717440240555e+00 -1.0077112895884193e+01 9.2892688355644761e+00 7.1619230836022370e+00 -5.0915569115424022e+00 4.3822206399227523e+00 5.4655024094501403e+00 2.9564941493471610e+00 2.0778160932681486e+00 -5.6031682619743819e+00 -8.1978093777376315e-01 -1.3001271617318773e+01 -2.4771640783793725e+00 -2.0520492122450631e+00 1.2491940337839125e+00 -8.3467297618678171e-01 -4.6480958524851665e+00 -4.3198496062921299e+00 -1.6826859999047708e-01 4.6776910846737279e+00 1.9597632430309966e+00 -1.1846468885360393e+01 3.2105869756360970e+00 -3.3629917674999383e+00 1.8583664159889353e+00 -1.3091321238515978e+00 -2.4397596116653286e+00 -3.4651033913827384e-01 6.9447536856883740e+00 1.0621178062407534e+01 -1.6208150696773024e-01 6.2396759266900637e-01 -4.5249018073514691e+00 -2.2689615235153407e-01 -2.3102540024385130e+00 -2.5439514523750804e+00 
        </Neuron>
        <Neuron NSynapses="44">
          -1.5906410359930758e+00 -1.3958977382386736e+01 1.7298544411623890e-02 1.5375805164565899e+00 -7.8026633337613909e+00 5.4567457662836647e+00 2.4110626993218283e+00 -4.7146781411146472e+00 -8.6978510184197901e+00 -7.9603965395577321e+00 5.7669103443607588e+00 -5.0350142670367699e+00 2.3316896320089202e+00 6.2347509385766020e-01 2.7716079786663739e-01 -2.2634282847152809e+00 1.1874470976393683e+00 -1.0243933975548185e+01 1.2389225489080434e-02 1.8350125481349608e+00 4.6689359762524191e-01 -3.7715549984563661e-02 -2.6998100117409476e+00 -1.7867858788886068e-01 -1.9962631339354913e+00 7.0056253178459549e-01 -6.7485074683178126e-01 -2.6857177862115977e-01 8.3492692795244949e-01 5.4197196266001644e+00 3.5318398796289635e-01 4.6807211307079735e+00 -4.1872738389016328e+00 4.3950047240627210e-01 1.2192210707640123e+00 1.9805945211619633e+00 1.8454432103226552e+00 -6.3481942694502651e+00 6.1112813500489702e+00 6.4532330463816043e+00 -2.2178251064699102e+00 -3.3230404634450745e+00 9.5606969739639092e-01 -2.8988639565036234e-01 
        </Neuron>
        <Neuron NSynapses="44">
          1.4519560366746942e-01 -2.2010172249097115e-01 -1.3600872188376312e-01 -5.6921130659288774e+00 1.6507550460248015e+00 -8.7714720598289511e-02 1.4816772511991610e-01 -2.9864008089528982e-01 -2.4000367622312271e-01 -3.8064109405838744e+00 -6.0772068104670902e+00 -5.1180164628087947e+00 6.2392899394635837e-01 -1.5240194499733048e-01 1.0744422195366711e+01 -1.9923383346660202e+00 -1.2122209435880964e+00 2.9987928638246747e-01 1.6600265573791015e-01 3.3782346470795344e-01 -2.4125139569888715e-01 2.2433618149738713e-01 4.3436540151453089e-02 2.1278633186935228e-01 8.7748408207192663e-01 9.7742554406531350e-04 -4.4782138600093196e-01 -2.0477711343890057e+00 7.5606039598530753e-02 2.5551545376619339e-01 4.3572922882411597e-01 1.5257815038115333e-01 -2.8106886967867641e+00 -3.2494074559400399e-01 4.2119163483264255e-01 2.3826023934323040e+00 7.3370662963760769e-02 4.7648462491284344e-01 3.3990987160125385e+00 -7.7032530200215332e-01 5.1981275302158104e-02 2.1350870287671209e-01 -2.4227312069306803e-01 2.4452359047194911e+00 
        </Neuron>
        <Neuron NSynapses="44">
          1.7313470460193098e-01 -1.3758005425987287e+01 9.2600065360472758e-02 3.0250958939153472e-01 1.0854363806406202e+01 1.5054422454214114e+00 1.5837343935394912e+00 -4.8792908108051529e+00 8.5268494176352476e+00 1.7161200799389292e-01 -6.8177500473868422e+00 -2.4526386096633701e-01 -2.0750203376730858e+00 -2.9639854778062515e+00 -7.2236712352692223e+00 -4.8619685796752767e+00 1.3574823602267334e+00 7.2645354134728246e-01 -3.5008981943052964e-02 -1.1198447994663930e+01 6.3176160826945669e+00 4.9699301525741209e-02 4.5360470518454141e+00 6.0251868130916524e+00 1.4877251376076503e-01 -1.0268592280472729e+01 -2.3607952123492873e-01 -8.0060201828559152e-01 8.7971098935001777e+00 -3.2839556796535958e+00 -4.9244372091873528e-01 -1.1077862515436356e+01 5.9267926446796588e+00 1.3963432179359320e-01 5.4300198211422552e+00 4.7469305375910400e+00 3.1621239961482650e-01 -1.1414789838832376e-01 -2.3358178023869112e+00 -3.7174470675358107e-01 1.0536814514182302e+01 -5.8843559012954874e+00 -1.1209412521808546e+00 5.8815812161357455e+00 
        </Neuron>
        <Neuron NSynapses="44">
          -8.9395446644924548e-02 5.3112818499887355e+00 3.2785706384352755e+00 5.8107988004330854e-02 1.3081193907188768e+00 -1.6057572827172135e+00 2.7687046843176262e+00 4.9740121663628889e+00 4.1927711635803124e+00 -2.6019109911216515e-01 -5.7198678883947962e-01 -3.3286635077387594e-01 -3.1332568309453319e+00 -5.2991452030590180e-01 -5.1508497233410028e-02 1.7668904502243030e+00 4.5983763220296729e-02 -9.0240144411684917e-02 -1.9281639733562727e+01 1.6238197258951762e-02 6.3136294464821230e-01 -1.1786864855109776e-02 -3.1405712709874281e+00 2.5527433477881153e-02 5.1184102342501827e+00 6.9525364038453052e-01 8.4826757100348718e-02 -9.2886724018691935e-01 -3.4078151517499633e-01 -1.9905554451982121e-02 3.3167661917990793e-01 -3.9868823969776828e+00 -3.8730351954808351e-01 -1.7239735272082485e-01 -1.1054953380099375e+00 -2.6169841646182075e+00 -4.7183532380627957e-01 2.5041721321330362e-01 1.1003027697916783e-01 3.4590967735424245e+00 -8.0332727714785501e-02 4.6281668150084787e+00 1.8024826805075808e-01 3.5720316406114496e+00 
        </Neuron>
        <Neuron NSynapses="44">
          -3.7456969979004739e+01 1.2946266852872313e+01 4.4873405973660624e-01 -7.4594910838132931e+00 -5.5089506976921552e+00 -3.1377080917661591e+00 1.3098684584451941e+00 -9.7752682475573494e+00 -1.1598919052467496e+01 -9.4133378428655607e+00 6.9352165124665499e-01 6.2018367395765290e+00 -3.8228571042745032e+00 -2.4070741944878623e+01 4.6831749633082772e+01 -6.0288364866447211e-03 1.9744302593857495e+00 1.6655890268926858e+00 -6.7027089822877857e+00 -7.0051612414319528e+00 -1.0426600045852741e+00 1.9478469820497815e+00 2.2752742713329424e+00 -1.4006644005999892e+01 -9.2368145636607011e+00 8.7973554597239295e-02 1.2203919638332975e+01 -1.5856866894278557e-01 -7.7124424028374827e+00 -2.6365275243408495e+00 7.9228000949054405e+00 4.1198607056348685e+01 1.6771725747240691e+00 3.3268956309839076e+01 1.6331987430264081e+00 -2.3591836913457489e+00 4.2799811301504453e+00 1.5108683947584829e+01 -1.8581014037701181e+01 -8.0038480863254193e+00 -5.0189025556423115e+00 -5.1924325284586503e-01 2.3714212051005354e+01 -1.6623084060970919e+00 
        </Neuron>
        <Neuron NSynapses="44">
          -1.1367088771121749e+01 2.7508212360742530e+01 -1.1025983341165886e-01 -6.8086258680174492e+00 -3.3670607406007713e+00 -3.4870634617998228e+00 1.7776599287589772e+00 -3.2640656356016677e+00 -1.4249740344464684e+01 -1.6940794228376976e+00 -8.3720188684007990e+00 4.0993639278059684e+00 -2.8707192188828334e+00 7.5115614491255061e+00 -4.0340371074528467e-02 4.2814942632245279e+00 2.5347495059355807e+00 -6.8318219466546382e-01 4.4990703623409284e-01 -1.7633905359948422e+01 4.0224598836647507e+00 -1.6047241335131515e+00 1.0726983047588885e+00 -3.0433603363778548e+01 3.1500411981092316e+00 -6.6573973304903861e-02 5.8293923027247576e+00 -1.4220520550715632e+00 -8.1230973713214727e+00 -1.8674052335034050e+00 -1.0295468751254164e+00 2.2748484602138230e+01 -3.4066444278268615e-01 1.9859046775750198e+01 1.8691098978804856e+00 -8.2166513430760069e-01 6.7000382686602249e+00 3.4302410077551895e+00 -7.1255042068860011e+00 4.7762685922256161e+00 3.4850555078438297e+00 7.9283176465723748e-01 1.1388626237008172e+01 1.0647285533619169e+00 
        </Neuron>
        <Neuron NSynapses="44">
          3.8440037827071718e+00 -1.5425328852335223e+01 -5.1976709181648884e-01 6.8111011806765376e-02 4.0945348547827622e+00 1.4030502872987236e+00 -1.1707515785381308e+00 -2.4992868083232297e-01 6.9257001476849052e+00 1.6511064769285866e+00 1.1826372457177756e+01 -1.7169775790048984e+00 -1.6485247288125944e+00 -8.4347381066178698e+01 3.8031563093756780e+01 -2.1213146712646353e+01 2.5389652617772523e-01 -2.7711374043987207e+00 3.9372928257164685e-01 3.9089629685096599e+00 2.6735876043446258e+00 -4.8610534551606971e-01 1.1213019376021514e+00 9.5732941341807720e-01 5.5867483772083615e+00 6.6286384060991477e+00 4.8643201329549882e+01 -1.8036616575059290e+00 -5.8452200986689590e+01 3.6358389354913143e+00 2.0789534835471812e+01 2.0112575385939760e+01 1.4857359136659198e+00 5.8486480631544701e+01 -3.1409344598565370e-01 -8.7400611460791424e+00 -4.6060925992674537e+00 7.0664582584345006e-02 -2.2956505056923582e-01 1.9467067697014020e+01 -4.6521172736058265e+00 -3.4686854168957538e+01 3.8180136422136769e+01 -1.1775007091183731e+00 
        </Neuron>
        <Neuron NSynapses="44">
          1.4210533771303210e+01 -1.3514214609543798e+01 -6.3363400664271408e-01 1.0742263971244910e+00 3.8034078516444429e+00 3.0558132344950413e+00 2.2357078568393304e-01 1.8291893700436208e+00 5.0815891695743671e+00 2.0648202929348765e+00 7.6876168146030386e+00 4.6047306403905686e-01 -2.6504102967789089e+00 -1.5421394123272064e+01 6.5730361454394854e+00 -1.4770887337480078e+01 3.0729609654779928e+00 -3.1460455883095655e+00 8.4895392806819514e-01 6.2716162889941529e+00 1.0971920593499924e-01 -2.1014978812905345e+00 -2.2160283303471191e+00 4.1082218655519194e+00 5.0117329789307865e+00 3.3152856031011599e+00 1.7465564680458591e+01 -1.8648848733380938e+00 -1.3280441172051988e+01 2.2994180562254227e+00 9.1265064898377517e+00 -4.7718034117815478e+00 -4.7831535124316521e-01 2.6299121941892423e+01 2.3321676038399670e+00 -3.8360709665694825e+00 -4.4880393505171758e+00 -1.6513084708471029e-01 4.7697248215982038e+00 8.5828651463010495e+00 -1.5170297965265360e+00 -1.6054507582249059e+01 1.0859886991521888e+01 -1.4706662769791876e+00 
        </Neuron>
        <Neuron NSynapses="44">
          1.1322363048730860e+01 2.9152753615164864e+00 8.0893982440429635e-01 7.4050820496321581e+00 -2.6112168541482164e+00 1.0312961733721744e+00 -3.9773120996786837e-01 -1.1986308723268211e+00 -1.3405907484207129e+00 7.8014998571006910e-01 4.2214775691412711e+00 -3.4438007412125637e+00 -4.3047240363435497e+00 -2.4795346511663539e+01 -1.9185795240339012e+00 -7.3523219717891637e+00 1.0708105506490884e+00 1.0074377660232103e+00 4.7438164645778178e+00 1.9583777174914583e+00 -1.3697311681931434e+00 -1.7068686083058846e+00 -2.8747818111852439e+00 -8.6239702574353938e+00 2.7623449346272677e+00 6.0906641602643630e-01 1.3799204846736208e+01 -1.3012061285582797e+00 -2.8575553350317755e+01 2.6068599258557938e+00 1.0103700678721520e+01 -5.2808864707442069e+00 6.8603218145604650e-01 -7.1560289007345279e+00 2.0122532047921204e+00 2.7513416675891738e+00 -2.7724571082151401e+00 -1.1282854176889558e-01 5.7245372561629804e+00 1.4318466726846891e+01 -2.4350458705459466e+00 -2.6594635213507491e+01 -4.3687346151919479e+00 3.0252265488659580e+00 
        </Neuron>
        <Neuron NSynapses="44">
          2.5860293895406010e+00 -5.0127204923523516e+00 9.2340624419884909e-01 -2.9158290328137673e+00 1.7451560386819558e+00 1.4172197999627518e+00 -1.6509248412002995e+00 6.4032794448163155e-01 4.4220772881098860e+00 5.6021278534067376e+00 -2.0284724521210622e+00 6.4986238999593438e-02 4.2125101062669863e+00 5.3360853486070958e-01 -1.8118150582808163e+00 -4.4824594208011209e-01 -1.0220635141955086e+00 1.9150249725053519e+00 1.5017181804222675e+00 1.3055686688005643e+00 -2.6149966311491619e+00 1.4894649894602330e+00 2.1697744729698605e+00 1.0364500662882120e+01 -6.5948267574612085e-01 8.5675281553910199e-01 -2.9127500930523316e+00 -4.8473083453761295e-01 1.1493917783627474e+00 2.3630302953478494e-01 -1.7678487448191362e+00 -4.8357991505937594e+00 1.0998096601203888e+00 1.9087775088796043e+01 5.3339392179661960e-01 1.0784419170328305e+00 2.5060327247997294e+00 4.5949666451336526e+00 -1.1576258967303981e+00 -2.1541122835893582e+00 1.4330919446541905e+00 -7.8803438411722029e+00 -1.5139031413255715e+00 1.5735490875011859e+00 
        </Neuron>
        <Neuron NSynapses="44">
          -5.2073930410025404e-01 7.7349472770367544e+00 -1.7163065713659436e+00 -5.4064702441626855e-01 -5.3418971603292964e-01 -1.6824270010499387e+00 -1.9347344865735030e+00 -1.4695723688552074e+00 2.9484873577842658e+00 4.2629562028692334e+00 1.1500303635514122e+00 1.4085101172320234e+00 5.4396716990984846e+00 4.0142732509023632e-01 1.4723556987847781e+00 8.8331958000020416e-01 -5.5340730014709516e-01 -9.0135788540364237e-01 -1.2871548288374879e+00 -9.5384871669138033e-02 -3.4747597130135865e+00 2.8863454168038931e+00 2.2394718970779994e+00 -1.4185595494620586e+00 1.2199746476833213e+00 3.1180232067761243e-02 1.4938543466294063e+00 6.1145729777953362e-01 5.5184679217795263e-01 4.0484105372746887e-01 9.8271132818902873e-01 5.9524243329576354e-01 1.5509452817111540e+00 1.9121038847869741e+01 5.9910362471477596e-01 -2.4840352593160464e-01 -7.7533432175529465e-02 3.1906206371694257e+00 -9.3389962551225381e-01 -2.3964010106058815e+00 -8.0540374770224421e-01 -4.4736310565292881e+00 1.3539285469308011e+00 1.8844959918367026e+00 
        </Neuron>
        <Neuron NSynapses="44">
          1.6854549075954012e-01 7.7619804206516030e-01 1.1231753819997827e+00 6.1301042074271117e-01 2.9679797025071095e+00 7.0250058911865101e-02 -9.6591716919954462e-01 2.8874173534236047e-01 -1.3372347702587635e+00 6.4316548933933850e+00 -6.8866257072252779e-01 2.6661351569855607e-01 1.6000089080509474e+00 -1.8179788940358190e+01 5.8663751547580674e+00 5.5615138173845748e+00 -1.3177319410674093e-01 3.2358161538514634e+00 -3.5304050173651583e-02 9.9275839355077089e+00 1.8214958100815348e-01 -7.6291985393044603e-01 -3.8337131705225738e+00 3.9776117143243239e-01 -3.4693525849317418e-02 -2.5041299612091600e-01 -3.4213313228771872e-02 2.5178155478686992e-01 -9.2326192017666042e-01 -2.5349937582855797e+00 -1.1956501174898411e-01 3.4325677756575176e-02 -1.9578186597137870e+00 1.5705424850489097e+01 -5.9486520449574398e-01 2.0699288352938847e+00 3.4609122422930256e+00 1.1364422055017951e+00 -1.3728409367956040e+00 1.0599550201227350e+01 5.5913347129404066e-02 -6.6287682092901150e+00 1.0975382321541980e+01 2.5306748682066211e+00 
        </Neuron>
        <Neuron NSynapses="44">
          3.4892034033976338e-01 -2.9700327198124260e+01 1.4972239174739754e-01 3.1968780419935836e+00 1.9280896425711025e+00 -1.2979681840899523e-01 -3.8009373254411463e+00 -1.7883499908359015e+00 -1.9584912221963851e+00 5.1364719892508548e-01 6.6596486112305273e+00 1.6073038023116004e-01 -1.5650592029937826e+00 2.9811015419145397e+00 6.1198834996985845e+00 -7.5079332304003890e+00 -7.6251870041807090e-01 -2.1379760996841823e+00 -3.7499152013710146e-01 -6.2099339258153441e-01 -2.4509450103344386e+00 -3.9759599673351294e+00 1.6351925575979698e+00 2.8668100329991590e+00 -1.1426995755973544e+00 1.2763961726115010e+00 1.4133933800234992e+00 9.4910371907762847e-01 -1.4676968640600794e+00 1.4199603990789214e+00 4.5599809183236256e-01 -6.7280206450519069e+00 -3.1977933392563740e+00 1.6763567995431224e+01 -8.7331241525330627e-01 -1.5642242773356725e+00 -1.4918862497549048e+00 2.4612384718219776e-01 7.0468905444390806e-01 8.0750005021613269e+00 -4.9441372585450449e-01 -8.4823374089322563e+00 2.4934351808521833e+00 -1.1638430091226297e-01 
        </Neuron>
        <Neuron NSynapses="44">
          2.5167962076373790e-01 -7.4341902275877585e+00 -2.2881795060079241e-01 4.2930595397229743e-01 5.2259508388898137e+00 -1.3975586136571441e+00 1.3239603436710852e+00 4.8969262689384925e+00 3.0876841235186286e-01 -8.0406931482599635e+00 -2.1161761858450205e+00 -4.1581877407243351e-01 -2.4220225611259196e+00 -4.7349870299631169e-01 -7.3238938272105116e+00 -1.7814045273435715e+00 1.7923036815224207e+00 9.0792792118302032e-02 1.2911652769096368e-01 1.2436296895919398e+01 -4.3533834057018765e+00 5.2539542514456339e-01 -3.7475459444718096e-01 -5.2327749116137809e+00 -1.3509824240152632e-01 -4.7264554193534963e-01 1.2708688042045821e-01 -1.3889147152657988e+00 6.2848550548389905e+00 4.0121907009963671e+00 2.3573713560328552e-01 1.2321448973664322e-01 4.5113276299951250e+00 -4.0815003874930611e-01 -1.8140720763506890e-01 -2.1018707629623576e-01 6.9872496056011701e-01 3.8594564526791691e-01 -4.9918685755307535e-01 2.5825594206305018e+00 4.1174445543073612e-01 6.4013389888164507e-01 -1.1582604971600796e+01 -3.8734044348244860e+00 
        </Neuron>
        <Neuron NSynapses="44">
          -2.0209539196880026e+00 1.4127396064073734e+01 -3.7328359076307555e-01 -1.6998532540899645e+00 -3.3721663791435391e-01 3.2402982371793690e-02 -1.2740180143792037e+00 8.5294278504485754e-01 6.3076135599459104e-01 2.0486211075815994e+00 5.4718140286561900e-01 -1.2823649358718510e+00 5.5124686520567137e+00 -1.0726736214508381e+00 3.9874618998856592e-01 5.1698465776465430e-01 1.5310873477727078e+00 -7.1428854495386596e-01 -1.1670962740300272e-01 -1.2722985574930972e+00 -4.1491867481192362e+00 3.2825224906970263e+00 1.4383724837174010e+00 -6.6533604318304391e+00 -4.2428092831990860e-01 -8.7020355443065756e-01 1.6561104867999510e+00 -4.9805496265070504e-01 -1.5782373647118746e+00 -8.7308087998411454e-01 8.9102658257259915e-01 4.3642951768289935e+00 -1.5275499222117228e+00 1.6401844198815830e+01 -9.1434103542532530e-01 -2.2854543779035135e+00 1.9841267229074111e+00 1.8955455770996508e+00 -4.6573701289660940e-01 -1.3567827354217901e-01 2.8563701144513378e+00 -7.3681222610747295e+00 -8.6255175145162100e-01 1.3545542626341939e-01 
        </Neuron>
        <Neuron NSynapses="44">
          -1.4399367123891690e+01 -8.1343431651910549e+00 2.1318435793408961e+00 -4.7794322145365458e+00 -3.4744166656757988e-02 -9.1640438643667572e+00 -1.3231926752919290e+00 3.1712538094704095e+00 -3.5564365114500935e+00 -3.7074752418556711e+00 5.8542596823820752e+00 6.2713370330005782e+00 -9.6666177049717406e-01 1.0365964590303358e+00 2.6095246536299452e+00 6.2867261280151188e-01 -1.5741000193466830e+00 -4.6115307364009617e+00 -3.4241091547642789e+01 8.4865705707111214e+00 1.9994564345264711e+00 1.0466234597964674e+00 3.0718800792815042e+00 1.2847019657918780e+01 -4.7264872387172492e+00 1.9537788682958748e+00 -1.3870324575054764e+00 1.8565134351729586e+00 3.7019863503525516e+00 -2.0344897175987717e+00 2.8717050034428255e+00 5.6641204753823393e+00 -3.8480049957467977e-01 2.5314312774398058e+00 7.2324145575286702e-01 5.5652070122974007e-01 -4.0874956592180007e+00 7.1126624338218623e+00 -4.6975643066441108e+00 -3.1894941874834823e+00 6.3722612945617452e-01 1.3040481184522035e+00 7.8161391951806385e+00 -6.1427622262041046e+00 
        </Neuron>
        <Neuron NSynapses="44">
          1.4712702953463433e+01 7.8782834952822922e+00 1.6217459592267693e+00 4.7281875689315518e+00 -5.3285148027145484e+00 8.9430872597880082e+00 -4.7627600746754573e-01 -3.8674729052450627e+00 -9.6645914414935952e+00 2.3579921597272850e+00 -5.9515380139968137e+00 -6.0322475488825358e+00 -3.1494567626384162e-01 -9.1817151286218857e-01 -5.0021110548001895e+00 3.1930849302864099e-02 3.7793475330188628e+00 8.0518248675124160e-01 1.4591013905585152e+01 -6.0756545103927477e+00 2.2186823539695291e+00 -1.1110720478576610e+00 2.5754314935412409e-01 -9.7544873607456193e+00 9.7426949920134227e+00 -1.8692843470392229e+00 1.4627269439653472e+00 -2.6898129036968532e-01 2.0032411334841718e+00 1.6745513201712290e+00 -3.2405438554802402e+00 -5.6793840521222858e+00 -1.7928808758017076e+00 -2.3414600929773690e+00 6.3594097765788113e+00 2.0110212183449199e+00 5.3166022611982058e+00 3.5107917297668298e+00 3.7660769991818710e+00 3.3867330224664782e-01 -4.9194678231640410e-01 -8.9152357766503911e+00 -7.9432956517729734e+00 -6.3315995095031035e+00 
        </Neuron>
        <Neuron NSynapses="44">
          -4.0239391753431581e+00 -3.0886919342565489e+00 -1.4630423322796479e-02 -4.3876968450228606e+00 1.4541113264128254e+00 -2.1086722593117702e+00 3.2387481450107662e-02 -3.3575422599124660e-01 -6.0712720287451862e+00 -4.1104707655771717e+00 -1.6197210087427325e+00 4.0453232470850429e+00 1.3167236795469794e+00 -4.0325484512668597e+00 -1.1023982027927139e+00 1.0775323176939957e+00 -1.3958177906849252e+00 1.9582806985824355e-01 -5.7440495051883804e+00 -2.7052505452095255e+00 -1.6729701510059829e+00 -1.8918221739525933e+00 1.5324153467121233e+00 4.0006438335220169e+00 -1.7514513100763278e+00 1.9755067941085593e+00 3.9252444843253103e+00 -1.3710361256693033e+00 -5.5849021850597875e+00 2.6261557368050731e-01 2.0703428439493465e+00 1.5930558273364279e+00 -7.5702469314658483e-01 2.2334476831830319e+00 4.7778780036602325e-01 6.1109989731883019e-01 1.7295268752710518e+00 -4.5372661565459556e+00 8.3135740910390010e-01 2.1347554603138880e-01 -2.4124526798038519e+00 -4.2594054357410753e+00 3.0463787231022037e+00 3.7262078848445039e+00 
        </Neuron>
        <Neuron NSynapses="44">
          3.7635094713182586e+00 3.1722848367718615e+00 4.4399178960391722e-02 3.9942494654839873e+00 1.4682101587719167e+00 2.2669866370305800e+00 -1.7876241037044355e-03 5.4673426412496029e-01 -8.1101020082274662e+00 -2.9685409218709400e+00 1.4337639009953147e+00 -3.9685554031441388e+00 -5.9075008987124067e-01 3.9268771214766174e+00 1.7899268508838295e+00 -3.6244771796914182e-01 2.7087278011615568e+00 1.5156671107497180e-01 5.7531589194072712e+00 2.9240217250162073e+00 1.5778379176101707e+00 1.7894592716592661e+00 -7.5249755702930798e-02 -3.6751130965301770e-01 2.0180646232422030e+00 -1.7551531339916033e+00 -3.9659577363949432e+00 1.9306649804609832e+00 -1.7833403861629976e-01 -2.4264336083281290e-01 -2.0247883122251831e+00 -1.7455570395657960e+00 1.1960941077406440e+00 -2.0402412458477261e+00 1.5381475161950989e-01 3.9886771975263176e+00 -1.8717320635813277e+00 -6.1682006699178240e+00 -9.8032385965272151e-01 -3.7101967000528868e-01 2.9154314379783908e+00 4.7765430714052384e+00 -2.7325829244402677e+00 9.7391312319057821e-01 
        </Neuron>
        <Neuron NSynapses="44">
          -7.2076885612075273e-02 -9.2055560923543585e+00 3.7945284572506410e+00 2.7589161335580311e-02 -1.7371222285275798e+00 -2.3736015291982106e+01 6.8418127007481666e-01 8.1960535339414538e+00 1.8270231344826310e-01 1.0147609962588335e+00 3.5683424354084503e-02 -3.5708373616846631e-02 -4.5687134877176039e+00 1.3191779344418594e-01 -3.3009428819228659e-01 -1.6681148207955463e+00 -3.7004493123449418e+00 -4.1459774715245888e-02 -5.2680556022758161e+01 4.1286005916487539e-01 -9.1990701073706624e+00 -8.8971627031495401e-02 -6.6076083227144844e+00 -2.0142714596381989e-01 -3.0073528714163683e-01 2.4105177021343596e-01 -3.2259638292173112e-02 2.3393232192797478e-01 9.2620230470738889e+00 1.0014213024383008e-01 6.9536495018061487e-02 1.0535018029874732e-01 4.5616860050925440e-01 6.1752705519556930e-02 -5.1657821869692713e+00 -1.3207959659420732e+00 -5.9616397589151970e-01 -4.8950947750545032e-01 -1.0457311201237120e+01 -1.0119719762240071e+00 -5.6320786635822506e-01 -5.4954378066133760e+00 1.8307873339877359e-01 -7.6625631050972620e-01 
        </Neuron>
        <Neuron NSynapses="44">
          2.6159488209958877e+00 8.9486262819035922e-01 -4.3505508243530534e-02 2.2906784782646827e+00 3.1267974403147553e-01 -2.3962668893054331e+00 3.9062419596947490e-01 1.0505768241088806e+00 2.6129081529849252e+00 2.2066080937118465e-01 7.3577713597495431e-01 -3.9661420528094549e-01 -1.4563048365946136e+00 2.4638685098231257e+00 -3.7160988147773208e+00 -8.5559537678608049e+00 1.3286855690318631e+00 1.6216697309880985e+00 3.3351074514432755e-01 8.0990158464485056e+00 1.8448905244695897e+00 1.6488989373916393e-01 1.9866976229547286e+00 9.7504539834629245e-01 1.1006841380282182e+00 1.2302742208607012e-01 -1.1057717502763169e+00 -5.6066101272506907e-01 1.5098732746358210e+00 2.8988717990122432e+00 -1.2078780884409912e+00 -5.9730968460332312e-01 -1.2881749066438346e+00 -2.1833950176192607e+00 -2.8587112636414331e+00 -6.1403265994249798e+00 1.0868840593746127e+00 -4.4361264810418719e+00 3.6487275484005508e+00 -1.0997514127333348e+00 6.3144429091762233e-01 7.3332370296043852e+00 -1.0272948637358170e+00 -4.9443945508577398e+00 
        </Neuron>
        <Neuron NSynapses="44">
          -3.6247953848520078e+00 -7.1046741770213251e-01 -1.8099868141382885e-01 1.9105861551942449e+00 8.3414235480848586e-01 -3.3476671134917058e+00 1.2393981736675457e+00 -1.4567298183440849e+00 4.3377450598580918e+00 -4.8176683320548064e-01 3.7523119264429511e-01 6.1047801605220886e-01 -2.7509339436053430e+00 -2.0462733232053560e+00 1.1458525268106385e+00 -9.3523367767761858e+00 -2.1191098593564877e+00 1.7742510575245887e+00 -2.7103322759750853e-01 5.0144196466339981e+00 1.6404229485015309e+00 -1.4825519005821364e-01 1.6658380083498638e+00 -9.9772925244453259e-01 -1.0054185725936882e+00 -1.5644809291806863e-01 1.5978418797233380e+00 1.0975847047637746e-01 -1.0085688151020620e+00 3.1774058176612825e+00 1.4530850840441782e+00 5.3005807190698995e-01 3.4526678919327210e-02 2.3232820771210387e+00 -1.9915890851502003e+00 -5.7224436354441899e+00 -7.9027750556650123e-01 -3.1084622630617611e+00 -6.4323100947618161e-01 1.3167372507687138e+00 -2.7883422270982705e-01 6.3582936908150334e+00 1.2126458321474938e+00 -6.9266509361476416e+00 
        </Neuron>
        <Neuron NSynapses="44">
          8.2635609397361733e+00 2.2835063452678885e+00 2.3452897255028693e-01 -5.6361090680441563e+00 -1.1300929169650864e+00 7.4334106657038417e+00 -1.4566235682850998e-01 -2.1727868705374159e-01 1.1253668126875773e+00 4.1438995034378481e+00 1.8574010313652334e+00 -9.2210180123527081e+00 1.7942295054640935e+00 1.7411474907210962e+01 -1.2747703843764585e+01 8.8411095616615700e+00 6.2165890969449988e-01 4.0076379261000943e+00 2.1817056744922631e+01 -1.4743931045536685e+00 1.4669194040884170e+00 3.4150916561659601e+00 3.1917759203678675e-01 3.2629196815325319e+00 6.1175117194280570e+00 -9.2400193000408104e-01 -2.1686122613324311e+01 -2.9461777739733925e+00 1.0269915376388937e+01 1.0575185031833068e+00 -1.4875503069274179e+01 -1.0577535923485152e+01 1.2318908690233095e+00 -1.8612734032788772e+01 1.9769612247529025e+00 1.1121369403770278e+00 3.5976102806392796e-01 7.1507315498826574e-01 1.4593554561751831e+00 -6.4685191047372319e+00 -1.8281322898513943e+00 8.6727224387003048e+00 -9.9889324499061782e+00 1.0320895322454540e+00 
        </Neuron>
      </Layer>
      <Layer Index="1" NNeurons="45">
        <Neuron NSynapses="1">
          5.7208059041777692e-01 
        </Neuron>
        <Neuron NSynapses="1">
          -1.5638285844431012e+00 
        </Neuron>
        <Neuron NSynapses="1">
          7.7212053084522818e+00 
        </Neuron>
        <Neuron NSynapses="1">
          5.6113421552145992e-01 
        </Neuron>
        <Neuron NSynapses="1">
          4.1339998792256932e-01 
        </Neuron>
        <Neuron NSynapses="1">
          7.3270033524670808e-01 
        </Neuron>
        <Neuron NSynapses="1">
          9.6083428713806296e-01 
        </Neuron>
        <Neuron NSynapses="1">
          3.6673895550087882e-01 
        </Neuron>
        <Neuron NSynapses="1">
          5.7084313764673389e-01 
        </Neuron>
        <Neuron NSynapses="1">
          4.5426036275177956e-01 
        </Neuron>
        <Neuron NSynapses="1">
          -5.5304844152225063e-01 
        </Neuron>
        <Neuron NSynapses="1">
          -3.9888907887710767e-01 
        </Neuron>
        <Neuron NSynapses="1">
          2.3372522682758157e+00 
        </Neuron>
        <Neuron NSynapses="1">
          6.5569225947624166e-01 
        </Neuron>
        <Neuron NSynapses="1">
          -3.5466512503457437e-01 
        </Neuron>
        <Neuron NSynapses="1">
          9.7103078877121285e-01 
        </Neuron>
        <Neuron NSynapses="1">
          4.0028839063471304e+00 
        </Neuron>
        <Neuron NSynapses="1">
          -6.6285646178576541e-01 
        </Neuron>
        <Neuron NSynapses="1">
          8.5081912887436246e+00 
        </Neuron>
        <Neuron NSynapses="1">
          1.2887957571112680e+00 
        </Neuron>
        <Neuron NSynapses="1">
          7.0014797905125481e-01 
        </Neuron>
        <Neuron NSynapses="1">
          7.3101676465852405e-01 
        </Neuron>
        <Neuron NSynapses="1">
          -4.6517983559126680e-01 
        </Neuron>
        <Neuron NSynapses="1">
          1.2253936302724013e+00 
        </Neuron>
        <Neuron NSynapses="1">
          4.2128443885172207e-01 
        </Neuron>
        <Neuron NSynapses="1">
          -4.8439945349205094e-01 
        </Neuron>
        <Neuron NSynapses="1">
          -6.6471563323079697e-01 
        </Neuron>
        <Neuron NSynapses="1">
          -1.8618493984957589e+00 
        </Neuron>
        <Neuron NSynapses="1">
          9.3161831782912419e-01 
        </Neuron>
        <Neuron NSynapses="1">
          1.0153378609345576e+00 
        </Neuron>
        <Neuron NSynapses="1">
          -4.7529693732035649e-01 
        </Neuron>
        <Neuron NSynapses="1">
          -8.1547036421588204e-01 
        </Neuron>
        <Neuron NSynapses="1">
          -1.4984273123041791e+00 
        </Neuron>
        <Neuron NSynapses="1">
          -6.5837199269421243e-01 
        </Neuron>
        <Neuron NSynapses="1">
          1.0346346076472839e+00 
        </Neuron>
        <Neuron NSynapses="1">
          4.7946682223473031e-01 
        </Neuron>
        <Neuron NSynapses="1">
          -6.4241029754452883e-01 
        </Neuron>
        <Neuron NSynapses="1">
          -7.6672945858591535e-01 
        </Neuron>
        <Neuron NSynapses="1">
          5.9356351125907225e-01 
        </Neuron>
        <Neuron NSynapses="1">
          -7.9753119836182906e-01 
        </Neuron>
        <Neuron NSynapses="1">
          1.8742404789950697e+00 
        </Neuron>
        <Neuron NSynapses="1">
          2.7382047392036868e-01 
        </Neuron>
        <Neuron NSynapses="1">
          -4.1293983454184924e-01 
        </Neuron>
        <Neuron NSynapses="1">
          5.6720533588138311e-01 
        </Neuron>
        <Neuron NSynapses="1">
          -3.2890210365510422e+00 
        </Neuron>
      </Layer>
      <Layer Index="2" NNeurons="1">
        <Neuron NSynapses="0"/>
      </Layer>
    </Layout>
  </Weights>
</MethodSetup>
