<?xml version="1.0"?>
<MethodSetup Method="MLP::Pion_Long_TMVA">
  <GeneralInfo>
    <Info name="TMVA Release" value="4.2.0 [262656]"/>
    <Info name="ROOT Release" value="6.02/01 [393729]"/>
    <Info name="Creator" value="jonesc"/>
    <Info name="Date" value="Thu Feb  4 09:39:13 2016"/>
    <Info name="Host" value="Linux lcgapp-slc6-physical1.cern.ch 2.6.32-431.29.2.el6.x86_64 #1 SMP Wed Sep 10 11:13:12 CEST 2014 x86_64 x86_64 x86_64 GNU/Linux"/>
    <Info name="Dir" value="/var/pcfst/r03/lhcb/jonesc/ANNPID/results/MC2015Sim09Dev03/TrainMixture/TrainPhysTks-EvalPhysTks-NoReweight/GhostAccFrac0.1/TMVA-Run2-NoTkLikCDVelodEdx/MLP/Norm/ScaleF1.4/BP/NCycles750/CE/tanh/CVTest15/CVImp1e-16/NotUseRegulator/Pion/Long"/>
    <Info name="Training events" value="1830900"/>
    <Info name="TrainingTime" value="7.00090072e+04"/>
    <Info name="AnalysisType" value="Classification"/>
  </GeneralInfo>
  <Options>
    <Option name="NCycles" modified="Yes">750</Option>
    <Option name="HiddenLayers" modified="Yes">44</Option>
    <Option name="NeuronType" modified="Yes">tanh</Option>
    <Option name="RandomSeed" modified="No">1</Option>
    <Option name="EstimatorType" modified="Yes">CE</Option>
    <Option name="NeuronInputType" modified="No">sum</Option>
    <Option name="V" modified="Yes">True</Option>
    <Option name="VerbosityLevel" modified="No">Verbose</Option>
    <Option name="VarTransform" modified="Yes">Norm</Option>
    <Option name="H" modified="Yes">True</Option>
    <Option name="CreateMVAPdfs" modified="No">False</Option>
    <Option name="IgnoreNegWeightsInTraining" modified="No">False</Option>
    <Option name="TrainingMethod" modified="Yes">BP</Option>
    <Option name="LearningRate" modified="No">2.000000e-02</Option>
    <Option name="DecayRate" modified="No">1.000000e-02</Option>
    <Option name="TestRate" modified="No">10</Option>
    <Option name="EpochMonitoring" modified="Yes">True</Option>
    <Option name="Sampling" modified="No">1.000000e+00</Option>
    <Option name="SamplingEpoch" modified="No">1.000000e+00</Option>
    <Option name="SamplingImportance" modified="No">1.000000e+00</Option>
    <Option name="SamplingTraining" modified="No">True</Option>
    <Option name="SamplingTesting" modified="No">False</Option>
    <Option name="ResetStep" modified="No">50</Option>
    <Option name="Tau" modified="No">3.000000e+00</Option>
    <Option name="BPMode" modified="No">sequential</Option>
    <Option name="BatchSize" modified="No">-1</Option>
    <Option name="ConvergenceImprove" modified="Yes">1.000000e-16</Option>
    <Option name="ConvergenceTests" modified="Yes">15</Option>
    <Option name="UseRegulator" modified="Yes">False</Option>
    <Option name="UpdateLimit" modified="No">10000</Option>
    <Option name="CalculateErrors" modified="No">False</Option>
    <Option name="WeightRange" modified="No">1.000000e+00</Option>
  </Options>
  <Variables NVar="32">
    <Variable VarIndex="0" Expression="TrackP" Label="TrackP" Title="TrackP" Unit="" Internal="TrackP" Type="F" Min="1.12504004e+03" Max="3.54185750e+06"/>
    <Variable VarIndex="1" Expression="TrackPt" Label="TrackPt" Title="TrackPt" Unit="" Internal="TrackPt" Type="F" Min="5.82347631e+00" Max="1.26462984e+05"/>
    <Variable VarIndex="2" Expression="TrackChi2PerDof" Label="TrackChi2PerDof" Title="TrackChi2PerDof" Unit="" Internal="TrackChi2PerDof" Type="F" Min="1.18070714e-01" Max="3.99964690e+00"/>
    <Variable VarIndex="3" Expression="TrackNumDof" Label="TrackNumDof" Title="TrackNumDof" Unit="" Internal="TrackNumDof" Type="I" Min="7.00000000e+00" Max="5.00000000e+01"/>
    <Variable VarIndex="4" Expression="TrackGhostProbability" Label="TrackGhostProbability" Title="TrackGhostProbability" Unit="" Internal="TrackGhostProbability" Type="F" Min="1.44435663e-03" Max="3.99996072e-01"/>
    <Variable VarIndex="5" Expression="TrackFitMatchChi2" Label="TrackFitMatchChi2" Title="TrackFitMatchChi2" Unit="" Internal="TrackFitMatchChi2" Type="F" Min="6.61066454e-03" Max="1.30483353e+02"/>
    <Variable VarIndex="6" Expression="TrackFitVeloChi2" Label="TrackFitVeloChi2" Title="TrackFitVeloChi2" Unit="" Internal="TrackFitVeloChi2" Type="F" Min="2.65251060e-07" Max="9.78307419e+01"/>
    <Variable VarIndex="7" Expression="TrackFitVeloNDoF" Label="TrackFitVeloNDoF" Title="TrackFitVeloNDoF" Unit="" Internal="TrackFitVeloNDoF" Type="I" Min="1.00000000e+00" Max="2.20000000e+01"/>
    <Variable VarIndex="8" Expression="TrackFitTChi2" Label="TrackFitTChi2" Title="TrackFitTChi2" Unit="" Internal="TrackFitTChi2" Type="F" Min="2.79399217e-03" Max="1.24245949e+02"/>
    <Variable VarIndex="9" Expression="TrackFitTNDoF" Label="TrackFitTNDoF" Title="TrackFitTNDoF" Unit="" Internal="TrackFitTNDoF" Type="I" Min="1.00000000e+00" Max="3.10000000e+01"/>
    <Variable VarIndex="10" Expression="RichUsedR1Gas" Label="RichUsedR1Gas" Title="RichUsedR1Gas" Unit="" Internal="RichUsedR1Gas" Type="I" Min="0.00000000e+00" Max="1.00000000e+00"/>
    <Variable VarIndex="11" Expression="RichUsedR2Gas" Label="RichUsedR2Gas" Title="RichUsedR2Gas" Unit="" Internal="RichUsedR2Gas" Type="I" Min="0.00000000e+00" Max="1.00000000e+00"/>
    <Variable VarIndex="12" Expression="RichAbovePiThres" Label="RichAbovePiThres" Title="RichAbovePiThres" Unit="" Internal="RichAbovePiThres" Type="I" Min="0.00000000e+00" Max="1.00000000e+00"/>
    <Variable VarIndex="13" Expression="RichAboveKaThres" Label="RichAboveKaThres" Title="RichAboveKaThres" Unit="" Internal="RichAboveKaThres" Type="I" Min="0.00000000e+00" Max="1.00000000e+00"/>
    <Variable VarIndex="14" Expression="RichDLLe" Label="RichDLLe" Title="RichDLLe" Unit="" Internal="RichDLLe" Type="F" Min="-9.99000000e+02" Max="1.72296494e+02"/>
    <Variable VarIndex="15" Expression="RichDLLmu" Label="RichDLLmu" Title="RichDLLmu" Unit="" Internal="RichDLLmu" Type="F" Min="-9.99000000e+02" Max="1.24875801e+02"/>
    <Variable VarIndex="16" Expression="RichDLLk" Label="RichDLLk" Title="RichDLLk" Unit="" Internal="RichDLLk" Type="F" Min="-9.99000000e+02" Max="1.77720001e+02"/>
    <Variable VarIndex="17" Expression="RichDLLp" Label="RichDLLp" Title="RichDLLp" Unit="" Internal="RichDLLp" Type="F" Min="-9.99000000e+02" Max="1.41187500e+02"/>
    <Variable VarIndex="18" Expression="RichDLLbt" Label="RichDLLbt" Title="RichDLLbt" Unit="" Internal="RichDLLbt" Type="F" Min="-9.99000000e+02" Max="7.46144028e+01"/>
    <Variable VarIndex="19" Expression="MuonBkgLL" Label="MuonBkgLL" Title="MuonBkgLL" Unit="" Internal="MuonBkgLL" Type="F" Min="-9.99000000e+02" Max="2.20999997e-02"/>
    <Variable VarIndex="20" Expression="MuonMuLL" Label="MuonMuLL" Title="MuonMuLL" Unit="" Internal="MuonMuLL" Type="F" Min="-9.99000000e+02" Max="0.00000000e+00"/>
    <Variable VarIndex="21" Expression="MuonIsMuon" Label="MuonIsMuon" Title="MuonIsMuon" Unit="" Internal="MuonIsMuon" Type="I" Min="0.00000000e+00" Max="1.00000000e+00"/>
    <Variable VarIndex="22" Expression="MuonNShared" Label="MuonNShared" Title="MuonNShared" Unit="" Internal="MuonNShared" Type="I" Min="0.00000000e+00" Max="3.80000000e+01"/>
    <Variable VarIndex="23" Expression="InAccMuon" Label="InAccMuon" Title="InAccMuon" Unit="" Internal="InAccMuon" Type="I" Min="0.00000000e+00" Max="1.00000000e+00"/>
    <Variable VarIndex="24" Expression="MuonIsLooseMuon" Label="MuonIsLooseMuon" Title="MuonIsLooseMuon" Unit="" Internal="MuonIsLooseMuon" Type="I" Min="0.00000000e+00" Max="1.00000000e+00"/>
    <Variable VarIndex="25" Expression="EcalPIDe" Label="EcalPIDe" Title="EcalPIDe" Unit="" Internal="EcalPIDe" Type="F" Min="-9.99000000e+02" Max="4.34127378e+00"/>
    <Variable VarIndex="26" Expression="EcalPIDmu" Label="EcalPIDmu" Title="EcalPIDmu" Unit="" Internal="EcalPIDmu" Type="F" Min="-9.99000000e+02" Max="2.15297604e+00"/>
    <Variable VarIndex="27" Expression="HcalPIDe" Label="HcalPIDe" Title="HcalPIDe" Unit="" Internal="HcalPIDe" Type="F" Min="-9.99000000e+02" Max="3.00366545e+00"/>
    <Variable VarIndex="28" Expression="HcalPIDmu" Label="HcalPIDmu" Title="HcalPIDmu" Unit="" Internal="HcalPIDmu" Type="F" Min="-9.99000000e+02" Max="2.87338901e+00"/>
    <Variable VarIndex="29" Expression="PrsPIDe" Label="PrsPIDe" Title="PrsPIDe" Unit="" Internal="PrsPIDe" Type="F" Min="-9.99000000e+02" Max="3.46313500e+00"/>
    <Variable VarIndex="30" Expression="InAccBrem" Label="InAccBrem" Title="InAccBrem" Unit="" Internal="InAccBrem" Type="I" Min="0.00000000e+00" Max="1.00000000e+00"/>
    <Variable VarIndex="31" Expression="BremPIDe" Label="BremPIDe" Title="BremPIDe" Unit="" Internal="BremPIDe" Type="F" Min="-9.99000000e+02" Max="4.79148388e+00"/>
  </Variables>
  <Spectators NSpec="0"/>
  <Classes NClass="2">
    <Class Name="Signal" Index="0"/>
    <Class Name="Background" Index="1"/>
  </Classes>
  <Transformations NTransformations="1">
    <Transform Name="Normalize">
      <Selection>
        <Input NInputs="32">
          <Input Type="Variable" Label="TrackP" Expression="TrackP"/>
          <Input Type="Variable" Label="TrackPt" Expression="TrackPt"/>
          <Input Type="Variable" Label="TrackChi2PerDof" Expression="TrackChi2PerDof"/>
          <Input Type="Variable" Label="TrackNumDof" Expression="TrackNumDof"/>
          <Input Type="Variable" Label="TrackGhostProbability" Expression="TrackGhostProbability"/>
          <Input Type="Variable" Label="TrackFitMatchChi2" Expression="TrackFitMatchChi2"/>
          <Input Type="Variable" Label="TrackFitVeloChi2" Expression="TrackFitVeloChi2"/>
          <Input Type="Variable" Label="TrackFitVeloNDoF" Expression="TrackFitVeloNDoF"/>
          <Input Type="Variable" Label="TrackFitTChi2" Expression="TrackFitTChi2"/>
          <Input Type="Variable" Label="TrackFitTNDoF" Expression="TrackFitTNDoF"/>
          <Input Type="Variable" Label="RichUsedR1Gas" Expression="RichUsedR1Gas"/>
          <Input Type="Variable" Label="RichUsedR2Gas" Expression="RichUsedR2Gas"/>
          <Input Type="Variable" Label="RichAbovePiThres" Expression="RichAbovePiThres"/>
          <Input Type="Variable" Label="RichAboveKaThres" Expression="RichAboveKaThres"/>
          <Input Type="Variable" Label="RichDLLe" Expression="RichDLLe"/>
          <Input Type="Variable" Label="RichDLLmu" Expression="RichDLLmu"/>
          <Input Type="Variable" Label="RichDLLk" Expression="RichDLLk"/>
          <Input Type="Variable" Label="RichDLLp" Expression="RichDLLp"/>
          <Input Type="Variable" Label="RichDLLbt" Expression="RichDLLbt"/>
          <Input Type="Variable" Label="MuonBkgLL" Expression="MuonBkgLL"/>
          <Input Type="Variable" Label="MuonMuLL" Expression="MuonMuLL"/>
          <Input Type="Variable" Label="MuonIsMuon" Expression="MuonIsMuon"/>
          <Input Type="Variable" Label="MuonNShared" Expression="MuonNShared"/>
          <Input Type="Variable" Label="InAccMuon" Expression="InAccMuon"/>
          <Input Type="Variable" Label="MuonIsLooseMuon" Expression="MuonIsLooseMuon"/>
          <Input Type="Variable" Label="EcalPIDe" Expression="EcalPIDe"/>
          <Input Type="Variable" Label="EcalPIDmu" Expression="EcalPIDmu"/>
          <Input Type="Variable" Label="HcalPIDe" Expression="HcalPIDe"/>
          <Input Type="Variable" Label="HcalPIDmu" Expression="HcalPIDmu"/>
          <Input Type="Variable" Label="PrsPIDe" Expression="PrsPIDe"/>
          <Input Type="Variable" Label="InAccBrem" Expression="InAccBrem"/>
          <Input Type="Variable" Label="BremPIDe" Expression="BremPIDe"/>
        </Input>
        <Output NOutputs="32">
          <Output Type="Variable" Label="TrackP" Expression="TrackP"/>
          <Output Type="Variable" Label="TrackPt" Expression="TrackPt"/>
          <Output Type="Variable" Label="TrackChi2PerDof" Expression="TrackChi2PerDof"/>
          <Output Type="Variable" Label="TrackNumDof" Expression="TrackNumDof"/>
          <Output Type="Variable" Label="TrackGhostProbability" Expression="TrackGhostProbability"/>
          <Output Type="Variable" Label="TrackFitMatchChi2" Expression="TrackFitMatchChi2"/>
          <Output Type="Variable" Label="TrackFitVeloChi2" Expression="TrackFitVeloChi2"/>
          <Output Type="Variable" Label="TrackFitVeloNDoF" Expression="TrackFitVeloNDoF"/>
          <Output Type="Variable" Label="TrackFitTChi2" Expression="TrackFitTChi2"/>
          <Output Type="Variable" Label="TrackFitTNDoF" Expression="TrackFitTNDoF"/>
          <Output Type="Variable" Label="RichUsedR1Gas" Expression="RichUsedR1Gas"/>
          <Output Type="Variable" Label="RichUsedR2Gas" Expression="RichUsedR2Gas"/>
          <Output Type="Variable" Label="RichAbovePiThres" Expression="RichAbovePiThres"/>
          <Output Type="Variable" Label="RichAboveKaThres" Expression="RichAboveKaThres"/>
          <Output Type="Variable" Label="RichDLLe" Expression="RichDLLe"/>
          <Output Type="Variable" Label="RichDLLmu" Expression="RichDLLmu"/>
          <Output Type="Variable" Label="RichDLLk" Expression="RichDLLk"/>
          <Output Type="Variable" Label="RichDLLp" Expression="RichDLLp"/>
          <Output Type="Variable" Label="RichDLLbt" Expression="RichDLLbt"/>
          <Output Type="Variable" Label="MuonBkgLL" Expression="MuonBkgLL"/>
          <Output Type="Variable" Label="MuonMuLL" Expression="MuonMuLL"/>
          <Output Type="Variable" Label="MuonIsMuon" Expression="MuonIsMuon"/>
          <Output Type="Variable" Label="MuonNShared" Expression="MuonNShared"/>
          <Output Type="Variable" Label="InAccMuon" Expression="InAccMuon"/>
          <Output Type="Variable" Label="MuonIsLooseMuon" Expression="MuonIsLooseMuon"/>
          <Output Type="Variable" Label="EcalPIDe" Expression="EcalPIDe"/>
          <Output Type="Variable" Label="EcalPIDmu" Expression="EcalPIDmu"/>
          <Output Type="Variable" Label="HcalPIDe" Expression="HcalPIDe"/>
          <Output Type="Variable" Label="HcalPIDmu" Expression="HcalPIDmu"/>
          <Output Type="Variable" Label="PrsPIDe" Expression="PrsPIDe"/>
          <Output Type="Variable" Label="InAccBrem" Expression="InAccBrem"/>
          <Output Type="Variable" Label="BremPIDe" Expression="BremPIDe"/>
        </Output>
      </Selection>
      <Class ClassIndex="0">
        <Ranges>
          <Range Index="0" Min="1.1250400390625000e+03" Max="7.1332725000000000e+05"/>
          <Range Index="1" Min="7.5408296585083008e+00" Max="2.8986732421875000e+04"/>
          <Range Index="2" Min="1.1807071417570114e-01" Max="3.9994952678680420e+00"/>
          <Range Index="3" Min="7.0000000000000000e+00" Max="5.0000000000000000e+01"/>
          <Range Index="4" Min="1.4443566324189305e-03" Max="3.9999607205390930e-01"/>
          <Range Index="5" Min="6.8503241054713726e-03" Max="1.3048335266113281e+02"/>
          <Range Index="6" Min="2.6525106022745604e-07" Max="9.7830741882324219e+01"/>
          <Range Index="7" Min="1.0000000000000000e+00" Max="2.2000000000000000e+01"/>
          <Range Index="8" Min="2.7939921710640192e-03" Max="1.2424594879150391e+02"/>
          <Range Index="9" Min="1.0000000000000000e+00" Max="3.1000000000000000e+01"/>
          <Range Index="10" Min="0.0000000000000000e+00" Max="1.0000000000000000e+00"/>
          <Range Index="11" Min="0.0000000000000000e+00" Max="1.0000000000000000e+00"/>
          <Range Index="12" Min="0.0000000000000000e+00" Max="1.0000000000000000e+00"/>
          <Range Index="13" Min="0.0000000000000000e+00" Max="1.0000000000000000e+00"/>
          <Range Index="14" Min="-9.9900000000000000e+02" Max="8.8962303161621094e+01"/>
          <Range Index="15" Min="-9.9900000000000000e+02" Max="1.0072550201416016e+02"/>
          <Range Index="16" Min="-9.9900000000000000e+02" Max="8.8708801269531250e+01"/>
          <Range Index="17" Min="-9.9900000000000000e+02" Max="4.9463600158691406e+01"/>
          <Range Index="18" Min="-9.9900000000000000e+02" Max="5.2654399871826172e+01"/>
          <Range Index="19" Min="-9.9900000000000000e+02" Max="2.2099999710917473e-02"/>
          <Range Index="20" Min="-9.9900000000000000e+02" Max="0.0000000000000000e+00"/>
          <Range Index="21" Min="0.0000000000000000e+00" Max="1.0000000000000000e+00"/>
          <Range Index="22" Min="0.0000000000000000e+00" Max="3.7000000000000000e+01"/>
          <Range Index="23" Min="0.0000000000000000e+00" Max="1.0000000000000000e+00"/>
          <Range Index="24" Min="0.0000000000000000e+00" Max="1.0000000000000000e+00"/>
          <Range Index="25" Min="-9.9900000000000000e+02" Max="4.3412737846374512e+00"/>
          <Range Index="26" Min="-9.9900000000000000e+02" Max="2.1529760360717773e+00"/>
          <Range Index="27" Min="-9.9900000000000000e+02" Max="2.4863731861114502e+00"/>
          <Range Index="28" Min="-9.9900000000000000e+02" Max="2.8733890056610107e+00"/>
          <Range Index="29" Min="-9.9900000000000000e+02" Max="3.4631350040435791e+00"/>
          <Range Index="30" Min="0.0000000000000000e+00" Max="1.0000000000000000e+00"/>
          <Range Index="31" Min="-9.9900000000000000e+02" Max="4.7914838790893555e+00"/>
        </Ranges>
      </Class>
      <Class ClassIndex="1">
        <Ranges>
          <Range Index="0" Min="1.1388800048828125e+03" Max="3.5418575000000000e+06"/>
          <Range Index="1" Min="5.8234763145446777e+00" Max="1.2646298437500000e+05"/>
          <Range Index="2" Min="1.7162275314331055e-01" Max="3.9996469020843506e+00"/>
          <Range Index="3" Min="7.0000000000000000e+00" Max="4.9000000000000000e+01"/>
          <Range Index="4" Min="1.4669052325189114e-03" Max="3.9999505877494812e-01"/>
          <Range Index="5" Min="6.6106645390391350e-03" Max="1.2747277069091797e+02"/>
          <Range Index="6" Min="4.1836560740193818e-06" Max="9.4447128295898438e+01"/>
          <Range Index="7" Min="1.0000000000000000e+00" Max="2.2000000000000000e+01"/>
          <Range Index="8" Min="5.1718014292418957e-03" Max="1.0617280578613281e+02"/>
          <Range Index="9" Min="1.0000000000000000e+00" Max="2.9000000000000000e+01"/>
          <Range Index="10" Min="0.0000000000000000e+00" Max="1.0000000000000000e+00"/>
          <Range Index="11" Min="0.0000000000000000e+00" Max="1.0000000000000000e+00"/>
          <Range Index="12" Min="0.0000000000000000e+00" Max="1.0000000000000000e+00"/>
          <Range Index="13" Min="0.0000000000000000e+00" Max="1.0000000000000000e+00"/>
          <Range Index="14" Min="-9.9900000000000000e+02" Max="1.7229649353027344e+02"/>
          <Range Index="15" Min="-9.9900000000000000e+02" Max="1.2487580108642578e+02"/>
          <Range Index="16" Min="-9.9900000000000000e+02" Max="1.7772000122070312e+02"/>
          <Range Index="17" Min="-9.9900000000000000e+02" Max="1.4118750000000000e+02"/>
          <Range Index="18" Min="-9.9900000000000000e+02" Max="7.4614402770996094e+01"/>
          <Range Index="19" Min="-9.9900000000000000e+02" Max="1.4100000262260437e-02"/>
          <Range Index="20" Min="-9.9900000000000000e+02" Max="0.0000000000000000e+00"/>
          <Range Index="21" Min="0.0000000000000000e+00" Max="1.0000000000000000e+00"/>
          <Range Index="22" Min="0.0000000000000000e+00" Max="3.8000000000000000e+01"/>
          <Range Index="23" Min="0.0000000000000000e+00" Max="1.0000000000000000e+00"/>
          <Range Index="24" Min="0.0000000000000000e+00" Max="1.0000000000000000e+00"/>
          <Range Index="25" Min="-9.9900000000000000e+02" Max="4.3412737846374512e+00"/>
          <Range Index="26" Min="-9.9900000000000000e+02" Max="2.1529760360717773e+00"/>
          <Range Index="27" Min="-9.9900000000000000e+02" Max="3.0036654472351074e+00"/>
          <Range Index="28" Min="-9.9900000000000000e+02" Max="2.8733890056610107e+00"/>
          <Range Index="29" Min="-9.9900000000000000e+02" Max="3.4631350040435791e+00"/>
          <Range Index="30" Min="0.0000000000000000e+00" Max="1.0000000000000000e+00"/>
          <Range Index="31" Min="-9.9900000000000000e+02" Max="4.7914838790893555e+00"/>
        </Ranges>
      </Class>
      <Class ClassIndex="2">
        <Ranges>
          <Range Index="0" Min="1.1250400390625000e+03" Max="3.5418575000000000e+06"/>
          <Range Index="1" Min="5.8234763145446777e+00" Max="1.2646298437500000e+05"/>
          <Range Index="2" Min="1.1807071417570114e-01" Max="3.9996469020843506e+00"/>
          <Range Index="3" Min="7.0000000000000000e+00" Max="5.0000000000000000e+01"/>
          <Range Index="4" Min="1.4443566324189305e-03" Max="3.9999607205390930e-01"/>
          <Range Index="5" Min="6.6106645390391350e-03" Max="1.3048335266113281e+02"/>
          <Range Index="6" Min="2.6525106022745604e-07" Max="9.7830741882324219e+01"/>
          <Range Index="7" Min="1.0000000000000000e+00" Max="2.2000000000000000e+01"/>
          <Range Index="8" Min="2.7939921710640192e-03" Max="1.2424594879150391e+02"/>
          <Range Index="9" Min="1.0000000000000000e+00" Max="3.1000000000000000e+01"/>
          <Range Index="10" Min="0.0000000000000000e+00" Max="1.0000000000000000e+00"/>
          <Range Index="11" Min="0.0000000000000000e+00" Max="1.0000000000000000e+00"/>
          <Range Index="12" Min="0.0000000000000000e+00" Max="1.0000000000000000e+00"/>
          <Range Index="13" Min="0.0000000000000000e+00" Max="1.0000000000000000e+00"/>
          <Range Index="14" Min="-9.9900000000000000e+02" Max="1.7229649353027344e+02"/>
          <Range Index="15" Min="-9.9900000000000000e+02" Max="1.2487580108642578e+02"/>
          <Range Index="16" Min="-9.9900000000000000e+02" Max="1.7772000122070312e+02"/>
          <Range Index="17" Min="-9.9900000000000000e+02" Max="1.4118750000000000e+02"/>
          <Range Index="18" Min="-9.9900000000000000e+02" Max="7.4614402770996094e+01"/>
          <Range Index="19" Min="-9.9900000000000000e+02" Max="2.2099999710917473e-02"/>
          <Range Index="20" Min="-9.9900000000000000e+02" Max="0.0000000000000000e+00"/>
          <Range Index="21" Min="0.0000000000000000e+00" Max="1.0000000000000000e+00"/>
          <Range Index="22" Min="0.0000000000000000e+00" Max="3.8000000000000000e+01"/>
          <Range Index="23" Min="0.0000000000000000e+00" Max="1.0000000000000000e+00"/>
          <Range Index="24" Min="0.0000000000000000e+00" Max="1.0000000000000000e+00"/>
          <Range Index="25" Min="-9.9900000000000000e+02" Max="4.3412737846374512e+00"/>
          <Range Index="26" Min="-9.9900000000000000e+02" Max="2.1529760360717773e+00"/>
          <Range Index="27" Min="-9.9900000000000000e+02" Max="3.0036654472351074e+00"/>
          <Range Index="28" Min="-9.9900000000000000e+02" Max="2.8733890056610107e+00"/>
          <Range Index="29" Min="-9.9900000000000000e+02" Max="3.4631350040435791e+00"/>
          <Range Index="30" Min="0.0000000000000000e+00" Max="1.0000000000000000e+00"/>
          <Range Index="31" Min="-9.9900000000000000e+02" Max="4.7914838790893555e+00"/>
        </Ranges>
      </Class>
    </Transform>
  </Transformations>
  <MVAPdfs/>
  <Weights>
    <Layout NLayers="3">
      <Layer Index="0" NNeurons="33">
        <Neuron NSynapses="44">
          -7.2240667771336797e+00 6.9234729586642985e+00 -2.5846904520793839e+00 4.7481759650046333e+00 -1.4059721711449886e+00 9.4098257345457137e-01 -2.9891810591998125e+00 1.5147917512199343e+00 -4.8973117338099054e-01 -1.4055785866994503e+00 -2.2326926265138765e+00 5.4390087115320493e-02 -3.3766964309647065e+00 -7.0334781721854958e+00 8.6991325566015965e-01 1.2369867214937211e+00 -9.7507183564715072e-01 -6.3541164771540948e-01 -1.7000452918166872e+01 4.7226914672236575e-01 -5.4649168400956949e-01 -1.8953812590203314e-01 -1.1798581464009590e-01 1.4733411338164755e+00 -3.2271135918570000e+00 -3.1357063039984072e+00 9.2004981701152466e-01 -8.8867380115587711e+00 1.7163436152594009e+00 -1.9599083565182876e-01 -1.9133158753417028e+00 2.0671528921606757e+00 -8.7670292194110644e-01 -1.1924118461825980e+01 1.4700627977907821e+00 1.3083693654763332e+01 -1.2923281965356022e+00 4.7479057360082022e+00 -1.8893855910345309e-01 1.3606531054569604e+00 -2.5021758904643920e-02 3.4030653851012582e-01 2.4054040029300857e+01 3.9824896183460470e+00 
        </Neuron>
        <Neuron NSynapses="44">
          -2.6533299018216454e+01 1.5981338470607902e+01 3.4901913733965366e+00 -4.9258081781243757e+00 3.6230533511622056e+00 3.8732954172486203e+00 2.8640169271715044e-01 1.1146029083156508e+00 -1.1441096247925864e+00 -2.3521388751314607e+00 -2.3739353538304209e+00 -5.4733269147863428e-01 -1.8382080354179898e+01 -1.0636240585278031e+01 7.6445198463407698e+00 1.2166679680070838e+00 -2.1809266198388970e+00 2.7716680109002709e+00 -1.8230889277411361e+01 -1.9610371593806413e+00 1.4877138298082453e+00 -9.7681572542383199e-01 -3.8261903877217834e-01 -2.7912071628256624e-01 -1.0825650143869705e+00 -4.8533046426318749e-01 -1.4641790240869494e+00 -2.0263884324031700e+01 -8.7624355858908309e+00 7.3933478911547219e+00 9.5619253912464313e+00 1.7970550984934903e+01 3.7688964877759172e+00 -2.0143466415388179e+01 5.4550029062269567e-01 1.4132252277081378e+01 2.3869433583377977e+00 1.0266138328075938e+00 -9.6571315621220166e-01 -1.3149296138504176e+00 -3.1056061649823694e+00 -1.3034232611135817e+01 2.8200234374209906e+01 9.2537567748178944e+00 
        </Neuron>
        <Neuron NSynapses="44">
          -8.7590007863899455e-01 -1.5274916435115964e+00 1.2418501196332510e-01 1.6671406500836428e-01 9.4946703548314004e-01 -1.4643665409811230e-01 -1.3569504444299774e+00 3.7717566674090861e-02 -4.6942769696178688e-01 -8.1914647928491069e-02 7.5095931698628893e-01 3.1280943263237027e+00 3.8582426484126958e-01 -2.6570934921615119e-01 7.5238175610048275e-01 7.1251541726615797e-01 -1.0740530485967549e-01 8.7447050632746925e-01 -3.2737180379573233e-01 -5.6594834116279624e-01 2.5113552436821815e+00 -5.3246540791342378e-01 3.6732483021148749e-01 6.6608561254380572e-01 -2.2567673724334387e+00 -3.4242599096415588e-01 2.8053286177240599e-01 -4.6283795895146074e-01 9.6652252843013930e-02 -1.7896568981057581e-01 -1.1208765445909064e+00 1.1511930476957621e-01 -7.0034872509931723e-01 2.1000642963857732e-01 1.0113772828993255e+00 4.6509447109236068e-01 1.8246464896205941e-01 -1.2908129854452071e+00 -1.6928216393394921e+00 3.7255580279222328e-01 -8.1471549294789858e-01 -1.0477253758744705e+00 -1.3627270980824937e-02 -1.9841655210874126e-01 
        </Neuron>
        <Neuron NSynapses="44">
          1.4350934874122867e+00 -1.2271399748367138e+00 -1.1914959315623319e+00 2.2527075351930748e+00 6.8788670066046897e-01 -4.9173587837961348e+00 -1.6300803952063132e+00 8.0466368637701158e-01 -8.2805070605060108e-02 -7.3611389446057246e-02 -6.4645090010760464e+00 9.3403957862051815e-02 7.4224941160291624e-01 5.0799845616076555e-01 -5.2828577291019374e-01 9.5952784499123911e-01 -4.3410792578647078e-01 -1.7799172453212608e+00 -1.0417585555127471e+00 2.5450441152866365e-01 4.4180980939276226e+00 -9.0055381488924546e-01 -6.7316136051953757e-01 -6.9369963512492883e-01 3.1109261279060338e+00 2.6063630465690748e+00 -4.1573650013388425e-01 -1.4769331769327345e+00 -1.6824116793229391e+00 4.7995754162532878e-01 1.9017012009346208e+00 -3.3038116335528472e-01 3.3312825401968791e+00 9.2058959423813402e-01 6.7275626931976099e-03 1.5890721750805261e+00 -8.4879447602590238e-02 5.1801641448220059e-01 1.7668277597517099e+00 -2.6148706467638463e+00 -6.0783294770945928e-01 5.2469341334146433e+00 2.4857550213775580e-02 -2.0737560124683196e+00 
        </Neuron>
        <Neuron NSynapses="44">
          1.8158568665555368e+00 -4.3017329384352054e+00 -7.2382481509462926e-01 -5.5530380768725318e-01 -6.3512401365810414e+00 -2.1903485890831758e+00 7.0038805639185975e-01 6.5600283795669978e-01 -8.0708448404130317e-01 -9.9894474773520681e-01 1.3000805222629905e+00 1.8375850341880822e+00 7.4662424392041926e-01 1.1589263811004004e-01 -1.0601486740959214e+01 2.0220894895394634e+00 4.6486927153182445e-01 -2.7884576107510450e-01 -1.2145090219515395e+00 3.7525638300994069e-01 -8.9596262926096748e-01 -6.1024789155516533e-02 -3.4617888127994118e-01 -1.0904720850289054e+00 -2.0181937998740316e+00 1.8810841672352936e+00 7.9627556548316192e-01 -1.7892400025096081e-01 4.0273842243859823e+00 1.2936721929827144e+00 2.6115201138837043e+00 -5.4343890811019757e-01 2.0698909343543308e+00 -1.6369912564754710e-01 -8.1770897569823375e-01 -1.0354926411658119e+00 2.2792645979106441e-01 -6.5367678851946676e-01 -5.9537833966857398e-02 -1.6384368183174000e-02 -2.5778816160939105e-01 2.0918791606481864e+00 -7.5852622921197133e-01 -8.0875780630777688e-02 
        </Neuron>
        <Neuron NSynapses="44">
          1.2431356242411815e+00 -2.8778285076448431e+00 1.4570869252354185e-01 -3.2428548933340684e+00 8.5900465775827117e-01 -8.0304795283874975e-01 2.2972664458848864e+00 -7.8717979058345855e-01 -6.6052721627032240e-01 -7.3283481073345724e-01 2.7050053702022847e-01 2.3166097153899212e+00 3.2881621563165333e+00 4.0109610038304172e-01 -4.8352066681729811e-01 -1.0958031122143570e+00 -2.0004870119425161e-01 -1.1192968755651125e+00 1.2730038054464790e+00 9.6337152053745445e-01 -4.5543072845720909e+00 1.8255262567078492e-01 -3.1678277792770443e-01 -8.2373427016892564e-01 -3.1544401552953332e+00 4.3056344824881325e+00 -3.6928307056729542e-01 -5.6124271929196823e+00 2.0562831449554744e+00 -3.3497712497866172e+00 2.9865842222189665e+00 -6.9398939497150069e-01 1.3534754312434589e+00 -4.7731679633075264e-01 -8.3301623257583413e-01 -7.4339369204161387e-01 -2.9625668518853410e-01 -2.1457871454543707e+00 9.4652361297673993e-01 -1.1602233456172824e-01 -8.7662356357231952e-01 6.7958029274241405e-01 -2.6135808523228293e-01 -2.7437743370128082e-01 
        </Neuron>
        <Neuron NSynapses="44">
          4.4913168196924214e-01 3.3133908307826671e-01 4.6973657811039748e-01 -5.0658742786667466e-01 -1.9660921176970827e+00 4.3033751314803265e-01 1.0204912342695232e+00 1.9002357755328814e-01 1.7555277287979125e+00 -7.1258732276048409e-01 -1.3196453331930971e+00 -4.1371520910874238e-01 -1.3842157362753804e-01 5.8491762724111707e-01 -1.3375132513973638e+00 -4.6613074803660848e-01 -9.4657407672174051e-02 -1.1334195432031904e+00 1.6575483982170380e-01 9.2138294868390547e-01 -1.7969706219770438e+00 -4.9846113629345645e-01 -3.9532217245366064e-01 1.4294089880784131e+00 -9.3976036767221205e-01 6.7470747665818742e-01 -1.6580523279647505e-01 -2.6375333879091550e-01 2.9101512986786132e-01 -2.2945538421265887e-01 3.2047100057091984e+00 3.7352790143381276e-02 9.2341101037779127e-01 -6.2915634621671324e-01 -1.3424738909678531e+00 -4.4119666372619043e-01 -7.2222902581809034e-01 2.9647953282920880e-01 2.0204308715694625e+00 1.3990965278184306e-01 7.0048709252912345e-01 -2.1908306168772512e-02 -1.3402765221948704e-01 8.4726426927990572e-01 
        </Neuron>
        <Neuron NSynapses="44">
          -8.8315161022666955e-01 5.1459579178028525e-01 3.4269353278540075e-02 -6.3768161092739573e-01 3.0271203664104673e-01 2.7045382330242007e+00 9.0956488155437942e-01 -8.9421868900371271e-01 -2.1882360677438664e-01 9.4500058194628658e-02 2.1994579713715248e+00 3.9528196623594498e+00 -4.2374083748531172e-01 -3.4689363986497063e-01 3.8168788090256667e-01 4.0213752452590235e-01 -1.0275834741617867e-01 6.9930774190649969e-01 1.7827349893511382e+00 -9.3026307150187526e-01 -1.6184818203686140e+00 3.3159947199164569e-01 3.5198272657862684e-01 -2.4975299435188352e+00 -1.5877373453317527e+00 -1.7086171243149659e+00 -7.3446104039771531e-02 9.4428997995387776e-01 1.5970890577061840e+00 2.6682868587947212e-01 -6.2230134192563247e-01 1.0076000844479109e+00 -2.5541873530419044e+00 1.1627255846337045e-01 6.6279057187225821e-01 -1.2271426187610357e+00 -3.1301326222346382e-01 -1.1508339505395406e+00 -2.0515098718618918e+00 1.3183371294634838e+00 1.9055314528828540e+00 -2.3767695308104768e+00 1.6426341848773188e-01 6.9368630421618016e-01 
        </Neuron>
        <Neuron NSynapses="44">
          1.0352458556877941e+00 1.2210328617394339e+00 -4.8289056153001303e-02 5.8461091919607230e-02 -1.8275121183954854e+00 -2.3809078713647995e+00 2.3655580114803390e+00 -5.1231601715792374e-01 4.3920706826852769e-03 -9.9740248075995686e-01 -1.3725660030771394e+00 -2.6095359957021911e+00 -5.7529722352532942e-01 1.0093473444711725e+00 -3.0066977843552727e+00 -2.6916711429682194e-01 -7.7437836437060126e-01 -4.1584502606468959e-01 1.1468785630257647e-01 1.0366596812425224e+00 -3.4891163898661475e+00 1.5474839994733529e-02 -4.7963763230020151e-01 -1.0602488164562323e+00 -3.9902612728562055e+00 2.3081873623306319e+00 -6.3729635470052259e-01 9.9739888423853174e-01 2.2166336597791753e-01 1.4780740973476967e+00 -2.6750868907114272e-01 -4.1786662775834760e-01 2.4524388798416412e+00 -3.7215847144900466e-01 1.9186998424259529e+00 -2.9286634409843726e-01 2.3437344551261849e-01 4.3816638892550573e-02 -2.6001718487543495e+00 -1.0339722295013454e+00 6.2410780596708437e-01 8.5176160943079715e-01 -2.8618130577136386e-01 4.4363527462842417e-01 
        </Neuron>
        <Neuron NSynapses="44">
          -1.8938064190297257e+00 7.7699554123407277e-01 1.1047640177019618e+00 -2.9926647337541512e+00 8.9055903066996811e-01 2.1975280398759671e+00 1.9380999551258291e+00 -4.4925880696868631e-01 1.6937969012488447e+00 -2.1942104647202201e+00 4.3129733348656956e+00 1.0094450986075181e+00 -4.8313382531586763e-01 -8.4663840566014914e-01 1.5075563777590928e+00 -1.2260810943830393e-01 2.0167770541720076e-01 -4.5222013691174077e+00 6.9806982218055580e-01 -1.2421400824429250e+00 -1.3169832352820396e+00 1.8010458602995250e-01 4.8616564664115169e-01 9.9403611736400077e-01 -6.8595681649779416e-01 -3.0978144980818021e+00 2.1047198561281819e-01 9.5381227525029955e-01 1.0305212541531268e+00 -5.3153577690679041e+00 -1.2428089475401558e+00 2.7933297971249882e-01 -5.3168117974320361e-01 -9.3113452390561946e-01 -1.3792584544533641e+00 -1.2778812517622360e+00 -3.6450966095779930e-01 -1.6841712661796793e-01 -7.8412376900091574e-01 2.2736890500637199e+00 2.9860510662146833e-01 -4.4708311731629040e+00 -1.2805787408128769e-01 1.9504112093392356e+00 
        </Neuron>
        <Neuron NSynapses="44">
          1.4919663298214014e+00 -5.4782514570793959e+00 -2.5588578651310573e-01 5.4804710399289540e+00 -6.1873168157091500e+00 2.2568472597973481e+00 1.1929502050757892e+00 -3.4015733163232259e-01 -1.1018387760930137e+00 -4.8322872585818681e-02 2.6326272912267239e+00 -1.5049279234693347e+00 2.2533550148038892e-01 4.5782183875199003e+00 -4.7714874719289480e-01 -5.7194817241914020e-01 9.9737035256797779e-01 -3.7164877324492793e+00 6.0271281189761239e-01 4.9109276190219671e+00 1.6697681646514587e-01 -1.2658950560031176e-01 -8.4757975935745844e-01 7.4671994511896669e-02 3.3715676912110282e+00 2.9499183025034620e-01 7.8175391260995952e-01 -3.4993131142977467e-02 1.4358313166704498e-01 1.4383743535984459e+00 1.1760235166463573e-01 -5.5983189033892777e-01 -6.4561712184409883e+00 -6.0724243262889055e-02 2.4878524680552010e+00 2.5927374563195421e-01 8.3838890491660500e-03 -9.9244231793750171e+00 -1.3025917611088036e+00 5.4234508187026388e-02 1.6744051177294825e+00 4.3363276483734703e-01 -4.2142477841166326e-01 -3.8830271697471769e-01 
        </Neuron>
        <Neuron NSynapses="44">
          5.2819004798446756e-01 2.0708026716259587e-01 2.4457068456830018e+00 -1.0714373170076510e+00 1.2968518423233669e-01 -3.5178668476944203e-01 3.0859368791216707e-01 1.9963796357657079e-01 -1.1276461464516951e+00 -1.6218792490991145e+00 -3.3048258340040437e+00 -1.6675685875220729e+00 -1.2934374730370132e-01 -7.9780436242505086e+00 3.0268399043698369e-01 -4.8784104673277810e-02 -1.3241201184418780e+00 -6.4866195617583811e-01 -3.8623456246700549e-01 -9.8478153340561432e-03 -5.8412257265034018e-01 -3.5932835563970933e-01 1.1256941727557615e-01 -4.6289199370277734e+00 5.3230798346394115e-01 -3.2067460112133989e-01 -6.3485672735670429e-01 3.4273710427013659e-01 1.1010598330621781e-01 -1.2820589263701090e+00 2.4736750708526527e+00 7.5096242401042873e-02 -4.3851616130182752e-01 -4.2168943013913818e-01 1.0828524611265526e+00 -9.2488170752756049e-01 1.0610536292499381e-01 -9.9374842128320637e-02 -2.7990499095760528e+00 1.5487210942931517e-01 5.1482119687010119e-01 4.5456240279249138e-01 -2.7181742097875061e-01 1.5517743452541441e-01 
        </Neuron>
        <Neuron NSynapses="44">
          1.5418345376581147e+01 -5.1788203852736935e-02 -3.0081018817119903e-01 3.7529245417323742e+00 1.2521089512851025e+00 1.5767797473113181e+00 -1.9014864427001783e+00 2.7337137068759360e-01 -2.2234326673050428e-01 8.5958258895413064e-01 2.9875462476767520e+00 -9.7759333656428316e-01 1.7674802285560197e+01 -7.3988115200759754e+00 1.6699771438763418e+00 -1.8856459527971787e+00 1.1641244490134184e+00 1.2909329942690415e-01 -7.4353677790822665e+00 5.6164883073411442e-01 1.6225905809739019e+00 -3.4307502008974089e-01 -4.2389841385918620e-01 3.0449278460275773e+00 -4.5318880187981714e+00 -3.3610683834964833e-01 5.7164760161856711e-02 -7.5168426188846187e+00 6.2829841969622269e+00 -2.0334956134060461e-01 5.7582203530099250e+00 -1.0056356848214627e+01 3.9477843410959625e+00 1.9603133566268087e+00 1.8758581288033749e+00 1.9903659577393111e+00 6.9743930480981664e-01 -4.7282808617553620e+00 -1.7723017145340552e+00 -7.3779674380021865e+00 -9.0094946667838449e-01 2.9100876575512236e-01 2.7619490665924449e+00 1.0392656331126631e+00 
        </Neuron>
        <Neuron NSynapses="44">
          -4.7908273500663852e-02 1.5534790510027174e-01 1.1457761800136823e-01 -5.7644130880257300e+00 1.9718129546716309e-01 -4.3271965329579398e+00 -1.7796932883496226e-02 -2.3628269134828686e-01 3.8266998546273863e+00 -2.7804030185184403e-01 -6.9262540236322379e-01 -2.7442535439519493e+00 2.5326470520186772e-02 -1.8011263959868637e-01 9.3055837364200353e-02 1.1614426995008618e+00 -1.6552490069406081e-01 1.3211527538595669e+00 5.4693519824989867e+00 -5.0617310128642422e-02 -8.5992959754681408e-01 -1.8549223031682696e-01 -1.1626689024378770e-01 -2.2927096076363895e-01 7.7947335976911942e+00 6.1605253355584144e-02 -1.9176025900110130e-01 1.6278318500667940e-01 6.5683361114459071e+00 5.5971340220092252e+00 2.4129303104652600e+00 3.6508483743050409e-03 -3.3849786827952490e+00 -5.0039966043040063e-02 2.4186040238015227e+00 -2.2676402290328195e+00 -1.2081104536847642e+00 -5.8481900570507583e-01 -2.7297259000825411e+00 -1.2844481925843465e-01 -1.1267770515506537e-01 -4.2420321058387785e-02 -6.4463034702730265e-02 1.0130955517433490e+01 
        </Neuron>
        <Neuron NSynapses="44">
          3.2569180773371961e+01 8.0532983912161420e+00 -9.7376428293039048e+00 4.9820706723289696e+00 1.7310894847698428e+01 -1.1230727453251314e+01 1.6596125854794759e+00 -4.8491996174125740e-01 3.6791209407984349e-01 -3.4808205404159072e+00 -2.8269555566857179e+00 -4.7689393893518284e-01 -7.3137122582923677e+00 7.7540071719008719e+00 4.2410211422469013e+00 -1.1216614319959621e+00 1.4009512934644248e+00 4.5257222857160173e-01 -3.9812134509204014e+01 -4.7377226535451117e-01 -7.2358222455442756e-01 -1.0040498442371530e+00 1.6584055530692317e+00 2.9401852417069700e+00 -4.6447679527456254e+00 2.0191503981433887e+00 2.4513457881046610e-01 -1.0885491803992986e+01 1.3526864316567545e+01 -2.6678689462549467e+00 -6.7506795519622678e+00 4.0933661660209580e+01 2.4561487313060629e-01 2.5153270667143079e+01 1.1872849655584994e+00 -3.7521248301873371e+01 -2.1760270187140835e+00 1.2198478683056218e+01 1.9858792237720262e+00 9.9835986863183042e+00 -3.2303789958275080e+00 1.4960846559301963e+01 7.3169908629510392e+00 -4.8413557066242578e+00 
        </Neuron>
        <Neuron NSynapses="44">
          7.2243853398783529e+00 1.9604938803085307e+01 7.3884868922096203e+00 -9.4557311260439594e+00 8.1045111670136922e+00 -4.0064743889617516e+00 -5.1590378737136744e-01 2.0155458431489168e+00 1.9602254628006890e+00 -3.5490222381256240e+00 -4.8240471561458520e+00 -1.6336590390869334e+00 -2.2999320881359331e+01 -4.6168720748608667e+00 -6.7818610708092644e+00 -2.1901165022337850e+00 1.9218478829480994e+00 1.2401092956833106e+00 -1.0128833861466610e+01 -1.3406252971512591e+00 1.7993141742321046e+00 -1.4192374478250083e+00 1.6460708098796297e+00 -1.5347919741410114e+00 8.8776136407552353e-01 2.9850249820729848e+00 5.0909995041741896e-01 -2.4431999490913114e+01 -6.8508566135035904e+00 3.3445700637206639e+00 6.2868027163028133e+00 2.3323977816547487e+01 9.0683087010302970e+00 1.4725313298579952e+01 6.7954504454007592e-01 5.7003512975245956e+00 9.8574719233735175e-01 8.7638053877056450e+00 -5.4609515549400154e+00 3.2237684111979004e+00 3.7261027465896385e-01 3.8137832092095825e+00 2.0633707728480712e+00 -1.1944366635427892e+01 
        </Neuron>
        <Neuron NSynapses="44">
          -6.7535899314429713e+01 2.0987602591523125e+00 -6.6808710919626835e-01 -3.8066413358245730e+00 9.2969141924825855e+00 -2.3371294996270779e+00 1.8250388872022778e+00 6.2644822596458405e-01 2.1428728599652080e+00 -4.0684656799329542e+00 2.5977944966645814e+00 -4.2775585802741889e-01 5.8531779792179774e+00 3.1793544145833761e+00 6.2510461246833316e+01 -6.6955868669988405e-01 -3.6140366695391285e-01 4.2326281393137410e+00 -2.9779292793374745e+00 -1.0233350771736815e+01 1.8984871816870772e+00 -1.3522691823043749e+00 4.1411619107190550e-01 -9.7485071804026935e-01 2.6716784784308505e+00 1.4867899235142353e+01 6.4792026123464874e-01 -7.6453314416824218e+00 -1.9515928304219592e+01 1.1880420100360032e+01 1.4718021941811866e+01 1.6833446745278010e+01 2.8005751411293396e+00 5.0671543900315143e+01 -5.2093084879832503e+00 -2.3461652751966611e+01 -9.2174447811975846e-01 2.8307350287866768e+01 -6.9977387660914907e+00 -2.5454713998491973e+00 -1.6673128361575787e-01 -2.3880445872576104e+01 6.3270383550258515e+01 4.2576412007137677e+01 
        </Neuron>
        <Neuron NSynapses="44">
          -5.1677760248168568e+01 -1.5403121025236204e+00 -2.3957917483883793e+00 -1.3353819529573661e+00 4.0364967493629171e+00 1.4966485781641850e+01 2.4473150433097901e+00 -6.1018114431863102e-01 3.0539009754729034e+00 -2.1750410660315467e+00 -2.3367559947589100e+00 4.3060581857370134e-01 1.0784084469212921e+01 3.1556094346531958e+00 1.8403001000309924e+01 -1.4229726432856569e+00 2.4379252732400798e+00 -1.4667534472957433e+00 -1.9548665314864131e+00 -2.6796928560797308e+00 -6.8701332206251897e-01 -1.4632718607884909e+00 -1.2379295074507273e+00 8.6392328139664698e-01 1.8013981127935463e+00 8.6389282861545080e+00 -4.4616098522175629e-01 -2.7651047953967263e+00 -1.9287380861620726e+01 8.3427542397939156e+00 8.4040608677280257e+00 -1.3963416890224131e+01 -4.0610307372155718e-01 1.9943382286220185e+01 -4.1015316526653767e-01 -1.1347128416103308e+01 -6.4188487689143536e-01 1.0564569974280383e+01 -5.1315692624847511e+00 -2.4499587957392235e+00 2.3908628748276768e+00 -2.8479184656692478e+01 2.7574013540033196e+01 1.5658525923516157e+01 
        </Neuron>
        <Neuron NSynapses="44">
          -2.4354974240990273e+01 3.8506377873465278e+00 2.2469605777940189e+00 -1.2057223912803918e+00 3.4184437703555898e-01 1.2945044901830689e+01 7.6535084469223513e-01 -1.9676112351552932e+00 4.1778085615156648e+00 3.0400925238232446e-01 -2.3666370437221111e+00 -1.9936858498285508e+00 -1.4573327716320488e+00 3.2806360513824888e+00 1.2526181623099364e+00 -2.0343742614040319e+00 4.1018018403983386e-01 -4.3527423805859931e+00 -7.8775750928952934e-02 -2.8368242245867150e+00 -7.4397698971457382e-01 2.5281049015163826e-01 -1.1791723306669066e+00 6.5047821752804735e-01 -5.8366768035166461e-01 2.0403738508036202e+00 -4.4279554935174525e-01 -4.5320401796696297e+00 -1.7157902504751377e+01 5.8619937598228482e+00 5.7190516115547352e+00 -1.7903506236553582e+01 2.8355920066886067e+00 -9.2778868950050608e-01 3.7518586626390382e+00 2.4423877311228117e+00 1.0400764603239128e+00 8.9034182487748819e+00 -1.0854325236155158e+00 -1.7370126571659866e-01 5.2933768709099489e+00 -1.8440686805710833e+01 1.6294821914191850e+01 7.6474577831637029e+00 
        </Neuron>
        <Neuron NSynapses="44">
          6.7808442036034966e-01 1.6288374708117580e-02 -6.9829379032157290e-01 -4.8703894318317476e-01 2.4560217716983028e+00 2.4935783042537563e+00 -1.1440354332538745e+00 1.2587609072644175e-02 -2.2698956608880418e-02 9.3515546704991970e-01 -2.8738508027332137e+00 9.0058567991456207e-01 1.2184031689320539e+01 -2.1016709758506630e-01 8.5555661195244070e+00 -3.9430073645480507e-01 -1.3350939328116251e+00 1.6138266565704773e+00 7.9802432313140805e+00 1.1607992978786672e+00 7.6770105703806379e-01 -9.9034522756382928e-02 6.3248365127998940e-01 -1.0345255996430198e+00 1.0483706679255744e+00 1.3042929193856849e+00 2.7272410146971537e-01 4.6691248184800651e+00 1.4843268883243996e-01 2.6584268223773262e+00 -7.3861799371474834e-01 -4.4336299726623958e+00 1.0648843173968868e-01 2.0222861926829374e+01 5.0014553090489344e-01 -1.0255612929873802e+01 9.5641095360132311e-01 1.3049179634161188e+00 -2.6679301656354939e+00 -6.1077562221023707e-01 2.7459946611571588e+00 -5.7045603854847453e+00 -1.8704209181246150e+00 3.6402724237534247e+00 
        </Neuron>
        <Neuron NSynapses="44">
          -1.6729623640560595e-01 4.3901624299156623e+00 -3.3517769735445606e+00 1.0950254681071614e+00 4.0372495127634842e+00 -1.5880860112500623e+00 -1.4490944452675882e+00 -1.0210409406919474e+00 3.5697160282609834e+00 5.3556716987165232e-01 9.5827014409656819e-01 2.1360076349024615e+00 6.0618234450646880e-01 3.1822976056761371e-01 1.1771992652043160e+01 1.0305365372760098e+00 -9.0729833741336297e-01 -1.0190929334346959e+00 8.4541801187671822e-02 -2.7633225442227838e-01 -3.0743087657309084e-02 1.3992619247598108e+00 1.2391095098293634e-01 -1.2439459755680784e+00 2.8601425973911359e+00 -3.4523074663553360e-01 2.3261501420384727e+00 6.6359808439074242e-01 4.4117592981069270e-01 2.9632544824720632e+00 4.4847960247297181e-01 5.3937520202359046e-01 1.5211668831494245e+00 2.0256143313626403e+01 3.7728566424595483e-01 -1.1080542772251594e+01 -1.5384461825271745e+00 -1.1372994475970508e-01 -2.1273021828289247e+00 -9.1903508434564996e-01 1.2304761189254809e-01 -2.3754174539114628e+00 1.7636128069991692e+00 4.2236732327333542e+00 
        </Neuron>
        <Neuron NSynapses="44">
          -2.3216212301364013e+01 5.4175049470333034e-03 -7.8923835855291591e+00 -6.0859037057698939e-01 5.1927500336934864e+00 -5.0706286441866517e+00 -3.6951047047624935e-01 -1.1819676833670447e+00 -8.2169889904654167e-02 3.0255712459329354e-01 4.2939328853889042e-01 9.3345895187275763e-02 7.3123264241964963e+00 5.6505123226673408e+00 9.9004703459981585e+00 8.6864682751509803e-01 1.1501879332120535e+00 -2.5099426566233485e-01 -6.3230239770336230e+00 5.1265128652936376e+00 6.3210007304338262e-02 -1.8532712533039484e+00 2.9806818743470170e-01 1.5902172542976065e+00 1.7473829823529514e+00 8.6768100044558754e+00 -1.9437954999815668e+00 6.4217182125399985e-01 1.2608643310198961e-01 2.8941517823824339e+00 2.8849541118962625e+00 -1.5999814381145423e+00 7.6330543055714728e-01 1.6830091257594198e+01 -9.6456768890189309e-02 -1.2459116178694387e+01 -1.2541611606811606e-01 7.9154182666696098e+00 4.7048493213606185e-01 3.8267912614060595e+00 6.2001902175957102e-01 -1.3901695147510440e-01 -4.0223290148827995e-01 5.0215796637852506e-01 
        </Neuron>
        <Neuron NSynapses="44">
          3.6221246291211764e+00 -5.5993767019099572e-01 -1.5848271695578071e+00 1.1738918771291871e+00 2.8953962103122448e+00 2.3047257403491339e+00 -1.6547604777636444e+00 -3.3066131840455697e-02 2.8043635870825585e+00 -6.2416145103300735e-01 -2.7706212940388730e+00 2.0414211004278608e+00 4.1711415121116664e+00 -1.1125108058364226e+00 1.2169194327740744e+01 1.2412222618703039e+00 1.9834086362709401e-02 -1.7554750086811957e+00 6.5389237037027736e-01 7.1468931202020858e-01 -1.1168149454775373e+00 -1.3505920728098193e+00 1.1115361200851070e+00 2.7625114643462179e+00 8.7993083625882373e-01 3.4281958977989069e+00 2.7102776501974768e-01 1.8150555789427075e-01 1.1291494948217506e+00 3.3370394873136004e+00 2.3425354629503081e+00 -2.9678432814076610e+00 -2.9534361364422881e+00 1.7909475867111219e+01 -2.3760194382846906e+00 -1.1896981292758239e+01 -2.9327897475110559e-01 1.4442714886447230e+00 -1.9875730679016097e+00 1.1199397105706914e+00 -9.7729926665154343e-01 -5.8780835078697242e+00 1.1258762799797086e+00 3.1802588442454149e-01 
        </Neuron>
        <Neuron NSynapses="44">
          7.5593162608666475e-01 -3.1487592827280375e+00 -2.9425592277916572e+00 -3.0637599206727422e+00 1.3344531335257406e+00 -4.1245501203622918e+00 -1.9556531092328766e+00 1.0351627475820242e+00 -2.6110130847286799e+00 -6.4026725884846369e-01 2.6160792187479789e+00 -2.0230606836045664e+00 -9.1674361604175303e+00 -2.9893162105398106e+00 -5.0633494407973245e-01 -1.4755751884912716e+00 1.5167127252910755e+00 -2.6628753556350424e+00 -4.2859062847185891e-01 2.7641724486209158e+00 -2.4751103909232816e-01 1.4881615261020478e-01 -5.5791610145077619e-01 -5.4799894604639077e-01 8.3393796351644067e-02 7.9858425268690347e-01 2.1066755872173575e+00 -5.3675351447325415e-01 9.4163738094916933e+00 1.9226849351845315e-01 8.0094823561379236e-01 2.1946727892321723e-02 3.3360199303629754e+00 3.1011191650345493e-01 -8.3749326076709418e-01 -2.0898245126456416e-01 2.6174411344835025e-01 2.2187934060813799e-01 -2.3352952302638785e+00 -2.6709808365147109e-01 -2.4474973913680658e+00 1.3188565107240136e-01 -1.9351166743222517e+01 -1.1303843051355537e+01 
        </Neuron>
        <Neuron NSynapses="44">
          -9.0611969155208472e-01 7.5660216424937401e+00 -1.9932242695562941e+00 -6.2644075715162384e-01 5.7846102537563882e+00 -4.9595235593942893e-01 -7.9266789239670887e-01 1.8305424131854211e+00 3.5951236835680742e+00 -1.3473617159792606e+00 6.8739935395936136e-01 -6.3093498201268827e-01 -6.0690895633239323e+00 -5.9044574910173231e-01 1.0645016867458420e+01 6.6860197733483728e-01 1.1636722648293130e+00 -6.0932067137911206e-01 -1.3844469765853444e+00 -1.3732485917458055e+00 -7.1296236083691944e-01 1.8089153537107650e+00 -9.6768577739715667e-01 -7.4785231555073262e-01 1.2019081943147842e+00 -1.6773934923904494e+00 1.2216631119186816e+00 -3.4462340182621851e+00 -1.2050688160863821e+00 1.7479965771570016e+00 -5.5464545343449434e-01 4.3438712688000543e+00 -1.0130410700210157e+00 1.7536985952149720e+01 -1.2418004881721918e+00 -1.2929170288836648e+01 5.7918175822198448e-01 -1.3682431220480158e+00 -1.5445315993852526e+00 1.3158772276539514e+00 3.5796265618764767e+00 -5.2851511588491533e+00 1.5726414415213108e-01 2.8925857569190851e+00 
        </Neuron>
        <Neuron NSynapses="44">
          -6.0337721021514516e-02 -4.3411816315139573e+00 -6.1062336684838145e+00 -4.8957775130770653e-01 2.3359109124318307e+00 -4.7051210137476263e+00 8.1839177408795638e-01 1.7218784357399426e+00 -3.9442884880055136e+00 -1.2626699717801821e+00 1.4155361346637097e-02 -1.9757549429296537e+00 8.6402914644580999e+00 3.4104519665639113e+00 1.7256152800102735e+00 1.4081468526315690e+00 1.1820803004347567e-01 2.2393682417270075e+00 -1.4800472847177717e+00 1.8868770442093441e+00 -3.7838324458154191e+00 9.0572243681084041e-01 8.0418216002505194e-01 2.2515490623098908e+00 2.9846063677137487e+00 3.2634477956324015e+00 -1.0909923903394871e+00 2.3387658371138569e+00 7.9410468656157800e+00 8.7742444995969404e-01 -1.7879454792267371e+00 1.7505884821618793e+01 -7.0508109281213249e-01 5.4667753594977508e+00 2.6079933570298457e+00 -9.6933811032129569e+00 8.7587367157691787e-01 5.7869208064806461e+00 -2.4937841825190441e+00 5.5470172044435309e+00 -8.8965444022681273e-01 -2.7670774368725257e+00 3.7731600472256845e+00 2.5406219046181517e+00 
        </Neuron>
        <Neuron NSynapses="44">
          -3.9114416487658787e-02 4.5330379555156570e+00 5.5605041538732882e+00 3.4068235722729551e-01 -2.0297314383747880e+00 5.3058449387972280e+00 -1.2311815766979954e+00 -1.8561677905865290e+00 -3.3713079467695382e+00 1.3910028302719792e+00 -3.1984351768330066e-01 -1.5464642122758649e+00 -8.6733952662221618e+00 -3.3457325087752441e+00 -1.8519144300113144e+00 -1.1696942159787942e+00 1.4386755271723977e+00 -2.0669605641201909e+00 1.2205068933830860e+00 -6.4477550719157328e-01 2.5502015079500975e+00 -7.3280224657744097e-01 -5.4599719952347991e-01 -5.0342602490314476e+00 5.0093460587445833e+00 -3.3761686556124717e+00 1.5052597281049607e+00 -2.3925663924310592e+00 4.1056069136452598e+00 -9.6522071369383877e-01 -4.2982682181853056e+00 -1.7515162004934069e+01 8.0104093164731838e-01 -5.3750688636141470e+00 2.2781595329445019e+00 9.4465062865579039e+00 -7.5669013309415822e-01 3.1645440333593684e+00 2.6904406848093494e+00 -5.4667220371608858e+00 4.4314602483312111e+00 -9.4355977641173716e+00 -3.6863808405104983e+00 -2.6826432896878289e+00 
        </Neuron>
        <Neuron NSynapses="44">
          -3.9477625733758215e+00 -1.5706039738707924e+00 -2.7778880930902106e+00 -3.0919867599012059e+00 7.6333519158021212e-01 2.3108751503058222e+00 1.5012375820932050e-01 3.9054556084387604e-01 -5.1658219862524746e+00 -9.8529948782078325e-01 -4.2541373679427119e+00 1.5351345443722459e+00 5.4169194226995518e+00 7.9916757711309161e-01 5.7580216311963450e-01 1.3280130860422923e+00 -1.5003754796718543e+00 3.9392025860336216e-01 2.5163877977518827e+00 1.7411252238949806e+00 -1.8826021440639007e+00 -3.7857036104098307e-01 4.7704980409020031e-01 1.1522370622011613e+00 -2.0019483792210697e+00 1.7148943531075003e+00 -2.1608507471950453e-01 -4.8226911660605332e-01 2.5496277308628041e+00 2.0709704110213734e+00 4.7510715603958786e+00 7.5390748092894733e-01 -2.2248061185116152e+00 1.4652808382900457e+00 3.9555471709917511e+00 -2.3935018293787533e+00 -1.4584359699707336e-01 -3.0068754077779172e+00 4.7995921401703023e-01 -3.9032289317564611e-02 -1.9367619244057033e+00 -3.7201736363852791e+00 4.8097557537465043e+00 1.3056246032820759e-01 
        </Neuron>
        <Neuron NSynapses="44">
          3.6407133999985257e+00 1.3547548676658854e+00 -2.6691083345385334e+00 3.3866830357743534e+00 -9.8910170699718425e-01 2.7854979222099513e-01 -4.2743207729521338e-02 -1.1010815695196365e+00 -4.7567666700213307e+00 6.8854152454931028e-01 -1.9117278772124295e+00 -1.5671334027680794e+00 -5.3887158417209378e+00 -5.9880854766203995e-01 -7.4172417092085485e-01 3.4476591943214785e-01 1.5124831958093370e+00 1.5545065765826893e+00 -1.9969551787206647e+00 1.7701450471066835e+00 6.8682722243157335e-01 8.0057887920846382e-01 -1.5388771775873919e-01 2.5127756382166502e+00 -1.1804129493710891e+00 -1.5172863582268410e+00 3.7010326725859810e-01 2.1637930523923918e-01 4.6087893918602596e+00 -2.4830267162067097e+00 1.1250992598552578e+00 -8.2219743082560204e-01 -1.2058368688289385e+00 -1.4417205649155520e+00 2.0058801680690737e+00 2.4655650058632244e+00 -1.0218602275116580e-01 -4.4725283174782815e+00 -1.2423662641380646e+00 5.6327331066661081e-02 2.7716499358028228e+00 3.6034862896735165e+00 -4.7952099660854453e+00 -2.3355454334490180e-01 
        </Neuron>
        <Neuron NSynapses="44">
          -1.7933405664882279e-01 -5.5308248552999695e+00 -1.0360777326523063e+01 -5.5403249895719968e+00 -3.0745928046752641e-01 -4.9660049878040935e+00 2.3872701628765619e-01 -4.8447895106436284e-01 -1.4044912063016841e+00 8.2428687995757288e-01 6.7349711152310665e-01 3.2451214345385726e-01 1.3237862368165490e-01 -3.1915526609634752e-02 1.4792239306435326e-01 -3.6138342116852011e-02 -1.7260543154811980e+00 1.0336892584763856e-01 8.8216868939589840e-02 1.8424143803928625e+00 -2.6768118284350533e+00 4.3879447430669577e-01 1.2837710567179288e+00 2.4023158012511061e+00 1.1500986933717126e+00 9.3443494357867141e-03 -2.3385817751385289e+00 7.2438262453404931e+00 8.5350112458434690e+00 -1.8924719120931285e-01 1.5170571902524818e-01 -1.6869911940502783e-01 -1.3105462361921640e-02 8.6131388800763223e-02 -3.4825049012143838e-01 1.0765129837888783e-01 -7.3396951108277675e-01 -3.6703128702943116e-01 -2.1623568620870956e-01 7.6420780413784168e+00 -3.1688662758017907e+00 -1.3730127902868636e-02 -1.5137693383746331e-01 -1.0614148874603425e-02 
        </Neuron>
        <Neuron NSynapses="44">
          5.1535059373968928e-01 -1.7952308315881405e+00 6.2865890061463614e-01 -3.5667413854031005e-01 -4.9662135082579431e+00 -1.0457870584662927e+00 -5.8948783048588449e-01 3.1353111092807368e-01 -1.7819397077609676e+00 3.1613561403674002e-02 3.6324662512911958e+00 -1.7570222575806254e+00 9.7291876833091839e-01 4.1378603776085315e-01 -1.4863453244809195e+00 -4.8938428979817289e-01 1.2494945655971936e+00 2.2758638413158283e+00 -9.8479924777503017e-02 2.3130863843492930e+00 8.5184215253479445e-01 -6.0140679084046356e-01 5.7557086924754353e-01 1.8474026097341978e-01 -8.5960233222879412e-01 3.7677882841900129e-01 9.6626351472225047e-01 6.8330374851010489e-01 4.6693958917982457e+00 1.1259651452555837e+00 2.0612035795095878e+00 -1.3330124773121230e+00 -4.1510087392850954e+00 -7.0375843971485375e-01 -1.7983945284986966e+00 1.3107323965013928e+00 1.5714861077655058e+00 -9.9637580319970329e+00 -2.8967216559587960e+00 -1.7552744416264872e+00 -6.9972221312790672e-01 6.1234846180047171e+00 -7.1385140061069619e-01 4.8565043077292275e-01 
        </Neuron>
        <Neuron NSynapses="44">
          -6.2398266950073866e-01 -3.5312212857752736e+00 -4.1506024010853049e-01 2.2351644814013219e-01 -2.4764963102568469e+00 -2.2707616343715356e+00 3.8338602008407480e-01 -5.0054602719383423e-01 2.2455770251810223e-01 -1.4128316664928167e-01 3.0953727514833544e+00 -2.7278441625691827e+00 -8.5370740523017807e-01 -3.8560553952097049e-01 1.2432404082174875e+00 -1.2750177194396324e+00 -2.1886761893558808e+00 2.2129357663580818e+00 1.8468904675198164e-01 6.8255626989378904e-01 9.9704263438139074e-01 6.0997590842179239e-01 -7.4037619577360292e-01 5.4154336092582016e-02 -2.3287632440260566e+00 -3.0698780660344621e-01 -1.4361710838186039e+00 -8.5471041312256879e-01 2.3103339920141845e+00 2.4100039156110138e+00 2.4323779007445387e+00 1.3986134821796383e+00 -2.4601583036598620e+00 7.4456234656280251e-01 -8.3492360109512564e-01 -1.1930374664852348e+00 -1.4292483961554938e+00 -9.1270875228925732e+00 -5.4173438111425254e+00 1.7866265952759606e+00 -1.9811491773909304e+00 5.7231507327702955e+00 7.1686123063351437e-01 -4.4732980281531076e-01 
        </Neuron>
        <Neuron NSynapses="44">
          1.3814976211788039e+01 -1.0168702156231417e+00 3.6662329644387088e+00 -2.6222830800279069e+00 -2.4687008205671876e+00 8.1366039768114518e-01 -5.6691778548204785e-01 8.8751976003212840e-01 -1.9198218340813500e+00 1.7599622475224863e+00 8.8667998837669815e-01 -1.4190681669785321e+00 -2.3980642717097290e+01 -6.0352139518283003e+00 -1.0822661539403772e+01 1.0945689174715301e+00 -1.4257783872254035e-01 1.5392869397843359e-01 7.4959062781824901e+00 8.2677927003425342e-02 1.9862555652691471e+00 6.1618699991235115e-01 2.9621908426143878e-01 -2.0724269251492835e+00 2.1783093688083155e+00 -7.2969342803816923e+00 5.6353829622643015e-01 2.5361334346099893e+00 -1.4878135300020159e+00 -1.0992068463278033e+00 -8.2865496215691579e+00 -9.3118902198930869e+00 -1.6854115075204201e-01 -1.9760088270802306e+01 3.5344718608182895e+00 1.0051481773358855e+01 1.7169304317689346e-01 -5.7311217444224134e+00 1.5978610546630962e+00 -1.4454575163482806e+00 1.5753930131527418e+00 1.1615049754463360e+01 -1.7767184067212025e+01 -1.2483157657782668e+01 
        </Neuron>
      </Layer>
      <Layer Index="1" NNeurons="45">
        <Neuron NSynapses="1">
          7.9381427804119831e-01 
        </Neuron>
        <Neuron NSynapses="1">
          -5.7942016810987584e-01 
        </Neuron>
        <Neuron NSynapses="1">
          1.4671003358898020e+00 
        </Neuron>
        <Neuron NSynapses="1">
          4.7229454579316088e-01 
        </Neuron>
        <Neuron NSynapses="1">
          -3.8041831436901502e-01 
        </Neuron>
        <Neuron NSynapses="1">
          3.5863878315735842e-01 
        </Neuron>
        <Neuron NSynapses="1">
          -1.8072736978108670e+00 
        </Neuron>
        <Neuron NSynapses="1">
          -9.8493757109782454e-01 
        </Neuron>
        <Neuron NSynapses="1">
          9.7535192157953277e-01 
        </Neuron>
        <Neuron NSynapses="1">
          3.0460471633672070e-01 
        </Neuron>
        <Neuron NSynapses="1">
          -6.2354612826271838e-01 
        </Neuron>
        <Neuron NSynapses="1">
          -4.2920713399835064e-01 
        </Neuron>
        <Neuron NSynapses="1">
          3.0054377642026897e+00 
        </Neuron>
        <Neuron NSynapses="1">
          -1.4311843015976082e+00 
        </Neuron>
        <Neuron NSynapses="1">
          -6.5902343303755351e-01 
        </Neuron>
        <Neuron NSynapses="1">
          -4.8616410257254969e+00 
        </Neuron>
        <Neuron NSynapses="1">
          1.2962505792644117e+00 
        </Neuron>
        <Neuron NSynapses="1">
          -2.1786334391972159e-01 
        </Neuron>
        <Neuron NSynapses="1">
          6.8383086228758838e-01 
        </Neuron>
        <Neuron NSynapses="1">
          -8.6957662909004796e-01 
        </Neuron>
        <Neuron NSynapses="1">
          8.2310205083015375e-01 
        </Neuron>
        <Neuron NSynapses="1">
          6.0275260126255004e-01 
        </Neuron>
        <Neuron NSynapses="1">
          1.1892518801085499e+00 
        </Neuron>
        <Neuron NSynapses="1">
          -3.4531652222318615e-01 
        </Neuron>
        <Neuron NSynapses="1">
          2.2944127716147159e-01 
        </Neuron>
        <Neuron NSynapses="1">
          -6.4578838297219010e-01 
        </Neuron>
        <Neuron NSynapses="1">
          9.1641045426168777e-01 
        </Neuron>
        <Neuron NSynapses="1">
          1.4863684325637418e+00 
        </Neuron>
        <Neuron NSynapses="1">
          7.8558504097558002e-01 
        </Neuron>
        <Neuron NSynapses="1">
          -2.0387829696561216e-01 
        </Neuron>
        <Neuron NSynapses="1">
          -2.9069600362737463e-01 
        </Neuron>
        <Neuron NSynapses="1">
          -1.5877840158240610e+00 
        </Neuron>
        <Neuron NSynapses="1">
          -4.2467072261537980e-01 
        </Neuron>
        <Neuron NSynapses="1">
          -8.8257472515741997e-01 
        </Neuron>
        <Neuron NSynapses="1">
          5.1348209830413782e-01 
        </Neuron>
        <Neuron NSynapses="1">
          8.4559423574986359e-01 
        </Neuron>
        <Neuron NSynapses="1">
          -7.0752285091749001e-01 
        </Neuron>
        <Neuron NSynapses="1">
          -4.0224735111178783e-01 
        </Neuron>
        <Neuron NSynapses="1">
          3.9632323912154177e-01 
        </Neuron>
        <Neuron NSynapses="1">
          -1.5085650797488530e+00 
        </Neuron>
        <Neuron NSynapses="1">
          4.6661957435105716e-01 
        </Neuron>
        <Neuron NSynapses="1">
          1.0130256072328119e+00 
        </Neuron>
        <Neuron NSynapses="1">
          -9.8518905699765513e-01 
        </Neuron>
        <Neuron NSynapses="1">
          -1.3064334195022362e+00 
        </Neuron>
        <Neuron NSynapses="1">
          -4.2456603930296586e+00 
        </Neuron>
      </Layer>
      <Layer Index="2" NNeurons="1">
        <Neuron NSynapses="0"/>
      </Layer>
    </Layout>
  </Weights>
</MethodSetup>
