<?xml version="1.0"?>
<MethodSetup Method="MLP::Electron_Long_TMVA">
  <GeneralInfo>
    <Info name="TMVA Release" value="4.2.0 [262656]"/>
    <Info name="ROOT Release" value="6.02/01 [393729]"/>
    <Info name="Creator" value="jonesc"/>
    <Info name="Date" value="Thu Feb  4 01:05:43 2016"/>
    <Info name="Host" value="Linux lcgapp-slc6-physical1.cern.ch 2.6.32-431.29.2.el6.x86_64 #1 SMP Wed Sep 10 11:13:12 CEST 2014 x86_64 x86_64 x86_64 GNU/Linux"/>
    <Info name="Dir" value="/var/pcfst/r03/lhcb/jonesc/ANNPID/results/MC2015Sim09Dev03/TrainMixture/TrainPhysTks-EvalPhysTks-NoReweight/GhostAccFrac0.001/TMVA-Run2-NoTkLikCDVelodEdx/MLP/Norm/ScaleF1.3/BP/NCycles750/CE/tanh/CVTest15/CVImp1e-16/NotUseRegulator/Electron/Long"/>
    <Info name="Training events" value="1800284"/>
    <Info name="TrainingTime" value="3.93640824e+04"/>
    <Info name="AnalysisType" value="Classification"/>
  </GeneralInfo>
  <Options>
    <Option name="NCycles" modified="Yes">750</Option>
    <Option name="HiddenLayers" modified="Yes">41</Option>
    <Option name="NeuronType" modified="Yes">tanh</Option>
    <Option name="RandomSeed" modified="No">1</Option>
    <Option name="EstimatorType" modified="Yes">CE</Option>
    <Option name="NeuronInputType" modified="No">sum</Option>
    <Option name="V" modified="Yes">True</Option>
    <Option name="VerbosityLevel" modified="No">Verbose</Option>
    <Option name="VarTransform" modified="Yes">Norm</Option>
    <Option name="H" modified="Yes">True</Option>
    <Option name="CreateMVAPdfs" modified="No">False</Option>
    <Option name="IgnoreNegWeightsInTraining" modified="No">False</Option>
    <Option name="TrainingMethod" modified="Yes">BP</Option>
    <Option name="LearningRate" modified="No">2.000000e-02</Option>
    <Option name="DecayRate" modified="No">1.000000e-02</Option>
    <Option name="TestRate" modified="No">10</Option>
    <Option name="EpochMonitoring" modified="Yes">True</Option>
    <Option name="Sampling" modified="No">1.000000e+00</Option>
    <Option name="SamplingEpoch" modified="No">1.000000e+00</Option>
    <Option name="SamplingImportance" modified="No">1.000000e+00</Option>
    <Option name="SamplingTraining" modified="No">True</Option>
    <Option name="SamplingTesting" modified="No">False</Option>
    <Option name="ResetStep" modified="No">50</Option>
    <Option name="Tau" modified="No">3.000000e+00</Option>
    <Option name="BPMode" modified="No">sequential</Option>
    <Option name="BatchSize" modified="No">-1</Option>
    <Option name="ConvergenceImprove" modified="Yes">1.000000e-16</Option>
    <Option name="ConvergenceTests" modified="Yes">15</Option>
    <Option name="UseRegulator" modified="Yes">False</Option>
    <Option name="UpdateLimit" modified="No">10000</Option>
    <Option name="CalculateErrors" modified="No">False</Option>
    <Option name="WeightRange" modified="No">1.000000e+00</Option>
  </Options>
  <Variables NVar="32">
    <Variable VarIndex="0" Expression="TrackP" Label="TrackP" Title="TrackP" Unit="" Internal="TrackP" Type="F" Min="1.12628003e+03" Max="1.42621738e+06"/>
    <Variable VarIndex="1" Expression="TrackPt" Label="TrackPt" Title="TrackPt" Unit="" Internal="TrackPt" Type="F" Min="9.76362228e+00" Max="3.90660156e+04"/>
    <Variable VarIndex="2" Expression="TrackChi2PerDof" Label="TrackChi2PerDof" Title="TrackChi2PerDof" Unit="" Internal="TrackChi2PerDof" Type="F" Min="1.18070714e-01" Max="3.99963522e+00"/>
    <Variable VarIndex="3" Expression="TrackNumDof" Label="TrackNumDof" Title="TrackNumDof" Unit="" Internal="TrackNumDof" Type="I" Min="7.00000000e+00" Max="5.10000000e+01"/>
    <Variable VarIndex="4" Expression="TrackGhostProbability" Label="TrackGhostProbability" Title="TrackGhostProbability" Unit="" Internal="TrackGhostProbability" Type="F" Min="1.44435663e-03" Max="3.99996072e-01"/>
    <Variable VarIndex="5" Expression="TrackFitMatchChi2" Label="TrackFitMatchChi2" Title="TrackFitMatchChi2" Unit="" Internal="TrackFitMatchChi2" Type="F" Min="6.61066454e-03" Max="1.27175774e+02"/>
    <Variable VarIndex="6" Expression="TrackFitVeloChi2" Label="TrackFitVeloChi2" Title="TrackFitVeloChi2" Unit="" Internal="TrackFitVeloChi2" Type="F" Min="2.65251060e-07" Max="1.07304802e+02"/>
    <Variable VarIndex="7" Expression="TrackFitVeloNDoF" Label="TrackFitVeloNDoF" Title="TrackFitVeloNDoF" Unit="" Internal="TrackFitVeloNDoF" Type="I" Min="1.00000000e+00" Max="2.10000000e+01"/>
    <Variable VarIndex="8" Expression="TrackFitTChi2" Label="TrackFitTChi2" Title="TrackFitTChi2" Unit="" Internal="TrackFitTChi2" Type="F" Min="4.30097803e-04" Max="1.24245949e+02"/>
    <Variable VarIndex="9" Expression="TrackFitTNDoF" Label="TrackFitTNDoF" Title="TrackFitTNDoF" Unit="" Internal="TrackFitTNDoF" Type="I" Min="1.00000000e+00" Max="3.10000000e+01"/>
    <Variable VarIndex="10" Expression="RichUsedR1Gas" Label="RichUsedR1Gas" Title="RichUsedR1Gas" Unit="" Internal="RichUsedR1Gas" Type="I" Min="0.00000000e+00" Max="1.00000000e+00"/>
    <Variable VarIndex="11" Expression="RichUsedR2Gas" Label="RichUsedR2Gas" Title="RichUsedR2Gas" Unit="" Internal="RichUsedR2Gas" Type="I" Min="0.00000000e+00" Max="1.00000000e+00"/>
    <Variable VarIndex="12" Expression="RichAboveMuThres" Label="RichAboveMuThres" Title="RichAboveMuThres" Unit="" Internal="RichAboveMuThres" Type="I" Min="0.00000000e+00" Max="1.00000000e+00"/>
    <Variable VarIndex="13" Expression="RichAboveKaThres" Label="RichAboveKaThres" Title="RichAboveKaThres" Unit="" Internal="RichAboveKaThres" Type="I" Min="0.00000000e+00" Max="1.00000000e+00"/>
    <Variable VarIndex="14" Expression="RichDLLe" Label="RichDLLe" Title="RichDLLe" Unit="" Internal="RichDLLe" Type="F" Min="-9.99000000e+02" Max="1.72296494e+02"/>
    <Variable VarIndex="15" Expression="RichDLLmu" Label="RichDLLmu" Title="RichDLLmu" Unit="" Internal="RichDLLmu" Type="F" Min="-9.99000000e+02" Max="1.24875801e+02"/>
    <Variable VarIndex="16" Expression="RichDLLk" Label="RichDLLk" Title="RichDLLk" Unit="" Internal="RichDLLk" Type="F" Min="-9.99000000e+02" Max="1.77720001e+02"/>
    <Variable VarIndex="17" Expression="RichDLLp" Label="RichDLLp" Title="RichDLLp" Unit="" Internal="RichDLLp" Type="F" Min="-9.99000000e+02" Max="1.39668396e+02"/>
    <Variable VarIndex="18" Expression="RichDLLbt" Label="RichDLLbt" Title="RichDLLbt" Unit="" Internal="RichDLLbt" Type="F" Min="-9.99000000e+02" Max="7.46144028e+01"/>
    <Variable VarIndex="19" Expression="MuonBkgLL" Label="MuonBkgLL" Title="MuonBkgLL" Unit="" Internal="MuonBkgLL" Type="F" Min="-9.99000000e+02" Max="2.30999999e-02"/>
    <Variable VarIndex="20" Expression="MuonMuLL" Label="MuonMuLL" Title="MuonMuLL" Unit="" Internal="MuonMuLL" Type="F" Min="-9.99000000e+02" Max="0.00000000e+00"/>
    <Variable VarIndex="21" Expression="MuonIsMuon" Label="MuonIsMuon" Title="MuonIsMuon" Unit="" Internal="MuonIsMuon" Type="I" Min="0.00000000e+00" Max="1.00000000e+00"/>
    <Variable VarIndex="22" Expression="MuonNShared" Label="MuonNShared" Title="MuonNShared" Unit="" Internal="MuonNShared" Type="I" Min="0.00000000e+00" Max="3.50000000e+01"/>
    <Variable VarIndex="23" Expression="InAccMuon" Label="InAccMuon" Title="InAccMuon" Unit="" Internal="InAccMuon" Type="I" Min="0.00000000e+00" Max="1.00000000e+00"/>
    <Variable VarIndex="24" Expression="MuonIsLooseMuon" Label="MuonIsLooseMuon" Title="MuonIsLooseMuon" Unit="" Internal="MuonIsLooseMuon" Type="I" Min="0.00000000e+00" Max="1.00000000e+00"/>
    <Variable VarIndex="25" Expression="EcalPIDe" Label="EcalPIDe" Title="EcalPIDe" Unit="" Internal="EcalPIDe" Type="F" Min="-9.99000000e+02" Max="4.34127378e+00"/>
    <Variable VarIndex="26" Expression="EcalPIDmu" Label="EcalPIDmu" Title="EcalPIDmu" Unit="" Internal="EcalPIDmu" Type="F" Min="-9.99000000e+02" Max="2.15297604e+00"/>
    <Variable VarIndex="27" Expression="HcalPIDe" Label="HcalPIDe" Title="HcalPIDe" Unit="" Internal="HcalPIDe" Type="F" Min="-9.99000000e+02" Max="3.00366545e+00"/>
    <Variable VarIndex="28" Expression="HcalPIDmu" Label="HcalPIDmu" Title="HcalPIDmu" Unit="" Internal="HcalPIDmu" Type="F" Min="-9.99000000e+02" Max="2.87338901e+00"/>
    <Variable VarIndex="29" Expression="PrsPIDe" Label="PrsPIDe" Title="PrsPIDe" Unit="" Internal="PrsPIDe" Type="F" Min="-9.99000000e+02" Max="3.46313500e+00"/>
    <Variable VarIndex="30" Expression="InAccBrem" Label="InAccBrem" Title="InAccBrem" Unit="" Internal="InAccBrem" Type="I" Min="0.00000000e+00" Max="1.00000000e+00"/>
    <Variable VarIndex="31" Expression="BremPIDe" Label="BremPIDe" Title="BremPIDe" Unit="" Internal="BremPIDe" Type="F" Min="-9.99000000e+02" Max="4.79148388e+00"/>
  </Variables>
  <Spectators NSpec="0"/>
  <Classes NClass="2">
    <Class Name="Background" Index="0"/>
    <Class Name="Signal" Index="1"/>
  </Classes>
  <Transformations NTransformations="1">
    <Transform Name="Normalize">
      <Selection>
        <Input NInputs="32">
          <Input Type="Variable" Label="TrackP" Expression="TrackP"/>
          <Input Type="Variable" Label="TrackPt" Expression="TrackPt"/>
          <Input Type="Variable" Label="TrackChi2PerDof" Expression="TrackChi2PerDof"/>
          <Input Type="Variable" Label="TrackNumDof" Expression="TrackNumDof"/>
          <Input Type="Variable" Label="TrackGhostProbability" Expression="TrackGhostProbability"/>
          <Input Type="Variable" Label="TrackFitMatchChi2" Expression="TrackFitMatchChi2"/>
          <Input Type="Variable" Label="TrackFitVeloChi2" Expression="TrackFitVeloChi2"/>
          <Input Type="Variable" Label="TrackFitVeloNDoF" Expression="TrackFitVeloNDoF"/>
          <Input Type="Variable" Label="TrackFitTChi2" Expression="TrackFitTChi2"/>
          <Input Type="Variable" Label="TrackFitTNDoF" Expression="TrackFitTNDoF"/>
          <Input Type="Variable" Label="RichUsedR1Gas" Expression="RichUsedR1Gas"/>
          <Input Type="Variable" Label="RichUsedR2Gas" Expression="RichUsedR2Gas"/>
          <Input Type="Variable" Label="RichAboveMuThres" Expression="RichAboveMuThres"/>
          <Input Type="Variable" Label="RichAboveKaThres" Expression="RichAboveKaThres"/>
          <Input Type="Variable" Label="RichDLLe" Expression="RichDLLe"/>
          <Input Type="Variable" Label="RichDLLmu" Expression="RichDLLmu"/>
          <Input Type="Variable" Label="RichDLLk" Expression="RichDLLk"/>
          <Input Type="Variable" Label="RichDLLp" Expression="RichDLLp"/>
          <Input Type="Variable" Label="RichDLLbt" Expression="RichDLLbt"/>
          <Input Type="Variable" Label="MuonBkgLL" Expression="MuonBkgLL"/>
          <Input Type="Variable" Label="MuonMuLL" Expression="MuonMuLL"/>
          <Input Type="Variable" Label="MuonIsMuon" Expression="MuonIsMuon"/>
          <Input Type="Variable" Label="MuonNShared" Expression="MuonNShared"/>
          <Input Type="Variable" Label="InAccMuon" Expression="InAccMuon"/>
          <Input Type="Variable" Label="MuonIsLooseMuon" Expression="MuonIsLooseMuon"/>
          <Input Type="Variable" Label="EcalPIDe" Expression="EcalPIDe"/>
          <Input Type="Variable" Label="EcalPIDmu" Expression="EcalPIDmu"/>
          <Input Type="Variable" Label="HcalPIDe" Expression="HcalPIDe"/>
          <Input Type="Variable" Label="HcalPIDmu" Expression="HcalPIDmu"/>
          <Input Type="Variable" Label="PrsPIDe" Expression="PrsPIDe"/>
          <Input Type="Variable" Label="InAccBrem" Expression="InAccBrem"/>
          <Input Type="Variable" Label="BremPIDe" Expression="BremPIDe"/>
        </Input>
        <Output NOutputs="32">
          <Output Type="Variable" Label="TrackP" Expression="TrackP"/>
          <Output Type="Variable" Label="TrackPt" Expression="TrackPt"/>
          <Output Type="Variable" Label="TrackChi2PerDof" Expression="TrackChi2PerDof"/>
          <Output Type="Variable" Label="TrackNumDof" Expression="TrackNumDof"/>
          <Output Type="Variable" Label="TrackGhostProbability" Expression="TrackGhostProbability"/>
          <Output Type="Variable" Label="TrackFitMatchChi2" Expression="TrackFitMatchChi2"/>
          <Output Type="Variable" Label="TrackFitVeloChi2" Expression="TrackFitVeloChi2"/>
          <Output Type="Variable" Label="TrackFitVeloNDoF" Expression="TrackFitVeloNDoF"/>
          <Output Type="Variable" Label="TrackFitTChi2" Expression="TrackFitTChi2"/>
          <Output Type="Variable" Label="TrackFitTNDoF" Expression="TrackFitTNDoF"/>
          <Output Type="Variable" Label="RichUsedR1Gas" Expression="RichUsedR1Gas"/>
          <Output Type="Variable" Label="RichUsedR2Gas" Expression="RichUsedR2Gas"/>
          <Output Type="Variable" Label="RichAboveMuThres" Expression="RichAboveMuThres"/>
          <Output Type="Variable" Label="RichAboveKaThres" Expression="RichAboveKaThres"/>
          <Output Type="Variable" Label="RichDLLe" Expression="RichDLLe"/>
          <Output Type="Variable" Label="RichDLLmu" Expression="RichDLLmu"/>
          <Output Type="Variable" Label="RichDLLk" Expression="RichDLLk"/>
          <Output Type="Variable" Label="RichDLLp" Expression="RichDLLp"/>
          <Output Type="Variable" Label="RichDLLbt" Expression="RichDLLbt"/>
          <Output Type="Variable" Label="MuonBkgLL" Expression="MuonBkgLL"/>
          <Output Type="Variable" Label="MuonMuLL" Expression="MuonMuLL"/>
          <Output Type="Variable" Label="MuonIsMuon" Expression="MuonIsMuon"/>
          <Output Type="Variable" Label="MuonNShared" Expression="MuonNShared"/>
          <Output Type="Variable" Label="InAccMuon" Expression="InAccMuon"/>
          <Output Type="Variable" Label="MuonIsLooseMuon" Expression="MuonIsLooseMuon"/>
          <Output Type="Variable" Label="EcalPIDe" Expression="EcalPIDe"/>
          <Output Type="Variable" Label="EcalPIDmu" Expression="EcalPIDmu"/>
          <Output Type="Variable" Label="HcalPIDe" Expression="HcalPIDe"/>
          <Output Type="Variable" Label="HcalPIDmu" Expression="HcalPIDmu"/>
          <Output Type="Variable" Label="PrsPIDe" Expression="PrsPIDe"/>
          <Output Type="Variable" Label="InAccBrem" Expression="InAccBrem"/>
          <Output Type="Variable" Label="BremPIDe" Expression="BremPIDe"/>
        </Output>
      </Selection>
      <Class ClassIndex="0">
        <Ranges>
          <Range Index="0" Min="1.1262800292968750e+03" Max="1.4262173750000000e+06"/>
          <Range Index="1" Min="9.7636222839355469e+00" Max="3.9066015625000000e+04"/>
          <Range Index="2" Min="1.1807071417570114e-01" Max="3.9996352195739746e+00"/>
          <Range Index="3" Min="7.0000000000000000e+00" Max="5.1000000000000000e+01"/>
          <Range Index="4" Min="1.4443566324189305e-03" Max="3.9999607205390930e-01"/>
          <Range Index="5" Min="6.6106645390391350e-03" Max="1.2717577362060547e+02"/>
          <Range Index="6" Min="2.6525106022745604e-07" Max="1.0730480194091797e+02"/>
          <Range Index="7" Min="1.0000000000000000e+00" Max="2.1000000000000000e+01"/>
          <Range Index="8" Min="4.3009780347347260e-04" Max="1.2424594879150391e+02"/>
          <Range Index="9" Min="1.0000000000000000e+00" Max="3.1000000000000000e+01"/>
          <Range Index="10" Min="0.0000000000000000e+00" Max="1.0000000000000000e+00"/>
          <Range Index="11" Min="0.0000000000000000e+00" Max="1.0000000000000000e+00"/>
          <Range Index="12" Min="0.0000000000000000e+00" Max="1.0000000000000000e+00"/>
          <Range Index="13" Min="0.0000000000000000e+00" Max="1.0000000000000000e+00"/>
          <Range Index="14" Min="-9.9900000000000000e+02" Max="1.0797760009765625e+02"/>
          <Range Index="15" Min="-9.9900000000000000e+02" Max="1.2487580108642578e+02"/>
          <Range Index="16" Min="-9.9900000000000000e+02" Max="1.7772000122070312e+02"/>
          <Range Index="17" Min="-9.9900000000000000e+02" Max="1.3966839599609375e+02"/>
          <Range Index="18" Min="-9.9900000000000000e+02" Max="7.4614402770996094e+01"/>
          <Range Index="19" Min="-9.9900000000000000e+02" Max="2.3099999874830246e-02"/>
          <Range Index="20" Min="-9.9900000000000000e+02" Max="0.0000000000000000e+00"/>
          <Range Index="21" Min="0.0000000000000000e+00" Max="1.0000000000000000e+00"/>
          <Range Index="22" Min="0.0000000000000000e+00" Max="3.5000000000000000e+01"/>
          <Range Index="23" Min="0.0000000000000000e+00" Max="1.0000000000000000e+00"/>
          <Range Index="24" Min="0.0000000000000000e+00" Max="1.0000000000000000e+00"/>
          <Range Index="25" Min="-9.9900000000000000e+02" Max="4.3412737846374512e+00"/>
          <Range Index="26" Min="-9.9900000000000000e+02" Max="2.1529760360717773e+00"/>
          <Range Index="27" Min="-9.9900000000000000e+02" Max="3.0036654472351074e+00"/>
          <Range Index="28" Min="-9.9900000000000000e+02" Max="2.8733890056610107e+00"/>
          <Range Index="29" Min="-9.9900000000000000e+02" Max="3.4631350040435791e+00"/>
          <Range Index="30" Min="0.0000000000000000e+00" Max="1.0000000000000000e+00"/>
          <Range Index="31" Min="-9.9900000000000000e+02" Max="4.7914838790893555e+00"/>
        </Ranges>
      </Class>
      <Class ClassIndex="1">
        <Ranges>
          <Range Index="0" Min="1.1804000244140625e+03" Max="2.8219287500000000e+05"/>
          <Range Index="1" Min="2.6379541397094727e+01" Max="1.9331441406250000e+04"/>
          <Range Index="2" Min="2.4393796920776367e-01" Max="3.9927704334259033e+00"/>
          <Range Index="3" Min="9.0000000000000000e+00" Max="4.6000000000000000e+01"/>
          <Range Index="4" Min="1.6200270038098097e-03" Max="3.9994260668754578e-01"/>
          <Range Index="5" Min="4.2430732399225235e-02" Max="1.0633847045898438e+02"/>
          <Range Index="6" Min="4.0003939648158848e-04" Max="5.1085094451904297e+01"/>
          <Range Index="7" Min="1.0000000000000000e+00" Max="1.8000000000000000e+01"/>
          <Range Index="8" Min="2.3681871592998505e-01" Max="8.0439865112304688e+01"/>
          <Range Index="9" Min="2.0000000000000000e+00" Max="2.6000000000000000e+01"/>
          <Range Index="10" Min="0.0000000000000000e+00" Max="1.0000000000000000e+00"/>
          <Range Index="11" Min="0.0000000000000000e+00" Max="1.0000000000000000e+00"/>
          <Range Index="12" Min="0.0000000000000000e+00" Max="1.0000000000000000e+00"/>
          <Range Index="13" Min="0.0000000000000000e+00" Max="1.0000000000000000e+00"/>
          <Range Index="14" Min="-9.9900000000000000e+02" Max="1.7229649353027344e+02"/>
          <Range Index="15" Min="-9.9900000000000000e+02" Max="8.1164596557617188e+01"/>
          <Range Index="16" Min="-9.9900000000000000e+02" Max="6.1403598785400391e+01"/>
          <Range Index="17" Min="-9.9900000000000000e+02" Max="3.9107601165771484e+01"/>
          <Range Index="18" Min="-9.9900000000000000e+02" Max="3.9107601165771484e+01"/>
          <Range Index="19" Min="-9.9900000000000000e+02" Max="3.7000000011175871e-03"/>
          <Range Index="20" Min="-9.9900000000000000e+02" Max="0.0000000000000000e+00"/>
          <Range Index="21" Min="0.0000000000000000e+00" Max="1.0000000000000000e+00"/>
          <Range Index="22" Min="0.0000000000000000e+00" Max="2.0000000000000000e+01"/>
          <Range Index="23" Min="0.0000000000000000e+00" Max="1.0000000000000000e+00"/>
          <Range Index="24" Min="0.0000000000000000e+00" Max="1.0000000000000000e+00"/>
          <Range Index="25" Min="-9.9900000000000000e+02" Max="4.3412737846374512e+00"/>
          <Range Index="26" Min="-9.9900000000000000e+02" Max="1.4131858348846436e+00"/>
          <Range Index="27" Min="-9.9900000000000000e+02" Max="3.0036654472351074e+00"/>
          <Range Index="28" Min="-9.9900000000000000e+02" Max="2.8733890056610107e+00"/>
          <Range Index="29" Min="-9.9900000000000000e+02" Max="3.4631350040435791e+00"/>
          <Range Index="30" Min="0.0000000000000000e+00" Max="1.0000000000000000e+00"/>
          <Range Index="31" Min="-9.9900000000000000e+02" Max="4.7914838790893555e+00"/>
        </Ranges>
      </Class>
      <Class ClassIndex="2">
        <Ranges>
          <Range Index="0" Min="1.1262800292968750e+03" Max="1.4262173750000000e+06"/>
          <Range Index="1" Min="9.7636222839355469e+00" Max="3.9066015625000000e+04"/>
          <Range Index="2" Min="1.1807071417570114e-01" Max="3.9996352195739746e+00"/>
          <Range Index="3" Min="7.0000000000000000e+00" Max="5.1000000000000000e+01"/>
          <Range Index="4" Min="1.4443566324189305e-03" Max="3.9999607205390930e-01"/>
          <Range Index="5" Min="6.6106645390391350e-03" Max="1.2717577362060547e+02"/>
          <Range Index="6" Min="2.6525106022745604e-07" Max="1.0730480194091797e+02"/>
          <Range Index="7" Min="1.0000000000000000e+00" Max="2.1000000000000000e+01"/>
          <Range Index="8" Min="4.3009780347347260e-04" Max="1.2424594879150391e+02"/>
          <Range Index="9" Min="1.0000000000000000e+00" Max="3.1000000000000000e+01"/>
          <Range Index="10" Min="0.0000000000000000e+00" Max="1.0000000000000000e+00"/>
          <Range Index="11" Min="0.0000000000000000e+00" Max="1.0000000000000000e+00"/>
          <Range Index="12" Min="0.0000000000000000e+00" Max="1.0000000000000000e+00"/>
          <Range Index="13" Min="0.0000000000000000e+00" Max="1.0000000000000000e+00"/>
          <Range Index="14" Min="-9.9900000000000000e+02" Max="1.7229649353027344e+02"/>
          <Range Index="15" Min="-9.9900000000000000e+02" Max="1.2487580108642578e+02"/>
          <Range Index="16" Min="-9.9900000000000000e+02" Max="1.7772000122070312e+02"/>
          <Range Index="17" Min="-9.9900000000000000e+02" Max="1.3966839599609375e+02"/>
          <Range Index="18" Min="-9.9900000000000000e+02" Max="7.4614402770996094e+01"/>
          <Range Index="19" Min="-9.9900000000000000e+02" Max="2.3099999874830246e-02"/>
          <Range Index="20" Min="-9.9900000000000000e+02" Max="0.0000000000000000e+00"/>
          <Range Index="21" Min="0.0000000000000000e+00" Max="1.0000000000000000e+00"/>
          <Range Index="22" Min="0.0000000000000000e+00" Max="3.5000000000000000e+01"/>
          <Range Index="23" Min="0.0000000000000000e+00" Max="1.0000000000000000e+00"/>
          <Range Index="24" Min="0.0000000000000000e+00" Max="1.0000000000000000e+00"/>
          <Range Index="25" Min="-9.9900000000000000e+02" Max="4.3412737846374512e+00"/>
          <Range Index="26" Min="-9.9900000000000000e+02" Max="2.1529760360717773e+00"/>
          <Range Index="27" Min="-9.9900000000000000e+02" Max="3.0036654472351074e+00"/>
          <Range Index="28" Min="-9.9900000000000000e+02" Max="2.8733890056610107e+00"/>
          <Range Index="29" Min="-9.9900000000000000e+02" Max="3.4631350040435791e+00"/>
          <Range Index="30" Min="0.0000000000000000e+00" Max="1.0000000000000000e+00"/>
          <Range Index="31" Min="-9.9900000000000000e+02" Max="4.7914838790893555e+00"/>
        </Ranges>
      </Class>
    </Transform>
  </Transformations>
  <MVAPdfs/>
  <Weights>
    <Layout NLayers="3">
      <Layer Index="0" NNeurons="33">
        <Neuron NSynapses="41">
          -7.1535686105753982e-01 2.2814967455349393e+00 1.7612106948208459e+00 1.7170658327085291e+00 -2.5043829672319022e+00 -1.4054212154846977e+00 -7.8661958113768438e-01 2.1745167519594815e+00 -8.2687499417568378e-01 -5.6077466639839513e-01 -1.5237699231395356e+00 -5.6962573642830927e-01 -1.6418494088772528e+00 -3.3564326268970106e+00 -1.0961994699395332e+00 -4.1533875647493984e-01 1.6089118922328820e+00 2.2443972482633874e+00 8.7328623727649788e+00 -7.6185574330812955e-01 2.3241309380958414e-01 6.4951816598470324e-01 1.3627367732530185e-01 5.3587442382894013e-01 -8.2291617614438695e-01 -8.0557579059362150e-01 -1.1803803341496465e-01 -2.8579193464544156e-01 -7.2421001027220555e-01 2.0002426625232997e-01 2.1973704380689667e+00 1.6470638398609259e+00 7.2882034195123702e-01 -1.5789604659178975e+00 -6.7825508598396720e+00 -1.1513434694504139e+00 -1.5287774314987421e+00 1.4287187002508936e+00 -1.1627403632064486e+00 6.7266088664755730e-01 1.6651375136092554e+00 
        </Neuron>
        <Neuron NSynapses="41">
          -2.6217599092537230e-01 1.7683618805469428e+00 1.9936483586504246e+00 -9.6421610487533904e-01 -2.3665875320086172e+00 8.4205296497612114e-01 -5.9074966801998996e-01 1.6996203749991425e+00 2.5531984582293510e+00 2.4690046107302623e+00 1.5083818360931882e+00 -1.8159257216516478e+00 1.2850705229047699e+00 -4.6440331734218567e+00 -2.5030122040978751e+00 -2.4898031576416417e+00 4.7641094765545624e+00 1.9922156269846101e+00 -7.7557738459234793e-01 -4.9188399068502751e+00 5.0654867364894107e-01 8.9703385643488831e-01 8.3018894699485983e+00 2.0870929301487351e+00 -2.8081930535833965e-01 -8.1205333552492653e-01 -2.7101867889165505e+00 2.0480747981387872e+00 1.3304127618663952e+00 -5.4599493953228451e-01 -6.9433457453400638e-01 8.5223751361028366e-01 2.7925144776666704e+00 -1.4666779665614786e+00 3.4596283390119320e-01 -2.6653413780830690e+00 -1.9542321442166160e+00 5.5130177215065923e-01 -4.9087605117216282e-01 1.5302936228247084e+00 1.2809556315768307e+00 
        </Neuron>
        <Neuron NSynapses="41">
          -6.4625908942844923e-01 -1.3920420354359984e+00 -9.0615331659790244e-01 -2.5394685756186047e-01 8.6349235509348254e-01 -1.0125809988378487e+00 -4.1529297048604841e-01 -1.5244042653368604e+00 -1.0982028412620706e+00 6.1857893171618139e-01 2.6577729370884442e+00 -1.1554847747407022e+00 2.2152967711604160e-01 7.1826836210971734e-01 -5.8673875455871938e-01 3.5164207652703877e-01 2.6972400597630503e-01 -8.3150597076999222e-01 -5.9290948097506202e-01 -8.7298753696204309e-02 9.3639730853387015e-01 9.5863915122576793e-01 1.7307603793218948e-01 2.0912520290752536e+00 -2.5587950557013213e+00 -3.2213383539547819e-01 -9.4176745274814744e-01 -9.4463805109479504e-01 2.3380283616882367e+00 -1.7135555830568452e+00 3.5292251341163997e-02 1.0344010631345311e+00 -1.4731378508155488e+00 2.8762268223439580e-01 4.7827059981895315e-01 6.0058084551186952e-01 2.2123113741587916e-01 1.8147413099117757e+00 -1.0371792874679828e+00 8.6081621592401081e-01 2.5757469526389609e-01 
        </Neuron>
        <Neuron NSynapses="41">
          4.3917678864583498e-01 7.2194410119371721e-01 -2.9190416163284710e-01 -1.4305834528303138e-01 -4.9877451801503124e-02 -2.1485811298173525e+00 2.5273499620752684e+00 -1.0376487267208297e-01 -2.0773783194253785e+00 -2.0381128205400520e-01 -4.7433866014779563e-01 -5.6440072505794581e-01 5.1828296731045920e-01 1.4085769658182798e+00 -8.1881714663772309e-01 2.3944258605863938e-01 -7.8144784754911778e-01 2.3096319747304590e+00 -7.2739029989307091e-01 1.6775911910999278e-01 1.7735693621840010e-01 -1.1460824751405192e+00 -1.2364468119646403e+00 1.8264662210052096e+00 -1.2545525190051982e-01 3.6939743213127832e-02 -4.0401084873178256e-01 -1.3598128806993623e+00 1.0127716288244202e+00 2.0052318929403912e+00 8.0473217588924326e-02 5.2038566190883991e-02 7.0819428009308838e-01 1.3482941565894921e+00 1.9292562912828035e-01 2.4969852179736765e-01 -1.3038771500731310e+00 8.3934853320180047e-01 1.0036364699206954e+00 3.4156290664024119e-02 1.8056337233289557e+00 
        </Neuron>
        <Neuron NSynapses="41">
          5.5475158228974641e-01 -1.6090257601576052e+00 -1.9437399320168866e-01 1.2119839517165494e+00 -5.3181746993338080e-02 -1.1001411908585741e+00 2.3927476905907147e-01 1.3206855559038873e+00 -7.2495134473378497e-01 2.5580189236271927e-01 7.2372117429566396e-01 -2.2342242083106187e+00 -4.7390968762578790e-02 4.8217714180172483e-02 -2.3058145117282267e+00 -1.0366315807242734e+00 -5.5580351054569888e-01 8.1566696305262129e-03 -1.5681285338940443e-01 1.6025366835532581e-01 5.0723600751330589e-01 2.3329844958618245e-01 -8.6495805489705824e-01 2.1105828371914930e+00 -6.4476158075136591e-01 -7.4280601369378008e-01 -1.0699739615436530e+00 5.9424708676484062e-01 6.8574802884694794e-02 2.0263773333622050e+00 3.5467987698653952e-01 1.0363949704258444e+00 -9.7988483425172623e-01 -1.0201425688902682e-02 4.3860851437948253e-02 1.1257848085408431e+00 -8.8688882519650247e-01 -1.2228406004754128e-01 9.3009938079554666e-01 -1.8517414637978478e+00 1.6790029303310605e-01 
        </Neuron>
        <Neuron NSynapses="41">
          7.1382124990701190e-01 -1.0200561004785098e+00 -2.1541751380386254e-01 1.4034777137703474e+00 1.3876073236937417e-01 2.7830617208276609e-01 5.4177378097096762e-01 -1.9616384133563731e+00 -1.3644209605675943e+00 2.5414417181425977e+00 1.4118284247046231e+00 1.8145205028046463e+00 4.0897757000801227e-01 -7.4407896989130973e-01 -2.7624455709989975e+00 -2.0924327543129717e+00 -6.9366159867416777e-01 -1.3325621220301427e+00 6.9934693093411904e-01 -8.6987941998075913e-01 -3.1708640894996312e+00 5.4412690558715349e-01 -5.7575243113458541e-01 -1.0575205347694900e+00 -1.2520756683117904e+00 2.5523410976084921e+00 -8.0472588832635361e-01 -3.6298527877878872e-01 2.7195052759396057e+00 1.9018395136592032e+00 -5.1084816236590203e-01 7.4358747946650416e-01 -1.6237072277376849e-01 -1.8658493892139887e+00 -5.8857266396174113e-01 -2.0207193048370029e+00 -6.9150410263628181e-01 -1.8016048405428857e+00 -1.3070764605366765e+00 -1.8215081209651198e+00 5.1290102403017401e-01 
        </Neuron>
        <Neuron NSynapses="41">
          -1.2436721998375195e+00 -1.0350796966257247e+00 1.0427539296773882e+00 -1.1633848098796564e+00 -5.5344799648600096e-01 -1.3428805584769987e+00 1.7954237489060398e-01 2.4855627992957894e+00 1.2381874713754257e+00 -7.4990276741169581e-01 -5.4704155209440930e-01 -1.3231128256874176e+00 -9.3764096827688548e-01 -1.8299143670482527e+00 1.2237404170010840e-01 -1.3687938740763888e+00 9.0890477267509318e-01 2.0810081168492262e-01 7.8940773625437555e-01 -5.1392538943631472e-01 -1.1338573973859216e+00 -8.4660955861591380e-01 -6.9975531309376382e-01 -1.0556529346786041e+00 -5.7356240829390726e-01 2.1604671730605434e+00 3.5732867408315644e-01 4.7970750543164203e-01 9.8373645762772699e-01 -1.6647462729599841e-01 1.2189239431141967e+00 1.5890680676846214e+00 1.9022589738481925e+00 -1.5305168367020627e+00 -5.7400135907644745e-01 -3.4393409684925663e-01 -1.5618385007638826e+00 -1.2589988590019685e+00 -2.4247269050581037e+00 -1.9130705122698608e+00 -6.8309510065347534e-01 
        </Neuron>
        <Neuron NSynapses="41">
          5.9952314918231620e-01 -1.1850688884656377e+00 2.0525324957236579e+00 -2.4307837880211638e+00 1.7433355395352961e+00 -2.6399071664270712e+00 3.8473424907300940e-01 -3.1605558278535639e-01 -1.1240074306673040e+00 -5.4882180427747271e-02 1.4054575432837910e+00 -1.3154730325349782e+00 -1.5176863466735195e+00 -2.7487269982266938e-01 -2.0632448794467531e-01 -3.9717930006750435e-01 3.9213802715765456e-01 2.3551473644081039e-01 1.4420139890344452e-01 -4.3958572389722922e-02 -8.4319594394670094e-01 4.7693999392929687e-01 8.7374143979166108e-01 7.4285702122090647e-01 -9.7855783079585223e-01 -2.3980819625718805e-01 1.7263403951562328e+00 5.1691040334397187e-01 -4.2119196026492101e-01 -5.3255417142865892e-02 -8.4219530727851322e-01 6.1631526969244499e-01 3.9175670288108672e-01 3.0675009563222883e-01 5.7299049045678951e-02 3.8427676150526763e-01 -1.0677243522510509e+00 -5.1410110001731974e-03 2.5442597367572946e+00 6.1593192308096567e-01 2.2114014897001666e+00 
        </Neuron>
        <Neuron NSynapses="41">
          -1.2230196261256923e+00 8.3688654380017891e-01 -1.2987532487831386e+00 3.8215822573970804e-01 -9.8834778672876122e-01 -1.4211821055800251e+00 4.5184445228490955e-01 2.0824255716508566e+00 6.1753717383368623e-01 1.5173654016738871e+00 9.2975596701957364e-01 -6.4251234039427918e-01 -9.3383468195279451e-01 -1.2370780734182083e+00 3.1987716108274187e+00 -1.1016432746282290e+00 -3.7968166792883734e-01 -1.3479545459557136e+00 3.2073768278345893e-01 -9.0537000954310709e-01 -1.4531554657107545e-01 -2.3837458621793386e-01 -5.6460508543692955e-01 2.8504045433860123e+00 3.3031773126987518e-01 -2.4925735366442170e-01 -1.2456944981877049e+00 -3.9806292604336080e-01 -2.7726640761923758e+00 2.4033066941717189e+00 9.4054576938030776e-01 -1.4074605387485104e+00 -1.1193418575025067e+00 -1.0410417610836784e+00 -5.8049179012938423e-01 -1.1678420456518566e+00 7.7573300256120281e-01 -2.2164705389539145e+00 -2.1920641261441394e+00 -9.3841701555098922e-01 -2.0794954531293182e+00 
        </Neuron>
        <Neuron NSynapses="41">
          -7.8279683552948520e-01 7.9115755168045931e-01 -1.3017487782878887e+00 -1.8942743551444335e-01 5.9089993937556307e-01 4.9471337509797753e-01 6.1983125788337246e-01 5.8223674597830544e-01 1.4077871947391889e+00 1.3058527117454555e+00 -2.9710354450492331e-03 -1.9087652355063406e-01 -1.6370736572153759e+00 -9.3655604136000681e-01 -1.0359547836888587e+00 -7.2913008901669152e-01 4.9479775222815292e-01 1.7544135883050140e+00 3.8568163507687964e-01 4.4856814790115251e-01 -6.3799606889563965e-01 1.6064710747157811e+00 3.4035801627486567e-01 -1.0661288700324838e+00 -7.1131266396419049e-02 -1.1041637485301392e+00 1.3737452448651319e+00 1.7870037220455925e+00 -7.5777861930329898e-02 3.8751479011942829e+00 1.5107226390542100e-01 2.4172515499367599e+00 7.2023926031393226e-01 -7.7406724560372364e-01 7.7033940457723160e-02 2.5469283682747718e-01 -1.7444394473289926e+00 -1.6110997014946321e-01 1.7521817641704338e+00 -7.7473478172302690e-01 -1.1605720651871851e+00 
        </Neuron>
        <Neuron NSynapses="41">
          3.3801567785625961e+00 -1.4378162789807070e+00 3.4421935844938994e-01 -1.8249445143547962e+00 -9.2111458068691010e-01 -6.9547939126834846e-01 1.2411235693178144e+00 1.2265757500338357e+00 2.7954486716733133e+00 7.5001900523798459e-01 -6.3165157342424361e-01 4.6603657893201728e-01 1.1981434423438160e+00 -6.6996567449881956e+00 -1.1082884863997811e+00 2.9786309956763235e-01 -5.9761358188488367e-01 -2.3072137454352526e+00 -2.2961486502329889e-02 -2.0596104896718898e-02 5.1301412237008581e-01 -1.6056025402822744e+00 -1.1401858399241780e+01 -1.9594386830459314e-02 1.9367972553577883e+00 1.1012905471717245e+00 3.0198840696791969e+00 -2.2522746959538691e+00 -1.5107912668045076e+00 -5.7583416861149839e-01 1.0138244152200215e-01 -1.6319244191699436e+00 3.0315776141161328e-02 1.8163731846337687e+00 3.4260342847805714e-02 5.0968383546872686e-01 1.1368908915407525e+00 -3.2333575654744467e-01 -7.1211395078840944e-01 -2.2563461381255343e-01 3.4137686047044897e+00 
        </Neuron>
        <Neuron NSynapses="41">
          5.2724347785394288e-01 -3.1411579552881130e-01 3.0922395007305949e+00 9.6895681961491564e-01 -4.4750608016010628e-02 2.7108175325994499e+00 -6.3460979689370833e-01 9.8808109579512504e-01 1.9536273898701559e-01 -1.9069357521382824e-01 1.9751497448866445e-01 8.9256297841737120e-01 -1.5280630779628270e+00 -4.9748309990576736e-02 1.3997879615372673e+00 -8.7241387307446489e-02 -3.0152318778834869e-01 1.6383138142637962e-01 8.7681948255075763e+00 -4.9467206391847784e-01 5.3015287848052017e-01 -2.9357507714684178e-01 3.6440430990762057e-01 2.2395171964249450e-01 -1.5848240637203024e+00 -1.4974241180927370e+00 -1.0425817153792749e+00 -1.4815838408346821e-01 1.5071598385623792e+00 -6.0598271366175427e-01 -8.9687963658964709e-01 1.3750261014327132e+00 1.9652064757003314e+00 -9.8126046599307987e-02 7.3661360828676234e-02 -1.2183444092740774e+00 -1.3675031818133507e+00 1.2617087132290536e+00 -7.6319432845064830e-02 2.2781028104662582e-02 -1.1446007353963872e+00 
        </Neuron>
        <Neuron NSynapses="41">
          -3.3332988026924113e+00 -2.5198345499228987e+00 6.4632715946703653e-02 -5.3085686523353015e-01 1.5022590010945378e+00 -2.7685738231051527e-01 2.4715604537595275e+00 -3.8209626705855493e-01 -2.0383015549705372e+00 1.8246793770664396e+00 2.4706141917742177e+00 7.8145211601692943e-01 -5.5933534402253204e-01 5.2143329624011314e-01 -7.7911421245182078e-01 4.4350385485832799e-01 -4.6367578529855943e-02 -1.2717221168503472e+00 7.4410193945641270e+00 -5.5270405685651447e+00 1.4143517252448470e-01 -7.1951526070659555e-01 -6.9924795794811395e-02 -1.3088176320531368e+00 -1.2834167601488555e+00 4.2448797094557450e-01 8.2849769114264038e-01 4.4916836418125944e-01 1.2051142055444637e+00 -1.8729761264194684e+00 1.6103162208095227e+00 -2.0511263285742398e+00 -4.7144640487266964e-01 1.0146725954438698e+00 -7.0384993843871013e-03 1.2328523360784867e+00 1.3254260900053541e+00 -3.0726481816833697e+00 -1.5935789000712257e+00 -4.0924442814010142e-01 6.3217292231608113e-01 
        </Neuron>
        <Neuron NSynapses="41">
          -2.9469736917331755e+00 -7.2238426850995602e-02 1.8946274212897438e-01 1.8764556253360881e-01 -3.2818143097073310e-01 -2.1683541876600532e+00 -3.5122464225959198e+00 -2.1341754194626601e+00 8.7445656480879175e-01 2.2032949760485048e+00 -3.3043378039982687e+00 8.1380920182951996e-02 -3.8142627885069375e-01 -3.0311971025384798e-01 -2.7953375329626989e-01 1.7800320743459462e-02 3.4821002783837790e-01 7.0117117787033778e-01 8.8375767660581805e-02 -7.1195524248840337e-03 -2.5383457002563374e+00 -3.2589337455482131e-01 7.0354474982930015e-02 -1.7984897615689960e-01 1.8489853365086181e-01 8.2210581294096596e-01 -2.2132807181664083e+00 8.4600464594549407e-01 2.7213172473111649e+00 1.6591658338573982e+00 2.8680631758468211e-01 4.7358080146212062e-01 4.0467665286052978e-01 -2.7231479810278514e+00 1.7261141605705008e-01 2.7763377214293999e-01 -9.3720189336760384e-01 2.1969288262055837e+00 -2.2242783103848332e-01 -2.5157182841006215e-01 1.3439510754532613e+00 
        </Neuron>
        <Neuron NSynapses="41">
          5.5223446248219989e+00 -2.0363794334864860e+00 -1.6206492839524275e-01 -2.8547384004052603e+00 8.5474563551397653e-01 -1.9687611418024278e+00 2.6680909714856851e+00 9.5463095505539508e-01 3.9329599226102790e-01 -2.6287990752276098e+00 1.4863215627269410e+00 -3.3242567310620408e+00 1.3170597487548690e+00 2.9946771511441494e+01 8.2762664371353856e-01 -2.8629853297487053e+00 -3.9504765339030996e+01 5.9043996145568978e-01 -1.5530528737210210e+01 1.4160951685942337e+01 -4.5256650880068268e+00 -2.9878315431571916e+00 4.1262609794752727e+01 -2.2841727949093986e+00 -1.0585686663283120e+00 -2.0350600410745448e-01 1.3488683261532326e+00 7.6369542311275929e-01 1.0240215095742224e+01 -2.4208217936735168e+00 -4.7010796063570760e-02 3.0349253962554873e-01 3.4878562077986617e+00 -1.7250452861023568e+01 -3.5750243805588346e+00 -4.7258549519976489e-01 -2.5881569971746904e-01 4.0432424486328387e+00 -3.3941714634137510e+00 3.1528600987156669e-01 5.5155816457200635e-01 
        </Neuron>
        <Neuron NSynapses="41">
          8.9820810210617774e-01 5.0926244606734883e-01 1.1655490192958511e+00 -5.1581562474521325e-01 -3.0419961539269907e-01 1.4613968954808341e+00 -9.1799148935197050e-01 1.4279406047111591e+00 -3.2999294604034962e-01 -1.7658828658074399e+00 -1.1223573109666485e+00 -8.8366008102143145e-01 -2.0428011618753109e-01 1.5224959213334477e+00 9.5883558102605834e-02 -6.5374008043083809e-01 3.2413147298253869e-02 1.9521885287933730e-01 -4.1104371494687548e+00 -2.1141105301007928e+00 1.0510609265307265e+00 -5.6415073387868353e-01 -1.3496515457964706e+00 8.8679477458884259e-01 -2.0696375299863399e+00 -1.1577632009603065e+00 -9.0168824485022725e-01 9.2543919933571106e-01 1.2770698312349049e+00 -1.8984715812741526e+00 -5.5955407614252950e-01 -1.9688157653433678e+00 3.8811318012807289e-01 1.9406457151329299e+00 3.6086575899563793e+00 2.0102208972975821e-02 -1.2575511432622044e+00 -1.8377298618538742e+00 -3.1015596842495663e-01 1.0015903891692115e+00 1.3474251326708604e+00 
        </Neuron>
        <Neuron NSynapses="41">
          -1.3127505640174737e+00 -1.5059021310170029e+00 6.7629175947783848e-01 8.2581255470145998e-02 -1.7969267455451921e+00 2.2690288416330979e+00 1.1266543848725089e-01 -1.4922028656302795e+00 -1.8980699967608670e+00 -2.7482563741829797e+00 2.7606993125483675e-01 1.8282606204279535e+00 1.3357231745944278e+00 -1.2722119084539154e+00 -1.7378081686915738e+00 -3.2301714758528605e-01 3.2598489339206984e+00 -1.1119171646551298e+00 8.5273997297598025e-01 -2.9095141277152461e+00 9.9119332847807240e-01 3.5196022304297714e-01 -2.1788152072489111e+00 -2.3696597264776891e+00 1.6840526439850223e+00 -2.6794887271308204e-01 2.5716022521933302e+00 -1.1651502563793108e+00 1.6513550020805265e+00 -2.5721030394380395e-01 7.8730667275901667e-01 -1.1026486450392228e+00 -2.0654049716092788e+00 -6.7398656019371828e+00 1.1734703380464520e+00 1.0929776310149970e+00 6.8793853352539613e-01 1.0618328674280615e+00 3.7591508836587961e-01 9.6802857658881053e-02 1.5072645259032980e+00 
        </Neuron>
        <Neuron NSynapses="41">
          -6.8809437217315217e-01 -1.9615752603256043e+00 5.9487509361897650e-01 1.2444220784805065e+00 1.5100749462085561e+00 9.2275793860171806e-01 -1.6162288578192685e+00 -1.0591324942159428e+00 -1.5891750177765360e+00 -2.3538203968243514e+00 -1.0297721866188929e+00 9.9118382046514331e-01 7.9709006561459383e-01 -2.9017271712246289e+00 1.3258500594655269e+00 2.0474715081501507e+00 5.2991274764025365e+00 -9.6185798506027953e-01 8.1075071770113250e-01 -9.0945385724094607e-01 -2.0342671254584062e+00 3.1320520727569026e+00 -1.5900367530378934e+00 -1.2040374129735305e+00 2.0005278250350664e+00 -2.0698279102444723e+00 5.9851731698233157e-01 1.9232058680814366e+00 5.6458288101440035e-01 -6.4643816299853829e-01 -1.9798779752538170e-01 1.4752398168035050e+00 9.5788144914297435e-01 -2.5879427479510957e+00 -9.5642335727155348e-01 2.4786612014102576e+00 1.8444665373606999e+00 2.5438410665308608e-01 9.7523344454209626e-01 6.0820607840838281e-01 1.2964687406873543e+00 
        </Neuron>
        <Neuron NSynapses="41">
          -2.9623355054704419e+00 -2.9674788299320853e-01 -4.9870909695024485e-01 1.7079359269442791e+00 -2.3303252763047158e+00 2.2234348401840587e-01 -2.2559037099214478e+00 2.0219764212230429e-01 2.7507683589561956e-02 4.1163510943315729e-01 -1.7556694594398135e+00 -4.4160356889988400e-01 -3.5889172603457087e-01 1.0472187088333913e+00 1.7224401823573725e+00 1.3007575944607248e+00 3.5830167799344865e+00 -8.9089276099485459e-01 -5.8451405170477966e-01 -1.2233134019806982e+00 -1.6104006648471207e+00 2.1310779030544502e+00 1.0980757396808942e+00 -2.4905751180114005e-01 4.7774087229101109e-01 -1.4916805281415015e+00 3.0563613070032618e+00 -8.6911061279053587e-03 -9.0472189651798185e-01 -1.8112186600392022e+00 -1.3452717447017388e+00 -1.5492724068132229e+00 -1.7487651782985514e+00 -2.9401801993474499e+00 -4.4573791299944310e-01 2.2350136216502086e+00 -2.9999699987552325e-01 -1.1156845137272551e+00 -1.7562661423509904e+00 2.0798219365970141e+00 2.6482034618787459e-01 
        </Neuron>
        <Neuron NSynapses="41">
          -4.5161640446385787e-01 -1.3878985711698757e+00 6.4693557261821821e-01 6.5336649527262780e-01 -6.2215827506110033e-01 -9.3441430270661519e-01 4.7096066582659590e-01 -2.2666059369285887e+00 -1.0101590779285117e+00 5.0297136661212538e-01 -1.5494827815756158e+00 1.3237521449984888e+00 -1.1713529183824214e+00 1.7395227986153333e-01 8.1528871046282136e-01 6.0414749892074171e-01 9.9600435710155677e-01 7.2712113420369229e-01 1.0509303953503406e+00 1.7144451531540588e+00 -1.5449600750558901e+00 1.6592988593821234e+00 2.0963110648534768e+00 1.8687838271993873e+00 -9.0244173045512688e-01 -2.6674279994622245e+00 2.2884711343777127e-02 1.3851498495917802e+00 -9.4417737721385375e-01 -3.9338353444406826e-01 4.8711079329352432e-02 1.7508750957365453e+00 -9.9196177273607711e-01 -2.0685410050140658e+00 -4.8441435874051730e-01 -8.4939305506278329e-01 6.4409871468553992e-01 -1.9961266067463737e+00 -3.5246788974899051e-01 -5.8887760117312393e-01 -4.0102399302497238e-01 
        </Neuron>
        <Neuron NSynapses="41">
          -1.9107783337521096e+00 1.0268012502527843e+00 2.9202358021379510e-01 -2.3559904504437932e+00 1.4249280539250080e+00 -5.9644618270066085e-01 1.2853514041400724e+00 -5.4314444576446985e-01 1.3051256820373887e+00 1.0663511282471891e+00 -5.4399490562989505e-01 1.5870730165345568e+00 1.5485759825431071e+00 -5.8255830539286202e-01 4.9917981772205777e-01 1.0277220711754991e+00 1.2088389040947829e+00 1.3040925860553279e+00 1.0848013781191712e-01 -5.6150396448696294e-01 -1.8048413367087692e+00 7.7959683467368968e-01 -9.8675786347825378e-01 1.0554562537152743e+00 -1.9000718603863480e+00 -8.3454377435122157e-02 -1.9563868014049195e+00 9.5852675077913529e-01 3.5353695138349517e-01 4.0314751805057010e-02 -9.1115656745692919e-01 -5.9766593853230365e-01 -1.2402689005347540e+00 1.0405475306844856e+00 1.1947536327146067e+00 2.0328271592756435e+00 -5.5413911529180016e-01 -7.8043870464340737e-01 8.2377889316815822e-01 1.0452641509224097e+00 -4.8083980666358841e-02 
        </Neuron>
        <Neuron NSynapses="41">
          3.7810872064084204e+00 -2.7405017340872595e-01 3.2478686335954690e+00 4.8339599617956874e-01 -7.5989266731891725e-01 9.7766926623550021e-02 -3.0435813503705416e+00 1.3021342094852930e+00 1.3992369796111335e+00 -5.9289465044329070e-01 1.3383479686573301e+00 1.1137965190668087e+00 2.1623884045907174e+00 -1.9182424847368085e-01 -2.9589477999589170e-01 1.7836467047452717e-02 -1.2163809784972500e+01 -5.9274667384159208e-01 3.8358707580546403e-01 -1.1578297892666685e+00 -9.7460952435976814e-02 -8.0718316180725447e-01 5.6992064723272740e-01 6.0533377079054584e-01 -1.6370754174635327e+00 -3.6392857902777851e+00 4.4212276920785204e-01 2.6508835687185432e+00 1.5996761919203091e+00 2.2452705063646472e+00 2.1721878905317586e+00 1.9603537290779609e+00 3.5528129933468455e-01 3.1141553687979431e+00 -2.0226649348258599e-01 -1.7719338139462053e+00 -1.8223325216187649e+00 -2.1012230820480111e+00 7.3054974623757862e-01 -1.5090564851137007e+00 1.8106669794909591e+00 
        </Neuron>
        <Neuron NSynapses="41">
          3.9206358356886745e-01 1.1938756128389898e+00 1.7693134178163179e+00 5.1830364662456585e-01 4.6917902474487736e+00 7.0579491082075085e-01 1.0793705699022151e+00 1.2037258763674601e+00 1.5924491140838652e+00 -1.5499304966394263e+00 1.5162869200964422e+00 1.4894345129194246e+00 -5.7367950980848648e-01 -1.3745168041491529e+00 -7.3328946541975892e-01 1.0082193668991042e-01 -3.0915228355880724e+00 2.8343133148856925e-01 -1.8958144885387818e-01 3.8498931792103788e+00 2.7831284926098978e+00 3.5843600274111981e-01 -1.5050895471333172e+00 1.8231883352904685e-01 -1.8972973279949716e+00 1.7965943342030602e-01 7.8366744632944940e-01 1.8317919170338688e+00 -1.7019594001899176e+00 -1.8442897797822336e-01 9.6771460550686927e-01 1.6624257320706117e+00 -1.4688833373464032e+00 -4.7822947158757563e+00 -8.7127279743455677e-01 -7.2458334294936055e-01 -8.4227476459561146e-01 5.6862665288841796e-01 2.2631903427174316e+00 -2.3217306701514908e+00 -1.8122108536205159e+00 
        </Neuron>
        <Neuron NSynapses="41">
          1.1229150776283081e+00 -1.0071329196507490e+00 -2.7692936485522166e+00 -8.6717387102122800e-01 -9.1760134606158505e-01 9.6687768843088351e-01 1.3341511848826582e+00 -1.1467644725697166e+00 -1.0888240389785515e-01 2.0566324040263204e+00 1.8252996406810471e+00 1.5481351577728411e+00 6.4261211947048535e-01 -1.8409618863589209e+01 -8.1506261711171268e-01 4.2896343067255427e-01 -2.3906391930680576e-01 -1.2146651315563246e+00 1.1015000069709947e+01 -3.9807679891230763e-01 7.5533021836682299e-02 -8.9853028133019897e-01 3.0560910272867031e-01 -6.6929721719878807e-02 -1.4276802496690586e+00 -5.3940877726897130e-01 -7.1945328662338348e-01 -2.4740711148582994e-01 -1.4051190377549969e+00 -3.3342740697688672e-01 2.6248609789735744e-01 -2.7872276536594729e+00 4.3601315340943074e+00 -1.9993900266432649e-01 4.8704611824654603e-02 -1.6804008587182406e+00 1.1466139923924406e+00 -1.0778485572518757e+00 -2.3270509900708200e-01 1.2698656128617933e+00 2.9157872299069532e-01 
        </Neuron>
        <Neuron NSynapses="41">
          -6.5244151838214359e-01 -1.5900235173386401e+00 -1.2495631898558044e+00 1.2575879451929290e+00 -2.7663516743880517e-01 -1.9237756052813808e+00 2.2183438814829333e+00 1.1685519924142691e+00 2.0191806258230147e+00 4.1822504777190622e-01 1.4590411484187706e+00 -5.3604465298014636e-01 1.8454450844031365e+00 6.8444576016314373e-01 -3.1311179747421486e-01 -1.6708887859373804e+00 -1.7166798579733458e+00 2.9992953452016941e-01 -1.4229284005551601e+00 7.3894525738338923e-01 -1.0975740336555717e+00 -1.5500999620115350e+00 -8.1588681272989994e-01 2.0604947815798567e+00 4.3620196407536826e-01 -2.3988390212997746e+00 -5.6476381587616975e-01 2.4676762903510583e+00 1.7823309667739640e+00 -1.5865040516996698e+00 -5.8483258874618083e-01 -2.8778659133763124e-01 1.4381245023732312e+00 -2.0780152554712390e+00 -5.2835254332867676e-01 1.6034822640280129e+00 1.6339340643675129e-01 -4.1960740054508255e-01 -7.6208696078474414e-01 -7.0065862400242973e-01 -1.6342207268472324e+00 
        </Neuron>
        <Neuron NSynapses="41">
          1.1920375725197043e+00 -9.6674629583089844e-01 -2.2523670333612555e+00 -5.1559211524246241e-03 -3.4121537944451839e+00 1.4359345442664730e+00 1.9738435947787953e+00 -1.0842229003618199e-01 -2.8701389861075723e+00 -7.4998800970232082e-01 5.1262237050699277e-01 -4.5613297700922406e-01 3.0594688701385979e+00 3.1618948254560166e+01 9.4009385139224078e-02 -9.5937664216431315e+00 -3.0759772464809043e+01 -5.1798561540423484e-02 -1.7100008527553577e+01 1.3746864724767679e+01 -8.9515725949344471e-01 9.9879657115707998e-01 3.1194632318764281e+01 -4.0021320522028631e-01 9.8398491980954428e-01 -1.9216360592784993e+00 6.2678593920779135e-01 -3.0343597864729510e+00 2.0616229894166125e+00 -2.2649227234440819e+00 -6.5896425422384208e+00 4.0321006042834556e-01 4.0656813909085505e+00 -1.2974391328152368e+01 -4.1469190294525191e+01 2.9322475937786330e-01 3.9067865590092771e-01 9.7668031261919375e-01 1.2250923893584091e+00 2.2420412708576607e+00 5.2090719196921709e-01 
        </Neuron>
        <Neuron NSynapses="41">
          -1.0809714256235252e+00 -1.0688905569347906e+00 8.5177978647569230e-01 -7.3110019009710192e-01 4.0981878661241433e+00 1.4094703345717969e+00 -5.3913576618063130e-01 -1.9698059265039889e+00 -1.2447721299225609e+00 -1.4208824949928780e+00 -3.3357630767731785e+00 3.8560222583434340e+00 -4.4067619692010174e-01 -2.4618733632254074e+01 -3.2910323477600606e-01 9.8284604714495885e+00 3.0783593280789805e+01 -3.2982997526093333e-01 1.7138635075806924e+01 -1.3727229377083365e+01 6.8466619010442642e-01 8.0711169916711123e-02 -3.0649214257840168e+01 -1.6680396638269359e+00 -1.8509602467472674e+00 -3.5988729081130399e+00 1.2822340169490172e+00 -1.1652201098731143e+00 -5.2943200679646401e+00 1.3267968081347841e+00 8.8644571217218964e+00 -9.3458741147879965e-01 -3.2041943780191930e+00 1.2602597610615295e+01 4.1431142163733632e+01 -8.4574551243982110e-01 7.9947398583543647e-02 -4.8580180005576974e+00 4.3334480649228517e+00 -6.0740859277438286e-01 -5.6555930075412209e-01 
        </Neuron>
        <Neuron NSynapses="41">
          1.7342605944291247e+00 -1.0849272337311726e+00 -1.6454012116301830e+00 -1.1811076663967051e+00 -3.2469709836302947e+00 -1.2178565616278943e-01 -2.4814413995475151e-01 1.3845051739352734e+00 1.7001686846212907e+00 2.0503035423677451e-01 6.7423674163251768e-01 -1.7466542083377197e+00 -3.5307793324504849e-01 2.9663940114546592e+00 2.1505908244671406e+00 -1.7340289733482850e+00 -3.4684637593632615e+00 -8.2077842390676600e-02 -1.3920293461608428e+00 1.2039381755191234e+00 9.5478000939889185e-01 1.1922194865983697e+00 5.9600258496377387e+00 7.7157474853289598e-01 1.2755826051069252e+00 -4.5798243484949164e-01 1.0388416471355695e+00 1.1299152316276400e+00 -1.0918606777973716e+00 7.0416206125881453e-01 2.4408862312889634e+00 -1.6372273999477027e+00 -9.8962639058964508e-01 -3.1720922719095155e+00 -1.0796258377577518e+01 1.8522126753970662e+00 1.5820093220222370e-01 2.4112513162727174e+00 1.4640360009718037e-01 3.6866147033936136e-01 6.4932013702219848e-01 
        </Neuron>
        <Neuron NSynapses="41">
          3.4796831384746391e-01 1.6657274634495862e+00 1.0782948731621619e-01 -1.2778168211873402e+00 -1.2739537758029698e+00 -5.7344730156869406e-01 -1.0684658462021097e+00 1.9142265884378780e+00 9.9761779349085489e-01 -1.0267679251382418e+00 3.1959793804595499e-01 -8.4089614595259521e-01 1.3315245240655089e+00 -9.5493201025778980e+00 -8.9561794819807639e-01 1.5078149048730456e+00 3.4760635330862972e+00 -2.3662877873876349e+00 1.3683564032493816e+00 -1.0788975169229900e+00 3.0500130909150913e-01 -4.1922110710672977e-01 -6.1945284424525964e+00 6.4926002898351667e-02 1.4117358557480628e+00 -1.1250832201166079e+00 1.9976494280961912e-01 -2.2527094720443688e+00 -2.9866506701019722e+00 1.4813894843845166e+00 4.9629177955630288e+00 1.1839794484844567e-01 -6.8432197116188431e-01 3.2186076936330155e+00 1.0876464615597699e+01 -1.3310847339915168e+00 8.7865969403783006e-01 -1.5210937096902839e+00 -8.6894019159917812e-01 -1.4945407859649684e+00 -2.7957079587882128e-01 
        </Neuron>
        <Neuron NSynapses="41">
          -6.6369065095852897e-01 -1.0770751629711608e+00 5.5123216986209900e-01 -2.1686632985361789e+00 -1.0476360465099185e-01 -3.9448874126578332e-01 6.4974150488284621e-01 -2.2447863480677421e+00 -8.9568712718691978e-01 -3.2207391778731282e+00 7.3002995593636122e-01 -1.9542412190638396e+00 2.7052987570792020e-01 1.7165314131375407e+01 -1.7475770756139117e-01 -1.8366059334909760e+01 -2.5822547868978268e-01 -9.3852408954558364e-01 -8.8832594656289405e+00 3.4927265858882844e-01 2.3522931211230902e+00 3.3874938914366699e+00 -5.5313904683962534e-01 1.8062739350964732e+00 -1.3109272112405259e+00 1.2698816960100108e+00 -2.1590227457830913e-01 2.7057035221179007e+00 3.4826497944545558e+00 2.0223174786698341e+00 -7.6430361935902988e+00 2.1255947638627767e-01 8.5858508289165025e-01 1.3780515728004947e-01 -5.2214572016952239e+01 4.0047372830290495e+00 -1.9691563527611695e+00 9.3868541082299661e-01 -3.2282431323788221e+00 -6.4340122888550200e-01 -3.9173638634245239e-01 
        </Neuron>
        <Neuron NSynapses="41">
          8.7282033845528184e-01 1.2522452125164836e+00 -2.8969265242494338e+00 -1.1048882348902740e+00 -3.0923630113161428e-03 2.4849480934885819e+00 -5.4077779817146143e-01 6.1685649739151638e-01 1.8080601666282722e-01 -7.9345293731900368e-01 -1.7401887283941653e+00 1.0961834207505440e-01 3.0153859445552961e-01 -1.5112423316495821e+01 -2.3746585426129125e+00 1.2884608678171776e+00 4.9074441050267987e+00 -1.0722126123650075e+00 2.8652610862246410e+00 -7.5809379650331832e-01 7.9418939117267426e-02 1.3053774773669626e+00 -5.7347840573401321e+00 1.7278379141695668e+00 -2.0414002508646303e-01 2.3019589202902320e+00 6.9426469355855891e-01 -1.9380423986661377e+00 7.5763783354760772e-01 -1.6343966263197640e-01 -3.3411969991169584e-02 -2.1371613626534902e+00 9.8501532710990869e-01 1.6610859588985791e+00 9.9926816591551226e+00 -2.5690667971927139e+00 -4.1524753838680084e-01 1.3192283307137296e+00 6.1797243758004916e-01 -6.6318143705329491e-01 -2.6426682368278143e+00 
        </Neuron>
        <Neuron NSynapses="41">
          9.6378694506280294e-01 1.4285802137759427e+00 -6.0550645646685008e-01 -2.0369821135122343e+00 5.0014917129993364e-01 3.2956877798749007e-01 -1.6390245382824591e+00 -2.3955932771644886e-01 -6.8684064923026666e-01 -2.2451817551704201e+00 -1.9976409662413153e+00 2.1798934568979189e+00 1.0341954994661677e+00 -3.3800347992561117e+00 1.7275228355252539e-01 -8.9037288448621321e-01 -4.9846745148044924e+00 -8.8023970158591502e-01 -3.1063831043324601e+00 8.5963724009741493e-01 -3.8446608994214537e-01 -1.5905529258369229e+00 5.5941200565670446e+00 -1.2010473404095232e+00 2.5401773915904452e-01 5.9961843535229087e-01 3.8585658460106587e-01 -2.1737218572447685e+00 1.5813644360908792e+00 -2.4092184648746713e+00 2.5854265744156896e-01 -1.8843834983027938e+00 1.7952861154114355e+00 -1.4077876309337409e+00 -9.8770287739168054e+00 -2.5489595879539921e+00 1.0193124663852433e+00 1.8913020030067020e+00 1.3644874149510605e-01 -1.3128743766579669e+00 1.0996517648889388e+00 
        </Neuron>
        <Neuron NSynapses="41">
          -1.1867610264887518e+00 3.4941690953792126e-01 -1.7166607276923205e+00 1.7324217414061394e+00 2.6493938759675277e+00 -1.6805256706746288e+00 -1.8820058468681393e+00 -1.6937190802188401e-01 -2.0235333324749186e-01 6.0779224536798682e-01 5.4343487961044334e-01 8.4946044343526220e-02 -1.2161057627507563e+00 -7.0309156069456220e+00 -3.2025912408593321e-01 9.4071630206052728e+00 9.8547066681005582e+00 -2.5777282538917173e-01 3.5243895545557393e+00 -1.8713134502211251e+00 1.1598211217560241e+00 2.9149068079074971e+00 -1.0830473993765560e+01 -1.3679616797555387e+00 9.6715228699404598e-01 1.9291810884654259e+00 -1.3839731738562839e+00 9.0998217502709033e-01 -8.6436780706691529e-02 -1.5341801345362234e+00 1.3637177329811778e+00 5.8775029861978589e-01 -1.1830842552478273e+00 7.2521135006151294e+00 4.3584657057397543e+01 -4.2785330996836762e-01 9.6383824752833447e-01 8.1698275778709240e-01 2.7944856373886471e+00 2.3631574878643931e+00 -8.0119431835866262e-01 
        </Neuron>
      </Layer>
      <Layer Index="1" NNeurons="42">
        <Neuron NSynapses="1">
          1.5340583650287691e+00 
        </Neuron>
        <Neuron NSynapses="1">
          -5.9092474943080642e-01 
        </Neuron>
        <Neuron NSynapses="1">
          -2.0402044855793728e+00 
        </Neuron>
        <Neuron NSynapses="1">
          -4.0817011599565445e-01 
        </Neuron>
        <Neuron NSynapses="1">
          -1.4223208543883501e+00 
        </Neuron>
        <Neuron NSynapses="1">
          1.9305108167969309e+00 
        </Neuron>
        <Neuron NSynapses="1">
          7.1851120365641641e-01 
        </Neuron>
        <Neuron NSynapses="1">
          2.5556878793125470e+00 
        </Neuron>
        <Neuron NSynapses="1">
          -2.5442883158790646e+00 
        </Neuron>
        <Neuron NSynapses="1">
          1.8109973056234954e+00 
        </Neuron>
        <Neuron NSynapses="1">
          1.0057251917231380e+00 
        </Neuron>
        <Neuron NSynapses="1">
          -4.9601632938290585e-01 
        </Neuron>
        <Neuron NSynapses="1">
          6.9842276053848096e-01 
        </Neuron>
        <Neuron NSynapses="1">
          1.9619674900352253e+00 
        </Neuron>
        <Neuron NSynapses="1">
          9.6223888910897060e-01 
        </Neuron>
        <Neuron NSynapses="1">
          -2.0449373015778667e+00 
        </Neuron>
        <Neuron NSynapses="1">
          -2.4377556442345956e+00 
        </Neuron>
        <Neuron NSynapses="1">
          1.1424638767419799e+00 
        </Neuron>
        <Neuron NSynapses="1">
          -4.7146046150109200e+00 
        </Neuron>
        <Neuron NSynapses="1">
          1.7036533048663396e+00 
        </Neuron>
        <Neuron NSynapses="1">
          -1.4028082517629479e+00 
        </Neuron>
        <Neuron NSynapses="1">
          -5.8210018943174937e+00 
        </Neuron>
        <Neuron NSynapses="1">
          1.6181113699946461e+00 
        </Neuron>
        <Neuron NSynapses="1">
          3.6628029528013033e+00 
        </Neuron>
        <Neuron NSynapses="1">
          1.3553063387237747e+00 
        </Neuron>
        <Neuron NSynapses="1">
          1.9269392301635799e+00 
        </Neuron>
        <Neuron NSynapses="1">
          -1.5691872237046376e+00 
        </Neuron>
        <Neuron NSynapses="1">
          -1.5847012265238618e+00 
        </Neuron>
        <Neuron NSynapses="1">
          7.3503454838616877e-01 
        </Neuron>
        <Neuron NSynapses="1">
          2.2850679509288123e+00 
        </Neuron>
        <Neuron NSynapses="1">
          -1.3188001533049978e+00 
        </Neuron>
        <Neuron NSynapses="1">
          1.5150802552900411e+00 
        </Neuron>
        <Neuron NSynapses="1">
          1.2522994718237370e+00 
        </Neuron>
        <Neuron NSynapses="1">
          -2.2486384921112839e+00 
        </Neuron>
        <Neuron NSynapses="1">
          -8.4616126154525677e+00 
        </Neuron>
        <Neuron NSynapses="1">
          -3.8246333117158029e+00 
        </Neuron>
        <Neuron NSynapses="1">
          3.7638637519167145e-01 
        </Neuron>
        <Neuron NSynapses="1">
          1.2248263272159687e+00 
        </Neuron>
        <Neuron NSynapses="1">
          -6.4011040810944175e-01 
        </Neuron>
        <Neuron NSynapses="1">
          -7.1362111786473204e-01 
        </Neuron>
        <Neuron NSynapses="1">
          8.6110669850721477e-01 
        </Neuron>
        <Neuron NSynapses="1">
          1.9517764271949052e+00 
        </Neuron>
      </Layer>
      <Layer Index="2" NNeurons="1">
        <Neuron NSynapses="0"/>
      </Layer>
    </Layout>
  </Weights>
</MethodSetup>
