<?xml version="1.0"?>
<MethodSetup Method="MLP::Muon_Long_TMVA">
  <GeneralInfo>
    <Info name="TMVA Release" value="4.2.0 [262656]"/>
    <Info name="ROOT Release" value="6.02/01 [393729]"/>
    <Info name="Creator" value="jonesc"/>
    <Info name="Date" value="Thu Feb  4 04:58:33 2016"/>
    <Info name="Host" value="Linux lcgapp-slc6-physical1.cern.ch 2.6.32-431.29.2.el6.x86_64 #1 SMP Wed Sep 10 11:13:12 CEST 2014 x86_64 x86_64 x86_64 GNU/Linux"/>
    <Info name="Dir" value="/var/pcfst/r03/lhcb/jonesc/ANNPID/results/MC2015Sim09Dev03/TrainMixture/TrainPhysTks-EvalPhysTks-NoReweight/GhostAccFrac0.1/TMVA-Run2-NoTkLikCDVelodEdx/MLP/Norm/ScaleF1.3/BP/NCycles750/CE/tanh/CVTest15/CVImp1e-16/NotUseRegulator/Muon/Long"/>
    <Info name="Training events" value="1822527"/>
    <Info name="TrainingTime" value="5.32157524e+04"/>
    <Info name="AnalysisType" value="Classification"/>
  </GeneralInfo>
  <Options>
    <Option name="NCycles" modified="Yes">750</Option>
    <Option name="HiddenLayers" modified="Yes">41</Option>
    <Option name="NeuronType" modified="Yes">tanh</Option>
    <Option name="RandomSeed" modified="No">1</Option>
    <Option name="EstimatorType" modified="Yes">CE</Option>
    <Option name="NeuronInputType" modified="No">sum</Option>
    <Option name="V" modified="Yes">True</Option>
    <Option name="VerbosityLevel" modified="No">Verbose</Option>
    <Option name="VarTransform" modified="Yes">Norm</Option>
    <Option name="H" modified="Yes">True</Option>
    <Option name="CreateMVAPdfs" modified="No">False</Option>
    <Option name="IgnoreNegWeightsInTraining" modified="No">False</Option>
    <Option name="TrainingMethod" modified="Yes">BP</Option>
    <Option name="LearningRate" modified="No">2.000000e-02</Option>
    <Option name="DecayRate" modified="No">1.000000e-02</Option>
    <Option name="TestRate" modified="No">10</Option>
    <Option name="EpochMonitoring" modified="Yes">True</Option>
    <Option name="Sampling" modified="No">1.000000e+00</Option>
    <Option name="SamplingEpoch" modified="No">1.000000e+00</Option>
    <Option name="SamplingImportance" modified="No">1.000000e+00</Option>
    <Option name="SamplingTraining" modified="No">True</Option>
    <Option name="SamplingTesting" modified="No">False</Option>
    <Option name="ResetStep" modified="No">50</Option>
    <Option name="Tau" modified="No">3.000000e+00</Option>
    <Option name="BPMode" modified="No">sequential</Option>
    <Option name="BatchSize" modified="No">-1</Option>
    <Option name="ConvergenceImprove" modified="Yes">1.000000e-16</Option>
    <Option name="ConvergenceTests" modified="Yes">15</Option>
    <Option name="UseRegulator" modified="Yes">False</Option>
    <Option name="UpdateLimit" modified="No">10000</Option>
    <Option name="CalculateErrors" modified="No">False</Option>
    <Option name="WeightRange" modified="No">1.000000e+00</Option>
  </Options>
  <Variables NVar="32">
    <Variable VarIndex="0" Expression="TrackP" Label="TrackP" Title="TrackP" Unit="" Internal="TrackP" Type="F" Min="3.00002002e+03" Max="1.10484025e+06"/>
    <Variable VarIndex="1" Expression="TrackPt" Label="TrackPt" Title="TrackPt" Unit="" Internal="TrackPt" Type="F" Min="5.63533115e+00" Max="6.50900820e+04"/>
    <Variable VarIndex="2" Expression="TrackChi2PerDof" Label="TrackChi2PerDof" Title="TrackChi2PerDof" Unit="" Internal="TrackChi2PerDof" Type="F" Min="1.18070714e-01" Max="3.99995232e+00"/>
    <Variable VarIndex="3" Expression="TrackNumDof" Label="TrackNumDof" Title="TrackNumDof" Unit="" Internal="TrackNumDof" Type="I" Min="7.00000000e+00" Max="5.20000000e+01"/>
    <Variable VarIndex="4" Expression="TrackGhostProbability" Label="TrackGhostProbability" Title="TrackGhostProbability" Unit="" Internal="TrackGhostProbability" Type="F" Min="1.46638765e-03" Max="3.99999499e-01"/>
    <Variable VarIndex="5" Expression="TrackFitMatchChi2" Label="TrackFitMatchChi2" Title="TrackFitMatchChi2" Unit="" Internal="TrackFitMatchChi2" Type="F" Min="7.81879667e-03" Max="1.44878067e+02"/>
    <Variable VarIndex="6" Expression="TrackFitVeloChi2" Label="TrackFitVeloChi2" Title="TrackFitVeloChi2" Unit="" Internal="TrackFitVeloChi2" Type="F" Min="1.41793942e-06" Max="9.68539963e+01"/>
    <Variable VarIndex="7" Expression="TrackFitVeloNDoF" Label="TrackFitVeloNDoF" Title="TrackFitVeloNDoF" Unit="" Internal="TrackFitVeloNDoF" Type="I" Min="1.00000000e+00" Max="2.50000000e+01"/>
    <Variable VarIndex="8" Expression="TrackFitTChi2" Label="TrackFitTChi2" Title="TrackFitTChi2" Unit="" Internal="TrackFitTChi2" Type="F" Min="6.51648035e-04" Max="1.10610077e+02"/>
    <Variable VarIndex="9" Expression="TrackFitTNDoF" Label="TrackFitTNDoF" Title="TrackFitTNDoF" Unit="" Internal="TrackFitTNDoF" Type="I" Min="1.00000000e+00" Max="3.10000000e+01"/>
    <Variable VarIndex="10" Expression="RichUsedR1Gas" Label="RichUsedR1Gas" Title="RichUsedR1Gas" Unit="" Internal="RichUsedR1Gas" Type="I" Min="0.00000000e+00" Max="1.00000000e+00"/>
    <Variable VarIndex="11" Expression="RichUsedR2Gas" Label="RichUsedR2Gas" Title="RichUsedR2Gas" Unit="" Internal="RichUsedR2Gas" Type="I" Min="0.00000000e+00" Max="1.00000000e+00"/>
    <Variable VarIndex="12" Expression="RichAboveMuThres" Label="RichAboveMuThres" Title="RichAboveMuThres" Unit="" Internal="RichAboveMuThres" Type="I" Min="0.00000000e+00" Max="1.00000000e+00"/>
    <Variable VarIndex="13" Expression="RichAboveKaThres" Label="RichAboveKaThres" Title="RichAboveKaThres" Unit="" Internal="RichAboveKaThres" Type="I" Min="0.00000000e+00" Max="1.00000000e+00"/>
    <Variable VarIndex="14" Expression="RichDLLe" Label="RichDLLe" Title="RichDLLe" Unit="" Internal="RichDLLe" Type="F" Min="-9.99000000e+02" Max="1.47188995e+02"/>
    <Variable VarIndex="15" Expression="RichDLLmu" Label="RichDLLmu" Title="RichDLLmu" Unit="" Internal="RichDLLmu" Type="F" Min="-9.99000000e+02" Max="1.43246399e+02"/>
    <Variable VarIndex="16" Expression="RichDLLk" Label="RichDLLk" Title="RichDLLk" Unit="" Internal="RichDLLk" Type="F" Min="-9.99000000e+02" Max="1.57361496e+02"/>
    <Variable VarIndex="17" Expression="RichDLLp" Label="RichDLLp" Title="RichDLLp" Unit="" Internal="RichDLLp" Type="F" Min="-9.99000000e+02" Max="1.02936096e+02"/>
    <Variable VarIndex="18" Expression="RichDLLbt" Label="RichDLLbt" Title="RichDLLbt" Unit="" Internal="RichDLLbt" Type="F" Min="-9.99000000e+02" Max="6.74290009e+01"/>
    <Variable VarIndex="19" Expression="MuonBkgLL" Label="MuonBkgLL" Title="MuonBkgLL" Unit="" Internal="MuonBkgLL" Type="F" Min="-1.17610998e+01" Max="2.59000007e-02"/>
    <Variable VarIndex="20" Expression="MuonMuLL" Label="MuonMuLL" Title="MuonMuLL" Unit="" Internal="MuonMuLL" Type="F" Min="-6.90775986e+01" Max="0.00000000e+00"/>
    <Variable VarIndex="21" Expression="MuonNShared" Label="MuonNShared" Title="MuonNShared" Unit="" Internal="MuonNShared" Type="I" Min="1.00000000e+00" Max="4.50000000e+01"/>
    <Variable VarIndex="22" Expression="InAccEcal" Label="InAccEcal" Title="InAccEcal" Unit="" Internal="InAccEcal" Type="I" Min="0.00000000e+00" Max="1.00000000e+00"/>
    <Variable VarIndex="23" Expression="EcalPIDe" Label="EcalPIDe" Title="EcalPIDe" Unit="" Internal="EcalPIDe" Type="F" Min="-9.99000000e+02" Max="4.05479050e+00"/>
    <Variable VarIndex="24" Expression="EcalPIDmu" Label="EcalPIDmu" Title="EcalPIDmu" Unit="" Internal="EcalPIDmu" Type="F" Min="-9.99000000e+02" Max="2.15297604e+00"/>
    <Variable VarIndex="25" Expression="InAccHcal" Label="InAccHcal" Title="InAccHcal" Unit="" Internal="InAccHcal" Type="I" Min="0.00000000e+00" Max="1.00000000e+00"/>
    <Variable VarIndex="26" Expression="HcalPIDe" Label="HcalPIDe" Title="HcalPIDe" Unit="" Internal="HcalPIDe" Type="F" Min="-9.99000000e+02" Max="3.12796974e+00"/>
    <Variable VarIndex="27" Expression="HcalPIDmu" Label="HcalPIDmu" Title="HcalPIDmu" Unit="" Internal="HcalPIDmu" Type="F" Min="-9.99000000e+02" Max="2.87338901e+00"/>
    <Variable VarIndex="28" Expression="InAccPrs" Label="InAccPrs" Title="InAccPrs" Unit="" Internal="InAccPrs" Type="I" Min="0.00000000e+00" Max="1.00000000e+00"/>
    <Variable VarIndex="29" Expression="PrsPIDe" Label="PrsPIDe" Title="PrsPIDe" Unit="" Internal="PrsPIDe" Type="F" Min="-9.99000000e+02" Max="3.46313500e+00"/>
    <Variable VarIndex="30" Expression="InAccBrem" Label="InAccBrem" Title="InAccBrem" Unit="" Internal="InAccBrem" Type="I" Min="0.00000000e+00" Max="1.00000000e+00"/>
    <Variable VarIndex="31" Expression="BremPIDe" Label="BremPIDe" Title="BremPIDe" Unit="" Internal="BremPIDe" Type="F" Min="-9.99000000e+02" Max="4.79148388e+00"/>
  </Variables>
  <Spectators NSpec="0"/>
  <Classes NClass="2">
    <Class Name="Signal" Index="0"/>
    <Class Name="Background" Index="1"/>
  </Classes>
  <Transformations NTransformations="1">
    <Transform Name="Normalize">
      <Selection>
        <Input NInputs="32">
          <Input Type="Variable" Label="TrackP" Expression="TrackP"/>
          <Input Type="Variable" Label="TrackPt" Expression="TrackPt"/>
          <Input Type="Variable" Label="TrackChi2PerDof" Expression="TrackChi2PerDof"/>
          <Input Type="Variable" Label="TrackNumDof" Expression="TrackNumDof"/>
          <Input Type="Variable" Label="TrackGhostProbability" Expression="TrackGhostProbability"/>
          <Input Type="Variable" Label="TrackFitMatchChi2" Expression="TrackFitMatchChi2"/>
          <Input Type="Variable" Label="TrackFitVeloChi2" Expression="TrackFitVeloChi2"/>
          <Input Type="Variable" Label="TrackFitVeloNDoF" Expression="TrackFitVeloNDoF"/>
          <Input Type="Variable" Label="TrackFitTChi2" Expression="TrackFitTChi2"/>
          <Input Type="Variable" Label="TrackFitTNDoF" Expression="TrackFitTNDoF"/>
          <Input Type="Variable" Label="RichUsedR1Gas" Expression="RichUsedR1Gas"/>
          <Input Type="Variable" Label="RichUsedR2Gas" Expression="RichUsedR2Gas"/>
          <Input Type="Variable" Label="RichAboveMuThres" Expression="RichAboveMuThres"/>
          <Input Type="Variable" Label="RichAboveKaThres" Expression="RichAboveKaThres"/>
          <Input Type="Variable" Label="RichDLLe" Expression="RichDLLe"/>
          <Input Type="Variable" Label="RichDLLmu" Expression="RichDLLmu"/>
          <Input Type="Variable" Label="RichDLLk" Expression="RichDLLk"/>
          <Input Type="Variable" Label="RichDLLp" Expression="RichDLLp"/>
          <Input Type="Variable" Label="RichDLLbt" Expression="RichDLLbt"/>
          <Input Type="Variable" Label="MuonBkgLL" Expression="MuonBkgLL"/>
          <Input Type="Variable" Label="MuonMuLL" Expression="MuonMuLL"/>
          <Input Type="Variable" Label="MuonNShared" Expression="MuonNShared"/>
          <Input Type="Variable" Label="InAccEcal" Expression="InAccEcal"/>
          <Input Type="Variable" Label="EcalPIDe" Expression="EcalPIDe"/>
          <Input Type="Variable" Label="EcalPIDmu" Expression="EcalPIDmu"/>
          <Input Type="Variable" Label="InAccHcal" Expression="InAccHcal"/>
          <Input Type="Variable" Label="HcalPIDe" Expression="HcalPIDe"/>
          <Input Type="Variable" Label="HcalPIDmu" Expression="HcalPIDmu"/>
          <Input Type="Variable" Label="InAccPrs" Expression="InAccPrs"/>
          <Input Type="Variable" Label="PrsPIDe" Expression="PrsPIDe"/>
          <Input Type="Variable" Label="InAccBrem" Expression="InAccBrem"/>
          <Input Type="Variable" Label="BremPIDe" Expression="BremPIDe"/>
        </Input>
        <Output NOutputs="32">
          <Output Type="Variable" Label="TrackP" Expression="TrackP"/>
          <Output Type="Variable" Label="TrackPt" Expression="TrackPt"/>
          <Output Type="Variable" Label="TrackChi2PerDof" Expression="TrackChi2PerDof"/>
          <Output Type="Variable" Label="TrackNumDof" Expression="TrackNumDof"/>
          <Output Type="Variable" Label="TrackGhostProbability" Expression="TrackGhostProbability"/>
          <Output Type="Variable" Label="TrackFitMatchChi2" Expression="TrackFitMatchChi2"/>
          <Output Type="Variable" Label="TrackFitVeloChi2" Expression="TrackFitVeloChi2"/>
          <Output Type="Variable" Label="TrackFitVeloNDoF" Expression="TrackFitVeloNDoF"/>
          <Output Type="Variable" Label="TrackFitTChi2" Expression="TrackFitTChi2"/>
          <Output Type="Variable" Label="TrackFitTNDoF" Expression="TrackFitTNDoF"/>
          <Output Type="Variable" Label="RichUsedR1Gas" Expression="RichUsedR1Gas"/>
          <Output Type="Variable" Label="RichUsedR2Gas" Expression="RichUsedR2Gas"/>
          <Output Type="Variable" Label="RichAboveMuThres" Expression="RichAboveMuThres"/>
          <Output Type="Variable" Label="RichAboveKaThres" Expression="RichAboveKaThres"/>
          <Output Type="Variable" Label="RichDLLe" Expression="RichDLLe"/>
          <Output Type="Variable" Label="RichDLLmu" Expression="RichDLLmu"/>
          <Output Type="Variable" Label="RichDLLk" Expression="RichDLLk"/>
          <Output Type="Variable" Label="RichDLLp" Expression="RichDLLp"/>
          <Output Type="Variable" Label="RichDLLbt" Expression="RichDLLbt"/>
          <Output Type="Variable" Label="MuonBkgLL" Expression="MuonBkgLL"/>
          <Output Type="Variable" Label="MuonMuLL" Expression="MuonMuLL"/>
          <Output Type="Variable" Label="MuonNShared" Expression="MuonNShared"/>
          <Output Type="Variable" Label="InAccEcal" Expression="InAccEcal"/>
          <Output Type="Variable" Label="EcalPIDe" Expression="EcalPIDe"/>
          <Output Type="Variable" Label="EcalPIDmu" Expression="EcalPIDmu"/>
          <Output Type="Variable" Label="InAccHcal" Expression="InAccHcal"/>
          <Output Type="Variable" Label="HcalPIDe" Expression="HcalPIDe"/>
          <Output Type="Variable" Label="HcalPIDmu" Expression="HcalPIDmu"/>
          <Output Type="Variable" Label="InAccPrs" Expression="InAccPrs"/>
          <Output Type="Variable" Label="PrsPIDe" Expression="PrsPIDe"/>
          <Output Type="Variable" Label="InAccBrem" Expression="InAccBrem"/>
          <Output Type="Variable" Label="BremPIDe" Expression="BremPIDe"/>
        </Output>
      </Selection>
      <Class ClassIndex="0">
        <Ranges>
          <Range Index="0" Min="3.0001101074218750e+03" Max="1.1048402500000000e+06"/>
          <Range Index="1" Min="1.2626031875610352e+01" Max="6.5090082031250000e+04"/>
          <Range Index="2" Min="1.4558325707912445e-01" Max="3.9999523162841797e+00"/>
          <Range Index="3" Min="8.0000000000000000e+00" Max="5.0000000000000000e+01"/>
          <Range Index="4" Min="1.4805693645030260e-03" Max="3.9999949932098389e-01"/>
          <Range Index="5" Min="7.8187966719269753e-03" Max="1.2950581359863281e+02"/>
          <Range Index="6" Min="4.2778324313985649e-06" Max="9.6853996276855469e+01"/>
          <Range Index="7" Min="1.0000000000000000e+00" Max="2.4000000000000000e+01"/>
          <Range Index="8" Min="2.4148477241396904e-03" Max="1.0877799224853516e+02"/>
          <Range Index="9" Min="1.0000000000000000e+00" Max="2.9000000000000000e+01"/>
          <Range Index="10" Min="0.0000000000000000e+00" Max="1.0000000000000000e+00"/>
          <Range Index="11" Min="0.0000000000000000e+00" Max="1.0000000000000000e+00"/>
          <Range Index="12" Min="0.0000000000000000e+00" Max="1.0000000000000000e+00"/>
          <Range Index="13" Min="0.0000000000000000e+00" Max="1.0000000000000000e+00"/>
          <Range Index="14" Min="-9.9900000000000000e+02" Max="8.1708297729492188e+01"/>
          <Range Index="15" Min="-9.9900000000000000e+02" Max="1.4324639892578125e+02"/>
          <Range Index="16" Min="-9.9900000000000000e+02" Max="1.1908899688720703e+02"/>
          <Range Index="17" Min="-9.9900000000000000e+02" Max="6.1833999633789062e+01"/>
          <Range Index="18" Min="-9.9900000000000000e+02" Max="6.1833999633789062e+01"/>
          <Range Index="19" Min="-9.7033996582031250e+00" Max="1.4600000344216824e-02"/>
          <Range Index="20" Min="-6.9077598571777344e+01" Max="0.0000000000000000e+00"/>
          <Range Index="21" Min="1.0000000000000000e+00" Max="3.1000000000000000e+01"/>
          <Range Index="22" Min="0.0000000000000000e+00" Max="1.0000000000000000e+00"/>
          <Range Index="23" Min="-9.9900000000000000e+02" Max="4.0547904968261719e+00"/>
          <Range Index="24" Min="-9.9900000000000000e+02" Max="2.1529760360717773e+00"/>
          <Range Index="25" Min="0.0000000000000000e+00" Max="1.0000000000000000e+00"/>
          <Range Index="26" Min="-9.9900000000000000e+02" Max="3.1279697418212891e+00"/>
          <Range Index="27" Min="-9.9900000000000000e+02" Max="2.8733890056610107e+00"/>
          <Range Index="28" Min="0.0000000000000000e+00" Max="1.0000000000000000e+00"/>
          <Range Index="29" Min="-9.9900000000000000e+02" Max="3.3360030651092529e+00"/>
          <Range Index="30" Min="0.0000000000000000e+00" Max="1.0000000000000000e+00"/>
          <Range Index="31" Min="-9.9900000000000000e+02" Max="4.7914838790893555e+00"/>
        </Ranges>
      </Class>
      <Class ClassIndex="1">
        <Ranges>
          <Range Index="0" Min="3.0000200195312500e+03" Max="7.8775906250000000e+05"/>
          <Range Index="1" Min="5.6353311538696289e+00" Max="5.6100578125000000e+04"/>
          <Range Index="2" Min="1.1807071417570114e-01" Max="3.9999217987060547e+00"/>
          <Range Index="3" Min="7.0000000000000000e+00" Max="5.2000000000000000e+01"/>
          <Range Index="4" Min="1.4663876499980688e-03" Max="3.9999860525131226e-01"/>
          <Range Index="5" Min="1.2198588810861111e-02" Max="1.4487806701660156e+02"/>
          <Range Index="6" Min="1.4179394156599301e-06" Max="9.2883575439453125e+01"/>
          <Range Index="7" Min="1.0000000000000000e+00" Max="2.5000000000000000e+01"/>
          <Range Index="8" Min="6.5164803527295589e-04" Max="1.1061007690429688e+02"/>
          <Range Index="9" Min="1.0000000000000000e+00" Max="3.1000000000000000e+01"/>
          <Range Index="10" Min="0.0000000000000000e+00" Max="1.0000000000000000e+00"/>
          <Range Index="11" Min="0.0000000000000000e+00" Max="1.0000000000000000e+00"/>
          <Range Index="12" Min="0.0000000000000000e+00" Max="1.0000000000000000e+00"/>
          <Range Index="13" Min="0.0000000000000000e+00" Max="1.0000000000000000e+00"/>
          <Range Index="14" Min="-9.9900000000000000e+02" Max="1.4718899536132812e+02"/>
          <Range Index="15" Min="-9.9900000000000000e+02" Max="1.4307899475097656e+02"/>
          <Range Index="16" Min="-9.9900000000000000e+02" Max="1.5736149597167969e+02"/>
          <Range Index="17" Min="-9.9900000000000000e+02" Max="1.0293609619140625e+02"/>
          <Range Index="18" Min="-9.9900000000000000e+02" Max="6.7429000854492188e+01"/>
          <Range Index="19" Min="-1.1761099815368652e+01" Max="2.5900000706315041e-02"/>
          <Range Index="20" Min="-1.0998900413513184e+01" Max="0.0000000000000000e+00"/>
          <Range Index="21" Min="1.0000000000000000e+00" Max="4.5000000000000000e+01"/>
          <Range Index="22" Min="0.0000000000000000e+00" Max="1.0000000000000000e+00"/>
          <Range Index="23" Min="-9.9900000000000000e+02" Max="4.0547904968261719e+00"/>
          <Range Index="24" Min="-9.9900000000000000e+02" Max="2.1529760360717773e+00"/>
          <Range Index="25" Min="0.0000000000000000e+00" Max="1.0000000000000000e+00"/>
          <Range Index="26" Min="-9.9900000000000000e+02" Max="2.4842071533203125e+00"/>
          <Range Index="27" Min="-9.9900000000000000e+02" Max="2.8733890056610107e+00"/>
          <Range Index="28" Min="0.0000000000000000e+00" Max="1.0000000000000000e+00"/>
          <Range Index="29" Min="-9.9900000000000000e+02" Max="3.4631350040435791e+00"/>
          <Range Index="30" Min="0.0000000000000000e+00" Max="1.0000000000000000e+00"/>
          <Range Index="31" Min="-9.9900000000000000e+02" Max="4.7914838790893555e+00"/>
        </Ranges>
      </Class>
      <Class ClassIndex="2">
        <Ranges>
          <Range Index="0" Min="3.0000200195312500e+03" Max="1.1048402500000000e+06"/>
          <Range Index="1" Min="5.6353311538696289e+00" Max="6.5090082031250000e+04"/>
          <Range Index="2" Min="1.1807071417570114e-01" Max="3.9999523162841797e+00"/>
          <Range Index="3" Min="7.0000000000000000e+00" Max="5.2000000000000000e+01"/>
          <Range Index="4" Min="1.4663876499980688e-03" Max="3.9999949932098389e-01"/>
          <Range Index="5" Min="7.8187966719269753e-03" Max="1.4487806701660156e+02"/>
          <Range Index="6" Min="1.4179394156599301e-06" Max="9.6853996276855469e+01"/>
          <Range Index="7" Min="1.0000000000000000e+00" Max="2.5000000000000000e+01"/>
          <Range Index="8" Min="6.5164803527295589e-04" Max="1.1061007690429688e+02"/>
          <Range Index="9" Min="1.0000000000000000e+00" Max="3.1000000000000000e+01"/>
          <Range Index="10" Min="0.0000000000000000e+00" Max="1.0000000000000000e+00"/>
          <Range Index="11" Min="0.0000000000000000e+00" Max="1.0000000000000000e+00"/>
          <Range Index="12" Min="0.0000000000000000e+00" Max="1.0000000000000000e+00"/>
          <Range Index="13" Min="0.0000000000000000e+00" Max="1.0000000000000000e+00"/>
          <Range Index="14" Min="-9.9900000000000000e+02" Max="1.4718899536132812e+02"/>
          <Range Index="15" Min="-9.9900000000000000e+02" Max="1.4324639892578125e+02"/>
          <Range Index="16" Min="-9.9900000000000000e+02" Max="1.5736149597167969e+02"/>
          <Range Index="17" Min="-9.9900000000000000e+02" Max="1.0293609619140625e+02"/>
          <Range Index="18" Min="-9.9900000000000000e+02" Max="6.7429000854492188e+01"/>
          <Range Index="19" Min="-1.1761099815368652e+01" Max="2.5900000706315041e-02"/>
          <Range Index="20" Min="-6.9077598571777344e+01" Max="0.0000000000000000e+00"/>
          <Range Index="21" Min="1.0000000000000000e+00" Max="4.5000000000000000e+01"/>
          <Range Index="22" Min="0.0000000000000000e+00" Max="1.0000000000000000e+00"/>
          <Range Index="23" Min="-9.9900000000000000e+02" Max="4.0547904968261719e+00"/>
          <Range Index="24" Min="-9.9900000000000000e+02" Max="2.1529760360717773e+00"/>
          <Range Index="25" Min="0.0000000000000000e+00" Max="1.0000000000000000e+00"/>
          <Range Index="26" Min="-9.9900000000000000e+02" Max="3.1279697418212891e+00"/>
          <Range Index="27" Min="-9.9900000000000000e+02" Max="2.8733890056610107e+00"/>
          <Range Index="28" Min="0.0000000000000000e+00" Max="1.0000000000000000e+00"/>
          <Range Index="29" Min="-9.9900000000000000e+02" Max="3.4631350040435791e+00"/>
          <Range Index="30" Min="0.0000000000000000e+00" Max="1.0000000000000000e+00"/>
          <Range Index="31" Min="-9.9900000000000000e+02" Max="4.7914838790893555e+00"/>
        </Ranges>
      </Class>
    </Transform>
  </Transformations>
  <MVAPdfs/>
  <Weights>
    <Layout NLayers="3">
      <Layer Index="0" NNeurons="33">
        <Neuron NSynapses="41">
          5.7724814501014710e-01 2.8019956240806274e+00 2.3969115435055670e+01 1.8526401758022407e-01 -1.8780970614415324e+01 -3.2966295754671440e+00 -5.3253732225059798e+00 1.2757822471564850e+01 -2.9114820148310350e-01 -6.3155339534171751e-01 5.3075223519279499e-02 1.1899566209160664e+00 -1.2935407150759894e+00 2.4107834681594955e+00 1.0902535476249246e-02 1.2563100112171384e+01 -4.5031794482574733e-01 1.2218315920031122e+01 -4.6706908355202819e+00 3.6162487147456575e-02 -1.8234281967533359e+00 -1.7442574146024064e+01 2.5395302861514740e-03 4.2482902394356712e+00 -9.4865649606090019e-01 -1.1528158288233067e+01 6.8763906772911652e+00 1.1923403891891917e+01 -1.6240741447494214e+00 -3.8854831715750565e-01 1.9097539287613010e+00 9.2468988260608442e-01 1.2479993890730544e+01 5.5126632535525555e-01 -3.4453940102808672e-01 -6.5079452570736551e-01 -7.3921138539810940e+00 7.3385211346481305e-01 -1.8916290975925916e+00 1.5706285337139927e+00 -3.8781367679420833e+00 
        </Neuron>
        <Neuron NSynapses="41">
          4.1907207928583823e+00 2.4597172351128731e+00 5.3815570447097416e+00 2.5998112876361312e+00 -3.5783747560537066e+01 2.7093651219044484e-01 -3.5535241903139392e+00 4.7057298399876570e+00 3.3629565228866056e+00 4.3267313017490103e+00 -6.3123464027110572e+00 -1.3175443056476490e+00 1.0417261957350410e+00 -3.9976592039162268e-01 -3.2466642163718540e-01 7.4374166245474456e+00 -4.0714115001501110e+00 2.8890723130434825e+01 5.9490179505846514e+00 -2.5118362280303512e+00 7.7814306449349768e-01 -3.4554947669961376e+00 -7.1202428827867736e-01 2.1653406531898536e+01 -7.4694324186961022e-02 -7.7867691198314786e+00 -1.3158773288757777e+01 3.3866232611760507e+00 4.7014319240594615e-01 -6.4560313982795847e-01 -5.6096983616531189e+00 -3.5694113740673622e-01 3.3023298611317024e+01 2.6786378725124327e+00 -3.5972940099715811e-01 -2.4110318111677738e+00 7.5178244071968481e-01 -4.8386497067629373e+00 2.8258548032976832e-01 4.7052093002832125e+00 -7.2571299925619648e-01 
        </Neuron>
        <Neuron NSynapses="41">
          -6.2281075948072351e-01 5.3823523644057392e-01 3.9169954265554979e-01 -3.5311225921409655e+00 -2.6269385644321503e+00 -3.9632270551157478e-02 -1.4758565796550513e+00 9.8953692266698856e-01 -9.4360186239826016e-01 -7.7670906951822749e-01 3.7248142176685324e+00 -8.1092977244799147e-01 -1.3909624951028265e-01 -1.9592538236608990e+00 -2.3197723615812918e-02 3.1508530159815190e-01 5.4355878911765809e-01 -5.1716628426315345e-03 -1.1442845450715333e+00 6.1639844026242574e-01 -2.9879994509081814e-01 -6.3716870579540466e-02 4.6391687262436093e-01 -1.5525855540817890e+00 3.8313086025778603e-01 6.3993205824857502e-01 3.9673829910050693e+00 2.3919290826425429e-01 -2.4669652502655390e-01 -4.0299205924999626e-01 -1.3024688622498521e+00 -1.7624969882766772e-01 -6.4501510842766563e-01 3.5497785976876212e-01 1.9066554642964935e+00 3.9291257143900987e-01 -1.0972430875036729e+00 -3.4574694029047764e-01 5.4884353243757455e-01 -4.3943822948231195e-02 1.1890775694593010e+00 
        </Neuron>
        <Neuron NSynapses="41">
          5.0554767484681085e-01 1.2678852233190596e+00 -3.6187365033447710e-01 -2.9532547920898078e-01 1.1237806147534248e+00 1.8746494498458757e-01 2.1560011401601664e+00 4.3473188683451028e-02 1.3348721647411386e+00 2.9796295927476648e+00 -5.2912801701708263e+00 2.0282807154681421e+00 -1.8903168106566905e+00 2.6772886831403189e+00 -1.1871167733780075e+00 -8.4244553640410014e-01 -5.7849082807651227e-02 -1.6484747760923932e+00 -1.5450237298677702e-01 -5.9181162426618206e-01 1.4808345647828689e+00 -4.7789461707568825e-01 5.7263544549616496e-01 2.1155162048420264e+00 -4.3651702657421354e-01 -9.9580387967861972e-01 3.5169959155292321e+00 -1.0448167951923870e+00 -1.2050628978630483e-02 -9.5192522898609699e-01 2.8976693842669982e-01 -5.1941563843718379e+00 -1.1009352583290897e+00 6.2001405299123746e-01 -1.3726419677719119e+00 1.5930294796677169e+00 1.6249243203878274e+00 1.4279009053714924e+00 -1.7929409124581863e+00 6.9247731062648132e-01 -2.0043282809769558e-01 
        </Neuron>
        <Neuron NSynapses="41">
          5.6643557389732015e-02 -4.0514701079947957e-01 1.7256474622812385e-03 -5.5174508954942170e-01 2.2253406452373101e-01 7.2935783054368000e-02 9.2349420271458493e-01 7.2406980308427640e-02 2.1705570452190414e-02 7.6664246306379769e-01 8.7773244270262651e-01 -5.3449095670804847e-01 -1.1586690468744169e-01 -4.8826953961356029e-01 5.4530061997456236e-01 -3.7268590467571419e+00 6.6954434646016903e-01 -6.5213157859229698e-01 -2.6139054699168418e-01 5.2221475257280658e-01 1.7797637776876601e-01 2.6984482274729285e+00 -1.9048184379461811e-01 6.1679705761470160e-01 -3.9084658204434908e-01 -1.2753563283990116e-01 2.5879458690352304e+00 -3.3206058608700628e-02 1.1083519049237957e-02 -3.5510103687739254e+00 -7.0477554141585252e-01 5.2200933739425762e-02 -1.9804885518766038e+00 9.8921358150935043e-02 -2.6497763678951086e-01 -2.5457791087563502e+00 -2.6609676131573181e-03 -4.8063544569981997e-01 -2.8588534061906618e-01 -1.9617600111928573e-02 -2.3633057174239527e-01 
        </Neuron>
        <Neuron NSynapses="41">
          -1.7861441170814496e-01 -2.0842584368528816e+00 -1.0610077790698020e+00 -4.0975655601411687e-01 5.0938603733403172e+00 8.2868544721567605e-01 2.8791683618691244e+00 -3.4512262020369460e+00 1.5545491714577953e-01 1.0485836897714131e+00 -6.4735242632140393e+00 -1.5579416676524447e+00 -4.0527988012785192e+00 -5.8797386565695928e-02 7.6895666383885786e-02 -3.6444883699241171e+00 1.3169696702386507e-01 -5.9370480676777619e+00 -3.3275958043233276e+00 1.8780131758880170e+00 4.8229256416882516e-01 3.2873067918786791e+00 2.5266142357582583e-01 2.8310716149899697e+00 -2.2503756627684304e-01 2.9661514694127189e-01 1.7744800066985220e+00 -1.8158425850009334e+00 2.6860408299003063e-01 2.5707370005078887e+00 -9.9292605379221399e+00 9.9788601454033310e-01 -8.6735775231182899e+00 -8.8098570063012327e-01 -1.8808048614077959e+00 -9.3752431072160569e-01 8.8065693406155243e-01 -5.8220762038307472e-01 -5.5054607237190134e-01 -8.1429848473358524e-01 -2.7618153903040854e-01 
        </Neuron>
        <Neuron NSynapses="41">
          1.9064084474787091e-01 -3.0911268414064556e-02 -3.8097069504924752e-01 1.2626270155990378e+00 2.2860460787909065e+00 1.7574698054699747e-01 9.5480956753435342e-01 -4.5589362967897185e-01 5.6304279222418341e-01 9.9522953415821203e-01 -2.4124394707379877e+00 8.3890473156261014e-01 6.6227240708526203e-01 3.2617863328969465e-01 4.2764419132920028e-01 3.2576248833188132e-01 8.0765066667845420e-01 -3.6959521847056337e-01 1.1740300798274192e+00 8.2031342787687478e-02 1.6076601892654900e+00 -2.0576280236023736e-01 3.0549897658902586e-01 1.3730132952594807e+00 -4.2341350930865956e-01 -4.7210352427947089e-01 -3.0699687048398614e+00 -4.6616172025945846e-01 4.4642153216954333e-01 -1.8281374363715172e-01 2.0462949600082170e+00 -4.0542497657903032e-01 1.2423450948637189e+00 4.2938528679685901e-02 -1.0209366813439531e+00 -7.2014566419678894e-01 1.2306615146767164e+00 -1.7313215624435746e-01 -6.7628257420019111e-01 -3.5649069020158131e-02 -8.5026348946473163e-01 
        </Neuron>
        <Neuron NSynapses="41">
          -4.4679638677801148e-01 -6.4889323721022452e-01 5.1161300387626973e-01 -6.4318697302763272e-01 -1.7452851252706532e+00 1.6567126597319086e+00 -1.4042350877207057e+00 -3.8403197539461609e-01 -1.1990677401068293e+00 -1.7629320393560699e+00 4.0013874247090921e+00 -2.0176208827399758e+00 1.1000817129621965e+00 -2.0123946310586684e+00 -3.5983733561607389e-01 1.9684252249605411e-01 -1.7475166265031691e-02 1.5993967034526557e+00 -1.0233225204114360e-01 7.4350402719775410e-01 -1.3011911043494633e+00 6.3155339557105628e-01 -4.4257385765462354e-01 -1.7730316549407110e+00 3.3926992578074154e-02 7.6663390778544016e-01 -1.9161568861142890e+00 8.1072961834348189e-01 -1.1668220652144723e-01 5.0183981092272112e-01 -3.3722422078167513e-01 1.7895078812269669e+00 1.4167177696483502e-01 -1.9812461332504025e-01 -3.9717438542736505e+00 -5.1750455302114651e-01 -1.3905149059984445e+00 -9.4163842552876631e-01 8.8297825028123378e-01 -4.6073847778933830e-01 2.9111308049299978e-01 
        </Neuron>
        <Neuron NSynapses="41">
          8.3515901947186988e-01 -2.4338171458410096e-01 -3.1175697187157053e-01 3.3986890714730533e+00 2.9674025173054530e+00 5.9229833298608625e-01 1.7656646231548767e+00 -7.1158956402282614e-01 1.5032325649937099e+00 4.3962803125118421e+00 -1.5435092482367676e+00 -9.0596749585272474e-01 -5.7444911251294972e-01 9.3730131243084103e-01 2.4762884827927445e-01 -5.9863424693855238e-01 -5.9462670487104541e-01 -1.0176621674710691e+00 1.5383265625273519e+00 1.1735210986892792e+00 -1.6957456996687856e-01 -8.7779576438370335e-03 1.6005426509118476e-01 1.4789790456445164e+00 -2.0799909334829816e-01 -1.2247506099149825e+00 -3.0660824107377862e+00 -5.1324144941514893e-01 2.2348486011929158e-01 -1.2068064186401943e+00 6.9189067164540830e-01 -8.8679789484788973e-01 -3.4076932547767563e-01 -8.9239672700839356e-01 -1.9078918559638904e+00 -1.9996077200077467e+00 1.4646735352158728e+00 -3.7467635537083505e-01 -7.9274830112429728e-01 -4.2847395103794005e-02 -1.3770547887115265e+00 
        </Neuron>
        <Neuron NSynapses="41">
          -5.9928586083808499e-01 3.3605852947113747e-02 1.7331480753469489e-01 -7.7591166338345952e-01 -1.9099708230294676e+00 2.3708100205039999e+00 -2.5977298203715797e+00 3.0254485171512951e-01 -6.7312548190464905e-01 -2.9729672590760559e+00 2.7726966955492647e+00 -1.5967767624820739e-01 1.2038883588362586e+00 -1.8393004601263558e+00 5.9004093299401006e-01 9.1921802401317187e-01 -1.0968125560567621e+00 1.3138095268304697e+00 -1.2814440596002094e-01 1.3953582848743473e-01 -1.0888832529298753e+00 -2.0723823798412044e-02 -9.4505415824413930e-01 -1.6883021333416603e+00 -1.7823742663205303e-01 1.0758056974978214e+00 -1.2160327010408731e+00 8.7261562771495760e-01 -8.8522417808714754e-02 -5.8049630543924624e-01 -4.1755798285430090e-01 1.7443837009781396e+00 1.1377330186703964e-01 -5.6420296585583030e-01 -2.6462265177658830e+00 2.9651287387898990e+00 -1.8373575008936511e+00 -1.5333200785516492e+00 1.0558442568100208e+00 -1.0459579886673962e+00 6.5251936283357137e-01 
        </Neuron>
        <Neuron NSynapses="41">
          -1.3167008102066977e+00 -7.1066324483729487e-02 -2.7849820472451353e-01 -3.5077929027580215e+00 4.7397687556172780e-01 -1.1502137200606273e+00 -2.2424540875860555e-01 3.5747202084749891e-01 4.4396705970740563e-01 5.0684680679913507e-01 -2.0205072120249773e-01 8.1568336301967193e-01 1.7710907617465674e+00 -8.3867408407612629e+00 9.7671130767976577e-01 -1.6102892273394659e-01 -1.8311920858407121e-01 -3.6595192817600547e-01 -8.5496301650088216e-03 3.9941873173731762e-01 -2.5148938913831542e-01 6.5095705022041109e-02 3.1999224874251136e-01 -7.2933818161055342e-01 6.1644268970829741e-01 2.5935039516217313e+00 1.5550766101691154e+01 -5.7085551530554966e-02 -4.2920406853920456e-02 6.2441521214683549e-04 -1.5578746991979392e-01 -2.2760742000922924e+00 -1.9884633714600169e-01 -4.8828344497627291e-01 -1.4630804818916121e+00 1.1735984939275779e+00 -1.7936178165868702e-01 -1.4524691586678993e+00 1.7294731612784622e-01 1.7979875923886640e-01 1.7532482508132025e-01 
        </Neuron>
        <Neuron NSynapses="41">
          1.9252928386604867e-01 1.2097840550904277e+00 -6.0170213054699280e-02 -4.7305490857489106e-02 -7.7042709137281548e-02 1.0343110284029026e-01 -2.0338219877198975e+00 -5.7858041949804942e-02 8.5188751511291705e-01 -4.0065062343499887e-02 1.1132924404784916e-02 -9.4027165521487321e-01 -2.2236862491563522e-01 3.6226520169250952e-02 -1.3993713267167193e-01 -6.1060619438743800e-03 -3.8827289463450027e-01 1.8871150491072344e-01 6.4511220688835164e-02 -9.7166107243681121e-01 -3.9948832963900971e-01 3.4437010584991629e-01 -5.2116730071518802e-01 -3.1382133732115330e-01 -7.8984519708112366e-01 1.2052541075261509e-01 -7.6839684032522254e-02 7.7336992133954379e+00 -1.4793157541068908e-03 1.3801998842738669e-01 6.8816446976450230e-02 -1.1336880791689750e-01 2.5089404512243518e-02 -7.4842414511188926e-01 -1.2249243541113169e-01 -1.2381632674739753e+00 -1.8310550417058826e+00 2.2436686574483605e-01 -1.6100157603182039e-01 -1.9012879488447382e-01 -2.1520157194819400e-01 
        </Neuron>
        <Neuron NSynapses="41">
          -2.0393897595371326e+00 -2.1081018518114467e+00 4.3172993267202404e+00 2.7862225385407235e+00 3.5847496088384156e+00 -2.8778273567122215e+00 1.0266274810004636e+00 8.6289001312486935e-01 1.0462882238322975e+00 4.0396263785057371e+00 -4.1559145863962259e+00 1.8194619746532033e+00 -1.7649800271415355e+00 -4.5096664424537707e+00 2.4638741496551426e+00 -6.9366679615194728e+00 -5.7356905824733029e-01 -1.3240649307988800e+01 2.3283861000894795e+01 5.3588123252473319e-01 7.3927746513975690e+00 1.8182643822550293e+00 1.0483849269804590e+00 4.2785145368503308e+00 -5.9241499865548851e-02 -4.6917211046562572e+00 1.2962508980956470e+01 4.4263678430428577e+00 6.7763539010450535e-01 -2.3816854723621783e+00 5.3922660321233282e+00 -3.6950630340224793e+00 -1.0476500537578099e+01 5.1043510303517470e-01 -6.5680952644891688e-01 1.6261529830978210e+00 9.9708830094942880e-01 -1.2658129347433364e-02 -1.2153246378812792e+00 1.1267831466579155e+00 2.0438295182872332e+00 
        </Neuron>
        <Neuron NSynapses="41">
          1.7961801868280541e-01 9.8712676874404315e-01 -3.7418836499789959e-01 7.9884274979592648e-02 -3.7063228874878874e-02 1.3359627605577289e+00 -8.0489072034623826e-02 1.1855266194518442e-01 -1.7647530531002247e+00 6.0127336941635058e-02 -6.4392297117055692e+00 -2.3900168570689337e+00 2.5004259815922758e-01 1.3152874985627100e-01 -5.3756815952319803e-01 -2.7717213998906007e-02 -2.9907647350028216e-01 1.3538078930996197e-01 -1.0788306891498686e-01 -3.9573056247452559e-01 -1.3622159055130195e-01 1.4428730057745628e-01 1.7322246079739068e-01 5.7525728526636871e-02 1.8577695983610781e-01 1.1092263281361810e-01 2.4314085424760176e-01 3.5413568429639004e-02 1.1417329747926960e-02 -9.5173423644015140e-02 -2.3294181381385844e-02 -8.1902081365492901e-03 1.0949636911598636e-01 2.4057110288820183e-01 -1.4738223067987324e+00 -1.0108294139977407e+00 -1.0540083938165592e+00 1.8692124779018865e-01 5.6714879213057912e-01 1.6156467488411888e+00 -1.2990116076798441e-01 
        </Neuron>
        <Neuron NSynapses="41">
          6.8494036455714924e-01 -1.2646046445831449e+00 7.5219685385671573e+00 -5.2258556532952056e+00 -6.3788679897634095e+00 -3.4412639279912911e+00 -6.3595854029343393e+00 1.8581431333336937e+01 2.8191727701990117e+00 8.8425618086025282e-01 5.3724722625627690e+00 -1.0784821224991101e+00 -1.1225744458689804e+00 -1.4403520444073430e+00 2.9761431121460313e-01 1.8517946572712070e+01 -1.8294003192619641e+00 1.1584686722611890e+01 -2.6401006762764849e+00 2.5203348668364256e-01 1.3079560824645606e+00 -8.0803483714139404e+00 1.6659858888706491e+00 -1.1455168175876663e+01 -4.8279337198062117e-01 -9.0149684975711182e+00 7.9685768190258088e-03 -1.7986538645114920e+00 2.8466923766559432e-01 -1.8548596105051964e+00 -2.1391016395740934e+00 -2.0491704028158604e+00 2.6510191361118056e+00 -1.7534340088372238e+00 -2.8597286739881400e+00 3.2703923191351542e-02 -2.1516851852092063e+00 3.4582480518829462e+00 -1.7463459464554842e+00 2.7947761758981160e-01 -1.0220615266712414e+00 
        </Neuron>
        <Neuron NSynapses="41">
          6.7614576984615766e+00 4.7524847399216003e-01 -8.0141381063582227e+00 -1.8350006600843585e+01 -6.8480853352532037e+01 4.9137410390870535e+00 -7.0395350139591484e+00 7.9408831803185222e+00 -2.6563797723723677e+00 -5.9907606599893137e+00 9.5820020063650002e+00 -8.5168146586007198e-01 -1.8727437975838814e+00 1.7034762053813495e+01 -1.0251409972245413e+00 -2.9064912921405220e+01 -3.2139685899672585e+00 2.3618697504519055e+01 -7.4104716480263420e+01 -2.2445555369437655e+00 2.1889830100516110e+00 -4.7637071859012901e+00 -2.4616748486307019e-01 -7.0204167424796138e+00 -1.9515741446020416e+00 1.0446113998213809e+01 -2.4567356090490541e+01 -1.9073678499605904e+01 2.5812029492668591e+00 1.9506794935265788e+00 -2.4026461660805296e+01 -4.5844332271473354e+00 7.0920670696238275e+01 1.5427344761654829e+00 3.7519147958615515e+00 -1.3840055898003842e-01 -2.0304760978513401e+00 -1.1950159412231669e+01 -2.3991425646453290e+00 8.7928618886103996e-02 9.6146325219997504e+00 
        </Neuron>
        <Neuron NSynapses="41">
          -1.0482775317563549e+00 -1.8598482413751021e+00 1.3762849027725155e+00 -8.2684691363906571e-01 -8.1082142315884287e+00 1.4262128249784169e+00 -1.5790479415550504e-01 -1.4680072016090712e+01 -2.1100267819998191e+00 -1.6416439999212253e+00 -1.8604669267587990e+00 2.0573885191909551e+00 3.7903298169079740e+00 1.5737722346252442e-01 -2.9515044928444789e+00 4.3182809701853607e+01 1.6779260260616402e+00 -1.1676226717261857e+01 2.6726500852543551e+00 -1.1173673707426393e+00 -4.3286134374537983e+00 2.0878404991245452e+00 -2.0958772638677911e-01 -3.8100567525599001e+00 8.9681059065716850e-01 1.6041507339114633e+00 4.6482607575219275e+00 1.4261023583415546e+00 7.6317061814561438e-01 -4.1217400214522687e-01 -1.6595350036858336e+00 1.6854210585090732e+00 -3.5682928289644682e+00 -1.5046064991308776e+00 1.7664543036247973e-01 7.6737238412955378e-01 1.7351630014474275e+00 3.2915243720344720e+00 1.1159887273727538e+00 -2.3786802250004726e+00 5.7604520795577711e-03 
        </Neuron>
        <Neuron NSynapses="41">
          8.3283363925273712e-01 -2.8511324153984705e+00 -1.2658245447288801e+00 1.1434003723557004e-01 4.8889751998737054e+00 8.0437170521980983e-01 -1.7343560534421922e+00 -6.7445593658281755e+00 -1.1563188188056817e+00 -9.1446615280146493e-01 -3.1340656246849785e+00 8.5087357313121437e-01 3.4925548429257907e+00 -2.9416155722871333e+00 1.5961560566448010e-01 5.4893011049446896e+00 1.0227311190668376e+00 2.3274874897515782e-01 1.6556004638499409e+00 2.6281276565287865e+00 -3.8329047976078456e+00 5.3588166622075688e+00 -5.0336248443286158e-01 1.7165926851139428e+00 1.3056581015693798e+00 1.0320485755870235e+00 2.8612016140906993e-01 4.2459717502153262e+00 -1.1150585637164920e-01 -9.7416030990736813e-01 -7.8178759710781653e-01 4.4055606002891095e+00 5.8192615311860230e-01 8.0923238038511214e-01 -1.9760960489241375e+00 1.9015486736004719e+00 3.3883195714536738e+00 1.7263266609223111e+00 1.3631150633825992e+00 -7.5669019560901807e-01 2.0492470769211333e+00 
        </Neuron>
        <Neuron NSynapses="41">
          -1.0659412998039990e+00 -3.4621041311628875e-01 -3.7798175243231968e+00 3.2596837858142891e-01 7.5083494768007841e-01 1.1953111096246129e-01 -2.0731317512078165e+00 2.8851269234923105e-01 1.3741921728497231e+00 2.7099940276773009e+00 -4.5528233035831658e+00 -1.3137001843167198e-01 2.0731227304434698e+00 -8.6931865302859124e-01 6.4664044483827143e-01 5.0077471745114224e+00 9.6238551517665250e-01 7.8748775514567548e-01 -2.3835735674046910e+00 1.4641962889181308e+00 -1.4333539840429654e+00 -3.4766222949914636e+00 -6.2514953456779132e-01 3.2774003871149477e+00 -3.8801334325213399e-01 -1.3209125741994467e+00 -2.9786029244041954e+00 1.5939422014798217e+00 -1.3996620546049086e+00 -2.0548891257225219e+00 -3.0640547252187100e+00 2.5581170574871231e-01 3.3318394004001970e+00 1.0114079245446674e+00 4.4504833812109124e-01 1.6058162157659022e+00 8.5114500345971256e-01 -1.0575528206285814e+00 -1.4009405267852633e+00 1.1404544594022634e+00 -6.7615573195536474e-02 
        </Neuron>
        <Neuron NSynapses="41">
          8.2483235691152901e-01 -2.4766798393376197e+00 1.3471542952335433e+01 7.2788585579520404e-01 1.1732950900933993e-01 -6.3243252339505962e-01 -1.3771122757881671e+00 -2.3345661898259671e+00 5.7230982581605264e-02 -1.6680914704657990e+00 3.5793580170128845e+00 -4.1402029906453475e-02 -1.1908805287097539e+00 -5.6395545018830684e-01 -6.5551214307343242e-01 8.3286126657954140e-01 -2.0536885109107891e-01 2.1717549648126413e+00 2.1371487891899335e-01 7.7887370775207632e-01 -4.7449344695595084e+00 1.6551275242947805e+00 -3.3182904614689074e-01 -4.5118672141907618e-01 3.3766724944079302e-01 -1.7841493640057799e+00 1.0429723328573981e+00 4.4231875141173056e+00 1.4203370495232058e-02 1.6862476585592334e-01 6.4326241188807687e-01 1.8231360479779817e+00 -3.8182250490152253e-01 -1.7300363002683112e+00 -2.4822305948422943e-01 -1.3160204923941667e+00 1.5764404473938622e+00 1.1024977353173511e+00 -2.0113775598679931e-01 2.3569425241576192e+00 -1.4687040083305134e+00 
        </Neuron>
        <Neuron NSynapses="41">
          -1.2370333127933415e+00 3.1007316673582364e+00 7.7787821488540825e+00 -2.0006086541453914e+00 2.3369970541357081e+00 1.2505089795851529e+00 3.9549479063763946e+00 7.1471803693490301e+00 3.8558265094802269e+00 3.9068515754453728e+00 -7.4912643740852900e+00 2.2580287111483726e+00 6.5970005490084616e-01 -2.0240482668337373e-01 -3.6955336820302404e-01 -1.4698917973708847e+00 -4.1642388650080647e-01 -5.5174022024673794e+00 9.9834773579789768e+00 -2.3952219960087731e+00 -4.6389652305847850e-01 -1.1439561341901781e+01 -1.5038430085237144e+00 3.5928920038254026e+00 -2.1647084893183393e+00 -1.0547867797240281e+01 -8.2722933599764783e+00 7.9335901834857294e+00 -8.2066524668101791e-03 6.7159533592178566e-01 1.5995963191225648e+00 -7.9565983113182237e-01 -1.6300880274566404e-01 9.8785034003528571e-01 1.4701448142070297e+00 2.3397032005191023e+00 -2.1835104562909637e+00 -2.6753298739176641e+00 -1.8284570394520056e-01 2.4808860161464192e+00 -8.5556243886004113e-01 
        </Neuron>
        <Neuron NSynapses="41">
          1.1624455984388429e+00 -1.6304384765042017e+00 -7.7890743118346706e-01 7.1712311499253312e-01 3.6328026350649090e-01 -4.1228789075489147e-01 -2.5775121073055480e+00 -3.3878019081892036e-01 6.6652783292513162e-01 -1.6891239657388433e+00 4.4149607621086190e-01 -9.6170361959054917e-01 3.4952901066648576e+00 -1.2806823305630062e+00 8.5082678401172451e-01 3.1837029131458534e-02 -8.7720488343618730e-01 -3.9585769810440546e+01 4.9206719144138278e-01 2.6810440294661273e+00 9.8471638072900536e-01 -1.0601538557387431e+00 -1.8561529581418948e-01 -6.3241640966005264e-01 -3.9723623136136649e-01 -7.6798553479955878e-01 -1.3545261630511511e+00 1.5901356445316168e+00 4.9784234582417669e-01 1.4731955807769808e+00 9.4283950444158893e-01 4.6480164663389258e+00 -1.6233771737856084e+00 1.1878786389932272e+00 -8.9680597662870865e-01 -1.5216066629838310e+00 -8.5494368551370814e-01 -5.8531995450206509e-01 7.4554222903276735e-01 6.8581581805972891e-01 1.3780202608742679e+01 
        </Neuron>
        <Neuron NSynapses="41">
          -3.9777226860364368e-01 4.1127239992346337e-01 6.9454030029742704e+00 4.1376410124164762e+00 9.9577884195114095e+00 3.5171412843217595e+00 2.4036015605397676e+00 -1.6167126248415058e+00 -2.9079409308940050e+00 -4.0804713741721823e+00 3.2231436217433376e+00 1.8691691487374313e+00 -3.2866872360020158e-02 2.3405560758071489e+00 -1.3845998811409914e+00 6.4316621671377030e+00 1.0321961381219878e-02 -4.1232365414310923e+00 1.2663764924474284e+01 1.8594316885942535e+00 -1.9058757290623694e+00 2.9831242907343705e+00 -1.1874719888950915e+00 6.2737379851366519e+00 -1.4988758327665852e+00 -8.8651984726391291e+00 4.9021312139837754e+00 3.6348226747899433e+00 -4.8185375463998631e-01 -1.2811447902802595e-01 9.0873476064363174e+00 2.5289670935578270e+00 -9.4826081179565609e+00 2.4238325307241775e+00 3.2287907788764746e-02 -3.5879137144407623e-02 -6.7906635834616524e-01 -1.0445307020258452e+00 1.1201209461708523e+00 -3.2630888352531016e+00 2.8153246400199459e+00 
        </Neuron>
        <Neuron NSynapses="41">
          1.5122537474867370e-01 -7.5222483157762099e-01 9.9516589759160698e+00 4.5038798057864877e+00 1.6505968108091892e+01 4.0081418913262024e+00 4.2350583160688355e+00 -8.4084340233636130e+00 -6.1328062673481432e+00 -3.9371927186028146e+00 3.5894306544970647e+00 1.4147794324050091e+00 1.4014691910580559e+00 4.7194496240813411e-01 -2.1387524531782889e+00 1.3142802423203156e+01 1.5432035385837590e+00 -1.4483449908920239e+01 2.9918682132886790e+01 1.8885601620625692e+00 -3.9194323162539617e+00 3.2476779277266088e+00 7.9417578814942857e-01 4.7681035243306837e+00 -1.2305556544643557e+00 -1.7537051774880208e+01 1.0753687447932148e+01 1.0376741054072939e+01 -1.7657282926294371e-01 1.9499289540433487e-01 1.3423442201117449e+01 -5.5747652183543361e-01 -1.9109027359202109e+01 1.2732376245621382e+00 -9.3619307906889671e-01 -7.9116503263340021e-01 1.4615315918573872e+00 -4.3588189945783740e-01 9.4387877986174529e-01 -8.8634200408702035e-01 3.9347212243368546e+00 
        </Neuron>
        <Neuron NSynapses="41">
          2.1416871302441276e+00 -1.5215528626628707e+00 -1.6768841444708379e+01 1.0744087178221534e+01 -2.6421231748606932e+01 -4.7372704653033200e+00 -2.7639786547823357e+00 1.0505388962726954e+01 7.0641187170336979e+00 8.1131876742183806e+00 -6.9987154099398357e+00 -5.9620868736676269e-01 1.2167084576316785e+00 -8.7342655192626761e+00 2.6192885140029607e+00 -1.9410064406465729e+01 -4.1816749213411111e+00 1.8773013184099035e+01 -4.2454951728585307e+01 -9.8599714118583204e-01 5.5408523053947611e+00 -6.3696006575831730e+00 -6.9621211020304830e-01 1.9446072708058072e+01 1.3622335124482008e+00 2.6134247286804680e+01 -1.5616275269278452e+01 -1.3835357618772358e+01 2.4347753505576151e+00 -4.6142925632898759e+00 -2.2487359483855148e+01 -1.1873170494890317e+00 2.8748282551977489e+01 -2.2952020124554742e+00 -5.7069777183315384e+00 1.4602017390090751e+00 -6.4143456853719294e-01 9.1556321193841450e-01 -1.7573943358403521e+00 3.9735258165405893e+00 -6.4902177519581938e+00 
        </Neuron>
        <Neuron NSynapses="41">
          -8.4376011878999913e-01 -8.9888517287842699e-03 4.4521653729090609e+00 -3.5413976141275710e-01 3.0037955141463311e+00 8.0321822098770568e-01 2.0802841389567526e+00 -3.3536553045531567e+00 -3.7198324535320659e+00 -3.9536197212712314e+00 2.2859156025759861e+00 -1.5637583993017415e-01 3.1157720475793758e+00 6.2565898022798105e+00 -2.3336129601738667e+00 8.2174259954008431e+00 9.9701936556175097e-01 -6.7541204430667960e+00 1.5319912616227343e+01 2.8844933967566107e+00 -3.7595105533535826e+00 3.2682080018100117e+00 9.4682038773001831e-01 -3.0518774274326019e+00 5.7047108179427659e-02 -1.3045330511900531e+01 5.5541451443576975e+00 3.6812682111289852e+00 -1.4686177790364259e+00 -8.8847801409469251e-01 5.5316798746321245e+00 6.7535459669712361e-01 -8.0558471563552789e+00 5.3861104309569818e-01 -5.2314271105454746e-01 1.8774042910484596e+00 5.5483602755041972e-01 -2.7249040864443428e+00 1.5826736974835542e+00 1.7655671297820337e+00 2.2616561473178587e+00 
        </Neuron>
        <Neuron NSynapses="41">
          6.9828273769663407e-01 -1.7687609821641492e-01 1.3210612244540842e+01 -3.3258592042106114e+00 9.6932321417203262e+00 2.1529602701791126e+00 1.3809080287766424e+00 -3.7385718102207970e+00 -4.0410126920532816e+00 -5.0248258516796014e+00 3.0033246627114334e+00 1.4978708646528374e+00 9.9689716790417138e-01 7.7915830024840700e+00 -1.4621318658550260e+00 7.8091539919651440e+00 2.6443448386518651e+00 -6.7609167899308904e+00 2.0734091382859074e+01 7.0757365221615964e-01 -4.1471865328611628e+00 4.6398539968294994e-01 -1.6217979400233593e+00 -6.6061273429071710e+00 -2.6861716427527740e+00 -1.9242898130923109e+01 6.9250036806877917e+00 5.2289958111550874e+00 -1.1065916917432923e+00 3.4731967295437638e+00 1.2575113878809713e+01 -4.6886689654433467e-01 -1.3730433774617042e+01 1.2592896452519706e+00 3.4184461643492009e-01 5.1733072542584502e-01 -2.3075999535676384e-01 -3.7650887195993685e+00 7.3736304674858821e-01 -2.2715843966924001e+00 3.5427726520170486e+00 
        </Neuron>
        <Neuron NSynapses="41">
          4.8960636727717119e+00 -3.2594466628023405e-01 -1.7751035361441254e+01 3.4555207662902236e+00 -2.9530385785005208e+01 -4.3643204954522021e+00 -3.2706712164053182e+00 6.9257433178714338e+00 8.1444532781296495e+00 9.2856340862748858e+00 -9.7857788044055809e+00 -1.8330672856419503e+00 1.6999818321415583e-01 -1.0084469742861277e+01 4.8375461842098089e+00 -1.5956998822763612e+01 -9.0949915255666192e-01 1.3181003164669944e+01 -3.6237655466943693e+01 -1.1861117766478755e+00 7.6592192101726821e+00 -4.2198804086900106e+00 1.1882287787165964e+00 9.4915988611531557e+00 2.1517827073624662e+00 2.8749729978332844e+01 -1.2190987433325656e+01 -8.9646408922117615e+00 -8.3475398280567703e-01 -2.7347205592824939e+00 -1.8247817290000150e+01 -2.4160837909814519e+00 2.1811853529509211e+01 -1.2921215458947362e+00 -5.3734151529317566e+00 1.4085909439846909e+00 -5.4274637935878411e-01 3.8659370383309617e+00 -2.6969181910183004e-01 6.8997988350281005e+00 -6.0334122576878535e+00 
        </Neuron>
        <Neuron NSynapses="41">
          -5.6234804420617468e-01 1.2864298555049709e+00 -2.3780615204797719e+00 5.5716028301827514e-01 4.1640030946192352e+00 -8.3828408667986509e-01 1.3137460461152351e-02 2.6960920733934008e+00 2.4710745522015194e+00 2.4189206787897661e+00 -1.0560602803798340e+00 -2.5313314829242732e+00 1.6556195474398716e+00 -5.1736318294127870e-01 -9.5788940818818044e-02 -7.5144947251317609e+00 5.1224996672704415e-01 3.2131798615975429e+00 -7.0549847047748218e+00 2.0001441988922601e+00 1.6620257889148340e+00 -2.1222400781983253e+00 -2.6434936838910256e-01 1.4325809048030551e+00 9.3841021059614904e-01 4.2910639027495021e+00 -2.1809075058525851e+00 -3.5166669360106657e+00 -1.2078285442215109e+00 3.7750707300119302e-01 -2.7308755272464103e+00 -3.8108683904664854e-02 3.9607588899416237e+00 8.0116575279984292e-01 1.6715284310861964e+00 -1.6751390797472367e+00 -7.5983915894890938e-02 -2.3832839109679842e+00 -1.0980753072812655e+00 -1.9235188544838924e+00 -1.3336682407851355e+00 
        </Neuron>
        <Neuron NSynapses="41">
          -1.8809676429988447e+00 -1.4301350783981837e+00 2.7241646824949979e+00 -9.5131517627281348e-01 1.2979228272201143e+01 3.0186551307321086e-01 2.0224790151244512e+00 -2.8675131837289567e+00 -1.9025168686423084e+00 -2.1670479308047002e+00 3.7189250689574060e+00 -1.0420622953993863e+00 1.1927633668096138e+00 5.3333852279328253e+00 8.2656616006147199e-01 -1.5184993294765285e+00 -8.2768488663632478e-01 -3.2507603784027648e+00 6.8981003200853221e+00 5.2206493392902209e-01 -1.4355392838123742e+00 1.1924352041025776e+00 5.6272544459052776e-01 -1.0236613160699104e+00 -6.1050709888973953e-01 -4.2041819886419720e+00 2.1508640703181006e+00 3.6133775354175000e+00 -3.9569736085013751e-01 1.3798106761785576e+00 2.9879665974618499e+00 3.9071774541590437e-01 -4.0536615476672422e+00 1.1482821145579165e+00 2.2248433633187709e-01 9.2552124072911401e-01 -2.8267283603324209e+00 -1.8949309381368169e+00 -1.5742389450960343e+00 -3.6971789414261580e+00 1.2039999154839747e+00 
        </Neuron>
        <Neuron NSynapses="41">
          3.7514122108299097e-01 8.2654988426500292e-02 -1.0727111836411103e+00 2.9424716374626675e-01 -2.7648203517016062e-01 1.0839168797805498e+00 8.0611357713218290e-01 4.9278473317614441e-01 2.0404991724038715e-01 5.3904858738923089e-01 -3.0950365236275599e+00 -1.1426032744329431e+00 2.7858886664382148e+00 2.8451228234848625e-01 -1.6157474300726968e+00 -9.0015055781825304e-01 4.1764198536879110e-01 1.1205826501838219e-02 4.7028157082830435e-01 1.7417859218512302e+00 2.1402634948501482e-02 1.3214410244497030e+00 1.6530157007341217e-01 1.3661404704365203e+00 -1.4992994681850019e-01 5.9418834054610115e-01 6.6133963802943270e-03 -9.5926246644183144e-02 -2.5248191258205460e-02 3.7581932387529480e+00 -9.4492154279211782e-01 -1.8625398262491306e+00 -3.3314656452602126e-01 -8.9457777755728751e-01 2.5691240186905411e+00 -1.1719182466171347e+00 -7.9726708926339518e-01 2.7581706941900705e+00 -2.6112922417900305e-02 3.1671651671083623e-01 -1.8172301042420871e+00 
        </Neuron>
        <Neuron NSynapses="41">
          -2.8931476585168736e-01 3.2168577985083241e-01 1.0406538611997540e+00 -3.6357389562295533e-01 4.4136088280737407e-01 -1.1223311831376552e+00 -5.8397315876283196e-01 -7.1427750465445217e-01 -5.0404405201808422e-01 -7.8284463208895794e-01 -3.8492502274156983e+00 1.1725250417172119e+00 3.4697305995570424e+00 2.0635869689746057e-02 5.6226790938421700e-01 9.1557994377584184e-01 -4.5265138314995829e-01 -1.2785128950257882e-01 -4.6785482420818014e-01 -1.3240040877184278e+00 1.1110613062768819e-01 -1.2821929928711027e+00 6.3594234631322011e-01 -1.3048455536363801e+00 2.6315600497493707e-01 -5.9764776729998814e-01 -2.7648455755841417e-01 -7.6374794963149431e-02 4.0786687035816616e-02 1.4332474583643517e+00 1.2202884082458896e+00 -1.6089923442721141e+00 4.3266776526614470e-01 8.0739620076251595e-01 1.0912374908387008e+00 -1.0486326138012945e+00 7.3416068796189926e-01 3.0104274007014156e+00 1.6801265041143584e-02 -1.8944487588909092e-01 1.8916093634188358e+00 
        </Neuron>
        <Neuron NSynapses="41">
          1.5494720461436479e-01 2.4665278882821215e-01 5.0221136741260004e+00 6.4393741253338499e+00 4.0162000334480839e+00 -1.9161930582159401e+00 -1.8893862627298221e+00 8.2038426025174616e-01 3.6945797765903493e-01 1.8476547583906624e+00 -1.4825556904933603e+00 5.1325565325288480e-01 -1.8295146789973666e+00 1.3069831780934649e+00 6.2402182700360598e-01 -4.0167071518624722e+00 -2.1290944645738592e+00 -7.9617007865660607e+00 2.3163832220068805e+01 3.1102309212153818e+00 1.3430175140590712e+00 3.4088023596893069e+00 -7.3356415180900170e-01 3.9402159234049701e+00 1.0725749576690091e+00 -3.9742360865665289e+00 -9.1476585511201964e+00 8.2727042864841516e-01 1.1216102555231402e+00 -6.1368983126794141e-01 4.0569967687132893e+00 5.3141866186319364e-01 -1.1882685495400603e+01 -7.1151748049013419e-01 8.4956047647977573e-01 -6.4082586747315007e-01 1.1595136205652630e+00 2.1563700599749458e+00 1.4431489641177198e+00 2.1815888445155269e+00 4.7340333359845183e-01 
        </Neuron>
      </Layer>
      <Layer Index="1" NNeurons="42">
        <Neuron NSynapses="1">
          1.2712400641486468e+00 
        </Neuron>
        <Neuron NSynapses="1">
          1.5550087887333235e+00 
        </Neuron>
        <Neuron NSynapses="1">
          -2.7172800818347498e+00 
        </Neuron>
        <Neuron NSynapses="1">
          7.1873133177096837e-01 
        </Neuron>
        <Neuron NSynapses="1">
          -7.8163506047151532e-01 
        </Neuron>
        <Neuron NSynapses="1">
          -6.3539361397415028e-01 
        </Neuron>
        <Neuron NSynapses="1">
          -9.0815160468732603e-01 
        </Neuron>
        <Neuron NSynapses="1">
          4.9771271699620695e-01 
        </Neuron>
        <Neuron NSynapses="1">
          5.5323267189298231e-01 
        </Neuron>
        <Neuron NSynapses="1">
          3.9933008074876880e-01 
        </Neuron>
        <Neuron NSynapses="1">
          -2.5648703516655186e-01 
        </Neuron>
        <Neuron NSynapses="1">
          1.0537588010536909e+00 
        </Neuron>
        <Neuron NSynapses="1">
          -7.3987898851999756e-01 
        </Neuron>
        <Neuron NSynapses="1">
          -9.5282676197688609e-01 
        </Neuron>
        <Neuron NSynapses="1">
          6.1568664978158183e-01 
        </Neuron>
        <Neuron NSynapses="1">
          -2.1164053655201966e+00 
        </Neuron>
        <Neuron NSynapses="1">
          -3.5184883256721711e-01 
        </Neuron>
        <Neuron NSynapses="1">
          5.5728911777733203e-01 
        </Neuron>
        <Neuron NSynapses="1">
          -1.0440973481217726e+00 
        </Neuron>
        <Neuron NSynapses="1">
          -1.3049935172835117e+00 
        </Neuron>
        <Neuron NSynapses="1">
          4.3239833260532773e-01 
        </Neuron>
        <Neuron NSynapses="1">
          -2.9580066241942564e+00 
        </Neuron>
        <Neuron NSynapses="1">
          5.4530771942309986e-01 
        </Neuron>
        <Neuron NSynapses="1">
          1.9839881958784018e+00 
        </Neuron>
        <Neuron NSynapses="1">
          5.7645094538093611e-01 
        </Neuron>
        <Neuron NSynapses="1">
          2.2499532456231477e+00 
        </Neuron>
        <Neuron NSynapses="1">
          -1.5323945945253590e+00 
        </Neuron>
        <Neuron NSynapses="1">
          -1.6404498576673165e+00 
        </Neuron>
        <Neuron NSynapses="1">
          -2.0746085777110777e-03 
        </Neuron>
        <Neuron NSynapses="1">
          -5.5930227140720457e-01 
        </Neuron>
        <Neuron NSynapses="1">
          -1.2493858461464558e+00 
        </Neuron>
        <Neuron NSynapses="1">
          -9.4480565609673062e-01 
        </Neuron>
        <Neuron NSynapses="1">
          7.5924294422765159e-01 
        </Neuron>
        <Neuron NSynapses="1">
          -5.9266895800456465e-01 
        </Neuron>
        <Neuron NSynapses="1">
          -4.1768134113986116e-01 
        </Neuron>
        <Neuron NSynapses="1">
          -2.1430359546443136e+00 
        </Neuron>
        <Neuron NSynapses="1">
          -2.2324406813447930e+00 
        </Neuron>
        <Neuron NSynapses="1">
          9.3222897052766784e-01 
        </Neuron>
        <Neuron NSynapses="1">
          -6.6662130379606044e-01 
        </Neuron>
        <Neuron NSynapses="1">
          7.0980302928809968e-01 
        </Neuron>
        <Neuron NSynapses="1">
          -1.2970585960845393e+00 
        </Neuron>
        <Neuron NSynapses="1">
          1.8705310402912607e+00 
        </Neuron>
      </Layer>
      <Layer Index="2" NNeurons="1">
        <Neuron NSynapses="0"/>
      </Layer>
    </Layout>
  </Weights>
</MethodSetup>
