<?xml version="1.0"?>
<MethodSetup Method="MLP::Kaon_Downstream_TMVA">
  <GeneralInfo>
    <Info name="TMVA Release" value="4.2.0 [262656]"/>
    <Info name="ROOT Release" value="6.02/01 [393729]"/>
    <Info name="Creator" value="jonesc"/>
    <Info name="Date" value="Sun Feb  7 15:16:35 2016"/>
    <Info name="Host" value="Linux lcgapp-slc6-physical1.cern.ch 2.6.32-431.29.2.el6.x86_64 #1 SMP Wed Sep 10 11:13:12 CEST 2014 x86_64 x86_64 x86_64 GNU/Linux"/>
    <Info name="Dir" value="/var/pcfst/r03/lhcb/jonesc/ANNPID/results/MC2015Sim09Dev03/TrainMixture/TrainPhysTks-EvalPhysTks-NoReweight/GhostAccFrac0.1/ProtonAccFrac1.0/KaonAccFrac1.0/TMVA-Run2-NoTkLikCDVelodEdx/MLP/Norm/ScaleF1.3/BP/NCycles750/CE/tanh/CVTest15/CVImp1e-16/NotUseRegulator/Kaon/Downstream"/>
    <Info name="Training events" value="2070641"/>
    <Info name="TrainingTime" value="4.29573276e+04"/>
    <Info name="AnalysisType" value="Classification"/>
  </GeneralInfo>
  <Options>
    <Option name="NCycles" modified="Yes">750</Option>
    <Option name="HiddenLayers" modified="Yes">39</Option>
    <Option name="NeuronType" modified="Yes">tanh</Option>
    <Option name="RandomSeed" modified="No">1</Option>
    <Option name="EstimatorType" modified="Yes">CE</Option>
    <Option name="NeuronInputType" modified="No">sum</Option>
    <Option name="V" modified="Yes">True</Option>
    <Option name="VerbosityLevel" modified="No">Verbose</Option>
    <Option name="VarTransform" modified="Yes">Norm</Option>
    <Option name="H" modified="Yes">True</Option>
    <Option name="CreateMVAPdfs" modified="No">False</Option>
    <Option name="IgnoreNegWeightsInTraining" modified="No">False</Option>
    <Option name="TrainingMethod" modified="Yes">BP</Option>
    <Option name="LearningRate" modified="No">2.000000e-02</Option>
    <Option name="DecayRate" modified="No">1.000000e-02</Option>
    <Option name="TestRate" modified="No">10</Option>
    <Option name="EpochMonitoring" modified="Yes">True</Option>
    <Option name="Sampling" modified="No">1.000000e+00</Option>
    <Option name="SamplingEpoch" modified="No">1.000000e+00</Option>
    <Option name="SamplingImportance" modified="No">1.000000e+00</Option>
    <Option name="SamplingTraining" modified="No">True</Option>
    <Option name="SamplingTesting" modified="No">False</Option>
    <Option name="ResetStep" modified="No">50</Option>
    <Option name="Tau" modified="No">3.000000e+00</Option>
    <Option name="BPMode" modified="No">sequential</Option>
    <Option name="BatchSize" modified="No">-1</Option>
    <Option name="ConvergenceImprove" modified="Yes">1.000000e-16</Option>
    <Option name="ConvergenceTests" modified="Yes">15</Option>
    <Option name="UseRegulator" modified="Yes">False</Option>
    <Option name="UpdateLimit" modified="No">10000</Option>
    <Option name="CalculateErrors" modified="No">False</Option>
    <Option name="WeightRange" modified="No">1.000000e+00</Option>
  </Options>
  <Variables NVar="30">
    <Variable VarIndex="0" Expression="TrackP" Label="TrackP" Title="TrackP" Unit="" Internal="TrackP" Type="F" Min="1.12896997e+03" Max="2.10479750e+06"/>
    <Variable VarIndex="1" Expression="TrackPt" Label="TrackPt" Title="TrackPt" Unit="" Internal="TrackPt" Type="F" Min="7.57160842e-01" Max="6.81151797e+04"/>
    <Variable VarIndex="2" Expression="TrackChi2PerDof" Label="TrackChi2PerDof" Title="TrackChi2PerDof" Unit="" Internal="TrackChi2PerDof" Type="F" Min="2.21425649e-02" Max="3.99985623e+00"/>
    <Variable VarIndex="3" Expression="TrackNumDof" Label="TrackNumDof" Title="TrackNumDof" Unit="" Internal="TrackNumDof" Type="I" Min="5.00000000e+00" Max="3.10000000e+01"/>
    <Variable VarIndex="4" Expression="TrackGhostProbability" Label="TrackGhostProbability" Title="TrackGhostProbability" Unit="" Internal="TrackGhostProbability" Type="F" Min="6.29367423e-05" Max="3.99995893e-01"/>
    <Variable VarIndex="5" Expression="TrackFitTChi2" Label="TrackFitTChi2" Title="TrackFitTChi2" Unit="" Internal="TrackFitTChi2" Type="F" Min="3.78800498e-04" Max="7.94576569e+01"/>
    <Variable VarIndex="6" Expression="TrackFitTNDoF" Label="TrackFitTNDoF" Title="TrackFitTNDoF" Unit="" Internal="TrackFitTNDoF" Type="I" Min="1.00000000e+00" Max="2.70000000e+01"/>
    <Variable VarIndex="7" Expression="RichUsedR1Gas" Label="RichUsedR1Gas" Title="RichUsedR1Gas" Unit="" Internal="RichUsedR1Gas" Type="I" Min="0.00000000e+00" Max="1.00000000e+00"/>
    <Variable VarIndex="8" Expression="RichUsedR2Gas" Label="RichUsedR2Gas" Title="RichUsedR2Gas" Unit="" Internal="RichUsedR2Gas" Type="I" Min="0.00000000e+00" Max="1.00000000e+00"/>
    <Variable VarIndex="9" Expression="RichAbovePiThres" Label="RichAbovePiThres" Title="RichAbovePiThres" Unit="" Internal="RichAbovePiThres" Type="I" Min="0.00000000e+00" Max="1.00000000e+00"/>
    <Variable VarIndex="10" Expression="RichAboveKaThres" Label="RichAboveKaThres" Title="RichAboveKaThres" Unit="" Internal="RichAboveKaThres" Type="I" Min="0.00000000e+00" Max="1.00000000e+00"/>
    <Variable VarIndex="11" Expression="RichAbovePrThres" Label="RichAbovePrThres" Title="RichAbovePrThres" Unit="" Internal="RichAbovePrThres" Type="I" Min="0.00000000e+00" Max="1.00000000e+00"/>
    <Variable VarIndex="12" Expression="RichDLLe" Label="RichDLLe" Title="RichDLLe" Unit="" Internal="RichDLLe" Type="F" Min="-9.99000000e+02" Max="1.70319702e+02"/>
    <Variable VarIndex="13" Expression="RichDLLmu" Label="RichDLLmu" Title="RichDLLmu" Unit="" Internal="RichDLLmu" Type="F" Min="-9.99000000e+02" Max="1.19505096e+02"/>
    <Variable VarIndex="14" Expression="RichDLLk" Label="RichDLLk" Title="RichDLLk" Unit="" Internal="RichDLLk" Type="F" Min="-9.99000000e+02" Max="1.58696304e+02"/>
    <Variable VarIndex="15" Expression="RichDLLp" Label="RichDLLp" Title="RichDLLp" Unit="" Internal="RichDLLp" Type="F" Min="-9.99000000e+02" Max="1.21268501e+02"/>
    <Variable VarIndex="16" Expression="RichDLLbt" Label="RichDLLbt" Title="RichDLLbt" Unit="" Internal="RichDLLbt" Type="F" Min="-9.99000000e+02" Max="7.25792007e+01"/>
    <Variable VarIndex="17" Expression="MuonBkgLL" Label="MuonBkgLL" Title="MuonBkgLL" Unit="" Internal="MuonBkgLL" Type="F" Min="-9.99000000e+02" Max="2.47000009e-02"/>
    <Variable VarIndex="18" Expression="MuonMuLL" Label="MuonMuLL" Title="MuonMuLL" Unit="" Internal="MuonMuLL" Type="F" Min="-9.99000000e+02" Max="0.00000000e+00"/>
    <Variable VarIndex="19" Expression="MuonIsMuon" Label="MuonIsMuon" Title="MuonIsMuon" Unit="" Internal="MuonIsMuon" Type="I" Min="0.00000000e+00" Max="1.00000000e+00"/>
    <Variable VarIndex="20" Expression="MuonNShared" Label="MuonNShared" Title="MuonNShared" Unit="" Internal="MuonNShared" Type="I" Min="0.00000000e+00" Max="3.60000000e+01"/>
    <Variable VarIndex="21" Expression="InAccMuon" Label="InAccMuon" Title="InAccMuon" Unit="" Internal="InAccMuon" Type="I" Min="0.00000000e+00" Max="1.00000000e+00"/>
    <Variable VarIndex="22" Expression="MuonIsLooseMuon" Label="MuonIsLooseMuon" Title="MuonIsLooseMuon" Unit="" Internal="MuonIsLooseMuon" Type="I" Min="0.00000000e+00" Max="1.00000000e+00"/>
    <Variable VarIndex="23" Expression="InAccEcal" Label="InAccEcal" Title="InAccEcal" Unit="" Internal="InAccEcal" Type="I" Min="0.00000000e+00" Max="1.00000000e+00"/>
    <Variable VarIndex="24" Expression="EcalPIDe" Label="EcalPIDe" Title="EcalPIDe" Unit="" Internal="EcalPIDe" Type="F" Min="-9.99000000e+02" Max="4.34127378e+00"/>
    <Variable VarIndex="25" Expression="EcalPIDmu" Label="EcalPIDmu" Title="EcalPIDmu" Unit="" Internal="EcalPIDmu" Type="F" Min="-9.99000000e+02" Max="2.64517307e+00"/>
    <Variable VarIndex="26" Expression="InAccHcal" Label="InAccHcal" Title="InAccHcal" Unit="" Internal="InAccHcal" Type="I" Min="0.00000000e+00" Max="1.00000000e+00"/>
    <Variable VarIndex="27" Expression="HcalPIDe" Label="HcalPIDe" Title="HcalPIDe" Unit="" Internal="HcalPIDe" Type="F" Min="-9.99000000e+02" Max="3.00366545e+00"/>
    <Variable VarIndex="28" Expression="HcalPIDmu" Label="HcalPIDmu" Title="HcalPIDmu" Unit="" Internal="HcalPIDmu" Type="F" Min="-9.99000000e+02" Max="2.61016369e+00"/>
    <Variable VarIndex="29" Expression="PrsPIDe" Label="PrsPIDe" Title="PrsPIDe" Unit="" Internal="PrsPIDe" Type="F" Min="-9.99000000e+02" Max="3.46313500e+00"/>
  </Variables>
  <Spectators NSpec="0"/>
  <Classes NClass="2">
    <Class Name="Background" Index="0"/>
    <Class Name="Signal" Index="1"/>
  </Classes>
  <Transformations NTransformations="1">
    <Transform Name="Normalize">
      <Selection>
        <Input NInputs="30">
          <Input Type="Variable" Label="TrackP" Expression="TrackP"/>
          <Input Type="Variable" Label="TrackPt" Expression="TrackPt"/>
          <Input Type="Variable" Label="TrackChi2PerDof" Expression="TrackChi2PerDof"/>
          <Input Type="Variable" Label="TrackNumDof" Expression="TrackNumDof"/>
          <Input Type="Variable" Label="TrackGhostProbability" Expression="TrackGhostProbability"/>
          <Input Type="Variable" Label="TrackFitTChi2" Expression="TrackFitTChi2"/>
          <Input Type="Variable" Label="TrackFitTNDoF" Expression="TrackFitTNDoF"/>
          <Input Type="Variable" Label="RichUsedR1Gas" Expression="RichUsedR1Gas"/>
          <Input Type="Variable" Label="RichUsedR2Gas" Expression="RichUsedR2Gas"/>
          <Input Type="Variable" Label="RichAbovePiThres" Expression="RichAbovePiThres"/>
          <Input Type="Variable" Label="RichAboveKaThres" Expression="RichAboveKaThres"/>
          <Input Type="Variable" Label="RichAbovePrThres" Expression="RichAbovePrThres"/>
          <Input Type="Variable" Label="RichDLLe" Expression="RichDLLe"/>
          <Input Type="Variable" Label="RichDLLmu" Expression="RichDLLmu"/>
          <Input Type="Variable" Label="RichDLLk" Expression="RichDLLk"/>
          <Input Type="Variable" Label="RichDLLp" Expression="RichDLLp"/>
          <Input Type="Variable" Label="RichDLLbt" Expression="RichDLLbt"/>
          <Input Type="Variable" Label="MuonBkgLL" Expression="MuonBkgLL"/>
          <Input Type="Variable" Label="MuonMuLL" Expression="MuonMuLL"/>
          <Input Type="Variable" Label="MuonIsMuon" Expression="MuonIsMuon"/>
          <Input Type="Variable" Label="MuonNShared" Expression="MuonNShared"/>
          <Input Type="Variable" Label="InAccMuon" Expression="InAccMuon"/>
          <Input Type="Variable" Label="MuonIsLooseMuon" Expression="MuonIsLooseMuon"/>
          <Input Type="Variable" Label="InAccEcal" Expression="InAccEcal"/>
          <Input Type="Variable" Label="EcalPIDe" Expression="EcalPIDe"/>
          <Input Type="Variable" Label="EcalPIDmu" Expression="EcalPIDmu"/>
          <Input Type="Variable" Label="InAccHcal" Expression="InAccHcal"/>
          <Input Type="Variable" Label="HcalPIDe" Expression="HcalPIDe"/>
          <Input Type="Variable" Label="HcalPIDmu" Expression="HcalPIDmu"/>
          <Input Type="Variable" Label="PrsPIDe" Expression="PrsPIDe"/>
        </Input>
        <Output NOutputs="30">
          <Output Type="Variable" Label="TrackP" Expression="TrackP"/>
          <Output Type="Variable" Label="TrackPt" Expression="TrackPt"/>
          <Output Type="Variable" Label="TrackChi2PerDof" Expression="TrackChi2PerDof"/>
          <Output Type="Variable" Label="TrackNumDof" Expression="TrackNumDof"/>
          <Output Type="Variable" Label="TrackGhostProbability" Expression="TrackGhostProbability"/>
          <Output Type="Variable" Label="TrackFitTChi2" Expression="TrackFitTChi2"/>
          <Output Type="Variable" Label="TrackFitTNDoF" Expression="TrackFitTNDoF"/>
          <Output Type="Variable" Label="RichUsedR1Gas" Expression="RichUsedR1Gas"/>
          <Output Type="Variable" Label="RichUsedR2Gas" Expression="RichUsedR2Gas"/>
          <Output Type="Variable" Label="RichAbovePiThres" Expression="RichAbovePiThres"/>
          <Output Type="Variable" Label="RichAboveKaThres" Expression="RichAboveKaThres"/>
          <Output Type="Variable" Label="RichAbovePrThres" Expression="RichAbovePrThres"/>
          <Output Type="Variable" Label="RichDLLe" Expression="RichDLLe"/>
          <Output Type="Variable" Label="RichDLLmu" Expression="RichDLLmu"/>
          <Output Type="Variable" Label="RichDLLk" Expression="RichDLLk"/>
          <Output Type="Variable" Label="RichDLLp" Expression="RichDLLp"/>
          <Output Type="Variable" Label="RichDLLbt" Expression="RichDLLbt"/>
          <Output Type="Variable" Label="MuonBkgLL" Expression="MuonBkgLL"/>
          <Output Type="Variable" Label="MuonMuLL" Expression="MuonMuLL"/>
          <Output Type="Variable" Label="MuonIsMuon" Expression="MuonIsMuon"/>
          <Output Type="Variable" Label="MuonNShared" Expression="MuonNShared"/>
          <Output Type="Variable" Label="InAccMuon" Expression="InAccMuon"/>
          <Output Type="Variable" Label="MuonIsLooseMuon" Expression="MuonIsLooseMuon"/>
          <Output Type="Variable" Label="InAccEcal" Expression="InAccEcal"/>
          <Output Type="Variable" Label="EcalPIDe" Expression="EcalPIDe"/>
          <Output Type="Variable" Label="EcalPIDmu" Expression="EcalPIDmu"/>
          <Output Type="Variable" Label="InAccHcal" Expression="InAccHcal"/>
          <Output Type="Variable" Label="HcalPIDe" Expression="HcalPIDe"/>
          <Output Type="Variable" Label="HcalPIDmu" Expression="HcalPIDmu"/>
          <Output Type="Variable" Label="PrsPIDe" Expression="PrsPIDe"/>
        </Output>
      </Selection>
      <Class ClassIndex="0">
        <Ranges>
          <Range Index="0" Min="1.1289699707031250e+03" Max="2.1047975000000000e+06"/>
          <Range Index="1" Min="7.5716084241867065e-01" Max="6.8115179687500000e+04"/>
          <Range Index="2" Min="2.2142564877867699e-02" Max="3.9998562335968018e+00"/>
          <Range Index="3" Min="5.0000000000000000e+00" Max="3.1000000000000000e+01"/>
          <Range Index="4" Min="6.2936742324382067e-05" Max="3.9999589323997498e-01"/>
          <Range Index="5" Min="3.7880049785599113e-04" Max="7.9457656860351562e+01"/>
          <Range Index="6" Min="1.0000000000000000e+00" Max="2.7000000000000000e+01"/>
          <Range Index="7" Min="0.0000000000000000e+00" Max="1.0000000000000000e+00"/>
          <Range Index="8" Min="0.0000000000000000e+00" Max="1.0000000000000000e+00"/>
          <Range Index="9" Min="0.0000000000000000e+00" Max="1.0000000000000000e+00"/>
          <Range Index="10" Min="0.0000000000000000e+00" Max="1.0000000000000000e+00"/>
          <Range Index="11" Min="0.0000000000000000e+00" Max="1.0000000000000000e+00"/>
          <Range Index="12" Min="-9.9900000000000000e+02" Max="1.7031970214843750e+02"/>
          <Range Index="13" Min="-9.9900000000000000e+02" Max="1.1950509643554688e+02"/>
          <Range Index="14" Min="-9.9900000000000000e+02" Max="9.9663002014160156e+01"/>
          <Range Index="15" Min="-9.9900000000000000e+02" Max="1.2126850128173828e+02"/>
          <Range Index="16" Min="-9.9900000000000000e+02" Max="7.0564399719238281e+01"/>
          <Range Index="17" Min="-9.9900000000000000e+02" Max="2.4499999359250069e-02"/>
          <Range Index="18" Min="-9.9900000000000000e+02" Max="0.0000000000000000e+00"/>
          <Range Index="19" Min="0.0000000000000000e+00" Max="1.0000000000000000e+00"/>
          <Range Index="20" Min="0.0000000000000000e+00" Max="3.6000000000000000e+01"/>
          <Range Index="21" Min="0.0000000000000000e+00" Max="1.0000000000000000e+00"/>
          <Range Index="22" Min="0.0000000000000000e+00" Max="1.0000000000000000e+00"/>
          <Range Index="23" Min="0.0000000000000000e+00" Max="1.0000000000000000e+00"/>
          <Range Index="24" Min="-9.9900000000000000e+02" Max="4.3412737846374512e+00"/>
          <Range Index="25" Min="-9.9900000000000000e+02" Max="2.6451730728149414e+00"/>
          <Range Index="26" Min="0.0000000000000000e+00" Max="1.0000000000000000e+00"/>
          <Range Index="27" Min="-9.9900000000000000e+02" Max="3.0036654472351074e+00"/>
          <Range Index="28" Min="-9.9900000000000000e+02" Max="2.6101636886596680e+00"/>
          <Range Index="29" Min="-9.9900000000000000e+02" Max="3.4631350040435791e+00"/>
        </Ranges>
      </Class>
      <Class ClassIndex="1">
        <Ranges>
          <Range Index="0" Min="1.1407500000000000e+03" Max="4.6071796875000000e+05"/>
          <Range Index="1" Min="2.9911958694458008e+01" Max="4.4815917968750000e+04"/>
          <Range Index="2" Min="8.4221899509429932e-02" Max="3.9997057914733887e+00"/>
          <Range Index="3" Min="6.0000000000000000e+00" Max="3.0000000000000000e+01"/>
          <Range Index="4" Min="2.8401185409165919e-04" Max="3.9998954534530640e-01"/>
          <Range Index="5" Min="1.2502288445830345e-02" Max="6.7249641418457031e+01"/>
          <Range Index="6" Min="2.0000000000000000e+00" Max="2.6000000000000000e+01"/>
          <Range Index="7" Min="0.0000000000000000e+00" Max="1.0000000000000000e+00"/>
          <Range Index="8" Min="0.0000000000000000e+00" Max="1.0000000000000000e+00"/>
          <Range Index="9" Min="0.0000000000000000e+00" Max="1.0000000000000000e+00"/>
          <Range Index="10" Min="0.0000000000000000e+00" Max="1.0000000000000000e+00"/>
          <Range Index="11" Min="0.0000000000000000e+00" Max="1.0000000000000000e+00"/>
          <Range Index="12" Min="-9.9900000000000000e+02" Max="9.2794700622558594e+01"/>
          <Range Index="13" Min="-9.9900000000000000e+02" Max="6.9684700012207031e+01"/>
          <Range Index="14" Min="-9.9900000000000000e+02" Max="1.5869630432128906e+02"/>
          <Range Index="15" Min="-9.9900000000000000e+02" Max="7.2579200744628906e+01"/>
          <Range Index="16" Min="-9.9900000000000000e+02" Max="7.2579200744628906e+01"/>
          <Range Index="17" Min="-9.9900000000000000e+02" Max="2.4700000882148743e-02"/>
          <Range Index="18" Min="-9.9900000000000000e+02" Max="0.0000000000000000e+00"/>
          <Range Index="19" Min="0.0000000000000000e+00" Max="1.0000000000000000e+00"/>
          <Range Index="20" Min="0.0000000000000000e+00" Max="3.1000000000000000e+01"/>
          <Range Index="21" Min="0.0000000000000000e+00" Max="1.0000000000000000e+00"/>
          <Range Index="22" Min="0.0000000000000000e+00" Max="1.0000000000000000e+00"/>
          <Range Index="23" Min="0.0000000000000000e+00" Max="1.0000000000000000e+00"/>
          <Range Index="24" Min="-9.9900000000000000e+02" Max="4.0547904968261719e+00"/>
          <Range Index="25" Min="-9.9900000000000000e+02" Max="2.6451730728149414e+00"/>
          <Range Index="26" Min="0.0000000000000000e+00" Max="1.0000000000000000e+00"/>
          <Range Index="27" Min="-9.9900000000000000e+02" Max="2.4842071533203125e+00"/>
          <Range Index="28" Min="-9.9900000000000000e+02" Max="2.6101636886596680e+00"/>
          <Range Index="29" Min="-9.9900000000000000e+02" Max="3.4631350040435791e+00"/>
        </Ranges>
      </Class>
      <Class ClassIndex="2">
        <Ranges>
          <Range Index="0" Min="1.1289699707031250e+03" Max="2.1047975000000000e+06"/>
          <Range Index="1" Min="7.5716084241867065e-01" Max="6.8115179687500000e+04"/>
          <Range Index="2" Min="2.2142564877867699e-02" Max="3.9998562335968018e+00"/>
          <Range Index="3" Min="5.0000000000000000e+00" Max="3.1000000000000000e+01"/>
          <Range Index="4" Min="6.2936742324382067e-05" Max="3.9999589323997498e-01"/>
          <Range Index="5" Min="3.7880049785599113e-04" Max="7.9457656860351562e+01"/>
          <Range Index="6" Min="1.0000000000000000e+00" Max="2.7000000000000000e+01"/>
          <Range Index="7" Min="0.0000000000000000e+00" Max="1.0000000000000000e+00"/>
          <Range Index="8" Min="0.0000000000000000e+00" Max="1.0000000000000000e+00"/>
          <Range Index="9" Min="0.0000000000000000e+00" Max="1.0000000000000000e+00"/>
          <Range Index="10" Min="0.0000000000000000e+00" Max="1.0000000000000000e+00"/>
          <Range Index="11" Min="0.0000000000000000e+00" Max="1.0000000000000000e+00"/>
          <Range Index="12" Min="-9.9900000000000000e+02" Max="1.7031970214843750e+02"/>
          <Range Index="13" Min="-9.9900000000000000e+02" Max="1.1950509643554688e+02"/>
          <Range Index="14" Min="-9.9900000000000000e+02" Max="1.5869630432128906e+02"/>
          <Range Index="15" Min="-9.9900000000000000e+02" Max="1.2126850128173828e+02"/>
          <Range Index="16" Min="-9.9900000000000000e+02" Max="7.2579200744628906e+01"/>
          <Range Index="17" Min="-9.9900000000000000e+02" Max="2.4700000882148743e-02"/>
          <Range Index="18" Min="-9.9900000000000000e+02" Max="0.0000000000000000e+00"/>
          <Range Index="19" Min="0.0000000000000000e+00" Max="1.0000000000000000e+00"/>
          <Range Index="20" Min="0.0000000000000000e+00" Max="3.6000000000000000e+01"/>
          <Range Index="21" Min="0.0000000000000000e+00" Max="1.0000000000000000e+00"/>
          <Range Index="22" Min="0.0000000000000000e+00" Max="1.0000000000000000e+00"/>
          <Range Index="23" Min="0.0000000000000000e+00" Max="1.0000000000000000e+00"/>
          <Range Index="24" Min="-9.9900000000000000e+02" Max="4.3412737846374512e+00"/>
          <Range Index="25" Min="-9.9900000000000000e+02" Max="2.6451730728149414e+00"/>
          <Range Index="26" Min="0.0000000000000000e+00" Max="1.0000000000000000e+00"/>
          <Range Index="27" Min="-9.9900000000000000e+02" Max="3.0036654472351074e+00"/>
          <Range Index="28" Min="-9.9900000000000000e+02" Max="2.6101636886596680e+00"/>
          <Range Index="29" Min="-9.9900000000000000e+02" Max="3.4631350040435791e+00"/>
        </Ranges>
      </Class>
    </Transform>
  </Transformations>
  <MVAPdfs/>
  <Weights>
    <Layout NLayers="3">
      <Layer Index="0" NNeurons="31">
        <Neuron NSynapses="39">
          -4.9898869681156555e+00 2.9343413100487559e+00 -4.6559392250760928e-01 -1.8786936409900474e+00 -2.8881067073701701e+00 -2.4450093771936934e+00 -3.8919763598843571e+00 1.6287629411770377e+00 -5.5922804069620566e+00 -5.3378825009187381e-01 2.3453457463270357e+00 -1.7310542300243967e-01 -3.4144307932279552e+00 -8.6108307527282912e-01 7.8802631378132970e-01 -1.7088898521929947e+00 -2.2934596802546139e+00 1.5007652507622331e+00 6.8398316059194897e-01 5.0169523587977094e-01 2.6647163004784419e-01 2.1176651060077094e+00 1.9061398588846892e+00 -4.7878959947565047e-01 -2.4801562697555579e+00 9.6787339765692992e-01 1.4624287721452896e+01 -2.0587239235719309e-02 -1.7496283957081415e+00 -3.1102857877045249e+00 8.1371531916352535e-01 3.0879470755218672e+00 6.7132354221900795e-02 1.3646204851087314e+00 -1.2914786867125692e+00 9.8648025591729027e-01 -7.9128929928650722e+00 7.5392991311243964e+00 1.1786614752130089e+00 
        </Neuron>
        <Neuron NSynapses="39">
          7.4783016598197189e+00 2.6442521493782882e+00 2.9067431337248020e+00 1.1519516526261343e+01 -2.0128229827907447e+00 2.4041516536616698e+00 -2.1163801167474301e+01 -1.2473117785371533e+01 -5.6944897390228615e+00 2.0249906389209498e+00 8.5841985333225566e+00 5.8425661133061180e-01 3.9454332700808403e+00 -3.2464836430161395e+00 1.6662867360714679e+00 -9.4387784359363081e-01 -8.6197266014681884e-01 -1.4047813816107468e+00 -9.6869257229852490e+00 1.2981030388123351e+00 7.3712651935778625e-02 -5.5483436324249809e+00 1.2038151990097152e+00 9.1051353062613513e-02 6.0558014628671240e+00 1.3387209308685283e-01 5.9114697611579707e+00 1.6659990953151680e+00 -3.2396753881978624e+00 -1.2474178536604352e+01 -2.2259898461532779e+00 -5.7401687920388227e+00 -1.2346266732616320e+00 -1.8925085265995730e+01 1.5152605207724106e+00 -4.8136599069204838e-01 1.3533718426716453e+01 7.6488973348067084e+00 -5.7234228740514617e+00 
        </Neuron>
        <Neuron NSynapses="39">
          6.2695016770752765e-01 2.8799197913059476e+00 1.5886946600815857e-01 8.6267308138025071e-03 1.3172510555534228e-01 -5.1179825662188227e-01 -1.5052828958187323e-01 -5.3781196655545791e-03 -8.7978671167784239e-02 -8.7705125263160455e-01 -9.2173138777206409e-01 2.1692484039113048e-02 6.4066449103437312e-02 8.2138934731931201e-01 9.6256665145445197e-01 -1.0339634550563252e-01 6.3587295589266346e-01 -7.3711147574477609e-01 6.7881434679941866e-01 -1.7860901973994311e-01 -3.7052565947972349e-01 -7.5205274925652510e-01 -8.3899378877396502e-01 -4.2745065789622461e-01 6.8549312507540627e-01 1.9053456829597801e+00 -7.0719734797916467e-01 1.3458403200134123e-01 -7.8493327017271231e-01 -9.3519591542838154e-01 -5.2949198597334157e-01 -1.9830132142093173e+00 -1.2589231929088457e-01 -4.8621302148190909e-01 1.3005050102204913e-01 4.8859011957331278e-01 3.8311560750451273e-01 -6.1818476432490110e-01 -2.1100990483388168e-01 
        </Neuron>
        <Neuron NSynapses="39">
          -5.4845838995826615e+00 1.0268068847532599e+00 -1.5615529823332821e+00 -1.3608536950887509e+00 9.9064785668423838e-01 2.0022781403671996e+00 1.1751300767425585e+00 2.7906068301740206e+00 -1.6722687814290029e+00 -1.6003207219421992e-01 1.9530362684327736e+00 -5.2471908216715624e-01 1.1291110339450858e+00 -3.5817195010187997e-01 -1.9868886368332217e+00 -1.2575098340122259e+00 1.5980855507742215e+00 5.4318225242540685e-01 1.0825022222032878e+00 -3.7332625200600700e-01 -1.6581152030642159e+00 1.9845955511238169e+00 -8.2578763474808947e-01 1.0365835103097900e+00 -2.4539470321903627e+00 7.4710556794741145e-01 2.0083628712705437e+00 -1.7309953606863759e+00 4.5317799006507031e-01 2.4055930823818357e+00 -6.8344935761351489e-01 -1.9659872231588080e+00 7.9162313487653857e-01 7.5600109549364425e-01 -1.8069102440744897e-01 1.4663724007692309e+00 -1.4981929324943575e+00 -1.3671434578783246e+00 -1.5583722918723619e+00 
        </Neuron>
        <Neuron NSynapses="39">
          5.6650654860250771e-01 1.1335115649772873e+00 3.1478889612255628e-01 6.5625181453710657e-01 4.9401847547535183e-02 -2.4846435396073122e-01 3.6558071721111740e-01 9.8613428576021323e-01 2.3620551149261830e+00 -1.4299621401541757e-01 -4.1228922830723365e+00 1.9141747114276936e-01 6.1356126134333577e-01 2.3629993911677327e-01 8.8165831336410450e-01 3.6418540445294569e+00 -1.2197423289890810e+00 -3.8608125738145155e-01 7.7038744050520318e+00 -9.3928140316301895e-02 5.0892342430562704e-02 6.1468444867538707e-01 -1.1755381187861771e+00 -2.0046182769619062e-02 1.0173851317327424e-01 2.5163071950449756e-01 6.0709240230197914e-01 -6.3996162982619360e+00 1.6237197291828623e-01 2.2172516883242729e-01 4.9432672922716142e-01 -1.6845098776396523e+00 2.1695938930665509e-01 4.3978645628283486e-01 -3.5727402690111661e-02 -5.8455145883060544e-01 -1.9362145212465651e+00 9.8047016454260519e-02 1.0555789609726387e+00 
        </Neuron>
        <Neuron NSynapses="39">
          -7.5611269520799151e-01 -3.2304999325407460e+00 -1.0446935283897155e-01 4.0240879373089476e-02 -5.1923483516329083e-01 3.4049110740013272e-01 2.4830462682805476e-01 3.1037277606261460e-01 -4.1043456507499626e-01 1.9193015208655637e+00 1.2975240985873175e+00 5.5725010690656507e-01 -5.6905859247733157e-02 1.0302374430960277e+00 -8.3616812648846894e-01 -2.0559249239808022e-01 6.6871395387562191e-02 7.9926457757686398e-01 5.6301307752491125e-01 1.8180494445957829e-01 4.4553015299053694e-01 2.7889934975652336e-01 3.7804427325773489e+00 6.4750290909900099e-01 -6.5226753495448797e-01 -3.0322853565312019e-01 1.4648710490227801e+00 7.7734852757537054e-02 -7.2784962981297843e-02 4.2912415736643406e-01 -1.1665560147965426e+00 1.8210270689082113e+00 9.0086345034601445e-02 4.4622205291997769e-01 -8.1520898104276457e-02 -9.0386313667017082e-01 -5.1205330646289404e-01 2.2276908206718907e-01 -4.1888324208693406e-01 
        </Neuron>
        <Neuron NSynapses="39">
          5.9626985674633888e+00 1.9666177956563478e+00 2.1328449263594620e+00 3.2980215015929154e-01 -1.1265533749272971e+00 -2.2042675470424502e+00 -1.0863066513513702e+00 -3.1663124317565323e+00 2.1477476389394154e+00 -1.3920724523416781e+00 -2.3247298412901776e+00 5.6741764034669762e-01 -8.9878773493932618e-01 -9.3775529723401818e-01 1.3929170662186536e+00 1.1625722088359449e+00 2.7586471214853123e+00 6.6213610479312268e-01 -1.4085512416432808e+00 2.9173472631808342e-03 1.5671481607232540e+00 -3.6181565252388381e+00 -3.6392161971139885e+00 -1.1263291286752957e+00 1.6255658382634159e+00 1.6539006286544616e-01 -2.7440379660782592e+00 2.0072831504832931e+00 -4.9156979674067192e-01 -2.3815586060054956e+00 6.4075237130935059e-01 -7.8819212616516643e-01 -1.1172518955690878e+00 -1.6544640946756224e+00 1.5438182715234136e-01 -1.0855841364982985e+00 1.6067514112027494e+00 1.1640531369047933e+00 2.3246742206573852e+00 
        </Neuron>
        <Neuron NSynapses="39">
          -3.1527483082641811e-01 -3.0575004729419014e-01 5.0889981261873152e-01 2.4706884627122250e+00 -3.4695561132020802e-01 -5.6107593643226109e-02 8.3124434430018124e-01 3.8208194957600403e+00 -1.9174459791682366e-01 -1.4116541438161920e+00 -1.8406596020747423e-01 1.7947395324838511e-01 6.1018229784952460e-01 -8.1850675374489690e-01 4.4393497628017755e+00 5.0157303083757188e-01 1.8767425102672819e+00 -3.3150591369160267e+00 -9.5656751107099747e-01 -3.6293613886960147e-01 -3.1652085103192881e-02 2.3231940549521390e-01 -1.4215334282066714e+00 -1.6057212973818452e-01 -8.1005020202283429e-01 9.6364659790253840e-02 1.8116787754262447e+00 -6.3451887011594499e-01 -3.5036873634592108e-01 1.0016029912275686e+01 -1.2161032361118351e+00 -6.6570698194034472e-01 -6.5943451429373601e-01 1.2081186729159263e+00 2.1503120511881108e-02 -7.0408197941428996e-01 -6.7579546881767993e-01 5.3073487938882474e-02 -8.7581276689052268e-01 
        </Neuron>
        <Neuron NSynapses="39">
          1.3382934176015779e-01 -2.0423944630286888e-02 1.2969666828839318e-02 3.3930454900958678e+00 1.2171170585625299e+00 -6.2422896213863585e-02 8.9066735919288639e-02 3.1697950639298309e+00 -1.5459167698882784e-01 -8.9178919860221462e-01 -6.4703400793071275e-03 1.1028679406005529e-02 -1.1406780975069994e+00 -1.2155943126996469e+00 1.3910741325468836e+00 2.4340652476940738e-01 -1.5972258921896323e+00 3.9848126385084887e-01 2.5704600455500065e-01 1.2069272848337288e-01 -6.7520617824907508e-02 -5.5260035435246928e-02 -1.1215023713913161e+00 -1.9030336603176472e-02 -8.2126851596556735e-02 3.5703695676873015e-01 -8.3050128221839714e-02 2.6411433534284087e-02 1.5375460733489518e-02 4.6493611643377675e-01 6.9369530628511047e-02 -2.6707783283290993e+00 2.5409339154392790e-01 6.1449145044659492e-01 -3.5204612721013756e-01 -7.4793940673693815e-01 2.6618035468324741e-01 1.8298690164319292e-01 -1.0758313518707872e-01 
        </Neuron>
        <Neuron NSynapses="39">
          9.5962740574802988e-02 3.5525052370076668e+00 -1.3334914562148897e-01 4.9140010312900473e-01 -7.4148926814266369e-01 -1.1566929282887234e+01 -3.9760638792241774e+00 7.6301482156256351e-01 -5.3072442215478899e-01 -3.8404242230737845e-03 -1.3412390098497029e+00 -1.7744459315394429e-01 -9.0272365656779416e-02 6.4525410621619672e-01 2.2518312001220999e+00 1.3919687538545050e-01 7.0704105231588987e-01 -1.6964067799211013e+00 6.7758664333415097e-02 8.8494832555587322e-03 -1.0430116140399199e-02 -6.0841580395065140e+00 8.7874959128314545e-01 2.6984555029723332e-02 7.0438917636610021e-01 9.4333545531727414e-01 2.8207920701420646e+00 -4.9079893276759301e-01 -5.2890314333060617e-01 3.0288028464508376e-01 -2.9760648797064659e-01 -2.6317622543615782e+00 7.8971312896973511e-02 4.2450012945838739e-01 -4.8992556432901418e-01 -2.3252602758013949e-01 1.0981985195873509e+01 1.1480333813322776e+01 -4.2206589335665718e+00 
        </Neuron>
        <Neuron NSynapses="39">
          1.9641210186304273e-01 5.9167415438184201e-01 1.1966230630138910e-01 2.6596536117667513e-01 -1.9112092476504006e+00 2.8792162613193359e+00 5.4602879417160501e+00 -1.9688946392225087e-01 9.3717017279244497e-01 -2.8400243529848362e-01 1.7781853106552320e-01 -1.4119249157680758e-01 -4.6172286243532235e-01 -1.2716424104151591e+00 1.2515090787876815e+00 -1.4176508142045749e+00 -1.0056188085226696e-01 2.5838286935004326e+00 -2.2058564977233264e-01 1.4214559691658690e-02 -3.5377617277803391e-02 3.9580285147268544e-02 5.4473730806253540e-01 9.0215047980338775e-02 -4.4185703656515446e-01 -1.4571985955900918e-01 1.7530104766418231e-01 8.9133924518473862e-01 -3.5519365692555468e-02 -3.9287718949510411e+00 -2.1920343807192728e-02 -4.1938520004766577e-01 -1.8522981143872356e-02 -3.8349865306350619e+00 -6.1950703999892343e-01 -7.7029456911605607e-02 5.6260765255278303e-02 -2.8999299619596735e+00 -5.1212782332041495e-01 
        </Neuron>
        <Neuron NSynapses="39">
          5.0376875118521292e-02 3.4935630796584444e-01 -8.8216115098968872e-02 -5.0282723513663263e-01 -3.1528019913077112e+00 -1.0694790741493244e-01 -2.7166215760476747e-01 1.7553357787504769e+00 1.7735166517868164e-01 -1.4021198037053242e+00 4.8668871050623176e-03 -6.1816072308401326e-01 6.5783269718950677e-01 -1.3819876254799386e+00 6.2290057290053813e-01 2.0745501517625425e-01 1.5417806129165332e+00 3.1791759513809986e-01 9.6044683679069848e-02 1.8524926561329785e-01 -1.4870918424463628e-02 -4.9658813627611925e-01 -5.0053657540404195e-01 9.0525963246410185e-02 6.9863522408934309e-01 -3.7513356967792877e-01 -3.7902969589928442e-01 2.0322975808922769e-01 8.9279075483737022e-02 3.0621869135085498e+00 -6.4230872781593076e-02 1.9715010316113211e+00 8.1164550932533996e-02 -5.9138688012036933e-01 8.3746734761462738e-01 4.8134716106570430e-01 -8.8995638522480977e-02 -1.3181439728656952e-01 3.8398233082558236e-01 
        </Neuron>
        <Neuron NSynapses="39">
          -8.7853128047917490e+00 4.1437851836910760e+00 -1.9187267588763450e+00 -1.1896697480139379e+01 -1.3966416548116549e+00 1.1293212194508943e+01 2.4650156805693282e+00 9.4710812523882559e+00 -8.4826366532899602e+00 -1.3408786141562241e+00 -1.5179826033130353e-01 1.9487486995963315e+00 -8.1795626819867850e-01 -1.1492984849506511e+00 2.6124730595878018e+00 6.4190147356087701e+00 -1.5729673606531109e+00 1.3687981977759347e+00 1.9301005037568448e+00 -1.7476617701378270e+00 1.1780829736379290e+00 -1.9265342336658973e+00 -1.8026220921144270e-01 -1.8353963075285249e+00 -6.1311551982697639e+00 -2.1840318763511402e+00 6.1173503896637049e+00 -3.9070985634759894e+00 2.4683876182177262e+00 -2.3921876354690390e+00 1.1063792710961178e+00 3.3524819004533537e+00 -2.5905173364617573e+00 1.0435920459936211e+01 2.8282706792874208e+00 1.9601982178579285e+00 -2.5999252819218597e+01 -1.1645105416464322e+01 4.5150535545287447e+00 
        </Neuron>
        <Neuron NSynapses="39">
          -8.9674968005772229e+00 3.6548824989485520e+00 -2.4398142844847546e+00 -6.1294195845979154e+00 1.0663892234791738e-02 -3.3932480597709014e+00 4.5136985108379140e+00 6.5719975127431871e+00 -4.7512428539947713e+00 -1.2550698116911769e+00 7.6901312898936212e+00 9.4679732600936622e-02 5.3007908809141113e-01 6.0707128005278466e-01 -2.1749792796525555e-01 3.0423027415319908e+00 -3.0810428312646536e+00 2.0559687731791101e-01 4.3860087772604759e+00 4.7974292428211490e-01 1.2520194600611736e+00 2.2945742614920053e+00 -2.6766361928743225e+00 -5.7684918383600237e-01 -9.8847173434340512e+00 5.1034514580875068e-01 -1.9029851270728884e+01 -5.3077013538490938e+00 2.6786810699371671e-01 -2.6725446455244423e-01 -1.2737049650686634e+00 1.9757828526312633e+00 -2.3367748610812491e+00 7.2511587023568280e+00 1.6781017518973382e-01 -6.8862329240277387e-01 -1.1966942980144571e+01 6.0291347265925017e+00 -3.2646438999505596e-02 
        </Neuron>
        <Neuron NSynapses="39">
          1.5401841826710308e+01 -1.0124191309076288e+01 6.1052457665494959e+00 1.8083796739200309e+01 -6.1696799923073948e+00 5.9358488628287660e+01 -5.9021425414970345e+01 -1.8687681181846695e+01 -2.9100358847155295e+01 -2.2819080642622565e+00 -7.2189099725639814e+00 -3.8633220386698013e+00 3.6631056911859043e+00 -1.0805939059356484e+00 -3.1423246762549555e+00 3.9116954591950957e+01 5.4513469298942692e+00 1.1634427767036094e+01 -1.3102122625593744e+01 9.5659087637860318e-01 -1.0182537098739628e+00 1.3612858544903088e+00 -1.5115734958014004e+00 2.1889855737697383e-01 7.4797201545193568e+00 -3.8091798744577909e+00 3.1749179866779219e+01 3.3266494455393023e+01 -2.9554296052723119e+00 -4.3142114799391543e+01 2.2126765553293146e+00 -6.6260563532399761e+00 1.0190662466536173e-01 -1.5138731107164217e+01 -4.3295413645351366e-01 -5.0829013623864032e+00 -2.6679478911480683e+01 -6.2692659515215972e+01 1.5192945825331336e+01 
        </Neuron>
        <Neuron NSynapses="39">
          1.0449550710869851e-01 2.6345999838095153e+00 1.2010265846290396e+00 5.2563389912170333e+00 -2.8117359740063095e+00 -1.4423378991812150e+01 2.1331577878989759e+01 -1.2296706042566134e+01 3.2544251173585650e+00 -2.0394835418778041e+00 -4.8716264961852538e+00 1.8927852360864372e+00 -3.2437456229784378e+00 -4.9953097841966437e-01 -3.5462328240089378e+00 -3.4945388006911948e+01 2.5608711031621416e+00 -2.2949469091973280e+00 -3.3795374913232679e+00 8.1599060197264608e-02 1.1401945311659598e+00 2.8509090311240382e+00 -1.8356736047959308e+00 -1.5444674234368603e+00 4.9722071855753143e+00 1.6815463518084295e+00 1.9324356435897119e+01 -1.0155203804680404e+01 -1.0987499150225670e+00 -2.7900615155549531e+01 2.3152852666670531e+00 -1.9245464414077196e+00 1.0719962364724596e+00 -1.4481430872404527e+01 -2.9249024888465316e+00 3.4663839820050084e+00 -1.1325491040332663e+01 3.4133693489586669e+01 7.1103140760233670e+00 
        </Neuron>
        <Neuron NSynapses="39">
          2.6455086358700544e+00 -8.9982753323417053e-01 -1.1598850439452886e+00 7.9229958368070870e+00 -4.8249204833501738e+00 -4.7137983026522674e+00 9.2871592757003469e+00 -1.3218948382260997e+01 -1.3789610498946285e+00 -2.3625740006917333e+00 -5.6396599056513255e+00 -3.6353217147159367e-01 -2.0387087007578506e+00 1.6223090032466345e+00 -1.7561719845825710e+00 -2.3807610013418106e+01 1.3909439704416946e+00 -2.7856721271512486e+00 -2.9568173956584367e+00 -5.6239967959553466e-02 -6.1468165355924653e-01 2.0548049949359908e+00 -2.2178674082536727e+00 1.5879153383126818e+00 5.3105287889957102e+00 2.2118187097386555e+00 1.6900931855303014e+01 -5.8744712883922539e+00 -2.6007652144005178e+00 -2.7393041289508965e+01 1.2965323348755087e+00 -2.2048303904857840e+00 -1.9576867880542254e-01 -1.5736070254164080e+01 -5.8230657548847919e-01 1.0546892781564219e+00 -1.2669221185652217e+01 1.9081089336800119e+01 9.2154687413156751e+00 
        </Neuron>
        <Neuron NSynapses="39">
          -1.5635242414494503e+00 -7.1779876988570879e-01 -7.8857100239134026e-01 -3.4782950648037832e-02 1.5893010961761653e+00 1.2989024856435492e+00 3.2479569925651858e-01 -1.9013778898161471e+00 -1.3586756399209013e-01 -2.0322665912050078e-01 -1.3764398753716112e+00 1.0799883327011186e+00 -9.3414388932845416e-01 2.4466486236487848e+00 -6.1252398242988471e-01 1.6344067093208797e-01 -1.6432521221034921e+00 1.2965474012687423e+00 -9.5002623164345101e-02 1.2080383651750928e+00 -7.8268337672608479e-01 9.8793279604449313e-01 2.1262258500630177e-01 7.1017495612041337e-01 -1.0118133249224410e+00 -1.1168973132594542e+00 -9.4212600038279160e-01 7.1448754552929472e-01 9.0641718515056757e-01 -7.1857997752045941e+00 9.2135057997173464e-01 -1.0031110031104351e+00 -7.6432429154796588e-01 -2.4085898501396144e-01 2.9336802704491022e-01 -1.6270536887748674e+00 -2.7246156492106982e-01 2.4947454493838581e-01 1.7086025850740731e+00 
        </Neuron>
        <Neuron NSynapses="39">
          1.0407368150113989e+00 -4.2026891548824158e-01 4.5096792888580220e-02 -1.0828829342370916e+00 -9.1164505566670473e-01 -9.8926756201646637e-01 -1.1491056001300708e-01 9.0117902362926283e-01 -2.4426637502020610e-02 1.6149913301735643e+00 1.4086957590069105e+00 -3.6129740909658348e-01 5.0915134379249527e-01 1.4627815691669368e+00 1.1321169016438237e+00 -1.8270699727129183e+00 2.3059969653562438e+00 -4.2658306529025608e-01 -1.0913760669524559e+00 1.2742559914118150e+00 -1.0113448282676036e+00 -1.1540182134346637e+00 1.3185444481567072e+00 -4.9036365523396847e-01 -3.8966103136022218e-01 1.3541563381358054e-01 1.5889547510867885e+00 1.6116582809660447e+00 5.5421349591882296e-01 -9.1874513530694433e+00 1.8600890417315210e+00 7.2210686656911127e-01 -2.0409128987283881e-01 -5.6905784783670921e-01 -4.3696304864860963e-01 1.4683251915187490e+00 -1.5768454870819044e+00 -7.6580297043532153e-01 -5.3472193137248236e-01 
        </Neuron>
        <Neuron NSynapses="39">
          2.0191732744604837e-01 -4.0012747638649451e+00 8.9561303062509423e-02 -2.7093682026192678e-01 -2.6986487111625923e-01 5.1286512537770834e+00 5.7736953122396528e+00 1.4943386559331251e-01 -9.1416367708178008e+00 -1.2655712075674076e-02 2.3853479235261861e+00 1.1350190928052832e+00 1.9109257974721381e+00 1.3869719298761378e+00 -1.6048553163677888e+00 2.5865086651732438e-01 -9.6637495142835017e-01 -1.8367108190702546e+00 3.8748618358835091e-01 3.0481936113008076e-02 5.9223690079352154e-01 2.6334455335648081e-03 4.8920762970526754e-01 7.0426839721337339e-03 1.3261704165361465e+00 -3.3901977040093711e-01 -1.7168371574947732e+00 1.9243067777086956e-01 5.1474210084684158e-01 -9.0497899814299156e+00 5.4039931889313297e-01 -1.1034753661044832e+00 -2.0820869478517262e-01 3.0384349217946366e-01 -6.0510200292251348e-01 -1.9178219481711551e+00 -3.5110061007299731e-01 8.0809412341869358e-01 3.0734531809505067e-01 
        </Neuron>
        <Neuron NSynapses="39">
          -6.4382329860245742e+00 1.4577738381100791e-01 1.1306310651256085e-01 6.6797804909505931e-02 -4.4214429761362456e-01 4.2618776659023485e+00 3.7066650784705995e+00 -8.6746525296809973e-01 -3.3057762580782915e+00 -1.1208129265511733e+00 -2.5396733737153934e+00 -1.6267483347716447e+00 -1.4685312324300865e+00 7.9475100961625766e-01 1.1063345155433641e+00 -2.0934091489859394e+00 7.9617940349845073e-01 1.5263674286289897e+00 -2.0955063238995622e+00 -1.5606114254006140e+00 2.0106315941197566e+00 1.5233065749513963e+00 1.1182990371645827e+00 -1.1172190399674604e+00 -2.3437018631743096e+00 2.7097541274086773e-01 2.1133125109697897e+00 1.3940714354279236e+00 1.7793147547010690e-01 -8.6650971489435502e+00 1.4391922345477208e+00 -1.5043748926235716e+00 -7.6801421892695476e-01 -6.3024967736665105e-01 -1.8100467719876001e+00 8.4798655973723236e-01 8.1566153671754482e-01 -7.2333730288258874e-02 -1.3141153642681114e+00 
        </Neuron>
        <Neuron NSynapses="39">
          -1.3781677621117536e-01 -3.4213000238787927e+00 1.6945525828843594e-01 -1.1521583535925215e+00 -1.7972102495630566e+00 -3.6589856222583728e+00 1.9878941177299470e-01 3.2335532363249414e-01 5.0091472496126388e-02 6.9252795905097497e-01 6.4213284232523886e+00 -2.8130732110859868e-01 5.3338663946459697e-01 -1.1206671012307483e+00 -7.5855011387081195e-01 -2.3454687557737247e-01 2.3996987342094429e+00 -2.7201005529647304e+00 -2.0357651431854680e+00 2.3335042814162005e-01 1.5988168774531689e-02 -2.2129366472917988e-01 3.1639680186936925e+00 9.7251853853085851e-02 3.5438172000734625e+00 1.0585598215909293e-01 6.5477976663196780e-01 -1.8880903332432339e-01 -3.1425937312329483e-01 -1.2101770738190934e-01 -1.4616144785501886e-01 7.5433063156537555e-02 2.8316884358302624e-01 -1.0199096122762140e-01 2.5145773762770176e+00 -1.6105988023164949e-01 1.1130400344418298e+01 2.4285963892344043e-02 -3.2108763539481155e+00 
        </Neuron>
        <Neuron NSynapses="39">
          9.0148232819749130e-01 1.7231959035475322e+00 7.8557898648845825e-01 1.3408559390426364e+00 -9.5022275562868172e-02 2.8973222937745913e-01 -4.8862750422508311e-01 1.1135822930910224e+00 5.1246046424008240e-01 -1.1556799830402265e+00 2.3498584624774321e+00 1.5535870958141302e+00 2.7846331815844605e-01 2.0451769246770484e+00 1.6466934320792992e+00 1.8581139991358540e+00 -1.5164909569497222e+00 3.3317389252521518e-01 1.0676465426604014e+00 -2.4543042633111378e+00 -1.0805059178915875e+00 2.6493534976908278e-01 1.8660804466443881e-01 4.0761263114791231e-02 -2.8423483301401680e+00 9.6043766630140071e-01 -1.0257418261033564e+00 -2.1657023894783567e+00 -1.9855615384613952e+00 -8.8768779585907520e+00 1.6890983795545467e+00 3.9890948197544733e-02 1.2465439564750038e+00 6.1208582964091163e-01 5.9316257722944188e-01 2.8044264488307191e-01 1.9305378825692388e+00 6.2192717144919718e-01 -1.1818493179696530e+00 
        </Neuron>
        <Neuron NSynapses="39">
          -1.2262744933494816e+00 -1.4721329575741564e+00 1.2033561948864424e+00 -5.1853466221277633e-01 1.8620254753466647e+00 1.3894986324155356e+00 -7.1786272506488957e-01 2.6581786852439881e+00 4.8619853166323584e-02 2.0905364971854934e+00 1.2453434134436623e+00 1.2413341114962240e+00 -3.3610648145699396e-01 -4.2625183359943186e-01 -1.7316926855150612e+00 5.7240912412351852e+00 2.8031354360556358e+00 3.5701179629590146e-01 2.3728316636189679e+00 -1.3445016397799938e+00 1.1074804468607973e+00 -6.6232319292785125e-01 -8.3550866718999195e-01 -1.2373484361060245e+00 1.3758838480235320e+00 8.0273032082237372e-01 1.1217538457468290e+00 -4.1837198750497970e+00 1.9131317232884877e+00 -3.7420240241373637e-01 1.1489005229705007e+00 1.4527356893064916e+00 -2.7423895043389829e-01 -1.4973914638275163e+00 -5.2968391711972174e-01 1.3800669523929374e+00 1.1716115499823569e+01 -1.0623571336241362e+00 -1.6646764806662135e+00 
        </Neuron>
        <Neuron NSynapses="39">
          -1.5663642903225150e+00 1.0368669017560752e+00 -3.5711742282362813e-01 -5.8646180577951301e-01 2.2025525530577643e+00 -1.5939721298119280e+00 -4.7085313111975530e-01 5.2983882121634709e+00 1.3412128896148436e+00 -1.6885147527857951e+00 -3.4988104863822556e-01 -6.0355458009119778e-01 -5.3041934618803899e-01 -3.0138929500738387e-02 -2.6397025581588758e+00 3.5668163391839052e+00 1.6475929241220473e+00 1.4831268302852949e-01 4.7780139825210144e+00 2.5236399047097674e-01 -1.1065101204317418e+00 1.0929332783184222e+00 -8.8419056848105271e-01 -6.0973570843580960e-01 -1.3243017146587330e+00 1.8755025699246626e+00 -2.3617897538396648e-01 -1.7925199448154561e+00 7.6628441650661094e-01 3.4465774643095646e+00 1.7259999601328668e+00 2.0883125101417557e-01 -6.0550172241814326e-01 3.3292857309289370e+00 3.3225268713435302e-01 2.2746591162655272e-01 7.3343966538611580e+00 -2.9459115899360074e-02 -3.8640785111644065e+00 
        </Neuron>
        <Neuron NSynapses="39">
          2.6234276984428480e+00 -2.0451259113328052e-01 -2.3599036459615802e-01 1.1084701606138039e+00 1.7103855307722624e+00 8.8693016398900204e-02 1.2971127995621863e+00 1.1999566079354309e+00 -1.2182188397052545e+00 -1.6211481068720879e-01 -6.4252123503312997e-01 -6.7788709699144856e-01 9.9184451580010691e-01 -1.8737742788711227e+00 -2.5134230919448175e+00 5.7013150575393032e+00 2.3646235739220591e+00 2.3871029467911176e+00 1.5568039418594330e+00 1.0526010487085380e+00 -1.2679636358030771e-01 1.3131550780822980e+00 -9.8029632363987179e-02 -7.3039598981873655e-01 -1.8870445337847033e+00 -2.5345939963122373e+00 -8.4463503753838154e-01 -4.4206133449639662e+00 -1.1916501780248949e-01 -2.9077242395660856e+00 -1.0495821348974119e+00 -1.6496980665321577e+00 7.1619239870663831e-01 -1.8075682369745034e+00 -9.5143667839501145e-01 -1.3890752769869237e+00 9.2537145227936151e+00 8.8249580985685405e-01 -4.5999147283054187e+00 
        </Neuron>
        <Neuron NSynapses="39">
          -6.6241858045556978e-01 8.3959665694264318e-01 1.3229600332646205e+00 -1.0694563492897151e+00 -1.3215139671492642e+00 2.3165261227451102e+00 -3.7741065443055649e-01 -7.3202269574591672e-01 -7.3878486926990117e-01 -2.3617928363963889e-01 -2.1402140897695641e+00 -5.0188836257681368e-01 -9.3506164290708638e-01 -7.6422197293463401e-01 9.3723207097983985e-01 -1.7803816627710840e+00 6.3445931504409803e-01 1.0007186143073576e+00 4.1122621393167430e-01 -4.2585502770355615e-01 -3.5634386067198887e-01 3.4870826192118348e-01 8.1357763289421714e-01 2.1543630586530931e+00 7.1149954744429988e-01 -9.7876400947099929e-01 1.6763593484921415e+00 4.0623621731810944e-01 1.1531629756110551e+00 -2.2049276873864021e+00 1.1046278527861564e+00 -7.9762525530229400e-01 8.0906885855923572e-01 3.8894088714600944e-01 6.6349646662774153e-01 -1.1096950052749043e-01 -1.3896954582919219e+00 5.2687171618928819e-01 -4.3027219151410332e+00 
        </Neuron>
        <Neuron NSynapses="39">
          -7.9905651621510154e-01 -9.5042391344667174e-02 -1.1434784101614690e+00 1.0406905891904348e+00 1.1746908642292166e+00 -1.5027029368907268e+00 -5.9927265381256345e-01 6.2665353625072098e-02 1.9168900557916072e-01 -1.1594835149098603e+00 1.2111769174628075e+00 2.2726759372411767e+00 7.4658450783719049e-03 2.0581335499786433e+00 -9.0651829503213599e-01 -3.9834646351019343e-01 -6.8782333306935151e-01 -4.7117086601644168e-02 1.1100146568951133e-01 1.5393640204425059e+00 -8.8145697997851147e-01 2.5997790795768494e-01 -1.6526614401936424e-01 -1.4870414247759396e+00 9.2391063868018697e-01 -3.5754536200797084e-02 1.7156951889164076e+00 -1.3121208169535745e-01 -4.0214398374784022e-01 -1.5830541994940246e+00 -5.2584094625375788e-01 -3.9662327111454626e-01 -1.0481907099983834e+00 -2.1378211065660127e+00 7.6909964592219793e-01 -2.1366340040701979e+00 -8.5554893026755474e-01 1.6358700807894632e-03 -4.2147940257873930e+00 
        </Neuron>
        <Neuron NSynapses="39">
          1.5247672274779134e+00 -6.3134222171351700e-02 -4.5485449093061819e-01 2.1076282589004201e-02 1.9379196690784244e+00 -7.1913526087623436e-01 8.7560641174329357e-01 1.9326745201585604e+00 6.1129895195013872e-01 7.1027676415199259e-01 8.5195742091267479e-01 -1.3854286094954056e+00 5.6084652470825780e-01 1.7789234492415398e-02 1.4791824286595190e-01 2.0467850000559462e+00 -8.5797190435874526e-01 -1.3634036639394047e+00 1.4436055983038423e+00 -1.1126847974393237e+00 1.1042367458546234e+00 3.1097879900763370e-01 1.2545029505652487e+00 1.8386132516445415e+00 -8.7094526190371502e-01 3.1265664580768210e-01 -3.3057107819582585e+00 -1.9305720347986280e-01 -1.1357798448177217e+00 3.7819705208365435e+00 -4.9571215620129983e-01 2.4684678723755016e+00 5.3028223286589138e-01 1.9103070346063122e+00 -1.9264015063900806e+00 1.6804511443082624e+00 2.3589716439624202e+00 -6.1209504300257689e-01 -1.8104062855090737e+00 
        </Neuron>
        <Neuron NSynapses="39">
          -9.1302413585203166e-03 -2.6988049747234405e-01 1.0743138539458391e-01 2.2315342375324232e-01 -1.4375822569760313e+00 2.1485358033526025e-01 -9.1315637132807867e-02 4.0824238591479289e-01 -4.8794094924125543e-02 -1.7223968284330957e-01 -2.3720610536848069e-01 2.0772939584151348e-01 7.0088921821241587e-02 -7.5580027630554672e-02 4.9168801840291196e-02 1.8877736073539017e-01 -2.4472701562349516e-01 -8.8438868515481273e-01 1.8680734582906122e+00 -1.5824763289525412e-01 -1.2985109013449341e-03 -9.8467959168710850e-01 -8.6655775907806609e-01 -3.1001469723129220e-02 2.9351997018131715e-01 2.5631479012980951e-01 -5.9514499516534002e-02 -2.7629103697673058e-01 -1.7521139891034345e+00 6.6429030522268742e-03 -1.6590101124254133e+00 2.5241542628347469e-01 -9.7677494761336275e-02 7.5092433409563467e-02 9.3115071635978597e-02 -3.6330871576905122e-02 1.0569828866452019e+01 8.0509280846822032e-02 -2.3893295142425046e+00 
        </Neuron>
        <Neuron NSynapses="39">
          -5.3131325827546751e+00 1.5919811948191376e+00 1.3233180203058974e+00 -1.0326080317314474e+00 -1.2051458152136542e-01 -1.1532850969326073e+01 -1.9971361771386553e+00 2.5991478156993111e+00 9.0308590531503938e+00 -7.2723167269108036e-01 2.0740462370225923e+00 2.1449545436239816e+00 1.6803225520913883e+00 -3.0552513115085906e+00 6.9184862569697869e-01 -3.8550812621700337e-01 -1.3829906941449908e+00 -3.2612101725656846e+00 -6.1385739916625481e-01 7.0124505867884612e-01 -1.3563393712066698e+00 -4.0015840062388826e+00 -1.7838047483482911e+00 1.3333032995235122e-01 9.2246081050785342e-02 6.7672457211922699e-01 -2.2500688222709730e+01 1.5100983286344396e+00 -1.2924812827841476e+00 9.8494513624861977e+00 1.0515153855292481e+00 7.2941844958763102e-01 9.6433915731272302e-01 6.5256965963150348e-01 -6.9986812486918970e-01 -1.2275598375106396e+00 8.6014352338768170e+00 1.2221278721617342e+01 -2.7874893799827469e+00 
        </Neuron>
      </Layer>
      <Layer Index="1" NNeurons="40">
        <Neuron NSynapses="1">
          9.9756769690332925e-01 
        </Neuron>
        <Neuron NSynapses="1">
          -3.6144371771436434e-01 
        </Neuron>
        <Neuron NSynapses="1">
          -1.0029334987177445e+00 
        </Neuron>
        <Neuron NSynapses="1">
          5.5320792507418504e-01 
        </Neuron>
        <Neuron NSynapses="1">
          5.8488805576594072e-01 
        </Neuron>
        <Neuron NSynapses="1">
          8.1418226358688961e-01 
        </Neuron>
        <Neuron NSynapses="1">
          -1.3134304867210527e+00 
        </Neuron>
        <Neuron NSynapses="1">
          -3.3880632817161471e-01 
        </Neuron>
        <Neuron NSynapses="1">
          -5.2664877892506168e-01 
        </Neuron>
        <Neuron NSynapses="1">
          3.7829731874703785e+00 
        </Neuron>
        <Neuron NSynapses="1">
          -2.4124589720093725e+00 
        </Neuron>
        <Neuron NSynapses="1">
          2.5989651558170945e-01 
        </Neuron>
        <Neuron NSynapses="1">
          4.9575077549202928e-01 
        </Neuron>
        <Neuron NSynapses="1">
          5.6424085799822765e-01 
        </Neuron>
        <Neuron NSynapses="1">
          -7.7848044815464423e-01 
        </Neuron>
        <Neuron NSynapses="1">
          1.5979761563217818e+00 
        </Neuron>
        <Neuron NSynapses="1">
          3.3946892099406822e-01 
        </Neuron>
        <Neuron NSynapses="1">
          4.6195193633635467e-01 
        </Neuron>
        <Neuron NSynapses="1">
          -4.1987945270652599e-01 
        </Neuron>
        <Neuron NSynapses="1">
          -3.9089070076342947e-01 
        </Neuron>
        <Neuron NSynapses="1">
          -1.5031157769595110e-01 
        </Neuron>
        <Neuron NSynapses="1">
          -9.7275197649298173e-01 
        </Neuron>
        <Neuron NSynapses="1">
          1.6204287638444346e+00 
        </Neuron>
        <Neuron NSynapses="1">
          -2.0366038503449191e-01 
        </Neuron>
        <Neuron NSynapses="1">
          4.9038429990594445e-01 
        </Neuron>
        <Neuron NSynapses="1">
          -3.9697194454651108e-01 
        </Neuron>
        <Neuron NSynapses="1">
          1.0534108954826393e+00 
        </Neuron>
        <Neuron NSynapses="1">
          1.8320942417125710e+00 
        </Neuron>
        <Neuron NSynapses="1">
          8.3021451474608632e-01 
        </Neuron>
        <Neuron NSynapses="1">
          -7.0303365361897530e-01 
        </Neuron>
        <Neuron NSynapses="1">
          -3.3570462539310808e-01 
        </Neuron>
        <Neuron NSynapses="1">
          -2.5948282639779796e-01 
        </Neuron>
        <Neuron NSynapses="1">
          -4.2918518395840533e-01 
        </Neuron>
        <Neuron NSynapses="1">
          -6.7933219588955818e-01 
        </Neuron>
        <Neuron NSynapses="1">
          4.4831880926221801e-01 
        </Neuron>
        <Neuron NSynapses="1">
          -5.0820802264388842e-01 
        </Neuron>
        <Neuron NSynapses="1">
          -1.5901955549724891e+00 
        </Neuron>
        <Neuron NSynapses="1">
          -1.2468134714690857e+00 
        </Neuron>
        <Neuron NSynapses="1">
          -6.8128521611547255e-01 
        </Neuron>
        <Neuron NSynapses="1">
          -2.1105561647887416e+00 
        </Neuron>
      </Layer>
      <Layer Index="2" NNeurons="1">
        <Neuron NSynapses="0"/>
      </Layer>
    </Layout>
  </Weights>
</MethodSetup>
