<?xml version="1.0"?>
<MethodSetup Method="MLP::MLPBNN">
  <GeneralInfo>
    <Info name="TMVA Release" value="4.1.3 [262403]"/>
    <Info name="ROOT Release" value="5.30/04 [335364]"/>
    <Info name="Creator" value="kreplin"/>
    <Info name="Date" value="Tue Jun 25 17:55:35 2013"/>
    <Info name="Host" value="Linux lxbuild148.cern.ch 2.6.18-194.26.1.el5 #1 SMP Wed Nov 10 09:45:46 CET 2010 x86_64 x86_64 x86_64 GNU/Linux"/>
    <Info name="Dir" value="/auto/sigma0/work2/kreplin/TMVA-v4.1.2/test"/>
    <Info name="Training events" value="90000"/>
    <Info name="TrainingTime" value="8.24291408e+03"/>
    <Info name="AnalysisType" value="Classification"/>
  </GeneralInfo>
  <Options>
    <Option name="NCycles" modified="Yes">600</Option>
    <Option name="HiddenLayers" modified="Yes">N+7</Option>
    <Option name="NeuronType" modified="Yes">sigmoid</Option>
    <Option name="RandomSeed" modified="No">1</Option>
    <Option name="EstimatorType" modified="Yes">CE</Option>
    <Option name="NeuronInputType" modified="No">sum</Option>
    <Option name="V" modified="Yes">True</Option>
    <Option name="VerbosityLevel" modified="No">Verbose</Option>
    <Option name="VarTransform" modified="Yes">N,D</Option>
    <Option name="H" modified="Yes">True</Option>
    <Option name="CreateMVAPdfs" modified="Yes">True</Option>
    <Option name="IgnoreNegWeightsInTraining" modified="No">False</Option>
    <Option name="TrainingMethod" modified="Yes">BFGS</Option>
    <Option name="LearningRate" modified="No">2.000000e-02</Option>
    <Option name="DecayRate" modified="No">1.000000e-02</Option>
    <Option name="TestRate" modified="Yes">5</Option>
    <Option name="EpochMonitoring" modified="No">False</Option>
    <Option name="Sampling" modified="No">1.000000e+00</Option>
    <Option name="SamplingEpoch" modified="No">1.000000e+00</Option>
    <Option name="SamplingImportance" modified="No">1.000000e+00</Option>
    <Option name="SamplingTraining" modified="No">True</Option>
    <Option name="SamplingTesting" modified="No">False</Option>
    <Option name="ResetStep" modified="No">50</Option>
    <Option name="Tau" modified="No">3.000000e+00</Option>
    <Option name="BPMode" modified="No">sequential</Option>
    <Option name="BatchSize" modified="No">-1</Option>
    <Option name="ConvergenceImprove" modified="No">1.000000e-30</Option>
    <Option name="ConvergenceTests" modified="No">-1</Option>
    <Option name="UseRegulator" modified="Yes">True</Option>
    <Option name="UpdateLimit" modified="No">10000</Option>
    <Option name="CalculateErrors" modified="Yes">True</Option>
    <Option name="WeightRange" modified="No">1.000000e+00</Option>
  </Options>
  <Variables NVar="9">
    <Variable VarIndex="0" Expression="sign_tag[0]*rnet_opp[0]" Label="sign_tag[0]*rnet_opp[0]" Title="sign_tag[0]*rnet_opp[0]" Unit="units" Internal="sign_tag_0__T_rnet_opp_0_" Type="F" Min="-9.98615324e-01" Max="9.99295771e-01"/>
    <Variable VarIndex="1" Expression="sign_tag[1]*rnet_opp[1]" Label="sign_tag[1]*rnet_opp[1]" Title="sign_tag[1]*rnet_opp[1]" Unit="units" Internal="sign_tag_1__T_rnet_opp_1_" Type="F" Min="-9.96070385e-01" Max="9.95943487e-01"/>
    <Variable VarIndex="2" Expression="sign_tag[2]*rnet_opp[2]" Label="sign_tag[2]*rnet_opp[2]" Title="sign_tag[2]*rnet_opp[2]" Unit="units" Internal="sign_tag_2__T_rnet_opp_2_" Type="F" Min="-9.84590173e-01" Max="9.91771996e-01"/>
    <Variable VarIndex="3" Expression="sign_tag[0]*k_pidNNk[0]" Label="sign_tag[0]*k_pidNNk[0]" Title="sign_tag[0]*k_pidNNk[0]" Unit="units" Internal="sign_tag_0__T_k_pidNNk_0_" Type="F" Min="-9.99964893e-01" Max="9.99217331e-01"/>
    <Variable VarIndex="4" Expression="sign_tag[1]*k_pidNNk[1]" Label="sign_tag[1]*k_pidNNk[1]" Title="sign_tag[1]*k_pidNNk[1]" Unit="units" Internal="sign_tag_1__T_k_pidNNk_1_" Type="F" Min="-9.99220014e-01" Max="9.99190271e-01"/>
    <Variable VarIndex="5" Expression="sign_tag[2]*k_pidNNk[2]" Label="sign_tag[2]*k_pidNNk[2]" Title="sign_tag[2]*k_pidNNk[2]" Unit="units" Internal="sign_tag_2__T_k_pidNNk_2_" Type="F" Min="-9.98193264e-01" Max="9.98832583e-01"/>
    <Variable VarIndex="6" Expression="B_pt" Label="B_pt" Title="B_pt" Unit="units" Internal="B_pt" Type="F" Min="9.68620110e+00" Max="6.10532695e+04"/>
    <Variable VarIndex="7" Expression="no_vtx" Label="no_vtx" Title="no_vtx" Unit="units" Internal="no_vtx" Type="I" Min="1.00000000e+00" Max="8.00000000e+00"/>
    <Variable VarIndex="8" Expression="cands" Label="cands" Title="cands" Unit="units" Internal="cands" Type="I" Min="1.00000000e+00" Max="1.10000000e+01"/>
  </Variables>
  <Spectators NSpec="0"/>
  <Classes NClass="2">
    <Class Name="Signal" Index="0"/>
    <Class Name="Background" Index="1"/>
  </Classes>
  <Transformations NTransformations="2">
    <Transform Name="Normalize">
      <Selection>
        <Input NInputs="9">
          <Input Type="Variable" Label="sign_tag[0]*rnet_opp[0]" Expression="sign_tag[0]*rnet_opp[0]"/>
          <Input Type="Variable" Label="sign_tag[1]*rnet_opp[1]" Expression="sign_tag[1]*rnet_opp[1]"/>
          <Input Type="Variable" Label="sign_tag[2]*rnet_opp[2]" Expression="sign_tag[2]*rnet_opp[2]"/>
          <Input Type="Variable" Label="sign_tag[0]*k_pidNNk[0]" Expression="sign_tag[0]*k_pidNNk[0]"/>
          <Input Type="Variable" Label="sign_tag[1]*k_pidNNk[1]" Expression="sign_tag[1]*k_pidNNk[1]"/>
          <Input Type="Variable" Label="sign_tag[2]*k_pidNNk[2]" Expression="sign_tag[2]*k_pidNNk[2]"/>
          <Input Type="Variable" Label="B_pt" Expression="B_pt"/>
          <Input Type="Variable" Label="no_vtx" Expression="no_vtx"/>
          <Input Type="Variable" Label="cands" Expression="cands"/>
        </Input>
        <Output NOutputs="9">
          <Output Type="Variable" Label="sign_tag[0]*rnet_opp[0]" Expression="sign_tag[0]*rnet_opp[0]"/>
          <Output Type="Variable" Label="sign_tag[1]*rnet_opp[1]" Expression="sign_tag[1]*rnet_opp[1]"/>
          <Output Type="Variable" Label="sign_tag[2]*rnet_opp[2]" Expression="sign_tag[2]*rnet_opp[2]"/>
          <Output Type="Variable" Label="sign_tag[0]*k_pidNNk[0]" Expression="sign_tag[0]*k_pidNNk[0]"/>
          <Output Type="Variable" Label="sign_tag[1]*k_pidNNk[1]" Expression="sign_tag[1]*k_pidNNk[1]"/>
          <Output Type="Variable" Label="sign_tag[2]*k_pidNNk[2]" Expression="sign_tag[2]*k_pidNNk[2]"/>
          <Output Type="Variable" Label="B_pt" Expression="B_pt"/>
          <Output Type="Variable" Label="no_vtx" Expression="no_vtx"/>
          <Output Type="Variable" Label="cands" Expression="cands"/>
        </Output>
      </Selection>
      <Class ClassIndex="0">
        <Ranges>
          <Range Index="0" Min="-9.9861532449722290e-01" Max="9.9823701381683350e-01"/>
          <Range Index="1" Min="-9.9607038497924805e-01" Max="9.9594348669052124e-01"/>
          <Range Index="2" Min="-9.8450559377670288e-01" Max="9.9177199602127075e-01"/>
          <Range Index="3" Min="-9.9996489286422729e-01" Max="9.9893194437026978e-01"/>
          <Range Index="4" Min="-9.9922001361846924e-01" Max="9.9919027090072632e-01"/>
          <Range Index="5" Min="-9.9808919429779053e-01" Max="9.9832266569137573e-01"/>
          <Range Index="6" Min="2.7898468017578125e+01" Max="6.1053269531250000e+04"/>
          <Range Index="7" Min="1.0000000000000000e+00" Max="8.0000000000000000e+00"/>
          <Range Index="8" Min="1.0000000000000000e+00" Max="1.0000000000000000e+01"/>
        </Ranges>
      </Class>
      <Class ClassIndex="1">
        <Ranges>
          <Range Index="0" Min="-9.9815773963928223e-01" Max="9.9929577112197876e-01"/>
          <Range Index="1" Min="-9.9493944644927979e-01" Max="9.9394893646240234e-01"/>
          <Range Index="2" Min="-9.8459017276763916e-01" Max="9.8469907045364380e-01"/>
          <Range Index="3" Min="-9.9907135963439941e-01" Max="9.9921733140945435e-01"/>
          <Range Index="4" Min="-9.9857020378112793e-01" Max="9.9866276979446411e-01"/>
          <Range Index="5" Min="-9.9819326400756836e-01" Max="9.9883258342742920e-01"/>
          <Range Index="6" Min="9.6862010955810547e+00" Max="5.2270511718750000e+04"/>
          <Range Index="7" Min="1.0000000000000000e+00" Max="8.0000000000000000e+00"/>
          <Range Index="8" Min="1.0000000000000000e+00" Max="1.1000000000000000e+01"/>
        </Ranges>
      </Class>
      <Class ClassIndex="2">
        <Ranges>
          <Range Index="0" Min="-9.9861532449722290e-01" Max="9.9929577112197876e-01"/>
          <Range Index="1" Min="-9.9607038497924805e-01" Max="9.9594348669052124e-01"/>
          <Range Index="2" Min="-9.8459017276763916e-01" Max="9.9177199602127075e-01"/>
          <Range Index="3" Min="-9.9996489286422729e-01" Max="9.9921733140945435e-01"/>
          <Range Index="4" Min="-9.9922001361846924e-01" Max="9.9919027090072632e-01"/>
          <Range Index="5" Min="-9.9819326400756836e-01" Max="9.9883258342742920e-01"/>
          <Range Index="6" Min="9.6862010955810547e+00" Max="6.1053269531250000e+04"/>
          <Range Index="7" Min="1.0000000000000000e+00" Max="8.0000000000000000e+00"/>
          <Range Index="8" Min="1.0000000000000000e+00" Max="1.1000000000000000e+01"/>
        </Ranges>
      </Class>
    </Transform>
    <Transform Name="Decorrelation">
      <Selection>
        <Input NInputs="9">
          <Input Type="Variable" Label="sign_tag[0]*rnet_opp[0]" Expression="sign_tag[0]*rnet_opp[0]"/>
          <Input Type="Variable" Label="sign_tag[1]*rnet_opp[1]" Expression="sign_tag[1]*rnet_opp[1]"/>
          <Input Type="Variable" Label="sign_tag[2]*rnet_opp[2]" Expression="sign_tag[2]*rnet_opp[2]"/>
          <Input Type="Variable" Label="sign_tag[0]*k_pidNNk[0]" Expression="sign_tag[0]*k_pidNNk[0]"/>
          <Input Type="Variable" Label="sign_tag[1]*k_pidNNk[1]" Expression="sign_tag[1]*k_pidNNk[1]"/>
          <Input Type="Variable" Label="sign_tag[2]*k_pidNNk[2]" Expression="sign_tag[2]*k_pidNNk[2]"/>
          <Input Type="Variable" Label="B_pt" Expression="B_pt"/>
          <Input Type="Variable" Label="no_vtx" Expression="no_vtx"/>
          <Input Type="Variable" Label="cands" Expression="cands"/>
        </Input>
        <Output NOutputs="9">
          <Output Type="Variable" Label="sign_tag[0]*rnet_opp[0]" Expression="sign_tag[0]*rnet_opp[0]"/>
          <Output Type="Variable" Label="sign_tag[1]*rnet_opp[1]" Expression="sign_tag[1]*rnet_opp[1]"/>
          <Output Type="Variable" Label="sign_tag[2]*rnet_opp[2]" Expression="sign_tag[2]*rnet_opp[2]"/>
          <Output Type="Variable" Label="sign_tag[0]*k_pidNNk[0]" Expression="sign_tag[0]*k_pidNNk[0]"/>
          <Output Type="Variable" Label="sign_tag[1]*k_pidNNk[1]" Expression="sign_tag[1]*k_pidNNk[1]"/>
          <Output Type="Variable" Label="sign_tag[2]*k_pidNNk[2]" Expression="sign_tag[2]*k_pidNNk[2]"/>
          <Output Type="Variable" Label="B_pt" Expression="B_pt"/>
          <Output Type="Variable" Label="no_vtx" Expression="no_vtx"/>
          <Output Type="Variable" Label="cands" Expression="cands"/>
        </Output>
      </Selection>
      <Matrix Rows="9" Columns="9">
        2.182786425331652e+00 3.289476551468918e-02 2.485532219440771e-03 -1.225709576664366e+00 1.324879833331663e-03 -4.546926398938393e-04 -1.059817890250959e-02 6.146184764662600e-03 1.853361266258561e-02 3.289476551468917e-02 3.419335570466663e+00 3.588005007953338e-02 6.684823321059206e-03 -1.584807915068014e+00 8.450285939057863e-03 2.561447258819415e-03 -1.589059252353609e-02 3.174023410549815e-02 2.485532219440767e-03 3.588005007953339e-02 5.883224928006600e+00 4.765142333094623e-03 1.262209987443734e-02 -2.485907897609663e+00 -2.512497844474462e-02 -1.220768524136567e-03 9.495501954631166e-03 -1.225709576664366e+00 6.684823321059181e-03 4.765142333094613e-03 2.606861329178931e+00 3.738073668673299e-02 1.896924008682913e-02 2.755075280966353e-02 -1.756020513046928e-02 8.633163456600264e-03 1.324879833331706e-03 -1.584807915068014e+00 1.262209987443735e-02 3.738073668673294e-02 3.167587818060696e+00 5.220422565165708e-02 4.468746697519926e-04 1.346326260099491e-02 -5.692500490835709e-04 -4.546926398938378e-04 8.450285939057814e-03 -2.485907897609663e+00 1.896924008682911e-02 5.220422565165716e-02 4.541657079355682e+00 2.523354689152763e-02 1.342326036119201e-02 -3.361956351598307e-03 -1.059817890250959e-02 2.561447258819413e-03 -2.512497844474463e-02 2.755075280966353e-02 4.468746697519946e-04 2.523354689152763e-02 7.117155553974134e+00 -3.182016678259246e-02 -1.435192056515242e-01 6.146184764662598e-03 -1.589059252353613e-02 -1.220768524136570e-03 -1.756020513046928e-02 1.346326260099493e-02 1.342326036119201e-02 -3.182016678259246e-02 3.624718210307811e+00 1.257360699607324e-01 1.853361266258558e-02 3.174023410549817e-02 9.495501954631162e-03 8.633163456600278e-03 -5.692500490835999e-04 -3.361956351598305e-03 -1.435192056515242e-01 1.257360699607324e-01 4.401609965306935e+00 
      </Matrix>
      <Matrix Rows="9" Columns="9">
        2.173058864848900e+00 4.179825354940890e-02 3.251374931008606e-02 -1.223783762850761e+00 -8.129641339474535e-03 -1.040686491009167e-02 -9.138824141735429e-03 -1.302080648652704e-02 -1.821296853927006e-02 4.179825354940891e-02 3.467735177642992e+00 6.689985613079417e-02 7.586251195576248e-03 -1.609682318523839e+00 -1.066052822602927e-02 -3.854058320558189e-02 4.900742514179417e-03 -5.435707720530807e-02 3.251374931008605e-02 6.689985613079419e-02 5.967855596517928e+00 -1.050225222904860e-02 -3.727677581913860e-02 -2.534599414962702e+00 -2.956739380673143e-02 -8.801971645148426e-04 -2.963779222076888e-02 -1.223783762850761e+00 7.586251195576246e-03 -1.050225222904862e-02 2.624251464669201e+00 3.813426252246454e-02 3.360194254972399e-02 -3.390976263212853e-03 3.575088652312248e-02 -1.549325187318968e-02 -8.129641339474518e-03 -1.609682318523838e+00 -3.727677581913859e-02 3.813426252246454e-02 3.173347197959361e+00 6.258105090720915e-02 1.366743539090205e-02 1.370040972707907e-02 -2.180263119025212e-02 -1.040686491009166e-02 -1.066052822602927e-02 -2.534599414962702e+00 3.360194254972398e-02 6.258105090720915e-02 4.513300599145973e+00 9.188669797396770e-03 1.118775290548721e-02 -8.926555355222680e-02 -9.138824141735429e-03 -3.854058320558189e-02 -2.956739380673147e-02 -3.390976263212850e-03 1.366743539090205e-02 9.188669797396794e-03 6.990292979962868e+00 -6.709022049210374e-02 -1.753343512082285e-01 -1.302080648652710e-02 4.900742514179431e-03 -8.801971645148302e-04 3.575088652312261e-02 1.370040972707908e-02 1.118775290548720e-02 -6.709022049210374e-02 3.623395312207963e+00 1.200696930305861e-01 -1.821296853927006e-02 -5.435707720530808e-02 -2.963779222076886e-02 -1.549325187318967e-02 -2.180263119025213e-02 -8.926555355222680e-02 -1.753343512082286e-01 1.200696930305861e-01 4.348903747701072e+00 
      </Matrix>
      <Matrix Rows="9" Columns="9">
        2.172839244940050e+00 3.454863787600214e-02 1.614784325989433e-02 -1.227905745336683e+00 -4.899293445428764e-03 -6.747923683033374e-03 -1.065974711137809e-02 -3.670692822791773e-03 3.481783717723302e-05 3.454863787600215e-02 3.440924038306926e+00 5.002920836148776e-02 5.145746397103093e-03 -1.597799063864083e+00 -2.190618456148193e-03 -1.838800239455907e-02 -5.978935107341083e-03 -1.081345956826236e-02 1.614784325989434e-02 5.002920836148785e-02 5.923880001245243e+00 -3.577683364233411e-03 -1.225697866873644e-02 -2.510248310049237e+00 -2.743296581272159e-02 -1.112723984480953e-03 -9.737071622389218e-03 -1.227905745336683e+00 5.145746397103102e-03 -3.577683364233389e-03 2.612825290495242e+00 3.671620831056469e-02 2.525877518058377e-02 1.191860000920861e-02 8.588227912615608e-03 -3.179138768520603e-03 -4.899293445428799e-03 -1.597799063864083e+00 -1.225697866873636e-02 3.671620831056473e-02 3.169633892510334e+00 5.659480845486282e-02 6.643128886421854e-03 1.361657712893099e-02 -1.202599852884023e-02 -6.747923683033393e-03 -2.190618456148275e-03 -2.510248310049237e+00 2.525877518058379e-02 5.659480845486287e-02 4.525939704126326e+00 1.650527477803380e-02 1.204920928384592e-02 -4.752884747359771e-02 -1.065974711137809e-02 -1.838800239455907e-02 -2.743296581272158e-02 1.191860000920861e-02 6.643128886421859e-03 1.650527477803379e-02 7.051987013621465e+00 -4.919692192318247e-02 -1.611451629547846e-01 -3.670692822791827e-03 -5.978935107341083e-03 -1.112723984480945e-03 8.588227912615640e-03 1.361657712893099e-02 1.204920928384593e-02 -4.919692192318249e-02 3.623415338482977e+00 1.235632143368212e-01 3.481783717722655e-05 -1.081345956826236e-02 -9.737071622389203e-03 -3.179138768520592e-03 -1.202599852884023e-02 -4.752884747359773e-02 -1.611451629547846e-01 1.235632143368212e-01 4.370635193802091e+00 
      </Matrix>
    </Transform>
  </Transformations>
  <MVAPdfs>
    <PDF Name="MLPBNN_PDFSig" MinNSmooth="10" MaxNSmooth="10" InterpolMethod="2" KDE_type="1" KDE_iter="1" KDE_border="1" KDE_finefactor="1.0000000000000000e+00">
      <Histogram Name="MLP_tr_S_original" NBins="100" XMin="1.3414329290390015e-01" XMax="8.0445045232772827e-01" HasEquidistantBins="1">
        0.00000000e+00 0.00000000e+00 3.96666437e-03 0.00000000e+00 0.00000000e+00 0.00000000e+00 7.51803631e-05 0.00000000e+00 4.38850648e-03 0.00000000e+00 0.00000000e+00 7.31252276e-03 3.87783603e-03 9.66124246e-03 7.33279721e-03 0.00000000e+00 4.38366083e-03 4.29904643e-03 1.22101062e-02 2.50099157e-02 2.69235930e-02 3.72346983e-02 5.09715298e-02 8.40135264e-02 8.60487134e-02 7.47495989e-02 9.84602692e-02 8.36171984e-02 1.64266493e-01 2.54787621e-01 1.99974425e-01 3.56777562e-01 4.16203827e-01 4.67651495e-01 6.81083205e-01 6.55227621e-01 8.57032699e-01 9.94761595e-01 1.17519228e+00 1.19484529e+00 1.52649867e+00 1.59135735e+00 1.69217844e+00 1.78708399e+00 2.01894459e+00 2.39270294e+00 2.69385536e+00 3.24864223e+00 3.64752205e+00 4.91021383e+00 6.16116311e+00 6.61962169e+00 7.66365368e+00 6.59049827e+00 4.35393850e+00 4.95529708e+00 7.73144373e+00 9.48627734e+00 8.82151557e+00 6.57138219e+00 5.63696844e+00 5.33699063e+00 5.00311913e+00 4.22767827e+00 3.82793655e+00 3.12012015e+00 2.62357387e+00 2.14337438e+00 1.90160036e+00 1.72422139e+00 1.51332920e+00 1.25028606e+00 1.09910633e+00 9.88627208e-01 8.56043315e-01 8.54799977e-01 6.34143568e-01 6.26842591e-01 4.79199035e-01 4.71288538e-01 4.48288954e-01 3.14577673e-01 2.14834663e-01 2.66835442e-01 2.14238100e-01 1.44063312e-01 1.67596346e-01 1.61558706e-01 9.27296756e-02 1.04690151e-01 5.16431744e-02 4.12743155e-02 3.69078927e-02 2.34979700e-02 3.95236993e-02 1.31547944e-02 1.20709346e-02 3.86838544e-03 4.29801128e-03 4.30524140e-03 
      </Histogram>
    </PDF>
    <PDF Name="MLPBNN_PDFBkg" MinNSmooth="10" MaxNSmooth="10" InterpolMethod="2" KDE_type="1" KDE_iter="1" KDE_border="1" KDE_finefactor="1.0000000000000000e+00">
      <Histogram Name="MLP_tr_B_original" NBins="100" XMin="1.3414329290390015e-01" XMax="8.0445045232772827e-01" HasEquidistantBins="1">
        4.43277712e-03 0.00000000e+00 2.96246527e-03 0.00000000e+00 0.00000000e+00 0.00000000e+00 4.44778590e-03 0.00000000e+00 4.43445161e-03 1.91249444e-02 1.11220540e-02 1.24734683e-02 2.10896944e-02 1.88418689e-02 1.30302661e-02 2.31295059e-02 2.69555018e-02 2.23286737e-02 6.23484977e-02 5.23157467e-02 6.64609885e-02 8.26375097e-02 1.32817297e-01 1.55684959e-01 1.40628160e-01 2.30860905e-01 2.59395100e-01 3.04667523e-01 4.47069749e-01 3.93566379e-01 6.32016486e-01 8.37524834e-01 7.75341724e-01 9.47722046e-01 1.26661789e+00 1.26359493e+00 1.50672714e+00 1.55534591e+00 1.58499083e+00 1.74072918e+00 2.02205682e+00 2.17988228e+00 2.22135897e+00 2.35405047e+00 2.62669571e+00 3.10606696e+00 3.36087654e+00 3.52266015e+00 4.62476197e+00 5.44474137e+00 6.89203215e+00 8.01635228e+00 8.12141960e+00 6.59234722e+00 4.31915879e+00 4.99662149e+00 7.49142213e+00 8.54959613e+00 7.72619499e+00 5.93739693e+00 5.05858271e+00 4.49921925e+00 4.09602966e+00 3.50894473e+00 2.82932919e+00 2.35967644e+00 2.00208227e+00 1.50808540e+00 1.36131831e+00 1.16859072e+00 9.13816624e-01 7.39016428e-01 7.24971738e-01 5.30146717e-01 5.23275272e-01 3.91503543e-01 4.62202222e-01 2.81524003e-01 3.26558340e-01 1.77458662e-01 2.01684379e-01 1.61744574e-01 1.69344791e-01 8.09254505e-02 8.07584311e-02 6.19472018e-02 5.00179375e-02 5.30406120e-02 3.02637571e-02 2.36252457e-02 1.25825328e-02 2.33839751e-02 1.54850607e-02 1.74420808e-02 1.84495130e-03 4.05881613e-03 0.00000000e+00 3.51246456e-03 2.21310490e-03 0.00000000e+00 
      </Histogram>
    </PDF>
  </MVAPdfs>
  <Weights>
    <Layout NLayers="3">
      <Layer Index="0" NNeurons="10">
        <Neuron NSynapses="16">
          -7.4010155705895697e-01 3.0106232756069793e+00 8.1820641298977859e-01 2.4637584720975219e+00 -4.2648369985252916e+00 -9.6243010051023348e-01 -7.9469995507347369e-01 1.8796825661879548e+00 -1.0412042583062897e+00 -8.2668208672191390e-01 -1.7786873523298461e+00 -4.3281704865450638e-01 4.9720692408864654e-02 3.8816841703405691e-01 -5.4315119593077266e-01 4.8506908138575944e-01 
        </Neuron>
        <Neuron NSynapses="16">
          -3.1717853127320103e-02 1.9555498845913660e-01 8.6815998167511732e-02 -3.5329451704184545e-01 5.4551381280410642e-02 -8.7801618793096725e-02 1.5693479361734510e-02 -3.9825610872714886e-03 -4.7704830724595843e-01 -3.9048665016719014e-01 1.2808290696905624e+00 -3.9454839658100838e-01 -9.9942729671056241e-01 -6.1058793522666321e-01 4.9885075128495316e-03 3.1298396025422504e-01 
        </Neuron>
        <Neuron NSynapses="16">
          -7.8252298248386010e-01 1.2065525529989383e-01 1.2121147070413418e-01 -6.1201397929174384e-01 -1.6227732954331725e-01 3.4793020156863658e-01 -6.2403673158166459e-02 7.1782405017666695e-01 4.2844426412341480e-01 2.6892081032465726e-01 2.3060289441162785e-01 1.4741956639544023e-03 -1.1454943945954486e+00 -9.2224825800908261e-01 4.2252360609944761e-01 2.2730680015796967e-01 
        </Neuron>
        <Neuron NSynapses="16">
          5.3097595398388264e-01 2.0702989505432088e+00 1.1486521478520066e+00 1.8157698279472034e-01 -1.9139187694686222e+00 8.7677520379653651e-01 -1.5622845643078784e+00 -7.2155248038659225e-01 -7.7216537566060461e-01 -1.5842873332947964e+00 4.2085090021680444e-01 7.4275440166391782e-01 -3.8245509872595718e-01 6.4853695500711706e-01 -5.6367205678521515e-01 4.6533231814932974e-01 
        </Neuron>
        <Neuron NSynapses="16">
          8.5294769676150572e-01 -7.0939572961640954e-02 -2.0421790670142319e-02 -9.8899037217227559e-01 6.8792201328668520e-02 -3.6948481649234566e-01 -4.1106903034473929e-01 -3.6470042167392504e-02 6.1202836150234186e-01 5.1701123701270124e-01 3.3740084568569390e-01 5.0507720713041881e-01 -1.3528241612593908e+00 -1.0025491375787923e+00 6.9921925074143676e-01 5.2198432315674193e-01 
        </Neuron>
        <Neuron NSynapses="16">
          8.8444085888168500e-01 2.3278695925590006e-02 5.6142686289153310e-01 -8.2916433867027572e-01 4.6186739163925024e-02 -1.4980994198359507e-01 2.8474924446423783e-01 -3.2851930049232203e-01 -9.4300262046993233e-01 -1.1737518268598870e+00 -1.0915089023641180e-02 7.5749484922049193e-02 1.0114474157935855e+00 -6.7719287161505104e-01 -7.3253758771786734e-02 5.7542870666490775e-01 
        </Neuron>
        <Neuron NSynapses="16">
          -7.0782301749900944e-01 -2.9993550066535990e-01 -9.0323970448294355e-01 3.7200737251961202e-01 -5.4980145855813578e-01 -1.5304071643636659e+00 4.7545931846988371e-01 9.8447331132399063e-01 -1.1502235485220218e+00 1.6632747065786366e+00 -1.0239372511920566e+00 2.8054945068205855e-01 -4.5306297791720945e-01 7.8962399471210398e-01 -7.1385870353502967e-01 4.6946460518634318e-02 
        </Neuron>
        <Neuron NSynapses="16">
          -5.4356052283820522e-01 1.9474899009036525e-01 -6.1420244192633910e-01 8.2969286340284998e-01 -1.1060198472524005e-01 -7.0109723544987335e-01 2.0914290709640448e-01 -4.4374550711259803e-01 -7.9046224378238750e-01 3.6029104212231416e-01 -4.7581264301947218e-01 8.3405624161424541e-01 2.1291268058925941e-01 7.1110781836670134e-01 -2.6073961659047745e-01 -4.0983471504965685e-01 
        </Neuron>
        <Neuron NSynapses="16">
          -1.5535285442022839e+00 -6.9128149314221593e-02 4.0620148768540587e-02 -7.8651496058824732e-01 -2.1465519792163079e-01 -8.6589138431344126e-01 5.9922006470513767e-01 2.7135394584838404e-02 3.7068074258739830e-01 -7.4771725046835613e-01 1.9398634638220941e-01 1.3368426140233753e+00 1.0009052995055909e+00 6.8300416323017521e-01 -8.8596841986362362e-01 1.6644974258510054e-01 
        </Neuron>
        <Neuron NSynapses="16">
          -1.0756263480099317e+00 4.9155494324891258e+00 1.0551207063185717e+00 -1.2673150535120097e+00 3.1711351024293410e+00 3.3010802544858525e-01 -9.0534539205075570e-01 -3.2102998620423095e-01 1.6257507108075175e+00 -5.3891210224423336e-01 -3.7689501680337922e-01 1.0959269651752637e-01 9.7079909137233455e-01 1.6655893936546032e-01 6.3189372387632503e-01 -2.1670557661057401e+00 
        </Neuron>
      </Layer>
      <Layer Index="1" NNeurons="17">
        <Neuron NSynapses="1">
          -6.4566491107182200e-01 
        </Neuron>
        <Neuron NSynapses="1">
          -1.5573021961308160e+00 
        </Neuron>
        <Neuron NSynapses="1">
          1.4045490232144595e-01 
        </Neuron>
        <Neuron NSynapses="1">
          -2.9038495278844273e-01 
        </Neuron>
        <Neuron NSynapses="1">
          1.1357811450524760e+00 
        </Neuron>
        <Neuron NSynapses="1">
          -8.9101702233229843e-02 
        </Neuron>
        <Neuron NSynapses="1">
          -8.9137138789182047e-01 
        </Neuron>
        <Neuron NSynapses="1">
          5.9903622053855421e-01 
        </Neuron>
        <Neuron NSynapses="1">
          4.0114823265502714e-01 
        </Neuron>
        <Neuron NSynapses="1">
          -7.1113754224609971e-01 
        </Neuron>
        <Neuron NSynapses="1">
          -5.5046517752530855e-01 
        </Neuron>
        <Neuron NSynapses="1">
          -1.1890150417462022e+00 
        </Neuron>
        <Neuron NSynapses="1">
          1.8196277840298464e-01 
        </Neuron>
        <Neuron NSynapses="1">
          5.4518874538501216e-01 
        </Neuron>
        <Neuron NSynapses="1">
          5.7905150930143379e-01 
        </Neuron>
        <Neuron NSynapses="1">
          -5.9263237330653729e-01 
        </Neuron>
        <Neuron NSynapses="1">
          6.6529945081942343e-01 
        </Neuron>
      </Layer>
      <Layer Index="2" NNeurons="1">
        <Neuron NSynapses="0"/>
      </Layer>
    </Layout>
    <InverseHessian NElements="31329" NRows="177" NCols="177">
      <Row Index="0">
        6.9934457855698207e-01 -1.7127929312320440e-02 3.6161082707401376e-01 -1.2251424463858037e-02 3.9350489666928872e-03 -6.2413161620468782e-01 3.8995130973893913e-02 1.8673083908150090e-02 6.0903448872695609e-03 8.7680383975864279e-03 4.0558373509638895e-03 7.5166713115489090e-03 -4.7002049125684578e-04 6.3805656618502932e-02 -4.4272495216999871e-02 1.5751729915823576e-05 4.8833157182910834e-02 -1.0745773608961178e-03 -6.1951617845084739e-02 6.6900252409056588e-03 3.0882532647441129e-03 -2.4142223725681444e-01 -9.7629898519670244e-05 -2.5406639546589893e-03 -1.7993228064742819e-02 -9.6092998868654855e-04 -4.9086715142784704e-03 3.5838549301371987e-02 3.9419474468797892e-02 -3.0345579267000957e-02 4.4657173886524237e-03 2.5285563312375699e-03 3.5833529272891274e-01 -7.1503612699928658e-05 -2.9472997731585848e-01 2.2503608482279589e-02 6.8654648015597812e-03 -1.3076075227166228e-01 4.6539679009840615e-02 -1.3308488446322531e-02 4.4044259099569383e-02 2.7550245624759717e-02 -2.5420601756031315e-03 3.1428621032317215e-02 1.1185698620150394e-02 -1.3425185561484639e-02 -6.4362576832766638e-02 -3.4358431624260007e-03 -1.7222139071631293e-01 -8.1956298712700104e-03 8.7736288636386883e-02 1.6368298438301952e-03 1.4884221132712211e-03 9.7242196850009321e-01 9.9878002735976218e-02 -1.9702857910428404e-02 2.6421795905263876e-02 3.8809503363680053e-03 -1.8097474322920297e-02 -2.8331193405010967e-02 9.4542608209673227e-04 1.5831304210579503e-02 -4.1832440957677020e-03 -2.1357543549668937e-03 -3.9707354315183158e-01 1.7158873869369715e-03 2.1640663252744652e-01 1.0485471784014919e-02 -7.5447796781279511e-04 1.6228128585558110e-03 1.2039854543867001e-02 4.5208775361882895e-03 3.2686543176661552e-02 -3.8020191230165954e-03 6.2215573968809335e-03 -7.6066104201908430e-02 3.9308664084371635e-02 -2.3120112821644910e-02 -3.6060132009865714e-02 -4.6651017933099165e-03 -4.0568452565187968e-01 2.4950330820260221e-03 1.6030270448602160e-01 -1.7949959624889446e-03 -5.4720413981586974e-03 9.0821333229271772e-02 -8.3293992416956189e-02 7.4014448331211537e-03 -6.6938565231666747e-02 -8.1685498689962090e-03 5.3844492634676083e-03 -4.1661315190137230e-02 4.5646501319913935e-04 -1.7707488871035598e-03 3.3219894387206989e-02 4.4013105851386227e-03 2.6891259270724516e-01 -1.0071637748529066e-03 8.0305387158834063e-02 -5.0031127493599410e-03 -1.6590092203318265e-03 -1.2147991384846657e+00 -1.8858356033692313e-02 2.7150609417491700e-03 -3.5043775397012117e-02 -1.7033584547463398e-03 6.0571700322989653e-03 -1.2026533198583626e-02 2.2623164749932898e-02 1.6148317523658175e-02 4.9094730394881915e-03 -1.4786590912021593e-03 2.0643524428877671e-01 -3.3608898426232743e-03 2.1663002143793658e-02 -6.7568108689210560e-03 -1.3988938176259548e-03 -5.5231938619672238e-01 -4.7705258913278460e-04 -2.6716075118897453e-03 -3.7753932578385940e-02 5.2144005036482144e-05 -1.0738634043620590e-03 -4.9268074268905740e-02 3.1201142427216624e-03 3.8448503797203666e-03 -4.0427463050837775e-04 1.9374053345242370e-04 6.1872405200605529e-01 4.4763323901714658e-04 -2.1129466467933278e-01 1.9406469568498192e-02 2.2768723964479614e-03 -1.3858432229237803e+00 1.9242805171274985e-02 -2.0434635680796889e-03 6.1730265690676141e-02 -4.3693367515183455e-03 9.4722403032731876e-03 -3.3177855044593432e-02 -2.8588828538428118e-02 7.3315465599662951e-03 2.1965997859818471e-02 4.9580248027742569e-03 4.4313460741617011e-01 -4.0068682653309151e-02 -3.3461957452741609e-01 2.0996162728854888e-02 -1.0460565649105812e-02 -2.0665678325772241e+00 2.1183686019461245e-01 -4.3817584822801056e-02 1.4821171208899139e-01 -3.4548429525696783e-02 3.9729977053691495e-02 -4.2356687419850374e-02 5.0700779127334963e-02 -5.7281213616910798e-02 -1.0278612910255493e-01 -7.5487578471347128e-03 -1.9650620321697546e-01 -1.2121585142911694e-02 -2.3304389463738306e-02 -4.1417039948200632e-03 -1.5220796731131112e-03 4.9948455005788150e-02 -8.3833053486156217e-02 -7.6911010735583249e-05 -1.7850992361858019e-02 -4.9792289276339580e-03 -2.6168897348001026e-03 -8.2275002520528689e-02 5.8162060661187476e-03 -6.9991663249213687e-03 3.9140105785565621e-02 -2.0057078249839533e-03 1.6203584679689795e-01 
      </Row>
      <Row Index="1">
        -1.7127929311411272e-02 1.3375513933188372e+00 -2.7979269753821645e-01 -3.1609274243044982e-01 -1.6970236498689101e-01 -9.2986146735401487e-01 1.5501249700351422e-01 5.9202362168735700e-03 -5.8601008151687541e-02 -3.6220348922110193e-02 -1.3387230075031458e-02 1.9040296110131569e-02 -1.0685623519303317e-02 -5.7928403422139702e-02 2.8727175050830139e-01 5.4442152023296601e-02 -3.4187241152514388e-03 7.1054676732974581e-02 -4.3528695352254498e-01 1.0099289742565680e-02 5.2366223529515341e-03 -8.1001445847378961e-01 1.4112504388534594e-01 -2.1109899739923071e-03 -1.7023711427873796e-02 1.0575710801236459e-02 9.8572121975125035e-03 5.8168864621877953e-03 -2.0517617972273399e-02 2.4277399454264468e-02 4.9572104750636753e-02 -3.3096980232275343e-02 6.1941320154502537e-03 4.0401296479003555e-02 1.0050738092979833e-01 5.8369701050048510e-02 -6.3402872769993766e-04 5.8644524641843443e-01 2.0740671679435701e-02 3.3993659299537016e-02 4.0779082763091848e-02 2.0014769239187165e-02 3.3030380162147655e-03 -1.7171749832439391e-03 -3.8172405226347215e-04 -2.8236539552984153e-02 -2.7635569821013648e-02 -1.8287448572983901e-02 -7.9068495187504841e-03 7.4716171201245618e-01 1.2447410377659862e+00 -9.1193189078942444e-02 -9.6056438486122483e-02 -8.4857924084528769e-01 -5.6544763622487126e-01 -5.6865221638105222e-02 -3.9238198207124542e-02 -7.3886488508361034e-02 3.8888179634739835e-03 -2.5052639217752398e-02 -7.7489771979323885e-02 2.9713857969600188e-03 9.0761424125283291e-02 1.5966992654468923e-02 1.0965026160685530e-02 -7.1851901896608353e-02 2.0117165552057470e-01 8.8803486165582521e-02 -3.5506910577529022e-03 8.2867237296659013e-02 -3.4256667213587072e-01 3.6905539271310135e-03 -7.7111448544871480e-02 -1.1067717433328692e-02 -7.2263661781667085e-03 -1.0401181612009269e-02 3.8596837359322310e-02 5.5022520197714364e-02 -1.0609409860399072e-01 -5.7505021850083528e-02 -1.0429490050343819e-02 3.2390890134960430e-02 7.4614742257192090e-01 5.4462511538732779e-02 6.6748751591657962e-03 -2.2290520159591054e-01 2.4413203614511775e-01 -2.6157285913208449e-02 -4.8000872858750272e-02 -5.0029942310681419e-02 -8.7516158711282502e-03 -5.3214203577212904e-03 -5.2911677402218337e-03 -6.3389368264669069e-03 7.8772013205609698e-02 -4.1523984181072400e-02 -2.1058198495843589e-02 -3.2122785987883665e-02 -1.6003289321987251e+00 -6.3457714300184792e-03 -1.5730858213400024e-02 -5.2195732416222596e-01 1.9160737776064413e-01 1.4897502203555214e-02 3.0784690066118281e-02 8.3082693112509265e-02 -7.9315966168874291e-03 -1.9753936242871903e-04 4.1902946734146511e-02 -9.4216571391118747e-03 5.8189529229535138e-02 -1.5699106732183631e-02 -1.2647347037189151e-02 1.0479349955040257e-01 -1.6657667950465145e+00 -7.6604182313651639e-02 1.5162056698184590e-03 -1.0435109764766892e+00 2.6035686863009960e-01 -2.7886540933300133e-02 6.7111789516323794e-02 8.8914912810801439e-02 9.7343583289235727e-03 1.7765615764013476e-02 -5.5058448640857946e-02 -4.2655737866688470e-02 3.8862559765158178e-02 4.7888012706169908e-02 -3.1862232825091708e-02 5.4220661989338115e-02 -2.9659182896498004e-01 1.0122846047034675e-01 -1.3636026210236740e-02 8.2076950170787200e-02 3.9369484432124824e-01 -3.4089380566260145e-02 6.4268809926117054e-02 3.1309684735644633e-03 -3.1708714825068249e-03 2.1985085096985213e-03 -6.8915650837606882e-03 -3.7025562817774797e-02 1.1398966120841511e-01 -1.3695883982477491e-02 -1.8582766038126036e-01 1.7483490369402876e+00 -3.7489240096106435e+00 4.2117007460318967e-01 1.3641517042003470e-01 -1.5848290237215892e+00 1.2928010789641082e+00 -1.5964504765801346e-01 5.4698450466664505e-01 3.5370551142462481e-01 -5.6403972906541450e-04 2.9898529090361003e-02 9.7232972496390013e-02 -1.8387377879311545e-01 -1.5159060000391472e-01 1.0133620548138711e-01 -6.3145359528705147e-03 1.1167658018022446e+00 -2.5917450184484836e-01 -3.8490947461988959e-02 -7.8431954324493791e-02 5.8193205895740341e-02 9.5427179937948825e-01 -4.0633910209365007e-02 -2.5556748704720356e-03 -4.1025597731314603e-03 1.2488215065791682e-02 -2.2029947892525659e-02 1.5522659267872571e-03 3.1360474728248988e-02 9.9562004181561636e-02 -6.0141920000223732e-02 -9.0790532780994804e-01 
      </Row>
      <Row Index="2">
        3.6161082704903436e-01 -2.7979269792406430e-01 2.9967437982701171e+02 -7.3043424749731112e-01 -2.3435244127459525e+00 -1.4929531628832359e+02 3.0707113627844680e+00 -7.9864777995658431e-01 2.1617012869040009e-01 4.5773272794826880e+00 -9.5190975760841945e-01 1.4043385116349871e-01 9.4716721725162795e-03 2.1483276150236552e-01 6.9665133034932136e-01 4.0345611894214795e-01 -5.6513771244423916e-02 -7.5515055357135402e-02 3.2201783665009929e+00 -5.1191169064820283e-03 4.5122633995783409e-02 -6.6837336733863879e+01 -2.3427804716428705e-01 4.5750964721656961e-02 2.4653813569668609e-01 2.5514246283367221e+00 2.4572057715394913e-01 2.7651789472458244e-01 1.4810402255400714e+00 -3.1039275775434798e+00 -1.5810334521909168e+00 -6.3029730916014381e-02 -3.4325261197247089e-02 -9.8832879193689438e-02 2.4150965455518136e+01 -1.8293915235885089e-01 2.1022811001476960e-02 5.0819498238579200e+01 1.1086456284032087e-01 2.1364236107890094e-01 7.5051264484868874e-02 -1.8696374020062922e+00 1.1576322238763551e-02 8.4329811268289270e-02 2.0728362981959165e+00 -4.0995649547520419e+00 -7.9119729577106201e-01 -5.0027120171473996e-02 -3.5390154067182011e-01 -1.6830505863288883e-01 2.0261514502469996e+02 -6.7743760261944541e-01 -1.3929121281259014e+00 1.1759957596659649e+02 4.1732188593396549e+00 -1.1017955049510804e+00 7.1145238711909320e-01 6.0922797584762378e+00 -5.5785539037660181e-01 -1.4460294053852579e-01 7.5853619759701674e-01 3.7971401463381111e+00 -4.0566269842416958e+00 2.0481550869162646e-01 5.1364995398619728e-01 3.7512652546634342e-02 -6.1066767187187274e+00 6.5227189326274262e-02 9.0765197512452211e-02 -1.0631778789398301e+02 1.3720677325106825e+00 -1.7987002477457187e-02 -7.9234023778459406e-01 -2.8126303390858833e+00 1.6031753923811026e-01 5.5550172193771896e-02 1.8094169982429043e+00 -4.6911008243181742e+00 2.1459519255349289e+00 -1.3929389738876391e-01 -5.2563138593850534e-01 6.0234204408308192e-02 8.1254368672768166e+01 -1.6223663330117544e-02 -1.2213292072057261e-01 -1.3945461951698891e+02 -1.9038604241037402e+00 -3.5773093469180561e-02 1.7289587763059056e+00 5.2857558088374734e+00 1.4126754984573719e-01 7.8584810898446600e-02 -1.5355801763848786e+00 -2.9622661899708298e+00 -1.3386158619328814e+00 2.6233694973212401e-01 8.0365797431533259e-01 -1.7222884385857878e-01 -9.3434703019458382e+01 -1.6563009588798033e-01 -6.3742451548158399e-02 -2.0318577030327546e+02 1.7888898156387473e-01 7.9232182263589968e-02 1.5048517341073708e-01 -7.2745928523707271e+00 -2.0024852238866253e-01 -1.0803010197129573e-01 -3.2058404956212283e-01 1.3986220757521974e+00 8.0764565876627836e-02 -6.2385336089950727e-02 4.3570003939164337e-01 -9.5055608025277877e-02 -8.0475091586341250e+01 1.1415973531461859e-01 4.9847626579930179e-03 -7.6613925855332752e+01 3.6072337231101614e-01 -5.5156034283766453e-01 -5.9127565578414831e-01 4.8731036390054783e-01 2.2217059907100964e-01 -2.7450118686192360e-01 -1.1658477040718127e+00 2.0806578249358996e+00 1.9114035000542029e+00 -2.2326185403294885e-01 -4.2977011200566928e-01 1.0809881545522573e-01 3.7916735803290038e+01 1.1412349265265773e-01 -3.0976611672590249e-02 -1.9562341764056515e+02 -1.7163867845944196e+00 -1.4123427231164834e-01 4.2161463575832769e-01 4.4799088999057757e+00 -7.7114609914961905e-03 -7.1596374817883923e-01 -1.8024573396823398e+00 2.1951706138105260e+00 -2.7822816873171128e+00 1.4006661124909711e-01 3.9953554307631940e+00 -1.2647140504442839e-01 2.3017695532059702e+02 4.7980169061626943e-01 1.9858502850017190e+00 -9.9396679491157556e+01 7.4043108720631796e+00 -1.0368433453852983e+00 -2.8935391082988158e+00 8.1330675381857134e+00 7.3034114181832543e-01 -1.3638788544032985e+00 -1.0564912273389627e+01 -2.6097485458920677e+00 1.2776193217925702e+01 -1.1377177194632360e+00 2.6773898120776263e-01 -1.5713679020872588e+00 -2.9252750780787753e+01 5.5442149114686284e-03 -1.2413870812491314e+00 1.9124553311774026e+01 -4.5000500586747165e+00 -4.3289189501787051e-01 8.0249387797960459e-01 -4.8281104454650938e+00 6.7983187365850434e-02 -6.3147989305056207e-01 2.9685838921195784e-01 -4.0089351208484949e+00 -3.0659537018111109e+00 1.9894177717920902e-01 1.4628938466043532e+01 
      </Row>
      <Row Index="3">
        -1.2251424464077121e-02 -3.1609274243030755e-01 -7.3043424758105679e-01 1.4305748711769120e+00 5.9454215180711728e-02 -2.7651127386400276e-01 -5.8971028972393640e-03 8.5334873345010304e-02 6.4770066402292492e-02 2.3923588842290400e-02 -9.5479612061780170e-02 -3.3788592267152424e-02 -1.0417065833010097e-01 6.3693690222272253e-02 -1.0177155431935676e-01 5.9157652154953395e-02 7.7088878348686996e-04 -1.4051489787675359e-02 3.0421869205998853e-01 -1.4217911183036780e-01 2.4044523094209312e-03 4.8027918945475845e-01 -1.5756243807961791e-02 -3.7100210493530919e-03 3.7448188980425123e-03 -1.7974321344511518e-02 1.2995442283487790e-01 -1.6054283903372244e-02 -7.0361936016140048e-02 -1.1778350232519119e-01 2.0083255344172657e-03 3.7709763291754045e-02 9.5350297942437788e-03 -1.4211795120248269e-03 -8.3199465789620675e-02 -3.1471056301718814e-01 7.1617066010548095e-03 2.6306064899259241e-01 -9.2311152669369151e-03 3.0301656597906068e-02 -3.0011220456827470e-02 -4.5012916824991450e-04 -1.8200451752958904e-03 1.2240612373092130e-02 -7.1030852943754830e-02 -1.1557913231512178e-01 4.3644522259827928e-02 2.5382430088164043e-02 3.6170859541556244e-02 -1.9841470103585929e-01 -1.4908512106788088e+00 2.1115968978782898e-01 5.7633301342896737e-02 2.1792305265523559e-02 9.9214709655574371e-02 -2.3412950104970586e-02 1.8834288159310278e-02 1.8516016429708172e-02 1.3728529587079366e-02 1.4398526462941028e-02 5.9121948338745744e-03 8.7102988710865151e-02 -2.3994540555783900e-02 7.8796231490426083e-02 -1.1922301504393423e-02 2.8087420781433475e-02 2.8544681432580421e-01 -5.0541667136267365e-01 1.1751975964130357e-02 1.5958480522439444e-01 4.7528968753545897e-02 7.8381134592333708e-03 -3.3320274890506062e-02 2.9357689970860110e-03 -4.5182408031348820e-02 4.6245097336704247e-02 -8.8378274834329751e-02 -1.7199828010805229e-01 8.1775479902525067e-02 6.2600548283534924e-02 -2.9164756924583819e-02 4.9928608186222342e-03 -7.4754037267515616e-01 -4.4031230768392782e-01 8.3276137823426639e-03 -1.3573443790394890e-01 -6.3925886686747826e-02 1.3172225716210788e-02 3.7252827036496197e-02 -1.5698861569792649e-02 -8.8734751274365010e-03 2.0500090206344981e-02 8.6674506988908301e-02 -7.6055027344892945e-02 -6.0820170345511348e-02 4.6275051466958282e-02 8.7750724874976708e-03 1.0380055181535350e-02 1.4628172095516003e+00 1.2436313683329274e-01 4.0993916741182621e-03 6.2789935970049715e-01 -5.0104751303889555e-02 4.1297999205074307e-02 4.4266464955385249e-02 -8.3916861372491658e-03 -1.0181431680149228e-01 2.3837453186516862e-02 -5.7188058028478581e-02 1.5208210559789406e-01 -9.3321657237795771e-02 2.7410329161918282e-02 -3.4769376388148138e-03 -4.0974231310093187e-02 1.1446928069081608e+00 3.9636134529489253e-01 -2.8382806063636381e-02 3.2257995020825092e-01 -3.9135320035659095e-02 -1.6850145989748884e-02 2.1328644648222594e-02 -3.2913648452781288e-02 -5.6279694952111724e-03 1.5028875251366425e-02 -3.3897249740108881e-02 9.9508231571735689e-02 -2.6302312684888030e-02 -4.5545633398814789e-02 4.0152059372332571e-02 -8.6770083447773594e-04 2.5870260901941838e-01 -4.8495906790367699e-01 -8.2770878750004460e-03 6.8881185861990346e-01 -9.3728157819649452e-02 3.5436877143463436e-03 -2.1468848046746203e-04 -5.9535593457041840e-02 -2.9296752214789223e-02 6.6847031052001737e-02 1.2714312513171633e-01 1.6752882889676332e-01 -1.4519697623622546e-01 2.4551333933859045e-03 -1.1440633695707914e-02 -4.6949571744374641e-01 9.7794454701457534e-01 -1.0671809224866400e+00 -1.6130833775382078e-01 2.7241783426379769e+00 -3.0527580274510902e-01 4.7174207360391719e-02 -2.8173673204363286e-02 -2.9391637255671693e-01 -2.3541256851736275e-01 9.5896589339363736e-02 -6.2095048507550800e-02 4.3247213410605478e-01 -1.6617128150433699e-01 -1.0322713191476668e-01 -1.5530117927896325e-02 -2.6480756689574303e-01 2.1668342837667298e-01 1.2508337701875155e-01 3.1760710063113651e-02 -4.8880388584481599e-02 -1.7842561934768364e-01 -1.6865501464551503e-02 -8.1853241349551242e-04 3.9326119621105396e-02 3.8003758683099131e-02 4.6890984048024789e-02 -1.5318039428106965e-02 -9.0034479014581420e-02 -9.8138179194178249e-02 5.1744715379978767e-02 1.1476033578430885e-01 
      </Row>
      <Row Index="4">
        3.9350489671592381e-03 -1.6970236498927693e-01 -2.3435244126893329e+00 5.9454215180979909e-02 2.1488788900784463e+00 -2.8222616664522775e+00 2.5061706633028685e-01 -1.6004513141192570e-01 1.4124391255928728e-01 -5.7267236369831664e-02 1.0069793508336296e-01 -2.0490320884917087e-02 -2.8665287416469376e-03 1.8407991973651977e-03 -3.7548775935581605e-02 -1.1544125640159772e-01 -1.6085580640472150e-03 -1.6425952967499664e-02 -2.1244907303494198e-01 -2.5147813304760035e-02 -2.5946315832396052e-02 6.6454084352471354e-02 7.2578634636154792e-03 2.8379569640174067e-03 -1.0667132090760645e-01 1.5190700442022299e-02 -1.3392543499847262e-01 1.2540297095492352e-02 -1.1285293072977060e-02 6.9755274960457248e-02 1.4551607493954344e-02 3.0295267242305846e-02 7.4827354916622249e-02 -7.0720740658287221e-03 -1.0107636646635507e+00 -9.8475485044853400e-02 4.0409583729272031e-02 -1.6287476517034793e+00 2.2827410666029939e-02 -1.5746943963158222e-01 2.7979320933465601e-01 -4.5400015608985878e-02 -2.6330427125783266e-02 2.5236462581859896e-03 -1.7919670998250259e-02 1.2483459086834972e-01 2.5442674137002008e-01 7.2645915857084860e-03 -1.2994710830611453e-01 -1.2069175603219812e-01 -1.8428667879832854e+00 -1.2654931713919493e-01 1.0715303941210805e+00 -1.3462714826650490e-01 2.8962762828174426e-01 2.4455705679449030e-01 4.4732970850692728e-02 4.8136961923882199e-02 -7.9483393266361446e-02 -1.3564594943542424e-03 -2.4756472928238259e-02 2.7083531627525997e-03 -4.3687789183195247e-01 -4.9887801028179801e-02 -1.3141025106407297e-01 -5.6396494789648670e-03 -1.3584771587787259e-02 -1.1493203797372428e-01 -2.0353213118658335e-02 -1.4152116097142797e-01 7.2893885984619738e-02 7.3748997730222685e-03 3.1220750882839987e-01 7.0651094951940437e-03 -2.3292826762521784e-02 2.5929019859105562e-04 -4.4670221078839244e-02 5.1369522711320344e-02 3.6246947539491581e-01 5.1917334839596443e-02 -1.1426827108781298e-01 -4.9614546091509195e-03 -6.1569682206329479e-01 -6.0678586568001125e-02 -8.8950411437781034e-03 1.4732124408510572e+00 -2.4877642935517558e-02 8.9506852773147585e-02 -2.6730781833731782e-01 3.6339737093723110e-02 1.2629099918350102e-02 3.2735716271915516e-03 2.6510125706993848e-05 5.5447222150498715e-02 6.8035324772378669e-02 5.0781910344077669e-02 -9.7615164707964518e-03 1.4171193233913595e-02 7.3827071823913393e-01 2.8513736585738039e-02 1.6062534240526161e-01 1.6292067235906211e+00 6.3895264295519422e-04 -1.3046657167181108e-01 -1.7023985484944437e-01 -2.2642296314898558e-02 9.0733334348776645e-02 -1.8758864397979767e-02 -2.0828764286504913e-02 -3.9795701724360213e-02 -1.3028439770446038e-01 -2.9339614930907670e-02 4.1196367081772232e-02 -6.2502137420947079e-03 1.0796903331663312e+00 8.7669370225345600e-02 5.1030859766400392e-02 1.6103386088461775e+00 -4.5660994293422109e-02 1.2014544431611988e-01 -2.0681808564863013e-01 -9.7303916653108946e-04 2.0150169704185480e-02 -4.6329146904100574e-03 1.8324667597294349e-02 -6.9279614813548329e-02 -6.7244980746755001e-02 -5.7695872820578288e-02 1.5528458183822580e-01 4.5273415231148056e-03 -5.1858842757753110e-01 -1.7084184995548585e-01 4.7636290826075206e-02 2.7738543385905494e+00 -1.0277777650507119e-02 6.4495282389955569e-02 2.2149550448851679e-01 4.0071396466608331e-02 -6.3041085429506302e-02 9.5976384461460285e-04 4.2109653232548921e-03 -3.4323014515336286e-02 -2.6450175648490037e-01 -3.8320351497834949e-02 -2.0482011944284512e-01 -1.5278844608667591e-01 1.2107379009269925e-01 -1.8975863459571396e-01 -1.6084607174217425e+00 8.8814616275181635e+00 3.2370206913923305e-01 2.6555009051015516e-01 4.3026449290813451e-01 8.9999859502698204e-02 3.3961203233010204e-02 -8.1603467493674975e-02 -5.5805111016916847e-02 -5.8242955205704418e-02 1.7201268521253574e-01 -4.7224780986564702e-01 -9.3074787854225655e-02 -1.3371778701256476e-01 3.6460841831132751e-01 5.7892059945996548e-02 6.8331853326834269e-01 -6.9668476693971415e-02 -1.9707020478881043e-01 1.7493443618244894e-01 -1.0501963121147814e-01 -1.2437277763982291e-02 -6.7074468457523073e-02 3.7430066236560089e-04 -1.0392961895467152e-03 7.1666300864943189e-02 -3.3362129006228042e-01 8.5599274087418742e-02 -2.5509979702805002e-01 
      </Row>
      <Row Index="5">
        -6.2413161617924828e-01 -9.2986146640778689e-01 -1.4929531629464219e+02 -2.7651127408067527e-01 -2.8222616665010416e+00 2.0280052865867037e+03 -1.8480018793737523e+00 3.0471954849590310e-01 1.7094901302396682e+01 -5.6179306170588461e-01 1.9886044976450106e+00 -4.9979537429889032e-01 6.0686654791286532e-01 9.4657635021199860e-01 -4.8385527738422667e+00 -8.1965114094258523e-02 3.5120458370859142e-01 -6.3717896269384872e-02 -3.0131082753378220e+01 -4.3378644196035876e-02 -1.5145738924226399e-02 8.3029114635935230e+01 -5.7518924870702581e-01 5.0919943087248454e-02 -3.4444282939031297e+00 -2.0054812347876227e+00 3.6494183683463310e+00 1.9314373509302785e-01 -7.0832559063115474e-01 -3.7120274863275040e+00 5.2240121855654253e+00 1.1989209935772982e-01 1.8333646530828834e-01 -6.3133827004275139e-03 2.0907539655612133e+01 -5.0952509391268830e-02 9.0711175714592501e-02 -2.6383291931774573e+02 4.2860057925154127e-01 1.1573160185652314e+00 -3.3822670489562334e-01 6.0509175689143513e-01 4.2870188687976707e-01 3.8919876342015480e-01 -1.6124402906004123e+00 2.7069894711511076e+00 -1.0555755282932742e+01 -4.5437679178877727e-02 3.2354242591858617e-01 -2.5882724444248695e-01 -1.0007494274423706e+02 -4.4995377720705193e-01 -1.9725310759048358e+00 -7.2218035375517979e+02 8.7803393175200173e-01 -1.5923654616341734e+00 1.5973389840631091e+01 -1.1344999496549226e+00 2.8739278960273613e+00 -1.4155455904994148e+00 -1.1391464852303352e+00 -2.8819675680929087e+00 1.6419590256184232e+01 4.1512471173284632e-02 -8.3017354573662505e-01 -5.5738165255501751e-02 -2.2300254101939430e+01 -8.6566201705573143e-01 1.3383413193746085e-01 4.9856686611755191e+02 2.9340121157219370e+00 -9.0012151292691911e-02 -5.1556261997692987e+00 -2.6008366680423718e+00 2.1378072307715286e+00 6.3067366457578866e-01 -9.6953551370845170e-01 2.2804514475968336e+00 -2.7897304840554863e+01 7.9626979054677929e-02 -4.8474719493181129e-01 -2.5694266796373355e-01 -1.5289922455474743e+02 -5.2584931652666533e-01 -6.7135772950329076e-02 2.4109456771268742e+02 1.7860006708377218e-01 -8.0238448934781292e-01 2.0056025746414363e-01 -2.6460812990102012e+00 -9.3877994055955971e-01 2.5188107798552251e-01 1.1952299912023145e+00 4.3151258357889860e-01 -3.6974902513410077e+00 -3.1987229543250600e-01 -1.3784496040157643e+00 -1.5845868167718374e-01 4.5737981287662706e+01 -3.2555021610203938e-01 -1.6743072829333969e-01 1.4725250184910317e+03 -1.7573254592834979e+00 1.3763745527608577e+00 -1.9171417313679120e+00 -9.3764683211687938e-01 -1.3068918597619132e+00 -1.5743995826434689e+00 6.3851967687946920e-01 2.5408932633043344e+00 -1.0710982940785645e+01 2.3794993827656155e-01 1.3723625697870308e+00 -1.7251880757939247e-01 6.8719361510771392e+01 2.8371752424272806e-01 -2.8530729102763758e-01 6.5049627568980100e+02 -2.3128551423273636e+00 -3.8131189513408414e-01 1.4405780798152970e+00 2.3554859689351684e+00 -3.3049244146688811e-01 -6.3114522927095695e-01 3.1963237966675795e-01 5.2175551990992752e-01 -5.8988014355134126e+00 2.4982768517266656e-02 3.9278683661158387e-01 -3.6199227163938996e-01 -1.4467563815174512e+02 -2.0980563504034863e-01 -5.1749773306163316e-02 8.4955045126110997e+02 -2.3021721143718774e+00 -9.1601792884428401e-01 -6.5056977530073823e-01 -1.6649587380843593e+00 4.0277159113811656e-01 -1.9771137341700409e+00 1.9866497677047861e+00 -1.4166190693735405e+00 2.5677810194230899e+00 -1.1036939275359307e-01 -5.1010401665436111e+00 -3.0020119208506832e+00 -1.5021732149248649e+02 -1.1009929252630934e+00 1.4855880760083864e+00 -3.4583717367135796e+02 -2.7495746403787063e+01 2.4285350527675140e+00 -2.8328792204933698e+01 -6.4604027380832854e+00 -4.0969218972529058e+00 -1.4384448147433893e+01 1.1032144357461025e+01 1.2514322769554701e+01 -1.0462246687348471e+02 1.9887235026238415e+00 4.5810201468476919e-02 -1.4428167405225902e+00 5.3220787156923997e+01 9.3394703894047623e-02 -1.5531718529083010e+00 -8.2298999784004877e+01 -8.7061462396571869e+00 -1.2166996202771299e+00 3.6260017201622396e-01 -1.7743860222011136e+00 9.9916524124495454e-01 -2.4542834419658064e+00 -1.8268641882161593e-01 1.1835233066086546e+00 1.6425319019401172e+01 -1.9709232626502882e-01 1.4506174285953346e+01 
      </Row>
      <Row Index="6">
        3.8995130973434211e-02 1.5501249699511102e-01 3.0707113629635350e+00 -5.8971028958003657e-03 2.5061706632986336e-01 -1.8480018795207798e+00 3.1910141386041579e+00 -8.9319798751499438e-02 -1.2151749298601655e-01 1.0308980152893099e-01 6.4572018881211377e-02 4.4950144745134910e-02 -1.6826288380310361e-02 -7.7939285853501877e-02 1.6127471973897683e-01 -1.7030126717805155e-02 5.6254547814783978e-03 4.2905365491377447e-02 -7.6813709750759074e-02 1.9330750614713427e-02 -6.2806284491004850e-03 -1.2260624188132114e+00 9.2395095455740706e-02 9.9435777135833316e-03 3.7425414968216386e-02 4.0419433942886815e-02 -6.6028428737935227e-02 2.1015909821043774e-02 1.5142097291201961e-01 2.1907329974460182e-02 -1.1547228711900726e-02 -3.3679381755507658e-03 1.4533272590780349e-01 1.0179201733690146e-02 3.1012563669510240e-01 -6.4075048652555353e-03 9.2768050248374975e-03 -1.1834378543213120e+00 5.3583139061284125e-02 -4.4273466097175362e-02 1.6308434072902772e-01 -3.9369925393979210e-02 1.8579564117623677e-03 8.7331802380094629e-03 1.3318979364960182e-01 -5.5216302738527796e-02 3.8971129678844529e-01 -9.8129623467563508e-03 -2.0343852173833193e-02 9.2175169919993943e-03 3.2078299288325152e+00 2.5394992299191871e-02 1.3048606383219361e-01 2.4415304050485807e+00 1.8694750188184184e+00 -4.3148956884315977e-02 -3.8620720938805519e-01 9.8840409158702514e-02 6.2165074126248145e-02 -4.9227811462083937e-03 -9.1585013054847134e-03 3.2748241615249385e-01 -2.3067638453808263e+00 1.5566286746209121e-02 -7.4445543917503354e-02 -9.1348798037554912e-02 8.2185611810334791e-01 -1.6271117405812219e-03 1.9605600889702503e-02 4.5197242085789782e+00 -9.4061937818871427e-02 -2.6832096523023711e-02 1.0338305119747399e-02 -4.1571327226336913e-02 4.7234715840387409e-02 -3.2822586386609509e-02 1.4109360881212266e-01 1.0866370831955761e-02 2.0031751643650395e-01 2.3846962060237856e-02 -2.2146941502666584e-01 7.3429238713167075e-02 2.0393483892575226e-01 1.3201073977434835e-02 -2.2083485308746674e-02 -2.3140174755371845e+00 -9.4087046990243180e-03 5.9353697872265389e-02 5.8396427748687030e-02 7.3505871988212124e-02 -1.9412984082511603e-02 -1.7992136539028092e-02 -1.1164051127511009e-01 -6.2069029911997427e-02 2.9724562432818580e-01 7.0650684569477330e-04 3.2026583112335867e-02 1.8609414329974094e-02 -1.2326662625247231e+00 -2.4005720916954312e-02 2.2621841225481960e-02 7.9191546283423353e-01 1.4077814270574751e-02 -2.1772930540149907e-02 -1.5005824435676440e-02 -1.3172858435544166e-01 1.6842380261692103e-02 -8.5223604204009706e-03 7.5928887266579953e-02 1.3417450558645752e-03 -3.0828674554328261e-01 -1.8700713792347053e-02 2.8978029530978631e-02 7.7663274138640506e-02 -1.3155560554853611e+00 1.4322139355944022e-03 1.7994518995702660e-03 1.5783750145488327e+00 9.8973716540061735e-02 2.3203350234944159e-02 1.0640812722754189e-02 5.0232038794847944e-03 -1.1516669557590880e-02 -6.6903380341560847e-03 6.7213528968796399e-03 9.0551387869188815e-03 -7.2390501420682929e-02 -2.2099998983336561e-02 1.3865026276019699e-01 1.0167798389850108e-01 -2.5019063507151618e-01 1.6524973906552484e-02 -1.8481807213151263e-02 -1.8132900873888076e+00 1.5755122119747994e-01 6.7074607972848185e-02 1.2421948484996714e-01 9.7545773751386289e-02 -6.1083701719851655e-02 -3.4543622731453061e-02 -5.4264026526378642e-02 2.2298835085300145e-02 -3.5433093281604222e-01 -1.2426220034605397e-02 -3.3314748670133265e-01 5.9301966394902905e-01 7.1149474536577273e-01 -8.0599361524113178e-02 -2.2620705573443367e-01 -1.8888298702424891e+00 3.4547588628740633e+00 2.7582415190224130e-01 7.6168791421739002e-01 1.4374280344558382e-01 -2.0381856314391339e-01 -5.2291460251227329e-02 2.3104585929116173e-01 -3.4424777660577877e-01 1.1880483312228514e+00 -2.5160611186632864e-01 -8.4181425556236783e-02 5.4832060573666064e-01 -2.5166216888660115e-01 -2.3460636774959888e-03 9.9937025746675567e-02 -4.8119816461326403e-02 -4.2464870172396152e-01 2.9622064671908883e-02 -7.5145461927947910e-03 -1.0252561807968991e-01 -4.5851661043707345e-02 -5.6171245585208140e-02 2.3332661032729150e-02 -2.0232319863427328e-02 -5.7439656692772767e-01 1.3828598630795885e-02 3.5775990609400055e-01 
      </Row>
      <Row Index="7">
        1.8673083908373300e-02 5.9202362194189758e-03 -7.9864777995484282e-01 8.5334873344587781e-02 -1.6004513141148155e-01 3.0471954844483662e-01 -8.9319798749752377e-02 7.3461961695377742e-01 -7.5161311602313846e-02 -1.5114299402576492e-01 9.8122932361676393e-02 2.0115646880401405e-02 6.3852167534505988e-03 -6.0449843076957679e-03 -3.2370161537485148e-02 -2.2533762375054014e-02 6.0022821383458706e-03 3.5488732504107075e-03 7.9887195452633009e-02 -1.7330489619911890e-02 4.4485467906572596e-03 1.4592162472074766e-01 7.5331288706574412e-03 -2.5959044785736421e-03 1.0468117094097049e-02 -7.2699156993700761e-02 -3.9779485470887721e-02 -4.3302923298232715e-04 -3.3249724837215118e-02 -3.1953729541800008e-03 2.5291019635919093e-02 1.1885837181265985e-02 3.1987971641682045e-02 2.1146432518693147e-03 -1.0827622653301994e-01 -4.7839779033512386e-02 6.7177813332213454e-03 1.3794082259852852e-01 -2.2139965026251790e-02 2.1102941867652869e-01 -7.7424289450067629e-03 1.0006708030364520e-03 -1.1152769904801003e-02 1.2516469133249740e-02 -1.9940863093279755e-02 -4.1286613368411031e-02 -2.4900580108020209e-02 -8.9129529069488962e-03 2.8221054930493643e-02 -2.8755595279575021e-03 -2.8781231158990361e-01 3.0738824454985880e-02 -6.1505791645105314e-02 -1.6212538378093910e-01 -9.3456112993046153e-02 -2.0413432471501464e-01 -1.2256530704158389e-01 -1.5894377237986168e-01 -1.6960676543673874e-02 -4.1655079008787732e-03 -4.5528456370731239e-02 5.2255183304799821e-03 5.1790290345679085e-02 5.3608900373055920e-02 -9.2693100579546800e-02 5.6696237182719648e-04 4.0813901526006990e-01 -4.4783293840863492e-02 3.9861005265006341e-03 -2.4586530984694832e-01 -4.5388347689137874e-02 -6.5547175760546222e-03 -1.8388479133777808e-02 8.3991891228170412e-02 9.2219603055838650e-03 1.6838686977104132e-02 -4.8533872662055638e-02 -4.5963595828719270e-02 -4.0911747417080063e-02 2.0803320735174567e-02 -4.6532277895500129e-02 -1.4609809684544661e-03 -5.8245699894818204e-01 -2.3058489669512572e-02 5.9104439501541858e-05 -3.3829051845623326e-01 7.4831235829436293e-02 -9.9549720135740094e-02 -3.2790181225160753e-02 -1.6466438046071230e-01 1.0377546621102372e-02 -3.0401725586148287e-03 1.0174913611904030e-02 -2.0987531718583502e-02 1.0946110683347499e-02 3.1039734937417723e-02 1.5322099877014994e-02 7.1300218753624547e-03 6.3442480371849275e-01 -4.1346340686909261e-03 -1.7218365720246265e-03 2.5843269133478119e-02 -1.1959138300028593e-02 2.7190410038203994e-01 -2.3457499809748067e-02 2.1279088697621854e-01 4.0720910511899050e-02 4.7339067444420596e-03 1.8525979093922319e-02 2.6428870745552609e-02 8.6920006148375854e-03 -2.5675005934556974e-02 9.8006549703555823e-02 3.6361201875998068e-03 6.2930278723729316e-01 6.6730293864323748e-02 -2.0145965541266721e-03 -2.7982179037709543e-01 3.6863775059052417e-02 -1.4856272787799307e-01 -5.8601042763882893e-02 9.6298483357378284e-02 2.1060143134820471e-02 -1.8208396066803804e-02 -1.1860210698674989e-02 9.1572955802268763e-03 5.0267013873126487e-03 3.3238171446053899e-04 1.6173896813248212e-01 3.0798415323630979e-04 -2.6579577456031295e-01 -2.9119086025618798e-02 6.4911284190018043e-03 -2.2372016669764427e-01 7.3068475841618685e-02 -3.6065977139587889e-02 5.7921275468029894e-03 -1.2002505770304031e-01 -2.2720120486547399e-02 4.2616027876102303e-03 2.0092531183123683e-02 5.0300411472717937e-02 3.2746924442191253e-02 -8.1129781902735121e-03 2.0680682392598060e-01 5.9558340864828065e-02 -8.3549556820834692e-01 -3.4160902421093320e-02 1.6425703907188499e-01 -1.3644521043691107e+00 -1.2278662173901139e-01 -2.0306609094288619e-01 -4.6751682158370139e-02 5.7948762626710393e-02 9.3017863567175403e-03 5.5123988575117022e-03 1.3526049749058153e-01 2.7367843479904660e-02 -9.3339396667996732e-02 -2.1710112586631697e-01 -5.0074017853351298e-02 2.4181578091587056e-02 1.5988142013752840e-01 1.7558452811087165e-02 -5.7360155825539202e-02 1.0174739365503251e-02 1.2775236396422121e-01 -1.9177136917261289e-01 -1.4731061260340059e-02 1.1279060472847577e-01 -2.7224229791102162e-02 7.2232172641338299e-03 -5.1217847760087511e-03 -6.8355085039264463e-03 7.2350590213826144e-02 2.4730617761302601e-02 -1.1525471361762213e-01 
      </Row>
      <Row Index="8">
        6.0903448856817199e-03 -5.8601008166789488e-02 2.1617012896900079e-01 6.4770066401393933e-02 1.4124391255645841e-01 1.7094901302152721e+01 -1.2151749301029391e-01 -7.5161311604172221e-02 1.3624154328543735e+01 1.5238814322896133e-01 -7.7886616256381547e-02 -4.1062606532057622e-02 2.5719645274346118e-02 2.3340238580164710e-01 -1.6438002181315441e+00 1.6852754213721600e-02 4.1212791906862042e-02 7.5832441896128960e-03 1.0951289311804133e+00 -3.6524626245312483e-02 1.1244284916639207e-03 -2.7247782909472660e+00 -2.0933530617857181e-02 -4.4606491147094855e-03 2.2707151082204877e+00 1.9675442969396495e-02 -5.2687809491613162e-02 1.6790065068059794e-02 -5.1724460724665453e-02 -3.6121747956419853e-01 5.0622747377976651e-01 -6.0898499221663863e-03 5.8072609823637079e-02 1.7176626634810635e-03 -9.3234179935732819e-01 5.1590922593406086e-03 1.2467617689713594e-02 4.0754864867179919e+00 9.5822506640494617e-03 -2.0474483042908619e-02 -1.8575743695609284e+00 -4.9083342363464844e-03 4.5558167801233937e-03 2.3138792610537043e-03 -4.4498556477588630e-02 1.6413718848975370e-02 1.9475508594400848e-01 1.6233121230587143e-02 1.0011971738983118e-01 -1.7096182159696367e-03 6.7018203800055991e+00 -1.7160247392664640e-02 6.6078664878996426e-02 -1.1368789631801235e-01 -3.6420402058662649e-01 2.9982315555659660e-02 7.4198389252181780e+00 5.5518457689819944e-02 -1.1698966756932283e-01 -1.0915815814660862e-02 -1.0168676006408750e-02 -1.3672901375607596e-01 4.2124207526445634e-01 -3.0405729129341259e-03 -1.5859680480988447e-01 -7.7787689663274409e-03 -1.8287437775445863e+00 -3.7183374751629666e-02 2.9090057877157842e-03 8.1799003614505637e+00 3.2284735273978959e-02 2.6792453552786311e-02 -2.9922798431738236e+00 -6.5284848925704381e-02 9.7384672543920914e-03 -6.3202322849239101e-02 -6.2495178049282840e-02 -9.5161960517026689e-02 3.0652886130182844e-01 4.7766874337544465e-02 -6.8049840315522331e-03 2.0419056333645241e-02 8.6363171913166870e-01 -6.6790818571391408e-03 7.6846062586499730e-04 -7.0085124652232480e+00 -7.0004523637516802e-02 5.3462831890759011e-03 5.5463333599089557e+00 2.7262499438375443e-02 -3.4504446951688195e-02 5.1518301769947428e-02 6.9379886971236260e-02 -9.3107915035152977e-02 3.8020946890015095e-01 -2.4841584968032154e-02 1.0751896344591175e-01 4.5998185853442168e-02 6.2221736246717985e-01 -8.0850092301583118e-02 -7.3927413437091024e-03 2.7460278695829157e+00 -2.0857453074960045e-01 -1.7580921532433180e-02 5.2703732350546009e+00 -7.0883701246815423e-02 -8.1143578300405972e-02 -3.6859280273332559e-02 -3.2264974776429534e-02 6.3472548150448407e-02 -1.7987154742389599e-01 -5.4014555235030265e-02 1.1067167757006013e-01 1.4971599999552571e-02 1.2053054494547477e+00 -1.8887127727304054e-02 -5.2784602925693425e-03 2.6873409780914699e+00 -1.0762455819934753e-01 1.5369464826150980e-05 4.3772290285388227e+00 7.0633769592635343e-02 -2.8117633645280055e-02 -5.5632282915658443e-02 -7.7438940628358904e-03 8.1602948464325045e-02 4.7528401861098224e-01 -6.8250684844889192e-02 6.9598774317268353e-02 -1.1429330017943766e-02 -4.5430184699135943e+00 -4.6872818153463419e-02 6.5080758752041942e-03 5.7111046125587848e+00 6.6189779372025109e-02 2.0591036647170862e-02 -4.5380768289745079e+00 -1.0165915063329012e-01 1.1460839706984062e-02 -5.4422375309729265e-02 4.1249143466283680e-02 4.0253286357581519e-02 -1.5903279476888676e+00 4.0907886518692274e-02 7.2600484998107584e-01 1.9111749098843439e-01 -1.6990062314614747e+00 -6.7848555318657522e-01 -1.0772651078206182e-01 -2.6358121438987325e-01 -1.6435933989618943e+00 6.4830220871548716e-02 -1.4969967789678133e+01 -3.3044745267381093e-01 -5.2118779022666184e-01 -3.5953227778608149e-01 -8.6777087197466934e-02 -5.8714585331962721e-02 3.1679594408621172e+00 -3.9428553940286598e-01 -6.9734174388973447e-02 -9.9864846674671201e-04 -3.0449555632549030e-01 1.8202507769112350e-02 1.3839500283785153e-01 -6.5690598054964788e-01 7.9826259101846486e-02 2.6799099621409597e-02 2.2787444169203184e+00 -8.1891730745453251e-02 1.1081059759525360e-02 -9.6583145277756299e-02 -2.1449561766396230e-03 -1.9916084908914033e-01 -9.0488121244544706e-01 3.4833735587860737e-02 -4.9670318888579840e-01 
      </Row>
      <Row Index="9">
        8.7680383971520115e-03 -3.6220348926033374e-02 4.5773272794532449e+00 2.3923588843051569e-02 -5.7267236371308393e-02 -5.6179306155468112e-01 1.0308980152549435e-01 -1.5114299402559436e-01 1.5238814322134431e-01 8.5254679566779856e-01 1.4369219828156415e-01 6.5908476309258501e-03 -2.9836682629797599e-02 -1.2987486838981099e-02 -2.9977802184487118e-02 1.1041273030391631e-02 8.8954909096517262e-03 3.0075332548894175e-03 -8.8343389142709394e-02 -8.3413244944157017e-03 2.8920774492102838e-04 -8.6897341001196482e-01 -8.5053896064034313e-03 5.7231595348367706e-03 -4.3625728568474666e-02 1.6427923017062110e-01 -1.2200218749720269e-01 8.9254405843834702e-03 -7.1255304682007548e-03 2.0677327899843573e-02 -1.0005376707596256e-02 2.6299468080140422e-03 5.8415369754123477e-03 -2.9340480277031418e-04 9.1989322707445187e-01 -3.9768254989304480e-03 -1.4719700457735642e-03 -6.3965309504006251e-01 3.4982555826810913e-03 -2.5055157169835043e-02 1.1413700106545683e-02 -1.3194779725501882e-01 -1.7261847523929952e-02 1.3078525513940651e-03 -9.9769448263789494e-03 -4.2769611334594761e-02 -4.5393029583887565e-02 8.4775973934050463e-03 -1.3462886954249333e-02 -1.1557601221937355e-02 2.6050952102130673e+00 1.2115266592808038e-02 -2.3774058401483035e-02 -2.0401261184915542e+00 4.0617896152614137e-02 -1.2768253593862966e-02 -5.9579112334037287e-02 7.1156243516497897e-01 -8.9733208940524119e-03 -1.6807382232334599e-02 8.0194769695754956e-03 1.2212962900080398e-02 1.7295817885615572e-02 -1.8940011479766988e-03 1.6417434542971700e-02 6.5202578235364246e-04 7.9157554480873293e-01 -1.7836834094840381e-03 -3.3146787758740639e-03 2.1316929453075772e-01 1.0376839875906808e-02 1.1443638210285833e-02 3.2197380761928240e-02 -2.7566939178457928e-01 -6.7453984461381289e-02 1.9813245859147330e-03 -1.5767290897159295e-02 -1.1320219818032662e-02 -4.0739094750869648e-02 2.9203938100879233e-03 1.0871556584289434e-02 -2.5531183852838240e-04 7.8145531343819008e-01 -6.6299415705094802e-03 9.6578669696852255e-04 -1.9161943990911823e+00 -1.6715450778591222e-02 1.4276325278210194e-03 -5.1076780150923373e-02 5.2970309770968338e-01 2.8848868007477400e-02 2.8975681716022494e-03 1.7830079906112781e-02 -4.3236800130618834e-02 2.1756307917979667e-02 -4.5304721065867904e-03 -2.3927803615386760e-02 5.6239830953432150e-03 -1.1944429106961989e+00 1.4557197056646771e-02 -1.3626571399724442e-02 1.3025769191127448e+00 5.1148951736670889e-03 -3.1690191325189784e-02 3.8050007663225097e-02 -6.7930252816573544e-01 2.4803441751034532e-02 3.3328025358082924e-03 -2.2056406905847613e-02 2.4201581426454327e-02 -3.4276122595318329e-02 -1.7292033096445681e-04 -2.2146376177651174e-02 1.2522921740022609e-03 -1.6051929102484035e+00 9.7837368496456016e-04 -2.3337750455377330e-03 -1.5943599079714943e-01 -2.7700695227855301e-03 1.6299783957839181e-02 -3.7368019778264427e-02 -9.2028262199982419e-02 4.4412590082484188e-02 -5.0078894390542250e-03 -1.0536843753737453e-02 2.9504135285081112e-03 2.1210029991072854e-02 -4.2132732876316911e-03 -2.8000433466570607e-02 4.0150736935083177e-03 1.5267373425262498e-01 -5.1427912689509282e-04 -6.1128222731461970e-04 -3.6711221600217314e-01 -1.0351246240765668e-02 -8.7208719252391403e-04 -1.6545321581323313e-01 4.4412392435667614e-01 -1.0879929891932139e-02 -1.2692876528416164e-02 9.1054770410299232e-03 -6.9077663957721192e-03 -1.5410796737171991e-03 -3.1276201466528238e-03 -1.8386757511317964e-01 -5.4407592407431978e-03 3.7982640802217178e+00 5.0373941839050349e-02 -1.0200015259974576e-02 -9.9399430357030694e-01 1.6385238310697914e-01 2.0036889270892418e-02 -2.2163783729100439e-01 5.2789338966393018e-01 -9.6239423784288736e-02 7.7558249199338736e-03 -1.6740771001468444e-01 1.3770717178179681e-02 -1.3131839526169306e-01 -1.6202405798391661e-02 1.0145305782599957e-02 2.3114819885435359e-03 -4.5377793547400513e-01 -2.5061632304390104e-03 -1.8554982517723632e-02 8.0896507781602178e-02 -1.9778652439857103e-02 4.0654265222561707e-02 2.3540507504392044e-02 -3.3899272490924964e-01 -6.0149081800516271e-02 -1.7987290538043127e-02 -3.4971601045621107e-03 -2.4514546960091275e-02 3.0771679655286932e-02 2.1672553573981457e-04 3.8493744375746003e-01 
      </Row>
      <Row Index="10">
        4.0558373506791590e-03 -1.3387230071114588e-02 -9.5190975773059971e-01 -9.5479612062659314e-02 1.0069793508182209e-01 1.9886044979516555e+00 6.4572018878350623e-02 9.8122932362491741e-02 -7.7886616261338304e-02 1.4369219828041935e-01 1.9546717616260532e+00 6.7135422690256519e-03 -2.6716852269298118e-02 -1.0571891209280970e-01 2.8798699347972190e-02 -8.7044822468532526e-04 3.0876743281807520e-02 4.4795836071066433e-03 9.8975725373713175e-01 -8.5727405933930384e-02 -5.7084228395845385e-03 4.8073317390204817e-02 -9.3491676796900305e-02 3.4686529524870266e-02 6.5743060199795339e-02 -1.7424285468758968e-01 -7.2949100858224292e-01 -3.4057066708842662e-03 5.9462425922968860e-02 1.6038760259588641e-02 6.4240589544676818e-03 6.5746736003779137e-04 1.0758815389558744e-02 -7.7795228018734015e-03 -5.8062646135374152e-02 4.3973797915842300e-02 -3.8792714207723338e-04 -2.2658789594854101e-01 -5.1837323324084028e-03 4.8144479200427137e-02 -1.6159710489225709e-02 -6.0672414944923037e-02 -1.1991358262117584e-01 6.5241705415906900e-03 9.4716938619797963e-03 -1.0806821325034484e-01 2.1862974823979642e-02 1.4886394461170550e-02 -2.7107196159121619e-03 -3.7239308396850371e-03 -1.3444962256817550e+00 -6.2952989329432940e-02 8.1813941265303763e-03 -1.4605252111586466e+00 5.6435756225586997e-02 -5.2555395197668144e-02 -3.5770512014342781e-02 5.5473165976295230e-02 7.3397083445132072e-02 -2.7789252762317196e-03 -2.2721908993034549e-03 1.7057921995566347e-01 5.3437633045694710e-02 1.4993329278621357e-02 -1.1796347095237608e-02 8.1168258522061158e-03 3.3267230712725748e-01 1.3758074654465843e-01 -1.3579365819671063e-02 1.5785368003995472e+00 5.3026855022344076e-02 7.0215500565668498e-03 -1.1682209448256042e-02 -7.7833621305569478e-02 -1.7451030230463260e-01 1.6943148930814722e-03 2.0588077898275881e-03 -1.4384708941080565e-01 -1.7703796857171383e-03 5.9819583103973284e-03 1.6931416506136832e-03 -2.3881435773680862e-03 -8.9691780600223048e-01 1.1490416305529433e-01 -1.3557923860964993e-02 -1.1928399415410240e-01 -1.1635037542763793e-02 -3.0000206182865703e-02 -1.2844573538470794e-02 1.5398675689929925e-01 3.9518232687096699e-02 3.3622280924851811e-03 -3.3044838136159910e-02 -1.0819401663381265e-01 -1.2399558826151846e-02 2.0193768872048136e-02 -2.3971207996124295e-02 -3.9633266348058785e-03 5.8136938797044024e-01 1.0204982024759073e-01 2.5022158647077110e-02 1.9074608027760291e+00 3.8440883086946709e-02 2.2147777941041585e-02 5.5682458678794733e-02 -8.0079551371115248e-02 6.2502447564983332e-01 1.5890695622014478e-02 -3.4087391975937881e-02 4.3302579225277638e-02 -9.2078600539801214e-02 -1.0845288400577678e-02 8.4392472251218487e-03 -4.7906057025761326e-03 5.3166909676950036e-01 -4.3933452007425766e-02 1.7737882974410174e-02 3.3109399870001610e-01 8.7952413402035412e-03 -3.6606272881746026e-02 2.6285754422434082e-02 6.0291881019342505e-03 3.2166898651331227e-01 2.9567898982713059e-04 5.8087184606876521e-03 5.4711756143188850e-02 -3.6674435098524638e-02 -8.2339417885415028e-03 2.5072911395751768e-02 -1.9644725635786300e-03 1.9744887263129354e-02 1.1050514498829410e-01 -1.1428040775107864e-02 6.6529008645889576e-01 -6.7748972972881558e-02 1.7518511126988490e-03 1.1023660765570754e-02 8.6141547267167065e-02 -1.6731036101939384e-01 -1.7155600464789367e-03 -1.1412683168649837e-02 1.1308217061263084e-01 -1.9364261948415340e-02 4.3747566054430746e-03 -1.1826124218081704e-01 -7.3630987172699794e-02 -1.7801845666711449e+00 9.4050037676598919e-01 5.4272570595650271e-02 -2.4131523487240614e+00 2.4758903465327917e-01 -2.1174136560752210e-01 3.4585521676323189e-01 2.8395836523113538e-01 -5.0775562538092012e-02 5.6479306491763706e-02 -1.9816193678479621e-01 -1.3504332658157259e-02 -4.8764274765889226e-01 -7.9828927228774105e-02 -3.0959360457359954e-03 -9.7374209739096197e-03 3.6176351268598805e-02 -4.6672867457662554e-02 -3.8805953444378816e-03 -2.3908528957504635e-01 -1.3432937403591427e-01 -4.0099876587807594e-02 8.7625374394236771e-03 -8.2273207956437222e-02 -3.1103952543220881e-01 -6.3411971215606988e-03 -3.3292569624000876e-03 -8.0435541876092698e-02 7.7094655522688682e-03 2.1453275127109706e-02 5.1156350793548255e-01 
      </Row>
      <Row Index="11">
        7.5166713112106986e-03 1.9040296106488223e-02 1.4043385117253293e-01 -3.3788592266475348e-02 -2.0490320885659132e-02 -4.9979537420108500e-01 4.4950144743924059e-02 2.0115646880149479e-02 -4.1062606524338463e-02 6.5908476316813847e-03 6.7135422710425802e-03 3.7551842952727910e-01 7.0384967323234334e-04 1.0431560527659471e-02 -6.0684997676039881e-02 2.5934694644041923e-04 2.5240864385874008e-02 1.1042821727970595e-03 2.1591180744516353e-02 3.8106013937940636e-03 -6.2303092477929423e-03 2.3267392999236169e-01 1.2695233457074805e-02 5.2865170209878323e-03 2.6188808146334980e-02 6.2142455253585034e-03 -9.5330964843775116e-03 9.0691571903740997e-02 9.5766719590761121e-03 2.4165831553745375e-02 -1.2194184134124778e-01 3.5238891336404773e-03 3.1995994551927559e-02 -6.7148290971255501e-05 4.9109094500224187e-02 2.1128062226905366e-02 1.7882418709741291e-03 -5.6653455676735298e-02 -1.4349958500937928e-03 4.8356502933611326e-03 -1.4913472445029725e-02 -2.9598170060936013e-03 -3.0410718557509434e-03 -1.1472391096049712e-02 1.8355252816239939e-02 4.3133103379024137e-02 1.5183605066577027e-01 1.3704974054163303e-03 -4.2915433492396252e-02 9.1194794797692033e-03 3.6889895773176778e-01 -8.8315901693045706e-03 -4.9658295719277479e-03 -1.2135588527119268e-02 -1.8689397910601796e-03 -2.8413087752043728e-03 -4.9731893017746220e-02 4.0699584021982680e-03 5.0533930613552705e-03 -2.5113617485740569e-01 7.6425185368620566e-03 2.0748136362949664e-03 -9.2072074837676807e-03 -8.7017467385043686e-04 -7.7739245373961513e-02 -2.7167176164763860e-03 -8.3612779243298241e-02 1.4385507626066076e-02 6.6934059875950651e-03 -6.7123308698728579e-01 -2.1648458507527255e-02 -1.5392286404633151e-02 -6.1333686217321749e-02 -7.2280561158842007e-03 -1.5220015394004527e-02 -1.8643235900568239e-01 2.0001327626352559e-02 8.0321494535978671e-02 3.7641517941593899e-01 -1.1310128112213299e-03 -4.2933991982672774e-02 1.5557637698830739e-03 2.0098897027945248e-01 2.3156207313695828e-02 2.1482857603726396e-03 -3.4849842796393204e-01 1.0763850852795079e-02 -4.1113827586220387e-03 -8.3397388524216326e-03 5.8039642548216377e-03 -4.9313958009796358e-03 -2.9465669274041123e-02 -1.3079748558564353e-02 1.7529584714806590e-02 1.6514370198860151e-02 7.8298171898619710e-03 1.8536327374592064e-02 2.6086799154173049e-03 -3.4396472087516616e-01 5.5335282358043060e-03 6.5536111037859139e-04 -1.7253422746833458e-01 7.0029332259014081e-03 1.4423861395282120e-03 -2.8141739892495118e-05 -8.0296848265014147e-03 -2.9799285480460562e-03 -1.0347644372762286e-02 9.8391864800284126e-03 -2.2586848484966868e-02 -1.4180465824689181e-01 -3.4340616355284050e-03 -2.5054466526744069e-02 5.3360960484026589e-03 -3.1479724646399609e-01 -1.1249640297640914e-02 7.7106915013798539e-03 -5.2170001003370992e-01 2.7000535337824861e-03 -1.7301668399463312e-02 -1.7694718857561853e-02 4.4852229306844987e-03 -1.5288094529407324e-02 -2.0559593247007435e-01 1.1322013411986399e-03 5.1259515506054190e-03 4.9385989689730375e-02 -1.1774264211603181e-02 6.4534162464993453e-03 5.3231420776210315e-03 -3.3530907225921475e-02 3.1205649847717780e-02 1.1177253737359054e-02 -4.7069842986237109e-01 -5.6645799099040821e-03 -2.2554714614980726e-02 -4.5442472483747942e-02 -4.0916791761124610e-04 -2.5685503802476899e-02 -2.8742319574191377e-01 -3.6366534680884535e-03 1.8933764553302646e-02 2.4165353514444987e-02 -7.9094529475563433e-03 -1.2898565354982239e-01 6.4297706795016188e-02 -6.0945561158369510e-01 1.5628320133237056e-01 8.0639890737717629e-02 -1.6227993881243989e+00 1.9068090589424658e-02 -1.2516622229765223e-01 -2.2819709119792431e-01 -1.2766952513251148e-03 -1.4701951745677233e-01 -3.7112207184113122e-02 4.6778129525156711e-02 1.4024479118491084e-01 3.4016015823767554e-01 -8.7943981997751067e-02 -3.4658122243585290e-02 2.6700557108526875e-02 -8.3105587146624499e-02 -3.4271624873082490e-03 -6.1275744229489313e-03 5.2073512369538943e-02 3.8699610485557909e-02 -3.4017992169136039e-03 -1.6803305482019804e-02 -9.7053541617574748e-03 2.5034237852519028e-03 -3.6436810522265534e-01 2.6055302852484308e-03 1.4721586022703945e-02 -2.1364073431623742e-01 3.3346267290435914e-03 2.7258836455899710e-01 
      </Row>
      <Row Index="12">
        -4.7002049134786672e-04 -1.0685623519898213e-02 9.4716721608772703e-03 -1.0417065833004480e-01 -2.8665287418392377e-03 6.0686654797342499e-01 -1.6826288380801344e-02 6.3852167534592299e-03 2.5719645275387393e-02 -2.9836682629728273e-02 -2.6716852268685715e-02 7.0384967307646207e-04 2.9461193719479128e-01 2.0061406077580266e-02 -3.6090034408427778e-02 -1.2301024536985419e-02 6.5263420165255492e-04 -2.5705633649146307e-03 -1.4558941863467201e-01 1.9269883493664769e-03 -7.5079585688923346e-04 2.2238985394585287e-01 -1.3746747499153627e-02 7.4260911029626966e-03 4.6226520928609738e-03 2.5859154613274510e-02 7.0582236309202993e-03 -4.2520269959230549e-03 -1.2201342455969167e-02 -6.0119534640159372e-03 -2.4697667225988540e-03 -2.2850624951846053e-02 -1.0711126541830714e-02 -5.1803638843592806e-03 -4.6978346655978109e-02 3.2028087053154103e-02 -3.7402829355487549e-04 -1.2080074459555457e-01 -4.4104273679010965e-03 2.6172832581216540e-03 -1.3952455743368120e-02 5.6839149913473497e-05 1.6702491623607773e-02 -4.4603329567887559e-03 -6.7812434480348308e-03 -6.3205694030764210e-03 1.8776544081222236e-02 -1.0453370824913205e-02 1.7148033358242165e-03 -1.3879678202572611e-02 1.5463836805599424e-01 -1.4628610543526155e-02 -1.8418492752683788e-04 -5.9036563454344027e-01 5.3779431147737311e-02 1.2750934612041045e-02 8.4376186856730956e-03 1.9101235989798883e-02 7.8902265014292117e-04 9.9399024444987022e-04 4.4971583022860112e-02 9.1212902186735209e-03 -5.3586217926579527e-02 -2.9881165116799193e-02 3.4787176021600780e-03 -6.8348505795956527e-04 -1.6788717279950527e-01 4.4011480038538074e-02 1.1548881437680597e-04 -4.2982061510713265e-02 3.7967798430547962e-03 1.3493568068744119e-02 8.3637696840375871e-03 7.8605558517514003e-03 3.2405074056354621e-02 -5.9047575594880983e-03 -4.9889134928211426e-03 4.2804785361319486e-04 1.1276195345946580e-02 -3.0557855046457014e-02 3.9492471843356192e-03 -3.2717348756959655e-03 4.7925786931112407e-02 2.8651178680099303e-02 -3.7481250967218160e-03 1.6572691213059443e-01 -3.8335315562325924e-03 -8.3966539524226828e-03 -9.2422335660040100e-03 5.2355205012492509e-03 -2.8656281942006059e-02 -2.8961331338629714e-03 2.2515861219951323e-02 -1.7990434912641205e-02 -7.2580202045011699e-03 -4.5764089879823736e-02 2.2784387034111703e-04 -3.4991361938645563e-05 -1.3153210222120248e-01 -4.2930881990918539e-02 -3.4323616402291376e-03 4.0399605941510530e-01 -1.6428499048617044e-02 5.5280116385259814e-03 -8.4927841736031351e-03 -2.0966981351535990e-02 4.3072576841687235e-03 -1.7560984777545805e-03 -9.6753857424230448e-03 3.5330309327810889e-03 -3.6228926743398678e-02 -3.7428631750406108e-03 -4.2311415220482006e-03 -2.4330356551327649e-03 -3.7090136611226399e-03 -3.8865574768292402e-02 -1.3377315300788601e-03 3.6700707962019052e-01 2.4472101968212520e-03 1.3406390012058057e-03 2.1296091079926027e-02 -2.2177230938693476e-03 -1.6422705400673948e-04 8.3858729252416220e-03 -1.5151834405891136e-03 1.8417024840902491e-02 3.9819157137896966e-03 2.4940540046106831e-02 -9.0597660298630811e-03 2.7792771456137070e-03 -3.5265057069064354e-02 2.5454303756001044e-02 -2.1638598280766079e-03 4.6607475940119691e-01 -3.2035678007152804e-02 -7.2644479113245742e-03 -5.1594791904637893e-02 8.6791829639827622e-04 -1.6328658016399353e-02 3.5642140118122972e-04 7.1684562620751985e-03 4.4422649659558409e-03 -4.2185096909403370e-02 -6.1667200726537646e-03 1.9889404078932110e-02 -1.5625913580677549e-02 2.3607666313546805e-01 -1.5077546035816758e-01 -2.2497613199056798e-02 7.0529145555826744e-01 -7.3626873588226921e-02 -6.7254375169103053e-03 -1.5797454436929165e-01 -4.7537303060928904e-02 6.8983374113614632e-04 6.8827002928008099e-03 -3.9035947052999606e-02 1.9769690125838475e-02 -1.4773350090536548e-02 1.2261205818624085e-01 5.6249804395232684e-03 -2.2063836312547817e-02 -3.1735945339788976e-03 -2.1446179276460833e-02 -2.3094887201660901e-03 -2.0284653190113786e-02 -4.5715710612184546e-02 6.0876097545396295e-03 4.3530260104320010e-03 -9.5568395340392825e-03 2.9188377665911522e-03 5.8694924877095156e-03 -1.5507213537491651e-03 -1.3743570325905223e-02 -4.5599243099951337e-02 -3.7807897481375911e-02 9.6757797856598646e-02 
      </Row>
      <Row Index="13">
        6.3805656617897721e-02 -5.7928403428420872e-02 2.1483276148489458e-01 6.3693690223420418e-02 1.8407991960393919e-03 9.4657635043949995e-01 -7.7939285856224380e-02 -6.0449843078956619e-03 2.3340238581116068e-01 -1.2987486838156315e-02 -1.0571891208933688e-01 1.0431560527422334e-02 2.0061406077804822e-02 1.2556459624758607e+00 -1.1007677854580586e+00 -1.3848433805803514e-02 -8.0159538483292013e-03 -1.7286190641297590e-03 -4.6504348210213420e-01 3.0796038996599988e-02 4.7593360813494214e-03 -8.1534755664556990e-01 2.0715195693120581e-02 -7.0600224830392674e-03 -6.9683609156426796e-02 2.5824337817229731e-04 7.1667277562195181e-02 2.2251507803221118e-02 3.9786937003026442e-02 -3.1660459141512809e-01 -1.4180930444717688e-02 -1.4174433095508563e-02 -1.2406514266993449e-03 8.3076373303357584e-03 -8.5597916437132215e-01 3.9882748228111109e-02 1.0208965020368704e-02 -3.1473969544367009e-01 4.5340577302246110e-03 -5.4924022154564725e-03 2.3695925656663674e-02 -2.8603428088693650e-02 -2.1796538224010162e-02 6.0459215034360379e-02 4.9959013169846106e-02 -3.7599604916155316e-01 -6.1449414988765660e-03 -1.4813974910719358e-02 -7.2910374924185783e-03 -4.5382204488536380e-02 1.5868280731135933e+00 -2.2459053149101127e-02 2.3870911438905046e-03 8.8156140030480046e-01 1.8441987423255327e-02 -2.7341787347136999e-02 3.2517290817900057e-02 1.0535828493338152e-02 1.3096337006399675e-02 -9.3971527081588013e-03 1.5299175584474098e-02 3.1426259539943824e-01 -2.7739383378318161e-02 8.7963249284830833e-03 -4.1177025887897227e-02 1.6580477301617724e-02 -9.6703275979240200e-01 8.4659714963075880e-03 5.5910926895840901e-03 -9.7711891827930231e-01 1.4216878695920556e-02 -1.1714314858055656e-02 5.3040523811763024e-02 -4.3035817636961897e-02 -1.1253196774251961e-02 1.0013218407467782e-01 4.1944258990013250e-02 -6.0792512066952153e-01 1.3419001532270097e-01 -1.7517240397120337e-02 -4.1802709546979178e-02 3.1611603663492457e-03 2.2876660991850195e-01 1.9809954151502485e-02 7.7387706450241407e-03 -8.9531818989416934e-01 -2.9552554917121290e-02 -1.2950715500108775e-02 -4.8391137835850473e-02 6.0765167580408425e-03 -2.8661768673956520e-02 5.9135877549487570e-02 -3.4174881457759487e-02 -3.4092317291789004e-01 -3.2324019351330280e-02 -8.3761159735550282e-03 1.2999738844278136e-02 -1.6601624826221568e-03 -4.1954847794027916e-01 -3.4642740590149108e-02 2.4776318053580039e-03 3.6871359248632984e-01 -1.9242997756229396e-02 8.3255070223149999e-03 -3.8710825040911570e-02 -1.1445276165278767e-02 -3.0911364798514709e-02 1.1058207820183615e-03 7.5456880801065222e-03 3.2935299214934277e-01 -1.3916188986676725e-01 4.1725965971077372e-03 1.3331244344847075e-03 -8.7370390221807263e-03 -2.4746163775797142e-01 -1.0718836839481403e-04 -6.9986092102464585e-03 4.4975075599769099e-01 -2.2877010675074118e-02 1.2117406373575765e-02 -2.8394213919688438e-02 1.0961176017975638e-02 -6.3179478434189605e-03 3.4775836578304929e-02 -2.0978789352066408e-02 2.9501456060984443e-01 -3.3150482423878649e-02 9.1028220549032157e-03 1.5932740824267586e-02 -9.2004480436547100e-03 5.3846291112438871e-01 -6.0083596638312781e-02 -7.1780412889059855e-04 -1.4844190744514663e-01 -4.8408850889356751e-02 1.4462671880981824e-02 1.7306874005196676e-02 3.1389197525739952e-02 6.2435811928554838e-02 8.0708307084627548e-02 -4.7595825828833357e-02 1.7216091525247626e-01 -1.4992187290718745e-01 1.3015799850294368e-02 5.2970430778249145e-03 -1.3742518581033242e-01 2.7467642143460411e+00 -4.4975144027237501e-01 -2.2454578158153937e-02 5.8379313320350690e-01 -3.0008500512220904e-01 1.1018312933604860e-01 -2.1775891289674687e-01 1.5044923709587166e-01 2.1865886213061031e-01 -5.9513540086306604e-02 -1.3657060060838511e-01 -3.6157105997451033e-02 -8.9388387849649253e-02 7.3415689443520366e-02 -9.0706968757954115e-03 -6.0387425739049691e-02 -1.5371383269184610e-01 9.6002019635435462e-03 -3.1056982471001915e-04 3.0744929372903046e-02 -1.2992112393083510e-01 -1.9233918021962226e-03 -3.3188892630123604e-02 -1.2208156553225054e-02 3.6055057464266273e-02 4.3124857197455291e-02 4.4625796241201630e-03 -2.8275632133965145e-01 -3.3196305146909139e-01 -6.8276315363649115e-03 5.1688902657150948e-01 
      </Row>
      <Row Index="14">
        -4.4272495208851126e-02 2.8727175057756682e-01 6.9665133063614881e-01 -1.0177155433021312e-01 -3.7548775919742448e-02 -4.8385527771970374e+00 1.6127471977340591e-01 -3.2370161534324406e-02 -1.6438002183217577e+00 -2.9977802197663550e-02 2.8798699298323543e-02 -6.0684997669909535e-02 -3.6090034410612759e-02 -1.1007677854522910e+00 1.1776225366828559e+01 6.0586897130757641e-03 -1.2900851166392169e-02 2.7361619081826938e-02 1.1164599317263182e+00 -2.7034402811048075e-02 2.3868119029600821e-03 3.1928939195502632e+00 2.2142511960889920e-02 -1.2929904059337582e-02 1.3862401030471155e-01 -2.0660267166479618e-03 3.7720869936681278e-03 -1.5606385173447743e-01 -3.1038660855827876e-02 1.7626656922302506e+00 7.7109857990634501e-01 2.5269390837545071e-02 -4.5471645268283706e-02 -2.1609853065056785e-02 -1.3928568276277868e+00 -1.9040274947354108e-02 -1.4490640933901206e-03 8.9993949020242781e-01 1.8623697780755791e-01 -3.4856036774631033e-03 9.0898707572719672e-02 -3.8886674924902165e-02 -1.5410416188723592e-02 8.8579313915708002e-02 3.7379268253538489e-02 1.4585497298960874e+00 -1.4441280442966267e+00 8.9578258103223868e-02 -1.8127235240255307e-02 1.4187093576844095e-01 1.1565097236441551e+00 -2.7623516195209419e-02 -1.0853205149661978e-02 6.5228418240810271e-01 -1.3517329352345779e+00 1.3239546599043805e-02 3.3553072782922078e-02 9.0932321104467417e-03 6.2242127128439309e-02 5.6431930654825824e-02 -1.7251771863274354e-02 -5.2455518225966391e-01 4.6664765587689008e+00 -1.5146793383497795e-02 2.9875371636716608e-02 -6.4156054893733661e-02 -1.5482521509510860e-01 7.6094376837984812e-02 -8.4144611203915420e-03 -5.5222177546220337e+00 -2.7491291704586251e-01 1.0941659614942867e-02 -2.8294104392634140e-01 6.1126560667726287e-02 7.8541291209575093e-03 4.5369969448773795e-01 -7.6506076292287284e-03 1.3583244480536618e+00 -4.2901658083969192e+00 6.9840989568965756e-02 4.2331443561677617e-02 3.0226400220983888e-02 5.1151265496257992e-01 -4.5364276281464500e-02 1.9335928586312889e-03 1.3746329370478634e+00 3.1680169791662677e-01 3.0082696961516581e-03 -1.2138962856699453e-01 -4.2658014008742376e-02 3.4916115419399443e-02 -3.4979300802933544e-02 -2.0457462449464961e-02 1.7569910251120060e+00 1.9330934012318712e+00 5.4339256848890655e-02 -1.2812120560250512e-02 3.8879998285548199e-03 3.1651115647446804e-01 -1.3758654950820175e-02 2.9011261404107383e-02 -5.4387858946981567e+00 2.2783684028618972e-01 -5.1434280133882695e-02 3.9873404222820874e-02 8.2555886731853378e-02 -3.3373765348896502e-02 -2.2143440762724714e-01 -1.3926262554913516e-02 -8.4553240440918165e-01 4.2896228303947312e+00 -1.9178586872776324e-02 9.9294785680555803e-03 4.6017979438903407e-02 -1.3109061436494218e-01 -7.7310871627441768e-03 1.5612293810081050e-02 -4.7061976024096488e+00 2.5080422725125806e-01 3.6472123815067953e-03 -1.8218710364617441e-01 -6.4494858321090365e-02 -3.8566019566063738e-02 1.5255077913427650e-01 3.0732269440234300e-02 -1.3799967506680215e+00 3.2628630574577916e-01 -3.2126796622013266e-02 -1.7863206354090194e-02 6.6345160346732671e-02 2.1132370977230286e+00 2.9264255456958828e-02 1.9566756345831861e-02 -1.5543050981060287e+00 3.8615758438909331e-01 -1.7725001806926748e-02 4.8139953577889188e-01 7.0259215647347079e-03 -2.2263669278877171e-02 2.1661970336086023e-02 -7.2906499525529689e-02 -1.3455432681052931e-01 4.7879455737701448e+00 -8.1050225738237253e-02 4.4843435824080569e-02 6.4578244913550475e-01 4.7820564404109573e+00 1.1509922901472698e-01 3.5022873391933201e-01 -2.3486519821979641e+00 2.0695891834629099e+00 -2.4991278845872705e-01 3.6047631916714420e+00 1.1610711902756340e-01 -3.3854635486231832e-01 -1.1686691847511155e+00 -2.9068989146653607e-01 8.4809307938803580e-01 -1.8124830901130009e+00 -5.6774847021300978e-01 4.3691810044494739e-02 3.6755638056458989e-01 -3.0506590590846372e-03 -4.2026344674434973e-03 1.7545770742704761e-02 4.5050258446998082e-01 2.1053791412832061e+00 7.8144300469038704e-03 1.0495673138466302e-01 9.7171140009050389e-02 2.8397432561819078e-03 5.2758194317203033e-01 1.7546873507165960e-03 1.7002506526813184e+00 5.7735983015722496e+00 3.3446683077476669e-02 -6.7633111380306623e+00 
      </Row>
      <Row Index="15">
        1.5751729889254551e-05 5.4442152022990187e-02 4.0345611895286310e-01 5.9157652155051088e-02 -1.1544125640155345e-01 -8.1965114134703754e-02 -1.7030126717806408e-02 -2.2533762375101969e-02 1.6852754213443344e-02 1.1041273030419685e-02 -8.7044822491467652e-04 2.5934694651441603e-04 -1.2301024536966187e-02 -1.3848433805626670e-02 6.0586897112691156e-03 9.7472568144283525e-02 -2.2506935019239241e-03 6.6316392100947445e-03 3.5855780810867710e-02 -3.3665855727712697e-02 2.5428165554467396e-03 1.2903311765672676e-01 -1.2679501785995200e-03 2.7600165434159118e-03 2.0508317463296122e-03 1.5557793920550067e-03 4.9247207254059979e-03 1.1085760236794140e-02 1.0860470818157974e-02 9.6559918055162119e-03 6.5486952437019963e-03 1.7215660758611820e-02 -1.1086420523317292e-03 4.6442232086866021e-03 9.4833329149214385e-02 -2.0164636264977963e-02 -2.5761753344239547e-03 3.5086099869846699e-01 -3.4895090846495062e-03 -6.1738846130880501e-03 -1.9304662521933386e-02 -7.8139522156659980e-03 -3.7414466056241128e-04 2.0286897443487170e-03 2.6133798890751687e-02 7.6223898309026542e-03 1.8682420697113088e-03 1.4221144679001324e-02 -6.6731263535869945e-04 4.4000551831703198e-02 5.4161365138591744e-01 1.3329462822491603e-02 -5.2850152519048454e-02 1.3631694159854124e-01 -1.1549703071273912e-02 8.2544960593859407e-03 -4.7091266611512632e-03 1.0862868956010803e-02 2.0786458811658769e-03 -7.6793048176190320e-03 -1.9602311089386157e-03 -1.4066151405937402e-02 1.5149898333508618e-02 3.8264997736861428e-02 2.5712881146726062e-03 7.5389886733235323e-03 1.1633654017373374e-04 -3.6149903792927415e-02 3.3873847501268359e-03 -2.4734639736471564e-01 -1.3537483381788978e-02 4.6395698005832911e-03 -3.4624855106546962e-02 -1.7162643054453090e-02 -6.1359296984824230e-03 -4.8336774132968271e-04 2.1277370980567142e-02 1.3295912298171370e-02 -1.4253252910033699e-02 1.9624116837317403e-02 -3.5447315545902719e-03 9.0330907923902928e-03 1.7999884563550989e-01 -4.3630301797751098e-02 1.7598065889350943e-03 -2.2263707557226553e-01 -4.0943128814738385e-03 4.5582831393732662e-03 7.9378198004971534e-04 1.9291469569570948e-02 -9.0698011554651500e-03 5.7312315380107573e-03 -4.9786505904363690e-02 5.7545188143093865e-03 1.4431372743779702e-02 3.2953485633442747e-02 4.7356353905152002e-03 -4.1211470237981834e-03 -2.6843263827010738e-01 1.3126787423227690e-02 -1.4532010425565053e-02 -4.1094186315258541e-01 -8.2440027580130268e-04 -1.4550502238401326e-02 7.1960144409231874e-03 -1.9171050487029481e-02 -7.8264452988898725e-03 -3.1630230039507647e-03 1.2087519947531331e-02 -1.2161792093353430e-02 7.2737167060594916e-03 7.5306531666655607e-03 -1.5698784062190135e-03 -3.2588939585809617e-03 -2.4751512304401802e-01 2.5167155071167419e-02 -4.6508214751582238e-03 -2.9953270488818973e-01 7.5114168192724770e-03 1.4326769664287121e-03 2.0887083973344045e-02 1.0807503401508295e-03 2.6138106052893840e-03 -1.3580407809724304e-02 1.1551143630307913e-02 -1.4134403946433352e-02 -2.6850750161233339e-03 -1.8043018183220128e-02 -6.5269769193365412e-03 4.4529868247455435e-03 2.9982930572252986e-02 -2.0254242308075456e-02 -8.2392174039363358e-03 -2.7675862449750532e-01 -4.1292585989809588e-03 -1.7605955768249283e-03 -1.7309877708075794e-02 1.5967350457711641e-02 -3.8503052779643712e-03 -1.4031648455250123e-02 -2.6271762864846192e-02 -9.3404362362142709e-03 1.8662011156045946e-02 1.0644095569673729e-02 1.2883007234232143e-02 5.5251529809494451e-02 1.2200924384909007e-01 -2.5677868481215615e-02 4.9494546737772684e-02 -4.7761899827000853e-01 -1.1334889967922326e-02 -3.2801547000986350e-02 -3.1558936285204293e-02 3.9098547238166984e-02 -3.7017373526240072e-02 -2.9791526110449024e-02 2.5378306720686097e-02 -3.8263825435717450e-02 2.3110561525586729e-02 -2.3479230480261890e-02 2.6806255880770704e-03 3.9425566094676949e-02 -6.1587786624826384e-02 4.0880404586368614e-04 -3.4199328943091814e-02 3.4379349069640054e-02 1.3614897452067315e-02 6.0555951773217792e-03 6.3258373817764585e-03 -1.3195735160084286e-02 3.9115366975321546e-03 -1.3599573841387935e-02 5.3057520780125031e-03 8.1678855850429999e-03 2.2615480772946422e-02 2.6198056164976419e-02 -2.4090529065146738e-02 
      </Row>
      <Row Index="16">
        4.8833157182840481e-02 -3.4187241158446513e-03 -5.6513771243305672e-02 7.7088878357112200e-04 -1.6085580643397314e-03 3.5120458373182828e-01 5.6254547812104533e-03 6.0022821382955498e-03 4.1212791908447954e-02 8.8954909098131196e-03 3.0876743282209382e-02 2.5240864385839501e-02 6.5263420167099850e-04 -8.0159538483459691e-03 -1.2900851166567799e-02 -2.2506935019234505e-03 1.4485091548546991e-01 1.4120520102078758e-03 4.0007480207147339e-02 3.5267469828987050e-03 3.6602110699996571e-03 -1.8347573045039844e-01 -1.4790081299855878e-02 8.8418468452958442e-03 -5.3404973063085198e-03 -1.0251634553458755e-02 1.2494446877077453e-02 -4.5114230411711720e-03 -7.0203837847602844e-03 1.5230168842449224e-02 -2.5187142481912284e-02 -3.2466819649681249e-04 3.9042933405090630e-02 1.0278167710989501e-03 9.0454898255029920e-02 3.0513302885123985e-03 -6.3386484436901269e-04 -1.2292352482941027e-01 -2.8711307355978443e-03 -3.3704737247687165e-03 1.2052143185240484e-02 8.3420591428771187e-03 1.6195194260689171e-02 1.2048366915898860e-02 -2.4352049973333869e-02 -2.1426619615258730e-02 2.9528519995524610e-04 -9.5470809385675235e-03 -2.6671639892962454e-02 -2.6672642743060982e-03 4.9900049742097954e-03 -3.0256425716381763e-03 -3.4325777621115453e-03 -2.7717033310359462e-01 -1.2378283527735897e-02 -6.0187035304006273e-03 2.2487017774665614e-02 4.8077370901905480e-03 9.5155086112327751e-03 -2.7382173180844675e-02 6.0226204037732581e-03 1.5594582624652555e-02 -1.3152072844592813e-02 -8.5380064055259300e-04 -4.7651883678177090e-02 -5.2340312612026395e-04 2.6950362078691337e-02 -1.5548562656379165e-04 -3.4393678794766510e-04 1.2946980071282610e-01 -5.4974883526846853e-03 -2.1927631712607282e-03 -3.2069237958182145e-02 -6.2242852430535464e-03 -4.4679260260267473e-03 -2.3840370097240268e-02 5.5016628532153786e-03 2.6720854369460621e-02 4.4183510047722304e-03 7.5336438846443864e-04 -4.2614310469358541e-02 -5.7423993660948164e-04 -4.8245127120299068e-03 -2.6960648646647658e-03 -3.3237152244303602e-04 -1.3404320245444978e-01 3.4905511321095825e-03 -2.2787942608208890e-03 -9.8864875705898664e-04 7.6067469225619471e-03 -1.4054973722673182e-02 -1.5431631378760920e-02 1.1378507121490794e-03 -9.1782168524818762e-03 -2.7068259069072162e-02 1.1573498646193019e-03 2.6104629096257246e-02 7.5425279483223807e-04 -6.1719376669248701e-03 2.6443249483007266e-03 1.6609556881002105e-03 3.4890638997545664e-01 5.0760470508842970e-03 2.5120397064474879e-03 2.6264764731692005e-02 -8.7236149760424597e-03 4.5116275459387758e-03 -2.3838363934335412e-03 -3.1712230446407181e-03 -3.3355557425658513e-04 -2.4301406116421401e-02 -1.1721580673976239e-03 4.0797706799844576e-03 2.6874986113557733e-04 4.8270956434896262e-03 1.4947025357774338e-03 1.4833059740355199e-03 1.3662537866545965e-01 2.9663438545523601e-03 -2.6869865368285241e-03 1.3195736785854360e-02 3.6648824724127118e-04 4.2273245957982451e-03 -1.9545494495378804e-02 -3.3389954547608002e-03 6.0765463958801919e-03 2.9201448626063782e-03 -2.2418949110414679e-05 7.1598844639351872e-02 1.2341892980722506e-03 -1.2997725493327469e-02 4.9869312114711010e-03 1.3756915453490884e-03 1.1845056154523981e-01 7.1549211147491293e-03 2.0966281247407305e-03 1.4051875705430454e-02 5.5604050571709026e-03 3.2794116600331505e-02 -2.0153672919626043e-02 -9.3486931707221863e-03 -1.0371468706423380e-02 -7.9709012603774720e-03 -5.4459392725940978e-03 -1.3955616739515314e-02 7.6062536531123796e-03 -8.2604793641142288e-02 3.4247266337727109e-02 1.8223664600287088e-02 -3.6788650194529682e-01 3.5713302169348003e-02 -2.3823920646647324e-03 5.3747858259779645e-02 4.3109579668500278e-03 9.7351518184401159e-02 1.0667308420760913e-03 -6.1618532229953456e-02 8.4450249387220643e-03 -5.7608019327877402e-02 -2.0612250745088892e-02 -2.6259610149006185e-02 -3.0880555968431527e-03 -5.0404070340654607e-03 -4.6559647078597702e-04 -3.1220188258609415e-03 -1.3793436572539963e-02 1.3016128418169570e-02 -2.4348183528592002e-03 1.0455837216136136e-03 -6.7342846671262190e-03 1.2806121527997772e-03 -3.6022319844838557e-02 -3.6652557143941692e-04 -1.8911966773832556e-02 -3.5779658194426273e-02 3.4982105355114632e-04 8.5116490320826049e-02 
      </Row>
      <Row Index="17">
