<?xml version="1.0"?>
<MethodSetup Method="MLP::Electron_Downstream_TMVA">
  <GeneralInfo>
    <Info name="TMVA Release" value="4.1.4 [262404]"/>
    <Info name="ROOT Release" value="5.34/05 [336389]"/>
    <Info name="Creator" value="jonrob"/>
    <Info name="Date" value="Tue Apr  9 14:45:03 2013"/>
    <Info name="Host" value="Linux lxbuild175.cern.ch 2.6.18-308.4.1.el5 #1 SMP Wed Apr 18 16:26:27 CEST 2012 x86_64 x86_64 x86_64 GNU/Linux"/>
    <Info name="Dir" value="/afs/cern.ch/work/j/jonrob/www/ANNPID/MC12/TrainAllTks-EvalAllTks-ReweightRICH2/TMVA-NoPreSels-NoGECs/MLP/Norm/ScaleF1.4/BP/NCycles500/CE/tanh/Electron/Downstream"/>
    <Info name="Training events" value="1000000"/>
    <Info name="TrainingTime" value="4.53471225e+04"/>
    <Info name="AnalysisType" value="Classification"/>
  </GeneralInfo>
  <Options>
    <Option name="NCycles" modified="Yes">500</Option>
    <Option name="HiddenLayers" modified="Yes">44</Option>
    <Option name="NeuronType" modified="Yes">tanh</Option>
    <Option name="RandomSeed" modified="No">1</Option>
    <Option name="EstimatorType" modified="Yes">CE</Option>
    <Option name="NeuronInputType" modified="No">sum</Option>
    <Option name="V" modified="Yes">True</Option>
    <Option name="VerbosityLevel" modified="No">Verbose</Option>
    <Option name="VarTransform" modified="Yes">Norm</Option>
    <Option name="H" modified="Yes">True</Option>
    <Option name="CreateMVAPdfs" modified="No">False</Option>
    <Option name="IgnoreNegWeightsInTraining" modified="No">False</Option>
    <Option name="TrainingMethod" modified="Yes">BP</Option>
    <Option name="LearningRate" modified="No">2.000000e-02</Option>
    <Option name="DecayRate" modified="No">1.000000e-02</Option>
    <Option name="TestRate" modified="No">10</Option>
    <Option name="EpochMonitoring" modified="Yes">True</Option>
    <Option name="Sampling" modified="No">1.000000e+00</Option>
    <Option name="SamplingEpoch" modified="No">1.000000e+00</Option>
    <Option name="SamplingImportance" modified="No">1.000000e+00</Option>
    <Option name="SamplingTraining" modified="No">True</Option>
    <Option name="SamplingTesting" modified="No">False</Option>
    <Option name="ResetStep" modified="No">50</Option>
    <Option name="Tau" modified="No">3.000000e+00</Option>
    <Option name="BPMode" modified="No">sequential</Option>
    <Option name="BatchSize" modified="No">-1</Option>
    <Option name="ConvergenceImprove" modified="No">1.000000e-30</Option>
    <Option name="ConvergenceTests" modified="No">-1</Option>
    <Option name="UseRegulator" modified="No">False</Option>
    <Option name="UpdateLimit" modified="No">10000</Option>
    <Option name="CalculateErrors" modified="No">False</Option>
    <Option name="WeightRange" modified="No">1.000000e+00</Option>
  </Options>
  <Variables NVar="32">
    <Variable VarIndex="0" Expression="TrackP" Label="TrackP" Title="TrackP" Unit="" Internal="TrackP" Type="F" Min="1.10126001e+03" Max="4.85930150e+06"/>
    <Variable VarIndex="1" Expression="TrackPt" Label="TrackPt" Title="TrackPt" Unit="" Internal="TrackPt" Type="F" Min="3.04484516e-01" Max="9.34914250e+05"/>
    <Variable VarIndex="2" Expression="TrackChi2PerDof" Label="TrackChi2PerDof" Title="TrackChi2PerDof" Unit="" Internal="TrackChi2PerDof" Type="F" Min="1.94675215e-02" Max="2.99999475e+00"/>
    <Variable VarIndex="3" Expression="TrackNumDof" Label="TrackNumDof" Title="TrackNumDof" Unit="" Internal="TrackNumDof" Type="I" Min="4.00000000e+00" Max="3.10000000e+01"/>
    <Variable VarIndex="4" Expression="TrackLikelihood" Label="TrackLikelihood" Title="TrackLikelihood" Unit="" Internal="TrackLikelihood" Type="F" Min="-9.84849701e+01" Max="8.88490975e-01"/>
    <Variable VarIndex="5" Expression="TrackGhostProbability" Label="TrackGhostProbability" Title="TrackGhostProbability" Unit="" Internal="TrackGhostProbability" Type="F" Min="-9.99000000e+02" Max="1.00000000e+00"/>
    <Variable VarIndex="6" Expression="TrackCloneDist" Label="TrackCloneDist" Title="TrackCloneDist" Unit="" Internal="TrackCloneDist" Type="F" Min="-9.99000000e+02" Max="4.99640723e+03"/>
    <Variable VarIndex="7" Expression="TrackFitTChi2" Label="TrackFitTChi2" Title="TrackFitTChi2" Unit="" Internal="TrackFitTChi2" Type="F" Min="3.92332877e-04" Max="6.36161385e+01"/>
    <Variable VarIndex="8" Expression="TrackFitTNDoF" Label="TrackFitTNDoF" Title="TrackFitTNDoF" Unit="" Internal="TrackFitTNDoF" Type="I" Min="1.00000000e+00" Max="2.70000000e+01"/>
    <Variable VarIndex="9" Expression="RichUsedAero" Label="RichUsedAero" Title="RichUsedAero" Unit="" Internal="RichUsedAero" Type="I" Min="0.00000000e+00" Max="1.00000000e+00"/>
    <Variable VarIndex="10" Expression="RichUsedR1Gas" Label="RichUsedR1Gas" Title="RichUsedR1Gas" Unit="" Internal="RichUsedR1Gas" Type="I" Min="0.00000000e+00" Max="1.00000000e+00"/>
    <Variable VarIndex="11" Expression="RichUsedR2Gas" Label="RichUsedR2Gas" Title="RichUsedR2Gas" Unit="" Internal="RichUsedR2Gas" Type="I" Min="0.00000000e+00" Max="1.00000000e+00"/>
    <Variable VarIndex="12" Expression="RichAboveMuThres" Label="RichAboveMuThres" Title="RichAboveMuThres" Unit="" Internal="RichAboveMuThres" Type="I" Min="0.00000000e+00" Max="1.00000000e+00"/>
    <Variable VarIndex="13" Expression="RichAboveKaThres" Label="RichAboveKaThres" Title="RichAboveKaThres" Unit="" Internal="RichAboveKaThres" Type="I" Min="0.00000000e+00" Max="1.00000000e+00"/>
    <Variable VarIndex="14" Expression="RichDLLe" Label="RichDLLe" Title="RichDLLe" Unit="" Internal="RichDLLe" Type="F" Min="-9.99000000e+02" Max="1.08240898e+02"/>
    <Variable VarIndex="15" Expression="RichDLLmu" Label="RichDLLmu" Title="RichDLLmu" Unit="" Internal="RichDLLmu" Type="F" Min="-9.99000000e+02" Max="6.77556992e+01"/>
    <Variable VarIndex="16" Expression="RichDLLk" Label="RichDLLk" Title="RichDLLk" Unit="" Internal="RichDLLk" Type="F" Min="-9.99000000e+02" Max="9.69522018e+01"/>
    <Variable VarIndex="17" Expression="RichDLLp" Label="RichDLLp" Title="RichDLLp" Unit="" Internal="RichDLLp" Type="F" Min="-9.99000000e+02" Max="7.23566971e+01"/>
    <Variable VarIndex="18" Expression="RichDLLbt" Label="RichDLLbt" Title="RichDLLbt" Unit="" Internal="RichDLLbt" Type="F" Min="-9.99000000e+02" Max="6.05523987e+01"/>
    <Variable VarIndex="19" Expression="InAccMuon" Label="InAccMuon" Title="InAccMuon" Unit="" Internal="InAccMuon" Type="I" Min="0.00000000e+00" Max="1.00000000e+00"/>
    <Variable VarIndex="20" Expression="MuonBkgLL" Label="MuonBkgLL" Title="MuonBkgLL" Unit="" Internal="MuonBkgLL" Type="F" Min="-9.99000000e+02" Max="2.29000002e-02"/>
    <Variable VarIndex="21" Expression="MuonMuLL" Label="MuonMuLL" Title="MuonMuLL" Unit="" Internal="MuonMuLL" Type="F" Min="-9.99000000e+02" Max="0.00000000e+00"/>
    <Variable VarIndex="22" Expression="MuonIsLooseMuon" Label="MuonIsLooseMuon" Title="MuonIsLooseMuon" Unit="" Internal="MuonIsLooseMuon" Type="I" Min="0.00000000e+00" Max="1.00000000e+00"/>
    <Variable VarIndex="23" Expression="MuonIsMuon" Label="MuonIsMuon" Title="MuonIsMuon" Unit="" Internal="MuonIsMuon" Type="I" Min="0.00000000e+00" Max="1.00000000e+00"/>
    <Variable VarIndex="24" Expression="MuonNShared" Label="MuonNShared" Title="MuonNShared" Unit="" Internal="MuonNShared" Type="I" Min="0.00000000e+00" Max="7.00000000e+01"/>
    <Variable VarIndex="25" Expression="InAccEcal" Label="InAccEcal" Title="InAccEcal" Unit="" Internal="InAccEcal" Type="I" Min="0.00000000e+00" Max="1.00000000e+00"/>
    <Variable VarIndex="26" Expression="EcalPIDe" Label="EcalPIDe" Title="EcalPIDe" Unit="" Internal="EcalPIDe" Type="F" Min="-9.99000000e+02" Max="4.34127378e+00"/>
    <Variable VarIndex="27" Expression="EcalPIDmu" Label="EcalPIDmu" Title="EcalPIDmu" Unit="" Internal="EcalPIDmu" Type="F" Min="-9.99000000e+02" Max="2.64517307e+00"/>
    <Variable VarIndex="28" Expression="InAccHcal" Label="InAccHcal" Title="InAccHcal" Unit="" Internal="InAccHcal" Type="I" Min="0.00000000e+00" Max="1.00000000e+00"/>
    <Variable VarIndex="29" Expression="HcalPIDe" Label="HcalPIDe" Title="HcalPIDe" Unit="" Internal="HcalPIDe" Type="F" Min="-9.99000000e+02" Max="3.12796974e+00"/>
    <Variable VarIndex="30" Expression="HcalPIDmu" Label="HcalPIDmu" Title="HcalPIDmu" Unit="" Internal="HcalPIDmu" Type="F" Min="-9.99000000e+02" Max="2.61016369e+00"/>
    <Variable VarIndex="31" Expression="PrsPIDe" Label="PrsPIDe" Title="PrsPIDe" Unit="" Internal="PrsPIDe" Type="F" Min="-9.99000000e+02" Max="3.46313500e+00"/>
  </Variables>
  <Spectators NSpec="0"/>
  <Classes NClass="2">
    <Class Name="Background" Index="0"/>
    <Class Name="Signal" Index="1"/>
  </Classes>
  <Transformations NTransformations="1">
    <Transform Name="Normalize">
      <Selection>
        <Input NInputs="32">
          <Input Type="Variable" Label="TrackP" Expression="TrackP"/>
          <Input Type="Variable" Label="TrackPt" Expression="TrackPt"/>
          <Input Type="Variable" Label="TrackChi2PerDof" Expression="TrackChi2PerDof"/>
          <Input Type="Variable" Label="TrackNumDof" Expression="TrackNumDof"/>
          <Input Type="Variable" Label="TrackLikelihood" Expression="TrackLikelihood"/>
          <Input Type="Variable" Label="TrackGhostProbability" Expression="TrackGhostProbability"/>
          <Input Type="Variable" Label="TrackCloneDist" Expression="TrackCloneDist"/>
          <Input Type="Variable" Label="TrackFitTChi2" Expression="TrackFitTChi2"/>
          <Input Type="Variable" Label="TrackFitTNDoF" Expression="TrackFitTNDoF"/>
          <Input Type="Variable" Label="RichUsedAero" Expression="RichUsedAero"/>
          <Input Type="Variable" Label="RichUsedR1Gas" Expression="RichUsedR1Gas"/>
          <Input Type="Variable" Label="RichUsedR2Gas" Expression="RichUsedR2Gas"/>
          <Input Type="Variable" Label="RichAboveMuThres" Expression="RichAboveMuThres"/>
          <Input Type="Variable" Label="RichAboveKaThres" Expression="RichAboveKaThres"/>
          <Input Type="Variable" Label="RichDLLe" Expression="RichDLLe"/>
          <Input Type="Variable" Label="RichDLLmu" Expression="RichDLLmu"/>
          <Input Type="Variable" Label="RichDLLk" Expression="RichDLLk"/>
          <Input Type="Variable" Label="RichDLLp" Expression="RichDLLp"/>
          <Input Type="Variable" Label="RichDLLbt" Expression="RichDLLbt"/>
          <Input Type="Variable" Label="InAccMuon" Expression="InAccMuon"/>
          <Input Type="Variable" Label="MuonBkgLL" Expression="MuonBkgLL"/>
          <Input Type="Variable" Label="MuonMuLL" Expression="MuonMuLL"/>
          <Input Type="Variable" Label="MuonIsLooseMuon" Expression="MuonIsLooseMuon"/>
          <Input Type="Variable" Label="MuonIsMuon" Expression="MuonIsMuon"/>
          <Input Type="Variable" Label="MuonNShared" Expression="MuonNShared"/>
          <Input Type="Variable" Label="InAccEcal" Expression="InAccEcal"/>
          <Input Type="Variable" Label="EcalPIDe" Expression="EcalPIDe"/>
          <Input Type="Variable" Label="EcalPIDmu" Expression="EcalPIDmu"/>
          <Input Type="Variable" Label="InAccHcal" Expression="InAccHcal"/>
          <Input Type="Variable" Label="HcalPIDe" Expression="HcalPIDe"/>
          <Input Type="Variable" Label="HcalPIDmu" Expression="HcalPIDmu"/>
          <Input Type="Variable" Label="PrsPIDe" Expression="PrsPIDe"/>
        </Input>
        <Output NOutputs="32">
          <Output Type="Variable" Label="TrackP" Expression="TrackP"/>
          <Output Type="Variable" Label="TrackPt" Expression="TrackPt"/>
          <Output Type="Variable" Label="TrackChi2PerDof" Expression="TrackChi2PerDof"/>
          <Output Type="Variable" Label="TrackNumDof" Expression="TrackNumDof"/>
          <Output Type="Variable" Label="TrackLikelihood" Expression="TrackLikelihood"/>
          <Output Type="Variable" Label="TrackGhostProbability" Expression="TrackGhostProbability"/>
          <Output Type="Variable" Label="TrackCloneDist" Expression="TrackCloneDist"/>
          <Output Type="Variable" Label="TrackFitTChi2" Expression="TrackFitTChi2"/>
          <Output Type="Variable" Label="TrackFitTNDoF" Expression="TrackFitTNDoF"/>
          <Output Type="Variable" Label="RichUsedAero" Expression="RichUsedAero"/>
          <Output Type="Variable" Label="RichUsedR1Gas" Expression="RichUsedR1Gas"/>
          <Output Type="Variable" Label="RichUsedR2Gas" Expression="RichUsedR2Gas"/>
          <Output Type="Variable" Label="RichAboveMuThres" Expression="RichAboveMuThres"/>
          <Output Type="Variable" Label="RichAboveKaThres" Expression="RichAboveKaThres"/>
          <Output Type="Variable" Label="RichDLLe" Expression="RichDLLe"/>
          <Output Type="Variable" Label="RichDLLmu" Expression="RichDLLmu"/>
          <Output Type="Variable" Label="RichDLLk" Expression="RichDLLk"/>
          <Output Type="Variable" Label="RichDLLp" Expression="RichDLLp"/>
          <Output Type="Variable" Label="RichDLLbt" Expression="RichDLLbt"/>
          <Output Type="Variable" Label="InAccMuon" Expression="InAccMuon"/>
          <Output Type="Variable" Label="MuonBkgLL" Expression="MuonBkgLL"/>
          <Output Type="Variable" Label="MuonMuLL" Expression="MuonMuLL"/>
          <Output Type="Variable" Label="MuonIsLooseMuon" Expression="MuonIsLooseMuon"/>
          <Output Type="Variable" Label="MuonIsMuon" Expression="MuonIsMuon"/>
          <Output Type="Variable" Label="MuonNShared" Expression="MuonNShared"/>
          <Output Type="Variable" Label="InAccEcal" Expression="InAccEcal"/>
          <Output Type="Variable" Label="EcalPIDe" Expression="EcalPIDe"/>
          <Output Type="Variable" Label="EcalPIDmu" Expression="EcalPIDmu"/>
          <Output Type="Variable" Label="InAccHcal" Expression="InAccHcal"/>
          <Output Type="Variable" Label="HcalPIDe" Expression="HcalPIDe"/>
          <Output Type="Variable" Label="HcalPIDmu" Expression="HcalPIDmu"/>
          <Output Type="Variable" Label="PrsPIDe" Expression="PrsPIDe"/>
        </Output>
      </Selection>
      <Class ClassIndex="0">
        <Ranges>
          <Range Index="0" Min="1.1012600097656250e+03" Max="4.8593015000000000e+06"/>
          <Range Index="1" Min="3.0448451638221741e-01" Max="9.3491425000000000e+05"/>
          <Range Index="2" Min="1.9467521458864212e-02" Max="2.9999947547912598e+00"/>
          <Range Index="3" Min="4.0000000000000000e+00" Max="3.1000000000000000e+01"/>
          <Range Index="4" Min="-9.8484970092773438e+01" Max="8.8849097490310669e-01"/>
          <Range Index="5" Min="-9.9900000000000000e+02" Max="1.0000000000000000e+00"/>
          <Range Index="6" Min="-9.9900000000000000e+02" Max="4.9964072265625000e+03"/>
          <Range Index="7" Min="3.9233287679962814e-04" Max="6.3616138458251953e+01"/>
          <Range Index="8" Min="1.0000000000000000e+00" Max="2.7000000000000000e+01"/>
          <Range Index="9" Min="0.0000000000000000e+00" Max="1.0000000000000000e+00"/>
          <Range Index="10" Min="0.0000000000000000e+00" Max="1.0000000000000000e+00"/>
          <Range Index="11" Min="0.0000000000000000e+00" Max="1.0000000000000000e+00"/>
          <Range Index="12" Min="0.0000000000000000e+00" Max="1.0000000000000000e+00"/>
          <Range Index="13" Min="0.0000000000000000e+00" Max="1.0000000000000000e+00"/>
          <Range Index="14" Min="-9.9900000000000000e+02" Max="7.7782600402832031e+01"/>
          <Range Index="15" Min="-9.9900000000000000e+02" Max="6.7755699157714844e+01"/>
          <Range Index="16" Min="-9.9900000000000000e+02" Max="9.6952201843261719e+01"/>
          <Range Index="17" Min="-9.9900000000000000e+02" Max="7.2356697082519531e+01"/>
          <Range Index="18" Min="-9.9900000000000000e+02" Max="6.0552398681640625e+01"/>
          <Range Index="19" Min="0.0000000000000000e+00" Max="1.0000000000000000e+00"/>
          <Range Index="20" Min="-9.9900000000000000e+02" Max="2.2900000214576721e-02"/>
          <Range Index="21" Min="-9.9900000000000000e+02" Max="0.0000000000000000e+00"/>
          <Range Index="22" Min="0.0000000000000000e+00" Max="1.0000000000000000e+00"/>
          <Range Index="23" Min="0.0000000000000000e+00" Max="1.0000000000000000e+00"/>
          <Range Index="24" Min="0.0000000000000000e+00" Max="7.0000000000000000e+01"/>
          <Range Index="25" Min="0.0000000000000000e+00" Max="1.0000000000000000e+00"/>
          <Range Index="26" Min="-9.9900000000000000e+02" Max="4.3412737846374512e+00"/>
          <Range Index="27" Min="-9.9900000000000000e+02" Max="2.6451730728149414e+00"/>
          <Range Index="28" Min="0.0000000000000000e+00" Max="1.0000000000000000e+00"/>
          <Range Index="29" Min="-9.9900000000000000e+02" Max="3.1279697418212891e+00"/>
          <Range Index="30" Min="-9.9900000000000000e+02" Max="2.6101636886596680e+00"/>
          <Range Index="31" Min="-9.9900000000000000e+02" Max="3.4631350040435791e+00"/>
        </Ranges>
      </Class>
      <Class ClassIndex="1">
        <Ranges>
          <Range Index="0" Min="1.1618199462890625e+03" Max="1.8737454687500000e+05"/>
          <Range Index="1" Min="1.4652820587158203e+01" Max="8.9685751953125000e+03"/>
          <Range Index="2" Min="5.5084533989429474e-02" Max="2.9996087551116943e+00"/>
          <Range Index="3" Min="5.0000000000000000e+00" Max="3.1000000000000000e+01"/>
          <Range Index="4" Min="-9.0089256286621094e+01" Max="3.2179504632949829e-01"/>
          <Range Index="5" Min="-9.9900000000000000e+02" Max="1.0000000000000000e+00"/>
          <Range Index="6" Min="-9.9900000000000000e+02" Max="4.3431323242187500e+03"/>
          <Range Index="7" Min="2.0035738125443459e-02" Max="5.5390068054199219e+01"/>
          <Range Index="8" Min="2.0000000000000000e+00" Max="2.7000000000000000e+01"/>
          <Range Index="9" Min="0.0000000000000000e+00" Max="1.0000000000000000e+00"/>
          <Range Index="10" Min="0.0000000000000000e+00" Max="1.0000000000000000e+00"/>
          <Range Index="11" Min="0.0000000000000000e+00" Max="1.0000000000000000e+00"/>
          <Range Index="12" Min="0.0000000000000000e+00" Max="1.0000000000000000e+00"/>
          <Range Index="13" Min="0.0000000000000000e+00" Max="1.0000000000000000e+00"/>
          <Range Index="14" Min="-9.9900000000000000e+02" Max="1.0824089813232422e+02"/>
          <Range Index="15" Min="-9.9900000000000000e+02" Max="5.5586601257324219e+01"/>
          <Range Index="16" Min="-9.9900000000000000e+02" Max="4.2223701477050781e+01"/>
          <Range Index="17" Min="-9.9900000000000000e+02" Max="4.5692901611328125e+01"/>
          <Range Index="18" Min="-9.9900000000000000e+02" Max="5.2251998901367188e+01"/>
          <Range Index="19" Min="0.0000000000000000e+00" Max="1.0000000000000000e+00"/>
          <Range Index="20" Min="-9.9900000000000000e+02" Max="1.6300000250339508e-02"/>
          <Range Index="21" Min="-9.9900000000000000e+02" Max="0.0000000000000000e+00"/>
          <Range Index="22" Min="0.0000000000000000e+00" Max="1.0000000000000000e+00"/>
          <Range Index="23" Min="0.0000000000000000e+00" Max="1.0000000000000000e+00"/>
          <Range Index="24" Min="0.0000000000000000e+00" Max="4.3000000000000000e+01"/>
          <Range Index="25" Min="0.0000000000000000e+00" Max="1.0000000000000000e+00"/>
          <Range Index="26" Min="-9.9900000000000000e+02" Max="4.0547904968261719e+00"/>
          <Range Index="27" Min="-9.9900000000000000e+02" Max="2.6451730728149414e+00"/>
          <Range Index="28" Min="0.0000000000000000e+00" Max="1.0000000000000000e+00"/>
          <Range Index="29" Min="-9.9900000000000000e+02" Max="2.4863731861114502e+00"/>
          <Range Index="30" Min="-9.9900000000000000e+02" Max="2.6101636886596680e+00"/>
          <Range Index="31" Min="-9.9900000000000000e+02" Max="3.4631350040435791e+00"/>
        </Ranges>
      </Class>
      <Class ClassIndex="2">
        <Ranges>
          <Range Index="0" Min="1.1012600097656250e+03" Max="4.8593015000000000e+06"/>
          <Range Index="1" Min="3.0448451638221741e-01" Max="9.3491425000000000e+05"/>
          <Range Index="2" Min="1.9467521458864212e-02" Max="2.9999947547912598e+00"/>
          <Range Index="3" Min="4.0000000000000000e+00" Max="3.1000000000000000e+01"/>
          <Range Index="4" Min="-9.8484970092773438e+01" Max="8.8849097490310669e-01"/>
          <Range Index="5" Min="-9.9900000000000000e+02" Max="1.0000000000000000e+00"/>
          <Range Index="6" Min="-9.9900000000000000e+02" Max="4.9964072265625000e+03"/>
          <Range Index="7" Min="3.9233287679962814e-04" Max="6.3616138458251953e+01"/>
          <Range Index="8" Min="1.0000000000000000e+00" Max="2.7000000000000000e+01"/>
          <Range Index="9" Min="0.0000000000000000e+00" Max="1.0000000000000000e+00"/>
          <Range Index="10" Min="0.0000000000000000e+00" Max="1.0000000000000000e+00"/>
          <Range Index="11" Min="0.0000000000000000e+00" Max="1.0000000000000000e+00"/>
          <Range Index="12" Min="0.0000000000000000e+00" Max="1.0000000000000000e+00"/>
          <Range Index="13" Min="0.0000000000000000e+00" Max="1.0000000000000000e+00"/>
          <Range Index="14" Min="-9.9900000000000000e+02" Max="1.0824089813232422e+02"/>
          <Range Index="15" Min="-9.9900000000000000e+02" Max="6.7755699157714844e+01"/>
          <Range Index="16" Min="-9.9900000000000000e+02" Max="9.6952201843261719e+01"/>
          <Range Index="17" Min="-9.9900000000000000e+02" Max="7.2356697082519531e+01"/>
          <Range Index="18" Min="-9.9900000000000000e+02" Max="6.0552398681640625e+01"/>
          <Range Index="19" Min="0.0000000000000000e+00" Max="1.0000000000000000e+00"/>
          <Range Index="20" Min="-9.9900000000000000e+02" Max="2.2900000214576721e-02"/>
          <Range Index="21" Min="-9.9900000000000000e+02" Max="0.0000000000000000e+00"/>
          <Range Index="22" Min="0.0000000000000000e+00" Max="1.0000000000000000e+00"/>
          <Range Index="23" Min="0.0000000000000000e+00" Max="1.0000000000000000e+00"/>
          <Range Index="24" Min="0.0000000000000000e+00" Max="7.0000000000000000e+01"/>
          <Range Index="25" Min="0.0000000000000000e+00" Max="1.0000000000000000e+00"/>
          <Range Index="26" Min="-9.9900000000000000e+02" Max="4.3412737846374512e+00"/>
          <Range Index="27" Min="-9.9900000000000000e+02" Max="2.6451730728149414e+00"/>
          <Range Index="28" Min="0.0000000000000000e+00" Max="1.0000000000000000e+00"/>
          <Range Index="29" Min="-9.9900000000000000e+02" Max="3.1279697418212891e+00"/>
          <Range Index="30" Min="-9.9900000000000000e+02" Max="2.6101636886596680e+00"/>
          <Range Index="31" Min="-9.9900000000000000e+02" Max="3.4631350040435791e+00"/>
        </Ranges>
      </Class>
    </Transform>
  </Transformations>
  <MVAPdfs/>
  <Weights>
    <Layout NLayers="3">
      <Layer Index="0" NNeurons="33">
        <Neuron NSynapses="44">
          -2.1561790737156081e+00 1.9228948944937569e+00 1.3248314575146616e+00 1.5807801771295935e+00 9.1623847061580915e-02 -1.4415794319615955e+00 -7.9108316171097304e-01 1.1808917453437142e+00 -1.1668367333406962e+00 -1.4538592402573074e+00 -2.2323580179376834e+00 -9.3333743163716731e-01 -1.0402564257189939e+00 1.9666947629649689e+00 -2.4364101663106479e+00 1.0541174206266379e+00 -1.1493819228471016e+00 6.8272631270440876e-01 -5.9562427171422003e-03 1.0415970988972589e+00 -1.9965957248638861e+00 -9.0174780232521623e-01 1.0771220498974132e+00 -3.7408943725052712e-01 -3.5730797541249442e+00 2.4148201212391256e+00 3.5130986017159924e+00 -8.6246441871637480e-01 -3.2526095052458275e+00 5.1916741675415645e-01 7.0491714384184903e+00 1.5474645813176326e+00 -8.8858457295726079e-01 -3.8292884546137090e-01 1.1094831905178744e+00 -9.8572750967862402e-02 3.7666791759372803e-01 3.4565526003161740e+00 -1.2437208350113924e+00 1.3017018860945464e+00 8.0460802138855225e+00 2.7445865000826521e+00 2.2392072444674587e+00 6.8401836826848861e+00 
        </Neuron>
        <Neuron NSynapses="44">
          3.2585291890664543e+00 -1.4945488217359695e+00 8.6558165678906529e-01 -9.0635353141141406e-02 7.6190618759607256e+00 1.7031979277564051e+00 1.6963545732813570e+00 7.2615978735658815e-01 -1.3995362816417627e+00 1.3825731169309952e+00 -2.3075950175433122e+00 -1.4927441354261612e+00 -1.1245343493612390e+00 6.3132740637991214e-01 -1.3543353158667359e+00 1.0693455102686968e+00 -1.4465222052323501e+00 -9.8682698772370925e-01 -6.3683960875691281e-01 3.0700765925873968e-01 1.7289544525662763e+00 -9.7918593500192677e-02 1.2418839427017649e+00 -2.5427663070582542e+00 1.6187500301438509e-01 -7.7342771428048582e+00 1.3212229669198572e-01 -1.2029658903578091e+00 1.5820543309524875e+00 1.4499932704324343e+00 -1.2332535868984580e+00 -3.4711933096245629e-01 -2.4851185503945525e+00 -2.0191444550860638e+00 2.0472204366630042e+00 6.1176580600230979e-01 -3.5633852865914328e-01 -3.1078075956147102e+00 7.3933944117156769e-01 -8.4450915669448756e-01 1.6131992810236699e+01 -5.1900386374626510e+00 3.1697265603436420e-01 -4.4046148075190290e+00 
        </Neuron>
        <Neuron NSynapses="44">
          -2.1477815298558323e-01 -1.1756730970147236e+00 -6.2450902432812405e-01 -3.0387578558085879e+00 1.8045689581914512e+00 -4.0111812172418890e+00 -1.7014406314524226e+00 1.7506948325976768e+00 -1.2927236785395715e-01 -1.2141570243463509e+00 -1.5874985346188295e+00 -1.3060958919384680e+00 -1.3550710358483977e+00 -6.8328092439286170e+00 2.6230510061813934e+00 1.6347591498103824e+00 -4.9262289147892546e-01 -1.4352318720878936e+00 1.0077171643483853e+00 1.4031340795450582e+00 1.8754718408537249e-01 -8.3186588710067522e-01 -1.2605612547358043e-02 1.4982720288775828e-01 -1.5524889766801455e+00 -1.5087759773987242e-01 -1.2014931642220472e+00 1.8464960669551582e+00 -5.1403014075797007e+00 -5.2682561047331884e+00 -1.0710204629186978e-01 2.5530035630031076e+00 -1.2267628437669416e+00 1.3530584874814133e+00 -1.6706056037740308e-01 1.6390484443379000e-01 -1.8931779218174840e+00 1.2724909807053744e+00 6.9759916318887027e-01 2.6869390041248926e+00 3.2864404421429144e-01 2.4114463385022811e+00 3.6988149448820580e+00 -8.2522695882586428e-01 
        </Neuron>
        <Neuron NSynapses="44">
          4.0815570201890683e+00 3.1809869598890567e-01 7.3125736889296900e-01 1.8356785524884802e+00 -4.1172628091297909e+00 1.4031530576844711e+00 -5.0652448226394808e-01 1.3716295164901566e+00 1.9707546487030303e+00 3.7342714832279578e-01 -3.6237167969593576e+00 -2.2439546138220701e+00 -1.8965701869450911e+00 8.1292115238484399e+00 -2.5971057847059575e+00 -2.6810738744967894e-01 -1.7154266091331887e+00 -2.7958219208135153e+00 -2.9785087460039654e+00 1.6856577900186389e+00 6.9927082439148158e+00 -3.2063494496425005e-01 -3.3411056527822915e+00 3.1166275516526749e+00 5.7878688846082449e+00 -1.2033596680691756e+00 -1.7704437597836681e-01 -2.2469951912994324e+00 1.3469773061583325e+01 2.6778510254422314e+00 4.1185377999516568e+00 2.0848459885278094e+00 7.7884927568814877e-01 -2.0408413794694713e+00 8.5049109354999319e-01 2.1224149578238088e-01 1.8729265445541872e+00 -2.1377564543873722e+00 2.8805915964682569e+00 -2.9206122105934690e-01 -8.7450460250239481e-01 -3.2855835811180643e+00 1.8470240168129248e+00 -1.7507899877889717e+01 
        </Neuron>
        <Neuron NSynapses="44">
          -2.8306124639449565e-01 1.0648532429743585e+00 2.4520308267130531e-02 -4.2442179278248808e+00 -3.4229700471967552e+00 1.2985236304540202e+00 3.1993071353606983e+00 -6.4109528515099603e+00 -2.2142282626086076e+00 -2.0327914886937473e-01 2.8765672660053778e+00 1.6243972881250244e+00 -1.2680495477858508e-01 8.5604054918765264e+00 -1.2067112396598944e+01 7.4349433628859307e-01 4.3603291500311753e-01 2.0005337957563615e-01 -1.8372246619904116e+00 7.0584228347187361e-01 -2.7675173923167079e-01 4.7873056381937085e-01 9.8365853861503716e+00 -7.4323649465643571e-01 9.0009891288908694e-01 3.5290199780360365e-01 -9.1841786392112146e-01 -1.8796339430063613e+00 4.8968218328298700e+00 5.1157410426692440e+00 2.5278949115630323e-01 -1.9818867316608286e+00 1.7920667157972858e+00 1.4315620936978271e+00 -7.0594707529422640e-01 3.5652944740446300e-02 -7.1491090162830924e+00 1.2127821167389752e+00 3.8219347064608988e+00 1.3071361102844530e+00 -2.0869282206687131e-01 -1.3439179626539171e+00 5.8161651934884051e-01 5.0584638220220224e-01 
        </Neuron>
        <Neuron NSynapses="44">
          -6.1525186866857489e+00 -6.9056100363453887e-01 -1.9725742766140282e+00 1.7694119724692179e+00 2.2732867929123513e-01 -2.2591570052829781e+00 1.1084593593418717e+00 4.5723624494189785e-01 -2.3599152639467866e+00 -1.1368425091148691e+00 2.3231582273146962e+00 1.0658124646791685e+00 7.9631399953524618e-01 -1.0733402263798393e+00 4.7167840357195852e+00 -1.9542221557840125e+00 1.7343048592888715e+00 4.9842195549279400e-01 -1.6844304064746081e+00 -8.6874178378615974e-01 -2.1996884513234494e+00 -3.8080954072369705e-01 -3.3682674501209178e+00 -2.2163988831890364e+00 -6.4253081084216424e-01 7.7550918589938469e+00 -2.6904830111859055e+00 -1.8027603343905008e+00 3.9108757905536939e+00 -1.2386439850480950e+00 -3.7114964931454042e-01 -1.2912105849692537e+00 7.7013010073389920e-01 2.1946614084383231e+00 1.8049935609706831e+00 -9.9456471121641243e-01 -4.3552886934043850e-01 -7.0334240868324216e-01 -1.1201694628039045e+00 -2.6746419328090889e+00 -1.7178814706525838e+01 6.8272153060266669e+00 2.2702485297032142e+00 -1.5300702442079679e+00 
        </Neuron>
        <Neuron NSynapses="44">
          -1.9797010340690527e-01 -9.3577185698039900e-01 -1.3939179153324099e+00 1.4190142880412615e+00 8.0528275064891108e+00 -1.3378701820226089e+00 -9.4931715062152744e-01 8.2126942529747171e-01 9.7960292352147837e-01 9.6649214117895677e-02 -1.2768651252330110e+00 -7.9390192964717488e-01 1.7625812753983592e+00 6.6064845176194398e-01 -4.3079287679903699e-01 1.0682575962488726e-01 2.9564462332468445e-02 -2.5318683646305418e-01 -1.8119408372645835e+00 -7.0469059295600300e-01 -3.3850049618861346e+00 -1.4071908924569967e+00 -9.1751120319677315e-01 1.6509221487936485e+00 -2.3602541664752450e+00 -1.8364766459376708e-01 -5.3556132852720983e-01 1.2738327478570441e+00 -2.3243805002373419e+00 1.2139483058807898e+00 1.0641780296679362e-01 -1.7645379872513938e+00 -2.9461243640374590e-01 -4.5597621344621975e-01 -4.6532693193650623e+00 -1.3780242388367361e+00 1.2181787484802682e+00 -4.6184774520855498e+00 2.4764721247820087e-01 -1.8230181677960966e-01 1.6649021762077869e+01 -7.6952535902200774e+00 -7.7379411732118475e-01 7.4386542261619959e-01 
        </Neuron>
        <Neuron NSynapses="44">
          4.4060531827970834e-01 1.3755544319052280e+00 1.3816307761543087e-01 1.1176578572547096e+00 -1.8790025717518068e+00 3.8640761181063321e+00 1.4562951965782245e+00 -2.6606698577517425e+00 2.2035228229154895e+00 1.0806790018312731e+00 2.9589376165363985e+00 -8.3591433200884024e-01 3.0998866987738407e+00 6.6906639810373223e+00 -2.3593888112428072e+00 -8.7163279057048371e-01 -3.5425688516224901e-01 2.0818677234163374e+00 -1.0339975252818448e-01 -7.5144059025089116e-01 3.7897381284029645e+00 7.6389028443261509e-01 3.1725314075667260e-01 -1.1418764685709397e+00 -1.2805169059573315e-01 1.6435050842349533e-01 2.4880171813319953e+00 8.1420942905055138e-01 5.6706852278735491e+00 4.1608601013844897e+00 2.1878091845675188e-01 -1.2291419028101767e+00 -9.8325082083307069e-01 -6.9974321231614112e-01 1.7258445300854932e+00 -6.7561158512294595e-01 4.3159000617924548e-01 -1.3567519179775731e+00 -1.0202460845079941e+00 3.1299712264855101e-01 -2.1019012316821736e-01 -2.7480410611231316e+00 -3.2488306376362979e+00 9.4538415525512243e-01 
        </Neuron>
        <Neuron NSynapses="44">
          -4.4721449610134245e+00 -1.2169379750352380e+00 -5.0273886977816473e-01 -3.2983842368588014e+00 4.3134078295113172e+00 -1.7768879983477239e+00 -3.2884490919183076e+00 -1.7788321504494098e+00 2.6115371983437488e+00 -1.1014609367610400e+00 -4.0647924716380840e-01 -9.6429626351141495e-01 4.7917961570279499e-01 -9.9599020346107849e+00 -8.8820570557026202e-01 -3.2570010601696864e-01 -3.3185385059622230e+00 2.5689386761163311e+00 -1.0330926536191343e-01 -1.4966760476750482e+00 -1.2312751130046542e+00 6.9995040417602217e-01 -2.3886003895523382e+00 5.2857723969735373e+00 -5.4884805231975053e-01 1.8027153777406205e-01 -5.5145444264655419e-01 4.5257072585145430e-01 -1.7016252612202440e+01 -2.0796355875171417e+00 -4.2623453484818663e+00 2.5460574025762661e-01 7.2344327421207943e-01 -1.6620323371108430e+00 1.7889130481829578e+00 -1.2084096557445936e-01 -1.9073930404305413e+00 1.5741247354615513e+00 2.4935995626522756e+00 4.8953748889750953e-01 8.3433360034601323e-01 5.2472319855411662e+00 6.0386606631916240e-01 1.6239123819498335e+01 
        </Neuron>
        <Neuron NSynapses="44">
          2.9912046965799526e+00 -3.0908357055029062e-01 1.9544372993062307e+00 -1.7344065169204879e+00 -3.3821602082256674e-01 1.0417151392166493e+00 -2.7544851390234881e-01 -1.7445128503073322e+00 3.5991301496445067e+00 1.3258155918797479e-01 2.9891927132674132e+00 1.4185477445366970e-01 -5.2232860633706268e-01 3.2233382297363415e+00 -6.5787368053999970e-02 -9.4138523466015822e-01 3.5050191450391495e+00 -2.6509323711080652e+00 3.0099803969044353e-01 -5.7924309170695532e-01 -2.0025235444056347e-01 2.2676814509525492e-01 3.0933997045933976e+00 -2.4602139036041690e-01 5.8580994940585239e-02 1.4952526913085759e-02 6.9550819265497654e-01 -1.6369522903690734e+00 3.3140081525241033e-01 5.3236074800486788e-01 -4.4659784514083345e-01 -1.9494923401852962e+00 -1.3288157585900189e+00 6.1137363579708326e-01 -3.6536383385673443e-02 -1.9555291761324270e-01 -2.8363911896050048e-01 2.3321290354702073e+00 5.7033536367937581e+00 1.3616887473900900e+00 6.5065567456750295e-02 -2.4325165531036363e-01 -5.7365925271088372e-02 -7.0663924938077244e-02 
        </Neuron>
        <Neuron NSynapses="44">
          -7.5051193579940669e+00 6.5792952265797566e-01 3.9929945229355041e-01 1.4163281682300231e+00 3.9741268001877472e-01 5.4819026471948451e+00 2.5309194708741556e+00 -1.1562692061661479e+00 -1.3428067412791309e+00 3.7844138098941832e-01 3.2795850790513201e+00 -4.1894410449205672e+00 -7.0035240586579381e-02 4.9152166913390777e-01 5.3359349738687483e+00 -1.0034719011088515e+00 4.4934711330473787e-01 -1.5789561928231735e+00 1.9894616000625684e-01 1.0181016232942337e+00 1.0444875782222089e-01 6.1015914411869954e-01 2.3316828862800900e+00 -7.3939813574294311e-01 4.4703586534819273e+00 2.7019383580347883e-01 -2.3761531286999045e+00 -1.4962616478731705e+00 4.5422405430652973e-01 5.7460651623255288e+00 -7.5749594879560150e-02 -3.7170641155564821e-01 -1.6597786571172866e+00 1.8555210678714038e+00 1.2147356706128619e-01 -2.0203570327277206e-02 -1.8493325374806444e+00 -2.2778013849632436e-01 -3.4306002776881128e-01 9.2574628485896493e-01 6.9038075305658198e-02 1.6610049815728212e-01 4.9355334922303190e-01 2.0431579784852907e-01 
        </Neuron>
        <Neuron NSynapses="44">
          -4.6720592106715635e-02 -3.3626660508664291e-01 -1.1373345769084737e+00 -2.3736314631065274e+00 -1.5935618610673202e-01 -1.3356061368029244e+00 -8.3640495575958940e-01 -3.3142374932168330e+00 -1.2139380045929578e+00 4.8758576115396274e-01 6.5906289879070312e-01 -2.8421389033630784e+00 7.7064168497984906e-02 -7.6820312345829977e-01 -3.7617390769787301e-01 -1.7691131015584458e-01 -2.0610830041359103e+00 2.9907719472746646e+00 7.0151208199300330e-01 1.2790447262418545e+00 -1.8344713593546069e+00 7.5913706117220414e-01 3.2561581442688947e+00 1.0922411457623037e-01 -8.7043584691048906e-02 -4.2799665989626839e-01 2.1231651458270466e+00 -9.5300286030802028e-01 -1.8579719822167509e-01 4.0838999688756972e-01 1.6341920067839616e-01 -9.0426632036492327e-01 -9.6306706515760643e-01 6.3286562310586991e-01 1.9518104834787273e-01 -6.1500734265527938e-03 1.0868284911247586e-01 3.2439275538872969e-01 2.3957001330509473e+00 -1.8237360407428020e+00 4.6768853909131894e-02 -6.2516275778654284e-01 6.7199676255742274e-02 8.5876596731158772e-02 
        </Neuron>
        <Neuron NSynapses="44">
          -4.8432118787412404e-01 -1.0986239056518048e+00 -4.4287742637691302e-01 -3.4813074290325491e-01 2.8733939320426654e+00 -6.4373073786664803e-01 -1.9033491246185791e-01 -2.3446765235833142e-01 -9.3289715348368396e-01 -9.5039104949577652e-02 -1.5206585957901215e+00 -9.8509152500349506e-01 -1.1847094410157939e+00 3.2576599683488874e-02 -1.4608423073295448e-01 -1.9629188975336846e+00 7.9032852309347346e-01 4.1205182670030869e+00 3.8017298510263570e-01 -8.3029590574021817e-01 5.4446707850447362e+00 1.5080623283216413e-02 -6.1765920142902331e-01 -8.1662957590992180e-01 -2.3515738140534483e+00 1.5206744443022449e+00 9.1899860868738992e-01 -1.8353020379835925e+00 1.3264317803051398e-01 -2.8438643463631530e-01 5.2325836866132107e+00 -2.8604836755461966e+00 1.7311852008041639e+00 1.6634575345153439e+00 6.7103646987379708e+00 1.3276964614128774e+00 -3.4168786238558986e+00 -2.2397977045348080e-01 2.5524737931037811e-01 -1.7303972015043911e+00 -4.0069937733426170e-01 2.7664165963304643e-01 -3.5866106840238027e-01 5.5554491194162087e-02 
        </Neuron>
        <Neuron NSynapses="44">
          -2.9352950033078884e-01 1.1296001081968787e+00 6.0374409880507396e-01 -2.9425053071213330e+00 -1.5834995988314537e-01 5.3108386218562365e-01 -1.5502670708507887e-01 -3.3119783510944520e+00 3.2818032580466711e-01 -1.1755322601370852e-01 2.3852676692575381e+00 -1.4931504159225879e+00 -2.0514302087575467e-01 -3.0475160241947514e+00 -1.2469070685768897e-01 7.6536236113471856e-01 -5.7555633240445159e-01 4.5090232527278590e-02 -2.0024425795094278e+00 -2.0472353087687131e-01 1.0870067513960857e+00 -8.4689270663546323e-01 -3.1627174413111936e+00 2.2440887219470972e-02 5.4442413422978930e+00 -1.1008412349789670e-01 -1.8059792615633368e+00 -6.7419947396814850e-01 4.6210112371961085e-02 4.8527141196008206e+00 6.2068117446277977e+00 -1.2841444371805601e+00 7.5731278768428500e-01 4.7573036101979294e-01 2.6105981099659208e+00 1.0323637973797194e-01 1.1774543835232959e-01 -1.0871768512286779e-02 9.7694583492152087e-01 4.2096148643051751e-01 -7.3923552804417425e-02 1.9050768518394195e-01 -4.1070546487401066e-01 1.5151646613645234e-01 
        </Neuron>
        <Neuron NSynapses="44">
          5.2354629445090218e+01 2.5652405544098955e+00 -1.2464936846308119e+00 -1.0234127753004862e+00 1.4497895988606613e+01 1.8283210855597660e+00 2.5517898486071195e+00 7.9358300146557015e-01 -1.4626366420759163e+00 -1.6953424953986140e+00 -3.0742618015608021e+00 -4.3633185963534462e+00 -1.6780835660802269e+00 4.4592532544172228e+00 -6.7668691226726860e+00 -1.0594064132141152e+00 4.0160391079123112e+00 -1.2837660082857250e+01 -2.0230602112519587e+00 2.2751307073785050e+00 7.2593254255310879e-01 1.4849595838651151e+00 1.1109645702581279e+01 -2.0438824962109203e+00 2.2400307580236176e+00 -4.3413838647287889e+01 -6.4991704210450163e-01 4.4206175671024661e-01 9.1453637018798339e+00 1.3457544008370006e+00 -2.0881255041134263e+01 1.8711140156636590e+00 2.4361921134909101e-01 1.2082498987758539e+00 -6.5799600270129321e-01 -4.0344469857231091e-01 -2.0385251279695775e+00 -2.8143224257286253e+01 2.1385252264886718e+00 4.7134569342416173e-02 5.2910924271547231e+00 -4.2066288614251377e+01 4.2988325702981269e+00 8.3304640152179521e-01 
        </Neuron>
        <Neuron NSynapses="44">
          -8.8886328169244120e+00 1.3493287143388815e+00 1.0057726503994842e+00 -2.1739320968052103e+00 3.9045768719328722e+00 -2.2457323456063070e+00 -2.6397092069565414e-01 2.3027449495087771e+00 8.9044026661113340e-01 3.0744802563889662e-01 -3.7057228972217446e+00 -1.5371016852454455e+00 -1.1209280907769918e+00 -5.3916197516629483e+00 1.6014119202504180e+00 -2.1002588466942416e+00 2.5751172584659794e+00 -4.1514570446077215e-01 1.7159631766275649e-01 -2.5056269232796025e-01 1.1954113920919929e+00 -1.6462822471719658e-02 3.9893060160642319e-01 -1.1118429596704420e+00 1.0461561414267013e+00 1.0049254276974000e+00 1.4775691982971113e+00 -7.0384959311566753e-01 -3.3534927660582454e+00 -3.2533545169759899e+00 -1.4303967541055558e+00 1.8116076625114930e+00 1.0357334680181005e+00 1.0759589499667430e+00 -7.7900697661883800e-01 -2.9476571856727325e-02 1.9225777599398108e+00 1.2750196307301991e+00 -1.3594238424291123e+00 1.6185367820552934e+00 -3.6634758877192763e+00 6.4594543990735023e+00 1.8883068154594951e+00 2.0487356305106088e+00 
        </Neuron>
        <Neuron NSynapses="44">
          -8.4391342268932110e+00 -9.1281472930302821e-01 -8.6136115149809855e-01 -1.1833987031508943e+00 5.1080241025007531e+00 -6.4101140221571162e-01 -9.2786774642633407e-01 3.3323504971792173e-01 7.9444252516790903e-01 -4.5784497493959531e-01 -3.8049310609171466e-01 1.3980740289243482e-01 7.1263362802618069e-01 -1.7525767758082385e+00 1.0732768008825966e+00 -6.1847895189172231e-01 -1.8091896385213360e+00 1.8536940870841323e+00 -1.3587966128562907e+00 -9.5776775977461457e-03 -1.6043373395496335e-01 -2.1073106874618952e-01 3.2836364471123702e-02 1.7888143510375334e-01 -2.4666098478175810e-01 6.9235544330718799e+00 1.9105184266057760e+00 -1.1814507576338857e+00 -2.0655577246467643e-01 1.6044853201147604e+00 4.0063893755273385e+00 2.6100345135667413e-01 3.1617310352091277e-01 1.2689983866043564e+00 -1.6622307559835612e+00 7.2180377766465617e-02 1.5114912955780682e+00 6.0322067839223639e+00 -2.6207934832737454e+00 8.3607521613186075e-01 -7.2444012048936024e-01 4.2934156158466852e+00 3.3544670700195587e+00 7.7866968140370574e-01 
        </Neuron>
        <Neuron NSynapses="44">
          -3.8739212103620919e+00 -7.2327152522229987e-01 -4.0917196988135257e-01 8.7577850098975296e-01 7.6221113978476227e+00 -9.4997453482142252e-02 7.5357111480512007e-01 -8.7902981241537670e-01 2.7518351908127536e-01 -3.6013924810472148e-01 -1.3307602098052089e+00 9.8656532714493428e-01 -6.6735770481385381e-01 1.9504242600752966e+00 -1.5241890371024329e+00 -1.3410590191009109e+00 6.4442832075834355e-01 -1.9760160460063694e+00 -1.0010606866290002e+00 -6.7075160436150771e-01 -3.2035695454187891e+00 -1.3763015498957143e+00 -3.6993458034863154e-02 6.1385223674816869e-01 -1.6488626935768684e+00 1.9462617181486979e+00 8.8885220041563784e-01 -1.1968276818796684e+00 -2.7189906942116160e+00 1.1782195322468438e+00 7.4584101218411081e-01 -4.8864819846898172e-01 -9.2135203951741751e-01 9.3731013092383753e-01 9.9417941453870440e-01 -6.4367794431561787e-01 -4.3534700313029623e-01 2.2740551205636153e+00 -2.9676773671110999e+00 -1.5474932420826615e+00 4.0316275017604335e+00 -6.0900214710848333e-01 2.9211792223094242e+00 -6.0670590432657407e+00 
        </Neuron>
        <Neuron NSynapses="44">
          -7.2720942017527950e+00 -6.2047759917566996e-02 1.0142748755147928e+00 1.1089282466395283e+00 6.1280646973955333e-01 2.2124317360289955e-01 2.8251903463234376e-02 -1.9190485481938924e+00 1.2769684213277299e+00 5.4454662022453526e-01 1.1061740568652938e+00 -1.2710209865980533e+00 -2.3136921111387871e+00 5.3025597803161018e-01 4.7554994043064291e-02 -1.9036215525603597e+00 -1.6217418270454858e+00 -1.5314764093840192e+00 2.0893788642766200e+00 -1.1204099147554316e+00 -3.2975280512266902e+00 -3.5234955246725891e-01 -6.6651928934323079e-01 1.3662914264259518e+00 -4.9519199869305437e+00 3.5012185884559655e+00 5.5322842702669972e-01 -5.5607354070810988e-01 -3.0606623247852864e+00 9.1416987332434241e-01 6.1267212095061714e+00 -2.1879118366999393e+00 1.4547195799731865e+00 -4.0895793579090445e-01 5.8087218375162253e-01 1.3991330653233531e-02 4.2857377828644818e+00 5.0911317914960712e+00 -1.2058469696615479e+00 1.8870398987137011e+00 -4.3354549988895279e+00 2.5145352336370332e+00 2.1003293458004375e+00 2.2740269358157676e+00 
        </Neuron>
        <Neuron NSynapses="44">
          -6.3636123480450960e-02 -5.5777935711285165e-01 -1.1613026462231548e+00 -4.9031001761964808e-02 1.6689768795829418e-01 4.5500355602600759e+00 -1.6646768846265363e+00 5.4316558685531668e-01 -5.0168901351266004e-01 2.0319374741686916e-01 -1.3431948377963210e+00 -7.9391401203335277e-01 -2.0594989056897187e-01 -2.6416051508223065e-01 -2.7294101663070816e+00 -7.3267782942034643e-01 -2.7995471357260833e+00 -2.3730486827927679e+00 -6.9462126608245811e-01 2.7593326663000677e+00 1.9584379394192821e+00 6.4276611769102177e-01 1.4094437946465612e+00 -3.2191095496740059e+00 1.1979213566433917e-01 2.4757642290122092e+01 -1.4090927024500564e+00 4.1276163012975414e-01 3.1489754903973538e-01 4.9844672940422843e+00 1.4445055240503646e-01 -3.3842344071002128e+00 1.1072827724328622e+00 2.4924892523517395e+00 -2.6116681760614076e+00 1.4731948892278079e+00 5.4677094634160293e+00 1.1814099034702092e+01 -3.5802680859784384e+00 -4.3400828795352470e-01 -1.1525183011280368e-01 6.8539831750225000e-01 -2.7888416495156263e+00 1.7641898164991240e-01 
        </Neuron>
        <Neuron NSynapses="44">
          1.0277077206975378e+00 -1.4279171253581054e-02 -2.1590583576571674e+00 3.1417032036602638e-01 2.0495835535406320e-01 -2.3645021210001422e+00 -2.1078885080661420e+00 -5.4988541150439973e-01 2.0067340841926034e+00 3.7357163271969440e-01 1.3028888613405740e+00 2.0635683878439268e+00 7.5693605659775232e-01 -1.8469530967030087e-01 5.4604566992867110e-01 7.1714748004692574e-01 -1.4455138448827176e+00 -2.7416057309854684e+00 -8.2401353489337148e-01 6.3734829150368322e-01 -5.0015021085748923e-01 2.0919001851752554e+00 1.3227664853554020e+00 2.4977266966853010e-01 2.4709568988057469e+00 -7.9053689004072469e-01 1.2742892794914298e+00 1.6928313646807831e+00 1.7664906217485470e+00 4.4582255000530535e-01 2.3318476407332192e-01 -8.7081089438597448e-01 1.5160577956475956e+00 2.0039497648796982e+00 6.5204429769196964e-02 6.9485587387540237e-01 -4.7554281087590328e-01 1.2976016448569927e-01 -1.0223649430371504e+00 -3.8329201976491734e-01 -5.7872016904619139e-01 1.2218904028090480e+00 5.8726059860073387e-01 2.0209488801722431e-01 
        </Neuron>
        <Neuron NSynapses="44">
          -1.1681014088379520e+00 5.7052268501391323e-01 -1.1416833496766849e+00 4.4787227593099066e-01 1.0460298844583451e+00 -5.2850430526023240e-01 -1.0146376824549521e+00 -5.4682805339810048e-01 2.1438336116333452e+00 1.2130621213723840e+00 -1.2769203219454219e+00 1.7494696636617220e+00 -3.1236414944762997e-01 -3.3338872890757526e-01 -1.7698852524645587e+00 9.4287977908183973e-01 1.5886171852139679e+00 -2.5511554780386545e+00 2.2014470829123039e-02 1.8615708666035067e+00 4.3237786282226354e-01 -1.1013357850575749e+00 8.8023954852687791e-01 -1.5627870528647987e+00 2.6031363363208389e+00 7.9861454158107958e-01 -2.5553234867271404e+00 -5.2955468413922402e-01 1.7894652561286386e+00 -6.0747902907872997e-01 1.1832829733091190e+00 6.7710207411041001e-01 -2.0118223279975407e+00 -1.4175676238694035e+00 5.2477880314288083e-01 -3.7247623215567677e-01 2.5198654729351827e-01 1.3454962653035967e+00 1.7359816763155878e+00 1.2332494207229436e+00 3.9484723627801116e-01 1.4380638754813289e-02 1.8267875933442501e-01 -1.5928715164154108e+00 
        </Neuron>
        <Neuron NSynapses="44">
          -7.3528587215060240e-02 6.7158894462860619e-01 3.1494295028226921e-01 -1.6350879640228980e-01 -1.2365448925888383e+00 -1.5706238846871861e+00 -2.2839729608997663e+00 1.9093546165353315e+00 5.2605809716902818e-01 -1.9452508345489743e+00 -1.1100777024177082e+00 1.8474846858284777e+00 -3.9455968445972833e-01 9.5654700653131330e-01 6.8554697084553384e-01 -5.5245244161766516e-02 -3.6800861612971258e-01 -2.3993380288453929e+00 -4.4678936844976130e-01 1.9739615625306350e+00 1.6105803774366098e-01 -1.0534571770417154e+00 2.5577370415520031e+00 1.1023263120815610e+00 2.5906189360985574e+00 -5.1641935121759436e-02 7.0097673744121380e-01 -2.3640940217212203e-01 2.6027704061431849e+00 1.1552742774640102e-02 -1.3396346982603853e+00 -1.4074508658056923e+00 -1.7710150890724354e+00 -3.6517391581973468e-01 -6.6357874950399842e-01 -1.6790335764677863e-01 4.0472012105452143e-01 -1.4774036916495563e+00 -9.9890549811892226e-01 1.1274991381334825e+00 1.9826703806455151e-01 -1.4871449793692824e+00 -8.8597689699275917e-01 1.4830863254384135e+00 
        </Neuron>
        <Neuron NSynapses="44">
          -3.1331576233504209e-02 1.0623852060951243e-01 -1.1640025465179360e+00 -3.3490940405977948e-01 3.0471575572959122e-02 1.4952588891791760e-01 -7.9044965153198518e-02 1.2634087035350101e+00 2.9955613359417606e-02 7.8297014633597950e-02 7.7322092761530381e-01 -3.6217470203310870e-01 -1.5772704442073167e+00 -2.9445243380384994e-01 3.7081236808662704e-01 -1.4004686054171105e+00 1.7573340350234495e-01 -2.5331327039405256e+00 -1.0114743235067572e-02 1.2408103685506577e+00 -1.0292260567096943e-01 -2.3728234535837620e-01 -5.5496443004068896e-01 2.4300299085080215e-01 1.3149903132575056e+00 1.6501426420521217e-01 1.5573833554534777e+00 -1.3486568427900132e+00 2.2860631677348207e+00 -1.7777553962601687e+00 1.4521219470429830e-01 -5.5180900380443654e-01 1.3507723329089942e+00 -6.7765205692740793e-01 3.0658541192009121e-02 4.7641257805046834e-02 -9.6287503651706248e-03 -4.6507303166984107e-02 -3.9877198358398407e+00 1.3647107467783826e-01 -2.2231528515264814e-02 -4.6064874696002095e-02 1.5702815871161330e-01 -1.0004510704943465e-01 
        </Neuron>
        <Neuron NSynapses="44">
          6.9992271050816757e-01 -8.6030007474289227e-01 -3.6022858708802652e-01 -1.0394485532926263e+00 5.2664988914402555e-01 -1.2908892651344803e+00 -1.7987934760864621e+00 2.5461873359347651e+00 1.5346498320079096e+00 -5.9368064342472715e-01 1.7046331825364475e-01 -1.3566859430465110e+00 1.2930246613844645e+00 -3.4899486382644712e-01 3.2309601058386272e-01 8.7973513068437148e-01 9.5274929577672612e-02 -2.8969954015536494e+00 -3.5478874733982585e-01 -1.1062164129647771e+00 -1.3108895393903748e+00 1.9879470391911553e+00 7.0956827088445473e-01 3.1389699774889457e+00 -8.0002357205793029e-01 -4.4422756531558527e-01 1.5437582287652576e+00 5.7439420980745803e-01 8.8615139272556132e-01 -3.3751091324941507e-01 1.2889139056157448e-01 8.9192219315861043e-01 -1.9594038949952921e+00 -3.9502891738849522e-01 3.6867047296016553e-01 -1.3101008158843264e+00 1.4460733744553519e-01 -3.7495392650069925e-01 3.9640974587209304e-01 2.3336669282577032e+00 2.5968743426063916e-02 1.4118170645180088e+00 -1.2069505288596898e+00 8.4408297222228670e-03 
        </Neuron>
        <Neuron NSynapses="44">
          -4.9011402211111434e+00 2.4089942802971132e-01 1.3263170370812158e-01 -2.0218479255858619e+00 -1.2005015392666982e+01 -1.4553564380303867e+00 -3.4904991213384773e-01 2.6289566474207184e+00 -2.1098855466616269e+00 -8.1035746693213317e-01 -9.8963788662664876e-01 -2.6628921117378872e+00 -3.9519837230656185e-01 -1.0705983939006998e+00 1.2326220785016229e+00 1.6776164058341736e+00 1.2430945282426671e+00 3.4807880274049668e-01 -1.5303627631345602e+00 1.3702127636117076e-01 -1.3611788999427283e+00 1.0453026797823322e+00 -8.9314822169792418e-01 4.0165989826454771e+00 8.7406971768159414e-01 4.8443662091753401e+00 -1.5432390635562367e+00 1.6698015530896291e+00 -1.2158386560479244e+00 5.2750265306458954e-01 1.2157138322530795e+01 2.3337218511903548e+00 1.1832735586759553e-01 2.8147419834033205e-01 1.7073103581417803e+00 -1.4172822302834789e+00 3.9166499701462647e+00 7.4292309003794310e+00 -1.4089036313053025e+00 -1.4835699716336015e+00 -7.0867771367615635e+00 4.1899759660845612e+00 3.1202560500928533e+00 2.5734595385514421e+01 
        </Neuron>
        <Neuron NSynapses="44">
          2.8797872647124290e+01 1.0179364102386883e+00 -1.2485471330206320e-01 1.4856346259615569e-01 2.4688122505804365e+01 3.2163036361017898e+00 1.5545851551201642e+00 -3.4936090022729664e+00 -1.5652446757856870e+00 1.3897410021292411e+00 2.8448885383389508e+00 -7.6209724640169563e-01 3.9295589279985221e-01 9.8106449797292932e+00 -8.7595651333197821e+00 -8.1279618900437545e-01 5.0632621933718127e+00 -4.4924626931208014e+00 -1.7352258373607499e+00 -2.2217768847563719e+00 3.6017590306798390e+00 -5.6967780769482190e-01 2.9874971649824342e+00 -3.9529686586168631e+00 3.3666001437263446e+00 -3.8139091527632132e+01 4.6187034844649040e-03 -1.2770123013232620e-01 1.4190534520966770e+01 7.6901663725421410e-01 -1.8531055607718084e+01 -2.4472660759401692e+00 -8.2983873767597649e-01 1.1220608531533105e+00 1.5913411303949232e+00 -4.2596866732898192e-01 -3.0582441186881162e+01 -1.6196603974646258e+01 -1.2132791501617419e+00 -3.1911726585660292e+00 4.8166422274579709e+01 -3.1899469689532452e+01 -5.5277361297696519e+00 -3.0518541467304015e+01 
        </Neuron>
        <Neuron NSynapses="44">
          -2.3918646851565516e+01 -7.0556209236963219e-01 -5.5726635954893688e-01 -1.5155881884949687e+00 -3.7589000131255617e+01 -2.3526197397553905e+00 -1.8700736243466509e+00 4.9816953713025676e+00 -2.4578256701635048e+00 -1.3751118728885778e+00 -4.1172489094411722e+00 1.8570650476002617e+00 1.5161989504743506e-01 -8.9862056599646127e+00 7.3925304218624701e+00 9.5209657563091576e-01 -3.9936890585833158e+00 1.7265633658406430e+00 -8.2198719565029588e-01 2.4318827106764904e+00 -2.4534440280209648e+00 -5.3771050593276992e-01 -2.1423155878020275e+00 7.2555213999033974e+00 -1.3325113646853839e+00 3.3457578880311900e+01 6.6886115078983299e-01 -1.9532665813231882e+00 -1.2813636736854093e+01 -1.5063059126355869e+00 2.9717421622741146e+01 2.8167471650263853e+00 6.0754618738972727e-02 6.0443971148990627e-01 1.1356494548572864e+00 -1.3541900736835533e+00 2.6577718703122002e+01 2.0459987909117203e+01 1.9430731980792659e+00 -8.4506506196576803e-01 -4.0921289551097765e+01 2.8046776580923922e+01 7.6619541423771649e+00 6.1303199463659020e+01 
        </Neuron>
        <Neuron NSynapses="44">
          -7.1031848654993679e-01 8.2773172787642499e-02 -8.1271748359001217e-01 1.9735440826626773e+00 -6.4982168290505937e-01 -1.5666805714189405e-01 -7.6598265649568575e-01 1.7841249794961386e-01 -1.6098232847941034e+00 -1.0420678793642206e+00 8.1033441167915077e-01 -9.8565727273519732e-01 -1.2824697457941077e+00 -1.4045538827428252e+00 2.0900839628954131e+00 2.9047967016251547e-01 3.0500515382889148e-01 1.3473364877485803e+00 -1.7823519102023377e+00 1.7371915317544753e+00 -4.7183889131157314e-01 8.8423648612458794e-01 9.4684352552914641e-01 2.7815092321616457e+00 4.9313442466342544e-01 -1.1337869570844741e+00 -1.1658836810179325e+00 1.6674101822406924e+00 -1.2754695814650778e+00 -1.3584830385173232e+00 8.6781178433153039e-01 -3.4950813411258697e-01 1.3300806531709242e+00 -1.8097140211751632e+00 2.1251589895037246e-01 2.0826675613268621e+00 1.2742573198397652e+01 -3.8792766613646341e+00 -1.0570006189296450e+00 2.0971122596421958e+00 -4.8259290615967759e-01 9.7615478082103313e-01 -3.6695378044184026e+00 2.4679166495602248e-01 
        </Neuron>
        <Neuron NSynapses="44">
          4.7637303132730233e+00 -1.1400570432489463e+00 -5.9706694039107666e-01 -9.1146213946997479e-01 3.8833478865846178e+00 -1.6435513183023549e+00 1.4641911944943167e+00 1.3456017378796503e+00 -7.2013271354894270e-01 8.2045120662282378e-01 4.4182832104563363e-01 -7.4046371150909729e-01 -6.3803066825919755e-02 2.3753750774217637e+00 -1.5093820765266996e+00 -6.9814612626225392e-01 -1.2182704034071308e+00 7.4880334961810152e-02 -2.3623056771129249e+00 1.2718666285866373e+00 -5.1415881235212890e-01 8.7000493916189345e-02 -5.1450756688489552e-01 7.1863892318661596e-02 -2.6013265663031876e-01 -6.0370893850157161e+00 -3.1134793416174684e+00 1.5290186057058155e+00 3.2487963109222515e+00 1.0170091332397673e+00 -6.1216632179432962e+00 1.0584999306279474e+00 1.4912424032661387e+00 1.0008909720829569e+00 -7.4471446250762963e-01 2.2362035750651028e+00 5.5345113172979259e+00 -6.4279279719357536e+00 -1.5126507973482024e+00 2.3405840462609175e+00 8.4869627464941786e+00 -7.1402884124009969e+00 -5.0924703804554445e+00 -8.0906013804268060e+00 
        </Neuron>
        <Neuron NSynapses="44">
          -4.1203449316936531e+00 7.0694270066157150e-01 1.4369553662609005e+00 -2.3554082851420097e-01 -6.3558664685449831e+00 -1.6312506690927393e+00 -4.7471819689514905e-01 1.2023816473725077e+00 -1.3152146148410240e+00 -2.8567472932991339e-01 2.8039972901146981e-01 1.0985570965432978e+00 8.9951910576929051e-01 -9.6678840978182634e-01 1.7009289438167268e+00 -4.5977592565477027e-01 4.9371228704869485e-01 2.5161666984394815e+00 -2.5639061642673995e+00 2.3787230560953012e+00 7.2529148107094943e-01 -1.0961765295372057e+00 -4.8576959574708017e-01 3.1171201976867811e+00 -5.6477744792915630e-01 6.9958125847977319e+00 -5.1285166971052876e-01 -1.2119896804090269e+00 -2.4757929075410541e+00 1.2866193749033439e+00 5.0017462297398110e+00 2.5026413155120522e+00 -1.3390907634057170e+00 -4.0634807452602162e-01 -1.4655546994448847e+00 -1.1947556564990900e+00 1.9598822093854714e+01 -9.3630547717663493e-01 2.6156837589817457e+00 2.0372531730735319e-01 -7.8855435247061019e+00 6.2166941009133492e+00 -1.3325051714394356e+00 7.8034990359838279e+00 
        </Neuron>
        <Neuron NSynapses="44">
          -5.6856701953798335e-02 -6.3194428021764031e+00 2.0506192234559151e-01 -2.7984440051222031e-01 2.5244346080827295e+01 -7.1028222702458788e-01 -7.8980646482743844e-01 -4.3426043635200058e+00 1.5789825432812596e+00 2.6628807187302805e+00 3.1720196964973950e+00 2.6583897654027915e+00 -6.4236772749768112e-01 6.4992199370682929e-02 -1.2489768186885632e-01 -1.4318839239332493e+00 -3.1701375662832056e+00 -1.3516666109989359e+00 2.0882842201860754e+00 -2.5990475107482265e+00 7.3293458731586825e-02 8.1204260022849506e-01 -3.2896527531882436e-01 -5.8088269836969184e+00 -4.0231310809976950e+00 -2.4464724814983782e+01 2.9719910278069139e-01 -8.5941080685984550e-01 -2.5953433932345849e-01 3.4595002898893007e-01 -2.3562014560137825e+01 -2.4104682965923803e+00 5.7734523430531648e-01 -1.0882085183374033e+00 -1.9272401478865813e+00 -1.5080513569613312e+00 -3.7889724972930956e+01 -1.1045851061180937e+01 -1.7308685037125313e+00 1.9528137251542932e+00 7.8344137585004844e+01 -4.4190436757067897e-01 -8.2370402078256717e+00 -5.6321838371736234e+01 
        </Neuron>
        <Neuron NSynapses="44">
          -4.7509903678024905e+00 -3.0595317304540787e-01 -2.6429088471399770e-01 -1.5977966628991702e+00 -6.6062337007096064e+00 2.1663387451410925e-02 -3.6703404476447632e-01 1.0264287848224505e+00 -8.6000904809453738e-01 -6.0283212919382945e-01 1.1153205393248113e+00 -3.3209180480209327e-01 -1.3234186781843005e+00 -3.2032486167533469e+00 3.0473924754940924e+00 1.2305319670679842e+00 -1.1999890395382837e+00 1.0106499780770981e+00 8.5556620479833267e-01 1.1359252345006690e+00 1.4841660019409491e+00 -8.3206208012436667e-02 -1.6264953837924476e+00 1.1013276175154190e+00 1.2420741901644439e+00 7.9343139177311750e+00 -8.6402202557628593e-01 -1.8102600897197807e+00 -3.9434455816014619e-01 1.3864773099575567e+00 2.4155680305208644e+00 -1.5204573907984513e+00 2.9077931912184951e-01 -1.3036026478850908e+00 5.6631462152525636e-01 -1.4855683510332252e+00 2.8489204193819444e+00 6.2645697528072164e+00 1.3532369956520440e+00 1.9357377352017948e+00 -1.8440362527973974e+01 7.9325678142303948e+00 5.7528384147622658e-01 4.0135602456621413e+00 
        </Neuron>
      </Layer>
      <Layer Index="1" NNeurons="45">
        <Neuron NSynapses="1">
          1.3763734638829550e+00 
        </Neuron>
        <Neuron NSynapses="1">
          7.5966569706999021e+00 
        </Neuron>
        <Neuron NSynapses="1">
          -7.9499856329982110e-01 
        </Neuron>
        <Neuron NSynapses="1">
          3.6294091394142047e-01 
        </Neuron>
        <Neuron NSynapses="1">
          1.8676137111220275e+00 
        </Neuron>
        <Neuron NSynapses="1">
          5.3259581654308719e-01 
        </Neuron>
        <Neuron NSynapses="1">
          6.5582622861985829e-01 
        </Neuron>
        <Neuron NSynapses="1">
          -2.3708406686916000e-01 
        </Neuron>
        <Neuron NSynapses="1">
          -4.3933311681207327e-01 
        </Neuron>
        <Neuron NSynapses="1">
          9.4553291422141439e-01 
        </Neuron>
        <Neuron NSynapses="1">
          3.3097055806269871e-01 
        </Neuron>
        <Neuron NSynapses="1">
          -5.9943088590535198e-01 
        </Neuron>
        <Neuron NSynapses="1">
          2.0113371955869050e+00 
        </Neuron>
        <Neuron NSynapses="1">
          4.3715451137280176e-01 
        </Neuron>
        <Neuron NSynapses="1">
          -6.0204454979915534e-01 
        </Neuron>
        <Neuron NSynapses="1">
          2.9352912235325221e+00 
        </Neuron>
        <Neuron NSynapses="1">
          7.2062413221088528e-01 
        </Neuron>
        <Neuron NSynapses="1">
          -5.9286750593814619e-01 
        </Neuron>
        <Neuron NSynapses="1">
          -1.0885506010895367e+00 
        </Neuron>
        <Neuron NSynapses="1">
          -4.0032786302931039e-01 
        </Neuron>
        <Neuron NSynapses="1">
          6.0023529605157400e-01 
        </Neuron>
        <Neuron NSynapses="1">
          4.6442444651094167e-01 
        </Neuron>
        <Neuron NSynapses="1">
          5.0595776840826934e-01 
        </Neuron>
        <Neuron NSynapses="1">
          -3.3544194915637587e-01 
        </Neuron>
        <Neuron NSynapses="1">
          6.3222093163091320e-01 
        </Neuron>
        <Neuron NSynapses="1">
          -6.6094006141328443e-01 
        </Neuron>
        <Neuron NSynapses="1">
          -1.6004631328767935e+00 
        </Neuron>
        <Neuron NSynapses="1">
          -4.2394270002713935e-01 
        </Neuron>
        <Neuron NSynapses="1">
          4.2197463421444215e-01 
        </Neuron>
        <Neuron NSynapses="1">
          4.3423504677663599e-01 
        </Neuron>
        <Neuron NSynapses="1">
          -2.0774108740080752e+00 
        </Neuron>
        <Neuron NSynapses="1">
          -3.6731220061908743e-01 
        </Neuron>
        <Neuron NSynapses="1">
          -1.6800030917018882e+00 
        </Neuron>
        <Neuron NSynapses="1">
          -7.3903111032805480e-01 
        </Neuron>
        <Neuron NSynapses="1">
          1.0118821565030776e+00 
        </Neuron>
        <Neuron NSynapses="1">
          -1.3065843395871773e-01 
        </Neuron>
        <Neuron NSynapses="1">
          -5.7905681222257432e-01 
        </Neuron>
        <Neuron NSynapses="1">
          -7.2791816297163014e-01 
        </Neuron>
        <Neuron NSynapses="1">
          -4.1265371505282339e-01 
        </Neuron>
        <Neuron NSynapses="1">
          -3.0724900951219947e-01 
        </Neuron>
        <Neuron NSynapses="1">
          7.0448520883649328e+00 
        </Neuron>
        <Neuron NSynapses="1">
          -6.5747242078031398e-01 
        </Neuron>
        <Neuron NSynapses="1">
          -5.0644936198783441e-01 
        </Neuron>
        <Neuron NSynapses="1">
          -1.4157007068451823e+00 
        </Neuron>
        <Neuron NSynapses="1">
          -2.4978702565256139e+00 
        </Neuron>
      </Layer>
      <Layer Index="2" NNeurons="1">
        <Neuron NSynapses="0"/>
      </Layer>
    </Layout>
  </Weights>
</MethodSetup>
