<?xml version="1.0"?>
<MethodSetup Method="MLP::Kaon_Upstream_TMVA">
  <GeneralInfo>
    <Info name="TMVA Release" value="4.1.4 [262404]"/>
    <Info name="ROOT Release" value="5.34/05 [336389]"/>
    <Info name="Creator" value="jonrob"/>
    <Info name="Date" value="Wed Apr 10 09:41:55 2013"/>
    <Info name="Host" value="Linux lxbuild175.cern.ch 2.6.18-308.4.1.el5 #1 SMP Wed Apr 18 16:26:27 CEST 2012 x86_64 x86_64 x86_64 GNU/Linux"/>
    <Info name="Dir" value="/afs/cern.ch/work/j/jonrob/www/ANNPID/MC12/TrainAllTks-EvalAllTks-ReweightRICH2/TMVA-NoPreSels-NoGECs/MLP/Norm/ScaleF1.4/BP/NCycles750/CE/tanh/Kaon/Upstream"/>
    <Info name="Training events" value="1000000"/>
    <Info name="TrainingTime" value="4.07222429e+04"/>
    <Info name="AnalysisType" value="Classification"/>
  </GeneralInfo>
  <Options>
    <Option name="NCycles" modified="Yes">750</Option>
    <Option name="HiddenLayers" modified="Yes">30</Option>
    <Option name="NeuronType" modified="Yes">tanh</Option>
    <Option name="RandomSeed" modified="No">1</Option>
    <Option name="EstimatorType" modified="Yes">CE</Option>
    <Option name="NeuronInputType" modified="No">sum</Option>
    <Option name="V" modified="Yes">True</Option>
    <Option name="VerbosityLevel" modified="No">Verbose</Option>
    <Option name="VarTransform" modified="Yes">Norm</Option>
    <Option name="H" modified="Yes">True</Option>
    <Option name="CreateMVAPdfs" modified="No">False</Option>
    <Option name="IgnoreNegWeightsInTraining" modified="No">False</Option>
    <Option name="TrainingMethod" modified="Yes">BP</Option>
    <Option name="LearningRate" modified="No">2.000000e-02</Option>
    <Option name="DecayRate" modified="No">1.000000e-02</Option>
    <Option name="TestRate" modified="No">10</Option>
    <Option name="EpochMonitoring" modified="Yes">True</Option>
    <Option name="Sampling" modified="No">1.000000e+00</Option>
    <Option name="SamplingEpoch" modified="No">1.000000e+00</Option>
    <Option name="SamplingImportance" modified="No">1.000000e+00</Option>
    <Option name="SamplingTraining" modified="No">True</Option>
    <Option name="SamplingTesting" modified="No">False</Option>
    <Option name="ResetStep" modified="No">50</Option>
    <Option name="Tau" modified="No">3.000000e+00</Option>
    <Option name="BPMode" modified="No">sequential</Option>
    <Option name="BatchSize" modified="No">-1</Option>
    <Option name="ConvergenceImprove" modified="No">1.000000e-30</Option>
    <Option name="ConvergenceTests" modified="No">-1</Option>
    <Option name="UseRegulator" modified="No">False</Option>
    <Option name="UpdateLimit" modified="No">10000</Option>
    <Option name="CalculateErrors" modified="No">False</Option>
    <Option name="WeightRange" modified="No">1.000000e+00</Option>
  </Options>
  <Variables NVar="22">
    <Variable VarIndex="0" Expression="TrackP" Label="TrackP" Title="TrackP" Unit="" Internal="TrackP" Type="F" Min="1.72490005e+02" Max="4.97029350e+06"/>
    <Variable VarIndex="1" Expression="TrackPt" Label="TrackPt" Title="TrackPt" Unit="" Internal="TrackPt" Type="F" Min="8.32938910e-01" Max="9.95273875e+05"/>
    <Variable VarIndex="2" Expression="TrackChi2PerDof" Label="TrackChi2PerDof" Title="TrackChi2PerDof" Unit="" Internal="TrackChi2PerDof" Type="F" Min="3.02399253e-03" Max="2.99957395e+00"/>
    <Variable VarIndex="3" Expression="TrackNumDof" Label="TrackNumDof" Title="TrackNumDof" Unit="" Internal="TrackNumDof" Type="I" Min="4.00000000e+00" Max="2.80000000e+01"/>
    <Variable VarIndex="4" Expression="TrackLikelihood" Label="TrackLikelihood" Title="TrackLikelihood" Unit="" Internal="TrackLikelihood" Type="F" Min="-9.96241531e+01" Max="-3.19228202e-01"/>
    <Variable VarIndex="5" Expression="TrackGhostProbability" Label="TrackGhostProbability" Title="TrackGhostProbability" Unit="" Internal="TrackGhostProbability" Type="F" Min="3.17582078e-02" Max="1.00000000e+00"/>
    <Variable VarIndex="6" Expression="TrackCloneDist" Label="TrackCloneDist" Title="TrackCloneDist" Unit="" Internal="TrackCloneDist" Type="F" Min="-9.99000000e+02" Max="4.99973633e+03"/>
    <Variable VarIndex="7" Expression="TrackFitVeloChi2" Label="TrackFitVeloChi2" Title="TrackFitVeloChi2" Unit="" Internal="TrackFitVeloChi2" Type="F" Min="2.50487556e-05" Max="5.10802002e+01"/>
    <Variable VarIndex="8" Expression="TrackFitVeloNDoF" Label="TrackFitVeloNDoF" Title="TrackFitVeloNDoF" Unit="" Internal="TrackFitVeloNDoF" Type="I" Min="1.00000000e+00" Max="2.40000000e+01"/>
    <Variable VarIndex="9" Expression="RichUsedAero" Label="RichUsedAero" Title="RichUsedAero" Unit="" Internal="RichUsedAero" Type="I" Min="0.00000000e+00" Max="1.00000000e+00"/>
    <Variable VarIndex="10" Expression="RichUsedR1Gas" Label="RichUsedR1Gas" Title="RichUsedR1Gas" Unit="" Internal="RichUsedR1Gas" Type="I" Min="0.00000000e+00" Max="1.00000000e+00"/>
    <Variable VarIndex="11" Expression="RichAbovePiThres" Label="RichAbovePiThres" Title="RichAbovePiThres" Unit="" Internal="RichAbovePiThres" Type="I" Min="0.00000000e+00" Max="1.00000000e+00"/>
    <Variable VarIndex="12" Expression="RichAboveKaThres" Label="RichAboveKaThres" Title="RichAboveKaThres" Unit="" Internal="RichAboveKaThres" Type="I" Min="0.00000000e+00" Max="1.00000000e+00"/>
    <Variable VarIndex="13" Expression="RichAbovePrThres" Label="RichAbovePrThres" Title="RichAbovePrThres" Unit="" Internal="RichAbovePrThres" Type="I" Min="0.00000000e+00" Max="1.00000000e+00"/>
    <Variable VarIndex="14" Expression="RichDLLe" Label="RichDLLe" Title="RichDLLe" Unit="" Internal="RichDLLe" Type="F" Min="-9.99000000e+02" Max="1.07511299e+02"/>
    <Variable VarIndex="15" Expression="RichDLLmu" Label="RichDLLmu" Title="RichDLLmu" Unit="" Internal="RichDLLmu" Type="F" Min="-9.99000000e+02" Max="6.95736008e+01"/>
    <Variable VarIndex="16" Expression="RichDLLk" Label="RichDLLk" Title="RichDLLk" Unit="" Internal="RichDLLk" Type="F" Min="-9.99000000e+02" Max="9.95278015e+01"/>
    <Variable VarIndex="17" Expression="RichDLLp" Label="RichDLLp" Title="RichDLLp" Unit="" Internal="RichDLLp" Type="F" Min="-9.99000000e+02" Max="6.26166000e+01"/>
    <Variable VarIndex="18" Expression="RichDLLbt" Label="RichDLLbt" Title="RichDLLbt" Unit="" Internal="RichDLLbt" Type="F" Min="-9.99000000e+02" Max="4.78530006e+01"/>
    <Variable VarIndex="19" Expression="InAccBrem" Label="InAccBrem" Title="InAccBrem" Unit="" Internal="InAccBrem" Type="I" Min="0.00000000e+00" Max="1.00000000e+00"/>
    <Variable VarIndex="20" Expression="BremPIDe" Label="BremPIDe" Title="BremPIDe" Unit="" Internal="BremPIDe" Type="F" Min="-9.99000000e+02" Max="4.79148388e+00"/>
    <Variable VarIndex="21" Expression="VeloCharge" Label="VeloCharge" Title="VeloCharge" Unit="" Internal="VeloCharge" Type="F" Min="4.86891389e-01" Max="5.49438190e+00"/>
  </Variables>
  <Spectators NSpec="0"/>
  <Classes NClass="2">
    <Class Name="Background" Index="0"/>
    <Class Name="Signal" Index="1"/>
  </Classes>
  <Transformations NTransformations="1">
    <Transform Name="Normalize">
      <Selection>
        <Input NInputs="22">
          <Input Type="Variable" Label="TrackP" Expression="TrackP"/>
          <Input Type="Variable" Label="TrackPt" Expression="TrackPt"/>
          <Input Type="Variable" Label="TrackChi2PerDof" Expression="TrackChi2PerDof"/>
          <Input Type="Variable" Label="TrackNumDof" Expression="TrackNumDof"/>
          <Input Type="Variable" Label="TrackLikelihood" Expression="TrackLikelihood"/>
          <Input Type="Variable" Label="TrackGhostProbability" Expression="TrackGhostProbability"/>
          <Input Type="Variable" Label="TrackCloneDist" Expression="TrackCloneDist"/>
          <Input Type="Variable" Label="TrackFitVeloChi2" Expression="TrackFitVeloChi2"/>
          <Input Type="Variable" Label="TrackFitVeloNDoF" Expression="TrackFitVeloNDoF"/>
          <Input Type="Variable" Label="RichUsedAero" Expression="RichUsedAero"/>
          <Input Type="Variable" Label="RichUsedR1Gas" Expression="RichUsedR1Gas"/>
          <Input Type="Variable" Label="RichAbovePiThres" Expression="RichAbovePiThres"/>
          <Input Type="Variable" Label="RichAboveKaThres" Expression="RichAboveKaThres"/>
          <Input Type="Variable" Label="RichAbovePrThres" Expression="RichAbovePrThres"/>
          <Input Type="Variable" Label="RichDLLe" Expression="RichDLLe"/>
          <Input Type="Variable" Label="RichDLLmu" Expression="RichDLLmu"/>
          <Input Type="Variable" Label="RichDLLk" Expression="RichDLLk"/>
          <Input Type="Variable" Label="RichDLLp" Expression="RichDLLp"/>
          <Input Type="Variable" Label="RichDLLbt" Expression="RichDLLbt"/>
          <Input Type="Variable" Label="InAccBrem" Expression="InAccBrem"/>
          <Input Type="Variable" Label="BremPIDe" Expression="BremPIDe"/>
          <Input Type="Variable" Label="VeloCharge" Expression="VeloCharge"/>
        </Input>
        <Output NOutputs="22">
          <Output Type="Variable" Label="TrackP" Expression="TrackP"/>
          <Output Type="Variable" Label="TrackPt" Expression="TrackPt"/>
          <Output Type="Variable" Label="TrackChi2PerDof" Expression="TrackChi2PerDof"/>
          <Output Type="Variable" Label="TrackNumDof" Expression="TrackNumDof"/>
          <Output Type="Variable" Label="TrackLikelihood" Expression="TrackLikelihood"/>
          <Output Type="Variable" Label="TrackGhostProbability" Expression="TrackGhostProbability"/>
          <Output Type="Variable" Label="TrackCloneDist" Expression="TrackCloneDist"/>
          <Output Type="Variable" Label="TrackFitVeloChi2" Expression="TrackFitVeloChi2"/>
          <Output Type="Variable" Label="TrackFitVeloNDoF" Expression="TrackFitVeloNDoF"/>
          <Output Type="Variable" Label="RichUsedAero" Expression="RichUsedAero"/>
          <Output Type="Variable" Label="RichUsedR1Gas" Expression="RichUsedR1Gas"/>
          <Output Type="Variable" Label="RichAbovePiThres" Expression="RichAbovePiThres"/>
          <Output Type="Variable" Label="RichAboveKaThres" Expression="RichAboveKaThres"/>
          <Output Type="Variable" Label="RichAbovePrThres" Expression="RichAbovePrThres"/>
          <Output Type="Variable" Label="RichDLLe" Expression="RichDLLe"/>
          <Output Type="Variable" Label="RichDLLmu" Expression="RichDLLmu"/>
          <Output Type="Variable" Label="RichDLLk" Expression="RichDLLk"/>
          <Output Type="Variable" Label="RichDLLp" Expression="RichDLLp"/>
          <Output Type="Variable" Label="RichDLLbt" Expression="RichDLLbt"/>
          <Output Type="Variable" Label="InAccBrem" Expression="InAccBrem"/>
          <Output Type="Variable" Label="BremPIDe" Expression="BremPIDe"/>
          <Output Type="Variable" Label="VeloCharge" Expression="VeloCharge"/>
        </Output>
      </Selection>
      <Class ClassIndex="0">
        <Ranges>
          <Range Index="0" Min="1.7249000549316406e+02" Max="4.9702935000000000e+06"/>
          <Range Index="1" Min="8.3293890953063965e-01" Max="9.9527387500000000e+05"/>
          <Range Index="2" Min="3.0239925254136324e-03" Max="2.9995739459991455e+00"/>
          <Range Index="3" Min="4.0000000000000000e+00" Max="2.8000000000000000e+01"/>
          <Range Index="4" Min="-9.9624153137207031e+01" Max="-3.1922820210456848e-01"/>
          <Range Index="5" Min="3.1758207827806473e-02" Max="1.0000000000000000e+00"/>
          <Range Index="6" Min="-9.9900000000000000e+02" Max="4.9997363281250000e+03"/>
          <Range Index="7" Min="2.5048755560419522e-05" Max="5.1080200195312500e+01"/>
          <Range Index="8" Min="1.0000000000000000e+00" Max="2.4000000000000000e+01"/>
          <Range Index="9" Min="0.0000000000000000e+00" Max="1.0000000000000000e+00"/>
          <Range Index="10" Min="0.0000000000000000e+00" Max="1.0000000000000000e+00"/>
          <Range Index="11" Min="0.0000000000000000e+00" Max="1.0000000000000000e+00"/>
          <Range Index="12" Min="0.0000000000000000e+00" Max="1.0000000000000000e+00"/>
          <Range Index="13" Min="0.0000000000000000e+00" Max="1.0000000000000000e+00"/>
          <Range Index="14" Min="-9.9900000000000000e+02" Max="1.0751129913330078e+02"/>
          <Range Index="15" Min="-9.9900000000000000e+02" Max="6.9573600769042969e+01"/>
          <Range Index="16" Min="-9.9900000000000000e+02" Max="9.6631599426269531e+01"/>
          <Range Index="17" Min="-9.9900000000000000e+02" Max="6.2616600036621094e+01"/>
          <Range Index="18" Min="-9.9900000000000000e+02" Max="4.7853000640869141e+01"/>
          <Range Index="19" Min="0.0000000000000000e+00" Max="1.0000000000000000e+00"/>
          <Range Index="20" Min="-9.9900000000000000e+02" Max="4.7914838790893555e+00"/>
          <Range Index="21" Min="4.8689138889312744e-01" Max="5.4943819046020508e+00"/>
        </Ranges>
      </Class>
      <Class ClassIndex="1">
        <Ranges>
          <Range Index="0" Min="3.3697000122070312e+02" Max="2.5472205000000000e+06"/>
          <Range Index="1" Min="1.2279599189758301e+01" Max="3.7294234375000000e+05"/>
          <Range Index="2" Min="4.8603732138872147e-03" Max="2.9969096183776855e+00"/>
          <Range Index="3" Min="4.0000000000000000e+00" Max="2.4000000000000000e+01"/>
          <Range Index="4" Min="-3.8532848358154297e+01" Max="-3.7514200806617737e-01"/>
          <Range Index="5" Min="5.9543337672948837e-02" Max="1.0000000000000000e+00"/>
          <Range Index="6" Min="-9.9900000000000000e+02" Max="4.9646552734375000e+03"/>
          <Range Index="7" Min="7.0788133598398417e-05" Max="5.0046215057373047e+01"/>
          <Range Index="8" Min="1.0000000000000000e+00" Max="2.1000000000000000e+01"/>
          <Range Index="9" Min="0.0000000000000000e+00" Max="1.0000000000000000e+00"/>
          <Range Index="10" Min="0.0000000000000000e+00" Max="1.0000000000000000e+00"/>
          <Range Index="11" Min="0.0000000000000000e+00" Max="1.0000000000000000e+00"/>
          <Range Index="12" Min="0.0000000000000000e+00" Max="1.0000000000000000e+00"/>
          <Range Index="13" Min="0.0000000000000000e+00" Max="1.0000000000000000e+00"/>
          <Range Index="14" Min="-9.9900000000000000e+02" Max="5.0350898742675781e+01"/>
          <Range Index="15" Min="-9.9900000000000000e+02" Max="2.5433099746704102e+01"/>
          <Range Index="16" Min="-9.9900000000000000e+02" Max="9.9527801513671875e+01"/>
          <Range Index="17" Min="-9.9900000000000000e+02" Max="5.0416801452636719e+01"/>
          <Range Index="18" Min="-9.9900000000000000e+02" Max="4.6542499542236328e+01"/>
          <Range Index="19" Min="0.0000000000000000e+00" Max="1.0000000000000000e+00"/>
          <Range Index="20" Min="-9.9900000000000000e+02" Max="4.4935369491577148e+00"/>
          <Range Index="21" Min="5.8286517858505249e-01" Max="2.2303371429443359e+00"/>
        </Ranges>
      </Class>
      <Class ClassIndex="2">
        <Ranges>
          <Range Index="0" Min="1.7249000549316406e+02" Max="4.9702935000000000e+06"/>
          <Range Index="1" Min="8.3293890953063965e-01" Max="9.9527387500000000e+05"/>
          <Range Index="2" Min="3.0239925254136324e-03" Max="2.9995739459991455e+00"/>
          <Range Index="3" Min="4.0000000000000000e+00" Max="2.8000000000000000e+01"/>
          <Range Index="4" Min="-9.9624153137207031e+01" Max="-3.1922820210456848e-01"/>
          <Range Index="5" Min="3.1758207827806473e-02" Max="1.0000000000000000e+00"/>
          <Range Index="6" Min="-9.9900000000000000e+02" Max="4.9997363281250000e+03"/>
          <Range Index="7" Min="2.5048755560419522e-05" Max="5.1080200195312500e+01"/>
          <Range Index="8" Min="1.0000000000000000e+00" Max="2.4000000000000000e+01"/>
          <Range Index="9" Min="0.0000000000000000e+00" Max="1.0000000000000000e+00"/>
          <Range Index="10" Min="0.0000000000000000e+00" Max="1.0000000000000000e+00"/>
          <Range Index="11" Min="0.0000000000000000e+00" Max="1.0000000000000000e+00"/>
          <Range Index="12" Min="0.0000000000000000e+00" Max="1.0000000000000000e+00"/>
          <Range Index="13" Min="0.0000000000000000e+00" Max="1.0000000000000000e+00"/>
          <Range Index="14" Min="-9.9900000000000000e+02" Max="1.0751129913330078e+02"/>
          <Range Index="15" Min="-9.9900000000000000e+02" Max="6.9573600769042969e+01"/>
          <Range Index="16" Min="-9.9900000000000000e+02" Max="9.9527801513671875e+01"/>
          <Range Index="17" Min="-9.9900000000000000e+02" Max="6.2616600036621094e+01"/>
          <Range Index="18" Min="-9.9900000000000000e+02" Max="4.7853000640869141e+01"/>
          <Range Index="19" Min="0.0000000000000000e+00" Max="1.0000000000000000e+00"/>
          <Range Index="20" Min="-9.9900000000000000e+02" Max="4.7914838790893555e+00"/>
          <Range Index="21" Min="4.8689138889312744e-01" Max="5.4943819046020508e+00"/>
        </Ranges>
      </Class>
    </Transform>
  </Transformations>
  <MVAPdfs/>
  <Weights>
    <Layout NLayers="3">
      <Layer Index="0" NNeurons="23">
        <Neuron NSynapses="30">
          -6.3912275206045005e-02 2.0041180170619581e+00 6.3392349979739226e-01 3.1756854591294119e+00 -1.5120301184538898e+00 7.6742030430926880e-02 -5.9994447883537605e+00 7.5531891281422761e+00 -1.9938071513420328e+00 -1.1143775550617816e+00 -1.1553071223657025e+00 1.3141528072496864e+00 -1.1868368060671868e+00 -1.8831028798128935e+00 -1.6626453192299384e-01 2.9697830646399037e+00 -7.5765901755567244e-01 1.8368635207717270e+00 3.3588193312806252e+00 8.5116913933686600e-01 1.2983631511219467e+00 -1.8848660788814906e+00 4.5204051269280487e+00 4.8857853759781493e+00 -1.0107585251752328e+01 -5.2663645175296370e-01 2.5470372589449588e+00 -6.9361641198049977e+00 -1.7674875321484567e+00 -1.6407838692120331e+00 
        </Neuron>
        <Neuron NSynapses="30">
          1.5821153636265495e+00 1.1864631625443216e+00 -1.3857563985445434e-01 1.1722829283020872e+00 -2.2855072794320543e+00 9.3960278757917393e-01 -7.2014858563897857e+00 2.5306169313699094e+00 -1.7993945471860600e+00 2.3444244141101169e+00 1.5024870632921303e+00 1.6181243682460069e+00 1.4942082453557510e+00 5.1910428661007957e-01 -1.8375948087851310e-01 -1.8563289330485695e+00 3.4791003807519366e-01 9.8059974993006144e-02 2.8666406868309924e+00 9.1235121629989835e-01 1.3747009717683040e-01 2.2227514010311284e+00 3.6297202700482223e+00 6.8705165578933807e+00 -3.9813032299089754e+00 -9.6377882910446377e-01 -3.1111822576231414e+00 -8.2964678936262750e+00 1.8908551819307051e+00 -9.3537190172429219e-01 
        </Neuron>
        <Neuron NSynapses="30">
          1.2698525821264112e-01 -1.1433299907400012e+00 -1.2867080464298435e+00 -1.2994827049995545e+00 1.6765542013527421e-01 7.8499375268749649e-01 1.0278057276987451e+00 -3.1241057284756951e-01 -1.0187739132293325e+00 -5.4542134281482990e-01 -4.3399308197158773e-02 -4.0002461358386435e-02 -9.1607055672576465e-01 1.5963512026073952e+00 1.7288271977896219e-01 -3.2379682631450725e-02 -2.1896711375009148e+00 1.5613573283029125e+00 5.1660217242322071e-01 -3.9083811051124386e-02 6.8403638403227696e-01 -1.6753928671664503e-02 -7.7978283249432256e-01 -5.9806944920666616e-01 -1.1956042749773704e-01 6.2521233198416593e-01 -4.6490394711421346e-01 -7.8000992921056944e-01 -7.8052375405362973e-01 3.0804646843322497e-01 
        </Neuron>
        <Neuron NSynapses="30">
          2.4088482422390736e+00 1.3541118375274024e+00 3.8493999483343382e+00 1.5255896302131505e+01 5.3326240650405152e+00 8.5167817998870554e-01 -5.7733704211552315e+00 -1.2087748297672696e+00 -2.4219282746967754e+00 3.1101176939408965e+00 -1.7165438399931106e+00 -2.5494851652066592e+00 3.6092910398229310e+00 3.7069652493093952e+00 -2.2153603476455208e+00 2.8793679849416334e+00 6.3176514046635279e-01 -4.3171257465128372e+00 -2.4663315711320858e-02 1.5254727682888445e+00 -4.0387509305613243e+00 -9.1513444830882296e-01 -1.5521789839262166e+00 1.8567817394092208e+00 -9.7012600280624177e+00 8.9259542203646736e-01 1.3882336987409264e+01 3.8515964548390826e+00 2.6082294476466256e-01 9.3545976336591419e-01 
        </Neuron>
        <Neuron NSynapses="30">
          -2.9950860617610642e-01 1.5266055950391777e-01 7.1850564241962755e-01 1.9661406761511828e+00 9.9058971406861174e-01 3.2678109842052478e+00 3.9642870423009891e-01 2.4881401918547010e+00 -2.9752942831825075e+00 -3.7445986360545298e+00 1.2162405114849104e+00 -1.7985702595522306e+00 2.4340297899096988e+00 -1.2891066385573058e+00 -6.7325926830155269e-01 1.9489018499427206e+00 7.5468917976079397e-01 -4.6519625674927489e+00 5.8010363648218046e+00 1.4123435102542916e+00 -1.0130171073161292e+00 2.1180793583105793e+00 -4.7401791585479414e+00 -5.8771032940533284e-02 -6.8789870982600787e+00 1.3093906995322802e+00 8.7602358257567747e+00 3.1193487000935733e+00 -8.5347819871776764e-01 -1.0019100182655323e+00 
        </Neuron>
        <Neuron NSynapses="30">
          -1.0631199259492471e-01 7.0238804663648213e-01 -4.8886890633727126e-01 1.5523169085805437e+00 5.2046268626725489e-01 6.5910103978129686e-01 -2.1038365211742499e-01 4.9954698680755727e-01 1.3610235834263029e+00 -3.0351801202535517e-01 -6.2628511578902901e-01 -1.1220064752033385e-01 7.9053814029204217e-01 3.2978628965683593e-01 -8.9593015653885930e-03 6.9283206647131212e-01 -1.8910723286363473e+00 -4.3353295690895455e-01 -6.3817699135576267e-01 1.7078375975913190e-01 5.3280006834710314e-01 7.8835788286061170e-01 1.3886467261920836e+00 1.9668982817179950e-02 -1.5250890925014537e-01 -1.0555271089467591e-01 2.9705707140660409e-01 -2.1618126894433992e-01 -3.3672036825762325e-01 4.5515277553092126e-01 
        </Neuron>
        <Neuron NSynapses="30">
          -1.9047134945868025e+00 1.9818041505559849e+00 4.5703447050385942e-01 -2.1673640560894031e-01 8.3038283990236314e-02 -2.1245996865398311e+00 -3.9975008857413248e+00 -4.0942941610481226e-01 -4.8078681001875279e-01 1.4821007652115785e+00 -1.5660988435487666e+00 1.4938916031393374e+00 -2.0294254875110558e+00 1.1808061620717065e+00 9.0837490288516343e-01 -9.2106525984270271e-01 -9.1463264304288611e-02 9.9436636313813120e-01 1.2113894065216340e+00 -1.9166799194375481e+00 -1.0389153072943232e-01 -4.9033993942625309e-01 1.5400880869894016e+00 4.7400518485903631e-01 8.6798077711772059e+00 1.8073671521161488e-01 -1.5252563959250562e-01 -5.9836990585405436e+00 4.8111824032172240e-01 1.0683425737012822e+00 
        </Neuron>
        <Neuron NSynapses="30">
          -9.3573420999565241e-02 4.9564375487353274e-01 2.5437961279672674e+00 5.7975852467604838e-01 9.2960726154486117e+00 4.2824296738911283e-01 -1.0288703698212731e+00 4.3962623502609457e+00 4.0266794918800208e+00 -7.6454671529762333e-02 -2.3178659556138004e-01 -1.6894378824788711e-01 1.0280493220042231e+00 -1.6125486281703956e+00 1.3361163180330723e-01 -1.4255890940306268e-01 1.1935013794001861e+00 -2.8413180509038574e+00 -1.7960356114439022e+00 1.0031510709576134e-01 -1.2763279803595142e+00 1.4585201440829387e+00 1.0451213562417909e+00 1.0993524822951491e-01 1.2083390487288470e+00 -6.2586858020280089e-01 2.8060703032488155e+00 1.7355585994392970e+00 -2.6085872862314075e-01 4.1937762050291649e-01 
        </Neuron>
        <Neuron NSynapses="30">
          -1.8607246841531211e+00 -2.6642383664129898e-01 -5.0859314232109778e+00 -1.4374013197217621e+01 -7.3054110214678420e+00 -1.3937525836645601e+00 7.2091401266669424e+00 4.5943548921088434e-01 -3.4178102629612100e-01 -1.2042042590502000e+00 1.7201579416555868e+00 -1.7447676312157525e+00 -2.3684707017102240e+00 2.9580353052478179e+00 1.7902761034863506e+00 -2.3450190293501083e+00 -2.1465394763238264e+00 -1.9873185487411695e+00 -2.4322205345138062e+00 -1.4211552292016960e+00 4.3301247722052851e+00 -5.0732723887932529e-01 3.2712978173097751e+00 -1.5239872610576173e+00 4.7336493729407358e+00 -1.1964378418849311e+00 -1.4008852348939572e+01 -4.2869695873101010e+00 7.5479403209205154e-01 -2.8798710778933606e-01 
        </Neuron>
        <Neuron NSynapses="30">
          5.1258877179833828e-01 -2.1057816132917531e-01 -2.5359019987392677e+00 -7.6448799242788479e-01 -2.8964838126461045e-01 -1.6482051535377927e-02 2.8189415580408106e+00 1.0269258896675566e+00 -8.5496221025374997e-01 6.6167399478149014e-01 -1.3357124729367731e-01 -3.2915211143231365e-01 -2.2550486744860154e+00 -2.2302626250788484e+00 -1.4870472404662054e+00 -1.4601490564746733e+00 -1.6666654147515803e+00 8.4636156363682080e-01 -4.1383175901452836e+00 2.8430094954342960e-01 -5.4526601243086761e+00 8.8151969009123776e-01 5.4858081537242520e-01 -4.3127366722749688e-01 -2.3754395073866263e-01 -9.5402787666529112e-02 -2.3421553111613491e+00 3.1439227166800443e-01 -1.7896529593576269e+00 -1.5114901694069505e-01 
        </Neuron>
        <Neuron NSynapses="30">
          -5.0396169557068653e+00 1.2399465769568614e+00 1.2226737194122261e+00 -1.2000119821604904e+00 5.7271781262393621e-02 -2.9507966740403777e+00 3.3588821069803627e+00 -1.8498100163502482e+00 -3.9181262772296899e-01 -7.8682204735086518e+00 -4.6265716604098339e-01 -1.0547887182780127e+00 -2.3334456906785301e+00 2.4230206419037157e+00 1.1284496394086437e-01 1.9741851129671733e+00 1.7178707724336308e+00 -2.6455712699777027e-02 -1.1310185921223572e+00 1.0161527714474299e+00 -7.0724606750280516e-01 -9.5986004452090967e-01 -3.6567590460057917e+00 -5.5848110141350729e+00 3.6639240723628264e-01 1.0726503887035685e+00 1.3109465322930793e+00 7.8583668300967418e+00 -1.6311798859037374e+00 3.8348916325842328e+00 
        </Neuron>
        <Neuron NSynapses="30">
          -3.0181416829816872e+00 2.1943287034583689e+00 -2.3663320952000819e+00 -2.4562035460761957e+00 3.4351810880090994e-01 -2.9494699117213946e-01 4.5021363439337708e-01 9.0461666350335446e-01 4.7704481532310583e-01 -6.6555059717800908e+00 -2.4761697710517250e-01 -9.7225666171395653e-01 8.4436278858019675e-01 -7.4369269422015194e-01 2.0192584492427754e-01 1.2515681084481409e+00 -6.4188275881655743e-01 1.8085938596924565e+00 -2.2319937181984106e+00 -2.2458187647172279e-01 -1.2213215248453452e-01 2.9488289137301962e+00 -5.9966931178079474e-01 -4.9604556922129767e-01 -1.5284057310291405e-01 -2.1618233477735607e+00 -7.8200953223359115e-01 7.3365337661345169e+00 -7.1137222917471077e-01 3.0601004873052084e-01 
        </Neuron>
        <Neuron NSynapses="30">
          -2.3362508400721960e-01 -6.3286609310304465e-01 -1.7747418783352984e+00 1.8939878261214124e-01 1.7669111006801810e-01 8.7998716440470648e-01 -2.8475122860066637e+00 -8.3279685730159037e-01 -7.8203358758597585e-01 -7.9284169915318348e+00 1.3153200065192655e-01 -1.5775021574839296e+00 -1.9414239408391412e+00 2.1277880813765573e+00 1.4072076491520272e-01 7.1155239333905806e-01 -9.8203188001643835e-02 3.0645531534834802e+00 -2.7882855029883907e-01 -6.8399470669186974e-02 -8.6830844933649787e-02 1.9211831744583818e-01 2.5753040131447907e-01 1.2690315319464274e-01 -1.3931763597346303e-01 -1.1804378552955881e-01 4.8585679441089685e-01 7.2541726947059519e+00 1.4455313146380777e+00 -6.1171426186848687e-01 
        </Neuron>
        <Neuron NSynapses="30">
          1.4138015890257637e-02 5.5250079365415738e-01 -5.2077030598819052e+00 -1.8102305938477678e-01 8.7688776394398652e-03 -6.6867712638412435e-01 4.4151040736191099e-01 7.8296394991641660e-01 1.2868050678607210e+00 -2.1690533320528871e-01 -2.3256081943201379e-01 1.5511535133051682e+00 -4.8215963812761742e-01 -1.0309903556413819e-01 5.9432471164900601e-02 -2.0192836988547680e+00 2.3758642898829788e-01 1.8796076014040399e+00 8.8572888721490306e-01 -7.2253038599411346e-02 2.8238655816307801e-01 -2.4277896949254263e+00 5.5357137473274656e-02 2.4765244372876150e+00 7.9672052711496605e-02 -2.2137968287232171e-01 2.4780769979142667e-01 7.6118490891579818e+00 3.4078890261002037e+00 -3.7480599463107800e-01 
        </Neuron>
        <Neuron NSynapses="30">
          -3.0581441539631964e+00 1.4415860277280932e+00 5.0720975245888171e+00 -2.4746089698245505e+01 -6.6096153447952508e+00 -2.3357769102716017e+00 -4.5958685920662337e+00 -1.7454467163112111e+00 -1.0748600165711211e+00 5.8885817918206920e+00 -1.1902279011362871e+00 -1.7922833315964706e+00 -2.9844989359979222e+00 9.4651474288588361e-02 2.4470903581311156e+00 3.9596544084351279e+00 1.6526130496827718e+00 -2.0806544011016754e+00 -4.1915472797509823e+00 -3.2230649548739354e-01 3.8675766839477541e+00 -4.6159036559101745e+00 -6.8724426456594778e-01 -8.2704742121164598e-01 1.5472305643834623e+01 1.1559790043314782e+00 -1.0064954168417234e+01 -1.7022477209499218e+01 -3.4939582388622653e-01 1.3183352548789296e+00 
        </Neuron>
        <Neuron NSynapses="30">
          -1.0660094674061977e+00 1.5256589096987507e+00 1.9179635970357407e+00 -1.5463358303365464e+00 6.0758691513684338e-01 -3.4529103928687408e+00 4.3750350353597005e+00 -2.0096105065081606e+00 2.2933051098455777e+00 -5.6354968672254113e+00 -1.8759847165677330e+00 8.9719653118577783e-02 -9.0181795606836268e-01 -4.9431563906357695e-02 9.8415628682959710e-01 3.1735698542992310e+00 -8.6269805681804734e-01 -1.5531830475154684e+00 -2.8044061410776444e+00 1.9518826562590339e+00 1.6451232996958856e+00 -1.3517931529323086e+00 -6.5847436575541236e+00 -6.2220505077429067e+00 2.6753668624964551e+00 -1.9894672100496769e+00 -1.4140035188542119e+00 -9.3557939946031645e+00 8.8155148689989227e-01 4.6133808011676392e+00 
        </Neuron>
        <Neuron NSynapses="30">
          3.5112324284696710e+00 -2.5773463219632955e+00 4.9056998915128354e+00 1.2090558166962586e+01 1.6858743705202588e+00 3.0977715947809532e+00 -1.1470913577365739e+01 -1.2918359484859985e+00 1.5425033418618499e+00 7.4090138802744265e+00 1.1056709014423156e+00 -1.4449480702675166e+00 -2.8596076748013806e+00 -2.4086159265478275e+00 -1.0709520106035308e+00 -8.8253217659308518e+00 6.2177334721222288e-01 -2.9510907948377594e+00 6.1575388666446393e+00 4.6488904554799171e-01 -6.2460356116220339e+00 5.1871281801387177e+00 1.4220126335134177e+01 8.3287958133373881e+00 -3.2284273716609060e+00 2.0553876386682857e-01 4.9383143512652419e+00 -2.2193929294805731e+01 3.0363696943293959e+00 -2.9851475078432648e+00 
        </Neuron>
        <Neuron NSynapses="30">
          5.0993095597313953e+00 -1.8355556818744463e+00 -2.0081661021837962e+00 7.4782422430237823e+00 1.6225577497110883e+00 1.7808946135619252e+00 -5.6522029839674977e+00 7.2577430275931509e-01 6.7157712223233523e-01 5.2802150925463653e+00 1.2231046353339767e+00 -1.3671075741537433e+00 3.4438402304362542e-01 -1.3854721459329533e+00 1.2789597006265421e-01 -2.8466146027823425e+00 6.1043025016855212e-01 2.4451948713044698e+00 7.3132115974916543e+00 -1.6155202296551048e+00 -1.1330646512392164e+00 -7.8880142179665791e-01 1.2550344091828276e+01 8.9956614346643580e+00 -2.6701655486138018e+00 2.6465989637722731e-01 3.8838343171654044e+00 -7.5357682779515791e+00 -2.8951784567410077e-01 -2.8110478702536885e+00 
        </Neuron>
        <Neuron NSynapses="30">
          4.3688266791182730e+00 -1.7923785225412037e+00 5.1569531417677290e-02 9.9890138976080056e+00 2.4679493108421187e+00 4.0250728515286527e+00 -1.1079282959917604e+01 -1.4139085943778189e+00 2.2491552210166308e+00 8.6068383080097632e+00 1.7082504218816121e+00 1.0509378045403732e+00 -2.3001799911881728e+00 -5.0021053950297678e-01 -9.7779219236334181e-01 -7.4117133265288135e+00 -7.7829503337764916e-01 -2.6184552107396541e+00 9.0895552439592855e+00 -1.6943011756772748e+00 6.1650814130892373e-01 2.9032257369335750e+00 1.7395357538444681e+01 1.2716236376035964e+01 -3.0908700274150127e+00 1.5282617790936399e+00 4.5309213786075606e+00 -1.4029198116420517e+01 -8.6900775225179083e-01 -3.0413396285547529e+00 
        </Neuron>
        <Neuron NSynapses="30">
          2.0490097869686164e+00 2.3170698926509967e-01 1.4251586769560980e+00 2.7238068209002217e+00 7.1007206277537771e-01 -1.1914913145394941e+00 4.7335354764052866e+00 -2.0126244753644160e+00 1.7591044238329243e+00 -3.1842082637631259e+00 4.4775236166744270e-01 -1.1868297457735784e-01 7.2729791246219713e-02 -7.3689193841360867e-01 8.1015145782137155e-01 -2.3585555938205958e+00 -1.0755547021601819e+00 4.2798862773677054e-01 -3.1244633752041611e+00 1.0354920808186749e+00 -2.0984291656879464e+00 1.1714210775913121e+00 -5.1209074585512999e+00 1.1553218635542062e+00 -5.2894837023189663e+00 -1.1145332486344721e+00 2.0743585228304520e+00 -9.4822538892727659e-01 -7.7010931615411071e-01 -1.0756161050446458e+00 
        </Neuron>
        <Neuron NSynapses="30">
          1.4492890558943738e+00 2.0486378654323594e+00 2.4403086632466087e+00 -2.6701716600763099e+00 -8.6651449107753709e-01 9.6732239474175058e-02 5.7294673425630664e+00 -1.5960238199562362e+00 -3.6650163533315716e-01 -1.8983102403929106e+00 -1.3541029656855755e-01 1.7146661267834626e+00 -3.0609783609394769e+00 1.1678257621238541e+00 -6.4544944049351505e-01 1.5283730521508201e+00 -5.0164814999207963e-01 9.2864700763216468e-01 -3.9759109202070984e+00 -8.7115470470235212e-01 2.0954166549141546e+00 -1.5433888238507679e-01 -4.3297118233789798e+00 -8.8022816569410200e-01 -3.5572402014959961e+00 -1.4652023563419454e+00 -3.1523422238352041e+00 9.5488663730734569e-01 -7.5205563254012342e-01 2.9685101602579556e-01 
        </Neuron>
        <Neuron NSynapses="30">
          1.5645822311073587e+00 -2.2429423996135873e+00 1.6177298488716201e+00 -5.7508567285322671e+00 -2.2701217391182889e+00 1.6175913066729350e+00 1.4054249027874359e+01 -5.7942524420020569e-01 2.3116323711092338e-01 -1.7886913654153130e+01 -6.7288464254082039e-02 -2.2805954840104139e+00 1.7897317361844234e+01 1.3966527853589870e+00 -4.2347827246995179e-01 -7.4365358719032448e+00 -2.7149588057404968e+00 5.8991749726673615e-01 -3.7470450699863836e-02 -4.9998513459763010e-03 5.7620903992960502e+00 -1.1782647813004102e-01 5.6818310426294427e-01 -5.9218514992388362e+00 3.1271051462862602e+00 1.0975237787167569e+00 1.2833540324092668e+01 1.4127615606378852e+00 1.3597753771535790e+00 -4.0977226631779329e-01 
        </Neuron>
        <Neuron NSynapses="30">
          -2.2936237879246484e+00 2.0678529806597106e+00 1.0956865748893598e+00 -1.2020880833966918e+00 1.8557617533008943e+00 -2.7339675067389466e+00 4.6229709368222132e+00 1.2435117058383061e+00 2.0643174307508887e+00 -8.7041430902710160e-01 -1.9843615754289001e+00 -1.8235668573112302e+00 -1.7872038981641823e-02 1.3444931783875783e-01 9.8724822995235706e-01 8.1283289119224966e-01 1.7617616779629177e+00 -7.0153403733515896e-01 -1.6616692798140326e-01 -1.5467004470337211e+00 3.3953309982480997e+00 -2.1292108835524299e+00 -2.4028008331876642e+00 -5.6204952789316360e+00 1.6701119277383445e+00 6.8874369104527899e-01 4.3900558567047314e+00 5.6505178558873901e+00 -3.1105212596137850e+00 -5.8923342955507241e-01 
        </Neuron>
      </Layer>
      <Layer Index="1" NNeurons="31">
        <Neuron NSynapses="1">
          -6.6635873835436787e-01 
        </Neuron>
        <Neuron NSynapses="1">
          -2.5548147032169477e-01 
        </Neuron>
        <Neuron NSynapses="1">
          9.5218751479957142e-01 
        </Neuron>
        <Neuron NSynapses="1">
          1.4491926450533967e+00 
        </Neuron>
        <Neuron NSynapses="1">
          1.1193312019331925e+00 
        </Neuron>
        <Neuron NSynapses="1">
          3.2710174973271788e-01 
        </Neuron>
        <Neuron NSynapses="1">
          -3.8691401572254669e-01 
        </Neuron>
        <Neuron NSynapses="1">
          1.2658611669743636e+00 
        </Neuron>
        <Neuron NSynapses="1">
          -1.5540107237423042e+00 
        </Neuron>
        <Neuron NSynapses="1">
          5.6246371034579501e-01 
        </Neuron>
        <Neuron NSynapses="1">
          7.7802737054855131e-01 
        </Neuron>
        <Neuron NSynapses="1">
          2.2086866284686821e+00 
        </Neuron>
        <Neuron NSynapses="1">
          1.1641093569886307e+00 
        </Neuron>
        <Neuron NSynapses="1">
          -3.3201145850978664e-01 
        </Neuron>
        <Neuron NSynapses="1">
          4.7168644245051050e-01 
        </Neuron>
        <Neuron NSynapses="1">
          -6.8893825625802274e-01 
        </Neuron>
        <Neuron NSynapses="1">
          -1.1492550011205169e+00 
        </Neuron>
        <Neuron NSynapses="1">
          -2.7420121758867216e-01 
        </Neuron>
        <Neuron NSynapses="1">
          2.3956311218981932e-01 
        </Neuron>
        <Neuron NSynapses="1">
          -1.8088401920579081e-01 
        </Neuron>
        <Neuron NSynapses="1">
          -1.3749824542799656e+00 
        </Neuron>
        <Neuron NSynapses="1">
          1.2098817494361189e+00 
        </Neuron>
        <Neuron NSynapses="1">
          4.7637425791492122e-01 
        </Neuron>
        <Neuron NSynapses="1">
          8.8512933480360201e-01 
        </Neuron>
        <Neuron NSynapses="1">
          -1.1269792238913978e+00 
        </Neuron>
        <Neuron NSynapses="1">
          2.4099043473458473e-01 
        </Neuron>
        <Neuron NSynapses="1">
          4.1872855616738830e-01 
        </Neuron>
        <Neuron NSynapses="1">
          -1.7293631763069433e+00 
        </Neuron>
        <Neuron NSynapses="1">
          2.0381748543909475e+00 
        </Neuron>
        <Neuron NSynapses="1">
          -3.0991938109394085e-01 
        </Neuron>
        <Neuron NSynapses="1">
          -2.4077504495868323e+00 
        </Neuron>
      </Layer>
      <Layer Index="2" NNeurons="1">
        <Neuron NSynapses="0"/>
      </Layer>
    </Layout>
  </Weights>
</MethodSetup>
