<?xml version="1.0"?>
<MethodSetup Method="MLP::Electron_Downstream_TMVA">
  <GeneralInfo>
    <Info name="TMVA Release" value="4.2.0 [262656]"/>
    <Info name="ROOT Release" value="5.34/18 [336402]"/>
    <Info name="Creator" value="jonesc"/>
    <Info name="Date" value="Thu Jun 12 05:32:36 2014"/>
    <Info name="Host" value="ec-slc6-x86-64-spi-9"/>
    <Info name="Dir" value="/var/pcfst/r03/lhcb/jonesc/ANNPID/results/MC12/TrainHeavy/TrainPhysTksNoGhosts-EvalPhysTks-ReweightRICH2/TMVA-NoPreSels-NoGECs/MLP/Norm/ScaleF1.4/BP/NCycles750/CE/tanh/CVTest15/CVImp1e-16/NotUseRegulator/Electron/Downstream"/>
    <Info name="Training events" value="1200000"/>
    <Info name="TrainingTime" value="4.75158224e+04"/>
    <Info name="AnalysisType" value="Classification"/>
  </GeneralInfo>
  <Options>
    <Option name="NCycles" modified="Yes">750</Option>
    <Option name="HiddenLayers" modified="Yes">43</Option>
    <Option name="NeuronType" modified="Yes">tanh</Option>
    <Option name="RandomSeed" modified="No">1</Option>
    <Option name="EstimatorType" modified="Yes">CE</Option>
    <Option name="NeuronInputType" modified="No">sum</Option>
    <Option name="V" modified="Yes">True</Option>
    <Option name="VerbosityLevel" modified="No">Verbose</Option>
    <Option name="VarTransform" modified="Yes">Norm</Option>
    <Option name="H" modified="Yes">True</Option>
    <Option name="CreateMVAPdfs" modified="No">False</Option>
    <Option name="IgnoreNegWeightsInTraining" modified="No">False</Option>
    <Option name="TrainingMethod" modified="Yes">BP</Option>
    <Option name="LearningRate" modified="No">2.000000e-02</Option>
    <Option name="DecayRate" modified="No">1.000000e-02</Option>
    <Option name="TestRate" modified="No">10</Option>
    <Option name="EpochMonitoring" modified="Yes">True</Option>
    <Option name="Sampling" modified="No">1.000000e+00</Option>
    <Option name="SamplingEpoch" modified="No">1.000000e+00</Option>
    <Option name="SamplingImportance" modified="No">1.000000e+00</Option>
    <Option name="SamplingTraining" modified="No">True</Option>
    <Option name="SamplingTesting" modified="No">False</Option>
    <Option name="ResetStep" modified="No">50</Option>
    <Option name="Tau" modified="No">3.000000e+00</Option>
    <Option name="BPMode" modified="No">sequential</Option>
    <Option name="BatchSize" modified="No">-1</Option>
    <Option name="ConvergenceImprove" modified="Yes">1.000000e-16</Option>
    <Option name="ConvergenceTests" modified="Yes">15</Option>
    <Option name="UseRegulator" modified="Yes">False</Option>
    <Option name="UpdateLimit" modified="No">10000</Option>
    <Option name="CalculateErrors" modified="No">False</Option>
    <Option name="WeightRange" modified="No">1.000000e+00</Option>
  </Options>
  <Variables NVar="31">
    <Variable VarIndex="0" Expression="TrackP" Label="TrackP" Title="TrackP" Unit="" Internal="TrackP" Type="F" Min="1.13964001e+03" Max="1.10789362e+06"/>
    <Variable VarIndex="1" Expression="TrackPt" Label="TrackPt" Title="TrackPt" Unit="" Internal="TrackPt" Type="F" Min="2.19413114e+00" Max="4.27183711e+04"/>
    <Variable VarIndex="2" Expression="TrackChi2PerDof" Label="TrackChi2PerDof" Title="TrackChi2PerDof" Unit="" Internal="TrackChi2PerDof" Type="F" Min="2.84328181e-02" Max="2.99999094e+00"/>
    <Variable VarIndex="3" Expression="TrackNumDof" Label="TrackNumDof" Title="TrackNumDof" Unit="" Internal="TrackNumDof" Type="I" Min="4.00000000e+00" Max="3.20000000e+01"/>
    <Variable VarIndex="4" Expression="TrackLikelihood" Label="TrackLikelihood" Title="TrackLikelihood" Unit="" Internal="TrackLikelihood" Type="F" Min="-9.20997086e+01" Max="8.45694602e-01"/>
    <Variable VarIndex="5" Expression="TrackGhostProbability" Label="TrackGhostProbability" Title="TrackGhostProbability" Unit="" Internal="TrackGhostProbability" Type="F" Min="-9.99000000e+02" Max="1.00000000e+00"/>
    <Variable VarIndex="6" Expression="TrackFitTChi2" Label="TrackFitTChi2" Title="TrackFitTChi2" Unit="" Internal="TrackFitTChi2" Type="F" Min="1.56397722e-03" Max="6.71288300e+01"/>
    <Variable VarIndex="7" Expression="TrackFitTNDoF" Label="TrackFitTNDoF" Title="TrackFitTNDoF" Unit="" Internal="TrackFitTNDoF" Type="I" Min="1.00000000e+00" Max="2.80000000e+01"/>
    <Variable VarIndex="8" Expression="RichUsedAero" Label="RichUsedAero" Title="RichUsedAero" Unit="" Internal="RichUsedAero" Type="I" Min="0.00000000e+00" Max="1.00000000e+00"/>
    <Variable VarIndex="9" Expression="RichUsedR1Gas" Label="RichUsedR1Gas" Title="RichUsedR1Gas" Unit="" Internal="RichUsedR1Gas" Type="I" Min="0.00000000e+00" Max="1.00000000e+00"/>
    <Variable VarIndex="10" Expression="RichUsedR2Gas" Label="RichUsedR2Gas" Title="RichUsedR2Gas" Unit="" Internal="RichUsedR2Gas" Type="I" Min="0.00000000e+00" Max="1.00000000e+00"/>
    <Variable VarIndex="11" Expression="RichAboveMuThres" Label="RichAboveMuThres" Title="RichAboveMuThres" Unit="" Internal="RichAboveMuThres" Type="I" Min="0.00000000e+00" Max="1.00000000e+00"/>
    <Variable VarIndex="12" Expression="RichAboveKaThres" Label="RichAboveKaThres" Title="RichAboveKaThres" Unit="" Internal="RichAboveKaThres" Type="I" Min="0.00000000e+00" Max="1.00000000e+00"/>
    <Variable VarIndex="13" Expression="RichDLLe" Label="RichDLLe" Title="RichDLLe" Unit="" Internal="RichDLLe" Type="F" Min="-9.99000000e+02" Max="1.05628899e+02"/>
    <Variable VarIndex="14" Expression="RichDLLmu" Label="RichDLLmu" Title="RichDLLmu" Unit="" Internal="RichDLLmu" Type="F" Min="-9.99000000e+02" Max="7.62491989e+01"/>
    <Variable VarIndex="15" Expression="RichDLLk" Label="RichDLLk" Title="RichDLLk" Unit="" Internal="RichDLLk" Type="F" Min="-9.99000000e+02" Max="9.94590988e+01"/>
    <Variable VarIndex="16" Expression="RichDLLp" Label="RichDLLp" Title="RichDLLp" Unit="" Internal="RichDLLp" Type="F" Min="-9.99000000e+02" Max="8.72170029e+01"/>
    <Variable VarIndex="17" Expression="RichDLLbt" Label="RichDLLbt" Title="RichDLLbt" Unit="" Internal="RichDLLbt" Type="F" Min="-9.99000000e+02" Max="6.73796005e+01"/>
    <Variable VarIndex="18" Expression="InAccMuon" Label="InAccMuon" Title="InAccMuon" Unit="" Internal="InAccMuon" Type="I" Min="0.00000000e+00" Max="1.00000000e+00"/>
    <Variable VarIndex="19" Expression="MuonBkgLL" Label="MuonBkgLL" Title="MuonBkgLL" Unit="" Internal="MuonBkgLL" Type="F" Min="-9.99000000e+02" Max="2.28000004e-02"/>
    <Variable VarIndex="20" Expression="MuonMuLL" Label="MuonMuLL" Title="MuonMuLL" Unit="" Internal="MuonMuLL" Type="F" Min="-9.99000000e+02" Max="0.00000000e+00"/>
    <Variable VarIndex="21" Expression="MuonIsLooseMuon" Label="MuonIsLooseMuon" Title="MuonIsLooseMuon" Unit="" Internal="MuonIsLooseMuon" Type="I" Min="0.00000000e+00" Max="1.00000000e+00"/>
    <Variable VarIndex="22" Expression="MuonIsMuon" Label="MuonIsMuon" Title="MuonIsMuon" Unit="" Internal="MuonIsMuon" Type="I" Min="0.00000000e+00" Max="1.00000000e+00"/>
    <Variable VarIndex="23" Expression="MuonNShared" Label="MuonNShared" Title="MuonNShared" Unit="" Internal="MuonNShared" Type="I" Min="0.00000000e+00" Max="9.50000000e+01"/>
    <Variable VarIndex="24" Expression="InAccEcal" Label="InAccEcal" Title="InAccEcal" Unit="" Internal="InAccEcal" Type="I" Min="0.00000000e+00" Max="1.00000000e+00"/>
    <Variable VarIndex="25" Expression="EcalPIDe" Label="EcalPIDe" Title="EcalPIDe" Unit="" Internal="EcalPIDe" Type="F" Min="-9.99000000e+02" Max="4.34127378e+00"/>
    <Variable VarIndex="26" Expression="EcalPIDmu" Label="EcalPIDmu" Title="EcalPIDmu" Unit="" Internal="EcalPIDmu" Type="F" Min="-9.99000000e+02" Max="2.64517307e+00"/>
    <Variable VarIndex="27" Expression="InAccHcal" Label="InAccHcal" Title="InAccHcal" Unit="" Internal="InAccHcal" Type="I" Min="0.00000000e+00" Max="1.00000000e+00"/>
    <Variable VarIndex="28" Expression="HcalPIDe" Label="HcalPIDe" Title="HcalPIDe" Unit="" Internal="HcalPIDe" Type="F" Min="-9.99000000e+02" Max="2.48420715e+00"/>
    <Variable VarIndex="29" Expression="HcalPIDmu" Label="HcalPIDmu" Title="HcalPIDmu" Unit="" Internal="HcalPIDmu" Type="F" Min="-9.99000000e+02" Max="2.61016369e+00"/>
    <Variable VarIndex="30" Expression="PrsPIDe" Label="PrsPIDe" Title="PrsPIDe" Unit="" Internal="PrsPIDe" Type="F" Min="-9.99000000e+02" Max="3.54214787e+00"/>
  </Variables>
  <Spectators NSpec="0"/>
  <Classes NClass="2">
    <Class Name="Background" Index="0"/>
    <Class Name="Signal" Index="1"/>
  </Classes>
  <Transformations NTransformations="1">
    <Transform Name="Normalize">
      <Selection>
        <Input NInputs="31">
          <Input Type="Variable" Label="TrackP" Expression="TrackP"/>
          <Input Type="Variable" Label="TrackPt" Expression="TrackPt"/>
          <Input Type="Variable" Label="TrackChi2PerDof" Expression="TrackChi2PerDof"/>
          <Input Type="Variable" Label="TrackNumDof" Expression="TrackNumDof"/>
          <Input Type="Variable" Label="TrackLikelihood" Expression="TrackLikelihood"/>
          <Input Type="Variable" Label="TrackGhostProbability" Expression="TrackGhostProbability"/>
          <Input Type="Variable" Label="TrackFitTChi2" Expression="TrackFitTChi2"/>
          <Input Type="Variable" Label="TrackFitTNDoF" Expression="TrackFitTNDoF"/>
          <Input Type="Variable" Label="RichUsedAero" Expression="RichUsedAero"/>
          <Input Type="Variable" Label="RichUsedR1Gas" Expression="RichUsedR1Gas"/>
          <Input Type="Variable" Label="RichUsedR2Gas" Expression="RichUsedR2Gas"/>
          <Input Type="Variable" Label="RichAboveMuThres" Expression="RichAboveMuThres"/>
          <Input Type="Variable" Label="RichAboveKaThres" Expression="RichAboveKaThres"/>
          <Input Type="Variable" Label="RichDLLe" Expression="RichDLLe"/>
          <Input Type="Variable" Label="RichDLLmu" Expression="RichDLLmu"/>
          <Input Type="Variable" Label="RichDLLk" Expression="RichDLLk"/>
          <Input Type="Variable" Label="RichDLLp" Expression="RichDLLp"/>
          <Input Type="Variable" Label="RichDLLbt" Expression="RichDLLbt"/>
          <Input Type="Variable" Label="InAccMuon" Expression="InAccMuon"/>
          <Input Type="Variable" Label="MuonBkgLL" Expression="MuonBkgLL"/>
          <Input Type="Variable" Label="MuonMuLL" Expression="MuonMuLL"/>
          <Input Type="Variable" Label="MuonIsLooseMuon" Expression="MuonIsLooseMuon"/>
          <Input Type="Variable" Label="MuonIsMuon" Expression="MuonIsMuon"/>
          <Input Type="Variable" Label="MuonNShared" Expression="MuonNShared"/>
          <Input Type="Variable" Label="InAccEcal" Expression="InAccEcal"/>
          <Input Type="Variable" Label="EcalPIDe" Expression="EcalPIDe"/>
          <Input Type="Variable" Label="EcalPIDmu" Expression="EcalPIDmu"/>
          <Input Type="Variable" Label="InAccHcal" Expression="InAccHcal"/>
          <Input Type="Variable" Label="HcalPIDe" Expression="HcalPIDe"/>
          <Input Type="Variable" Label="HcalPIDmu" Expression="HcalPIDmu"/>
          <Input Type="Variable" Label="PrsPIDe" Expression="PrsPIDe"/>
        </Input>
        <Output NOutputs="31">
          <Output Type="Variable" Label="TrackP" Expression="TrackP"/>
          <Output Type="Variable" Label="TrackPt" Expression="TrackPt"/>
          <Output Type="Variable" Label="TrackChi2PerDof" Expression="TrackChi2PerDof"/>
          <Output Type="Variable" Label="TrackNumDof" Expression="TrackNumDof"/>
          <Output Type="Variable" Label="TrackLikelihood" Expression="TrackLikelihood"/>
          <Output Type="Variable" Label="TrackGhostProbability" Expression="TrackGhostProbability"/>
          <Output Type="Variable" Label="TrackFitTChi2" Expression="TrackFitTChi2"/>
          <Output Type="Variable" Label="TrackFitTNDoF" Expression="TrackFitTNDoF"/>
          <Output Type="Variable" Label="RichUsedAero" Expression="RichUsedAero"/>
          <Output Type="Variable" Label="RichUsedR1Gas" Expression="RichUsedR1Gas"/>
          <Output Type="Variable" Label="RichUsedR2Gas" Expression="RichUsedR2Gas"/>
          <Output Type="Variable" Label="RichAboveMuThres" Expression="RichAboveMuThres"/>
          <Output Type="Variable" Label="RichAboveKaThres" Expression="RichAboveKaThres"/>
          <Output Type="Variable" Label="RichDLLe" Expression="RichDLLe"/>
          <Output Type="Variable" Label="RichDLLmu" Expression="RichDLLmu"/>
          <Output Type="Variable" Label="RichDLLk" Expression="RichDLLk"/>
          <Output Type="Variable" Label="RichDLLp" Expression="RichDLLp"/>
          <Output Type="Variable" Label="RichDLLbt" Expression="RichDLLbt"/>
          <Output Type="Variable" Label="InAccMuon" Expression="InAccMuon"/>
          <Output Type="Variable" Label="MuonBkgLL" Expression="MuonBkgLL"/>
          <Output Type="Variable" Label="MuonMuLL" Expression="MuonMuLL"/>
          <Output Type="Variable" Label="MuonIsLooseMuon" Expression="MuonIsLooseMuon"/>
          <Output Type="Variable" Label="MuonIsMuon" Expression="MuonIsMuon"/>
          <Output Type="Variable" Label="MuonNShared" Expression="MuonNShared"/>
          <Output Type="Variable" Label="InAccEcal" Expression="InAccEcal"/>
          <Output Type="Variable" Label="EcalPIDe" Expression="EcalPIDe"/>
          <Output Type="Variable" Label="EcalPIDmu" Expression="EcalPIDmu"/>
          <Output Type="Variable" Label="InAccHcal" Expression="InAccHcal"/>
          <Output Type="Variable" Label="HcalPIDe" Expression="HcalPIDe"/>
          <Output Type="Variable" Label="HcalPIDmu" Expression="HcalPIDmu"/>
          <Output Type="Variable" Label="PrsPIDe" Expression="PrsPIDe"/>
        </Output>
      </Selection>
      <Class ClassIndex="0">
        <Ranges>
          <Range Index="0" Min="1.1396400146484375e+03" Max="1.1078936250000000e+06"/>
          <Range Index="1" Min="2.1941311359405518e+00" Max="4.2718371093750000e+04"/>
          <Range Index="2" Min="2.8432818129658699e-02" Max="2.9999909400939941e+00"/>
          <Range Index="3" Min="4.0000000000000000e+00" Max="3.2000000000000000e+01"/>
          <Range Index="4" Min="-9.2099708557128906e+01" Max="8.4569460153579712e-01"/>
          <Range Index="5" Min="-9.9900000000000000e+02" Max="1.0000000000000000e+00"/>
          <Range Index="6" Min="1.5639772173017263e-03" Max="6.7128829956054688e+01"/>
          <Range Index="7" Min="1.0000000000000000e+00" Max="2.8000000000000000e+01"/>
          <Range Index="8" Min="0.0000000000000000e+00" Max="1.0000000000000000e+00"/>
          <Range Index="9" Min="0.0000000000000000e+00" Max="1.0000000000000000e+00"/>
          <Range Index="10" Min="0.0000000000000000e+00" Max="1.0000000000000000e+00"/>
          <Range Index="11" Min="0.0000000000000000e+00" Max="1.0000000000000000e+00"/>
          <Range Index="12" Min="0.0000000000000000e+00" Max="1.0000000000000000e+00"/>
          <Range Index="13" Min="-9.9900000000000000e+02" Max="6.0237701416015625e+01"/>
          <Range Index="14" Min="-9.9900000000000000e+02" Max="7.6249198913574219e+01"/>
          <Range Index="15" Min="-9.9900000000000000e+02" Max="9.9459098815917969e+01"/>
          <Range Index="16" Min="-9.9900000000000000e+02" Max="8.7217002868652344e+01"/>
          <Range Index="17" Min="-9.9900000000000000e+02" Max="6.7379600524902344e+01"/>
          <Range Index="18" Min="0.0000000000000000e+00" Max="1.0000000000000000e+00"/>
          <Range Index="19" Min="-9.9900000000000000e+02" Max="2.2800000384449959e-02"/>
          <Range Index="20" Min="-9.9900000000000000e+02" Max="0.0000000000000000e+00"/>
          <Range Index="21" Min="0.0000000000000000e+00" Max="1.0000000000000000e+00"/>
          <Range Index="22" Min="0.0000000000000000e+00" Max="1.0000000000000000e+00"/>
          <Range Index="23" Min="0.0000000000000000e+00" Max="9.5000000000000000e+01"/>
          <Range Index="24" Min="0.0000000000000000e+00" Max="1.0000000000000000e+00"/>
          <Range Index="25" Min="-9.9900000000000000e+02" Max="4.3412737846374512e+00"/>
          <Range Index="26" Min="-9.9900000000000000e+02" Max="2.6451730728149414e+00"/>
          <Range Index="27" Min="0.0000000000000000e+00" Max="1.0000000000000000e+00"/>
          <Range Index="28" Min="-9.9900000000000000e+02" Max="2.4842071533203125e+00"/>
          <Range Index="29" Min="-9.9900000000000000e+02" Max="2.6101636886596680e+00"/>
          <Range Index="30" Min="-9.9900000000000000e+02" Max="3.5421478748321533e+00"/>
        </Ranges>
      </Class>
      <Class ClassIndex="1">
        <Ranges>
          <Range Index="0" Min="1.2010999755859375e+03" Max="3.3965200000000000e+05"/>
          <Range Index="1" Min="9.0134906768798828e+00" Max="1.0585494140625000e+04"/>
          <Range Index="2" Min="1.0518476366996765e-01" Max="2.9964196681976318e+00"/>
          <Range Index="3" Min="6.0000000000000000e+00" Max="2.9000000000000000e+01"/>
          <Range Index="4" Min="-6.8415390014648438e+01" Max="-1.0100464522838593e-01"/>
          <Range Index="5" Min="-9.9900000000000000e+02" Max="1.0000000000000000e+00"/>
          <Range Index="6" Min="9.9793285131454468e-02" Max="5.0260608673095703e+01"/>
          <Range Index="7" Min="2.0000000000000000e+00" Max="2.5000000000000000e+01"/>
          <Range Index="8" Min="0.0000000000000000e+00" Max="1.0000000000000000e+00"/>
          <Range Index="9" Min="0.0000000000000000e+00" Max="1.0000000000000000e+00"/>
          <Range Index="10" Min="0.0000000000000000e+00" Max="1.0000000000000000e+00"/>
          <Range Index="11" Min="0.0000000000000000e+00" Max="1.0000000000000000e+00"/>
          <Range Index="12" Min="0.0000000000000000e+00" Max="1.0000000000000000e+00"/>
          <Range Index="13" Min="-9.9900000000000000e+02" Max="1.0562889862060547e+02"/>
          <Range Index="14" Min="-9.9900000000000000e+02" Max="4.7035999298095703e+01"/>
          <Range Index="15" Min="-9.9900000000000000e+02" Max="3.1409099578857422e+01"/>
          <Range Index="16" Min="-9.9900000000000000e+02" Max="3.4029499053955078e+01"/>
          <Range Index="17" Min="-9.9900000000000000e+02" Max="3.9880001068115234e+01"/>
          <Range Index="18" Min="0.0000000000000000e+00" Max="1.0000000000000000e+00"/>
          <Range Index="19" Min="-9.9900000000000000e+02" Max="8.1000002101063728e-03"/>
          <Range Index="20" Min="-9.9900000000000000e+02" Max="0.0000000000000000e+00"/>
          <Range Index="21" Min="0.0000000000000000e+00" Max="1.0000000000000000e+00"/>
          <Range Index="22" Min="0.0000000000000000e+00" Max="1.0000000000000000e+00"/>
          <Range Index="23" Min="0.0000000000000000e+00" Max="4.4000000000000000e+01"/>
          <Range Index="24" Min="0.0000000000000000e+00" Max="1.0000000000000000e+00"/>
          <Range Index="25" Min="-9.9900000000000000e+02" Max="4.0547904968261719e+00"/>
          <Range Index="26" Min="-9.9900000000000000e+02" Max="2.1257719993591309e+00"/>
          <Range Index="27" Min="0.0000000000000000e+00" Max="1.0000000000000000e+00"/>
          <Range Index="28" Min="-9.9900000000000000e+02" Max="2.4526777267456055e+00"/>
          <Range Index="29" Min="-9.9900000000000000e+02" Max="2.4827101230621338e+00"/>
          <Range Index="30" Min="-9.9900000000000000e+02" Max="3.4631350040435791e+00"/>
        </Ranges>
      </Class>
      <Class ClassIndex="2">
        <Ranges>
          <Range Index="0" Min="1.1396400146484375e+03" Max="1.1078936250000000e+06"/>
          <Range Index="1" Min="2.1941311359405518e+00" Max="4.2718371093750000e+04"/>
          <Range Index="2" Min="2.8432818129658699e-02" Max="2.9999909400939941e+00"/>
          <Range Index="3" Min="4.0000000000000000e+00" Max="3.2000000000000000e+01"/>
          <Range Index="4" Min="-9.2099708557128906e+01" Max="8.4569460153579712e-01"/>
          <Range Index="5" Min="-9.9900000000000000e+02" Max="1.0000000000000000e+00"/>
          <Range Index="6" Min="1.5639772173017263e-03" Max="6.7128829956054688e+01"/>
          <Range Index="7" Min="1.0000000000000000e+00" Max="2.8000000000000000e+01"/>
          <Range Index="8" Min="0.0000000000000000e+00" Max="1.0000000000000000e+00"/>
          <Range Index="9" Min="0.0000000000000000e+00" Max="1.0000000000000000e+00"/>
          <Range Index="10" Min="0.0000000000000000e+00" Max="1.0000000000000000e+00"/>
          <Range Index="11" Min="0.0000000000000000e+00" Max="1.0000000000000000e+00"/>
          <Range Index="12" Min="0.0000000000000000e+00" Max="1.0000000000000000e+00"/>
          <Range Index="13" Min="-9.9900000000000000e+02" Max="1.0562889862060547e+02"/>
          <Range Index="14" Min="-9.9900000000000000e+02" Max="7.6249198913574219e+01"/>
          <Range Index="15" Min="-9.9900000000000000e+02" Max="9.9459098815917969e+01"/>
          <Range Index="16" Min="-9.9900000000000000e+02" Max="8.7217002868652344e+01"/>
          <Range Index="17" Min="-9.9900000000000000e+02" Max="6.7379600524902344e+01"/>
          <Range Index="18" Min="0.0000000000000000e+00" Max="1.0000000000000000e+00"/>
          <Range Index="19" Min="-9.9900000000000000e+02" Max="2.2800000384449959e-02"/>
          <Range Index="20" Min="-9.9900000000000000e+02" Max="0.0000000000000000e+00"/>
          <Range Index="21" Min="0.0000000000000000e+00" Max="1.0000000000000000e+00"/>
          <Range Index="22" Min="0.0000000000000000e+00" Max="1.0000000000000000e+00"/>
          <Range Index="23" Min="0.0000000000000000e+00" Max="9.5000000000000000e+01"/>
          <Range Index="24" Min="0.0000000000000000e+00" Max="1.0000000000000000e+00"/>
          <Range Index="25" Min="-9.9900000000000000e+02" Max="4.3412737846374512e+00"/>
          <Range Index="26" Min="-9.9900000000000000e+02" Max="2.6451730728149414e+00"/>
          <Range Index="27" Min="0.0000000000000000e+00" Max="1.0000000000000000e+00"/>
          <Range Index="28" Min="-9.9900000000000000e+02" Max="2.4842071533203125e+00"/>
          <Range Index="29" Min="-9.9900000000000000e+02" Max="2.6101636886596680e+00"/>
          <Range Index="30" Min="-9.9900000000000000e+02" Max="3.5421478748321533e+00"/>
        </Ranges>
      </Class>
    </Transform>
  </Transformations>
  <MVAPdfs/>
  <Weights>
    <Layout NLayers="3">
      <Layer Index="0" NNeurons="32">
        <Neuron NSynapses="43">
          -3.3159390682014295e-01 2.0458641782459059e+00 1.6471116761861222e+00 9.6307997114231558e-01 -9.1929272071446200e-01 -1.2663664071854144e+00 -6.2824402153530223e-01 1.8394159091365132e+00 -8.5300917129718756e-01 -6.3526600958530755e-01 -2.1715911403296118e+00 -6.6726605628969915e-01 1.5713408390076413e+00 -1.1779297843600517e-01 -9.9025319137130319e-01 6.9717425417406609e-01 -1.1684260112885196e+00 1.8469861376310639e+00 2.9914372034813946e-01 1.3344214480110252e+00 -8.1398281738403611e-01 -1.3275772719410741e+00 3.4640372156069305e-01 2.2817461556170771e-01 -1.1418588052999510e+00 -1.1225012937148073e+00 2.2867955563406519e+00 -1.1047804779723889e+00 -1.9715109865091158e+00 7.0775061929105298e-01 1.4664083956395357e-01 4.4214897413219720e+00 2.4849398116580787e-01 3.8726275783064085e-01 -3.5281917767888271e-01 -2.9848186612490766e+00 -1.0901059103707842e+00 1.9775675276520639e+00 1.5468110613580918e-01 1.7142487713336638e+00 7.4007718616800600e-01 -2.6360092780974620e+00 1.8610923684932732e+00 
        </Neuron>
        <Neuron NSynapses="43">
          1.4399270086496727e+00 -7.3726401124263508e-01 -1.6683274481153378e+00 -5.8721262368775236e-02 -1.8678591014458035e-01 1.7336269971685898e+00 1.6192176873897517e+00 1.4277577460492805e+00 2.1221346180837304e+00 -1.8717284687431415e+00 8.8834818514581970e-01 -1.9807214683330097e+00 1.5810861209753782e+00 -1.1318984802122749e+00 -2.2950186569102566e+00 1.5994596607653098e+00 3.5575498461281452e+00 -1.3537876959068482e+00 5.1782624880818129e-01 -6.7012974182077356e-01 9.1897525462966090e-01 2.0430761842570377e+00 -8.7699258189509924e-02 -5.4593927746670912e-01 -3.9406901406106782e+00 -2.4280738316563619e-01 -8.0337624658067305e-02 -2.2779669492668226e+00 -1.5368328117622170e+00 1.2378227854200741e+00 8.1536997248001775e-01 2.2988404320871170e+00 -4.1600340475939196e-01 -3.7031933416422311e+00 -2.6999464634000563e+00 -1.1819127370936080e+00 8.9942837362778549e-01 1.8642993969728636e+00 -4.2100659658599744e+00 1.2626431041943817e+00 4.7728302312185727e-01 -5.6800939997849911e+00 -2.2454582068978202e-01 
        </Neuron>
        <Neuron NSynapses="43">
          9.5097265624313687e-01 -7.0006403121744631e-01 -1.4511417829170150e+00 -1.9331241012490896e+00 -1.0039483559867888e+00 5.0702419437214985e-01 1.8397933241360831e+00 -2.5663726888077223e+00 -3.1076052127336018e-01 1.7625518650843639e+00 4.5028001162604214e-01 -9.9928342647355706e-01 2.9991995612376273e-03 -7.6452726459801501e-01 -8.2575850291560160e-01 -2.4151402148937962e+00 -4.6627386327377984e-01 1.4138048623857611e+00 -1.0019094072415182e+00 -1.1677307606797659e-01 -4.0905703811684431e+00 -3.0055735048339244e-01 8.8988171808985150e-01 5.1525006307310561e-01 -1.3082380888993392e-01 1.8055156117894791e+00 -1.3421809258582216e+00 -1.3598952908070808e-01 -1.6004668416362524e+00 1.9324100093557761e+00 4.9706301131770259e-01 -1.1090824130630783e-01 8.3395228377436248e-01 -2.1854346322210003e+00 -2.4157843830362169e+00 -1.4380629401095008e-01 -2.9544249074646411e-01 1.9381067709421762e+00 7.2383353970951497e-02 1.1154879026995990e-01 1.1745302698969785e-01 -2.3559060763218154e-01 -1.2014725060567000e+00 
        </Neuron>
        <Neuron NSynapses="43">
          9.0537646354783996e-01 -3.9563131024965603e-01 -2.5731718382662438e+00 3.2963572424196402e-01 -4.6408974652541440e-01 1.0985630684191421e+00 1.4894575206913365e+00 2.5734423634649843e+00 -2.2397888800945931e+00 2.5913404318076277e-01 1.4427775851890146e+00 1.8451725792906761e+00 -5.5363236742456703e-02 -2.1484045355301888e+00 6.1184852783271482e-01 -9.1670048483701927e-01 2.0601523150154408e+00 1.2080334864342515e+00 -8.5356276220313429e-02 -9.7184707626496702e-01 3.1298293939482286e-01 -1.0085092026187061e+00 2.0267725560196997e-01 7.8866617013083129e-01 -1.3076553809765741e+00 8.2353298488381271e-02 -7.4529133809187886e-01 1.4272795194149794e+00 1.0948387710547935e+00 1.3392412973457997e+00 -1.0418962986405493e+00 1.4451702789940799e+00 1.6174655306761203e+00 -2.7547127695544849e-02 4.8608798984348556e-01 5.5904924509925590e-02 -1.3472146647378389e-01 -8.3538578444422329e-01 -6.5996858818751974e-02 -8.7335378056207591e-01 -4.1203528097504755e-01 1.5937211775229936e+00 -1.6718301125489060e-01 
        </Neuron>
        <Neuron NSynapses="43">
          -1.6494475146514290e-01 7.3544213305705930e-01 1.1631344714990501e+00 -1.0404433606945043e+00 3.8917933785231451e-01 1.8872657499938136e-01 2.9692115473627229e-01 -4.4788883588071376e-01 -9.1435473866462780e-01 8.2299350236115010e-01 8.1290516980679273e-01 -1.7084298926929495e+00 -1.4611652451606581e-02 -8.5345088966185390e-01 1.7991659776676772e-01 1.1482106408824961e+00 3.9036283520977050e-01 2.0029669442733406e-03 -1.1589482613808244e+00 1.8890849203375290e-01 2.4795192551101826e+00 1.8154351169786924e+00 2.1008350164612795e+00 -1.2084967602879730e+00 -1.0032229054242250e+00 1.5872018499651910e+00 1.1637328353815788e+00 -2.1971002656467817e+00 -1.7995475732629021e-01 -8.4407941968408007e-01 2.3489632600744315e-01 8.9559629790777884e-01 1.9451724253645450e+00 -1.1370141024120688e+00 -4.3384028713913597e-01 2.9493183344342461e-01 2.3955612888928002e+00 1.5760473180692711e+00 -2.1102346915324327e-01 -2.6084214508504788e-01 -1.8190870025517653e-01 3.3345893777913860e-01 1.3046558373691786e+00 
        </Neuron>
        <Neuron NSynapses="43">
          8.8326023501031514e-01 6.9562578073870707e-01 3.3492174624882526e-01 1.1302991814429593e+00 -1.5871629159088263e+00 -1.1745968545002621e+00 -1.6901247298678601e-01 -2.5371675736265304e+00 8.0944477011569782e-01 2.2328309428335658e+00 -6.0163882949913283e-01 8.7815724095493397e-01 -8.1270699180412109e-01 -1.7863301159919107e+00 -2.7404596229029232e-01 8.1439171828595458e-01 2.7793320900251361e-01 1.2004090138747141e+00 -9.0376804181291126e-01 2.1817499320965887e+00 -5.2799840268876641e-01 1.0669884476592435e+00 -8.6985566361283628e-01 -2.0488075872217650e+00 -1.3843477358662146e+00 -9.6916511375656555e-01 -5.7458303062640015e-01 -1.0641928224557688e+00 -1.6414166888239927e+00 -2.2343081358318440e+00 5.6356185042988582e-01 1.0481873391352768e-01 -1.9566791862148381e+00 1.3210654549681904e+00 -4.7654840273361497e-02 1.0210329650275449e+01 -8.9222461603027226e-01 2.9509592673421114e-01 6.7206405320422169e+00 1.3110458484723346e+00 -1.7789158233172264e+00 -4.2477059790762235e+00 -8.4916746308776214e-01 
        </Neuron>
        <Neuron NSynapses="43">
          -6.5591712567614846e-01 -2.3352156581456960e+00 -4.7074163082413731e-02 6.1880246747098722e-01 1.2489962534606549e+00 -4.4551406103353280e-01 -1.2631146326416373e-01 -1.7046091146873592e+00 -1.0652058656601986e+00 6.4332610289622560e-01 1.8052153968633031e+00 -1.1300195053257798e+00 -1.6126880822401621e-03 -8.2024693716659311e-03 2.2447231188542793e+00 -1.0016199690316120e-01 2.3760245201217589e-01 -1.3009263729590195e+00 1.5279151659420407e+00 7.3325155749863313e-01 2.0957633740307644e+00 2.9646825441763697e-01 1.3531560387179406e-01 -6.6839925118667587e-01 6.3836212601973211e-02 2.7959624408497485e-01 -7.8569443250778637e-01 -9.3444222425570211e-01 -1.6183750168326161e+00 2.1592232876696347e+00 -1.3426943997297622e+00 1.7733572728307453e-01 -1.5887246323604184e-01 2.0745551783626044e+00 -2.2699451603559968e+00 -4.6945505837680937e-02 6.9468416028533442e-01 -2.0292152583732501e+00 -1.5563214080258250e-01 9.7332478949279599e-01 2.5161931643681856e-01 -3.9767044126844370e-02 -2.5883057988430296e+00 
        </Neuron>
        <Neuron NSynapses="43">
          -1.1340666441635119e+00 1.5284781710275177e+00 -1.4005723752778061e+00 -5.0391948629571182e-01 -7.5206965481844956e-01 2.2757717605331260e-01 -1.2266233864443914e+00 -8.9795999988771324e-01 -1.7493853611181613e+00 6.3512482151210825e-01 -2.1071634438570848e+00 -6.8166364904709764e-01 1.0512459433043056e-01 -4.8621793932734442e-01 -6.1839321817972477e-02 2.3157045468506698e+00 -1.7984262388792212e+00 1.8573405244586401e+00 1.5087267027957891e+00 -1.9482240630067449e+00 -2.0122055495313740e+00 5.8640754425546782e-01 -1.0141733025186388e+00 -6.5116868435552300e-01 1.5608026616963384e+00 1.9503026033529283e+00 1.3004400414950759e+00 -1.1210960167318529e+00 1.7644893867362070e+00 -1.6086639035551287e+00 1.0986910260837577e+00 -1.4073181834164470e+00 -8.2933522644259394e-01 -1.3269784528995294e+00 1.2718269824437620e+00 9.0707429178289167e-02 2.0474309571832738e+00 6.0828631546805556e-01 -1.1206706463224742e-01 -8.8788904726939366e-01 3.6178948018648593e-01 -1.5128373828550314e+00 -2.5875563506912420e+00 
        </Neuron>
        <Neuron NSynapses="43">
          -5.7623241629689326e-01 -1.8573283016079676e+00 1.7524179348830474e-01 6.5768019892497420e-01 3.2446076825649803e+00 -1.0958426089982634e+00 6.1587284160059785e-01 1.2663080473893600e+00 1.0557211799654123e-01 -3.6402164915459162e-01 -5.7470318308573420e-01 -1.4277053676693143e+00 -1.3151416787205703e-01 2.0010847051720098e+00 1.2160183846050496e-01 7.7461901124724919e-01 3.0338364047705080e-01 -1.4352553433742787e+00 -1.0399658455632368e+00 -1.7661564002353654e+00 3.8592849569591392e-01 -1.9179830731394196e-01 -1.8447273523087204e+00 8.0683715596102801e-01 6.0132106544145199e-02 -5.4774469196633735e-01 1.4756384125858364e+00 -2.3752945567987931e+00 -1.2620619484309845e+00 2.0644894642932288e+00 4.7810418102204200e-03 8.1310183323300950e-02 1.0437316630886342e+00 7.7361644891731396e-01 3.0250577273481603e+00 -1.2552894463354261e-02 -2.2324358442388066e+00 1.3467485122419734e-01 3.6972441617314722e-01 1.3377373800208407e+00 -3.0896660778137630e-01 2.1026132253893492e+00 1.8775329667563279e+00 
        </Neuron>
        <Neuron NSynapses="43">
          -3.9768027344959367e-01 2.2489947257047298e+00 -6.2507903160559075e-01 1.9884579941706251e-01 -4.9591206451906927e-01 -1.5255210103090773e+00 -7.2171971905473331e-01 -1.5605315881973252e+00 7.4159668875072504e-01 4.6974423645597169e-01 8.4497139890054862e-01 1.8821938368922357e+00 -6.2164571994123972e-02 8.9408304824342233e-01 4.3705053146000095e-01 1.3169414302451561e+00 -9.5669127254197694e-01 3.2889912399336865e+00 -1.8359546295828637e+00 7.5534943940003452e-01 1.3115656295159159e+00 1.2629995949960041e-01 -1.4355606522077753e+00 -1.7439077570262880e+00 -1.8652452651507847e+00 -1.5731889282038453e-01 -1.8882862214964586e+00 -9.2552651654826346e-01 -3.0712396759198296e-01 1.1283022103662013e+00 2.2332856497408016e+00 4.1745961685188888e+00 -9.2770560557677406e-01 -9.6062954419834801e-01 8.9087344831144322e-01 1.7484653002044601e+00 -2.1856022181853616e+00 -1.2159718700728357e+00 6.5076006521812571e-02 -1.6923096652174610e+00 -4.4212566661634656e-01 -4.0443679024843848e-01 1.1308802648438179e+00 
        </Neuron>
        <Neuron NSynapses="43">
          -4.2659161384040645e-01 -1.7209182532020180e+00 -2.4686314951008228e+00 -8.8976750328726220e-02 2.8990693405316610e+00 1.8830059809061923e+00 1.4975717835230915e+00 -3.4232303156431121e-01 -2.2240027119667918e+00 -6.6308959159683667e-01 -1.1307234854976054e+00 -1.8314374308669501e+00 3.3890024182568736e-02 -6.1683833934173316e-01 -1.7198309204885767e+00 3.6455596038181017e+00 5.2532353962891976e-01 -8.1607485857321194e-01 -7.2207672834594516e-01 -3.9230933984392757e-01 6.4075503556301505e-01 -1.0274836883333833e+00 2.2614513054620830e-01 2.1273153871234252e+00 -2.6088015951307508e-01 -1.7912178700799077e+00 1.1160339402995934e+00 -3.1890847784413507e+00 1.6947020275110387e+00 2.4310579960715950e+00 1.2487592446493417e-01 1.3116229232448853e-01 1.5849348077162839e+00 -8.7551006304222911e-01 2.3065424198374171e+00 -1.1892528676150682e-02 -1.5935161123784412e+00 -1.5925687924546978e+00 -5.7791648447039456e-01 1.1529980044430719e+00 1.4147577719149865e-01 1.7021330151929908e+00 -1.6997608056130229e+00 
        </Neuron>
        <Neuron NSynapses="43">
          2.5484006552066094e+00 2.7566212755290714e-01 -1.7102755496713467e+00 7.5054477662530561e-01 -1.2035559315663853e+00 7.8039542937994788e-01 1.3644391398329789e+00 -5.9933088493765296e-01 -1.1408258294243607e+00 1.7170286365790806e+00 1.6624923351221859e+00 4.8543672418588722e-02 -1.0610367824831429e-01 -1.2164221349150894e+00 -1.0663098773522302e+00 2.1229412988935099e+00 6.9094299925757250e+00 3.4295604404658381e-01 -2.0711199115942049e+00 -2.3374520772080416e+00 -5.3408289682445254e-01 -2.3732659549272239e-02 -2.2952209292106822e+00 9.5298733558399362e-01 -5.3246696430828178e-01 2.0361397609768881e+00 -5.8556065673704172e-01 -2.6846629639994104e+00 1.4085764593918126e+00 1.2834454064631855e+00 8.9534450478284444e-01 1.3888629676256201e+00 -1.0917218138874947e+00 1.7374844754950591e+00 -1.1819738176720991e+00 6.7363597623377625e-02 -1.5576082243311118e+00 1.6205167430453504e+00 1.8483977860481293e-01 1.0883113905565516e+00 -3.2475588029588914e-02 -3.8005668001346005e-01 -1.1730417159154967e+00 
        </Neuron>
        <Neuron NSynapses="43">
          -6.5564809714832495e-01 -1.8697357873541823e-01 1.6846017380728209e-01 2.5583707521778998e-01 2.0725460432392224e+00 -2.6605899489734095e+00 1.5433442835890672e+00 -1.1514041443197027e+00 1.8888080585166387e+00 3.4812704219193430e-01 1.3156282616276815e+00 1.8989480918273733e+00 1.7876297076020370e-02 -1.1590536495076140e+00 -1.0231741463157322e+00 -1.7226307492034560e+00 3.9975481801398389e-03 -2.5031304845432778e-01 -2.1193199264668058e-01 -9.1819458032559720e-01 -9.6420122299064015e-01 -6.0331500081749467e-01 1.2246076285407721e-01 -1.9349222172446034e+00 1.8369394961782874e+00 -7.5850165408693160e-01 -2.4998147493295840e-02 -8.2283571229101271e-01 5.7330151145897235e-01 2.9217475411105451e-02 -2.4150400167737146e-01 1.4533709551302768e-01 2.9157932958231552e+00 -2.3024995544109367e-01 7.5449073079893891e-01 4.3943640118249298e-02 -1.9656563335602686e+00 -8.5612687983425328e-01 1.6557831444629389e-01 -1.4538591853091303e+00 -9.5320516148702711e-02 1.9605991649154325e-01 1.0500482719420443e+00 
        </Neuron>
        <Neuron NSynapses="43">
          -3.3515442988688884e+00 1.7009799758841275e+00 4.4819534542849393e+00 1.1287735724199865e+00 6.7892268567020988e+00 3.8741330313665595e-01 1.2659070829148497e-01 -9.1137611879853253e-01 -3.7304733561252927e+00 6.5015410306360977e-01 -6.3934681447155273e-01 1.3229179282177692e+00 -3.8749796143348553e-01 7.5182129573453527e-01 1.2236183347030365e+00 3.2503041450837826e+00 -3.2253157288186770e+01 1.1207396697803016e+00 -1.7880052657766885e+00 7.9527745247490744e-01 -4.3674706296537877e+00 -7.6344862413386405e-01 -3.7945055342270053e+00 4.2458813140588753e-01 -1.3522156751278883e+01 1.2358256270453757e-01 -2.4617831668227210e+00 2.2926375403252979e+00 1.1387512913936138e+00 -9.6527559796018192e-01 8.7546875558447612e-01 -1.4015900012855351e+01 3.6397175392509715e+00 -8.9199309390950343e-01 1.3389825599380987e+00 -1.9579423380672025e+00 -6.7208578509323103e-01 1.9928226433408851e+00 -1.5094711370603935e+01 -1.7927518278359282e+00 -9.1851615181915438e+00 2.8096615302157350e+01 1.9326825123881601e+00 
        </Neuron>
        <Neuron NSynapses="43">
          1.9987338466981768e+00 -1.7982077779320178e+00 -9.6234686680628900e-02 1.0395579233806718e+00 -2.2272858804834023e-01 -1.7874133471862137e+00 -1.5321092378180265e+00 2.1272097157845776e-01 4.3335190584710866e-02 1.3690959929270754e+00 -2.6263593673147323e-01 -2.9713275803065653e-01 5.5914072931376624e-01 1.6143908945877794e+00 3.4876565371553941e-01 7.6239359003840934e-01 2.4995889029216367e+00 -1.3885839343303621e+00 1.4913073704837660e+00 4.6278533019823032e-01 2.9273152106924565e+00 -1.6092455494093108e-01 -5.5175016958064427e-01 -1.1439312904507908e+00 -4.1484517606615295e-01 -7.3241494695491002e-02 -2.4972252352133646e+00 -3.5967857512438495e-01 -1.0822726329408990e-01 -1.1945420318505247e+00 2.0831096084111076e+00 1.2799842031644243e-01 -1.3363510480963354e+00 5.7788972281190443e-01 -9.9979142450916536e-01 2.7850030213527748e+00 1.0574782595048824e+00 -2.1342971554546661e+00 1.5173290170140676e+00 -4.7469155758994508e-01 1.4025486117536474e+00 -1.7727092938810842e+00 -1.5590527161761627e+00 
        </Neuron>
        <Neuron NSynapses="43">
          -2.5821466869154014e-01 -1.6298286621735849e+00 1.1549851586237287e+00 5.4778470031801718e-01 7.6314180479028093e-01 -3.5280022148136969e-01 -1.1246274838552335e+00 -1.3534285958514691e+00 -1.0976931796830289e+00 3.3547013924984515e-01 9.5209817936072250e-01 -5.8917002635866168e-02 -1.3320632509830039e+00 9.2996150698798707e-01 3.6157652671040269e-01 -1.5844832905251118e+00 2.2795172544192548e+00 1.0784325502056529e+00 -1.5885672805686917e+00 -1.4741832604888578e+00 -1.3046816889069284e+00 -1.8059062932723766e-01 1.9217505878566641e+00 1.7674831275987892e+00 2.0934990785710204e+00 -1.7807298061818544e+00 -1.1544885882590885e+00 -1.3055784411292735e+00 -5.3363565630679100e-01 1.0987180970169421e+00 -1.4932589430311434e+00 3.0517757292021370e+00 -1.0103793908991137e+00 8.7667210603871032e-02 -2.2429167841204452e+00 2.2570313097532985e-01 1.5761753539267873e-01 2.5717199050762023e+00 -1.2999935992834835e+00 1.8352569279957625e+00 1.4464360670382035e+00 -1.8023899688479463e+00 -8.9931775366686773e-01 
        </Neuron>
        <Neuron NSynapses="43">
          -1.1558536940968143e+00 -1.7885156160282358e+00 2.9152043073824796e-01 1.4341877807012149e+00 2.4612448208925664e-01 7.5269777823048112e-01 4.3181289342560319e-01 -3.3804477632434493e-01 1.1663476276741374e+00 6.5294291460534681e-01 -1.6192532079174953e+00 1.1855139600723326e-01 2.7478810493014222e-01 2.2030998570564959e+00 1.0848761306787444e+00 -8.8187087601649028e-01 -9.7215502734536441e-01 -7.3925937899046923e-01 -1.1439643739153649e+00 -1.2941633427733485e+00 7.8515133241451296e-01 5.8001084081929655e-01 -2.2614282005607259e-01 1.8593363706534993e+00 1.9898326837825502e+00 1.4228566222412289e-01 -5.4363357981250593e-01 6.5591901831577634e-02 1.0227047678521548e+00 -2.2372974167020021e+00 2.2079026076294097e+00 6.6914862382527873e-01 -1.1912425452363202e+00 1.7105443888878382e+00 -1.5786353174217878e+00 -2.6723021392946595e+00 1.1993717880016450e+00 9.7872458030442910e-01 -8.9510576606758685e-01 4.2697597619412983e-02 3.1362436860672434e+00 3.5972005217734265e-01 3.0290754647254042e-01 
        </Neuron>
        <Neuron NSynapses="43">
          -5.7916338631763287e-01 1.9340935981709793e+00 1.2947438786239391e+00 7.8189062039803259e-01 -1.7422824706210913e-01 -1.8110753624688422e-01 1.2118135335230258e+00 -1.4143533656196501e+00 1.5680645645245286e-03 -8.8616557133867668e-01 1.8133045990687677e+00 -2.1511181313045964e+00 9.9439652355881991e-01 -9.7754134619310962e-01 5.5382711451592381e-01 6.8992605731937684e-01 4.4092861601174542e+00 -1.8389142649380457e+00 -9.2196178867038669e-01 -7.3898430048870412e-01 1.6544437933294842e+00 1.1666493018118194e+00 1.7585160989603117e+00 1.4339732516797519e+00 1.2636410360512900e+00 9.2725141873333283e-01 -4.2383571121919389e-01 -1.8120244697342363e+00 1.2533549119436487e+00 -6.7077817293729269e-01 5.5219146044665901e-01 3.4664369051091715e+00 -1.7015845950741673e+00 1.5925801935502271e+00 -4.2984917238162329e-01 -3.6571430829650142e-01 -1.2915270986754890e+00 -3.0606371354948059e-01 -1.5943302223870166e+00 -3.5952421128640155e-01 2.2303884164433332e+00 -4.3312391686669294e+00 1.4801224516026887e+00 
        </Neuron>
        <Neuron NSynapses="43">
          1.1975851477370592e+00 -7.8406893073048600e-01 -2.9822711999279266e+00 1.7212604274268953e-01 1.0540702230207846e+00 -4.1145040214680884e-01 -7.6358441027105739e-01 7.6092967686790425e-01 2.4001996056330279e+00 1.5623237250906552e+00 -1.5354673087525098e-01 -1.6225366744141423e-01 -7.1223551528085488e-02 -7.7211506659883500e-01 -5.9489421645302666e-02 -1.6263200828361539e+00 1.3692726167270008e+01 -2.0337686273559816e+00 -6.2078446657009623e-01 5.1388696521824972e-01 8.0390253028185377e-01 -1.0217507388779831e-01 4.6518155163979219e-01 1.5615660237647417e+00 -4.4448077317585644e-01 -3.9017678100219200e-01 3.0689477951925359e+00 1.0186393263303892e-01 1.3068725811524740e+00 -7.0528272618339638e-01 -2.9809061757002158e+00 1.5132995183596185e-01 1.0156739003187962e-01 -1.5485019525762675e+00 -1.0757016443591083e+00 -6.1565544850659591e-02 1.3756446677382053e+00 -2.3667859731174339e+00 -5.4866930278756043e-01 7.7498621368248743e-01 1.5987857841993228e-01 -3.1228509910603740e-02 -2.2298655952659403e+00 
        </Neuron>
        <Neuron NSynapses="43">
          -7.5222671264684615e-01 -1.2587771879554135e-01 1.6935281942003913e-01 -1.2600214668104064e+00 1.3713433218616786e+00 -3.6336096047509529e-02 -1.8420528062103996e+00 1.3566391171572751e+00 -9.8448127626795012e-01 1.4402492285957587e+00 -4.0189345146574645e-01 9.7135391750812872e-01 -9.3136248506456895e-02 -1.1407896146440820e-01 1.6431467998153020e+00 1.6752284991759496e+00 -1.1229718962331274e+00 -1.3075447070662083e+00 1.2037902983023434e+00 1.1116406305292690e+00 1.1332517916698790e+00 3.1284830044565015e-01 -1.9903677024365314e+00 -1.6842488897991887e+00 1.8617181897949667e-01 -2.2629149584526482e+00 -1.1351226842544533e-02 -1.9675350283069237e+00 7.4929308568675901e-01 -1.3214641712765656e+00 4.1398770534027948e-02 -4.5578060293366823e-01 -3.8052671256691223e-01 -1.5609593359062213e+00 -6.9893616806594439e-01 -1.5299005211646131e+00 1.8992743343343466e+00 1.5140760799073030e+00 2.0618058311650143e+00 -5.9615594077343737e-01 2.0098053229582216e-01 3.8537508287562301e+00 1.2600325424654077e+00 
        </Neuron>
        <Neuron NSynapses="43">
          -7.6316683317502343e-01 2.0833698719712834e+00 4.7452780903162578e-01 6.5216739726049056e-01 1.0109847869527473e-02 1.0764686445384780e-01 -1.3062289404772612e-01 -1.5056368065053471e+00 6.9122250816808695e-01 2.6188496224424478e+00 -6.0838644824863841e-01 1.0210988586748231e+00 7.1854772879503992e-01 2.4962660183891381e+00 -1.8409525728527443e+00 9.0681894952737130e-01 1.1358397838910037e+00 -2.8919715781666548e+00 -1.5648746619555374e+00 7.3325372156385593e-01 9.8273392223680966e-01 5.3725341728686737e-01 -1.9947059727993224e+00 1.8484658747390981e-01 -5.2758862421260333e-01 -2.1454191157666807e+00 -2.4284884126064048e+00 -9.1918154690290821e-01 1.8324629014200704e+00 1.5021102795529198e+00 1.3952392733419872e+00 1.4533388264275908e+00 4.6050611725871554e-01 4.0137949563237733e-02 1.4980290402281915e+00 1.4925480031685439e+00 -1.3641719155973973e+00 -1.2224415577118302e+00 -1.0663976828364379e+00 2.9240408779170951e-01 -5.9133038876060162e-01 4.2171819068956911e+00 3.9652481453373800e-01 
        </Neuron>
        <Neuron NSynapses="43">
          2.1299805290770588e-01 1.7771386354391050e+00 8.6579619290064058e-01 2.2766574597308855e+00 1.5377318466416232e+00 2.6481870087249659e-01 9.5358219975347724e-01 1.0788708617568812e+00 -1.4517825924400984e+00 2.2902201977405103e+00 1.7966591467315398e+00 -4.9603198561094791e-01 -5.1294255287115342e-01 -4.7954617401418581e-01 5.6952948818090665e-01 -1.0146611200342830e+00 1.5239713781827746e-01 -2.5767603262620264e+00 1.4899421387813692e+00 1.1275359308046329e+00 2.0080534392964227e+00 -1.6395803180732544e+00 1.3568229523691147e+00 -1.1884283952550287e+00 -5.7520947533896950e-02 7.1011157745534037e-01 -1.1191298838225071e-01 -8.0013857674769928e-01 -8.4734693509403747e-01 2.3184779440791807e+00 1.7785342672407531e+00 -9.5157862453359543e-01 4.6017318158749182e-01 1.3892388236907699e-01 -1.6401166605516981e-01 4.4153155650351418e-02 1.1359538508801010e+00 2.0998115662773724e+00 -1.0749683178965985e+00 -6.9914741894545651e-01 2.3453512750806977e+00 2.6003297960039258e+00 -1.9219460027029380e+00 
        </Neuron>
        <Neuron NSynapses="43">
          3.8370851592458821e-01 -7.9104880945940526e-01 6.3108171043619388e-01 2.4617740139843693e+00 -2.4719728511835251e+00 -1.6149492098771226e-01 1.3116495737334031e+00 5.9207394642975635e-02 2.2502763955292897e+00 1.2530650720393792e+00 -2.4720885815926348e+00 -1.4836429052092976e+00 -1.6404312607134827e-01 -1.7869792457641348e-01 -1.3163286131007428e+00 2.5276963006870830e+00 1.1408622000678585e-01 4.8048190899040527e-01 2.4426457512504948e-01 2.3385474809996225e+00 8.1387309406912112e-01 3.2548413398799021e-04 3.5592835155327368e-01 1.1124758398267884e+00 -2.1160760439992826e-01 1.0122155612013106e+00 -7.1268466902707051e-01 -1.6812829871277571e-01 -1.6938923216122168e+00 1.4038485828465770e+00 1.1018367372706261e-01 1.0286229568971796e-02 -1.2254282971134456e+00 2.0782447317618229e+00 -6.2106906744833423e-01 -3.6625227404294670e-02 2.0288841966595994e+00 1.7404987704408878e-01 9.1902816157038311e-02 -2.0315040217367835e+00 -7.1228451243098090e-01 4.7031282134064485e+00 6.1910413460130898e-01 
        </Neuron>
        <Neuron NSynapses="43">
          -2.0022226239523460e+00 1.8311405668335405e+00 6.4159336033808845e-01 1.7740363920926567e+00 1.6066863665667857e+00 1.7357651249163757e+00 -4.3943246757770887e-01 1.5106934052978336e+00 1.0594490963771359e+00 -4.3550970134687811e-01 -1.9674565205567467e+00 -1.5548073608002213e+00 7.5698779270109029e-01 -1.1020077364988046e+00 -1.5301635321130529e+00 -7.0909235529023196e-01 -5.2495121054763128e-01 -2.0720692070183024e+00 1.5930457056941463e+00 9.4485504436082846e-01 -2.9322224512654818e+00 -3.3501934580573328e-01 1.7520648241344243e+00 6.9004222335205478e-01 -2.4178069970262435e+00 -7.1859590328965850e-01 -4.3259479253985911e-01 1.3958525439951968e+00 -1.3617361265736869e+00 -7.2105189469432718e-01 4.1345792567953712e+00 1.1019284739337551e+00 4.4341079889831231e-01 -3.8468490478765327e-01 -1.0429426643010093e+00 -3.3501751417621852e+00 -4.8925980599537938e-01 -9.4232650761492942e-01 -7.9113797054907264e-01 9.0739070749632433e-01 -1.8626140033619030e+00 2.7902673505643127e+00 9.0816749266221164e-01 
        </Neuron>
        <Neuron NSynapses="43">
          -2.6265788132215762e-01 -1.5487891333433577e+00 -2.2033708076866363e+00 -3.8272883848704653e-01 6.1642880529538302e-01 1.7672395811778669e+00 1.9383340060149239e+00 -1.7947435104647194e+00 1.0202370311910971e+00 -4.0366854883430664e-01 1.5902367192286224e-01 -1.3330698232442140e+00 9.7833462001521312e+00 -7.0102883371604530e-01 9.8491014280961420e-01 9.6132452275978475e-01 3.6480703659951406e+00 9.4966351347278699e-01 -1.7848723810194045e+00 1.2879857267013728e+00 -1.3207462873669360e+00 -2.5621061378923806e+00 -2.1490947029431515e+00 -1.9741103316669180e+00 4.2341614978431350e+00 9.8026724849625291e-01 -5.2391840175613678e-02 -6.3687068040117778e-01 1.8301358667292864e+00 1.0188450301679733e-01 -1.7614507299954045e+00 9.6539718435369153e+00 1.3902610972785279e+00 1.5601397310012549e-01 6.7705761187743196e-01 3.7001436949253796e+00 9.2091812519446214e-01 -1.2867109353226676e+00 2.5817902511937323e+00 1.0688008825441146e+00 6.8177718162277556e-01 -9.2537109150089343e+00 -1.4912760560058592e-02 
        </Neuron>
        <Neuron NSynapses="43">
          -2.1644700197826450e+00 -2.1139139196290766e+00 3.0538071559651665e+00 -1.6003111527139751e+00 2.1571786806347095e+00 6.3573371598990702e-01 -8.6373243319108384e-01 5.5967736835518100e-01 -1.7320177632454106e+00 -1.5153745717647485e-01 -9.7340267647020595e-01 3.6087365466596216e-02 -9.2311247403341330e+00 -2.6422391021780833e+00 -1.4356250594173139e+00 -8.8981350659243663e-01 -2.4149303340418534e+01 1.8155408243538624e+00 -6.0958698719009363e-01 -1.0358179915285641e+00 -1.7000241553529243e+00 3.0868264664567500e+00 -2.0352535965814056e+00 -2.6637676676490449e+00 -7.7116731004875945e+00 -1.2804725670496158e+00 2.2745158049425465e+00 8.6322762206447590e-01 -1.7421630962345038e+00 7.9865202664161983e-01 -2.3315995054912761e+00 -1.3259411727320810e+01 4.1577014147034443e+00 -3.2080003264957551e+00 7.9357026546624146e-02 -2.3467481631542991e+01 -2.0307983835720158e+00 1.2664840567597870e+00 -1.6447483924899132e+01 -7.2704660521172282e-01 8.7652778951121313e-01 1.3995977704437932e+01 3.5670528922000388e-01 
        </Neuron>
        <Neuron NSynapses="43">
          -1.2682738191741432e+00 -7.4089120712609313e-01 -4.1034916849796019e+00 9.3710408558075531e-01 -1.7069081987809470e-03 1.3920728632691051e+00 9.7028248788445837e-01 -3.2173292483483451e-01 -1.0669975127411351e+00 1.6059219498018285e+00 8.7283503969558474e-01 7.3773998821300624e-01 1.8008821296026944e+01 1.8652492431882191e+00 -7.8563407309154276e-01 -3.8901095331768082e-01 1.9678366708291939e+01 -1.2557716501406333e+00 6.2191864345975956e-01 2.1877500325335415e+00 7.2038809003798532e-01 -4.1685054021101049e+00 -3.4499950731296208e-01 -1.7038374698072570e-01 1.2486308107582660e+01 -2.2232174502266183e-01 9.1235205966998845e-01 2.1935012271888915e-01 4.0618684192280041e-01 -5.4124728142236556e-01 9.0117712281997997e-01 2.0524354098102489e+01 -1.9092960490496689e+00 6.5527252765731758e-01 -2.3488585886414710e+00 1.9746960572703276e+01 -3.4890156550015505e-01 4.8298991241912814e-01 1.3941240401395776e+01 1.9320904271392709e+00 -2.5243958920625870e-01 -1.9267223530261333e+01 9.7205434463625273e-01 
        </Neuron>
        <Neuron NSynapses="43">
          -2.0869307904231271e+00 -1.5181323617866120e+00 -9.1297312162706756e-01 1.2077038518671259e+00 -8.4482332814487182e-01 -1.4423744948234687e+00 4.5007998371387209e-01 1.6563910175057530e+00 -2.7280171929231334e-01 -3.4743814758399866e-01 2.0633632358459822e-01 1.1880987669449998e+00 -3.8440884632195721e-01 -4.1958010569142828e-01 -1.3160031390977778e+00 -1.1477556961755944e+00 1.3939271344541315e+00 1.1795701733474269e+00 -2.2109360734083069e-01 -4.7571937662400055e-01 2.3433525770825492e+00 6.2595528054906546e-01 -2.3568420065236060e+00 1.1592008345099325e+00 -5.7954416789278085e-01 -3.3900802633435223e-01 -7.0794498708740616e-01 -9.9449217523723898e-01 2.6491401432317579e-01 -8.5844043440288476e-01 -3.6774580211833291e-01 -1.1197080987122048e+00 8.9079783175553473e-01 4.2856734708094862e-01 1.1415835441995692e+00 -1.6052959264312296e+00 -1.7697673949243191e+00 -2.1584984981690187e+00 6.3369134236212465e+00 9.3686947339477866e-01 9.4189282446635958e-01 1.3339867533869145e+00 3.8770823088303674e-01 
        </Neuron>
        <Neuron NSynapses="43">
          -1.8278663266682436e+00 -1.6149166325227462e+00 -6.8143341646117150e-01 9.0638813309723576e-01 -8.7757143611174437e-01 -1.3024379143997142e-01 1.7034192771114667e+00 1.1504144272270229e+00 1.2017468561714530e+00 2.5835503054905132e-02 2.3260979696693146e-01 -1.7416390412087936e+00 -3.4714462863460254e+00 -1.5541984059104422e-01 1.8597771298085166e+00 1.0213373107527143e-01 -4.7827564787517520e+00 6.2669209754156407e-01 1.6806365778642360e+00 -1.3693508150795926e+00 5.5240255717603048e-01 -1.7643996867720892e+00 -6.8984975638019896e-01 -1.7409728416009165e+00 -2.6832671861626203e+00 2.5744174196993164e-01 2.6796978643293308e+00 1.3366349490935392e+00 -1.2368688753049486e+00 -2.2931803219927466e-02 -7.4592351119277267e-01 -1.3249030905749482e+00 1.0707534438856716e+00 6.2764168790056463e-01 1.3673700414334852e-01 -4.2386674535441733e+00 -1.8871030425133248e+00 -1.1072650316380099e+00 2.2266537400217530e+00 -7.4490609002599772e-01 -1.0713284239183878e+00 1.2819204926402070e+00 3.4573391149690480e-01 
        </Neuron>
        <Neuron NSynapses="43">
          -3.2812665494257315e-01 7.1732430371471700e-01 1.2744695459326287e+00 -8.8991631282107664e-01 1.6182643515372177e+00 -2.3349488566986396e-01 1.1692758433083230e+00 1.5959977892773027e+00 2.9832706647487086e+00 4.9245032971203884e-01 -5.3348747190754098e-01 3.2949879198406695e-01 3.9949552451695647e+00 -3.7097538548288228e-01 -1.2902083232097568e+00 9.0820869576998786e-01 3.1892130884758174e+00 1.7960550261504671e+00 -1.7207529365262906e+00 9.7781799021553983e-02 2.9555602652421933e+00 6.1130900831720836e-01 -1.2420880390323779e+00 -1.5020452875394099e+00 3.4472302128985177e+00 2.1308096334700903e+00 1.2361440680238662e+00 -1.1230370441273876e+00 -6.0872783157392238e-02 -8.6994732044063480e-02 -9.6942160112509246e-01 2.2948711617066810e+00 -6.7874030344392322e-01 -7.2227825198963891e-01 -1.8595431239554319e+00 5.8593353594637607e+00 1.0179721363597602e+00 -1.4265457246905562e+00 8.2307190690090639e+00 7.7526149535050359e-01 1.2081387428141666e-01 -2.7262127505038536e+00 -1.6243379629706908e-01 
        </Neuron>
        <Neuron NSynapses="43">
          -2.1830658098040803e+00 -1.3092130991972699e+00 4.8047831262683033e-01 5.2020559884484481e+00 -1.0303373363301509e+00 1.9693354508012728e+00 -6.1830577206756387e-02 1.0049137921156501e+00 -7.4754537187405679e-01 9.3420044990278872e-01 -8.4132738012088060e-01 1.3331455411251585e+00 -1.7723847048925922e+01 9.1767719397655734e-01 3.5187534691089324e+00 -2.1491945780576557e-01 -1.3458872397335732e+01 1.1172502004016145e+00 1.9136944623339140e+00 2.1232976845755562e+00 -4.2382495674530292e+00 3.5918445301077169e+00 -9.0965375520726699e-02 4.7813311915603129e-01 -8.6152977900074887e+00 1.8740120835701837e+00 2.3456671542081646e+00 -2.1064435968347062e+00 -1.3925008525714744e+00 -3.0591249376700946e-01 4.8145947139591710e-01 -1.5808834210510527e+01 1.3788193824166965e+00 -2.1330368330696952e+00 -1.2802607902944643e+00 -2.8768360432580891e+01 -1.2665711154002068e+00 8.6604071520996972e-01 -1.6342837503293893e+01 -1.6027567750561802e+00 3.3129031974208139e+00 1.4697331450810378e+01 6.6664601172946170e-01 
        </Neuron>
        <Neuron NSynapses="43">
          1.6588175377383112e+00 -1.5745718216061368e+00 -2.3671146613126632e+00 2.3831130011777271e+00 4.1640066339226250e-01 -2.1986617960855495e+00 1.4953733929953734e+00 1.6808341330473682e+00 -3.9144242034480448e-01 -4.1724780011442369e-01 1.4551624891396990e+00 -4.5364778973750025e-01 3.5441213316377871e+00 1.0837411682929243e+00 -2.8775508021445528e-01 1.0479928742746614e-02 1.3240681619904313e+01 1.2886884908944147e+00 1.7295386631663079e+00 -2.5566097887109063e-01 1.3570382929360776e+00 -2.3331130165662572e+00 -4.2468691448375911e-01 2.2100301367769779e+00 2.7710465246812475e+00 2.5776732614372753e+00 -2.2688989172844454e+00 2.8588056138739637e-01 1.2523550537893793e+00 -5.5915038817744411e-01 1.1746146351134676e+00 4.8820865100359931e+00 -3.2378432077646195e+00 1.7767995486953105e+00 1.0645272193897108e+00 1.0182957918898973e+01 -9.5040350254868156e-01 6.2564994498832560e-01 3.7332729842884795e+00 1.1920300626260256e+00 2.6529701428818884e+00 -2.3393391386205411e+00 -1.9257583670927450e-01 
        </Neuron>
      </Layer>
      <Layer Index="1" NNeurons="44">
        <Neuron NSynapses="1">
          -2.0798773958397514e+00 
        </Neuron>
        <Neuron NSynapses="1">
          8.5324163985110524e-01 
        </Neuron>
        <Neuron NSynapses="1">
          8.6489476071044147e-01 
        </Neuron>
        <Neuron NSynapses="1">
          -4.4597732540959889e+00 
        </Neuron>
        <Neuron NSynapses="1">
          1.8525106867717507e+00 
        </Neuron>
        <Neuron NSynapses="1">
          1.2069469230030774e+00 
        </Neuron>
        <Neuron NSynapses="1">
          6.3769443059850484e-01 
        </Neuron>
        <Neuron NSynapses="1">
          -2.7078541575664081e+00 
        </Neuron>
        <Neuron NSynapses="1">
          -6.7992854058746921e-01 
        </Neuron>
        <Neuron NSynapses="1">
          1.4422824715729130e+00 
        </Neuron>
        <Neuron NSynapses="1">
          -3.4266119481351054e+00 
        </Neuron>
        <Neuron NSynapses="1">
          7.1898049051923485e-01 
        </Neuron>
        <Neuron NSynapses="1">
          -6.8190364880302576e+00 
        </Neuron>
        <Neuron NSynapses="1">
          -6.3413901070357703e-01 
        </Neuron>
        <Neuron NSynapses="1">
          -3.5523678582118507e+00 
        </Neuron>
        <Neuron NSynapses="1">
          5.4262479564834443e-01 
        </Neuron>
        <Neuron NSynapses="1">
          -2.9854473275547857e+00 
        </Neuron>
        <Neuron NSynapses="1">
          2.9794665892210195e+00 
        </Neuron>
        <Neuron NSynapses="1">
          3.3559243738179276e+00 
        </Neuron>
        <Neuron NSynapses="1">
          -1.0757632720714740e+00 
        </Neuron>
        <Neuron NSynapses="1">
          -5.8595732028588998e-01 
        </Neuron>
        <Neuron NSynapses="1">
          1.5599568336285787e+00 
        </Neuron>
        <Neuron NSynapses="1">
          -3.4409170160922500e+00 
        </Neuron>
        <Neuron NSynapses="1">
          -2.7599670621686068e+00 
        </Neuron>
        <Neuron NSynapses="1">
          -2.2282705990040919e+00 
        </Neuron>
        <Neuron NSynapses="1">
          -1.9491846192873918e+00 
        </Neuron>
        <Neuron NSynapses="1">
          1.7092673981635231e+00 
        </Neuron>
        <Neuron NSynapses="1">
          2.1234468424185580e+00 
        </Neuron>
        <Neuron NSynapses="1">
          7.7515088914326624e-01 
        </Neuron>
        <Neuron NSynapses="1">
          1.3393376875357912e+00 
        </Neuron>
        <Neuron NSynapses="1">
          -2.3944750473805967e+00 
        </Neuron>
        <Neuron NSynapses="1">
          -4.2061099077966082e+00 
        </Neuron>
        <Neuron NSynapses="1">
          1.7981042571273205e+00 
        </Neuron>
        <Neuron NSynapses="1">
          -1.0195950094651576e+00 
        </Neuron>
        <Neuron NSynapses="1">
          5.6645084734067730e-01 
        </Neuron>
        <Neuron NSynapses="1">
          -8.5620816796658499e+00 
        </Neuron>
        <Neuron NSynapses="1">
          6.4701389527214659e-01 
        </Neuron>
        <Neuron NSynapses="1">
          1.1775226081878845e+00 
        </Neuron>
        <Neuron NSynapses="1">
          -3.1134921683062591e+00 
        </Neuron>
        <Neuron NSynapses="1">
          -6.1126013176821237e-01 
        </Neuron>
        <Neuron NSynapses="1">
          -6.8464505676918757e+00 
        </Neuron>
        <Neuron NSynapses="1">
          2.1116704709297940e+00 
        </Neuron>
        <Neuron NSynapses="1">
          6.5251528645448209e-01 
        </Neuron>
        <Neuron NSynapses="1">
          4.4567332947088539e-01 
        </Neuron>
      </Layer>
      <Layer Index="2" NNeurons="1">
        <Neuron NSynapses="0"/>
      </Layer>
    </Layout>
  </Weights>
</MethodSetup>
