<?xml version="1.0"?>
<MethodSetup Method="MLP::Muon_Downstream_TMVA">
  <GeneralInfo>
    <Info name="TMVA Release" value="4.2.0 [262656]"/>
    <Info name="ROOT Release" value="5.34/18 [336402]"/>
    <Info name="Creator" value="jonesc"/>
    <Info name="Date" value="Fri Jun 13 17:22:10 2014"/>
    <Info name="Host" value="ec-slc6-x86-64-spi-9"/>
    <Info name="Dir" value="/var/pcfst/r03/lhcb/jonesc/ANNPID/results/MC12/TrainMixture/TrainPhysTksNoGhosts-EvalPhysTks-ReweightRICH2/TMVA-NoPreSels-NoGECs/MLP/Norm/ScaleF1.4/BP/NCycles750/CE/tanh/CVTest15/CVImp1e-16/NotUseRegulator/Muon/Downstream"/>
    <Info name="Training events" value="1185091"/>
    <Info name="TrainingTime" value="2.54136206e+04"/>
    <Info name="AnalysisType" value="Classification"/>
  </GeneralInfo>
  <Options>
    <Option name="NCycles" modified="Yes">750</Option>
    <Option name="HiddenLayers" modified="Yes">40</Option>
    <Option name="NeuronType" modified="Yes">tanh</Option>
    <Option name="RandomSeed" modified="No">1</Option>
    <Option name="EstimatorType" modified="Yes">CE</Option>
    <Option name="NeuronInputType" modified="No">sum</Option>
    <Option name="V" modified="Yes">True</Option>
    <Option name="VerbosityLevel" modified="No">Verbose</Option>
    <Option name="VarTransform" modified="Yes">Norm</Option>
    <Option name="H" modified="Yes">True</Option>
    <Option name="CreateMVAPdfs" modified="No">False</Option>
    <Option name="IgnoreNegWeightsInTraining" modified="No">False</Option>
    <Option name="TrainingMethod" modified="Yes">BP</Option>
    <Option name="LearningRate" modified="No">2.000000e-02</Option>
    <Option name="DecayRate" modified="No">1.000000e-02</Option>
    <Option name="TestRate" modified="No">10</Option>
    <Option name="EpochMonitoring" modified="Yes">True</Option>
    <Option name="Sampling" modified="No">1.000000e+00</Option>
    <Option name="SamplingEpoch" modified="No">1.000000e+00</Option>
    <Option name="SamplingImportance" modified="No">1.000000e+00</Option>
    <Option name="SamplingTraining" modified="No">True</Option>
    <Option name="SamplingTesting" modified="No">False</Option>
    <Option name="ResetStep" modified="No">50</Option>
    <Option name="Tau" modified="No">3.000000e+00</Option>
    <Option name="BPMode" modified="No">sequential</Option>
    <Option name="BatchSize" modified="No">-1</Option>
    <Option name="ConvergenceImprove" modified="Yes">1.000000e-16</Option>
    <Option name="ConvergenceTests" modified="Yes">15</Option>
    <Option name="UseRegulator" modified="Yes">False</Option>
    <Option name="UpdateLimit" modified="No">10000</Option>
    <Option name="CalculateErrors" modified="No">False</Option>
    <Option name="WeightRange" modified="No">1.000000e+00</Option>
  </Options>
  <Variables NVar="29">
    <Variable VarIndex="0" Expression="TrackP" Label="TrackP" Title="TrackP" Unit="" Internal="TrackP" Type="F" Min="2.85062012e+03" Max="8.01994938e+05"/>
    <Variable VarIndex="1" Expression="TrackPt" Label="TrackPt" Title="TrackPt" Unit="" Internal="TrackPt" Type="F" Min="5.28465366e+00" Max="6.67795781e+04"/>
    <Variable VarIndex="2" Expression="TrackChi2PerDof" Label="TrackChi2PerDof" Title="TrackChi2PerDof" Unit="" Internal="TrackChi2PerDof" Type="F" Min="1.09324483e-02" Max="2.99992561e+00"/>
    <Variable VarIndex="3" Expression="TrackNumDof" Label="TrackNumDof" Title="TrackNumDof" Unit="" Internal="TrackNumDof" Type="I" Min="4.00000000e+00" Max="2.80000000e+01"/>
    <Variable VarIndex="4" Expression="TrackLikelihood" Label="TrackLikelihood" Title="TrackLikelihood" Unit="" Internal="TrackLikelihood" Type="F" Min="-9.44808578e+01" Max="1.04387307e+00"/>
    <Variable VarIndex="5" Expression="TrackGhostProbability" Label="TrackGhostProbability" Title="TrackGhostProbability" Unit="" Internal="TrackGhostProbability" Type="F" Min="-9.99000000e+02" Max="1.00000000e+00"/>
    <Variable VarIndex="6" Expression="TrackFitTChi2" Label="TrackFitTChi2" Title="TrackFitTChi2" Unit="" Internal="TrackFitTChi2" Type="F" Min="6.58931560e-04" Max="6.36123199e+01"/>
    <Variable VarIndex="7" Expression="TrackFitTNDoF" Label="TrackFitTNDoF" Title="TrackFitTNDoF" Unit="" Internal="TrackFitTNDoF" Type="I" Min="1.00000000e+00" Max="2.20000000e+01"/>
    <Variable VarIndex="8" Expression="RichUsedAero" Label="RichUsedAero" Title="RichUsedAero" Unit="" Internal="RichUsedAero" Type="I" Min="0.00000000e+00" Max="1.00000000e+00"/>
    <Variable VarIndex="9" Expression="RichUsedR1Gas" Label="RichUsedR1Gas" Title="RichUsedR1Gas" Unit="" Internal="RichUsedR1Gas" Type="I" Min="0.00000000e+00" Max="1.00000000e+00"/>
    <Variable VarIndex="10" Expression="RichUsedR2Gas" Label="RichUsedR2Gas" Title="RichUsedR2Gas" Unit="" Internal="RichUsedR2Gas" Type="I" Min="0.00000000e+00" Max="1.00000000e+00"/>
    <Variable VarIndex="11" Expression="RichAboveMuThres" Label="RichAboveMuThres" Title="RichAboveMuThres" Unit="" Internal="RichAboveMuThres" Type="I" Min="0.00000000e+00" Max="1.00000000e+00"/>
    <Variable VarIndex="12" Expression="RichAboveKaThres" Label="RichAboveKaThres" Title="RichAboveKaThres" Unit="" Internal="RichAboveKaThres" Type="I" Min="0.00000000e+00" Max="1.00000000e+00"/>
    <Variable VarIndex="13" Expression="RichDLLe" Label="RichDLLe" Title="RichDLLe" Unit="" Internal="RichDLLe" Type="F" Min="-9.99000000e+02" Max="1.00287598e+02"/>
    <Variable VarIndex="14" Expression="RichDLLmu" Label="RichDLLmu" Title="RichDLLmu" Unit="" Internal="RichDLLmu" Type="F" Min="-9.99000000e+02" Max="9.55326996e+01"/>
    <Variable VarIndex="15" Expression="RichDLLk" Label="RichDLLk" Title="RichDLLk" Unit="" Internal="RichDLLk" Type="F" Min="-9.99000000e+02" Max="7.70382004e+01"/>
    <Variable VarIndex="16" Expression="RichDLLp" Label="RichDLLp" Title="RichDLLp" Unit="" Internal="RichDLLp" Type="F" Min="-9.99000000e+02" Max="6.38046989e+01"/>
    <Variable VarIndex="17" Expression="RichDLLbt" Label="RichDLLbt" Title="RichDLLbt" Unit="" Internal="RichDLLbt" Type="F" Min="-9.99000000e+02" Max="6.34244995e+01"/>
    <Variable VarIndex="18" Expression="MuonBkgLL" Label="MuonBkgLL" Title="MuonBkgLL" Unit="" Internal="MuonBkgLL" Type="F" Min="-1.06127996e+01" Max="2.70000007e-02"/>
    <Variable VarIndex="19" Expression="MuonMuLL" Label="MuonMuLL" Title="MuonMuLL" Unit="" Internal="MuonMuLL" Type="F" Min="-6.90775986e+01" Max="0.00000000e+00"/>
    <Variable VarIndex="20" Expression="MuonNShared" Label="MuonNShared" Title="MuonNShared" Unit="" Internal="MuonNShared" Type="I" Min="1.00000000e+00" Max="1.17000000e+02"/>
    <Variable VarIndex="21" Expression="InAccEcal" Label="InAccEcal" Title="InAccEcal" Unit="" Internal="InAccEcal" Type="I" Min="0.00000000e+00" Max="1.00000000e+00"/>
    <Variable VarIndex="22" Expression="EcalPIDe" Label="EcalPIDe" Title="EcalPIDe" Unit="" Internal="EcalPIDe" Type="F" Min="-9.99000000e+02" Max="4.04088783e+00"/>
    <Variable VarIndex="23" Expression="EcalPIDmu" Label="EcalPIDmu" Title="EcalPIDmu" Unit="" Internal="EcalPIDmu" Type="F" Min="-9.99000000e+02" Max="2.50609303e+00"/>
    <Variable VarIndex="24" Expression="InAccHcal" Label="InAccHcal" Title="InAccHcal" Unit="" Internal="InAccHcal" Type="I" Min="0.00000000e+00" Max="1.00000000e+00"/>
    <Variable VarIndex="25" Expression="HcalPIDe" Label="HcalPIDe" Title="HcalPIDe" Unit="" Internal="HcalPIDe" Type="F" Min="-9.99000000e+02" Max="3.12796974e+00"/>
    <Variable VarIndex="26" Expression="HcalPIDmu" Label="HcalPIDmu" Title="HcalPIDmu" Unit="" Internal="HcalPIDmu" Type="F" Min="-9.99000000e+02" Max="2.61016369e+00"/>
    <Variable VarIndex="27" Expression="InAccPrs" Label="InAccPrs" Title="InAccPrs" Unit="" Internal="InAccPrs" Type="I" Min="0.00000000e+00" Max="1.00000000e+00"/>
    <Variable VarIndex="28" Expression="PrsPIDe" Label="PrsPIDe" Title="PrsPIDe" Unit="" Internal="PrsPIDe" Type="F" Min="-9.99000000e+02" Max="3.46313500e+00"/>
  </Variables>
  <Spectators NSpec="0"/>
  <Classes NClass="2">
    <Class Name="Background" Index="0"/>
    <Class Name="Signal" Index="1"/>
  </Classes>
  <Transformations NTransformations="1">
    <Transform Name="Normalize">
      <Selection>
        <Input NInputs="29">
          <Input Type="Variable" Label="TrackP" Expression="TrackP"/>
          <Input Type="Variable" Label="TrackPt" Expression="TrackPt"/>
          <Input Type="Variable" Label="TrackChi2PerDof" Expression="TrackChi2PerDof"/>
          <Input Type="Variable" Label="TrackNumDof" Expression="TrackNumDof"/>
          <Input Type="Variable" Label="TrackLikelihood" Expression="TrackLikelihood"/>
          <Input Type="Variable" Label="TrackGhostProbability" Expression="TrackGhostProbability"/>
          <Input Type="Variable" Label="TrackFitTChi2" Expression="TrackFitTChi2"/>
          <Input Type="Variable" Label="TrackFitTNDoF" Expression="TrackFitTNDoF"/>
          <Input Type="Variable" Label="RichUsedAero" Expression="RichUsedAero"/>
          <Input Type="Variable" Label="RichUsedR1Gas" Expression="RichUsedR1Gas"/>
          <Input Type="Variable" Label="RichUsedR2Gas" Expression="RichUsedR2Gas"/>
          <Input Type="Variable" Label="RichAboveMuThres" Expression="RichAboveMuThres"/>
          <Input Type="Variable" Label="RichAboveKaThres" Expression="RichAboveKaThres"/>
          <Input Type="Variable" Label="RichDLLe" Expression="RichDLLe"/>
          <Input Type="Variable" Label="RichDLLmu" Expression="RichDLLmu"/>
          <Input Type="Variable" Label="RichDLLk" Expression="RichDLLk"/>
          <Input Type="Variable" Label="RichDLLp" Expression="RichDLLp"/>
          <Input Type="Variable" Label="RichDLLbt" Expression="RichDLLbt"/>
          <Input Type="Variable" Label="MuonBkgLL" Expression="MuonBkgLL"/>
          <Input Type="Variable" Label="MuonMuLL" Expression="MuonMuLL"/>
          <Input Type="Variable" Label="MuonNShared" Expression="MuonNShared"/>
          <Input Type="Variable" Label="InAccEcal" Expression="InAccEcal"/>
          <Input Type="Variable" Label="EcalPIDe" Expression="EcalPIDe"/>
          <Input Type="Variable" Label="EcalPIDmu" Expression="EcalPIDmu"/>
          <Input Type="Variable" Label="InAccHcal" Expression="InAccHcal"/>
          <Input Type="Variable" Label="HcalPIDe" Expression="HcalPIDe"/>
          <Input Type="Variable" Label="HcalPIDmu" Expression="HcalPIDmu"/>
          <Input Type="Variable" Label="InAccPrs" Expression="InAccPrs"/>
          <Input Type="Variable" Label="PrsPIDe" Expression="PrsPIDe"/>
        </Input>
        <Output NOutputs="29">
          <Output Type="Variable" Label="TrackP" Expression="TrackP"/>
          <Output Type="Variable" Label="TrackPt" Expression="TrackPt"/>
          <Output Type="Variable" Label="TrackChi2PerDof" Expression="TrackChi2PerDof"/>
          <Output Type="Variable" Label="TrackNumDof" Expression="TrackNumDof"/>
          <Output Type="Variable" Label="TrackLikelihood" Expression="TrackLikelihood"/>
          <Output Type="Variable" Label="TrackGhostProbability" Expression="TrackGhostProbability"/>
          <Output Type="Variable" Label="TrackFitTChi2" Expression="TrackFitTChi2"/>
          <Output Type="Variable" Label="TrackFitTNDoF" Expression="TrackFitTNDoF"/>
          <Output Type="Variable" Label="RichUsedAero" Expression="RichUsedAero"/>
          <Output Type="Variable" Label="RichUsedR1Gas" Expression="RichUsedR1Gas"/>
          <Output Type="Variable" Label="RichUsedR2Gas" Expression="RichUsedR2Gas"/>
          <Output Type="Variable" Label="RichAboveMuThres" Expression="RichAboveMuThres"/>
          <Output Type="Variable" Label="RichAboveKaThres" Expression="RichAboveKaThres"/>
          <Output Type="Variable" Label="RichDLLe" Expression="RichDLLe"/>
          <Output Type="Variable" Label="RichDLLmu" Expression="RichDLLmu"/>
          <Output Type="Variable" Label="RichDLLk" Expression="RichDLLk"/>
          <Output Type="Variable" Label="RichDLLp" Expression="RichDLLp"/>
          <Output Type="Variable" Label="RichDLLbt" Expression="RichDLLbt"/>
          <Output Type="Variable" Label="MuonBkgLL" Expression="MuonBkgLL"/>
          <Output Type="Variable" Label="MuonMuLL" Expression="MuonMuLL"/>
          <Output Type="Variable" Label="MuonNShared" Expression="MuonNShared"/>
          <Output Type="Variable" Label="InAccEcal" Expression="InAccEcal"/>
          <Output Type="Variable" Label="EcalPIDe" Expression="EcalPIDe"/>
          <Output Type="Variable" Label="EcalPIDmu" Expression="EcalPIDmu"/>
          <Output Type="Variable" Label="InAccHcal" Expression="InAccHcal"/>
          <Output Type="Variable" Label="HcalPIDe" Expression="HcalPIDe"/>
          <Output Type="Variable" Label="HcalPIDmu" Expression="HcalPIDmu"/>
          <Output Type="Variable" Label="InAccPrs" Expression="InAccPrs"/>
          <Output Type="Variable" Label="PrsPIDe" Expression="PrsPIDe"/>
        </Output>
      </Selection>
      <Class ClassIndex="0">
        <Ranges>
          <Range Index="0" Min="2.8829399414062500e+03" Max="6.6910568750000000e+05"/>
          <Range Index="1" Min="5.2846536636352539e+00" Max="2.2771945312500000e+04"/>
          <Range Index="2" Min="1.0932448320090771e-02" Max="2.9999256134033203e+00"/>
          <Range Index="3" Min="4.0000000000000000e+00" Max="2.7000000000000000e+01"/>
          <Range Index="4" Min="-9.1008110046386719e+01" Max="1.0438730716705322e+00"/>
          <Range Index="5" Min="-9.9900000000000000e+02" Max="1.0000000000000000e+00"/>
          <Range Index="6" Min="6.5893155988305807e-04" Max="6.3612319946289062e+01"/>
          <Range Index="7" Min="1.0000000000000000e+00" Max="2.2000000000000000e+01"/>
          <Range Index="8" Min="0.0000000000000000e+00" Max="1.0000000000000000e+00"/>
          <Range Index="9" Min="0.0000000000000000e+00" Max="1.0000000000000000e+00"/>
          <Range Index="10" Min="0.0000000000000000e+00" Max="1.0000000000000000e+00"/>
          <Range Index="11" Min="0.0000000000000000e+00" Max="1.0000000000000000e+00"/>
          <Range Index="12" Min="0.0000000000000000e+00" Max="1.0000000000000000e+00"/>
          <Range Index="13" Min="-9.9900000000000000e+02" Max="1.0028759765625000e+02"/>
          <Range Index="14" Min="-9.9900000000000000e+02" Max="5.3685001373291016e+01"/>
          <Range Index="15" Min="-9.9900000000000000e+02" Max="7.7038200378417969e+01"/>
          <Range Index="16" Min="-9.9900000000000000e+02" Max="6.3804698944091797e+01"/>
          <Range Index="17" Min="-9.9900000000000000e+02" Max="6.3424499511718750e+01"/>
          <Range Index="18" Min="-9.9204998016357422e+00" Max="2.7000000700354576e-02"/>
          <Range Index="19" Min="-6.9077598571777344e+01" Max="0.0000000000000000e+00"/>
          <Range Index="20" Min="1.0000000000000000e+00" Max="1.1700000000000000e+02"/>
          <Range Index="21" Min="0.0000000000000000e+00" Max="1.0000000000000000e+00"/>
          <Range Index="22" Min="-9.9900000000000000e+02" Max="4.0408878326416016e+00"/>
          <Range Index="23" Min="-9.9900000000000000e+02" Max="2.5060930252075195e+00"/>
          <Range Index="24" Min="0.0000000000000000e+00" Max="1.0000000000000000e+00"/>
          <Range Index="25" Min="-9.9900000000000000e+02" Max="2.4842071533203125e+00"/>
          <Range Index="26" Min="-9.9900000000000000e+02" Max="2.6101636886596680e+00"/>
          <Range Index="27" Min="0.0000000000000000e+00" Max="1.0000000000000000e+00"/>
          <Range Index="28" Min="-9.9900000000000000e+02" Max="3.4631350040435791e+00"/>
        </Ranges>
      </Class>
      <Class ClassIndex="1">
        <Ranges>
          <Range Index="0" Min="2.8506201171875000e+03" Max="8.0199493750000000e+05"/>
          <Range Index="1" Min="6.1879568099975586e+00" Max="6.6779578125000000e+04"/>
          <Range Index="2" Min="4.8061259090900421e-02" Max="2.9998581409454346e+00"/>
          <Range Index="3" Min="4.0000000000000000e+00" Max="2.8000000000000000e+01"/>
          <Range Index="4" Min="-9.4480857849121094e+01" Max="5.3223842382431030e-01"/>
          <Range Index="5" Min="-9.9900000000000000e+02" Max="1.0000000000000000e+00"/>
          <Range Index="6" Min="1.1636088602244854e-03" Max="6.1747295379638672e+01"/>
          <Range Index="7" Min="1.0000000000000000e+00" Max="2.2000000000000000e+01"/>
          <Range Index="8" Min="0.0000000000000000e+00" Max="1.0000000000000000e+00"/>
          <Range Index="9" Min="0.0000000000000000e+00" Max="1.0000000000000000e+00"/>
          <Range Index="10" Min="0.0000000000000000e+00" Max="1.0000000000000000e+00"/>
          <Range Index="11" Min="0.0000000000000000e+00" Max="1.0000000000000000e+00"/>
          <Range Index="12" Min="0.0000000000000000e+00" Max="1.0000000000000000e+00"/>
          <Range Index="13" Min="-9.9900000000000000e+02" Max="5.8152099609375000e+01"/>
          <Range Index="14" Min="-9.9900000000000000e+02" Max="9.5532699584960938e+01"/>
          <Range Index="15" Min="-9.9900000000000000e+02" Max="5.7572299957275391e+01"/>
          <Range Index="16" Min="-9.9900000000000000e+02" Max="5.3198299407958984e+01"/>
          <Range Index="17" Min="-9.9900000000000000e+02" Max="5.8375400543212891e+01"/>
          <Range Index="18" Min="-1.0612799644470215e+01" Max="2.1500000730156898e-02"/>
          <Range Index="19" Min="-6.9077598571777344e+01" Max="0.0000000000000000e+00"/>
          <Range Index="20" Min="1.0000000000000000e+00" Max="9.1000000000000000e+01"/>
          <Range Index="21" Min="0.0000000000000000e+00" Max="1.0000000000000000e+00"/>
          <Range Index="22" Min="-9.9900000000000000e+02" Max="3.8769683837890625e+00"/>
          <Range Index="23" Min="-9.9900000000000000e+02" Max="2.5060930252075195e+00"/>
          <Range Index="24" Min="0.0000000000000000e+00" Max="1.0000000000000000e+00"/>
          <Range Index="25" Min="-9.9900000000000000e+02" Max="3.1279697418212891e+00"/>
          <Range Index="26" Min="-9.9900000000000000e+02" Max="2.6101636886596680e+00"/>
          <Range Index="27" Min="0.0000000000000000e+00" Max="1.0000000000000000e+00"/>
          <Range Index="28" Min="-9.9900000000000000e+02" Max="3.4631350040435791e+00"/>
        </Ranges>
      </Class>
      <Class ClassIndex="2">
        <Ranges>
          <Range Index="0" Min="2.8506201171875000e+03" Max="8.0199493750000000e+05"/>
          <Range Index="1" Min="5.2846536636352539e+00" Max="6.6779578125000000e+04"/>
          <Range Index="2" Min="1.0932448320090771e-02" Max="2.9999256134033203e+00"/>
          <Range Index="3" Min="4.0000000000000000e+00" Max="2.8000000000000000e+01"/>
          <Range Index="4" Min="-9.4480857849121094e+01" Max="1.0438730716705322e+00"/>
          <Range Index="5" Min="-9.9900000000000000e+02" Max="1.0000000000000000e+00"/>
          <Range Index="6" Min="6.5893155988305807e-04" Max="6.3612319946289062e+01"/>
          <Range Index="7" Min="1.0000000000000000e+00" Max="2.2000000000000000e+01"/>
          <Range Index="8" Min="0.0000000000000000e+00" Max="1.0000000000000000e+00"/>
          <Range Index="9" Min="0.0000000000000000e+00" Max="1.0000000000000000e+00"/>
          <Range Index="10" Min="0.0000000000000000e+00" Max="1.0000000000000000e+00"/>
          <Range Index="11" Min="0.0000000000000000e+00" Max="1.0000000000000000e+00"/>
          <Range Index="12" Min="0.0000000000000000e+00" Max="1.0000000000000000e+00"/>
          <Range Index="13" Min="-9.9900000000000000e+02" Max="1.0028759765625000e+02"/>
          <Range Index="14" Min="-9.9900000000000000e+02" Max="9.5532699584960938e+01"/>
          <Range Index="15" Min="-9.9900000000000000e+02" Max="7.7038200378417969e+01"/>
          <Range Index="16" Min="-9.9900000000000000e+02" Max="6.3804698944091797e+01"/>
          <Range Index="17" Min="-9.9900000000000000e+02" Max="6.3424499511718750e+01"/>
          <Range Index="18" Min="-1.0612799644470215e+01" Max="2.7000000700354576e-02"/>
          <Range Index="19" Min="-6.9077598571777344e+01" Max="0.0000000000000000e+00"/>
          <Range Index="20" Min="1.0000000000000000e+00" Max="1.1700000000000000e+02"/>
          <Range Index="21" Min="0.0000000000000000e+00" Max="1.0000000000000000e+00"/>
          <Range Index="22" Min="-9.9900000000000000e+02" Max="4.0408878326416016e+00"/>
          <Range Index="23" Min="-9.9900000000000000e+02" Max="2.5060930252075195e+00"/>
          <Range Index="24" Min="0.0000000000000000e+00" Max="1.0000000000000000e+00"/>
          <Range Index="25" Min="-9.9900000000000000e+02" Max="3.1279697418212891e+00"/>
          <Range Index="26" Min="-9.9900000000000000e+02" Max="2.6101636886596680e+00"/>
          <Range Index="27" Min="0.0000000000000000e+00" Max="1.0000000000000000e+00"/>
          <Range Index="28" Min="-9.9900000000000000e+02" Max="3.4631350040435791e+00"/>
        </Ranges>
      </Class>
    </Transform>
  </Transformations>
  <MVAPdfs/>
  <Weights>
    <Layout NLayers="3">
      <Layer Index="0" NNeurons="30">
        <Neuron NSynapses="40">
          6.8672968662080750e-03 -9.9930525573743789e-01 -3.3595544708454232e+00 2.8968353865227923e+00 -1.8423036773625938e+00 -8.1108585960561843e+00 -7.5850721888241757e-01 1.7296306067917708e+01 2.2046245485543373e+01 3.7628050906632446e+00 -1.2886965348027639e+00 -6.8150189452913770e+00 -4.5188119798854327e+00 -8.4742395523570746e+00 1.5939063327113925e+00 2.5468026210604677e+01 -4.2204132192844651e-01 1.2346203946119571e+01 1.0387049233688296e+01 2.6647148468363119e-01 4.9243970767382912e+00 -5.7641378993824177e-01 1.5129088874470751e+00 1.9724877075320604e+00 -5.0307075656771003e+00 5.2628597792269822e+00 4.6455780705311062e-01 -6.0344228952924546e+00 -6.6881852675176141e+00 -3.3591503185836313e-01 1.2941935896009385e+01 6.6462358927771730e+00 1.1921519435540212e+01 4.1504547672003200e+00 2.8675073242086889e+01 9.2876782285333608e+00 -5.4468118558274821e+00 9.8939516863835788e+00 3.3049211244255389e-01 8.3501583310832412e+00 
        </Neuron>
        <Neuron NSynapses="40">
          -4.2976373422929823e+00 3.6956229261147677e+00 7.9679501333711231e+00 8.3630971314925375e+00 -6.5253092188737782e-01 -1.6539822307676046e+00 1.1317835176851681e+00 -1.7248983430090843e+00 1.8248553758818737e+01 -8.9946578658369536e-01 2.9026924338311679e+00 2.6630881644523079e+00 -4.5004531606879068e+00 3.9339187213801976e+00 -3.3403498730743570e+00 4.2520502786179213e+00 -1.3455285962269117e+00 3.8957687949458233e+00 2.7745046748131870e+01 1.7894134430163657e+00 -1.2775491572196598e+00 1.2236573613197697e+00 1.4185685585351632e-01 -2.8328122048804089e-01 -2.5222701676060963e+00 -2.4946836250848623e+00 -2.7281186482469233e-01 -1.2249344036395666e+01 -2.4729655367275960e+00 -1.0825740326217026e+00 6.9541530688266509e+00 -1.4758255349117153e+00 4.5555283429671173e-01 -3.2724080916651070e+00 9.9166467401941283e+00 -3.9585288078611280e+00 -3.8588702751853994e+00 6.6131789986387908e+00 -5.8401686840648859e-01 3.6553030020099935e+00 
        </Neuron>
        <Neuron NSynapses="40">
          1.1105226028382696e-01 -7.7801083216433164e-01 4.6669987562004056e-01 -9.5260968561338177e-01 7.9458006516598634e-01 4.9318650278308468e-01 6.3167989446578687e-01 1.0484354235096409e+00 -5.5734218053909956e-01 5.1980986674904150e-01 5.3061340517224476e-01 -4.2347051869501673e-01 -8.8433604683000711e-01 -6.8681841298510105e-01 2.6240988273408417e-01 9.8153860679442551e-01 -6.6443002408141572e-01 -4.0730057309685086e-01 -1.3396224013974070e+00 6.8246160267812250e-01 -1.9860801242087560e+00 -3.0315252888744131e+00 -7.7914195893639715e-01 -1.0359844107310519e+00 1.5041287241000778e+00 5.8946994459610946e-01 -3.4725332693075275e-02 -1.0678186069090829e+00 4.0654182458205823e-01 4.8021468564526681e-01 -8.3963118986152940e-01 -5.8506078917216331e-01 -9.6634784699967968e-01 -1.1814700562790599e+00 -7.4169120121946230e-01 2.4479892027416188e+00 -6.3726508470950505e-01 -4.2364717952298117e+00 2.1034031219367530e-01 -1.0764323131574729e+00 
        </Neuron>
        <Neuron NSynapses="40">
          -1.4922293047860665e+01 -4.0030364264360824e-01 -9.2565721830684353e+00 2.8424068832921954e+00 2.5097473285471056e-01 3.0984647568148098e+00 -3.8433647404473099e+00 -3.1142391409913062e+00 1.3989232237677136e+00 -8.1157417363058726e-01 7.0779124163909501e-01 -6.5138125969404392e-01 -4.9650432066765449e-01 2.2732957211651721e+00 -1.1038015430950114e-01 -6.0168116739742850e+00 1.6225377075455600e+00 4.9680771156279230e-01 1.9522863816978078e+00 1.4631318415786219e+00 5.9921832057772360e+00 6.8320639042941700e+00 6.4751554962403882e-02 -1.4647097450710495e-01 -3.4931155015021669e+00 1.1058451626616081e-01 6.0712253075760003e-01 1.0792194617635582e+00 -1.5175733019650917e+00 7.0419768304762809e-01 7.9636175753850302e-01 7.1445387153364939e+00 2.8468579454025762e+00 -5.6506817092790529e+00 2.6324331141596802e+00 -7.0005185594958714e+00 -9.1859937625102472e-01 3.7684801336048821e+00 -3.6030263676256730e-01 4.6793968863055033e+00 
        </Neuron>
        <Neuron NSynapses="40">
          8.1091833948713754e-01 5.4986005061189347e-01 4.4418999631464251e-01 5.9559211738811908e-02 8.6807238851807933e-01 7.6828049673337329e-01 -3.7088607773526476e+00 5.4126235122889299e-01 -6.2268691220416429e-02 1.1922525745992301e-02 -2.0954947732767351e-01 5.9463934038474908e-01 -3.4714425301140830e+00 8.5470109822759807e-02 3.0496560334458656e-01 -1.0863146587899634e-01 5.8020816113402141e-01 1.1580243079328982e+00 2.6331891055766682e-01 -1.5811681998261546e+00 6.0370300440876212e-01 -1.3845603842051490e+01 -2.2694899157889903e-01 1.1604325476200945e+00 -1.7459564342568298e-01 -1.2013813473993631e+00 -4.2619569212307323e-01 -4.5522615249983793e-02 -3.7313303912230650e-01 -1.4711145866272787e-01 9.1602471137812658e-01 -3.8633782865999229e-02 1.2520598832841117e+01 -2.2601473625154616e-02 6.0125228066758507e-01 -1.0550355453986713e+01 -5.9624762134312883e+00 3.0215973763048694e+00 4.1805870020652485e-03 1.5925639898876223e+00 
        </Neuron>
        <Neuron NSynapses="40">
          -4.0608131556255636e+00 7.7632828687246214e-01 -1.5781088683878659e+01 -9.7271709467694123e+00 3.5483390681235334e+00 1.2928379494376119e+00 -1.3670032634903877e+00 -2.1799231362006827e-01 1.5080907586117915e+01 4.4426013058058862e+00 4.2989743677403053e-01 -1.7427032651367749e+00 -5.6036125404903281e+00 -2.5202397906918383e+00 2.4459987736208366e+00 1.5783696549479584e+01 7.8665006995451847e-01 4.0265305829884024e-01 1.9761748367733936e-01 -2.2016263644832939e+00 -1.4036124585567409e+01 7.9229785966855308e+00 -2.2696261381012715e+00 3.6711564293679468e+00 1.1836827121048226e+00 -1.4556069265638805e+00 1.1145351967352797e+00 -3.4322651083374806e-01 -2.2948965461878554e+00 -6.3653128429799255e-01 5.9031083515148683e+00 1.6608799332400354e-02 3.8272489913138132e+00 -8.7020614459859424e-01 1.4244971840536357e+01 -9.0628053831597455e-01 4.4224968765338352e-01 6.2959023246187211e+00 -2.2264439839400468e-01 5.1670886575664259e-02 
        </Neuron>
        <Neuron NSynapses="40">
          -1.8971981840252747e+00 1.2400801001094635e+00 -2.9732609292929818e-01 1.1717312860962941e+00 -6.4913283567644497e-01 -8.9822257458264565e-01 -2.1964884244030078e+00 -8.9112383393868677e-01 4.6033461173743651e-01 7.7235081008332784e-01 -3.3936554736155067e-01 2.0357588421967102e-01 3.3012384868250999e-01 8.0782706874410404e-01 -2.2251030308824424e-01 -1.0772008740085288e+00 -1.4693759371782669e+00 -1.9933416544233123e-01 1.2600741147748242e+00 1.7421614016368964e-03 1.9880669578600121e+00 2.3597449499975269e+00 3.4279488148595688e-01 8.4951165935345596e-01 -1.6104836406799388e+00 -4.4044975082140303e-01 1.5959005141053653e-01 -1.3298094926655621e-01 -2.7116074732120354e-01 -6.5140928941557746e-03 7.0351886410157183e-01 5.9015987778766510e-01 7.9710989625019801e-01 1.9274795454263316e+00 7.7135668521109912e-01 -2.7865932183750397e+00 -3.5456759128021909e-01 4.3260754991600816e+00 -3.4205689001548534e-01 1.2915048728265868e+00 
        </Neuron>
        <Neuron NSynapses="40">
          1.1635624748591040e+01 -7.1453876755877532e-01 7.9546843158510967e+00 -2.7691993562268311e+00 -1.9205160009036504e+00 -2.6086398480055073e+00 1.3202514519888906e+00 3.0789483661462662e+00 -1.5159186007198833e+00 7.8367623419852628e-01 -5.5783304640586329e-01 4.0957060853637239e-01 1.9778028251267707e-01 -1.0679160758817177e+00 -2.6845035454132860e-02 5.9038702572318451e+00 1.0010510861979573e-01 -2.6128024377673125e+00 -2.2783510733876109e+00 -1.3546099705315722e+00 -6.3094628951375746e+00 -8.3919937397433912e+00 1.3078994747486854e+00 8.0636904210571805e-02 3.3233019657184086e+00 -5.7523844491086806e-01 -1.5868683106276911e+00 -5.6881911467556066e+00 1.3929219150598320e+00 -2.5948104183087928e-01 -1.0353282067299350e+00 -5.6665006421272288e+00 -1.8278159892528933e+00 3.6767798703982031e+00 -2.3490690067579241e+00 8.0620625804064421e+00 1.2589440836392638e+00 -5.4802226142756352e+00 6.6623997757518827e-01 -4.8301231263891289e+00 
        </Neuron>
        <Neuron NSynapses="40">
          -8.0717353551946103e-01 -3.7239124204472462e-01 -1.6660142464093486e-01 -5.5110765073814694e-01 5.2729933210921121e-01 5.9607567481266804e-02 6.0119361222924823e+00 1.5792817263036477e-01 4.4473627010610077e-03 -1.9481294614550060e-01 1.0320628443425728e-01 1.9857455645647484e+00 -3.1839568478444620e+00 2.8621382343342305e-01 -1.6124308785982699e+00 9.2609325952544896e+00 5.5773851152016751e-01 1.3051984999176075e-01 1.9042943365570736e-01 3.3890917298390077e-01 -1.1207904397538074e-01 -1.8610699304866272e-02 1.1479904198411079e+00 -1.1431854877742162e+00 3.5010968140083742e-01 -6.6724894892324684e+00 9.1758294323951960e-04 1.4141840339367664e-01 9.6691533987229711e-03 -1.1579168440776340e-01 3.3995377693372606e+00 3.6870063383113210e+00 4.2708350277193260e-02 5.2246858591144274e-01 -1.3525850841657865e+00 -2.3880871903928169e-01 -1.1714924949316643e+00 6.5286458257603375e+00 -1.3388245052380304e-01 -2.5000751762182514e+00 
        </Neuron>
        <Neuron NSynapses="40">
          -5.7685424020931586e-01 -2.2728837809621196e+00 -3.5852124736408648e-02 3.9009982419134184e-02 1.0306290157809823e+00 -1.7265721417755870e+00 -1.6065706148744161e+00 1.3551468290577892e-01 2.8634207690573298e-02 3.8072097021333312e-01 6.1571822176771096e-02 -4.6091221340594597e+00 -1.0859846657150434e+00 2.4377646552793752e+00 -2.7796428374384330e-01 2.8326502775886370e-01 6.6625190673724999e-01 9.3936001618287857e-01 -5.4482162514610022e-01 -8.9253710303728834e-02 -1.2439605613417309e-02 2.8784896932769949e-01 -2.3125458838521715e+00 -8.3082057473775861e-01 7.3324504751719644e-02 2.4335258501019552e-01 4.3846645091287412e-01 2.4052239699297521e-03 9.6222384377671645e-03 -2.8533875407634601e-01 -1.3402181020462442e-01 -1.5218383441651857e+00 1.1557399917446522e-01 8.6878785156296401e-01 -8.6237969735075026e+00 1.0333491113492897e-01 -5.2309897489189638e-01 6.7269026016310640e+00 1.5088146896332377e+00 1.4589784289450050e-01 
        </Neuron>
        <Neuron NSynapses="40">
          -9.2685182119161602e-02 -5.1695562994681743e-01 8.1372382729906031e-02 -2.0838440622397220e-01 1.9160232862373403e+00 -7.7163621969238794e-01 6.0592941473553819e-02 -2.5677787633822036e-01 -2.2685508420435142e-02 -5.7654869721195945e-01 -4.6965383331659061e-02 2.4161202572995237e+00 1.5926823682723015e+00 3.7115175435119125e+00 6.0962695452228344e-01 -3.8136876510594514e-01 1.6915155454361757e+00 -4.8894878505331685e-01 2.1876119189354382e-01 -1.3907847820487390e-01 -5.6605462248245059e-02 4.6312698672215880e-02 -1.6812230514304158e-01 4.9624999626723336e-02 -1.4305156926520306e+00 7.8478955098658565e-01 4.6483687688599568e-01 -2.9990403391501732e+00 -1.8752248323087659e-01 -3.9158702023644776e-01 -1.2153199214999903e-01 -4.0219736584847681e+00 1.5015210037338052e-02 -1.2707182523231500e-01 3.4817969515409777e+00 2.4124381649175036e-01 -1.9063160099731122e-02 -4.9377060135993051e-01 8.7777884241832221e-02 -5.2154213609106781e-01 
        </Neuron>
        <Neuron NSynapses="40">
          4.0548104311299529e+00 -1.8544692697828600e+00 -1.7030176734006609e+01 -8.4400362051536728e+00 -1.3402873701851938e+00 2.5336146214256350e+00 2.5067959488774196e+00 5.2157077392305622e+00 -3.8704622554019101e+00 2.9782353410998592e+00 1.2086801324198966e+00 -3.2704015410822129e+00 1.9773320945622879e+00 5.0937305000384014e-02 7.7942889689410477e-01 1.4589301283208973e+01 1.9599225393493924e+00 -3.5443689306486528e+00 -1.6928874858465759e+00 2.4926149713947741e+00 -1.4574074061553068e+01 7.7493834585975918e-01 -4.2237197675986932e-01 2.0116669205487900e+00 -8.0552697788209375e+00 1.8479515164456064e+00 2.7352657834528497e-02 -7.0766225374515690e-01 2.4323531733760939e+00 8.8896624564738691e-01 -3.9321354463131812e+00 1.9509018447383165e-02 1.6789903356233939e+00 2.4644636100607391e+00 2.3709435303103316e-01 7.1320471432202508e+00 -9.7017529769245003e-01 4.5596447158468560e+00 1.8685338264109403e+00 3.6165292649583893e+00 
        </Neuron>
        <Neuron NSynapses="40">
          4.2982006607443507e-01 3.7117163306690334e-02 2.3662008855469874e-01 5.6550110698041300e-01 4.7106498259097229e-01 1.0857540739483691e+00 -9.4799476742541841e-02 5.2612743065220202e-01 2.4143582817893774e-02 -6.1749080767058506e-01 5.2566029354777288e-01 -2.1968100683365557e+00 -1.5097269131078832e+00 -5.7507660932817539e-01 5.8075191481239785e-01 -9.3235175187254615e+00 8.4461251696125850e-01 -1.9077618191982132e-01 -2.9493700450478511e-01 -4.6925189626665009e-01 -1.6188890353924315e+01 -8.4222835583443914e-02 -1.2836298746423453e+00 9.9198948954433486e-01 -5.2255736208282152e-02 -2.8343761333607015e-01 3.1558564953737406e-01 1.6074150929023517e-02 -9.9794537501917968e-02 -2.7607460559186248e-01 -1.2643800567946164e+00 -3.1230247061521950e+00 2.2446505788700946e-01 -3.9471657342454347e-01 1.1017193080045986e+00 1.7373891889838461e-01 4.0567270197805161e-01 6.4217615146656897e+00 5.8192914134872938e-02 2.6455177626923509e+00 
        </Neuron>
        <Neuron NSynapses="40">
          9.2706983938307397e-01 -3.9134709978455100e+00 8.1649639315879927e+00 -2.2382501508754533e+00 1.1567769255394815e+00 -2.3124957590079056e+00 6.2576103210621914e-01 4.3833318074662762e+00 7.1058643022102492e+00 -2.9314496067672153e+00 -7.6478395603837768e-01 -2.5937234235712476e+00 2.4343531680798454e+00 -1.0638836489395520e+00 5.6732905146492409e-02 2.8894185493110026e+01 4.6280453022693548e-02 2.4581301068473800e+00 1.4529956639213687e+01 -1.7517737600383980e+00 2.7443279159210792e+00 -1.1682299237617253e+00 -1.5930459342987258e+00 -9.0911934013863649e-01 -4.7456481348917121e+00 2.8724248230758560e+00 3.1826572167796663e-01 -2.3662475449251996e+00 -4.9697978425849235e-02 -1.0015171218724528e+00 1.0154442884417058e+01 2.6780940276446143e+00 3.2103405362527688e+00 6.1821969969276580e-01 2.3427152485705411e+00 -5.2711304412094968e+00 -2.4746051476492870e+00 -7.0762355558998777e+00 2.3736189175240758e+00 1.3017602989658303e+00 
        </Neuron>
        <Neuron NSynapses="40">
          -2.2296962756416585e+00 3.3347334741667876e+00 4.1194704338988679e+01 1.2821744763967493e+01 7.8381887584780663e-01 -5.4609346647549906e-01 -1.7143078119773298e+00 -1.0886148667406221e+01 -9.1518477581784499e+00 -1.3159859472651982e+01 2.6330023163101695e+00 6.6127044695256014e+00 6.6932309268028156e+00 3.2372974685735221e+00 3.8447269155308299e+00 -8.4880740760415392e+01 8.0653248549738676e-01 -1.0322688826001233e+01 2.1558524951241271e+01 -2.5730880980250421e+00 8.3779666854927825e+01 -3.5875878595204846e+00 4.4922092513910945e+00 -1.2324070716764327e+01 2.2271758042825102e+01 -2.2330322039376213e-01 -7.4868155432094907e-01 -2.1456892002440475e+00 -4.9029019565240475e+00 3.8582609040950333e-01 3.7790042764980765e+00 -5.3110634740886855e+00 -1.1123602513343986e+01 4.0526242593748779e-01 3.8772940053241727e+00 -2.7153182623290181e+01 8.7232365181163232e+00 -2.4866740787666846e+01 -5.9057457908014088e+00 1.8706810510972072e+00 
        </Neuron>
        <Neuron NSynapses="40">
          3.0403289918316623e-01 2.3485845822999574e+00 1.0039795672355806e+01 -3.8352119854495865e+00 8.9378195703740237e-01 6.2115371173705181e-01 4.7955460798462013e-01 -1.8842185516512993e+00 1.4846395401124239e+00 4.1206700656812001e-01 -1.4365391015434259e-01 1.7411548362656242e+00 -2.3844569213100173e+00 -2.4866729507066356e+00 -2.3977687601831605e+00 4.5648633689261975e-01 9.0791902428080806e-01 6.3168259546053660e+00 -8.9027818328940960e+00 -5.3858149983887915e-01 -1.0591127009581461e+01 1.7596413904392266e-01 2.4823093234463229e+00 -8.9916898682522950e-02 -2.9878007854584951e+00 -1.7822050294206611e+00 -4.3298278227646936e-01 -1.8853870167300737e+00 6.7248436551223945e-01 -6.8372027686229875e-01 -4.2446036939062628e+00 2.1655037531834238e+00 2.1892937917028719e+00 -2.6649319973102434e+00 3.2348492924512571e+00 2.8401216599918406e+00 -3.8361938840475003e+00 2.7547565287409377e+00 1.0897804348377209e+00 -3.4921729927247878e+00 
        </Neuron>
        <Neuron NSynapses="40">
          -9.3911485684921658e-01 1.5332445592758426e+00 1.7880528959669455e+01 4.9120796869024694e+00 -9.2499646754247788e-01 1.7583898188872276e+00 -1.5487624971911325e+00 -5.6655474078249322e+00 -1.9465950072733854e+01 -3.3294910721918205e+00 -1.2244193712790327e-01 2.0263893342970878e+00 1.1641936032315428e+00 -2.0173414857388350e-01 -5.3853004741201604e-01 -1.7057169312715207e+01 7.2088088641263381e-01 -5.1509674566945192e+00 -5.4792009336813363e+00 7.6604973528264930e-01 -1.5641463841267511e+00 8.7176035099957305e-01 2.3859574416859703e+00 -6.2481901753512483e+00 -6.0931490034801483e-01 -1.6285237390655527e+00 8.2613835422645032e-01 2.6054237622063443e+00 3.9062321177351795e+00 2.6203694158580532e-01 -6.8552461418664237e+00 1.6965694351929199e+00 -5.5862195644281787e+00 -2.1453756367480588e+00 -1.2738357248034088e+01 -9.2693661005616796e+00 2.8443852931740947e+00 -9.9086374283192598e+00 -2.6765654929462639e+00 -6.0229403191786259e+00 
        </Neuron>
        <Neuron NSynapses="40">
          -1.3868437382090626e+00 1.4040228349759134e+00 -1.0312921868980919e+01 -2.7627236566557976e+00 1.4454243551306034e+00 -1.2150948227012421e+00 3.5947170563249200e+00 -1.8060601269366872e-01 1.3295836951124453e+01 -9.0658331785950974e-01 8.2794924587983643e-01 4.3254848411423569e-01 -4.0636203740858710e+00 -2.3130259819051284e+00 -1.0113865085452278e+00 9.3324460568862762e+00 1.7447584853892242e+00 9.2202418758684122e+00 -2.0066845663792482e-01 1.2083889310051026e+00 -6.1496219882204239e-01 2.3596952886496099e+00 1.6100224568575430e+00 -2.5536204971544718e-01 -4.4129278631763897e+00 -1.6342693611824379e+00 3.1058748111988022e-01 -2.8780068668867629e+00 1.4931749527366605e+00 9.0682153088656958e-02 -8.4787720342092324e-02 3.3141864093782596e+00 2.9927850840516381e+00 1.3947100519089303e-01 1.2354215646020300e+01 2.2034302900758518e+00 -3.5099551103029532e+00 6.0163113119402718e+00 2.1347786262521131e+00 -1.6368350618865737e+00 
        </Neuron>
        <Neuron NSynapses="40">
          -8.1351967570562234e-01 1.3706632580494953e+00 -6.6104719152907865e-01 1.2661030587040185e+00 1.7422264879958997e+00 -2.8408677391642057e+00 4.5876673619524526e+00 -1.4293791261600357e+00 1.2328779409536914e+01 8.7166833160669710e-01 -2.3122191748966880e-01 2.3573851636124274e+00 6.1274896539893371e+00 4.0144598784439234e+00 -3.2112011161521137e-01 1.2016436162427053e+00 3.6976286103028427e-01 1.2069187687807810e+00 -2.8723742636347929e-02 3.9958345879196594e-01 -9.4823811135186664e-01 -2.3994532962399420e-01 -5.5828582492380041e-01 2.3646640306710998e-01 -1.8655954137177595e+00 8.8136136559216798e+00 -5.4029234244805602e-01 3.5463036706624013e-01 1.1702550075673774e+00 -7.5621008199230066e-02 -2.3961927756569645e+00 1.4574634652071818e+00 -2.0271642616853705e-01 1.5716204005133032e+00 2.8127763520435818e+00 1.8852746470784787e-01 8.6301558808146417e-01 4.2282655213417791e-01 -2.3224105761597524e-01 -6.6502627604022180e-01 
        </Neuron>
        <Neuron NSynapses="40">
          3.6414035167613759e+00 1.4072750355146363e-01 -1.8978356776331671e+00 -1.4424186851601001e-01 1.6395765152696493e+00 -1.2944616604739110e+00 -2.0589517132513078e+00 2.1956726877259123e+00 8.4601598374695559e+00 -3.2141511086230984e-01 -1.2530890640590227e+00 -1.1124694100191510e-01 -1.6716792441440370e-01 1.3699996538895567e+00 2.2599027693966889e-01 -4.3891933750915744e+00 -1.7419692180860316e+00 4.6208868480179950e+00 3.9115240886000922e+00 -6.3608110994327438e-01 3.0846739231159175e+00 3.7207808274678538e+00 2.0818359022304878e-01 1.1559018129888046e+00 -1.5896612785037714e+01 -1.6118246301135917e+00 -1.6024365704117716e+00 6.4075973900801930e-01 -5.5219854496763974e+00 -1.1202818686724121e+00 1.3500775375737501e+01 -3.1433495185760502e-01 1.2234861341689185e+00 1.1563617235917480e+00 6.9632955709405033e+00 5.5723857641122010e-01 2.4120438969340696e-01 -1.3254710191991472e+00 5.6894410933510808e-01 3.7750130101864969e+00 
        </Neuron>
        <Neuron NSynapses="40">
          -9.2438531532595780e-01 2.5963008030333437e+00 -1.1020649614053717e+00 -3.0683893073494360e+01 -1.5788085833572232e+00 -5.7192565045783426e-02 1.7318539824979187e+00 -1.0388925144437466e+00 1.0909667014399249e-01 -3.0873498570736652e-01 -1.8219158129222212e-02 -1.2510369741426666e+00 4.0718180096614320e-01 1.1138059473832216e+00 -6.1709610748617905e-01 -5.7691905672798149e-01 -1.6013070790971897e+00 1.6929125915655716e+00 -1.9472959406078488e+01 -1.5610920278192337e+00 -2.8980485988409915e-01 1.8726251104704807e+00 -5.0169683620642724e-01 -2.6674042898477102e-01 -4.7224388386148608e-01 3.7509033450699194e+00 1.7384897964351056e-01 4.5347174508563803e+00 -2.5343577980201054e-01 -1.4291492964986968e-01 -9.9404594322098805e-01 -2.0138008909051219e+00 1.1267765114770130e+00 5.2656091256149873e-01 -5.1419314340684596e-01 1.1141273065778455e-01 2.0735562871786264e-01 1.9686927766339737e+00 -3.4434262173821523e-01 -1.7870410337421625e+00 
        </Neuron>
        <Neuron NSynapses="40">
          -2.2399350247731302e+00 -1.5853545744564093e+00 -2.8145600374810392e+01 -9.9870580536953586e+00 -2.0665132427779884e+00 -3.9455776083079299e+00 -1.6241642038295676e+00 7.9796240249585813e+00 8.7666942505700085e+00 4.3862697550399705e+00 -1.3866746523793441e+00 -5.0336295419378523e+00 -5.8405847680706113e+00 -2.5120833040618669e+00 2.6537566082862205e+00 2.0036243671381818e+01 -3.1452922662821858e-01 1.1681622312089020e+01 1.7219996493979239e+00 6.6418475712409042e-01 -1.0376498520746155e+01 7.3505790846942820e-01 4.0756002294874544e-01 2.9674215308253968e+00 -4.4745878998758872e+00 4.0331494788206896e+00 -1.1212652690118430e+00 -6.0216186228959828e-02 9.1545398761458086e-01 1.8862329245365248e+00 -1.3716129021090431e+00 3.7435869719784720e+00 7.2520681548208863e+00 5.3293737646499295e+00 1.5933786554340102e+01 1.2668813373741530e+01 -1.9208564275839626e+00 4.8649161908704155e+00 7.4591913005354760e-01 -9.3037857425297743e-01 
        </Neuron>
        <Neuron NSynapses="40">
          -1.6057112746264068e-01 -1.5127648036603665e+00 -3.2496667854640236e+01 -1.2385016395759417e+01 4.1854363520831821e-02 -5.7248981231163878e+00 -1.5712667355104666e+00 5.5480822778155963e+00 1.2346804831578044e+01 6.7379296461036651e+00 1.8404579644210310e+00 -2.6840227935981815e+00 -3.3875776595057512e+00 -3.5983024237981787e+00 2.0455859718311684e+00 2.2884024505893031e+01 -1.3070159567652118e+00 1.1291373674068765e+01 -2.7280003232288590e+00 9.8847290091981024e-02 -1.5810219078530436e+01 9.6358116802840788e-01 -4.7583326630171774e-01 6.7231795210794623e+00 -5.9354751708906086e+00 3.5100216427126032e+00 1.4384312279288909e+00 3.9149736173103835e+00 5.8511966561070639e-01 1.0198296913254237e+00 -2.2117089813169835e-01 2.7172308650919077e+00 8.3899108785257663e+00 4.1919853102193150e+00 1.1077849749064587e+01 1.2635038937978701e+01 -4.9267528324596004e+00 9.1400370852688244e+00 2.1660767059961512e+00 -2.9499722322628772e+00 
        </Neuron>
        <Neuron NSynapses="40">
          -4.2311686902737868e+00 8.8292210646851075e+00 6.0618896490624408e+01 2.2155306110408972e+01 -1.6280015408301398e+00 1.0768307750387031e+01 -3.0186925043106605e+00 -1.3447252254949888e+01 -2.1447000470147938e+01 -1.1058653327231699e+01 -1.4112381061119100e-01 7.3189951835780054e+00 8.1748198051095056e+00 1.1694902752193792e+01 -2.4289054831027523e+00 -3.9085911238420252e+01 2.2402931990339683e-01 -2.2808376468793032e+01 1.0142572809793897e+01 3.1707126568875874e+00 2.6043565750247879e+01 -1.4512276848763592e+00 4.3877700717297419e-01 -3.3110057333103828e+00 2.5754970210535163e+01 -4.6380668699416878e+00 -3.4129632028121015e-01 -4.1752599611093517e+00 8.1322239657291406e-01 1.5293264004011182e+00 1.0148290667207065e+00 -5.0627891489036063e+00 -1.5399934560461732e+01 -9.0298856936282643e+00 -2.6994356634351046e+01 -2.0007523616082072e+01 4.5397243847440061e+00 -1.3931506421250241e+01 -4.7908500642373788e+00 3.5291759689101654e+00 
        </Neuron>
        <Neuron NSynapses="40">
          -1.1061544483282415e-01 -7.2758650571441130e-01 -2.0876815287185956e+01 -5.8602841966715635e+00 5.2467560341580888e-01 -3.3717824422294602e+00 1.1745031308682738e+00 4.2535313642897554e+00 9.5722542082037343e+00 5.1374239740765137e+00 1.0425367237739733e+00 -4.1999128855681800e+00 -3.4881826407922900e+00 -5.5803266267973228e+00 -1.5563653147027781e+00 1.5591841475183800e+01 2.5562055378162796e-01 8.8201605585477676e+00 -4.7234304860405780e+00 8.0477684790373916e-01 -9.4704413745225597e+00 5.4894769656752818e-01 1.6499915833828604e+00 2.7626241101903215e+00 -6.6549282506807526e+00 -7.5078699760733913e-01 -1.5911801435556499e+00 2.7942631821993325e+00 -6.4295215564015340e-01 -1.8475031394027179e+00 4.2783332455165812e-01 1.7813849385976741e+00 6.5799975150172312e+00 3.6088147902214098e+00 1.6833452904364083e+01 8.0172639933603680e+00 -9.3158419316123076e-01 7.7080760291491455e+00 4.0960913588949865e-01 -1.9005452265949561e+00 
        </Neuron>
        <Neuron NSynapses="40">
          -8.2439472902474431e-01 -4.6562691145782749e+00 -4.0590112500483201e+01 -1.3722980258456234e+01 -4.4118650192990988e-01 -7.7211138183387611e+00 -5.8047854622619699e-01 1.1067941741548807e+01 1.6848039712162564e+01 5.0147725682393007e+00 1.1301498411989207e-01 -4.7178381849178601e+00 -3.2817137100513372e+00 -8.8485808546014919e+00 -1.4661571727082995e-01 2.7122052567847415e+01 7.5938240374431876e-01 1.5565373106056033e+01 -6.3748347033508361e+00 4.4975565112132754e-01 -1.4905639385870108e+01 -1.4239401241355536e+00 -7.0891453510217450e-01 3.6577873168194310e+00 -1.4965124215755351e+01 1.1767741883760661e+00 -1.8336981147165212e+00 3.0781299018454888e-02 6.6798493168746897e-01 -1.5831497547316580e+00 -1.1020649381115917e+00 2.9131348240791275e+00 9.4617194482950744e+00 4.5219342215754725e+00 2.4667905526100338e+01 1.5611703312549675e+01 -4.1887955359894695e+00 1.2792163538894531e+01 4.8472524821208580e+00 -2.9667898698012873e+00 
        </Neuron>
        <Neuron NSynapses="40">
          1.0349398353181289e+00 6.9807747245693097e+00 6.1329209433518052e+01 1.9456643466217173e+01 2.1481606089600791e+00 9.8604923634453403e+00 -5.2278134726774828e-01 -1.5308925514495009e+01 -2.6475262945119255e+01 -1.0400091759073465e+01 -1.0548376163681996e+00 9.0798264079958741e+00 6.6536134969611913e+00 8.5862979198362943e+00 -4.5550469937615459e+00 -4.2675669959783619e+01 -2.5621759486179024e-01 -2.4370092775108418e+01 2.3024638636282915e+00 1.3499471991525123e+00 2.4351216115217369e+01 8.3335604121285145e-01 -1.6154296684063216e+00 -2.0980261679497616e+00 2.1482996333292238e+01 -5.2412759473050796e+00 1.1108588121726133e+00 -2.9956252876049216e+00 8.6780411762916077e-01 -1.1736007673797846e+00 3.0364744167424269e+00 -3.6044972245534974e+00 -1.5738164929744769e+01 -1.0791575031570027e+01 -4.1298088471263107e+01 -2.3668806963650841e+01 4.8782378156757265e+00 -1.2049746892468640e+01 -5.7221224065286505e+00 4.9718049530268402e+00 
        </Neuron>
        <Neuron NSynapses="40">
          -2.2806802535608774e+00 -3.8821966973606137e-01 5.5543335519240058e+00 1.5435148097351385e+00 -2.9549115997439168e-01 -2.0143076643671090e+00 5.1542693754568736e-01 5.5660208338544299e+00 -3.7544728975352397e+00 2.7287086572227626e+00 -1.0601497967485960e+00 -4.7647679249462199e-01 1.8251288446231264e+00 4.7858052009241503e-01 -1.7386574234268988e+00 1.7066019912898973e+01 1.4912026752875724e+00 -3.4998022601048779e+00 1.5092752545495414e+00 3.3352002277651498e-02 2.9362435069352464e+00 5.6451614491284285e-01 -1.5254114533810965e+00 -1.5160819189311583e+00 2.3778889667594889e+00 -1.1053983413508228e+00 7.4830870180602982e-01 -8.3032779675067880e-01 -1.2021510985288038e+00 -1.2893230378226215e+00 -7.0563454626036207e-02 -1.2036137120875596e+00 -9.2487473834238842e-01 -3.2078995834715729e-01 -1.6237061864403419e+00 9.7285783807086457e+00 1.3353997875911650e+00 -1.8086471789531238e+00 -1.0451931423690639e+00 7.5224211945448871e-01 
        </Neuron>
        <Neuron NSynapses="40">
          -3.9480310429287493e+00 1.1432829989884046e+00 -5.4929495797095012e+00 -1.2781677853575371e+00 1.0848863796123178e+00 -3.6661098572172035e+00 -7.4311890863579011e-01 9.6636449398222410e+00 4.0897716010721190e+00 6.2454401081152735e+00 1.5725158091947855e+00 4.8901892955970483e-01 -9.3435067825838569e-01 -1.0166195007667589e-01 8.1653770070191900e-01 2.1389916126676631e+01 1.3634566481839280e-01 3.5013506441210009e+00 -1.4512343987897158e+00 -1.6907871879736571e+00 -3.0017566430321594e+00 -5.9977211540600639e-01 -3.5106517055966152e-01 1.8233539941751291e+00 -2.5067705276712084e+00 1.1255184563523430e+00 1.4542939497798992e+00 -1.4885063130950826e+00 1.0786172913783789e+00 1.3766988153358275e+00 5.3136229546487879e-01 1.1354867296452331e+00 8.7111840507287841e-01 -3.0329274706167971e-02 1.6680939673939552e+00 1.3082167239426006e+01 -2.7876959562934511e-01 1.5162337485325905e+00 8.0335160448145304e-01 -8.4523467578256395e-01 
        </Neuron>
        <Neuron NSynapses="40">
          2.3198962806399388e+00 -4.4722288516546920e+00 -1.7578281048044573e+01 -1.0103620036042658e+01 8.4857510963643135e-01 -3.1829636402968000e+00 4.2257926309668198e-01 5.5197150504746153e+00 1.4497763572654339e+01 2.9000622942774088e+00 -8.3816967035241607e-01 -3.0543117400345570e+00 -2.7591991539217795e+00 -3.0053535198527870e+00 -1.9654970887751519e-01 1.3271600859908416e+01 -1.1224266975063828e+00 1.0839544508304082e+01 -2.2163612881061954e+00 -8.7788248027593530e-01 -1.4671246938607043e+01 6.8148059049643228e+00 3.2881689779539519e-01 8.4829583868840497e-01 -4.8662433150712285e+00 -2.8882230746764224e+00 -7.0010110677577908e-01 -4.8547068739356636e-01 -4.9469675500224746e+00 4.9970501432342618e-01 1.7057352071384708e+00 2.6498250747057467e-01 2.1470643304973431e+00 2.9788035453256194e+00 1.7591795324183355e+01 9.2006921570152489e+00 -4.2253756331454628e+00 5.8367986334207522e+00 4.1068087959255983e-01 1.9739172595336585e+00 
        </Neuron>
      </Layer>
      <Layer Index="1" NNeurons="41">
        <Neuron NSynapses="1">
          -9.5828893801016257e-01 
        </Neuron>
        <Neuron NSynapses="1">
          7.1616295573391686e-01 
        </Neuron>
        <Neuron NSynapses="1">
          1.1094103379899827e+00 
        </Neuron>
        <Neuron NSynapses="1">
          8.6483877724117930e-01 
        </Neuron>
        <Neuron NSynapses="1">
          -2.6372001490569312e+00 
        </Neuron>
        <Neuron NSynapses="1">
          3.8343054110253716e-01 
        </Neuron>
        <Neuron NSynapses="1">
          -4.3235318019254965e-01 
        </Neuron>
        <Neuron NSynapses="1">
          -1.8232866765598197e+00 
        </Neuron>
        <Neuron NSynapses="1">
          -1.4106528004764625e+00 
        </Neuron>
        <Neuron NSynapses="1">
          -2.8153695565850234e-01 
        </Neuron>
        <Neuron NSynapses="1">
          1.0927092438476569e+00 
        </Neuron>
        <Neuron NSynapses="1">
          1.2413163167002257e+00 
        </Neuron>
        <Neuron NSynapses="1">
          3.6337937686736282e-01 
        </Neuron>
        <Neuron NSynapses="1">
          6.9811039076179149e-01 
        </Neuron>
        <Neuron NSynapses="1">
          -1.0814104157559938e+00 
        </Neuron>
        <Neuron NSynapses="1">
          -7.4336899909227316e-01 
        </Neuron>
        <Neuron NSynapses="1">
          6.6853308765203245e-01 
        </Neuron>
        <Neuron NSynapses="1">
          -7.2580691353182791e-01 
        </Neuron>
        <Neuron NSynapses="1">
          8.5150985723843819e-01 
        </Neuron>
        <Neuron NSynapses="1">
          1.9584293261198024e-01 
        </Neuron>
        <Neuron NSynapses="1">
          1.2291799268071548e+00 
        </Neuron>
        <Neuron NSynapses="1">
          1.0951979564568892e+00 
        </Neuron>
        <Neuron NSynapses="1">
          -7.2411323916645010e-01 
        </Neuron>
        <Neuron NSynapses="1">
          1.3017147003146559e+00 
        </Neuron>
        <Neuron NSynapses="1">
          2.4710593989844285e+00 
        </Neuron>
        <Neuron NSynapses="1">
          -5.8962043849263723e-01 
        </Neuron>
        <Neuron NSynapses="1">
          1.1441936326338509e+00 
        </Neuron>
        <Neuron NSynapses="1">
          -4.5674589605280125e-01 
        </Neuron>
        <Neuron NSynapses="1">
          -3.3613340478928300e+00 
        </Neuron>
        <Neuron NSynapses="1">
          4.5610005208821097e-01 
        </Neuron>
        <Neuron NSynapses="1">
          8.5011159063257202e-01 
        </Neuron>
        <Neuron NSynapses="1">
          -1.2095515307336049e+00 
        </Neuron>
        <Neuron NSynapses="1">
          -2.9575194411051253e-01 
        </Neuron>
        <Neuron NSynapses="1">
          -7.5374121130875971e-01 
        </Neuron>
        <Neuron NSynapses="1">
          -3.3242881353855278e+00 
        </Neuron>
        <Neuron NSynapses="1">
          -4.7943503570121188e-01 
        </Neuron>
        <Neuron NSynapses="1">
          3.1263848873616912e-01 
        </Neuron>
        <Neuron NSynapses="1">
          -6.5842404136999688e-01 
        </Neuron>
        <Neuron NSynapses="1">
          1.1259337623569314e+00 
        </Neuron>
        <Neuron NSynapses="1">
          1.5410127128741999e+00 
        </Neuron>
        <Neuron NSynapses="1">
          2.6287530346328425e+00 
        </Neuron>
      </Layer>
      <Layer Index="2" NNeurons="1">
        <Neuron NSynapses="0"/>
      </Layer>
    </Layout>
  </Weights>
</MethodSetup>
