<?xml version="1.0"?>
<MethodSetup Method="MLP::Ghost_Downstream_TMVA">
  <GeneralInfo>
    <Info name="TMVA Release" value="4.2.0 [262656]"/>
    <Info name="ROOT Release" value="5.34/18 [336402]"/>
    <Info name="Creator" value="jonesc"/>
    <Info name="Date" value="Tue Jun 17 05:19:44 2014"/>
    <Info name="Host" value="ec-slc6-x86-64-spi-9"/>
    <Info name="Dir" value="/var/pcfst/r03/lhcb/jonesc/ANNPID/results/MC12/TrainHeavy/TrainPhysTks-EvalPhysTks-ReweightRICH2/TMVA-NoPreSels-CombDLL-NoGECs/MLP/Norm/ScaleF1.4/BP/NCycles750/CE/tanh/CVTest15/CVImp1e-16/NotUseRegulator/Ghost/Downstream"/>
    <Info name="Training events" value="1200000"/>
    <Info name="TrainingTime" value="2.44138838e+04"/>
    <Info name="AnalysisType" value="Classification"/>
  </GeneralInfo>
  <Options>
    <Option name="NCycles" modified="Yes">750</Option>
    <Option name="HiddenLayers" modified="Yes">37</Option>
    <Option name="NeuronType" modified="Yes">tanh</Option>
    <Option name="RandomSeed" modified="No">1</Option>
    <Option name="EstimatorType" modified="Yes">CE</Option>
    <Option name="NeuronInputType" modified="No">sum</Option>
    <Option name="V" modified="Yes">True</Option>
    <Option name="VerbosityLevel" modified="No">Verbose</Option>
    <Option name="VarTransform" modified="Yes">Norm</Option>
    <Option name="H" modified="Yes">True</Option>
    <Option name="CreateMVAPdfs" modified="No">False</Option>
    <Option name="IgnoreNegWeightsInTraining" modified="No">False</Option>
    <Option name="TrainingMethod" modified="Yes">BP</Option>
    <Option name="LearningRate" modified="No">2.000000e-02</Option>
    <Option name="DecayRate" modified="No">1.000000e-02</Option>
    <Option name="TestRate" modified="No">10</Option>
    <Option name="EpochMonitoring" modified="Yes">True</Option>
    <Option name="Sampling" modified="No">1.000000e+00</Option>
    <Option name="SamplingEpoch" modified="No">1.000000e+00</Option>
    <Option name="SamplingImportance" modified="No">1.000000e+00</Option>
    <Option name="SamplingTraining" modified="No">True</Option>
    <Option name="SamplingTesting" modified="No">False</Option>
    <Option name="ResetStep" modified="No">50</Option>
    <Option name="Tau" modified="No">3.000000e+00</Option>
    <Option name="BPMode" modified="No">sequential</Option>
    <Option name="BatchSize" modified="No">-1</Option>
    <Option name="ConvergenceImprove" modified="Yes">1.000000e-16</Option>
    <Option name="ConvergenceTests" modified="Yes">15</Option>
    <Option name="UseRegulator" modified="Yes">False</Option>
    <Option name="UpdateLimit" modified="No">10000</Option>
    <Option name="CalculateErrors" modified="No">False</Option>
    <Option name="WeightRange" modified="No">1.000000e+00</Option>
  </Options>
  <Variables NVar="27">
    <Variable VarIndex="0" Expression="TrackP" Label="TrackP" Title="TrackP" Unit="" Internal="TrackP" Type="F" Min="1.10516003e+03" Max="4.90220200e+06"/>
    <Variable VarIndex="1" Expression="TrackPt" Label="TrackPt" Title="TrackPt" Unit="" Internal="TrackPt" Type="F" Min="3.01895797e-01" Max="6.25316750e+05"/>
    <Variable VarIndex="2" Expression="TrackChi2PerDof" Label="TrackChi2PerDof" Title="TrackChi2PerDof" Unit="" Internal="TrackChi2PerDof" Type="F" Min="2.66234074e-02" Max="2.99999666e+00"/>
    <Variable VarIndex="3" Expression="TrackNumDof" Label="TrackNumDof" Title="TrackNumDof" Unit="" Internal="TrackNumDof" Type="I" Min="4.00000000e+00" Max="3.20000000e+01"/>
    <Variable VarIndex="4" Expression="TrackLikelihood" Label="TrackLikelihood" Title="TrackLikelihood" Unit="" Internal="TrackLikelihood" Type="F" Min="-9.87784500e+01" Max="4.70689982e-01"/>
    <Variable VarIndex="5" Expression="TrackGhostProbability" Label="TrackGhostProbability" Title="TrackGhostProbability" Unit="" Internal="TrackGhostProbability" Type="F" Min="-9.99000000e+02" Max="1.00000000e+00"/>
    <Variable VarIndex="6" Expression="TrackFitTChi2" Label="TrackFitTChi2" Title="TrackFitTChi2" Unit="" Internal="TrackFitTChi2" Type="F" Min="3.82421480e-04" Max="7.44947662e+01"/>
    <Variable VarIndex="7" Expression="TrackFitTNDoF" Label="TrackFitTNDoF" Title="TrackFitTNDoF" Unit="" Internal="TrackFitTNDoF" Type="I" Min="1.00000000e+00" Max="2.80000000e+01"/>
    <Variable VarIndex="8" Expression="RichUsedAero" Label="RichUsedAero" Title="RichUsedAero" Unit="" Internal="RichUsedAero" Type="I" Min="0.00000000e+00" Max="1.00000000e+00"/>
    <Variable VarIndex="9" Expression="RichUsedR1Gas" Label="RichUsedR1Gas" Title="RichUsedR1Gas" Unit="" Internal="RichUsedR1Gas" Type="I" Min="0.00000000e+00" Max="1.00000000e+00"/>
    <Variable VarIndex="10" Expression="RichUsedR2Gas" Label="RichUsedR2Gas" Title="RichUsedR2Gas" Unit="" Internal="RichUsedR2Gas" Type="I" Min="0.00000000e+00" Max="1.00000000e+00"/>
    <Variable VarIndex="11" Expression="RichAbovePiThres" Label="RichAbovePiThres" Title="RichAbovePiThres" Unit="" Internal="RichAbovePiThres" Type="I" Min="0.00000000e+00" Max="1.00000000e+00"/>
    <Variable VarIndex="12" Expression="RichAboveKaThres" Label="RichAboveKaThres" Title="RichAboveKaThres" Unit="" Internal="RichAboveKaThres" Type="I" Min="0.00000000e+00" Max="1.00000000e+00"/>
    <Variable VarIndex="13" Expression="RichAbovePrThres" Label="RichAbovePrThres" Title="RichAbovePrThres" Unit="" Internal="RichAbovePrThres" Type="I" Min="0.00000000e+00" Max="1.00000000e+00"/>
    <Variable VarIndex="14" Expression="RichDLLe" Label="RichDLLe" Title="RichDLLe" Unit="" Internal="RichDLLe" Type="F" Min="-9.99000000e+02" Max="9.35318985e+01"/>
    <Variable VarIndex="15" Expression="RichDLLmu" Label="RichDLLmu" Title="RichDLLmu" Unit="" Internal="RichDLLmu" Type="F" Min="-9.99000000e+02" Max="7.38979034e+01"/>
    <Variable VarIndex="16" Expression="RichDLLk" Label="RichDLLk" Title="RichDLLk" Unit="" Internal="RichDLLk" Type="F" Min="-9.99000000e+02" Max="8.09784012e+01"/>
    <Variable VarIndex="17" Expression="RichDLLp" Label="RichDLLp" Title="RichDLLp" Unit="" Internal="RichDLLp" Type="F" Min="-9.99000000e+02" Max="8.14013977e+01"/>
    <Variable VarIndex="18" Expression="RichDLLbt" Label="RichDLLbt" Title="RichDLLbt" Unit="" Internal="RichDLLbt" Type="F" Min="-9.99000000e+02" Max="6.46211014e+01"/>
    <Variable VarIndex="19" Expression="InAccMuon" Label="InAccMuon" Title="InAccMuon" Unit="" Internal="InAccMuon" Type="I" Min="0.00000000e+00" Max="1.00000000e+00"/>
    <Variable VarIndex="20" Expression="MuonBkgLL" Label="MuonBkgLL" Title="MuonBkgLL" Unit="" Internal="MuonBkgLL" Type="F" Min="-9.99000000e+02" Max="2.25000009e-02"/>
    <Variable VarIndex="21" Expression="MuonMuLL" Label="MuonMuLL" Title="MuonMuLL" Unit="" Internal="MuonMuLL" Type="F" Min="-9.99000000e+02" Max="0.00000000e+00"/>
    <Variable VarIndex="22" Expression="MuonIsMuon" Label="MuonIsMuon" Title="MuonIsMuon" Unit="" Internal="MuonIsMuon" Type="I" Min="0.00000000e+00" Max="1.00000000e+00"/>
    <Variable VarIndex="23" Expression="MuonNShared" Label="MuonNShared" Title="MuonNShared" Unit="" Internal="MuonNShared" Type="I" Min="0.00000000e+00" Max="8.00000000e+01"/>
    <Variable VarIndex="24" Expression="MuonIsLooseMuon" Label="MuonIsLooseMuon" Title="MuonIsLooseMuon" Unit="" Internal="MuonIsLooseMuon" Type="I" Min="0.00000000e+00" Max="1.00000000e+00"/>
    <Variable VarIndex="25" Expression="CombDLLe" Label="CombDLLe" Title="CombDLLe" Unit="" Internal="CombDLLe" Type="F" Min="-9.99000000e+02" Max="1.25889416e+01"/>
    <Variable VarIndex="26" Expression="CombDLLmu" Label="CombDLLmu" Title="CombDLLmu" Unit="" Internal="CombDLLmu" Type="F" Min="-9.99000000e+02" Max="1.39523773e+01"/>
  </Variables>
  <Spectators NSpec="0"/>
  <Classes NClass="2">
    <Class Name="Signal" Index="0"/>
    <Class Name="Background" Index="1"/>
  </Classes>
  <Transformations NTransformations="1">
    <Transform Name="Normalize">
      <Selection>
        <Input NInputs="27">
          <Input Type="Variable" Label="TrackP" Expression="TrackP"/>
          <Input Type="Variable" Label="TrackPt" Expression="TrackPt"/>
          <Input Type="Variable" Label="TrackChi2PerDof" Expression="TrackChi2PerDof"/>
          <Input Type="Variable" Label="TrackNumDof" Expression="TrackNumDof"/>
          <Input Type="Variable" Label="TrackLikelihood" Expression="TrackLikelihood"/>
          <Input Type="Variable" Label="TrackGhostProbability" Expression="TrackGhostProbability"/>
          <Input Type="Variable" Label="TrackFitTChi2" Expression="TrackFitTChi2"/>
          <Input Type="Variable" Label="TrackFitTNDoF" Expression="TrackFitTNDoF"/>
          <Input Type="Variable" Label="RichUsedAero" Expression="RichUsedAero"/>
          <Input Type="Variable" Label="RichUsedR1Gas" Expression="RichUsedR1Gas"/>
          <Input Type="Variable" Label="RichUsedR2Gas" Expression="RichUsedR2Gas"/>
          <Input Type="Variable" Label="RichAbovePiThres" Expression="RichAbovePiThres"/>
          <Input Type="Variable" Label="RichAboveKaThres" Expression="RichAboveKaThres"/>
          <Input Type="Variable" Label="RichAbovePrThres" Expression="RichAbovePrThres"/>
          <Input Type="Variable" Label="RichDLLe" Expression="RichDLLe"/>
          <Input Type="Variable" Label="RichDLLmu" Expression="RichDLLmu"/>
          <Input Type="Variable" Label="RichDLLk" Expression="RichDLLk"/>
          <Input Type="Variable" Label="RichDLLp" Expression="RichDLLp"/>
          <Input Type="Variable" Label="RichDLLbt" Expression="RichDLLbt"/>
          <Input Type="Variable" Label="InAccMuon" Expression="InAccMuon"/>
          <Input Type="Variable" Label="MuonBkgLL" Expression="MuonBkgLL"/>
          <Input Type="Variable" Label="MuonMuLL" Expression="MuonMuLL"/>
          <Input Type="Variable" Label="MuonIsMuon" Expression="MuonIsMuon"/>
          <Input Type="Variable" Label="MuonNShared" Expression="MuonNShared"/>
          <Input Type="Variable" Label="MuonIsLooseMuon" Expression="MuonIsLooseMuon"/>
          <Input Type="Variable" Label="CombDLLe" Expression="CombDLLe"/>
          <Input Type="Variable" Label="CombDLLmu" Expression="CombDLLmu"/>
        </Input>
        <Output NOutputs="27">
          <Output Type="Variable" Label="TrackP" Expression="TrackP"/>
          <Output Type="Variable" Label="TrackPt" Expression="TrackPt"/>
          <Output Type="Variable" Label="TrackChi2PerDof" Expression="TrackChi2PerDof"/>
          <Output Type="Variable" Label="TrackNumDof" Expression="TrackNumDof"/>
          <Output Type="Variable" Label="TrackLikelihood" Expression="TrackLikelihood"/>
          <Output Type="Variable" Label="TrackGhostProbability" Expression="TrackGhostProbability"/>
          <Output Type="Variable" Label="TrackFitTChi2" Expression="TrackFitTChi2"/>
          <Output Type="Variable" Label="TrackFitTNDoF" Expression="TrackFitTNDoF"/>
          <Output Type="Variable" Label="RichUsedAero" Expression="RichUsedAero"/>
          <Output Type="Variable" Label="RichUsedR1Gas" Expression="RichUsedR1Gas"/>
          <Output Type="Variable" Label="RichUsedR2Gas" Expression="RichUsedR2Gas"/>
          <Output Type="Variable" Label="RichAbovePiThres" Expression="RichAbovePiThres"/>
          <Output Type="Variable" Label="RichAboveKaThres" Expression="RichAboveKaThres"/>
          <Output Type="Variable" Label="RichAbovePrThres" Expression="RichAbovePrThres"/>
          <Output Type="Variable" Label="RichDLLe" Expression="RichDLLe"/>
          <Output Type="Variable" Label="RichDLLmu" Expression="RichDLLmu"/>
          <Output Type="Variable" Label="RichDLLk" Expression="RichDLLk"/>
          <Output Type="Variable" Label="RichDLLp" Expression="RichDLLp"/>
          <Output Type="Variable" Label="RichDLLbt" Expression="RichDLLbt"/>
          <Output Type="Variable" Label="InAccMuon" Expression="InAccMuon"/>
          <Output Type="Variable" Label="MuonBkgLL" Expression="MuonBkgLL"/>
          <Output Type="Variable" Label="MuonMuLL" Expression="MuonMuLL"/>
          <Output Type="Variable" Label="MuonIsMuon" Expression="MuonIsMuon"/>
          <Output Type="Variable" Label="MuonNShared" Expression="MuonNShared"/>
          <Output Type="Variable" Label="MuonIsLooseMuon" Expression="MuonIsLooseMuon"/>
          <Output Type="Variable" Label="CombDLLe" Expression="CombDLLe"/>
          <Output Type="Variable" Label="CombDLLmu" Expression="CombDLLmu"/>
        </Output>
      </Selection>
      <Class ClassIndex="0">
        <Ranges>
          <Range Index="0" Min="1.1051600341796875e+03" Max="4.9022020000000000e+06"/>
          <Range Index="1" Min="3.0189579725265503e-01" Max="6.2531675000000000e+05"/>
          <Range Index="2" Min="2.6623407378792763e-02" Max="2.9999966621398926e+00"/>
          <Range Index="3" Min="4.0000000000000000e+00" Max="3.2000000000000000e+01"/>
          <Range Index="4" Min="-9.8778450012207031e+01" Max="4.7068998217582703e-01"/>
          <Range Index="5" Min="-9.9900000000000000e+02" Max="1.0000000000000000e+00"/>
          <Range Index="6" Min="3.8242148002609611e-04" Max="7.4494766235351562e+01"/>
          <Range Index="7" Min="1.0000000000000000e+00" Max="2.8000000000000000e+01"/>
          <Range Index="8" Min="0.0000000000000000e+00" Max="1.0000000000000000e+00"/>
          <Range Index="9" Min="0.0000000000000000e+00" Max="1.0000000000000000e+00"/>
          <Range Index="10" Min="0.0000000000000000e+00" Max="1.0000000000000000e+00"/>
          <Range Index="11" Min="0.0000000000000000e+00" Max="1.0000000000000000e+00"/>
          <Range Index="12" Min="0.0000000000000000e+00" Max="1.0000000000000000e+00"/>
          <Range Index="13" Min="0.0000000000000000e+00" Max="1.0000000000000000e+00"/>
          <Range Index="14" Min="-9.9900000000000000e+02" Max="9.3531898498535156e+01"/>
          <Range Index="15" Min="-9.9900000000000000e+02" Max="5.2448398590087891e+01"/>
          <Range Index="16" Min="-9.9900000000000000e+02" Max="5.7214698791503906e+01"/>
          <Range Index="17" Min="-9.9900000000000000e+02" Max="6.1395599365234375e+01"/>
          <Range Index="18" Min="-9.9900000000000000e+02" Max="6.4621101379394531e+01"/>
          <Range Index="19" Min="0.0000000000000000e+00" Max="1.0000000000000000e+00"/>
          <Range Index="20" Min="-9.9900000000000000e+02" Max="2.2199999541044235e-02"/>
          <Range Index="21" Min="-9.9900000000000000e+02" Max="0.0000000000000000e+00"/>
          <Range Index="22" Min="0.0000000000000000e+00" Max="1.0000000000000000e+00"/>
          <Range Index="23" Min="0.0000000000000000e+00" Max="8.0000000000000000e+01"/>
          <Range Index="24" Min="0.0000000000000000e+00" Max="1.0000000000000000e+00"/>
          <Range Index="25" Min="-9.9900000000000000e+02" Max="1.2588941574096680e+01"/>
          <Range Index="26" Min="-9.9900000000000000e+02" Max="1.3952377319335938e+01"/>
        </Ranges>
      </Class>
      <Class ClassIndex="1">
        <Ranges>
          <Range Index="0" Min="1.1396400146484375e+03" Max="7.0801387500000000e+05"/>
          <Range Index="1" Min="3.3082664012908936e+00" Max="3.8537460937500000e+04"/>
          <Range Index="2" Min="3.3766154199838638e-02" Max="2.9999682903289795e+00"/>
          <Range Index="3" Min="5.0000000000000000e+00" Max="3.0000000000000000e+01"/>
          <Range Index="4" Min="-8.6877082824707031e+01" Max="2.4515177309513092e-01"/>
          <Range Index="5" Min="-9.9900000000000000e+02" Max="1.0000000000000000e+00"/>
          <Range Index="6" Min="1.5809206292033195e-02" Max="6.0421176910400391e+01"/>
          <Range Index="7" Min="1.0000000000000000e+00" Max="2.6000000000000000e+01"/>
          <Range Index="8" Min="0.0000000000000000e+00" Max="1.0000000000000000e+00"/>
          <Range Index="9" Min="0.0000000000000000e+00" Max="1.0000000000000000e+00"/>
          <Range Index="10" Min="0.0000000000000000e+00" Max="1.0000000000000000e+00"/>
          <Range Index="11" Min="0.0000000000000000e+00" Max="1.0000000000000000e+00"/>
          <Range Index="12" Min="0.0000000000000000e+00" Max="1.0000000000000000e+00"/>
          <Range Index="13" Min="0.0000000000000000e+00" Max="1.0000000000000000e+00"/>
          <Range Index="14" Min="-9.9900000000000000e+02" Max="8.9010101318359375e+01"/>
          <Range Index="15" Min="-9.9900000000000000e+02" Max="7.3897903442382812e+01"/>
          <Range Index="16" Min="-9.9900000000000000e+02" Max="8.0978401184082031e+01"/>
          <Range Index="17" Min="-9.9900000000000000e+02" Max="8.1401397705078125e+01"/>
          <Range Index="18" Min="-9.9900000000000000e+02" Max="6.4004600524902344e+01"/>
          <Range Index="19" Min="0.0000000000000000e+00" Max="1.0000000000000000e+00"/>
          <Range Index="20" Min="-9.9900000000000000e+02" Max="2.2500000894069672e-02"/>
          <Range Index="21" Min="-9.9900000000000000e+02" Max="0.0000000000000000e+00"/>
          <Range Index="22" Min="0.0000000000000000e+00" Max="1.0000000000000000e+00"/>
          <Range Index="23" Min="0.0000000000000000e+00" Max="5.9000000000000000e+01"/>
          <Range Index="24" Min="0.0000000000000000e+00" Max="1.0000000000000000e+00"/>
          <Range Index="25" Min="-9.9900000000000000e+02" Max="1.2266173362731934e+01"/>
          <Range Index="26" Min="-9.9900000000000000e+02" Max="1.3844276428222656e+01"/>
        </Ranges>
      </Class>
      <Class ClassIndex="2">
        <Ranges>
          <Range Index="0" Min="1.1051600341796875e+03" Max="4.9022020000000000e+06"/>
          <Range Index="1" Min="3.0189579725265503e-01" Max="6.2531675000000000e+05"/>
          <Range Index="2" Min="2.6623407378792763e-02" Max="2.9999966621398926e+00"/>
          <Range Index="3" Min="4.0000000000000000e+00" Max="3.2000000000000000e+01"/>
          <Range Index="4" Min="-9.8778450012207031e+01" Max="4.7068998217582703e-01"/>
          <Range Index="5" Min="-9.9900000000000000e+02" Max="1.0000000000000000e+00"/>
          <Range Index="6" Min="3.8242148002609611e-04" Max="7.4494766235351562e+01"/>
          <Range Index="7" Min="1.0000000000000000e+00" Max="2.8000000000000000e+01"/>
          <Range Index="8" Min="0.0000000000000000e+00" Max="1.0000000000000000e+00"/>
          <Range Index="9" Min="0.0000000000000000e+00" Max="1.0000000000000000e+00"/>
          <Range Index="10" Min="0.0000000000000000e+00" Max="1.0000000000000000e+00"/>
          <Range Index="11" Min="0.0000000000000000e+00" Max="1.0000000000000000e+00"/>
          <Range Index="12" Min="0.0000000000000000e+00" Max="1.0000000000000000e+00"/>
          <Range Index="13" Min="0.0000000000000000e+00" Max="1.0000000000000000e+00"/>
          <Range Index="14" Min="-9.9900000000000000e+02" Max="9.3531898498535156e+01"/>
          <Range Index="15" Min="-9.9900000000000000e+02" Max="7.3897903442382812e+01"/>
          <Range Index="16" Min="-9.9900000000000000e+02" Max="8.0978401184082031e+01"/>
          <Range Index="17" Min="-9.9900000000000000e+02" Max="8.1401397705078125e+01"/>
          <Range Index="18" Min="-9.9900000000000000e+02" Max="6.4621101379394531e+01"/>
          <Range Index="19" Min="0.0000000000000000e+00" Max="1.0000000000000000e+00"/>
          <Range Index="20" Min="-9.9900000000000000e+02" Max="2.2500000894069672e-02"/>
          <Range Index="21" Min="-9.9900000000000000e+02" Max="0.0000000000000000e+00"/>
          <Range Index="22" Min="0.0000000000000000e+00" Max="1.0000000000000000e+00"/>
          <Range Index="23" Min="0.0000000000000000e+00" Max="8.0000000000000000e+01"/>
          <Range Index="24" Min="0.0000000000000000e+00" Max="1.0000000000000000e+00"/>
          <Range Index="25" Min="-9.9900000000000000e+02" Max="1.2588941574096680e+01"/>
          <Range Index="26" Min="-9.9900000000000000e+02" Max="1.3952377319335938e+01"/>
        </Ranges>
      </Class>
    </Transform>
  </Transformations>
  <MVAPdfs/>
  <Weights>
    <Layout NLayers="3">
      <Layer Index="0" NNeurons="28">
        <Neuron NSynapses="37">
          1.3011123910225424e+00 3.7043551030593309e+00 -2.3495692912160835e+00 1.2480712505027904e+00 5.3283737246186744e+00 -1.6179352611487647e+00 -3.0959990332949467e+00 -1.2353287445514704e+01 -1.2866840013887448e+00 -2.2756467592061003e+00 1.2561721527697107e+00 -2.8138883633340939e-01 -1.5624778459737930e+01 -1.8595484459874254e+00 -3.8866876310272587e+00 8.5536677128050609e-01 -4.5883303732308827e+00 2.9107451055871207e+00 1.6926663819066232e+00 -2.9120066269549234e-02 -4.2479107108919596e+00 1.8997433115473288e+00 1.7570199245380033e-01 -1.0900949979079209e+01 -2.5516364807803336e+00 -9.7015266318037319e-01 -5.0476898443797662e+00 2.6038979553231983e-01 -1.9225506170265068e+00 2.8545950961684712e+00 8.6103289619775025e-01 2.2637328454503689e+00 4.2909177618871266e-02 6.1086294646252970e-01 -3.9148194454829057e+00 4.8854585326759219e+00 -4.9135195002534449e+00 
        </Neuron>
        <Neuron NSynapses="37">
          1.3904752438602417e+00 -1.9876338832897564e+00 6.8517776926066321e-01 1.2161481406973669e+00 -5.6379757806495929e+00 1.7543832712273051e+00 -1.6419215956476922e+01 -2.7472328419224321e+00 -9.0345253875850573e-01 4.6415612041176990e-01 -6.3926026492632859e+00 1.7749278976906053e+00 1.0372536461936781e+00 8.7216985850543480e+00 8.4440615894125131e+00 -1.0112408230130425e+00 5.4751375968729228e+00 7.9915845315845369e-01 -1.6332182336350642e+00 6.1495005892783672e+00 1.9720872033050826e-01 1.7416250678282665e+00 -1.6478140442924342e-02 8.0005244810582337e+00 -1.5830903975119099e+00 3.3066725000409805e+00 1.0120225672516694e+01 2.3883409336468926e+00 -2.3093213804703177e+00 1.1445706869613772e+00 -1.3959212213987764e+00 1.3873125759899945e+00 -8.3020331252522812e+00 -1.4168766209845001e+00 -2.0274787868814901e+00 -5.9819291870678377e+00 2.3404902494030089e+00 
        </Neuron>
        <Neuron NSynapses="37">
          1.4364848536548094e+00 5.5509328317816553e-01 -1.4111504328924218e+00 -3.2771767447072766e+00 6.1446339456034327e-01 -3.4426630372535233e-01 3.8685510892311941e+00 -4.8163598875909458e-01 3.8247092419759314e-02 -3.6177758883587074e+00 6.7034920772329643e-02 2.1510323514404139e+00 -6.5764974605051055e-02 3.3313619842557228e-02 -4.6753414412153855e+00 -1.7509485789332169e+00 2.4528469358779944e-02 3.6337688881607808e+00 1.7338134568836711e-01 2.2427676174411042e+00 -2.5661398064919616e-01 1.1870490396470215e+00 -8.2361060669078978e-01 -1.5593121332156734e+00 1.0973912933587600e+00 6.0325679208835048e-01 -4.1293993550328754e+00 2.1640773380432907e-01 4.3356824321859819e-02 4.1790702922038339e+00 -5.5535145248280859e-01 1.6493559851853759e+00 -2.9252155466613412e+00 -2.4187426059783212e+00 5.2885287044725088e-02 3.6680097497793285e+00 8.8461653470754043e-01 
        </Neuron>
        <Neuron NSynapses="37">
          -9.0424037836968978e+00 -5.1313194614247726e+00 1.3484426295712160e+00 7.8868944628936732e-01 1.3642404376746534e+01 1.2542835248237563e-01 -9.4454267067918938e+00 4.5311699587013639e+00 -8.6472547334427308e+00 1.2504984599873065e-01 3.3540635205637376e-01 -3.0481709272859634e+00 6.2183405384091095e-01 6.2938604151029726e-02 5.5890053683239831e+00 4.7066000833757231e+00 -4.1273710250743196e+00 -3.5055038613635978e+00 1.8783781913615276e+00 -2.5281379181444836e+00 -5.4941284752858461e+00 -4.6753440669070381e+00 -2.1092108080431418e+00 5.1669993187090299e+01 1.2531543521103277e+00 1.8636219109238803e+00 1.2339246624953045e+01 -4.2928787851105161e+00 -2.2381835141685591e+00 -6.0014252002564934e+00 5.5068719105353625e-01 -8.1157633619757863e-01 -3.6756750098749720e+00 1.1691050733660896e+01 4.6087026381604232e+00 -2.5071039956874941e+00 -1.2558379379460367e+00 
        </Neuron>
        <Neuron NSynapses="37">
          4.2909372711260891e+00 8.4678602215093740e-02 -9.3199580687558061e+00 5.2291673497111733e+00 -1.3131364730287425e+00 -2.0559145443613338e+00 -2.0897036605438817e+01 -9.9384708744006334e-01 2.8032617748808746e+00 -5.0641979939192450e-01 1.1587973834790877e-01 -2.9891593252204247e+00 -7.4878816779353496e-01 -1.1858010284929177e+00 -3.3537046596312808e-01 4.7577348185563411e+00 1.7857785379965708e+01 -2.7802712828966842e+00 1.6407141618819896e+00 1.2174173837282044e+01 -3.0240522556019496e+00 1.2093287275236364e+00 2.6725492675151225e-01 -7.0802879583562650e-01 -5.2586216686534595e+00 1.0474543423677607e+01 -1.0402875044980930e+00 -1.0701012495158615e+00 -2.9428528978989723e+00 -2.3025091478445089e-01 -4.3826993150190791e-01 -2.7519226112834918e+00 -1.4974649909233992e+01 5.1769467897450017e-01 -1.0375266530275382e+00 -1.6650066054289008e+00 -1.3039573111619327e+00 
        </Neuron>
        <Neuron NSynapses="37">
          -1.1190760204459445e+00 -8.7363486887157538e-01 1.6155342828946535e+00 -2.3575644578608639e+00 -7.4032933298407233e+00 -1.1335139659390383e+00 5.4085605753563593e-01 1.9952805814419534e+01 5.9376195420003663e-01 1.8051292652980067e+00 -3.7079204469599025e+00 -1.8413692819113892e+00 2.4859194359258492e+01 3.1415603814740392e+00 1.6366276064635330e+00 -1.0739753502348621e+00 6.1680496256413582e+00 -8.8955545346148301e-01 -3.4776979774490813e+00 6.2087172268281732e+00 3.3689847846525289e+00 6.8971805739835157e-01 5.5541737055703466e-01 1.7278142708485991e+01 1.9860765684606885e+00 1.4991207071249926e-01 9.4042346123785201e+00 -4.4031992693224691e+00 -1.7015197063994372e+00 -1.1335945119225779e+00 3.3329761261923468e-01 1.2192747450827912e-01 -1.5520444640714408e+00 1.9209033293734075e+00 8.5364513236148953e-01 -7.1591438064365658e+00 1.7394918359724909e+00 
        </Neuron>
        <Neuron NSynapses="37">
          1.2575645386929661e+00 4.8515406619895507e-01 -6.8025284442840572e-01 3.4529672929480015e+00 3.1820506958893136e-01 6.7952572102794839e-01 -6.2403784920160428e+00 4.0014739019633438e-01 -5.5784208396063906e-01 3.7620712743368010e+00 -9.1821570394561769e-01 -1.9333977686880097e+00 -1.8872932011990382e-01 -3.5230121893496114e-01 4.2476860998117303e+00 1.4558507118179076e+00 4.0331546212928266e+00 -3.2815352328018430e+00 -3.1672261696323478e-01 1.3885928100996631e-01 -8.5570211080914316e-01 -2.6869062993457153e+00 -1.9727578228077802e+00 2.9464503402958040e+00 -5.7157092330589221e-01 2.1100136876510800e+00 4.4263721443796999e+00 7.8049672575114748e-01 -1.5580132113012797e+00 -3.0233304794030249e+00 -3.8272806894368622e-01 2.5151188027118772e+00 2.5358524552844139e+00 2.3852557957158931e+00 5.7024677845335310e+00 -3.9176660724062371e+00 -2.3982928110597994e+00 
        </Neuron>
        <Neuron NSynapses="37">
          -2.2773555388494131e+00 -1.6074792323995324e+00 3.2432171780401289e+00 -7.4009717631490757e-01 -1.0529700216008399e+01 1.6469210866347919e+00 9.5575795084754027e+00 -4.2301841007620462e+00 7.3452864924707129e+00 -1.3380685017963940e+00 -2.5964249680271649e+00 -2.0023187334958542e-01 -4.8007524342468288e-01 4.8819490666003046e-01 -5.9079470844251007e+00 -5.7966126573472208e+00 3.5379726973756300e+00 5.4053179677887417e+00 5.7512952431741189e+00 2.5420152603920640e+00 -2.6495643112811234e+00 -5.6074791832925035e+00 1.7162302910812458e-01 -5.1358926763269594e+01 -3.9373522690417357e+00 -7.2673539107167384e+00 -1.3625196360254089e+01 -5.7314940392701681e+00 -6.6431298996035371e-01 5.7779052103865567e+00 1.7934476595327731e+00 -8.2873873545434207e-01 7.7079053460186087e+00 -1.2769985721575244e+01 4.4381758048302533e+00 5.1733665308009193e+00 -2.1886948763703411e+00 
        </Neuron>
        <Neuron NSynapses="37">
          2.1828793869928786e-01 1.0672842878347377e+00 -1.6023016330781865e+00 3.8893826147205698e-03 -3.6228002581563987e-02 -4.2468845307037989e-01 1.8394764391831187e-01 3.3134275791254914e-01 9.1860685309477808e-01 -3.1166856261406761e+00 -1.7787887945729597e-01 -1.4269562031574579e+00 1.8290177018421569e-01 -2.4980246493632918e-01 4.3446758803937099e-02 -3.5959248039262026e+00 -9.0581693858485945e-01 4.8610768474139174e+00 -2.1194928315487718e+00 9.6095939085441007e-02 4.2548479457805648e+00 -1.4987169628249402e+00 1.7986260014373878e-01 5.0361558881297216e-02 -1.4530864855141561e+00 -2.5970727263676413e-01 6.9816702980289261e-02 -4.8452335648466471e+00 -1.0720714197544223e-01 2.9162129692310010e+00 4.5288463582647251e+00 1.4523375777749223e+00 -5.2725489595504911e+00 2.9221651677431815e-01 1.7144179186886438e-03 -5.1745810667852547e-02 -3.6567202753898953e+00 
        </Neuron>
        <Neuron NSynapses="37">
          -4.7565471012300096e+00 1.9880040526683076e+00 1.1217773666167230e+00 -1.2988479371284634e-01 -3.1107246753481443e-01 8.4822731794419226e-01 -7.0099240486122936e+00 4.2507102808645575e-01 7.7316343449461000e-01 -1.8585517127005302e-01 -5.1470140234603390e+00 -1.6159182082838849e-01 3.6990500947200694e-01 -5.7580443792575844e+00 3.9795232715582243e+00 -1.0937361899895950e+00 7.6846411004026532e-02 2.9349455955583230e+00 6.3820290002143434e+00 1.0497481056874585e+00 2.3263606203464912e-01 2.5229519713552091e+00 -3.1352753568922300e+00 2.9227015150206981e-01 3.8125182037550176e+00 -1.8471142286200340e-01 -4.2591101548562674e-02 2.4754326324946330e-01 -9.9789185773751093e-02 2.8307454435413343e-01 -2.9612937450385504e+00 8.7240185855285346e-01 -1.3813292893352405e+00 -1.4553557041492611e+00 -3.9340486961428772e-01 4.1346611559757461e-02 -3.5076598847109959e+00 
        </Neuron>
        <Neuron NSynapses="37">
          4.8482573546910652e+00 -3.2044900057388448e+00 -4.5946881614402652e-01 7.8572515592758296e-02 1.0314767092988227e-01 -7.4389976052651419e-01 1.3219114664214737e-01 1.0549637779788543e-01 2.3454644125289783e+00 8.3658742276842182e-02 2.6292112974101728e-01 7.4238243184477859e-01 2.0328676083676325e-01 -1.6657164560185617e-01 -2.6434616657943621e-01 1.1421352342092400e-01 -8.6305811890440842e-02 3.3179347320496483e-01 5.6098109080636539e-02 -2.5346009602835440e-01 3.9203085534136362e+00 1.4266075977855903e-02 -2.5838175684372993e+00 2.4445461564871249e-01 8.1737924609389112e-02 -3.6230691641645012e+00 2.4647858865027397e-01 4.4017351751147489e+00 3.7119766521556348e+00 2.0094942993049852e-02 2.5280914457187631e+00 1.5893563260873564e+00 6.4164271629711209e-02 -4.7450229361002305e-01 7.3721052928461077e+00 2.4047080003067739e-02 -4.6476435421525153e-01 
        </Neuron>
        <Neuron NSynapses="37">
          -2.4738194213514775e+00 -9.6184507891114301e-01 -1.4860472411791728e+00 -4.9177246014187809e-01 -5.8244217566038454e+00 7.3443323073220890e-01 -1.1446446839330426e+01 1.8623724199743783e+01 4.5386476246562674e-01 2.1604407515387574e+00 -3.1974476578582373e-01 9.8686798877441839e-01 2.2110309827394889e+01 -9.4754248016552856e-02 -1.1826891470888763e-01 8.6706153327990088e-01 -6.3007727418085946e-01 6.5095180061400182e-01 -2.9584781626831664e+00 -1.4524326548810151e+00 -3.4065510608241292e+00 -6.0923031974995538e+00 7.3040512794172718e-01 1.9221042472977162e-02 -3.3342795080107446e+00 -8.7719909812399155e-01 1.8944705322577868e+00 5.1144096812655997e+00 1.4900832252211167e+00 1.8047189523245470e+00 5.6409520878576314e-01 -2.0466365506580488e+00 -6.9712078884604367e-01 -1.2474150762764413e+00 -2.0684749917491367e+00 5.3822679331252878e-02 4.0704759943244309e+00 
        </Neuron>
        <Neuron NSynapses="37">
          -4.6180061896954063e+00 8.2353204220266107e+00 8.9417259604634747e-01 2.7409228358360377e-01 1.8253920397971871e-01 -7.5639486307298653e-01 -1.9615244549928235e-01 3.4141413173655993e-01 9.7425454614357865e-01 2.8220386901872634e+00 1.5800201551711281e+00 -2.4238897620977926e-01 1.5437710416967901e-01 -1.3670565799672429e-01 5.2785806559143342e+00 2.7561874453857658e+00 3.8963163970815014e-02 -1.9780303662964589e+00 7.2826335453526330e+00 -1.9605049400660235e-01 8.4415336566705967e-01 5.9824731420047730e+00 -3.5185332120564877e-01 -1.1397199104638835e-01 -3.3600566725435850e+00 8.9293721902291150e+00 -5.4041434055351278e-02 -6.7012805246263651e+00 -2.3760447778961207e+00 1.8777791783458611e+00 -1.5327773154467841e+00 -1.2701034962807822e+00 -2.0424935272315947e+00 -1.6851608150825192e-01 7.9318259494883829e+00 -9.9678003962235130e-03 -3.2141259863762781e+00 
        </Neuron>
        <Neuron NSynapses="37">
          -7.2449306139207759e-01 3.6125996493829966e+00 1.2004379155038438e+00 -2.3484636696101881e-02 -6.6972947575533612e-02 -1.2820938546712122e+00 -1.4073404180284060e-01 7.7108209109831877e-02 1.0015749228017790e+00 1.9283881018268040e-03 -2.0566124557484500e+00 -1.5215851904884079e+00 -2.8977657052512623e-01 -1.0910950125931410e-01 1.4355194123285533e-01 2.1576865546363329e+00 4.2960855155061811e-01 5.1104931408690071e+00 -2.4554260253486074e-02 -1.0116085913350034e-01 -3.0214915612154480e-01 3.2321862936530219e+00 -3.1112471869638564e-01 1.4748092154359235e-01 -2.9647060912230381e+00 1.1366219309985117e+00 -1.3325364769887374e-01 -2.3023656117548474e-01 -3.0134776156422434e+00 6.7936992336477262e+00 1.8940910076875794e+00 1.5513557590658081e-01 6.3155339595862961e-02 -3.6899774126967148e-02 2.8409099490578799e-01 -4.1419037411810002e-02 -3.2757999584882513e-01 
        </Neuron>
        <Neuron NSynapses="37">
          6.2155570367951540e+00 4.8473855487256410e+00 8.3641821376234027e-01 -2.1288297785590737e+00 2.8107812104773346e+00 -2.4942701328186225e+00 1.3212715171185959e+01 -2.1364051674065717e+01 1.4381471325302881e+00 8.2099057080680371e-01 9.9278085768930904e+00 -2.5241308874344370e+00 -1.6647033820891295e+01 4.8151915203430390e-01 -4.4274249836629123e+00 1.6986564314543037e-01 -4.0588971206073848e-01 -2.7595008493161104e+00 1.9091464708698591e+00 -2.6095056233156022e+00 -4.6091969169947795e+00 -2.0426486716836143e+00 1.0706634774678114e+00 2.1553112918873989e+00 -5.8540524588999032e+00 -5.6429598163693706e+00 -1.3717151544932493e+01 1.0095335509745973e+00 4.6092225212556509e-01 -5.0970990006611467e+00 2.7096911133211057e+00 -3.8745545582504543e-01 6.9945301668737994e+00 2.1067036074694503e-01 -4.9720865010725053e+00 -3.4987693922661136e+00 -6.9160906254158636e+00 
        </Neuron>
        <Neuron NSynapses="37">
          2.0276930706348462e+00 7.9462653445301390e-01 -1.2865846713446942e+00 4.6995827985602467e-01 2.2247815310246830e+00 1.6555217954109331e+00 8.4632452645478615e+00 -1.0256991019645916e+01 1.7742619672491380e+00 3.9737646263065969e+00 2.5493617820726757e+00 -1.4964826069791104e+00 -1.1596247421636944e+01 -3.7794834077821990e+00 -7.8801888109697140e+00 4.6442834269440519e-01 -8.1531216551421437e+00 9.3255701553474202e-01 5.1810945815756382e+00 7.7195814370189164e-01 -3.0802277020973508e+00 -1.8306005463780120e+00 -9.0268383002404928e-01 -5.0139818764437099e+00 -2.0608284351234740e+00 -4.1456996703541478e+00 -1.5398680362726623e+01 1.0822225349516050e+00 -6.1227353236039994e-01 6.8772186529537005e-01 -3.0885896426752053e+00 -2.2213949282976572e-01 5.3440070602989245e+00 -1.0893515276119381e+00 -1.9757292347649003e-02 1.1681663731983132e+00 -2.2814266955216387e+00 
        </Neuron>
        <Neuron NSynapses="37">
          1.5342889710928302e+00 2.7223155126859272e-01 -1.8424092833424153e+00 2.6551451240510737e-02 3.1410800668693386e+00 -1.4918018362129060e+00 1.6363633723950650e+00 -2.2055691537321355e+01 1.8933344233741816e+00 2.8342605381907066e-01 2.2449264834580465e+00 -2.2516496189190680e+00 -2.3533732924273071e+01 4.2503507921966275e+00 1.1503330566022214e+01 1.3023936783929876e-01 9.3525507035890831e-01 -1.4682942768095941e+00 2.4380465325042007e+00 3.8888903187533743e+00 -8.9219653390423848e-01 -7.9816233953170945e-01 -1.2524791105559339e+00 -2.8147292889972739e+00 1.5074886465881028e+00 4.0759710119615766e+00 -7.5774863932244585e-01 -1.3569760847867347e+00 1.0141196625156741e+00 5.5344316702900622e+00 2.1930181227317838e+00 -2.2674339966237753e-01 -3.4818635285653399e-01 -1.6751954690397164e+00 -4.6938013499387932e+00 1.1154587290618290e+00 -4.4309721504551103e-01 
        </Neuron>
        <Neuron NSynapses="37">
          2.0045897400610890e+00 1.3334234748792324e+00 -7.9339098914169814e-01 1.6691616841205537e+00 -6.1760343078795438e-02 -8.5080420982503224e-01 -2.4731054802897259e-01 -1.6848002119125926e+01 1.3384888271201836e+00 4.4407424592907746e-01 -4.0501673435520038e+00 -8.7573675260146844e-01 -2.5219527481110649e+01 3.6954491873608890e+00 7.0194904315658651e+00 -1.1967178127251010e+00 -1.0114845019184705e-01 -3.9022601505863972e+00 6.4065242152008639e-01 2.1684323584943624e-01 7.7368973192888246e-01 -1.2964759393395386e+00 -1.7909340694843825e+00 1.9161757098764459e-01 1.6879104746163059e-01 -9.6455908125805112e-01 1.7278207578072118e+00 2.9551944376520184e-01 1.0025407801663602e-01 -9.2999188813779965e-01 8.1032813433679662e-01 -1.5180250011002174e+00 4.5034730966785137e+00 4.7705681791443916e-01 -4.8847368567115064e+00 -1.6496803016787978e-01 -8.6734496950621687e-01 
        </Neuron>
        <Neuron NSynapses="37">
          1.3917092013145969e+00 4.3930648334620894e+00 1.0192994640373445e+00 2.2629352282733087e-01 -1.8294801039653290e+00 -4.3691473383950086e-01 -2.8703910570665063e+00 -8.2139585405869777e+00 2.1375837873493890e+00 -2.3218479590575951e+00 7.6688264334541301e-01 -1.1433506774889306e+00 -1.9673062416685205e+01 1.9652210601832347e+00 1.1957886209313134e+01 2.8703058568465907e+00 2.1322128208272506e+00 -1.8527844416416810e+00 3.1564855724313640e-01 -1.0562572764302665e+00 2.5157465084367798e+00 2.9296880458105430e+00 -2.0915991013446935e+00 2.1962942841921698e+00 1.8089825117248854e+00 -1.7059482893044038e+00 2.3827284514820199e+00 2.6242179574079372e+00 -1.7317850954127392e+00 -2.0029339943206361e+00 2.1710275460666155e+00 7.0353235584308904e-01 -6.3645267854596215e+00 -1.8811982960146242e-01 -2.8260928385532957e+00 1.0166293323259898e+00 4.3284120182704386e+00 
        </Neuron>
        <Neuron NSynapses="37">
          8.5825292273570286e-01 -7.3460626034622587e+00 -1.5822021991410242e+00 1.0021426292599125e-01 2.6773861174271241e-01 -1.6265740984947544e-01 7.0281825162047409e-02 2.4057975007873880e-01 -5.1982887257378116e-03 1.1942381309843615e+00 3.5687345360773398e-01 4.6084925194869494e-02 2.5804778234016573e-01 9.1999498894222126e-02 -5.5673160260816168e+00 7.3903187464599496e+00 2.6433735784821361e-01 -3.9675553396687628e+00 5.5274879637626206e+00 -5.8116986412849165e+00 -2.6733441685810204e+00 2.6617514995905940e+00 -7.7866761432459519e-01 -3.0926842157347294e-02 3.1565375876303272e+00 3.5269064165659363e+00 -4.6867484999787407e-02 3.4311756974211483e-01 -1.9793332686392571e+00 5.0824999368520976e+00 7.8568544092307313e-01 -1.7732208681660775e-03 2.9594307899815075e-01 1.6648000475037150e-01 8.5523247845656486e-02 6.9698466793803746e-02 -4.0598928938315098e+00 
        </Neuron>
        <Neuron NSynapses="37">
          -1.4844462085426664e+00 5.0577810236629359e+00 -1.8629263400372778e+00 -1.0551451817283852e-01 -1.0339663519843567e+00 -2.3769911424794002e-01 5.1663562580341360e-01 7.5362873746532977e-01 -7.2548961838284520e-01 -2.4427250628033601e+00 -1.2438644455927779e-01 3.4614856163131469e-01 1.0797792999789353e+00 -3.1114225145762742e-01 7.8516041926119962e-01 -6.5412843943553411e-01 4.8374742410676567e-02 -6.9649311672184766e-01 1.3997740334444708e+00 -3.8261163704180076e-02 -1.1404160160251626e+00 1.6554523942739094e+00 2.4488444864843675e-01 -1.5862895198626914e+00 3.4333860584046936e+00 1.6294368848740781e+00 -5.9054438950259422e+00 -1.8929805050238842e+00 -1.3788209071158244e+00 -1.0635734418002283e+00 4.1789140912213452e-01 5.3861761941270403e-01 1.6622856119345011e+00 2.6756412670152505e+00 9.8354074056701782e-02 -6.1169863740012642e-01 -2.7956047782779740e+00 
        </Neuron>
        <Neuron NSynapses="37">
          5.1204828048946927e-01 3.4140272066999375e+00 -1.0474182818231756e-01 -1.2801916741666686e+00 5.7993709592665077e-01 5.9529997353803565e-01 -1.3452401101393514e+00 -1.4092070939475236e+00 1.0657297767210174e+00 -3.3468142654885900e+00 -1.3987754421113752e+00 -2.1099105330015142e-01 -9.2022056135175234e-01 4.3621030109872408e-02 -1.3733835408544464e+00 -1.0126126767200976e+00 -7.4853899310381333e-01 7.1053692204833507e-01 3.7802119134075749e+00 -9.2818691609672921e-01 9.0680437234697187e-01 1.5671050915612394e+00 -1.2471197218855674e+00 1.6186286615607142e+00 2.1881866497630118e+00 2.9597209068614192e+00 -5.6418175546241374e+00 -2.9192156500575752e+00 -2.5959423023257744e-01 7.0473556419215477e-01 -2.6780627400289858e-01 -1.8857657463405308e-01 -1.8158813281831421e-01 2.7828399064154472e+00 -1.3690965045527146e+00 -8.0145566162514326e-01 -8.1498241952340111e-01 
        </Neuron>
        <Neuron NSynapses="37">
          -3.0637146111343766e-01 1.0588703142877063e+00 -1.4750233330557490e+00 6.2341933254353152e-02 1.8964211338966078e-01 -1.0999976878639538e-01 1.8744417328306540e-01 -1.6027557206031037e-01 -2.0080673128806342e-01 6.2823114864125473e-01 5.1694628913358462e+00 -6.6660991008320375e-02 -1.5588043431412599e-01 1.0316057383944827e-01 -3.9938614745657008e-01 1.6678573587512711e+00 6.4021184617548323e+00 1.2018232792181274e+00 2.3973239852973305e+00 -3.5336096604222733e-01 -8.6205770545705399e-02 2.9703279262301607e-01 1.7747376344547217e-01 -1.2606871016663232e-01 -2.6602776555898182e+00 -2.5662217664254015e+00 -5.0510693255346908e+00 7.4217164775270128e-01 -3.4418828909675864e-01 6.1513044149206123e-02 -4.8854824792201077e+00 7.2157446923577351e-01 -7.0548649280815987e-02 9.3504286800180092e-01 -1.8413384503182004e-01 1.6227426322218658e-01 9.2158142631216605e-02 
        </Neuron>
        <Neuron NSynapses="37">
          1.9305388109926154e+00 -7.3371094144068916e-01 2.0451961434359922e+00 5.8267750779298288e-01 1.2511013909903943e+00 -1.1578430484598228e+00 -1.0969189472877128e+00 3.1065509809118166e+00 6.1584247164468808e-01 3.7591447497640176e+00 1.0757270309147716e+01 -4.1186359470803230e-01 -1.0725538343091289e+01 -7.0847173457092127e-01 -1.1753085668245196e-01 -9.9240247551159499e-01 -2.4537111439553718e+00 -2.1389239851562309e+00 3.9241060111362254e+00 -1.0710884136879188e+00 -3.6177883861158908e+00 2.8994280929010152e-01 1.7626471583145356e+00 1.7894003843914454e+00 2.0801439989946400e+00 9.7740151711719248e-01 -1.2495255311481953e+01 3.5043759310291472e-01 7.2258523718008588e-02 -2.4822328126172061e-01 -1.7915854495190877e+00 -1.3534914324034166e+00 2.3274489774834688e+00 -7.3149179250965002e-01 -3.1098692729535777e+00 4.6162474268087096e-02 -1.0064301866975727e+00 
        </Neuron>
        <Neuron NSynapses="37">
          7.3107232564356928e-01 4.3703592576733294e+00 1.6536323099129397e+00 1.4925799901588894e+00 3.2634371667495354e-01 -5.9856896745654586e-01 8.0267184400260994e-01 6.7292355903888512e-01 -3.3815878762440549e-01 -2.8057753901877605e+00 -2.0367095627279177e+00 -1.3551436383099122e-01 2.9288938055730079e-01 2.5986349819006960e-01 5.6425205054166372e-01 2.6496882397142446e-01 8.9837800830814574e-01 1.3042626564638657e-01 4.5834312528036811e+00 9.5382170718855586e-01 2.9172267037902722e-01 2.2982107915661527e+00 7.8416156302375684e-01 -3.1212896717998895e-01 2.7087324623448397e+00 3.7950090058578660e+00 -5.0400339692884888e+00 -8.2608303461679233e-01 -1.6444591650026377e+00 2.7333809595648345e-01 -2.7779001148754373e-01 -8.9650415146256518e-02 -1.4697304357996577e+00 2.5508973445208203e+00 1.6436917007489413e+00 1.4044649154493376e+00 -2.0627664455201757e+00 
        </Neuron>
        <Neuron NSynapses="37">
          4.4663901889278774e+00 1.9658953421763090e+00 -1.7997383851364930e+00 3.9587894387429906e-01 2.0072363251547820e+01 8.0520844760003285e-01 1.9443227596583334e+01 -5.9268793869167329e+00 1.2139915797180748e+01 -2.7936962379016026e+00 1.4063631252428991e+01 1.6263555841723316e+00 -2.2073043320622734e+01 -5.4987597048563481e+00 -1.5914995193508577e+01 1.4543048527792690e+00 -1.7056350394903223e+01 -1.8080505846195121e+00 9.8499085159017579e+00 -1.3591375251715229e+01 -7.2933973794499343e+00 -4.0998610469733160e-01 1.5112865901944639e+00 -4.3456722753412990e+01 5.7284239282152383e+00 -9.0716174093816715e+00 -2.5225365717421678e+01 8.6809039724890202e-01 3.2364710582137852e+00 1.7835056890203692e+01 4.6251050559890325e+00 -2.0638219579418493e+00 8.0054980063368930e+00 -5.9396779992847000e+00 -3.5452621669029050e+00 1.5517174197343719e+01 -2.9393839300395568e+00 
        </Neuron>
        <Neuron NSynapses="37">
          3.0069094241397081e+00 1.1954552079845633e+00 -2.2319385687213149e+00 1.0882403741319306e+00 -1.8459381317801871e+00 -1.6481970012246985e+00 -1.9456626724382261e+01 3.0682611089561584e+00 -3.0130740198743133e+00 4.5408053031901598e+00 -5.3042053881363538e+00 -2.5998790408156371e+00 6.7782716385067197e+00 5.1266938262880126e+00 -5.3813582277544061e+00 -3.5401736685684199e-01 -5.0616043529017318e-01 2.6323547876187314e+00 -1.0355204958488347e+00 4.7119047437103205e+00 1.9291018163625426e+00 -2.2518434107507237e+00 -1.8422165825314291e-01 1.1619060390742227e+01 -6.1987404464785048e+00 5.6296494834485404e+00 -2.6561939350374488e+00 -2.8455101666397016e+00 3.3071363530495010e+00 -2.1528397566439761e+00 -1.0462243746408972e+00 1.2338620038977550e-01 1.0297021552004988e+00 6.0665771609009838e+00 4.4339117365141343e+00 -5.4711488757453219e-01 -1.5831972534460892e-01 
        </Neuron>
        <Neuron NSynapses="37">
          -2.4872853058191402e+00 -3.1776215311559266e+00 -5.6703128155898319e-01 -2.0875277280403091e+00 -8.8771236665089823e+00 -7.2041747771655762e-01 -2.5045708783054090e+00 1.7146710946482514e+01 7.7965501782586288e-01 2.1300726954568705e+00 -4.6171893579508199e+00 -6.1255681910721849e-01 2.5179724014625297e+01 4.0714362569247919e+00 2.9223597646776005e+00 -1.0694813293970511e+00 6.8890456717963646e+00 -2.4484671423271062e-01 -3.2984675432606996e+00 3.0923018237849482e+00 5.4915196300221769e+00 2.1207707850647978e-01 1.3215619547966334e-01 1.6081228411381584e+01 8.2192679727424306e-02 -6.1371780194103824e-02 9.5709607677108384e+00 -2.2643455068658915e+00 -2.7650169958106168e+00 -3.4450245643704767e+00 -1.8924643373960226e+00 -6.5359444243457543e-01 -3.6064914956757432e-01 8.6313258137268722e-01 2.7675933260191576e+00 -8.2723314710796298e+00 4.0882287787223675e+00 
        </Neuron>
      </Layer>
      <Layer Index="1" NNeurons="38">
        <Neuron NSynapses="1">
          5.6125977553799300e-01 
        </Neuron>
        <Neuron NSynapses="1">
          9.6437121310097906e-01 
        </Neuron>
        <Neuron NSynapses="1">
          3.1921417361166640e+00 
        </Neuron>
        <Neuron NSynapses="1">
          -5.6951850556239867e+00 
        </Neuron>
        <Neuron NSynapses="1">
          8.2362944748654232e-01 
        </Neuron>
        <Neuron NSynapses="1">
          2.2124491956906582e+00 
        </Neuron>
        <Neuron NSynapses="1">
          3.5363045282009892e-01 
        </Neuron>
        <Neuron NSynapses="1">
          -1.3932428385669056e+00 
        </Neuron>
        <Neuron NSynapses="1">
          2.7405798057483790e+00 
        </Neuron>
        <Neuron NSynapses="1">
          -4.2740670025331229e-01 
        </Neuron>
        <Neuron NSynapses="1">
          6.0010351274684748e-01 
        </Neuron>
        <Neuron NSynapses="1">
          5.6064434518666637e+00 
        </Neuron>
        <Neuron NSynapses="1">
          -8.8849623916106413e-01 
        </Neuron>
        <Neuron NSynapses="1">
          -1.6865942990583616e+00 
        </Neuron>
        <Neuron NSynapses="1">
          -1.0321830974475319e+00 
        </Neuron>
        <Neuron NSynapses="1">
          -1.0058541079872532e+00 
        </Neuron>
        <Neuron NSynapses="1">
          -4.7484036277290309e-01 
        </Neuron>
        <Neuron NSynapses="1">
          -4.2216647025541659e-01 
        </Neuron>
        <Neuron NSynapses="1">
          4.7254666021674102e-01 
        </Neuron>
        <Neuron NSynapses="1">
          -6.9577131395236380e-01 
        </Neuron>
        <Neuron NSynapses="1">
          -3.8456486920390853e-01 
        </Neuron>
        <Neuron NSynapses="1">
          4.3043618759872115e-01 
        </Neuron>
        <Neuron NSynapses="1">
          1.2981920318145501e+00 
        </Neuron>
        <Neuron NSynapses="1">
          -9.8237774073105122e-01 
        </Neuron>
        <Neuron NSynapses="1">
          5.9743001189706302e-01 
        </Neuron>
        <Neuron NSynapses="1">
          -4.9189562049498758e-01 
        </Neuron>
        <Neuron NSynapses="1">
          -5.6252219717016594e-01 
        </Neuron>
        <Neuron NSynapses="1">
          3.5655024821626746e-01 
        </Neuron>
        <Neuron NSynapses="1">
          5.8306064226923826e-01 
        </Neuron>
        <Neuron NSynapses="1">
          7.3878953110449352e-01 
        </Neuron>
        <Neuron NSynapses="1">
          8.8898956815950558e-01 
        </Neuron>
        <Neuron NSynapses="1">
          -2.2156391137937259e+00 
        </Neuron>
        <Neuron NSynapses="1">
          5.9137012521777899e-01 
        </Neuron>
        <Neuron NSynapses="1">
          -1.3279537769657326e+00 
        </Neuron>
        <Neuron NSynapses="1">
          -5.9748119630983820e-01 
        </Neuron>
        <Neuron NSynapses="1">
          1.1345743777699624e+00 
        </Neuron>
        <Neuron NSynapses="1">
          -7.1093301255560359e-01 
        </Neuron>
        <Neuron NSynapses="1">
          -7.7972311433884278e-01 
        </Neuron>
      </Layer>
      <Layer Index="2" NNeurons="1">
        <Neuron NSynapses="0"/>
      </Layer>
    </Layout>
  </Weights>
</MethodSetup>
